{"learner":{"attributes":{"best_iteration":"59","best_score":"0.5626147813954443","scikit_learn":"{\"_estimator_type\": \"classifier\"}"},"feature_names":[],"feature_types":[],"gradient_booster":{"model":{"cats":{"enc":[],"feature_segments":[],"sorted_idx":[]},"gbtree_model_param":{"num_parallel_tree":"1","num_trees":"60"},"iteration_indptr":[0,1,2,3,4,5,6,7,8,9,10,11,12,13,14,15,16,17,18,19,20,21,22,23,24,25,26,27,28,29,30,31,32,33,34,35,36,37,38,39,40,41,42,43,44,45,46,47,48,49,50,51,52,53,54,55,56,57,58,59,60],"tree_info":[0,0,0,0,0,0,0,0,0,0,0,0,0,0,0,0,0,0,0,0,0,0,0,0,0,0,0,0,0,0,0,0,0,0,0,0,0,0,0,0,0,0,0,0,0,0,0,0,0,0,0,0,0,0,0,0,0,0,0,0],"trees":[{"base_weights":[-0E0,9.7161883E-1,-1.036081E0,1.2838746E0,-4.4437605E-3,-1.429649E0,1.1807923E-2,7.843554E-2,9.511567E-3,-5.2176327E-3,-8.5444935E-2],"categories":[],"categories_nodes":[],"categories_segments":[],"categories_sizes":[],"default_left":[0,0,0,0,0,0,0,0,0,0,0],"id":0,"left_children":[1,3,5,7,-1,9,-1,-1,-1,-1,-1],"loss_changes":[4.5832108E1,8.122206E0,1.1834555E1,4.940201E0,0E0,5.821186E0,0E0,0E0,0E0,0E0,0E0],"parents":[2147483647,0,0,1,1,2,2,3,3,5,5],"right_children":[2,4,6,8,-1,10,-1,-1,-1,-1,-1],"split_conditions":[4.701616E0,1.01311296E-1,1.6480938E-1,9.964231E-2,-4.4437605E-3,3.765559E-2,1.1807923E-2,7.843554E-2,9.511567E-3,-5.2176327E-3,-8.5444935E-2],"split_indices":[3189,4453,4929,5154,0,493,0,0,0,0,0],"split_type":[0,0,0,0,0,0,0,0,0,0,0],"sum_hessian":[4.1526073E1,2.1477589E1,2.0048487E1,1.6339535E1,5.1380544E0,1.5182819E1,4.8656664E0,1.2201479E1,4.1380553E0,3.1828325E0,1.1999987E1],"tree_param":{"num_deleted":"0","num_feature":"5156","num_nodes":"11","size_leaf_vector":"1"}},{"base_weights":[1.4086859E-1,9.5353657E-1,-7.787351E-1,1.1941397E0,-1.5547118E-2,-1.1295353E0,2.3085661E-2,-5.520822E-3,7.809781E-2,3.9282585E-3,-7.1659654E-2],"categories":[],"categories_nodes":[],"categories_segments":[],"categories_sizes":[],"default_left":[0,0,0,0,0,0,0,0,0,0,0],"id":1,"left_children":[1,3,5,7,-1,9,-1,-1,-1,-1,-1],"loss_changes":[3.248917E1,7.8186855E0,1.0028154E1,9.979351E0,0E0,6.4576187E0,0E0,0E0,0E0,0E0,0E0],"parents":[2147483647,0,0,1,1,2,2,3,3,5,5],"right_children":[2,4,6,8,-1,10,-1,-1,-1,-1,-1],"split_conditions":[4.767758E0,1.3006149E-1,1.4719567E-1,1.7423445E-2,-1.5547118E-2,4.375975E-2,2.3085661E-2,-5.520822E-3,7.809781E-2,3.9282585E-3,-7.1659654E-2],"split_indices":[3189,98,1591,4228,0,447,0,0,0,0,0],"split_type":[0,0,0,0,0,0,0,0,0,0,0],"sum_hessian":[3.9462917E1,2.0968061E1,1.8494854E1,1.7776007E1,3.1920538E0,1.4619801E1,3.8750536E0,4.157632E0,1.3618376E1,3.168232E0,1.1451569E1],"tree_param":{"num_deleted":"0","num_feature":"5156","num_nodes":"11","size_leaf_vector":"1"}},{"base_weights":[-1.2407872E-1,8.24728E-1,-8.986518E-1,1.1560719E0,-2.0746445E-2,-1.2613959E0,2.566092E-2,7.152015E-2,1.3026845E-3,-7.4105285E-2,-3.7579306E-3],"categories":[],"categories_nodes":[],"categories_segments":[],"categories_sizes":[],"default_left":[0,0,0,0,0,0,0,0,0,0,0],"id":2,"left_children":[1,3,5,7,-1,9,-1,-1,-1,-1,-1],"loss_changes":[3.1096588E1,8.875319E0,1.3248581E1,4.6333675E0,0E0,4.619034E0,0E0,0E0,0E0,0E0,0E0],"parents":[2147483647,0,0,1,1,2,2,3,3,5,5],"right_children":[2,4,6,8,-1,10,-1,-1,-1,-1,-1],"split_conditions":[1.6498777E-1,1.1908641E-1,2.6227185E-1,9.863044E-2,-2.0746445E-2,2.8722568E0,2.566092E-2,7.152015E-2,1.3026845E-3,-7.4105285E-2,-3.7579306E-3],"split_indices":[1215,949,735,5154,0,2016,0,0,0,0,0],"split_type":[0,0,0,0,0,0,0,0,0,0,0],"sum_hessian":[3.8285885E1,1.709136E1,2.1194523E1,1.365664E1,3.4347198E0,1.7088144E1,4.10638E0,1.0489899E1,3.1667414E0,1.3915844E1,3.1722999E0],"tree_param":{"num_deleted":"0","num_feature":"5156","num_nodes":"11","size_leaf_vector":"1"}},{"base_weights":[-3.515829E-2,7.6371527E-1,-8.5349786E-1,1.1952604E0,-1.8283899E-1,-7.034164E-2,1.7934546E-1,7.3896654E-2,3.4632818E-3,-5.6994595E-2,4.722079E-2,5.1170677E-2,-2.6680222E-2],"categories":[],"categories_nodes":[],"categories_segments":[],"categories_sizes":[],"default_left":[0,0,0,0,0,0,0,0,0,0,0,0,0],"id":3,"left_children":[1,3,5,7,9,-1,11,-1,-1,-1,-1,-1,-1],"loss_changes":[2.9617287E1,9.893423E0,1.3425531E1,4.7549114E0,1.1702879E1,0E0,6.8717923E0,0E0,0E0,0E0,0E0,0E0,0E0],"parents":[2147483647,0,0,1,1,2,2,3,3,4,4,6,6],"right_children":[2,4,6,8,10,-1,12,-1,-1,-1,-1,-1,-1],"split_conditions":[4.701616E0,9.988515E-2,4.8523515E-2,3.6399426E0,2.8630228E0,-7.034164E-2,1.0749951E-1,7.3896654E-2,3.4632818E-3,-5.6994595E-2,4.722079E-2,5.1170677E-2,-2.6680222E-2],"split_indices":[3189,1625,817,2456,3061,0,484,0,0,0,0,0,0],"split_type":[0,0,0,0,0,0,0,0,0,0,0,0,0],"sum_hessian":[4.129584E1,2.0902174E1,2.0393667E1,1.4068382E1,6.8337917E0,1.2870865E1,7.522802E0,1.0674663E1,3.3937197E0,3.7317667E0,3.1020248E0,3.1100821E0,4.4127197E0],"tree_param":{"num_deleted":"0","num_feature":"5156","num_nodes":"13","size_leaf_vector":"1"}},{"base_weights":[3.831896E-2,7.5421E-1,-8.0833215E-1,6.664366E-2,4.5850333E-2,-1.183056E0,1.7948128E-2,-5.404658E-2,5.5384964E-2,-5.7820213E-4,-7.25415E-2],"categories":[],"categories_nodes":[],"categories_segments":[],"categories_sizes":[],"default_left":[0,0,0,0,0,0,0,0,0,0,0],"id":4,"left_children":[1,3,5,-1,7,9,-1,-1,-1,-1,-1],"loss_changes":[2.790658E1,9.971461E0,1.0151697E1,0E0,1.8396313E1,4.9919567E0,0E0,0E0,0E0,0E0,0E0],"parents":[2147483647,0,0,1,1,2,2,4,4,5,5],"right_children":[2,4,6,-1,8,10,-1,-1,-1,-1,-1],"split_conditions":[4.767758E0,2.1101093E0,2.9364684E-1,6.664366E-2,3.5703516E-1,1.4958556E0,1.7948128E-2,-5.404658E-2,5.5384964E-2,-5.7820213E-4,-7.25415E-2],"split_indices":[3189,2004,5109,0,3932,2962,0,0,0,0,0],"split_type":[0,0,0,0,0,0,0,0,0,0,0],"sum_hessian":[4.203935E1,2.296101E1,1.907834E1,1.1589247E1,1.1371763E1,1.44865465E1,4.591794E0,5.454063E0,5.917701E0,3.1528547E0,1.1333692E1],"tree_param":{"num_deleted":"0","num_feature":"5156","num_nodes":"11","size_leaf_vector":"1"}},{"base_weights":[4.5768465E-3,8.532539E-1,-7.1603125E-1,-1.7400226E-2,1.2093798E0,1.559868E-1,-1.1830238E0,5.5681225E-3,7.154607E-2,4.0779065E-2,-3.3729207E-2,-5.1215766E-3,-7.179297E-2],"categories":[],"categories_nodes":[],"categories_segments":[],"categories_sizes":[],"default_left":[0,0,0,0,0,0,0,0,0,0,0,0,0],"id":5,"left_children":[1,3,5,-1,7,9,11,-1,-1,-1,-1,-1,-1],"loss_changes":[2.8477493E1,1.0096018E1,1.06987095E1,0E0,3.6725178E0,6.8399076E0,4.104471E0,0E0,0E0,0E0,0E0,0E0,0E0],"parents":[2147483647,0,0,1,1,2,2,4,4,5,5,6,6],"right_children":[2,4,6,-1,8,10,12,-1,-1,-1,-1,-1,-1],"split_conditions":[1.6498777E-1,1.2818089E-1,7.2569035E-2,-1.7400226E-2,1.7476782E-2,3.068512E-3,2.7633867E0,5.5681225E-3,7.154607E-2,4.0779065E-2,-3.3729207E-2,-5.1215766E-3,-7.179297E-2],"split_indices":[1215,4353,4155,0,966,4176,2145,0,0,0,0,0,0],"split_type":[0,0,0,0,0,0,0,0,0,0,0,0,0],"sum_hessian":[4.2544605E1,1.9430946E1,2.3113659E1,4.3894796E0,1.5041467E1,8.450955E0,1.4662704E1,3.1056721E0,1.1935795E1,4.7975187E0,3.6534362E0,3.3881006E0,1.1274604E1],"tree_param":{"num_deleted":"0","num_feature":"5156","num_nodes":"13","size_leaf_vector":"1"}},{"base_weights":[-3.394413E-2,5.8541185E-1,-9.459942E-1,8.840287E-1,-1.8852746E-2,1.4540105E-2,-1.2522161E0,-6.0052313E-3,1.166169E0,-7.109164E-2,-2.2410812E-2,7.082508E-2,4.7077895E-3],"categories":[],"categories_nodes":[],"categories_segments":[],"categories_sizes":[],"default_left":[0,0,0,0,0,0,0,0,0,0,0,0,0],"id":6,"left_children":[1,3,5,7,-1,-1,9,-1,11,-1,-1,-1,-1],"loss_changes":[2.5096905E1,8.311946E0,7.6338844E0,6.290125E0,0E0,0E0,5.639572E-1,0E0,4.020012E0,0E0,0E0,0E0,0E0],"parents":[2147483647,0,0,1,1,2,2,3,3,6,6,8,8],"right_children":[2,4,6,8,-1,-1,10,-1,12,-1,-1,-1,-1],"split_conditions":[2.538385E-1,8.579138E-2,2.1828999E-1,1.3738145E-1,-1.8852746E-2,1.4540105E-2,1.2647355E-1,-6.0052313E-3,2.297834E0,-7.109164E-2,-2.2410812E-2,7.082508E-2,4.7077895E-3],"split_indices":[1215,78,4384,4638,0,0,1071,0,2178,0,0,0,0],"split_type":[0,0,0,0,0,0,0,0,0,0,0,0,0],"sum_hessian":[4.040387E1,2.4424372E1,1.5979499E1,1.8844526E1,5.579846E0,3.1264129E0,1.28530855E1,4.307695E0,1.4536831E1,9.242052E0,3.6110344E0,1.1188223E1,3.3486078E0],"tree_param":{"num_deleted":"0","num_feature":"5156","num_nodes":"13","size_leaf_vector":"1"}},{"base_weights":[2.7831266E-2,9.651874E-1,-4.46038E-1,4.7642342E-4,6.6115476E-2,6.915533E-1,-8.664762E-1,-1.802265E-3,5.5820085E-2,-1.1598656E0,1.9954717E-2,-9.6768355E-3,-7.10546E-2],"categories":[],"categories_nodes":[],"categories_segments":[],"categories_sizes":[],"default_left":[0,0,0,0,0,0,0,0,0,0,0,0,0],"id":7,"left_children":[1,3,5,-1,-1,7,9,-1,-1,11,-1,-1,-1],"loss_changes":[1.9305477E1,4.8268013E0,1.49907875E1,0E0,0E0,2.9149346E0,9.163332E0,0E0,0E0,3.93824E0,0E0,0E0,0E0],"parents":[2147483647,0,0,1,1,2,2,5,5,6,6,9,9],"right_children":[2,4,6,-1,-1,8,10,-1,-1,12,-1,-1,-1],"split_conditions":[3.5898916E-2,6.21469E-1,1.1617015E-1,4.7642342E-4,6.6115476E-2,1.10159464E-1,4.0408885E-1,-1.802265E-3,5.5820085E-2,7.4936435E-2,1.9954717E-2,-9.6768355E-3,-7.10546E-2],"split_indices":[669,2696,1215,0,0,4899,3933,0,0,902,0,0,0],"split_type":[0,0,0,0,0,0,0,0,0,0,0,0,0],"sum_hessian":[3.9407455E1,1.260702E1,2.6800436E1,4.064308E0,8.542712E0,6.8199577E0,1.9980478E1,3.1021419E0,3.717816E0,1.6419994E1,3.5604846E0,4.316598E0,1.2103396E1],"tree_param":{"num_deleted":"0","num_feature":"5156","num_nodes":"13","size_leaf_vector":"1"}},{"base_weights":[-7.7154418E-3,9.2945856E-1,-4.2414284E-1,-7.789669E-3,6.484768E-2,-9.500258E-1,4.03946E-1,-1.1936513E0,3.387891E-4,-2.1502584E-2,9.23153E-1,-6.889E-2,-1.2866229E-2,6.010685E-2,1.0782965E-2],"categories":[],"categories_nodes":[],"categories_segments":[],"categories_sizes":[],"default_left":[0,0,0,0,0,0,0,0,0,0,0,0,0,0,0],"id":8,"left_children":[1,3,5,-1,-1,7,9,11,-1,-1,13,-1,-1,-1,-1],"loss_changes":[1.701829E1,5.8571177E0,1.403002E1,0E0,0E0,4.6151066E0,6.5199623E0,1.785141E0,0E0,0E0,1.0744963E0,0E0,0E0,0E0,0E0],"parents":[2147483647,0,0,1,1,2,2,5,5,6,6,7,7,10,10],"right_children":[2,4,6,-1,-1,8,10,12,-1,-1,14,-1,-1,-1,-1],"split_conditions":[2.9394368E-2,1.0510185E0,4.6679456E-2,-7.789669E-3,6.484768E-2,2.2945316E-1,7.282588E-2,5.6981817E-2,3.387891E-4,-2.1502584E-2,3.6394749E0,-6.889E-2,-1.2866229E-2,6.010685E-2,1.0782965E-2],"split_indices":[1571,2802,817,0,0,1411,615,968,0,0,3565,0,0,0,0],"split_type":[0,0,0,0,0,0,0,0,0,0,0,0,0,0,0],"sum_hessian":[3.9716213E1,1.1386556E1,2.8329659E1,3.1030216E0,8.283534E0,1.7220152E1,1.1109507E1,1.3414033E1,3.8061187E0,4.320443E0,6.7890635E0,1.0332197E1,3.0818357E0,3.764842E0,3.0242214E0],"tree_param":{"num_deleted":"0","num_feature":"5156","num_nodes":"15","size_leaf_vector":"1"}},{"base_weights":[7.0018077E-4,7.6765007E-1,-6.038355E-1,-1.7985161E-2,1.1083374E0,3.9829247E-2,-8.915866E-1,4.912663E-3,6.624424E-2,-1.0873967E0,8.1362985E-3,-0E0,-6.4669125E-2],"categories":[],"categories_nodes":[],"categories_segments":[],"categories_sizes":[],"default_left":[0,0,0,0,0,0,0,0,0,0,0,0,0],"id":9,"left_children":[1,3,5,-1,7,-1,9,-1,-1,11,-1,-1,-1],"loss_changes":[2.102759E1,8.571906E0,1.1613148E1,0E0,3.08679E0,0E0,4.9810963E0,0E0,0E0,4.134218E0,0E0,0E0,0E0],"parents":[2147483647,0,0,1,1,2,2,4,4,6,6,9,9],"right_children":[2,4,6,-1,8,-1,10,-1,-1,12,-1,-1,-1],"split_conditions":[1.6498777E-1,3.6176052E-2,2.0486789E-2,-1.7985161E-2,4.9759794E-2,3.9829247E-2,1.400387E-1,4.912663E-3,6.624424E-2,2.762901E-1,8.1362985E-3,-0E0,-6.4669125E-2],"split_indices":[1215,4681,4225,0,4574,0,4517,0,0,4525,0,0,0],"split_type":[0,0,0,0,0,0,0,0,0,0,0,0,0],"sum_hessian":[4.131759E1,1.8047386E1,2.3270205E1,4.094221E0,1.3953164E1,3.304379E0,1.9965824E1,3.0580685E0,1.0895096E1,1.6865587E1,3.1002386E0,3.0592244E0,1.3806362E1],"tree_param":{"num_deleted":"0","num_feature":"5156","num_nodes":"13","size_leaf_vector":"1"}},{"base_weights":[-3.993409E-2,4.4688773E-1,-7.241722E-1,-3.0523866E-2,7.530189E-1,-1.047964E0,1.0903133E-2,1.0987998E0,-9.845645E-3,-0E0,-6.5978475E-2,6.49547E-2,5.4979254E-3],"categories":[],"categories_nodes":[],"categories_segments":[],"categories_sizes":[],"default_left":[0,0,0,0,0,0,0,0,0,0,0,0,0],"id":10,"left_children":[1,3,5,-1,7,9,-1,11,-1,-1,-1,-1,-1],"loss_changes":[1.5345008E1,9.635767E0,6.384533E0,0E0,7.6890297E0,4.185112E0,0E0,2.816763E0,0E0,0E0,0E0,0E0,0E0],"parents":[2147483647,0,0,1,1,2,2,4,4,5,5,7,7],"right_children":[2,4,6,-1,8,10,-1,12,-1,-1,-1,-1,-1],"split_conditions":[4.1340837E0,5.719263E-1,1.4010787E-1,-3.0523866E-2,3.255035E-1,4.4480894E-2,1.0903133E-2,1.06535956E-1,-9.845645E-3,-0E0,-6.5978475E-2,6.49547E-2,5.4979254E-3],"split_indices":[2106,2048,403,0,5021,669,0,1397,0,0,0,0,0],"split_type":[0,0,0,0,0,0,0,0,0,0,0,0,0],"sum_hessian":[4.2040657E1,2.4883884E1,1.7156773E1,5.0671506E0,1.9816734E1,1.2680817E1,4.4759564E0,1.4375725E1,5.441009E0,3.0180213E0,9.662795E0,1.1348418E1,3.0273068E0],"tree_param":{"num_deleted":"0","num_feature":"5156","num_nodes":"13","size_leaf_vector":"1"}},{"base_weights":[-7.527939E-2,6.2441754E-1,-6.977679E-1,-1.9126061E-2,1.0299107E0,-1.1248728E0,6.5510646E-2,6.646281E-2,-1.6820116E-3,-6.541919E-2,-1.2694684E-2,3.5443995E-2,-3.5107948E-2],"categories":[],"categories_nodes":[],"categories_segments":[],"categories_sizes":[],"default_left":[0,0,0,0,0,0,0,0,0,0,0,0,0],"id":11,"left_children":[1,3,5,-1,7,9,11,-1,-1,-1,-1,-1,-1],"loss_changes":[1.7914755E1,8.77161E0,7.333687E0,0E0,4.8159475E0,1.4363041E0,5.7368608E0,0E0,0E0,0E0,0E0,0E0,0E0],"parents":[2147483647,0,0,1,1,2,2,4,4,5,5,6,6],"right_children":[2,4,6,-1,8,10,12,-1,-1,-1,-1,-1,-1],"split_conditions":[4.438861E0,1.1038646E-1,4.8523515E-2,-1.9126061E-2,3.8852327E0,1.4050192E-1,7.487199E-2,6.646281E-2,-1.6820116E-3,-6.541919E-2,-1.2694684E-2,3.5443995E-2,-3.5107948E-2],"split_indices":[3189,4375,817,0,2037,72,1404,0,0,0,0,0,0],"split_type":[0,0,0,0,0,0,0,0,0,0,0,0,0],"sum_hessian":[3.7113518E1,1.7394596E1,1.9718924E1,4.955519E0,1.2439076E1,1.2120333E1,7.5985913E0,9.3904295E0,3.0486465E0,9.086617E0,3.0337152E0,4.288179E0,3.3104126E0],"tree_param":{"num_deleted":"0","num_feature":"5156","num_nodes":"13","size_leaf_vector":"1"}},{"base_weights":[-1.4951158E-2,6.474756E-1,-6.270499E-1,1.0207348E0,-1.0184826E-2,-1.0176971E0,2.676472E-1,9.337703E-5,6.363001E-2,-0E0,-6.459221E-2,-2.7301744E-2,4.8075665E-2],"categories":[],"categories_nodes":[],"categories_segments":[],"categories_sizes":[],"default_left":[0,0,0,0,0,0,0,0,0,0,0,0,0],"id":12,"left_children":[1,3,5,7,-1,9,11,-1,-1,-1,-1,-1,-1],"loss_changes":[1.7482235E1,7.0591154E0,8.4717045E0,3.658389E0,0E0,4.4567604E0,5.7965937E0,0E0,0E0,0E0,0E0,0E0,0E0],"parents":[2147483647,0,0,1,1,2,2,3,3,5,5,6,6],"right_children":[2,4,6,8,-1,10,12,-1,-1,-1,-1,-1,-1],"split_conditions":[1.3973537E-1,1.1429618E-1,1.2786084E-1,4.40873E-2,-1.0184826E-2,7.499497E-3,4.7152963E-2,9.337703E-5,6.363001E-2,-0E0,-6.459221E-2,-2.7301744E-2,4.8075665E-2],"split_indices":[835,423,4242,1491,0,4847,630,0,0,0,0,0,0],"split_type":[0,0,0,0,0,0,0,0,0,0,0,0,0],"sum_hessian":[3.911834E1,1.865285E1,2.0465488E1,1.2771366E1,5.881484E0,1.4131945E1,6.3335443E0,3.0093906E0,9.761975E0,3.4498065E0,1.06821375E1,3.0448737E0,3.2886705E0],"tree_param":{"num_deleted":"0","num_feature":"5156","num_nodes":"13","size_leaf_vector":"1"}},{"base_weights":[-2.5652782E-3,6.2294865E-1,-6.0706943E-1,-1.2624951E-2,9.935222E-1,-9.496852E-1,1.9063175E-2,-0E0,6.445434E-2,-0E0,-6.282621E-2],"categories":[],"categories_nodes":[],"categories_segments":[],"categories_sizes":[],"default_left":[0,0,0,0,0,0,0,0,0,0,0],"id":13,"left_children":[1,3,5,-1,7,9,-1,-1,-1,-1,-1],"loss_changes":[1.5950731E1,7.2771263E0,8.0718775E0,0E0,4.4754457E0,4.8272114E0,0E0,0E0,0E0,0E0,0E0],"parents":[2147483647,0,0,1,1,2,2,4,4,5,5],"right_children":[2,4,6,-1,8,10,-1,-1,-1,-1,-1],"split_conditions":[1.6498777E-1,1.7423445E-2,1.12369835E-1,-1.2624951E-2,1.6090724E-1,2.7280273E0,1.9063175E-2,-0E0,6.445434E-2,-0E0,-6.282621E-2],"split_indices":[1215,4228,1789,0,3949,3563,0,0,0,0,0],"split_type":[0,0,0,0,0,0,0,0,0,0,0],"sum_hessian":[3.818762E1,1.865638E1,1.9531239E1,5.6577773E0,1.2998602E1,1.4636673E1,4.8945656E0,3.3961189E0,9.602484E0,4.075745E0,1.0560927E1],"tree_param":{"num_deleted":"0","num_feature":"5156","num_nodes":"11","size_leaf_vector":"1"}},{"base_weights":[-5.650352E-2,5.549081E-1,-7.1636444E-1,-1.8443763E-2,8.526131E-1,-1.0571946E0,1.2679826E-2,1.126865E0,-7.836317E-3,-1.5992094E-2,-6.2582724E-2,6.326421E-2,1.9165631E-2],"categories":[],"categories_nodes":[],"categories_segments":[],"categories_sizes":[],"default_left":[0,0,0,0,0,0,0,0,0,0,0,0,0],"id":14,"left_children":[1,3,5,-1,7,9,-1,11,-1,-1,-1,-1,-1],"loss_changes":[1.6363047E1,6.4682803E0,7.060091E0,0E0,5.048238E0,1.1766396E0,0E0,2.4261093E-1,0E0,0E0,0E0,0E0,0E0],"parents":[2147483647,0,0,1,1,2,2,4,4,5,5,7,7],"right_children":[2,4,6,-1,8,10,-1,12,-1,-1,-1,-1,-1],"split_conditions":[4.701616E0,1.5848854E0,3.744854E-2,-1.8443763E-2,3.0282015E-1,8.244584E-2,1.2679826E-2,3.9037116E-2,-7.836317E-3,-1.5992094E-2,-6.2582724E-2,6.326421E-2,1.9165631E-2],"split_indices":[3189,3388,4751,0,4843,962,0,1090,0,0,0,0,0],"split_type":[0,0,0,0,0,0,0,0,0,0,0,0,0],"sum_hessian":[3.654752E1,1.9056643E1,1.749088E1,4.4461465E0,1.4610496E1,1.2886112E1,4.6047664E0,1.1383606E1,3.2268894E0,3.9003928E0,8.98572E0,8.300542E0,3.0830638E0],"tree_param":{"num_deleted":"0","num_feature":"5156","num_nodes":"13","size_leaf_vector":"1"}},{"base_weights":[4.5376882E-2,9.0694E-1,-3.8441506E-1,5.8902062E-2,-8.528544E-4,-9.433418E-1,2.8391215E-1,-6.156082E-2,-6.078728E-4,-2.9365404E-2,8.3560264E-1,2.6398355E-3,5.9670545E-2],"categories":[],"categories_nodes":[],"categories_segments":[],"categories_sizes":[],"default_left":[0,0,0,0,0,0,0,0,0,0,0,0,0],"id":15,"left_children":[1,3,5,-1,-1,7,9,-1,-1,-1,11,-1,-1],"loss_changes":[1.536527E1,3.6155357E0,1.09343195E1,0E0,0E0,4.029581E0,7.7610903E0,0E0,0E0,0E0,2.4103951E0,0E0,0E0],"parents":[2147483647,0,0,1,1,2,2,5,5,6,6,10,10],"right_children":[2,4,6,-1,-1,8,10,-1,-1,-1,12,-1,-1],"split_conditions":[2.1101093E0,3.887368E-2,5.143565E-2,5.8902062E-2,-8.528544E-4,6.8092376E-2,3.6975168E-2,-6.156082E-2,-6.078728E-4,-2.9365404E-2,1.5232961E-1,2.6398355E-3,5.9670545E-2],"split_indices":[2004,4760,1124,0,0,57,1046,0,0,0,4434,0,0],"split_type":[0,0,0,0,0,0,0,0,0,0,0,0,0],"sum_hessian":[3.747074E1,1.1809554E1,2.5661188E1,8.789155E0,3.020399E0,1.360765E1,1.2053538E1,9.820004E0,3.7876446E0,4.553053E0,7.500486E0,3.1605299E0,4.339956E0],"tree_param":{"num_deleted":"0","num_feature":"5156","num_nodes":"13","size_leaf_vector":"1"}},{"base_weights":[2.9527562E-2,8.2104164E-1,-3.4143552E-1,-2.1077993E-3,5.8865514E-2,-8.2123655E-1,4.2968902E-1,-1.135853E0,1.6639275E-2,5.162208E-2,-2.4981964E-2,-6.614562E-2,-1.3375576E-2],"categories":[],"categories_nodes":[],"categories_segments":[],"categories_sizes":[],"default_left":[0,0,0,0,0,0,0,0,0,0,0,0,0],"id":16,"left_children":[1,3,5,-1,-1,7,9,11,-1,-1,-1,-1,-1],"loss_changes":[1.1439221E1,4.0397863E0,1.0528006E1,0E0,0E0,7.032813E0,7.4567356E0,1.3961582E0,0E0,0E0,0E0,0E0,0E0],"parents":[2147483647,0,0,1,1,2,2,5,5,6,6,7,7],"right_children":[2,4,6,-1,-1,8,10,12,-1,-1,-1,-1,-1],"split_conditions":[1.6785123E0,1.0248598E0,9.9281445E-2,-2.1077993E-3,5.8865514E-2,5.269621E-2,4.303509E-1,2.330733E0,1.6639275E-2,5.162208E-2,-2.4981964E-2,-6.614562E-2,-1.3375576E-2],"split_indices":[3225,3288,1603,0,0,4170,4711,3846,0,0,0,0,0],"split_type":[0,0,0,0,0,0,0,0,0,0,0,0,0],"sum_hessian":[3.488612E1,1.044434E1,2.4441782E1,3.4844873E0,6.9598517E0,1.5066792E1,9.374991E0,1.1931967E1,3.1348238E0,5.617339E0,3.7576523E0,8.860974E0,3.0709927E0],"tree_param":{"num_deleted":"0","num_feature":"5156","num_nodes":"13","size_leaf_vector":"1"}},{"base_weights":[6.2081646E-2,7.355588E-1,-6.1110353E-1,1.0173165E0,-7.680544E-3,2.354864E-1,-5.480283E-2,9.901444E-3,6.2392276E-2,-2.6826639E-2,5.003227E-2],"categories":[],"categories_nodes":[],"categories_segments":[],"categories_sizes":[],"default_left":[0,0,0,0,0,0,0,0,0,0,0],"id":17,"left_children":[1,3,5,7,-1,9,-1,-1,-1,-1,-1],"loss_changes":[1.7843643E1,5.322158E0,8.688469E0,2.2453098E0,0E0,6.2856674E0,0E0,0E0,0E0,0E0,0E0],"parents":[2147483647,0,0,1,1,2,2,3,3,5,5],"right_children":[2,4,6,8,-1,10,-1,-1,-1,-1,-1],"split_conditions":[9.679366E-2,5.949E-2,1.8383479E-1,3.5319667E-2,-7.680544E-3,3.6092353E0,-5.480283E-2,9.901444E-3,6.2392276E-2,-2.6826639E-2,5.003227E-2],"split_indices":[166,669,1445,87,0,3262,0,0,0,0,0],"split_type":[0,0,0,0,0,0,0,0,0,0,0],"sum_hessian":[3.5347004E1,1.7651293E1,1.7695711E1,1.3270423E1,4.3808703E0,6.744448E0,1.0951262E1,3.8257477E0,9.444675E0,3.5895827E0,3.1548655E0],"tree_param":{"num_deleted":"0","num_feature":"5156","num_nodes":"11","size_leaf_vector":"1"}},{"base_weights":[7.2972365E-2,6.0551834E-1,-4.3385544E-1,-2.0755857E-2,9.2171204E-1,-7.204592E-1,2.452525E-2,-1.9764404E-3,5.8722753E-2,7.182933E-3,-5.617978E-2],"categories":[],"categories_nodes":[],"categories_segments":[],"categories_sizes":[],"default_left":[0,0,0,0,0,0,0,0,0,0,0],"id":18,"left_children":[1,3,5,-1,7,9,-1,-1,-1,-1,-1],"loss_changes":[1.1060866E1,7.248897E0,6.302725E0,0E0,4.072793E0,6.325468E0,0E0,0E0,0E0,0E0,0E0],"parents":[2147483647,0,0,1,1,2,2,4,4,5,5],"right_children":[2,4,6,-1,8,10,-1,-1,-1,-1,-1],"split_conditions":[1.6498777E-1,1.2818089E-1,8.15144E-2,-2.0755857E-2,1.17626585E-1,1.4970568E-1,2.452525E-2,-1.9764404E-3,5.8722753E-2,7.182933E-3,-5.617978E-2],"split_indices":[1215,4353,371,0,4757,1457,0,0,0,0,0],"split_type":[0,0,0,0,0,0,0,0,0,0,0],"sum_hessian":[3.696973E1,1.7933784E1,1.9035946E1,4.0189896E0,1.3914795E1,1.4949968E1,4.0859766E0,3.1658537E0,1.074894E1,5.0864553E0,9.863513E0],"tree_param":{"num_deleted":"0","num_feature":"5156","num_nodes":"11","size_leaf_vector":"1"}},{"base_weights":[-1.5050586E-2,5.159062E-2,-2.948557E-1,-9.3458164E-1,1.74576E-1,-5.7810433E-2,-3.8959023E-3,-3.427761E-1,4.5511037E-2,2.7044196E-2,-7.771662E-1,-2.993764E-4,-5.584982E-2],"categories":[],"categories_nodes":[],"categories_segments":[],"categories_sizes":[],"default_left":[0,0,0,0,0,0,0,0,0,0,0,0,0],"id":19,"left_children":[1,-1,3,5,7,-1,-1,9,-1,-1,11,-1,-1],"loss_changes":[1.1601152E1,0E0,9.844771E0,2.299859E0,8.189785E0,0E0,0E0,5.837843E0,0E0,0E0,2.385797E0,0E0,0E0],"parents":[2147483647,0,0,2,2,3,3,4,4,7,7,10,10],"right_children":[2,-1,4,6,8,-1,-1,10,-1,-1,12,-1,-1],"split_conditions":[8.765567E-3,5.159062E-2,1.0150321E-1,4.3601184E0,5.7596732E-2,-5.7810433E-2,-3.8959023E-3,2.6831476E-2,4.5511037E-2,2.7044196E-2,7.5089395E-2,-2.993764E-4,-5.584982E-2],"split_indices":[1490,0,68,2077,16,0,0,4566,0,0,4359,0,0],"split_type":[0,0,0,0,0,0,0,0,0,0,0,0,0],"sum_hessian":[3.5779823E1,6.337201E0,2.9442621E1,1.1712492E1,1.773013E1,8.656827E0,3.0556653E0,1.0956782E1,6.773347E0,3.3735669E0,7.583215E0,3.0320559E0,4.5511594E0],"tree_param":{"num_deleted":"0","num_feature":"5156","num_nodes":"13","size_leaf_vector":"1"}},{"base_weights":[-0E0,5.0049495E-2,-3.3484316E-1,-9.065549E-1,3.26154E-1,-4.3766764E-3,-5.799697E-2,7.9051113E-1,-2.3138126E-2,-4.8382445E-3,5.9473217E-2],"categories":[],"categories_nodes":[],"categories_segments":[],"categories_sizes":[],"default_left":[0,0,0,0,0,0,0,0,0,0,0],"id":20,"left_children":[1,-1,3,5,7,-1,-1,9,-1,-1,-1],"loss_changes":[1.3421022E1,0E0,1.2010412E1,3.144291E0,6.381394E0,0E0,0E0,4.0456553E0,0E0,0E0,0E0],"parents":[2147483647,0,0,2,2,3,3,4,4,7,7],"right_children":[2,-1,4,6,8,-1,-1,10,-1,-1,-1],"split_conditions":[1.4130052E0,5.0049495E-2,1.8853658E0,1.5485822E0,3.432454E-1,-4.3766764E-3,-5.799697E-2,9.067962E-2,-2.3138126E-2,-4.8382445E-3,5.9473217E-2],"split_indices":[3225,0,2741,2467,5017,0,0,1319,0,0,0],"split_type":[0,0,0,0,0,0,0,0,0,0,0],"sum_hessian":[3.6094E1,8.030428E0,2.8063572E1,1.4730831E1,1.3332742E1,4.2096014E0,1.052123E1,8.470002E0,4.862739E0,3.0192995E0,5.4507027E0],"tree_param":{"num_deleted":"0","num_feature":"5156","num_nodes":"11","size_leaf_vector":"1"}},{"base_weights":[-3.8001295E-2,8.028829E-1,-4.4916767E-1,-0E0,5.3675305E-2,3.51631E-1,-8.238727E-1,-2.3751874E-2,5.1038235E-2,-5.7947185E-2,-0E0],"categories":[],"categories_nodes":[],"categories_segments":[],"categories_sizes":[],"default_left":[0,0,0,0,0,0,0,0,0,0,0],"id":21,"left_children":[1,3,5,-1,-1,7,9,-1,-1,-1,-1],"loss_changes":[1.3037297E1,2.6517339E0,8.234716E0,0E0,0E0,6.223364E0,4.980362E0,0E0,0E0,0E0,0E0],"parents":[2147483647,0,0,1,1,2,2,5,5,6,6],"right_children":[2,4,6,-1,-1,8,10,-1,-1,-1,-1],"split_conditions":[3.62603E-2,1.3921227E0,3.1885877E-2,-0E0,5.3675305E-2,3.2140648E-1,9.860548E-2,-2.3751874E-2,5.1038235E-2,-5.7947185E-2,-0E0],"split_indices":[669,2707,4976,0,0,4087,4964,0,0,0,0],"split_type":[0,0,0,0,0,0,0,0,0,0,0],"sum_hessian":[3.3724224E1,1.0369257E1,2.3354967E1,3.1493037E0,7.219953E0,7.398846E0,1.5956121E1,3.5024753E0,3.896371E0,1.0782165E1,5.1739564E0],"tree_param":{"num_deleted":"0","num_feature":"5156","num_nodes":"11","size_leaf_vector":"1"}},{"base_weights":[3.7685856E-2,5.030295E-1,-5.925693E-1,7.927967E-1,-1.481309E-2,1.3937841E-2,-9.917837E-1,-2.2566302E-3,5.48526E-2,-1.5917009E-2,-5.6694437E-2],"categories":[],"categories_nodes":[],"categories_segments":[],"categories_sizes":[],"default_left":[0,0,0,0,0,0,0,0,0,0,0],"id":22,"left_children":[1,3,5,7,-1,-1,9,-1,-1,-1,-1],"loss_changes":[1.1753622E1,5.863824E0,6.537038E0,4.6839666E0,0E0,0E0,2.979803E-1,0E0,0E0,0E0,0E0],"parents":[2147483647,0,0,1,1,2,2,3,3,6,6],"right_children":[2,4,6,8,-1,-1,10,-1,-1,-1,-1],"split_conditions":[3.1094651E0,2.8737438E0,2.4221416E-1,2.5564589E-2,-1.481309E-2,1.3937841E-2,2.0274054E-1,-2.2566302E-3,5.48526E-2,-1.5917009E-2,-5.6694437E-2],"split_indices":[3160,1871,4384,1274,0,0,4472,0,0,0,0],"split_type":[0,0,0,0,0,0,0,0,0,0,0],"sum_hessian":[3.6073578E1,2.1075241E1,1.4998336E1,1.5571474E1,5.5037665E0,4.8235116E0,1.0174825E1,4.514112E0,1.1057362E1,3.0246937E0,7.1501307E0],"tree_param":{"num_deleted":"0","num_feature":"5156","num_nodes":"11","size_leaf_vector":"1"}},{"base_weights":[1.5903194E-2,4.776583E-1,-4.9753496E-1,-1.82371E-2,7.3018396E-1,-8.4045357E-1,1.6890716E-2,9.812978E-1,-4.930297E-3,-5.415014E-2,-2.3531544E-3,1.1210474E-2,5.7725664E-2],"categories":[],"categories_nodes":[],"categories_segments":[],"categories_sizes":[],"default_left":[0,0,0,0,0,0,0,0,0,0,0,0,0],"id":23,"left_children":[1,3,5,-1,7,9,-1,11,-1,-1,-1,-1,-1],"loss_changes":[9.217116E0,4.938762E0,5.871768E0,0E0,3.7284489E0,2.413889E0,0E0,1.0472832E0,0E0,0E0,0E0,0E0,0E0],"parents":[2147483647,0,0,1,1,2,2,4,4,5,5,7,7],"right_children":[2,4,6,-1,8,10,-1,12,-1,-1,-1,-1,-1],"split_conditions":[4.767758E0,6.7191416E-1,3.8260422E0,-1.82371E-2,2.1000437E-2,1.2126881E-1,1.6890716E-2,2.6264113E-1,-4.930297E-3,-5.415014E-2,-2.3531544E-3,1.1210474E-2,5.7725664E-2],"split_indices":[3189,3718,2166,0,4890,654,0,4906,0,0,0,0,0],"split_type":[0,0,0,0,0,0,0,0,0,0,0,0,0],"sum_hessian":[3.488081E1,1.854063E1,1.634018E1,3.9797685E0,1.4560862E1,1.1660802E1,4.679377E0,1.09851265E1,3.575735E0,8.274944E0,3.3858573E0,3.007236E0,7.977891E0],"tree_param":{"num_deleted":"0","num_feature":"5156","num_nodes":"13","size_leaf_vector":"1"}},{"base_weights":[-2.5159981E-2,4.582296E-2,-3.7344366E-1,-9.2945457E-1,3.2819062E-1,-6.2215265E-2,-3.8001176E-3,-2.6446847E-2,6.931003E-1,5.2886736E-2,-2.870188E-4],"categories":[],"categories_nodes":[],"categories_segments":[],"categories_sizes":[],"default_left":[0,0,0,0,0,0,0,0,0,0,0],"id":24,"left_children":[1,-1,3,5,7,-1,-1,-1,9,-1,-1],"loss_changes":[1.27833E1,0E0,1.180817E1,4.1204824E0,5.134981E0,0E0,0E0,0E0,2.8647242E0,0E0,0E0],"parents":[2147483647,0,0,2,2,3,3,4,4,8,8],"right_children":[2,-1,4,6,8,-1,-1,-1,10,-1,-1],"split_conditions":[1.497402E0,4.582296E-2,2.8380556E0,9.9281445E-2,6.276259E-2,-6.2215265E-2,-3.8001176E-3,-2.6446847E-2,8.215101E-2,5.2886736E-2,-2.870188E-4],"split_indices":[3225,0,2999,1603,418,0,0,0,4359,0,0],"split_type":[0,0,0,0,0,0,0,0,0,0,0],"sum_hessian":[3.505775E1,8.507378E0,2.6550371E1,1.4529543E1,1.2020829E1,9.859228E0,4.670315E0,3.239232E0,8.781597E0,5.18973E0,3.5918665E0],"tree_param":{"num_deleted":"0","num_feature":"5156","num_nodes":"11","size_leaf_vector":"1"}},{"base_weights":[-6.7349106E-2,6.5604824E-1,-4.0410683E-1,-1.8561939E-3,4.9643483E-2,3.4781143E-1,-7.5271744E-1,-2.158361E-2,4.3041702E-2,1.3122002E-2,-1.0013599E0,-5.9902128E-2,-6.4907745E-3],"categories":[],"categories_nodes":[],"categories_segments":[],"categories_sizes":[],"default_left":[0,0,0,0,0,0,0,0,0,0,0,0,0],"id":25,"left_children":[1,3,5,-1,-1,7,9,-1,-1,-1,11,-1,-1],"loss_changes":[9.287385E0,2.9989157E0,7.361394E0,0E0,0E0,4.5815864E0,5.253976E0,0E0,0E0,0E0,2.179985E0,0E0,0E0],"parents":[2147483647,0,0,1,1,2,2,5,5,6,6,10,10],"right_children":[2,4,6,-1,-1,8,10,-1,-1,-1,12,-1,-1],"split_conditions":[3.5898916E-2,2.1303569E-1,2.4194974E-1,-1.8561939E-3,4.9643483E-2,3.7578844E-2,2.8456183E-2,-2.158361E-2,4.3041702E-2,1.3122002E-2,3.2819765E0,-5.9902128E-2,-6.4907745E-3],"split_indices":[669,4946,4384,0,0,847,1281,0,0,0,2545,0,0],"split_type":[0,0,0,0,0,0,0,0,0,0,0,0,0],"sum_hessian":[3.4050922E1,1.0119586E1,2.3931337E1,3.7940907E0,6.3254957E0,7.4912314E0,1.6440105E1,3.0219367E0,4.469295E0,3.1334975E0,1.3306608E1,1.0151686E1,3.154922E0],"tree_param":{"num_deleted":"0","num_feature":"5156","num_nodes":"13","size_leaf_vector":"1"}},{"base_weights":[-5.2681338E-2,4.0130007E-1,-4.76598E-1,-2.6708835E-1,4.748461E-2,-4.9494762E-2,1.5537924E-1,1.896344E-2,-4.2819094E-2,-2.6804179E-2,3.3634342E-2],"categories":[],"categories_nodes":[],"categories_segments":[],"categories_sizes":[],"default_left":[0,0,0,0,0,0,0,0,0,0,0],"id":26,"left_children":[1,3,5,7,-1,-1,9,-1,-1,-1,-1],"loss_changes":[6.9975076E0,7.008554E0,6.4840293E0,4.2734175E0,0E0,0E0,4.3331685E0,0E0,0E0,0E0,0E0],"parents":[2147483647,0,0,1,1,2,2,3,3,6,6],"right_children":[2,4,6,8,-1,-1,10,-1,-1,-1,-1],"split_conditions":[2.9960554E0,2.741661E-1,2.8380556E0,1.9281569E0,4.748461E-2,-4.9494762E-2,5.6066584E-2,1.896344E-2,-4.2819094E-2,-2.6804179E-2,3.3634342E-2],"split_indices":[1980,3956,2999,2050,0,0,294,0,0,0,0],"split_type":[0,0,0,0,0,0,0,0,0,0,0],"sum_hessian":[3.2333332E1,1.5550633E1,1.6782698E1,7.388721E0,8.161912E0,8.72319E0,8.059507E0,3.782764E0,3.605957E0,3.3353667E0,4.724141E0],"tree_param":{"num_deleted":"0","num_feature":"5156","num_nodes":"11","size_leaf_vector":"1"}},{"base_weights":[4.226954E-2,4.292266E-1,-4.8831585E-1,6.8226963E-1,-1.6495613E-2,-7.978691E-1,2.3153875E-2,9.2275685E-1,-7.373302E-3,-5.4485258E-2,1.3735424E-3,5.1901327E-3,5.621903E-2],"categories":[],"categories_nodes":[],"categories_segments":[],"categories_sizes":[],"default_left":[0,0,0,0,0,0,0,0,0,0,0,0,0],"id":27,"left_children":[1,3,5,7,-1,9,-1,11,-1,-1,-1,-1,-1],"loss_changes":[7.8261995E0,4.721472E0,5.500258E0,3.799675E0,0E0,3.2795448E0,0E0,1.9180555E0,0E0,0E0,0E0,0E0,0E0],"parents":[2147483647,0,0,1,1,2,2,3,3,5,5,7,7],"right_children":[2,4,6,8,-1,10,-1,12,-1,-1,-1,-1,-1],"split_conditions":[4.3153853E0,1.5895198E-1,2.8897133E-1,4.6233124E-1,-1.6495613E-2,8.521639E-2,2.3153875E-2,2.2354322E-2,-7.373302E-3,-5.4485258E-2,1.3735424E-3,5.1901327E-3,5.621903E-2],"split_indices":[2761,1794,232,4616,0,324,0,4613,0,0,0,0,0],"split_type":[0,0,0,0,0,0,0,0,0,0,0,0,0],"sum_hessian":[3.4105286E1,2.0051916E1,1.40533695E1,1.528967E1,4.762246E0,1.0926181E1,3.1271887E0,1.1773568E1,3.5161018E0,7.68821E0,3.2379713E0,3.0224874E0,8.7510805E0],"tree_param":{"num_deleted":"0","num_feature":"5156","num_nodes":"13","size_leaf_vector":"1"}},{"base_weights":[5.0489042E-2,5.1825655E-1,-4.5069492E-1,-1.584173E-2,7.8355867E-1,-8.761327E-1,1.7776087E-1,5.019789E-2,-2.7896243E-3,-5.1706042E-2,-1.2969996E-2,3.9038237E-2,-2.0593587E-2],"categories":[],"categories_nodes":[],"categories_segments":[],"categories_sizes":[],"default_left":[0,0,0,0,0,0,0,0,0,0,0,0,0],"id":28,"left_children":[1,3,5,-1,7,9,11,-1,-1,-1,-1,-1,-1],"loss_changes":[8.805194E0,4.8445964E0,5.226686E0,0E0,3.0558653E0,4.2922783E-1,3.838559E0,0E0,0E0,0E0,0E0,0E0,0E0],"parents":[2147483647,0,0,1,1,2,2,4,4,5,5,6,6],"right_children":[2,4,6,-1,8,10,12,-1,-1,-1,-1,-1,-1],"split_conditions":[4.767758E0,1.755178E-2,8.738577E-2,-1.584173E-2,2.7554795E-1,1.7659727E-2,5.0549774E0,5.019789E-2,-2.7896243E-3,-5.1706042E-2,-1.2969996E-2,3.9038237E-2,-2.0593587E-2],"split_indices":[3189,1724,629,0,4638,5149,3257,0,0,0,0,0,0],"split_type":[0,0,0,0,0,0,0,0,0,0,0,0,0],"sum_hessian":[3.353733E1,1.7414934E1,1.6122396E1,4.0141597E0,1.3400776E1,9.238939E0,6.883456E0,1.0397491E1,3.0032845E0,6.148254E0,3.0906854E0,3.1664684E0,3.7169878E0],"tree_param":{"num_deleted":"0","num_feature":"5156","num_nodes":"13","size_leaf_vector":"1"}},{"base_weights":[6.1011303E-2,4.1402996E-2,-1.9888836E-1,-5.950257E-1,4.5374057E-1,-9.446448E-1,2.7368177E-2,4.240086E-2,-1.9810477E-2,-6.6741058E-3,-5.77011E-2],"categories":[],"categories_nodes":[],"categories_segments":[],"categories_sizes":[],"default_left":[0,0,0,0,0,0,0,0,0,0,0],"id":29,"left_children":[1,-1,3,5,7,9,-1,-1,-1,-1,-1],"loss_changes":[7.559099E0,0E0,7.887825E0,8.507862E0,4.65613E0,2.1196022E0,0E0,0E0,0E0,0E0,0E0],"parents":[2147483647,0,0,2,2,3,3,4,4,5,5],"right_children":[2,-1,4,6,8,10,-1,-1,-1,-1,-1],"split_conditions":[1.4130052E0,4.1402996E-2,9.9281445E-2,4.1786537E0,3.0966094E-1,5.4907775E-3,2.7368177E-2,4.240086E-2,-1.9810477E-2,-6.6741058E-3,-5.77011E-2],"split_indices":[3225,0,1603,2652,4374,5005,0,0,0,0,0],"split_type":[0,0,0,0,0,0,0,0,0,0,0],"sum_hessian":[3.394981E1,7.582878E0,2.6366932E1,1.661288E1,9.754051E0,1.3052115E1,3.560765E0,6.7466183E0,3.007433E0,3.4477186E0,9.604397E0],"tree_param":{"num_deleted":"0","num_feature":"5156","num_nodes":"11","size_leaf_vector":"1"}},{"base_weights":[9.669251E-2,6.866179E-1,-2.6242495E-1,-5.3839255E-3,4.745678E-2,-7.094477E-1,3.5238436E-1,5.9930165E-3,-4.901656E-2,-1.053775E-2,4.2566486E-2],"categories":[],"categories_nodes":[],"categories_segments":[],"categories_sizes":[],"default_left":[0,0,0,0,0,0,0,0,0,0,0],"id":30,"left_children":[1,3,5,-1,-1,7,9,-1,-1,-1,-1],"loss_changes":[7.517158E0,3.075522E0,6.641409E0,0E0,0E0,3.3809881E0,3.399798E0,0E0,0E0,0E0,0E0],"parents":[2147483647,0,0,1,1,2,2,5,5,6,6],"right_children":[2,4,6,-1,-1,8,10,-1,-1,-1,-1],"split_conditions":[1.1617015E-1,4.859091E-3,8.642934E-2,-5.3839255E-3,4.745678E-2,1.1553792E-2,5.3150497E-2,5.9930165E-3,-4.901656E-2,-1.053775E-2,4.2566486E-2],"split_indices":[1215,1539,208,0,0,4273,734,0,0,0,0],"split_type":[0,0,0,0,0,0,0,0,0,0,0],"sum_hessian":[3.15817E1,1.1365703E1,2.0215998E1,3.0217006E0,8.344002E0,1.1621147E1,8.594851E0,3.0449467E0,8.5762005E0,4.4862156E0,4.1086345E0],"tree_param":{"num_deleted":"0","num_feature":"5156","num_nodes":"11","size_leaf_vector":"1"}},{"base_weights":[-1.45227155E-2,4.528072E-2,-2.84418E-1,-8.8518554E-1,2.3044604E-1,-5.4339685E-2,-6.111865E-3,7.2053504E-1,-2.533114E-2,5.115326E-2,-6.324292E-4],"categories":[],"categories_nodes":[],"categories_segments":[],"categories_sizes":[],"default_left":[0,0,0,0,0,0,0,0,0,0,0],"id":31,"left_children":[1,-1,3,5,7,-1,-1,9,-1,-1,-1],"loss_changes":[9.150927E0,0E0,9.346653E0,1.7271051E0,6.872524E0,0E0,0E0,2.5856657E0,0E0,0E0,0E0],"parents":[2147483647,0,0,2,2,3,3,4,4,7,7],"right_children":[2,-1,4,6,8,-1,-1,10,-1,-1,-1],"split_conditions":[1.4130052E0,4.528072E-2,1.514362E0,7.831424E-2,3.9123695E0,-5.4339685E-2,-6.111865E-3,1.5137836E-1,-2.533114E-2,5.115326E-2,-6.324292E-4],"split_indices":[3225,0,3545,585,3796,0,0,658,0,0,0],"split_type":[0,0,0,0,0,0,0,0,0,0,0],"sum_hessian":[3.3024067E1,6.337308E0,2.668676E1,1.1741699E1,1.4945062E1,8.512325E0,3.229374E0,9.0849E0,5.8601613E0,5.967997E0,3.1169028E0],"tree_param":{"num_deleted":"0","num_feature":"5156","num_nodes":"11","size_leaf_vector":"1"}},{"base_weights":[7.058756E-2,4.5790207E-2,-1.9332805E-1,-7.397978E-1,3.532979E-1,-4.985731E-2,4.9049947E-3,-1.8089019E-2,8.4349185E-1,5.2128285E-2,1.2224897E-2],"categories":[],"categories_nodes":[],"categories_segments":[],"categories_sizes":[],"default_left":[0,0,0,0,0,0,0,0,0,0,0],"id":32,"left_children":[1,-1,3,5,7,-1,-1,-1,9,-1,-1],"loss_changes":[7.8266435E0,0E0,8.579662E0,3.3391309E0,5.8047447E0,0E0,0E0,0E0,4.816265E-1,0E0,0E0],"parents":[2147483647,0,0,2,2,3,3,4,4,8,8],"right_children":[2,-1,4,6,8,-1,-1,-1,10,-1,-1],"split_conditions":[1.5178578E0,4.5790207E-2,2.7229638E0,8.7271705E-2,8.788671E-2,-4.985731E-2,4.9049947E-3,-1.8089019E-2,4.0957546E0,5.2128285E-2,1.2224897E-2],"split_indices":[3225,0,3090,302,1358,0,0,0,2218,0,0],"split_type":[0,0,0,0,0,0,0,0,0,0,0],"sum_hessian":[3.1175383E1,6.3327827E0,2.48426E1,1.21611185E1,1.2681481E1,9.104141E0,3.056977E0,5.287779E0,7.3937025E0,4.3124647E0,3.0812376E0],"tree_param":{"num_deleted":"0","num_feature":"5156","num_nodes":"11","size_leaf_vector":"1"}},{"base_weights":[9.856616E-2,8.574552E-1,-2.4732432E-1,8.559651E-3,5.3026613E-2,-7.501669E-1,3.3633712E-1,-5.492875E-2,6.429897E-3,-1.5431233E-2,3.663898E-2],"categories":[],"categories_nodes":[],"categories_segments":[],"categories_sizes":[],"default_left":[0,0,0,0,0,0,0,0,0,0,0],"id":33,"left_children":[1,3,5,-1,-1,7,9,-1,-1,-1,-1],"loss_changes":[9.257241E0,1.0468712E0,7.712246E0,0E0,0E0,4.6132383E0,3.7137065E0,0E0,0E0,0E0,0E0],"parents":[2147483647,0,0,1,1,2,2,5,5,6,6],"right_children":[2,4,6,-1,-1,8,10,-1,-1,-1,-1],"split_conditions":[3.62603E-2,1.4132777E0,3.9928907E-1,8.559651E-3,5.3026613E-2,3.874379E0,8.869303E-2,-5.492875E-2,6.429897E-3,-1.5431233E-2,3.663898E-2],"split_indices":[669,3220,3973,0,0,3301,1603,0,0,0,0],"split_type":[0,0,0,0,0,0,0,0,0,0,0],"sum_hessian":[3.1418438E1,9.0010805E0,2.2417358E1,3.0094848E0,5.9915957E0,1.182797E1,1.0589388E1,8.193127E0,3.6348426E0,4.103804E0,6.4855843E0],"tree_param":{"num_deleted":"0","num_feature":"5156","num_nodes":"11","size_leaf_vector":"1"}},{"base_weights":[-2.5142547E-2,4.4751042E-1,-4.6334594E-1,-1.8400058E-2,7.0223427E-1,-7.7450866E-1,2.1552952E-2,4.69687E-2,-0E0,-5.0747115E-2,4.8613801E-4],"categories":[],"categories_nodes":[],"categories_segments":[],"categories_sizes":[],"default_left":[0,0,0,0,0,0,0,0,0,0,0],"id":34,"left_children":[1,3,5,-1,7,9,-1,-1,-1,-1,-1],"loss_changes":[7.4085717E0,4.11266E0,5.8815393E0,0E0,2.3108873E0,2.8741684E0,0E0,0E0,0E0,0E0,0E0],"parents":[2147483647,0,0,1,1,2,2,4,4,5,5],"right_children":[2,4,6,-1,8,10,-1,-1,-1,-1,-1],"split_conditions":[2.9960554E0,1.4157358E-2,3.5062644E0,-1.8400058E-2,4.633581E0,3.402194E0,2.1552952E-2,4.69687E-2,-0E0,-5.0747115E-2,4.8613801E-4],"split_indices":[1980,911,2061,0,3189,2239,0,0,0,0,0],"split_type":[0,0,0,0,0,0,0,0,0,0,0],"sum_hessian":[3.1759882E1,1.5149121E1,1.661076E1,3.300477E0,1.1848644E1,1.2605297E1,4.005463E0,8.357963E0,3.4906812E0,9.294792E0,3.3105054E0],"tree_param":{"num_deleted":"0","num_feature":"5156","num_nodes":"11","size_leaf_vector":"1"}},{"base_weights":[9.853434E-3,2.3142774E-1,-6.0152966E-1,-1.9397286E-1,6.222861E-1,-0E0,-4.54117E-2,1.6015999E-2,-3.4671754E-2,4.8373308E-2,-7.1709636E-3],"categories":[],"categories_nodes":[],"categories_segments":[],"categories_sizes":[],"default_left":[0,0,0,0,0,0,0,0,0,0,0],"id":35,"left_children":[1,3,5,7,9,-1,-1,-1,-1,-1,-1],"loss_changes":[4.675889E0,4.539365E0,1.739852E0,3.9894817E0,4.0430136E0,0E0,0E0,0E0,0E0,0E0,0E0],"parents":[2147483647,0,0,1,1,2,2,3,3,4,4],"right_children":[2,4,6,8,10,-1,-1,-1,-1,-1,-1],"split_conditions":[1.4188975E-1,6.909515E-2,7.3263116E-2,2.5410223E0,2.7390513E-1,-0E0,-4.54117E-2,1.6015999E-2,-3.4671754E-2,4.8373308E-2,-7.1709636E-3],"split_indices":[1529,178,123,2866,1800,0,0,0,0,0,0],"split_type":[0,0,0,0,0,0,0,0,0,0,0],"sum_hessian":[3.0734798E1,2.359142E1,7.14338E0,1.1656441E1,1.19349785E1,3.0234368E0,4.119943E0,5.997737E0,5.658704E0,7.9532547E0,3.9817233E0],"tree_param":{"num_deleted":"0","num_feature":"5156","num_nodes":"11","size_leaf_vector":"1"}},{"base_weights":[-1.7046276E-2,-2.3443075E-1,6.3486135E-1,2.8600294E-2,-5.005656E-1,4.498787E-2,4.3663876E-3,-7.527168E-1,1.7022979E-2,-9.783057E-1,1.8482741E-3,-1.6188072E-2,-5.5590626E-2],"categories":[],"categories_nodes":[],"categories_segments":[],"categories_sizes":[],"default_left":[0,0,0,0,0,0,0,0,0,0,0,0,0],"id":36,"left_children":[1,3,5,-1,7,-1,-1,9,-1,11,-1,-1,-1],"loss_changes":[4.8461614E0,6.1150575E0,9.8006916E-1,0E0,4.922598E0,0E0,0E0,3.117197E0,0E0,2.7732086E-1,0E0,0E0,0E0],"parents":[2147483647,0,0,1,1,2,2,4,4,7,7,9,9],"right_children":[2,4,6,-1,8,-1,-1,10,-1,12,-1,-1,-1],"split_conditions":[3.4548244E0,1.0250846E-3,5.3679883E-1,2.8600294E-2,9.407665E-2,4.498787E-2,4.3663876E-3,3.6071682E0,1.7022979E-2,5.4594636E-2,1.8482741E-3,-1.6188072E-2,-5.5590626E-2],"split_indices":[2061,4527,4022,0,847,0,0,2002,0,1625,0,0,0],"split_type":[0,0,0,0,0,0,0,0,0,0,0,0,0],"sum_hessian":[3.0378754E1,2.3857452E1,6.5213013E0,5.2561135E0,1.860134E1,3.404829E0,3.116472E0,1.45638075E1,4.0375314E0,1.1054716E1,3.5090919E0,3.1602218E0,7.894494E0],"tree_param":{"num_deleted":"0","num_feature":"5156","num_nodes":"13","size_leaf_vector":"1"}},{"base_weights":[-7.1542594E-3,4.9856836E-1,-5.1102936E-1,-1.3411251E-2,7.4290913E-1,-8.033712E-1,2.0487573E-2,5.0022334E-2,-1.3163219E-3,-2.6209848E-3,-5.2951366E-2],"categories":[],"categories_nodes":[],"categories_segments":[],"categories_sizes":[],"default_left":[0,0,0,0,0,0,0,0,0,0,0],"id":37,"left_children":[1,3,5,-1,7,9,-1,-1,-1,-1,-1],"loss_changes":[8.516589E0,3.5548806E0,5.2264786E0,0E0,2.767652E0,2.3749533E0,0E0,0E0,0E0,0E0,0E0],"parents":[2147483647,0,0,1,1,2,2,4,4,5,5],"right_children":[2,4,6,-1,8,10,-1,-1,-1,-1,-1],"split_conditions":[5.046282E-2,1.7684309E-1,3.6304733E-1,-1.3411251E-2,8.4652394E-2,3.4145043E0,2.0487573E-2,5.0022334E-2,-1.3163219E-3,-2.6209848E-3,-5.2951366E-2],"split_indices":[669,4617,4062,0,275,2772,0,0,0,0,0],"split_type":[0,0,0,0,0,0,0,0,0,0,0],"sum_hessian":[2.9417253E1,1.4593174E1,1.4824079E1,3.3803022E0,1.1212872E1,1.1527727E1,3.296352E0,8.0474615E0,3.1654103E0,3.639239E0,7.888488E0],"tree_param":{"num_deleted":"0","num_feature":"5156","num_nodes":"11","size_leaf_vector":"1"}},{"base_weights":[1.4691912E-3,3.8545868E-1,-4.5382264E-1,-2.3374429E-2,6.183364E-1,9.822647E-3,-4.178759E-2,-8.278555E-3,8.7984085E-1,5.181241E-2,1.3562885E-2],"categories":[],"categories_nodes":[],"categories_segments":[],"categories_sizes":[],"default_left":[0,0,0,0,0,0,0,0,0,0,0],"id":38,"left_children":[1,3,5,-1,7,-1,-1,-1,9,-1,-1],"loss_changes":[6.03319E0,4.3387947E0,4.289187E0,0E0,3.5946884E0,0E0,0E0,0E0,4.716282E-1,0E0,0E0],"parents":[2147483647,0,0,1,1,2,2,4,4,8,8],"right_children":[2,4,6,-1,8,-1,-1,-1,10,-1,-1],"split_conditions":[7.348173E-2,5.924339E-1,2.7096972E0,-2.3374429E-2,2.565825E-2,9.822647E-3,-4.178759E-2,-8.278555E-3,2.9892793E0,5.181241E-2,1.3562885E-2],"split_indices":[493,2048,2713,0,4512,0,0,0,3655,0,0],"split_type":[0,0,0,0,0,0,0,0,0,0,0],"sum_hessian":[3.0547361E1,1.685684E1,1.3690521E1,3.0910692E0,1.376577E1,5.3281693E0,8.362352E0,3.5313137E0,1.0234456E1,6.893142E0,3.3413146E0],"tree_param":{"num_deleted":"0","num_feature":"5156","num_nodes":"11","size_leaf_vector":"1"}},{"base_weights":[-1.0789645E-1,2.8199857E-1,-5.5419093E-1,-2.2551402E-2,5.895495E-1,-4.2519033E-2,1.0993232E-2,4.0907655E-2,-3.201477E-3],"categories":[],"categories_nodes":[],"categories_segments":[],"categories_sizes":[],"default_left":[0,0,0,0,0,0,0,0,0],"id":39,"left_children":[1,3,5,-1,7,-1,-1,-1,-1],"loss_changes":[5.3374767E0,4.273371E0,3.6893787E0,0E0,2.064395E0,0E0,0E0,0E0,0E0],"parents":[2147483647,0,0,1,1,2,2,4,4],"right_children":[2,4,6,-1,8,-1,-1,-1,-1],"split_conditions":[4.767758E0,6.7191416E-1,5.023336E0,-2.2551402E-2,9.342764E-2,-4.2519033E-2,1.0993232E-2,4.0907655E-2,-3.201477E-3],"split_indices":[3189,3718,3695,0,1133,0,0,0,0],"split_type":[0,0,0,0,0,0,0,0,0],"sum_hessian":[2.6721067E1,1.453505E1,1.2186016E1,3.9240847E0,1.0610966E1,8.764349E0,3.4216664E0,7.6015515E0,3.0094147E0],"tree_param":{"num_deleted":"0","num_feature":"5156","num_nodes":"9","size_leaf_vector":"1"}},{"base_weights":[-7.8448625E-3,3.1627664E-1,-5.355049E-1,-1.22721516E-1,6.712765E-1,1.3854464E-2,-4.456162E-2,2.366533E-2,-2.7913684E-2,4.8459217E-2,1.9290977E-3],"categories":[],"categories_nodes":[],"categories_segments":[],"categories_sizes":[],"default_left":[0,0,0,0,0,0,0,0,0,0,0],"id":40,"left_children":[1,3,5,7,9,-1,-1,-1,-1,-1,-1],"loss_changes":[5.6881456E0,3.4045777E0,4.230263E0,3.3153036E0,2.036211E0,0E0,0E0,0E0,0E0,0E0,0E0],"parents":[2147483647,0,0,1,1,2,2,3,3,4,4],"right_children":[2,4,6,8,10,-1,-1,-1,-1,-1,-1],"split_conditions":[4.5062366E-1,5.970081E-2,1.2338495E-2,1.2354084E-1,2.790672E0,1.3854464E-2,-4.456162E-2,2.366533E-2,-2.7913684E-2,4.8459217E-2,1.9290977E-3],"split_indices":[4616,332,4925,4179,3060,0,0,0,0,0,0],"split_type":[0,0,0,0,0,0,0,0,0,0,0],"sum_hessian":[2.915017E1,1.8436825E1,1.0713346E1,8.702323E0,9.734502E0,3.3109956E0,7.40235E0,3.5041451E0,5.198178E0,5.787635E0,3.9468668E0],"tree_param":{"num_deleted":"0","num_feature":"5156","num_nodes":"11","size_leaf_vector":"1"}},{"base_weights":[8.7164015E-2,2.7813002E-1,-3.9307725E-2,6.794272E-1,-9.716426E-2,-2.0644735E-3,4.67219E-2,-3.7910536E-2,4.0987244E-1,-1.4082712E-2,4.2357888E-2],"categories":[],"categories_nodes":[],"categories_segments":[],"categories_sizes":[],"default_left":[0,0,0,0,0,0,0,0,0,0,0],"id":41,"left_children":[1,3,-1,5,7,-1,-1,-1,9,-1,-1],"loss_changes":[5.5605946E0,4.2609572E0,0E0,2.6368117E0,5.8810925E0,0E0,0E0,0E0,3.5680637E0,0E0,0E0],"parents":[2147483647,0,0,1,1,3,3,4,4,8,8],"right_children":[2,4,-1,6,8,-1,-1,-1,10,-1,-1],"split_conditions":[1.7496744E-1,2.8174248E0,-3.9307725E-2,1.9482316E-2,2.652381E-1,-2.0644735E-3,4.67219E-2,-3.7910536E-2,2.2301917E0,-1.4082712E-2,4.2357888E-2],"split_indices":[4337,2837,0,1099,4057,0,0,0,2560,0,0],"split_type":[0,0,0,0,0,0,0,0,0,0,0],"sum_hessian":[2.9024538E1,2.5029062E1,3.9954758E0,1.144102E1,1.3588042E1,3.3257506E0,8.11527E0,5.55379E0,8.034253E0,3.2995064E0,4.7347465E0],"tree_param":{"num_deleted":"0","num_feature":"5156","num_nodes":"11","size_leaf_vector":"1"}},{"base_weights":[-2.086742E-2,3.8972463E-2,-2.1776938E-1,-5.5459356E-1,2.821926E-1,-8.4262985E-1,1.7444564E-2,-1.4380494E-2,3.9967023E-2,-5.1392764E-2,-6.0358704E-3],"categories":[],"categories_nodes":[],"categories_segments":[],"categories_sizes":[],"default_left":[0,0,0,0,0,0,0,0,0,0,0],"id":42,"left_children":[1,-1,3,5,7,9,-1,-1,-1,-1,-1],"loss_changes":[5.1626105E0,0E0,4.805012E0,4.9663568E0,4.0111046E0,1.4131622E0,0E0,0E0,0E0,0E0,0E0],"parents":[2147483647,0,0,2,2,3,3,4,4,5,5],"right_children":[2,-1,4,6,8,10,-1,-1,-1,-1,-1],"split_conditions":[1.9516904E0,3.8972463E-2,1.3585193E-2,1.4854026E-1,8.973045E-2,2.611131E0,1.7444564E-2,-1.4380494E-2,3.9967023E-2,-5.1392764E-2,-6.0358704E-3],"split_indices":[2536,0,4882,1491,614,3482,0,0,0,0,0],"split_type":[0,0,0,0,0,0,0,0,0,0,0],"sum_hessian":[2.896317E1,4.4501877E0,2.4512981E1,1.4634916E1,9.878065E0,1.128317E1,3.3517466E0,5.030125E0,4.8479404E0,8.194537E0,3.0886326E0],"tree_param":{"num_deleted":"0","num_feature":"5156","num_nodes":"11","size_leaf_vector":"1"}},{"base_weights":[-7.2311014E-2,3.422264E-2,-2.960461E-1,-6.7094356E-1,2.9971123E-1,-4.400078E-2,2.4776303E-3,4.3152362E-2,-1.181966E-2],"categories":[],"categories_nodes":[],"categories_segments":[],"categories_sizes":[],"default_left":[0,0,0,0,0,0,0,0,0],"id":43,"left_children":[1,-1,3,5,7,-1,-1,-1,-1],"loss_changes":[5.199262E0,0E0,5.6943393E0,2.4541373E0,3.60157E0,0E0,0E0,0E0,0E0],"parents":[2147483647,0,0,2,2,3,3,4,4],"right_children":[2,-1,4,6,8,-1,-1,-1,-1],"split_conditions":[1.4130052E0,3.422264E-2,6.850186E-2,2.470046E0,7.493333E-2,-4.400078E-2,2.4776303E-3,4.3152362E-2,-1.181966E-2],"split_indices":[3225,0,847,3023,902,0,0,0,0],"split_type":[0,0,0,0,0,0,0,0,0],"sum_hessian":[2.6543571E1,5.015093E0,2.1528479E1,1.3161607E1,8.366873E0,9.965755E0,3.1958516E0,3.5760295E0,4.7908425E0],"tree_param":{"num_deleted":"0","num_feature":"5156","num_nodes":"9","size_leaf_vector":"1"}},{"base_weights":[2.02145E-2,3.8190326E-1,-4.8405382E-1,-1.8479949E-2,6.9494164E-1,9.1200555E-3,-4.246356E-2,4.6241548E-2,-0E0],"categories":[],"categories_nodes":[],"categories_segments":[],"categories_sizes":[],"default_left":[0,0,0,0,0,0,0,0,0],"id":44,"left_children":[1,3,5,-1,7,-1,-1,-1,-1],"loss_changes":[5.4406276E0,4.6528172E0,3.3952813E0,0E0,2.0576606E0,0E0,0E0,0E0,0E0],"parents":[2147483647,0,0,1,1,2,2,4,4],"right_children":[2,4,6,-1,8,-1,-1,-1,-1],"split_conditions":[1.2437056E-1,1.4365958E0,4.7624327E-2,-1.8479949E-2,4.796241E-2,9.1200555E-3,-4.246356E-2,4.6241548E-2,-0E0],"split_indices":[845,1901,834,0,4270,0,0,0,0],"split_type":[0,0,0,0,0,0,0,0,0],"sum_hessian":[2.585882E1,1.5456325E1,1.0402495E1,4.344881E0,1.1111444E1,3.9400153E0,6.46248E0,7.8089943E0,3.3024495E0],"tree_param":{"num_deleted":"0","num_feature":"5156","num_nodes":"9","size_leaf_vector":"1"}},{"base_weights":[-1.2840304E-2,2.4864468E-1,-5.7683206E-1,-1.14018425E-1,7.152296E-1,-4.288439E-2,-0E0,2.7100181E-2,-5.10861E-1,4.7429096E-2,6.0803094E-3,-4.1428402E-2,2.2842258E-3],"categories":[],"categories_nodes":[],"categories_segments":[],"categories_sizes":[],"default_left":[0,0,0,0,0,0,0,0,0,0,0,0,0],"id":45,"left_children":[1,3,5,7,9,-1,-1,-1,11,-1,-1,-1,-1],"loss_changes":[4.470095E0,3.692889E0,1.6449966E0,3.9719167E0,9.5928526E-1,0E0,0E0,0E0,1.8006811E0,0E0,0E0,0E0,0E0],"parents":[2147483647,0,0,1,1,2,2,3,3,4,4,8,8],"right_children":[2,4,6,8,10,-1,-1,-1,12,-1,-1,-1,-1],"split_conditions":[4.5201778E-1,4.956315E-2,7.3326886E-1,2.335991E0,3.22524E-2,-4.288439E-2,-0E0,2.7100181E-2,2.165023E-1,4.7429096E-2,6.0803094E-3,-4.1428402E-2,2.2842258E-3],"split_indices":[4616,1342,4255,2649,1035,0,0,0,3967,0,0,0,0],"split_type":[0,0,0,0,0,0,0,0,0,0,0,0,0],"sum_hessian":[2.6143164E1,1.8504728E1,7.638436E0,1.1141612E1,7.3631167E0,4.5957804E0,3.0426552E0,3.8287387E0,7.3128734E0,4.3060527E0,3.057064E0,4.1474304E0,3.165443E0],"tree_param":{"num_deleted":"0","num_feature":"5156","num_nodes":"13","size_leaf_vector":"1"}},{"base_weights":[-1.8464759E-2,3.2889705E-2,-2.5938618E-1,-7.115045E-1,3.2332727E-1,-4.7185984E-2,-0E0,-1.9978177E-2,3.613175E-2],"categories":[],"categories_nodes":[],"categories_segments":[],"categories_sizes":[],"default_left":[0,0,0,0,0,0,0,0,0],"id":46,"left_children":[1,-1,3,5,7,-1,-1,-1,-1],"loss_changes":[5.0636697E0,0E0,6.583473E0,2.299005E0,3.89145E0,0E0,0E0,0E0,0E0],"parents":[2147483647,0,0,2,2,3,3,4,4],"right_children":[2,-1,4,6,8,-1,-1,-1,-1],"split_conditions":[1.3831999E0,3.2889705E-2,4.562456E-2,5.0195175E-1,1.7053697E-1,-4.7185984E-2,-0E0,-1.9978177E-2,3.613175E-2],"split_indices":[3225,0,1124,4912,4445,0,0,0,0],"split_type":[0,0,0,0,0,0,0,0,0],"sum_hessian":[2.7229753E1,6.134547E0,2.1095207E1,1.1726426E1,9.36878E0,8.383766E0,3.3426607E0,3.244092E0,6.124688E0],"tree_param":{"num_deleted":"0","num_feature":"5156","num_nodes":"9","size_leaf_vector":"1"}},{"base_weights":[7.3789515E-2,3.0973563E-1,-5.810655E-1,-1.2186181E-1,6.74177E-1,-7.523051E-3,-3.7680518E-2,2.7876386E-2,-5.605219E-1,4.5242395E-2,-6.164616E-4,-2.2523964E-3,-4.122892E-2],"categories":[],"categories_nodes":[],"categories_segments":[],"categories_sizes":[],"default_left":[0,0,0,0,0,0,0,0,0,0,0,0,0],"id":47,"left_children":[1,3,5,7,9,-1,-1,-1,11,-1,-1,-1,-1],"loss_changes":[4.7643366E0,3.7587912E0,2.9056835E-1,4.162717E0,2.1118484E0,0E0,0E0,0E0,9.684162E-1,0E0,0E0,0E0,0E0],"parents":[2147483647,0,0,1,1,2,2,3,3,4,4,8,8],"right_children":[2,4,6,8,10,-1,-1,-1,12,-1,-1,-1,-1],"split_conditions":[1.8778318E-1,9.221761E-2,2.7765514E-2,1.591235E-2,3.1776035E0,-7.523051E-3,-3.7680518E-2,2.7876386E-2,3.0140646E-2,4.5242395E-2,-6.164616E-4,-2.2523964E-3,-4.122892E-2],"split_indices":[658,1319,1812,1439,2294,0,0,0,13,0,0,0,0],"split_type":[0,0,0,0,0,0,0,0,0,0,0,0,0],"sum_hessian":[2.6681007E1,2.0501131E1,6.1798773E0,9.869644E0,1.0631487E1,3.0047588E0,3.1751184E0,3.5702207E0,6.299423E0,7.5905714E0,3.0409157E0,3.0551882E0,3.2442348E0],"tree_param":{"num_deleted":"0","num_feature":"5156","num_nodes":"13","size_leaf_vector":"1"}},{"base_weights":[-2.9695433E-2,3.3949727E-1,-4.6872303E-1,-1.783045E-2,6.521487E-1,-7.208528E-1,1.1964431E-2,2.8843146E-3,4.4563375E-2,-6.101902E-3,-4.5719583E-2],"categories":[],"categories_nodes":[],"categories_segments":[],"categories_sizes":[],"default_left":[0,0,0,0,0,0,0,0,0,0,0],"id":48,"left_children":[1,3,5,-1,7,9,-1,-1,-1,-1,-1],"loss_changes":[4.8812394E0,4.0389023E0,2.8542702E0,0E0,1.5142632E0,9.2125845E-1,0E0,0E0,0E0,0E0,0E0],"parents":[2147483647,0,0,1,1,2,2,4,4,5,5],"right_children":[2,4,6,-1,8,10,-1,-1,-1,-1,-1],"split_conditions":[1.2437056E-1,1.5783936E-2,2.4007799E-1,-1.783045E-2,4.031036E-2,6.0277745E-2,1.1964431E-2,2.8843146E-3,4.4563375E-2,-6.101902E-3,-4.5719583E-2],"split_indices":[845,911,5097,0,1274,1378,0,0,0,0,0],"split_type":[0,0,0,0,0,0,0,0,0,0,0],"sum_hessian":[2.6071907E1,1.4284902E1,1.1787005E1,4.241138E0,1.0043763E1,8.769181E0,3.0178237E0,3.7132103E0,6.330553E0,3.064706E0,5.7044754E0],"tree_param":{"num_deleted":"0","num_feature":"5156","num_nodes":"11","size_leaf_vector":"1"}},{"base_weights":[5.1369224E-2,-2.1323933E-1,5.3761625E-1,2.733475E-2,-4.69571E-1,4.370646E-2,-9.055164E-3,-8.2667446E-1,1.04913E-2,-1.3155204E-2,-4.8118528E-2],"categories":[],"categories_nodes":[],"categories_segments":[],"categories_sizes":[],"default_left":[0,0,0,0,0,0,0,0,0,0,0],"id":49,"left_children":[1,3,5,-1,7,-1,-1,9,-1,-1,-1],"loss_changes":[3.9764142E0,4.4007277E0,3.0162728E0,0E0,4.3210826E0,0E0,0E0,2.177453E-1,0E0,0E0,0E0],"parents":[2147483647,0,0,1,1,2,2,4,4,7,7],"right_children":[2,4,6,-1,8,-1,-1,10,-1,-1,-1],"split_conditions":[9.9281445E-2,1.3828764E0,9.7624846E-2,2.733475E-2,2.6882718E0,4.370646E-2,-9.055164E-3,1.2489903E-2,1.04913E-2,-1.3155204E-2,-4.8118528E-2],"split_indices":[1603,3225,196,0,3813,0,0,540,0,0,0],"split_type":[0,0,0,0,0,0,0,0,0,0,0],"sum_hessian":[2.687103E1,1.7995436E1,8.875594E0,3.869138E0,1.4126298E1,5.8453875E0,3.0302062E0,9.071689E0,5.0546093E0,3.0440376E0,6.0276513E0],"tree_param":{"num_deleted":"0","num_feature":"5156","num_nodes":"11","size_leaf_vector":"1"}},{"base_weights":[-3.0164678E-2,-3.9287838E-1,3.9934334E-1,-7.362721E-1,1.1018427E-2,7.1629685E-1,-1.4912191E-2,-5.5612316E-3,-4.6421345E-2,3.428023E-3,4.7976043E-2],"categories":[],"categories_nodes":[],"categories_segments":[],"categories_sizes":[],"default_left":[0,0,0,0,0,0,0,0,0,0,0],"id":50,"left_children":[1,3,5,7,-1,9,-1,-1,-1,-1,-1],"loss_changes":[4.7039056E0,3.8327646E0,3.5135517E0,1.0212035E0,0E0,1.3653803E0,0E0,0E0,0E0,0E0,0E0],"parents":[2147483647,0,0,1,1,2,2,3,3,5,5],"right_children":[2,4,6,8,-1,10,-1,-1,-1,-1,-1],"split_conditions":[7.8086525E-2,3.428985E-1,6.30253E-2,3.8277455E-2,1.1018427E-2,2.4439804E-2,-1.4912191E-2,-5.5612316E-3,-4.6421345E-2,3.428023E-3,4.7976043E-2],"split_indices":[1821,4133,4553,584,0,971,0,0,0,0,0],"split_type":[0,0,0,0,0,0,0,0,0,0,0],"sum_hessian":[2.618415E1,1.4414603E1,1.1769547E1,9.087697E0,5.3269057E0,8.154297E0,3.6152499E0,3.0017085E0,6.0859885E0,3.038171E0,5.116126E0],"tree_param":{"num_deleted":"0","num_feature":"5156","num_nodes":"11","size_leaf_vector":"1"}},{"base_weights":[4.9687497E-2,4.188622E-1,-3.0015656E-1,-6.5622977E-3,4.0800605E-2,1.555142E-1,-4.1385647E-2,-2.1037279E-2,3.079908E-2],"categories":[],"categories_nodes":[],"categories_segments":[],"categories_sizes":[],"default_left":[0,0,0,0,0,0,0,0,0],"id":51,"left_children":[1,3,5,-1,-1,7,-1,-1,-1],"loss_changes":[4.0123506E0,3.581135E0,4.1541233E0,0E0,0E0,3.2256727E0,0E0,0E0,0E0],"parents":[2147483647,0,0,1,1,2,2,5,5],"right_children":[2,4,6,-1,-1,8,-1,-1,-1],"split_conditions":[1.0723763E-1,2.8527163E-2,1.8395573E-2,-6.5622977E-3,4.0800605E-2,3.3085594E0,-4.1385647E-2,-2.1037279E-2,3.079908E-2],"split_indices":[1330,4807,4526,0,0,2791,0,0,0],"split_type":[0,0,0,0,0,0,0,0,0],"sum_hessian":[2.7027704E1,1.3097635E1,1.3930068E1,5.9471993E0,7.150436E0,8.129333E0,5.8007355E0,3.5908544E0,4.538478E0],"tree_param":{"num_deleted":"0","num_feature":"5156","num_nodes":"9","size_leaf_vector":"1"}},{"base_weights":[-2.237564E-2,3.0157405E-1,-5.2785116E-1,-1.4805502E-2,6.5145624E-1,-4.7323536E-2,1.4212325E-2,1.2475018E-3,4.370646E-2],"categories":[],"categories_nodes":[],"categories_segments":[],"categories_sizes":[],"default_left":[0,0,0,0,0,0,0,0,0],"id":52,"left_children":[1,3,5,-1,7,-1,-1,-1,-1],"loss_changes":[4.7523427E0,4.095578E0,4.4695053E0,0E0,1.5144548E0,0E0,0E0,0E0,0E0],"parents":[2147483647,0,0,1,1,2,2,4,4],"right_children":[2,4,6,-1,8,-1,-1,-1,-1],"split_conditions":[1.9358065E-2,2.9837012E-1,5.8206137E-2,-1.4805502E-2,5.094031E-2,-4.7323536E-2,1.4212325E-2,1.2475018E-3,4.370646E-2],"split_indices":[4526,3939,4206,0,4305,0,0,0,0],"split_type":[0,0,0,0,0,0,0,0,0],"sum_hessian":[2.4939718E1,1.5570085E1,9.369635E0,5.757106E0,9.812979E0,6.045509E0,3.324125E0,3.2741401E0,6.5388384E0],"tree_param":{"num_deleted":"0","num_feature":"5156","num_nodes":"9","size_leaf_vector":"1"}},{"base_weights":[-5.23825E-2,3.1347726E-2,-2.8120726E-1,-5.219891E-1,2.5231672E-2,-7.467472E-1,4.3499055E-3,-3.915275E-3,-4.6443533E-2],"categories":[],"categories_nodes":[],"categories_segments":[],"categories_sizes":[],"default_left":[0,0,0,0,0,0,0,0,0],"id":53,"left_children":[1,-1,3,5,-1,7,-1,-1,-1],"loss_changes":[4.421931E0,0E0,4.5473523E0,2.569078E0,0E0,1.3355532E0,0E0,0E0,0E0],"parents":[2147483647,0,0,2,2,3,3,5,5],"right_children":[2,-1,4,6,-1,8,-1,-1,-1],"split_conditions":[1.837449E-2,3.1347726E-2,4.1695037E0,1.289385E-1,2.5231672E-2,7.6148224E-1,4.3499055E-3,-3.915275E-3,-4.6443533E-2],"split_indices":[822,0,3492,1373,0,3910,0,0,0],"split_type":[0,0,0,0,0,0,0,0,0],"sum_hessian":[2.4400259E1,5.1611114E0,1.923915E1,1.5338264E1,3.900884E0,1.099291E1,4.345354E0,3.083743E0,7.9091673E0],"tree_param":{"num_deleted":"0","num_feature":"5156","num_nodes":"9","size_leaf_vector":"1"}},{"base_weights":[-8.747788E-2,5.127337E-1,-3.6094886E-1,1.5538982E-4,3.8091257E-2,-6.318493E-1,1.4399672E-2,-4.2281203E-2,-6.0466817E-4],"categories":[],"categories_nodes":[],"categories_segments":[],"categories_sizes":[],"default_left":[0,0,0,0,0,0,0,0,0],"id":54,"left_children":[1,3,5,-1,-1,7,-1,-1,-1],"loss_changes":[4.820995E0,1.0902517E0,3.9108229E0,0E0,0E0,1.8586817E0,0E0,0E0,0E0],"parents":[2147483647,0,0,1,1,2,2,5,5],"right_children":[2,4,6,-1,-1,8,-1,-1,-1],"split_conditions":[2.1101093E0,2.539265E0,5.3780064E-2,1.5538982E-4,3.8091257E-2,2.6886938E0,1.4399672E-2,-4.2281203E-2,-6.0466817E-4],"split_indices":[2004,2215,246,0,0,1964,0,0,0],"split_type":[0,0,0,0,0,0,0,0,0],"sum_hessian":[2.5208601E1,7.228364E0,1.7980236E1,3.1697211E0,4.058643E0,1.2830805E1,5.1494317E0,8.878175E0,3.9526305E0],"tree_param":{"num_deleted":"0","num_feature":"5156","num_nodes":"9","size_leaf_vector":"1"}},{"base_weights":[2.1978155E-2,5.2670854E-1,-2.1390095E-1,-0E0,3.984162E-2,-6.3387823E-1,3.0574426E-1,-4.5202266E-2,-0E0,-1.05081955E-2,3.2550897E-2],"categories":[],"categories_nodes":[],"categories_segments":[],"categories_sizes":[],"default_left":[0,0,0,0,0,0,0,0,0,0,0],"id":55,"left_children":[1,3,5,-1,-1,7,9,-1,-1,-1,-1],"loss_changes":[3.3943708E0,1.2752631E0,4.621263E0,0E0,0E0,2.0409079E0,2.0716443E0,0E0,0E0,0E0,0E0],"parents":[2147483647,0,0,1,1,2,2,5,5,6,6],"right_children":[2,4,6,-1,-1,8,10,-1,-1,-1,-1],"split_conditions":[2.9552154E-2,2.443296E0,2.7543182E0,-0E0,3.984162E-2,5.333803E-3,3.6955666E-2,-4.5202266E-2,-0E0,-1.05081955E-2,3.2550897E-2],"split_indices":[2,2152,2818,0,0,4165,1184,0,0,0,0],"split_type":[0,0,0,0,0,0,0,0,0,0,0],"sum_hessian":[2.4355501E1,7.1067076E0,1.7248795E1,3.1192877E0,3.9874198E0,9.402486E0,7.846308E0,6.102853E0,3.2996325E0,3.3434787E0,4.5028296E0],"tree_param":{"num_deleted":"0","num_feature":"5156","num_nodes":"11","size_leaf_vector":"1"}},{"base_weights":[5.28441E-2,3.5669398E-2,-2.2464706E-1,1.893394E-1,-6.7959005E-1,-1.8272845E-2,3.255511E-2,-4.527415E-2,-6.439267E-3],"categories":[],"categories_nodes":[],"categories_segments":[],"categories_sizes":[],"default_left":[0,0,0,0,0,0,0,0,0],"id":56,"left_children":[1,-1,3,5,7,-1,-1,-1,-1],"loss_changes":[4.6557145E0,0E0,3.6741755E0,3.2741437E0,7.918892E-1,0E0,0E0,0E0,0E0],"parents":[2147483647,0,0,2,2,3,3,4,4],"right_children":[2,-1,4,6,8,-1,-1,-1,-1],"split_conditions":[9.2173204E-2,3.5669398E-2,2.3649229E-1,6.739407E-2,3.407704E-1,-1.8272845E-2,3.255511E-2,-4.527415E-2,-6.439267E-3],"split_indices":[1128,0,4216,755,3894,0,0,0,0],"split_type":[0,0,0,0,0,0,0,0,0],"sum_hessian":[2.1384804E1,5.503313E0,1.588149E1,8.811279E0,7.070211E0,4.0935473E0,4.717732E0,3.9718792E0,3.0983317E0],"tree_param":{"num_deleted":"0","num_feature":"5156","num_nodes":"9","size_leaf_vector":"1"}},{"base_weights":[-0E0,3.6081734E-1,-3.7947235E-1,-1.7519632E-2,6.635242E-1,1.05274385E-2,-3.677037E-2,5.1606335E-3,4.5531962E-2],"categories":[],"categories_nodes":[],"categories_segments":[],"categories_sizes":[],"default_left":[0,0,0,0,0,0,0,0,0],"id":57,"left_children":[1,3,5,-1,7,-1,-1,-1,-1],"loss_changes":[3.9657507E0,3.7188578E0,3.303772E0,0E0,1.2737918E0,0E0,0E0,0E0,0E0],"parents":[2147483647,0,0,1,1,2,2,4,4],"right_children":[2,4,6,-1,8,-1,-1,-1,-1],"split_conditions":[4.767758E0,2.4277011E-2,1.718981E0,-1.7519632E-2,2.3620958E0,1.05274385E-2,-3.677037E-2,5.1606335E-3,4.5531962E-2],"split_indices":[3189,259,3034,0,2766,0,0,0,0],"split_type":[0,0,0,0,0,0,0,0,0],"sum_hessian":[2.4975622E1,1.2968575E1,1.2007048E1,3.6791039E0,9.289471E0,4.719565E0,7.2874827E0,3.8346806E0,5.45479E0],"tree_param":{"num_deleted":"0","num_feature":"5156","num_nodes":"9","size_leaf_vector":"1"}},{"base_weights":[-3.6005758E-2,1.606309E-1,-3.376641E-2,-2.4883346E-1,5.707995E-1,-5.5379075E-1,1.7023949E-2,4.54794E-2,-8.267388E-3,-3.2276553E-3,-3.9447363E-2],"categories":[],"categories_nodes":[],"categories_segments":[],"categories_sizes":[],"default_left":[0,0,0,0,0,0,0,0,0,0,0],"id":58,"left_children":[1,3,-1,5,7,9,-1,-1,-1,-1,-1],"loss_changes":[3.3679276E0,3.7343311E0,0E0,2.4571538E0,3.0927444E0,7.817533E-1,0E0,0E0,0E0,0E0,0E0],"parents":[2147483647,0,0,1,1,3,3,4,4,5,5],"right_children":[2,4,-1,6,8,10,-1,-1,-1,-1,-1],"split_conditions":[4.0558634E0,7.159914E-2,-3.376641E-2,3.4406025E0,5.736666E-3,1.6234884E0,1.7023949E-2,4.54794E-2,-8.267388E-3,-3.2276553E-3,-3.9447363E-2],"split_indices":[3540,178,0,2674,4200,2358,0,0,0,0,0],"split_type":[0,0,0,0,0,0,0,0,0,0,0],"sum_hessian":[2.2655134E1,1.8351757E1,4.3033767E0,9.455434E0,8.896323E0,6.422277E0,3.0331569E0,5.86279E0,3.0335329E0,3.0503547E0,3.3719223E0],"tree_param":{"num_deleted":"0","num_feature":"5156","num_nodes":"11","size_leaf_vector":"1"}},{"base_weights":[-5.9927654E-2,2.2224046E-1,-4.952944E-1,-1.4729904E-2,5.000213E-1,-3.869365E-2,6.5167807E-3,3.5695698E-2,-3.4705386E-3],"categories":[],"categories_nodes":[],"categories_segments":[],"categories_sizes":[],"default_left":[0,0,0,0,0,0,0,0,0],"id":59,"left_children":[1,3,5,-1,7,-1,-1,-1,-1],"loss_changes":[3.5348082E0,2.824402E0,2.2323933E0,0E0,1.6537819E0,0E0,0E0,0E0,0E0],"parents":[2147483647,0,0,1,1,2,2,4,4],"right_children":[2,4,6,-1,8,-1,-1,-1,-1],"split_conditions":[9.192492E-2,3.1627822E-1,3.175827E0,-1.4729904E-2,9.50041E-2,-3.869365E-2,6.5167807E-3,3.5695698E-2,-3.4705386E-3],"split_indices":[78,4133,2078,0,1447,0,0,0,0],"split_type":[0,0,0,0,0,0,0,0,0],"sum_hessian":[2.4759825E1,1.5477794E1,9.28203E0,5.24251E0,1.0235284E1,6.2050176E0,3.077013E0,7.19923E0,3.0360532E0],"tree_param":{"num_deleted":"0","num_feature":"5156","num_nodes":"9","size_leaf_vector":"1"}}]},"name":"gbtree"},"learner_model_param":{"base_score":"[5.0051165E-1]","boost_from_average":"1","num_class":"0","num_feature":"5156","num_target":"1"},"objective":{"name":"binary:logistic","reg_loss_param":{"scale_pos_weight":"0.955223858"}}},"version":[3,1,2]}