{"learner":{"attributes":{"best_iteration":"56","best_score":"0.6418988901489185","scikit_learn":"{\"_estimator_type\": \"classifier\"}"},"feature_names":[],"feature_types":[],"gradient_booster":{"model":{"cats":{"enc":[],"feature_segments":[],"sorted_idx":[]},"gbtree_model_param":{"num_parallel_tree":"1","num_trees":"57"},"iteration_indptr":[0,1,2,3,4,5,6,7,8,9,10,11,12,13,14,15,16,17,18,19,20,21,22,23,24,25,26,27,28,29,30,31,32,33,34,35,36,37,38,39,40,41,42,43,44,45,46,47,48,49,50,51,52,53,54,55,56,57],"tree_info":[0,0,0,0,0,0,0,0,0,0,0,0,0,0,0,0,0,0,0,0,0,0,0,0,0,0,0,0,0,0,0,0,0,0,0,0,0,0,0,0,0,0,0,0,0,0,0,0,0,0,0,0,0,0,0,0,0],"trees":[{"base_weights":[-0E0,-4.850879E-1,7.300993E-2,6.8591547E-1,-8.97848E-1,-1.4617534E-2,6.235778E-2,-1.3548014E0,-7.323133E-2,-7.778932E-2,-1.4617534E-2,-5.6022495E-2,3.5167962E-2],"categories":[],"categories_nodes":[],"categories_segments":[],"categories_sizes":[],"default_left":[0,0,0,0,0,0,0,0,0,0,0,0,0],"id":0,"left_children":[1,3,-1,5,7,-1,-1,9,11,-1,-1,-1,-1],"loss_changes":[3.221531E1,1.777853E1,0E0,6.304868E0,9.5345955E0,0E0,0E0,2.4655151E0,1.1000694E1,0E0,0E0,0E0,0E0],"parents":[2147483647,0,0,1,1,3,3,4,4,7,7,8,8],"right_children":[2,4,-1,6,8,-1,-1,10,12,-1,-1,-1,-1],"split_conditions":[3.0229813E-1,1.134801E0,7.300993E-2,4.3182003E-1,6.186425E-2,-1.4617534E-2,6.235778E-2,1.4204693E0,4.7070485E-1,-7.778932E-2,-1.4617534E-2,-5.6022495E-2,3.5167962E-2],"split_indices":[1916,719,0,573,169,0,0,649,752,0,0,0,0],"split_type":[0,0,0,0,0,0,0,0,0,0,0,0,0],"sum_hessian":[4.1526073E1,3.2190266E1,9.335811E0,7.9813347E0,2.420893E1,3.1940265E0,4.787308E0,1.4671626E1,9.537303E0,1.14776E1,3.1940265E0,3.738802E0,5.798501E0],"tree_param":{"num_deleted":"0","num_feature":"1963","num_nodes":"13","size_leaf_vector":"1"}},{"base_weights":[1.3611785E-1,1.1368575E0,-3.8309032E-1,7.1273856E-2,1.6051583E-3,-7.482078E-1,4.6995383E-2,1.6674152E-2,-1.1441104E0,-7.906326E-2,-3.333864E-1,2.2187032E-2,-4.665173E-2],"categories":[],"categories_nodes":[],"categories_segments":[],"categories_sizes":[],"default_left":[0,0,0,0,0,0,0,0,0,0,0,0,0],"id":1,"left_children":[1,3,5,-1,-1,7,-1,-1,9,-1,11,-1,-1],"loss_changes":[2.2491638E1,4.460825E0,1.5265951E1,0E0,0E0,1.0989194E1,0E0,0E0,5.084526E0,0E0,5.0112076E0,0E0,0E0],"parents":[2147483647,0,0,1,1,2,2,5,5,8,8,10,10],"right_children":[2,4,6,-1,-1,8,-1,-1,10,-1,12,-1,-1],"split_conditions":[1.134801E0,3.80386E-1,2.9626456E-1,7.1273856E-2,1.6051583E-3,2.0354766E-1,4.6995383E-2,1.6674152E-2,1.7857583E0,-7.906326E-2,4.7214076E-2,2.2187032E-2,-4.665173E-2],"split_indices":[719,506,1916,0,0,379,0,0,926,0,239,0,0],"split_type":[0,0,0,0,0,0,0,0,0,0,0,0,0],"sum_hessian":[3.9465637E1,1.2734374E1,2.6731266E1,9.564489E0,3.1698847E0,2.1689861E1,5.041404E0,5.8283367E0,1.5861525E1,8.989844E0,6.87168E0,3.1467774E0,3.7249026E0],"tree_param":{"num_deleted":"0","num_feature":"1963","num_nodes":"13","size_leaf_vector":"1"}},{"base_weights":[-1.2697585E-1,8.788998E-1,-6.4617264E-1,-7.2430386E-3,6.304857E-2,2.6782801E-2,-9.4591963E-1,-1.2570254E0,3.0287985E-2,-7.4881054E-2,-8.328046E-3],"categories":[],"categories_nodes":[],"categories_segments":[],"categories_sizes":[],"default_left":[0,0,0,0,0,0,0,0,0,0,0],"id":2,"left_children":[1,3,5,-1,-1,-1,7,9,-1,-1,-1],"loss_changes":[2.215706E1,6.1487074E0,1.0901046E1,0E0,0E0,0E0,1.2673023E1,4.537796E0,0E0,0E0,0E0],"parents":[2147483647,0,0,1,1,2,2,6,6,7,7],"right_children":[2,4,6,-1,-1,-1,8,10,-1,-1,-1],"split_conditions":[1.134801E0,1.1451972E0,1.8250574E-5,-7.2430386E-3,6.304857E-2,2.6782801E-2,2.2487086E-3,1.4190311E0,3.0287985E-2,-7.4881054E-2,-8.328046E-3],"split_indices":[719,813,1215,0,0,0,1371,553,0,0,0],"split_type":[0,0,0,0,0,0,0,0,0,0,0],"sum_hessian":[3.8296017E1,1.2500236E1,2.5795782E1,3.6635997E0,8.836636E0,4.832956E0,2.0962826E1,1.7831844E1,3.1309826E0,1.3921743E1,3.9101E0],"tree_param":{"num_deleted":"0","num_feature":"1963","num_nodes":"11","size_leaf_vector":"1"}},{"base_weights":[-4.1911963E-2,9.69241E-1,-5.2743465E-1,-9.074023E-3,6.797225E-2,-9.905026E-1,3.038111E-1,-1.2465948E0,1.11563625E-2,-3.753233E-2,9.3430746E-1,-7.45809E-2,-4.2804577E-3,6.1471265E-2,1.1590249E-2],"categories":[],"categories_nodes":[],"categories_segments":[],"categories_sizes":[],"default_left":[0,0,0,0,0,0,0,0,0,0,0,0,0,0,0],"id":3,"left_children":[1,3,5,-1,-1,7,9,11,-1,-1,13,-1,-1,-1,-1],"loss_changes":[2.2257673E1,7.211293E0,1.2466685E1,0E0,0E0,6.94557E0,9.676486E0,4.4442253E0,0E0,0E0,1.0919962E0,0E0,0E0,0E0,0E0],"parents":[2147483647,0,0,1,1,2,2,5,5,6,6,7,7,10,10],"right_children":[2,4,6,-1,-1,8,10,12,-1,-1,14,-1,-1,-1,-1],"split_conditions":[7.917214E-2,9.1721624E-2,4.785343E-2,-9.074023E-3,6.797225E-2,3.0149397E-2,1.2516278E-2,1.1207685E0,1.11563625E-2,-3.753233E-2,1.5057142E-1,-7.45809E-2,-4.2804577E-3,6.1471265E-2,1.1590249E-2],"split_indices":[1631,92,1763,0,0,901,63,637,0,0,289,0,0,0,0],"split_type":[0,0,0,0,0,0,0,0,0,0,0,0,0,0,0],"sum_hessian":[4.134446E1,1.2698968E1,2.864549E1,3.4217324E0,9.277236E0,1.8228138E1,1.0417353E1,1.5075152E1,3.1529858E0,3.6961257E0,6.7212267E0,1.190659E1,3.1685622E0,3.5763433E0,3.1448836E0],"tree_param":{"num_deleted":"0","num_feature":"1963","num_nodes":"15","size_leaf_vector":"1"}},{"base_weights":[4.2390898E-2,1.0173892E0,-4.3185198E-1,6.80686E-2,-7.7312896E-3,-1.0600822E0,3.0302817E-1,1.2624516E-2,-6.97108E-2,7.651879E-1,-4.1842353E-2,6.614046E-2,-1.0500386E-2],"categories":[],"categories_nodes":[],"categories_segments":[],"categories_sizes":[],"default_left":[0,0,0,0,0,0,0,0,0,0,0,0,0],"id":4,"left_children":[1,3,5,-1,-1,7,9,-1,-1,11,-1,-1,-1],"loss_changes":[2.1347885E1,6.6332283E0,1.5044913E1,0E0,0E0,8.382772E0,9.588671E0,0E0,0E0,7.376062E0,0E0,0E0,0E0],"parents":[2147483647,0,0,1,1,2,2,5,5,6,6,9,9],"right_children":[2,4,6,-1,-1,8,10,-1,-1,12,-1,-1,-1],"split_conditions":[7.917214E-2,5.148357E-1,9.546298E-2,6.80686E-2,-7.7312896E-3,1.015524E0,1.105562E-1,1.2624516E-2,-6.97108E-2,2.4006567E0,-4.1842353E-2,6.614046E-2,-1.0500386E-2],"split_indices":[1631,1031,1860,0,0,675,1892,0,0,912,0,0,0],"split_type":[0,0,0,0,0,0,0,0,0,0,0,0,0],"sum_hessian":[4.2141922E1,1.3109768E1,2.9032156E1,9.951287E0,3.1584802E0,1.5248033E1,1.3784123E1,3.1324158E0,1.2115617E1,1.0337824E1,3.4462998E0,6.1887197E0,4.1491036E0],"tree_param":{"num_deleted":"0","num_feature":"1963","num_nodes":"13","size_leaf_vector":"1"}},{"base_weights":[9.238754E-3,1.0230733E0,-4.5747742E-1,9.734062E-4,7.137939E-2,-1.1029232E0,1.6389808E-1,-2.84324E-3,-6.716314E-2,-3.4223583E-2,6.4240134E-1,-1.1432576E-2,5.303215E-2],"categories":[],"categories_nodes":[],"categories_segments":[],"categories_sizes":[],"default_left":[0,0,0,0,0,0,0,0,0,0,0,0,0],"id":5,"left_children":[1,3,5,-1,-1,7,9,-1,-1,-1,11,-1,-1],"loss_changes":[2.2143963E1,5.7986517E0,1.32591505E1,0E0,0E0,3.7289066E0,8.152943E0,0E0,0E0,0E0,5.14749E0,0E0,0E0],"parents":[2147483647,0,0,1,1,2,2,5,5,6,6,10,10],"right_children":[2,4,6,-1,-1,8,10,-1,-1,-1,12,-1,-1],"split_conditions":[7.917214E-2,1.8653477E-2,7.276237E-5,9.734062E-4,7.137939E-2,3.7867075E-1,1.2299583E-1,-2.84324E-3,-6.716314E-2,-3.4223583E-2,4.4859122E-2,-1.1432576E-2,5.303215E-2],"split_indices":[1631,453,450,0,0,282,1811,0,0,0,1912,0,0],"split_type":[0,0,0,0,0,0,0,0,0,0,0,0,0],"sum_hessian":[4.270106E1,1.2776706E1,2.9924356E1,4.343614E0,8.433092E0,1.3996582E1,1.5927775E1,3.1548104E0,1.0841771E1,5.358128E0,1.0569647E1,3.6452854E0,6.924361E0],"tree_param":{"num_deleted":"0","num_feature":"1963","num_nodes":"13","size_leaf_vector":"1"}},{"base_weights":[-2.2229789E-2,8.922503E-1,-4.4250125E-1,-6.8941102E-3,6.1357528E-2,-6.752552E-1,4.8445974E-2,3.1234393E-2,-9.58315E-1,-1.2710898E0,-1.5279244E-3,-7.3505804E-2,-1.0477376E-2],"categories":[],"categories_nodes":[],"categories_segments":[],"categories_sizes":[],"default_left":[0,0,0,0,0,0,0,0,0,0,0,0,0],"id":6,"left_children":[1,3,5,-1,-1,7,-1,-1,9,11,-1,-1,-1],"loss_changes":[1.7143913E1,5.2853165E0,1.1346874E1,0E0,0E0,1.1367009E1,0E0,0E0,6.6037827E0,2.897501E0,0E0,0E0,0E0],"parents":[2147483647,0,0,1,1,2,2,5,5,8,8,9,9],"right_children":[2,4,6,-1,-1,8,-1,-1,10,12,-1,-1,-1],"split_conditions":[7.892663E-2,9.1721624E-2,2.755824E0,-6.8941102E-3,6.1357528E-2,8.801207E-1,4.8445974E-2,3.1234393E-2,3.9769936E-1,1.01371504E-1,-1.5279244E-3,-7.3505804E-2,-1.0477376E-2],"split_indices":[1631,92,996,0,0,790,0,0,424,1954,0,0,0],"split_type":[0,0,0,0,0,0,0,0,0,0,0,0,0],"sum_hessian":[4.0669712E1,1.2023482E1,2.8646229E1,3.1652744E0,8.858208E0,2.5547295E1,3.0989351E0,4.073371E0,2.1473923E1,1.5425573E1,6.04835E0,1.2262523E1,3.1630507E0],"tree_param":{"num_deleted":"0","num_feature":"1963","num_nodes":"13","size_leaf_vector":"1"}},{"base_weights":[2.9122766E-2,7.9849136E-1,-4.635266E-1,-5.909826E-3,6.061809E-2,5.177781E-1,-8.663643E-1,-1.2103482E-2,5.1633265E-2,-1.2882868E0,1.7834721E-2,-7.330387E-2,-1.7321711E-2],"categories":[],"categories_nodes":[],"categories_segments":[],"categories_sizes":[],"default_left":[0,0,0,0,0,0,0,0,0,0,0,0,0],"id":7,"left_children":[1,3,5,-1,-1,7,9,-1,-1,11,-1,-1,-1],"loss_changes":[1.6571321E1,6.8774815E0,1.1445264E1,0E0,0E0,4.068755E0,1.1165402E1,0E0,0E0,1.3353825E0,0E0,0E0,0E0],"parents":[2147483647,0,0,1,1,2,2,5,5,6,6,9,9],"right_children":[2,4,6,-1,-1,8,10,-1,-1,12,-1,-1,-1],"split_conditions":[1.1529346E0,4.3182003E-1,4.8908702E-1,-5.909826E-3,6.061809E-2,8.716439E-2,6.272603E-1,-1.2103482E-2,5.1633265E-2,1.2872145E0,1.7834721E-2,-7.330387E-2,-1.7321711E-2],"split_indices":[719,573,729,0,0,1860,1069,0,0,602,0,0,0],"split_type":[0,0,0,0,0,0,0,0,0,0,0,0,0],"sum_hessian":[3.9679085E1,1.5083931E1,2.4595152E1,5.06114E0,1.0022791E1,6.9197893E0,1.7675364E1,3.1446114E0,3.775178E0,1.31232815E1,4.5520816E0,1.0013679E1,3.109603E0],"tree_param":{"num_deleted":"0","num_feature":"1963","num_nodes":"13","size_leaf_vector":"1"}},{"base_weights":[-5.9917243E-3,8.1331164E-1,-5.143731E-1,-1.2808953E-2,6.340906E-2,-8.398012E-1,2.3605749E-2,9.489376E-3,-1.1861308E0,-6.873188E-2,-1.6103152E-2],"categories":[],"categories_nodes":[],"categories_segments":[],"categories_sizes":[],"default_left":[0,0,0,0,0,0,0,0,0,0,0],"id":8,"left_children":[1,3,5,-1,-1,7,-1,-1,9,-1,-1],"loss_changes":[1.827762E1,8.90462E0,9.55674E0,0E0,0E0,8.122509E0,0E0,0E0,1.5901146E0,0E0,0E0],"parents":[2147483647,0,0,1,1,2,2,5,5,8,8],"right_children":[2,4,6,-1,-1,8,-1,-1,10,-1,-1],"split_conditions":[1.1529346E0,4.3182003E-1,2.618647E0,-1.2808953E-2,6.340906E-2,1.2811458E0,2.3605749E-2,9.489376E-3,8.490541E-1,-6.873188E-2,-1.6103152E-2],"split_indices":[719,573,996,0,0,518,0,0,513,0,0],"split_type":[0,0,0,0,0,0,0,0,0,0,0],"sum_hessian":[3.994488E1,1.4760564E1,2.5184319E1,4.5996423E0,1.0160921E1,1.9237057E1,5.9472623E0,4.996987E0,1.4240069E1,1.0624659E1,3.6154113E0],"tree_param":{"num_deleted":"0","num_feature":"1963","num_nodes":"11","size_leaf_vector":"1"}},{"base_weights":[3.3303138E-3,-3.804624E-1,9.394339E-1,3.7686113E-2,-6.536012E-1,6.705796E-2,-1.0853836E-2,1.9629851E-1,-1.1750189E0,8.008282E-1,-3.8036875E-2,-6.8253204E-2,-8.261527E-3,5.0897314E-3,5.7337273E-2],"categories":[],"categories_nodes":[],"categories_segments":[],"categories_sizes":[],"default_left":[0,0,0,0,0,0,0,0,0,0,0,0,0,0,0],"id":9,"left_children":[1,3,5,-1,7,-1,-1,9,11,13,-1,-1,-1,-1,-1],"loss_changes":[1.6421232E1,1.09638E1,6.882675E0,0E0,1.2580734E1,0E0,0E0,8.139352E0,2.6912441E0,1.6645222E0,0E0,0E0,0E0,0E0,0E0],"parents":[2147483647,0,0,1,1,2,2,4,4,7,7,8,8,9,9],"right_children":[2,4,6,-1,8,-1,-1,10,12,14,-1,-1,-1,-1,-1],"split_conditions":[2.909485E-1,8.539748E-2,7.481748E-2,3.7686113E-2,3.0083779E-1,6.705796E-2,-1.0853836E-2,1.5428148E-1,1.1716028E-1,8.322623E-5,-3.8036875E-2,-6.8253204E-2,-8.261527E-3,5.0897314E-3,5.7337273E-2],"split_indices":[1916,1595,496,0,1923,0,0,501,1774,1110,0,0,0,0,0],"split_type":[0,0,0,0,0,0,0,0,0,0,0,0,0,0,0],"sum_hessian":[4.1561966E1,3.0242973E1,1.13189945E1,5.1156416E0,2.512733E1,8.228048E0,3.0909457E0,9.955443E0,1.5171887E1,6.365492E0,3.5899522E0,1.2093215E1,3.0786722E0,3.0598154E0,3.3056762E0],"tree_param":{"num_deleted":"0","num_feature":"1963","num_nodes":"15","size_leaf_vector":"1"}},{"base_weights":[-3.480591E-2,-3.909958E-1,9.432003E-1,-6.3676536E-1,3.461635E-2,6.3386515E-2,3.4373463E-3,2.3655422E-2,-9.210513E-1,6.8338565E-3,-1.1398773E0,-7.6270476E-3,-6.646093E-2],"categories":[],"categories_nodes":[],"categories_segments":[],"categories_sizes":[],"default_left":[0,0,0,0,0,0,0,0,0,0,0,0,0],"id":10,"left_children":[1,3,5,7,-1,-1,-1,-1,9,-1,11,-1,-1],"loss_changes":[1.6124924E1,9.924299E0,3.1956415E0,1.0008648E1,0E0,0E0,0E0,0E0,5.8954334E0,0E0,3.1706905E0,0E0,0E0],"parents":[2147483647,0,0,1,1,2,2,3,3,8,8,10,10],"right_children":[2,4,6,8,-1,-1,-1,-1,10,-1,12,-1,-1],"split_conditions":[3.0229813E-1,1.4900173E0,7.9142794E-2,2.7458313E-1,3.461635E-2,6.3386515E-2,3.4373463E-3,2.3655422E-2,5.723026E-1,6.8338565E-3,7.275251E-1,-7.6270476E-3,-6.646093E-2],"split_indices":[1916,553,496,212,0,0,0,0,627,0,796,0,0],"split_type":[0,0,0,0,0,0,0,0,0,0,0,0,0],"sum_hessian":[4.232986E1,3.1983969E1,1.0345891E1,2.6816854E1,5.167114E0,6.8061376E0,3.5397534E0,5.125675E0,2.169118E1,3.7686543E0,1.7922525E1,3.550028E0,1.4372498E1],"tree_param":{"num_deleted":"0","num_feature":"1963","num_nodes":"13","size_leaf_vector":"1"}},{"base_weights":[-5.9395846E-2,-3.6237207E-1,9.35112E-1,3.5874713E-2,-6.564381E-1,6.102374E-2,8.274975E-3,-8.9165694E-1,2.7361626E-2,-1.1468171E0,1.389242E-2,-6.537301E-2,-7.786726E-3],"categories":[],"categories_nodes":[],"categories_segments":[],"categories_sizes":[],"default_left":[0,0,0,0,0,0,0,0,0,0,0,0,0],"id":11,"left_children":[1,3,5,-1,7,-1,-1,9,-1,11,-1,-1,-1],"loss_changes":[1.2479931E1,1.0998182E1,1.5816555E0,0E0,8.377909E0,0E0,0E0,7.4678154E0,0E0,2.4732475E0,0E0,0E0,0E0],"parents":[2147483647,0,0,1,1,2,2,4,4,7,7,9,9],"right_children":[2,4,6,-1,8,-1,-1,10,-1,12,-1,-1,-1],"split_conditions":[1.4900173E0,2.706182E-1,4.928363E-1,3.5874713E-2,5.324439E-3,6.102374E-2,8.274975E-3,3.0149397E-2,2.7361626E-2,1.0592512E0,1.389242E-2,-6.537301E-2,-7.786726E-3],"split_indices":[553,212,809,0,1246,0,0,901,0,942,0,0,0],"split_type":[0,0,0,0,0,0,0,0,0,0,0,0,0],"sum_hessian":[3.7359463E1,2.968711E1,7.672354E0,5.664845E0,2.4022264E1,4.6475167E0,3.0248373E0,2.059847E1,3.4237947E0,1.701129E1,3.5871813E0,1.4002326E1,3.0089629E0],"tree_param":{"num_deleted":"0","num_feature":"1963","num_nodes":"13","size_leaf_vector":"1"}},{"base_weights":[-1.326456E-4,5.6202334E-1,-5.341241E-1,8.219231E-1,-2.24195E-2,3.739391E-2,-8.504151E-1,5.6624126E-2,-2.7579197E-3,-4.3391667E-2,-6.448909E-2,-4.0020358E-2,3.0821202E-2],"categories":[],"categories_nodes":[],"categories_segments":[],"categories_sizes":[],"default_left":[0,0,0,0,0,0,0,0,0,0,0,0,0],"id":12,"left_children":[1,3,5,7,-1,-1,9,-1,-1,11,-1,-1,-1],"loss_changes":[1.3016452E1,6.298904E0,1.033815E1,5.0042305E0,0E0,0E0,6.4606256E0,0E0,0E0,5.409002E0,0E0,0E0,0E0],"parents":[2147483647,0,0,1,1,2,2,3,3,6,6,9,9],"right_children":[2,4,6,8,-1,-1,10,-1,-1,12,-1,-1,-1],"split_conditions":[1.4561294E-1,6.1464842E-2,2.452166E-2,6.6679585E-1,-2.24195E-2,3.739391E-2,1.0050142E-5,5.6624126E-2,-2.7579197E-3,2.3810752E-1,-6.448909E-2,-4.0020358E-2,3.0821202E-2],"split_indices":[1580,1628,1941,1070,0,0,1300,0,0,1709,0,0,0],"split_type":[0,0,0,0,0,0,0,0,0,0,0,0,0],"sum_hessian":[3.937049E1,1.9037075E1,2.0333414E1,1.5517667E1,3.5194082E0,3.421213E0,1.69122E1,1.1114013E1,4.403654E0,6.816626E0,1.0095575E1,3.0466115E0,3.7700148E0],"tree_param":{"num_deleted":"0","num_feature":"1963","num_nodes":"13","size_leaf_vector":"1"}},{"base_weights":[1.7358897E-2,-5.189347E-2,3.039396E-1,7.664223E-1,-4.3442038E-1,1.0746192E0,-2.2347576E-3,-9.1130674E-1,2.4917828E-2,6.481715E-2,1.0368492E-2,-9.668604E-3,-5.7309438E-2],"categories":[],"categories_nodes":[],"categories_segments":[],"categories_sizes":[],"default_left":[0,0,0,0,0,0,0,0,0,0,0,0,0],"id":13,"left_children":[1,-1,3,5,7,9,-1,11,-1,-1,-1,-1,-1],"loss_changes":[1.285475E1,0E0,1.2173085E1,5.5654373E0,7.2367992E0,2.335802E0,0E0,1.1310616E0,0E0,0E0,0E0,0E0,0E0],"parents":[2147483647,0,0,2,2,3,3,4,4,5,5,7,7],"right_children":[2,-1,4,6,8,10,-1,12,-1,-1,-1,-1,-1],"split_conditions":[6.654699E-2,-5.189347E-2,1.5371467E-1,2.1768585E-1,3.5246998E-1,3.8245487E-1,-2.2347576E-3,2.4560228E-4,2.4917828E-2,6.481715E-2,1.0368492E-2,-9.668604E-3,-5.7309438E-2],"split_indices":[92,0,1580,669,364,377,0,1288,0,0,0,0,0],"split_type":[0,0,0,0,0,0,0,0,0,0,0,0,0],"sum_hessian":[3.8664402E1,7.063521E0,3.1600883E1,1.9466915E1,1.2133966E1,1.3725323E1,5.741593E0,8.130469E0,4.003497E0,1.0050837E1,3.6744869E0,3.0081432E0,5.122327E0],"tree_param":{"num_deleted":"0","num_feature":"1963","num_nodes":"13","size_leaf_vector":"1"}},{"base_weights":[-3.791408E-2,6.239842E-1,-4.4014618E-1,5.3246588E-2,-1.6156245E-2,4.398765E-1,-7.7408373E-1,5.2291688E-2,-1.7125389E-2,-1.0386895E0,1.8235078E-2,-6.04244E-2,-7.890872E-3],"categories":[],"categories_nodes":[],"categories_segments":[],"categories_sizes":[],"default_left":[0,0,0,0,0,0,0,0,0,0,0,0,0],"id":14,"left_children":[1,3,5,-1,-1,7,9,-1,-1,11,-1,-1,-1],"loss_changes":[1.0892368E1,7.2122073E0,8.200596E0,0E0,0E0,4.6744847E0,6.632782E0,0E0,0E0,1.9095783E0,0E0,0E0,0E0],"parents":[2147483647,0,0,1,1,2,2,5,5,6,6,9,9],"right_children":[2,4,6,-1,-1,8,10,-1,-1,12,-1,-1,-1],"split_conditions":[1.1529346E0,1.7260859E-2,1.2811458E0,5.3246588E-2,-1.6156245E-2,4.8908702E-1,1.4900173E0,5.2291688E-2,-1.7125389E-2,1.5234923E0,1.8235078E-2,-6.04244E-2,-7.890872E-3],"split_indices":[719,1351,518,0,0,729,553,0,0,804,0,0,0],"split_type":[0,0,0,0,0,0,0,0,0,0,0,0,0],"sum_hessian":[3.6918232E1,1.3444023E1,2.3474209E1,9.075503E0,4.3685203E0,6.2004027E0,1.7273808E1,3.1866794E0,3.0137236E0,1.423078E1,3.0430274E0,1.1212138E1,3.0186412E0],"tree_param":{"num_deleted":"0","num_feature":"1963","num_nodes":"13","size_leaf_vector":"1"}},{"base_weights":[7.5160466E-2,-5.30062E-1,4.908434E-1,-9.2883515E-1,1.661366E-2,-7.908325E-2,1.0957385E0,-0E0,-6.2263634E-2,-4.0414657E-2,6.3802373E-1,6.388972E-2,1.5785253E-2,5.0111383E-2,6.874289E-4],"categories":[],"categories_nodes":[],"categories_segments":[],"categories_sizes":[],"default_left":[0,0,0,0,0,0,0,0,0,0,0,0,0,0,0],"id":15,"left_children":[1,3,5,7,-1,9,11,-1,-1,-1,13,-1,-1,-1,-1],"loss_changes":[1.0514143E1,6.5380826E0,8.788527E0,3.5579891E0,0E0,8.628378E0,7.663269E-1,0E0,0E0,0E0,1.7709002E0,0E0,0E0,0E0,0E0],"parents":[2147483647,0,0,1,1,2,2,3,3,5,5,6,6,10,10],"right_children":[2,4,6,8,-1,10,12,-1,-1,-1,14,-1,-1,-1,-1],"split_conditions":[3.8595903E-1,1.1160337E-1,2.714969E-2,5.92817E-2,1.661366E-2,7.981523E-2,1.7751119E-1,-0E0,-6.2263634E-2,-4.0414657E-2,1.0369713E0,6.388972E-2,1.5785253E-2,5.0111383E-2,6.874289E-4],"split_indices":[104,1860,453,1836,0,255,1947,0,0,0,509,0,0,0,0],"split_type":[0,0,0,0,0,0,0,0,0,0,0,0,0,0,0],"sum_hessian":[3.7739582E1,1.5044432E1,2.269515E1,1.0261087E1,4.7833443E0,1.2495351E1,1.01998E1,3.1451912E0,7.115896E0,6.138441E0,6.3569098E0,7.1310053E0,3.0687938E0,3.148833E0,3.2080767E0],"tree_param":{"num_deleted":"0","num_feature":"1963","num_nodes":"15","size_leaf_vector":"1"}},{"base_weights":[2.2968227E-2,-7.1272236E-1,3.6545014E-1,1.0077587E-2,-5.3976413E-2,8.306153E-1,-2.2216226E-1,1.0860419E0,-0E0,2.7503673E-2,-7.061661E-1,1.6785827E-2,6.277665E-2,-5.1912576E-2,-5.853431E-3],"categories":[],"categories_nodes":[],"categories_segments":[],"categories_sizes":[],"default_left":[0,0,0,0,0,0,0,0,0,0,0,0,0,0,0],"id":16,"left_children":[1,3,5,-1,-1,7,9,11,-1,-1,13,-1,-1,-1,-1],"loss_changes":[9.856778E0,4.6810255E0,7.7531085E0,0E0,0E0,3.3519945E0,5.7713556E0,5.101433E-1,0E0,0E0,1.4302077E0,0E0,0E0,0E0,0E0],"parents":[2147483647,0,0,1,1,2,2,5,5,6,6,7,7,10,10],"right_children":[2,4,6,-1,-1,8,10,12,-1,-1,14,-1,-1,-1,-1],"split_conditions":[3.2466918E-3,1.2288882E0,9.376099E-1,1.0077587E-2,-5.3976413E-2,1.601235E-1,6.52028E-2,7.538855E-2,-0E0,2.7503673E-2,6.175941E-2,1.6785827E-2,6.277665E-2,-5.1912576E-2,-5.853431E-3],"split_indices":[1376,625,407,0,0,1913,369,1828,0,0,1720,0,0,0,0],"split_type":[0,0,0,0,0,0,0,0,0,0,0,0,0,0,0],"sum_hessian":[3.519063E1,1.0398776E1,2.4791855E1,3.1573672E0,7.2414083E0,1.3471028E1,1.13208275E1,9.891434E0,3.5795941E0,4.176898E0,7.1439295E0,3.029871E0,6.861563E0,3.4848268E0,3.6591027E0],"tree_param":{"num_deleted":"0","num_feature":"1963","num_nodes":"15","size_leaf_vector":"1"}},{"base_weights":[6.6200785E-2,9.413083E-1,-3.3266342E-1,7.361885E-3,5.83498E-2,-8.852853E-1,3.013026E-1,3.5809241E-3,-5.9462216E-2,-2.6755115E-2,7.879117E-1,4.4770484E-4,5.9580244E-2],"categories":[],"categories_nodes":[],"categories_segments":[],"categories_sizes":[],"default_left":[0,0,0,0,0,0,0,0,0,0,0,0,0],"id":17,"left_children":[1,3,5,-1,-1,7,9,-1,-1,-1,11,-1,-1],"loss_changes":[1.3856935E1,1.7496033E0,1.0162146E1,0E0,0E0,4.6993456E0,6.6194344E0,0E0,0E0,0E0,2.945787E0,0E0,0E0],"parents":[2147483647,0,0,1,1,2,2,5,5,6,6,10,10],"right_children":[2,4,6,-1,-1,8,10,-1,-1,-1,12,-1,-1],"split_conditions":[7.917214E-2,1.2619393E-4,9.546298E-2,7.361885E-3,5.83498E-2,5.9272605E-1,6.1109823E-1,3.5809241E-3,-5.9462216E-2,-2.6755115E-2,2.359343E0,4.4770484E-4,5.9580244E-2],"split_indices":[1631,1263,1860,0,0,135,15,0,0,0,950,0,0],"split_type":[0,0,0,0,0,0,0,0,0,0,0,0,0],"sum_hessian":[3.573049E1,1.0413673E1,2.5316818E1,3.1341634E0,7.27951E0,1.3186855E1,1.2129962E1,3.468215E0,9.71864E0,4.3125496E0,7.8174124E0,3.450833E0,4.3665795E0],"tree_param":{"num_deleted":"0","num_feature":"1963","num_nodes":"13","size_leaf_vector":"1"}},{"base_weights":[9.4448425E-2,6.137489E-1,-4.407972E-1,9.0517724E-1,-2.286076E-2,-9.7360057E-1,2.694251E-1,7.884502E-4,6.2086683E-2,-5.9656024E-2,-8.839867E-3,-2.484226E-2,4.3563053E-2],"categories":[],"categories_nodes":[],"categories_segments":[],"categories_sizes":[],"default_left":[0,0,0,0,0,0,0,0,0,0,0,0,0],"id":18,"left_children":[1,3,5,7,-1,9,11,-1,-1,-1,-1,-1,-1],"loss_changes":[1.14909525E1,7.393854E0,8.328975E0,4.974534E0,0E0,1.5736008E0,5.628571E0,0E0,0E0,0E0,0E0,0E0,0E0],"parents":[2147483647,0,0,1,1,2,2,3,3,5,5,6,6],"right_children":[2,4,6,8,-1,10,12,-1,-1,-1,-1,-1,-1],"split_conditions":[1.4461482E-1,2.3879841E-1,1.0288072E-1,4.2194188E-1,-2.286076E-2,2.3978937E-1,3.8518903E-1,7.884502E-4,6.2086683E-2,-5.9656024E-2,-8.839867E-3,-2.484226E-2,4.3563053E-2],"split_indices":[1580,37,1868,244,0,303,798,0,0,0,0,0,0],"split_type":[0,0,0,0,0,0,0,0,0,0,0,0,0],"sum_hessian":[3.7332436E1,1.88944E1,1.8438034E1,1.5169489E1,3.7249105E0,1.0191541E1,8.246494E0,4.8207254E0,1.0348763E1,7.1119285E0,3.079612E0,3.7080584E0,4.5384355E0],"tree_param":{"num_deleted":"0","num_feature":"1963","num_nodes":"13","size_leaf_vector":"1"}},{"base_weights":[-0E0,4.3751088E-1,-5.7661724E-1,9.484713E-1,-2.0665549E-1,8.116321E-2,-5.0425023E-2,5.9814822E-2,3.7243706E-3,3.5320327E-2,-4.2562075E-2,3.4644727E-2,-2.6532967E-2],"categories":[],"categories_nodes":[],"categories_segments":[],"categories_sizes":[],"default_left":[0,0,0,0,0,0,0,0,0,0,0,0,0],"id":19,"left_children":[1,3,5,7,9,11,-1,-1,-1,-1,-1,-1,-1],"loss_changes":[1.0153298E1,7.9554625E0,5.2102566E0,2.539298E0,8.056382E0,3.996784E0,0E0,0E0,0E0,0E0,0E0,0E0,0E0],"parents":[2147483647,0,0,1,1,2,2,3,3,4,4,5,5],"right_children":[2,4,6,8,10,12,-1,-1,-1,-1,-1,-1,-1],"split_conditions":[1.5371467E-1,1.795924E-1,1.1588129E-1,6.0751643E-2,1.454569E0,2.7724525E-2,-5.0425023E-2,5.9814822E-2,3.7243706E-3,3.5320327E-2,-4.2562075E-2,3.4644727E-2,-2.6532967E-2],"split_indices":[1580,669,1689,1613,880,1941,0,0,0,0,0,0,0],"split_type":[0,0,0,0,0,0,0,0,0,0,0,0,0],"sum_hessian":[3.619164E1,2.0753805E1,1.5437836E1,1.113323E1,9.620574E0,6.670666E0,8.767169E0,8.009954E0,3.1232762E0,3.8376107E0,5.7829638E0,3.2847924E0,3.385874E0],"tree_param":{"num_deleted":"0","num_feature":"1963","num_nodes":"13","size_leaf_vector":"1"}},{"base_weights":[1.3770192E-2,-5.175339E-2,2.541192E-1,7.3197967E-1,-3.1914788E-1,9.937746E-1,-1.3637721E-2,3.465699E-2,-6.595187E-1,6.1828494E-2,5.7394765E-3,4.4929995E-3,-5.128948E-2],"categories":[],"categories_nodes":[],"categories_segments":[],"categories_sizes":[],"default_left":[0,0,0,0,0,0,0,0,0,0,0,0,0],"id":20,"left_children":[1,-1,3,5,7,9,-1,-1,11,-1,-1,-1,-1],"loss_changes":[1.0175329E1,0E0,9.569572E0,5.543956E0,6.53913E0,2.8627377E0,0E0,0E0,3.934857E0,0E0,0E0,0E0,0E0],"parents":[2147483647,0,0,2,2,3,3,4,4,5,5,8,8],"right_children":[2,-1,4,6,8,10,-1,-1,12,-1,-1,-1,-1],"split_conditions":[6.654699E-2,-5.175339E-2,1.080334E0,5.8206756E-2,9.184703E-1,1.0354836E-2,-1.3637721E-2,3.465699E-2,1.1409879E-2,6.1828494E-2,5.7394765E-3,4.4929995E-3,-5.128948E-2],"split_indices":[92,0,646,1870,533,1909,0,0,437,0,0,0,0],"split_type":[0,0,0,0,0,0,0,0,0,0,0,0,0],"sum_hessian":[3.6587307E1,5.51067E0,3.1076635E1,1.6741817E1,1.4334818E1,1.33775015E1,3.364316E0,3.0115628E0,1.1323255E1,9.755435E0,3.6220665E0,4.123338E0,7.1999164E0],"tree_param":{"num_deleted":"0","num_feature":"1963","num_nodes":"13","size_leaf_vector":"1"}},{"base_weights":[-3.0635236E-2,-4.6181262E-1,6.2062675E-1,-8.069876E-1,5.6323376E-2,4.908463E-2,-8.856066E-3,-5.5468053E-2,-4.0066624E-3,4.0194158E-2,-2.1540323E-2],"categories":[],"categories_nodes":[],"categories_segments":[],"categories_sizes":[],"default_left":[0,0,0,0,0,0,0,0,0,0,0],"id":21,"left_children":[1,3,5,7,9,-1,-1,-1,-1,-1,-1],"loss_changes":[1.0642745E1,4.252289E0,4.7682247E0,2.7712088E0,4.695249E0,0E0,0E0,0E0,0E0,0E0,0E0],"parents":[2147483647,0,0,1,1,2,2,3,3,4,4],"right_children":[2,4,6,8,10,-1,-1,-1,-1,-1,-1],"split_conditions":[2.5866592E-1,9.664961E-2,5.052334E-1,7.8833014E-2,2.1237833E-2,4.908463E-2,-8.856066E-3,-5.5468053E-2,-4.0066624E-3,4.0194158E-2,-2.1540323E-2],"split_indices":[1916,1803,316,1957,999,0,0,0,0,0,0],"split_type":[0,0,0,0,0,0,0,0,0,0,0],"sum_hessian":[3.391546E1,2.084805E1,1.3067411E1,1.1959099E1,8.88895E0,8.764663E0,4.302748E0,7.605225E0,4.3538737E0,3.0749156E0,5.8140345E0],"tree_param":{"num_deleted":"0","num_feature":"1963","num_nodes":"11","size_leaf_vector":"1"}},{"base_weights":[4.471482E-2,6.327106E-1,-4.7686777E-1,-8.605391E-3,9.972796E-1,-7.413853E-1,2.4439033E-2,-3.3141676E-2,3.538373E-2,1.829554E-2,5.9076536E-2,-2.4645668E-4,-1.0630566E0,-6.1593264E-2,-1.6380891E-2],"categories":[],"categories_nodes":[],"categories_segments":[],"categories_sizes":[],"default_left":[0,0,0,0,0,0,0,0,0,0,0,0,0,0,0],"id":22,"left_children":[1,3,5,7,9,11,-1,-1,-1,-1,-1,-1,13,-1,-1],"loss_changes":[1.2576737E1,4.6232367E0,6.295946E0,5.090426E0,4.2393303E-1,4.127763E0,0E0,0E0,0E0,0E0,0E0,0E0,5.7236385E-1,0E0,0E0],"parents":[2147483647,0,0,1,1,2,2,3,3,4,4,5,5,12,12],"right_children":[2,4,6,8,10,12,-1,-1,-1,-1,-1,-1,14,-1,-1],"split_conditions":[7.6686823E-1,2.9197067E-1,1.0670055E-1,3.0099738E-3,7.2216295E-2,5.0410066E-2,2.4439033E-2,-3.3141676E-2,3.538373E-2,1.829554E-2,5.9076536E-2,-2.4645668E-4,6.578733E-1,-6.1593264E-2,-1.6380891E-2],"split_indices":[1013,147,169,1518,398,304,0,0,0,0,0,0,1045,0,0],"split_type":[0,0,0,0,0,0,0,0,0,0,0,0,0,0,0],"sum_hessian":[3.6989796E1,1.7277714E1,1.971208E1,6.8704147E0,1.0407299E1,1.591937E1,3.7927108E0,3.7417026E0,3.128712E0,3.8227127E0,6.5845866E0,5.5513215E0,1.0368048E1,7.2239203E0,3.1441276E0],"tree_param":{"num_deleted":"0","num_feature":"1963","num_nodes":"15","size_leaf_vector":"1"}},{"base_weights":[3.186994E-2,-5.2290016E-1,3.6408615E-1,-8.787748E-1,2.1222372E-2,7.3277235E-1,-2.828469E-1,-9.086835E-3,-5.435567E-2,-1.5630143E-2,1.0292407E0,-3.968018E-2,2.6183996E-2,6.232196E-2,9.106887E-3],"categories":[],"categories_nodes":[],"categories_segments":[],"categories_sizes":[],"default_left":[0,0,0,0,0,0,0,0,0,0,0,0,0,0,0],"id":23,"left_children":[1,3,5,7,-1,9,11,-1,-1,-1,13,-1,-1,-1,-1],"loss_changes":[7.2915387E0,5.7758827E0,6.374265E0,1.1444502E0,0E0,5.8138113E0,5.120384E0,0E0,0E0,0E0,1.8606672E0,0E0,0E0,0E0,0E0],"parents":[2147483647,0,0,1,1,2,2,3,3,5,5,6,6,10,10],"right_children":[2,4,6,8,-1,10,12,-1,-1,-1,14,-1,-1,-1,-1],"split_conditions":[6.574445E-2,2.7518135E-1,3.2901815E-3,2.3053293E-1,2.1222372E-2,6.900395E-2,3.3190256E-1,-9.086835E-3,-5.435567E-2,-1.5630143E-2,2.8934368E-1,-3.968018E-2,2.6183996E-2,6.232196E-2,9.106887E-3],"split_indices":[1559,1893,1165,114,0,92,13,0,0,0,139,0,0,0,0],"split_type":[0,0,0,0,0,0,0,0,0,0,0,0,0,0,0],"sum_hessian":[3.558287E1,1.2784681E1,2.279819E1,9.475501E0,3.309181E0,1.4451502E1,8.346687E0,3.1525693E0,6.322932E0,3.0943575E0,1.1357143E1,5.2059207E0,3.1407661E0,8.1950445E0,3.1620994E0],"tree_param":{"num_deleted":"0","num_feature":"1963","num_nodes":"15","size_leaf_vector":"1"}},{"base_weights":[-2.1939237E-2,-4.1669568E-1,5.69615E-1,2.5997207E-2,-6.8716574E-1,9.427923E-1,-1.507385E-2,-8.7217313E-1,7.361864E-3,1.5626129E-2,5.486549E-2,-5.6049373E-2,3.4102101E-3],"categories":[],"categories_nodes":[],"categories_segments":[],"categories_sizes":[],"default_left":[0,0,0,0,0,0,0,0,0,0,0,0,0],"id":24,"left_children":[1,3,5,-1,7,9,-1,11,-1,-1,-1,-1,-1],"loss_changes":[9.284102E0,6.7913904E0,5.790963E0,0E0,3.3404531E0,3.1006908E-1,0E0,4.084402E0,0E0,0E0,0E0,0E0,0E0],"parents":[2147483647,0,0,1,1,2,2,4,4,5,5,7,7],"right_children":[2,4,6,-1,8,10,-1,12,-1,-1,-1,-1,-1],"split_conditions":[2.5866592E-1,1.2528323E0,6.128012E-1,2.5997207E-2,1.068327E0,2.433771E-1,-1.507385E-2,2.2543826E0,7.361864E-3,1.5626129E-2,5.486549E-2,-5.6049373E-2,3.4102101E-3],"split_indices":[1916,518,906,0,929,1661,0,949,0,0,0,0,0],"split_type":[0,0,0,0,0,0,0,0,0,0,0,0,0],"sum_hessian":[3.578986E1,2.1921448E1,1.386841E1,4.4156265E0,1.7505821E1,9.67416E0,4.19425E0,1.4352777E1,3.1530454E0,3.2224114E0,6.4517484E0,1.1130087E1,3.2226896E0],"tree_param":{"num_deleted":"0","num_feature":"1963","num_nodes":"13","size_leaf_vector":"1"}},{"base_weights":[-5.209873E-2,5.906778E-1,-3.893524E-1,4.5211956E-2,-1.1259275E-2,-8.192656E-1,3.7118983E-1,2.2548588E-3,-1.0535995E0,4.167361E-2,-1.634574E-2,-5.931394E-2,-1.7163888E-2],"categories":[],"categories_nodes":[],"categories_segments":[],"categories_sizes":[],"default_left":[0,0,0,0,0,0,0,0,0,0,0,0,0],"id":25,"left_children":[1,3,5,-1,-1,7,9,-1,11,-1,-1,-1,-1],"loss_changes":[8.371553E0,3.8734417E0,8.927002E0,0E0,0E0,3.61376E0,3.9618998E0,0E0,3.0004215E-1,0E0,0E0,0E0,0E0],"parents":[2147483647,0,0,1,1,2,2,5,5,6,6,8,8],"right_children":[2,4,6,-1,-1,8,10,-1,12,-1,-1,-1,-1],"split_conditions":[4.649267E-2,1.1075303E-1,3.9887434E-1,4.5211956E-2,-1.1259275E-2,4.0960073E-1,9.811368E-1,2.2548588E-3,4.4123656E-1,4.167361E-2,-1.634574E-2,-5.931394E-2,-1.7163888E-2],"split_indices":[1613,1576,46,0,0,876,913,0,254,0,0,0,0],"split_type":[0,0,0,0,0,0,0,0,0,0,0,0,0],"sum_hessian":[3.458902E1,1.1283761E1,2.330526E1,8.083102E0,3.2006586E0,1.4874298E1,8.430963E0,3.4259005E0,1.1448397E1,4.9250455E0,3.5059175E0,8.398721E0,3.0496764E0],"tree_param":{"num_deleted":"0","num_feature":"1963","num_nodes":"13","size_leaf_vector":"1"}},{"base_weights":[-1.6779687E-2,6.2893236E-1,-3.7857333E-1,9.014815E-1,-7.6448335E-3,2.3440449E-1,-8.1708616E-1,5.4517653E-2,1.2542643E-2,7.1726966E-1,-2.9368443E-2,7.778305E-3,-5.572479E-2,9.836959E-3,4.6861347E-2],"categories":[],"categories_nodes":[],"categories_segments":[],"categories_sizes":[],"default_left":[0,0,0,0,0,0,0,0,0,0,0,0,0,0,0],"id":26,"left_children":[1,3,5,7,-1,9,11,-1,-1,13,-1,-1,-1,-1,-1],"loss_changes":[8.636626E0,3.170617E0,6.839778E0,5.720644E-1,0E0,5.373703E0,4.6133413E0,0E0,0E0,4.508505E-1,0E0,0E0,0E0,0E0,0E0],"parents":[2147483647,0,0,1,1,2,2,3,3,5,5,6,6,9,9],"right_children":[2,4,6,8,-1,10,12,-1,-1,14,-1,-1,-1,-1,-1],"split_conditions":[7.9208665E-2,2.4810492E-1,5.5458862E-2,4.3023065E-2,-7.6448335E-3,1.2476591E-1,1.0202583E-1,5.4517653E-2,1.2542643E-2,2.3213485E-1,-2.9368443E-2,7.778305E-3,-5.572479E-2,9.836959E-3,4.6861347E-2],"split_indices":[501,948,304,199,0,1651,1821,0,0,1706,0,0,0,0,0],"split_type":[0,0,0,0,0,0,0,0,0,0,0,0,0,0,0],"sum_hessian":[3.3038357E1,1.12344675E1,2.180389E1,8.1983185E0,3.036149E0,9.386201E0,1.241769E1,5.187149E0,3.01117E0,6.149088E0,3.237113E0,3.0524712E0,9.365219E0,3.087059E0,3.062029E0],"tree_param":{"num_deleted":"0","num_feature":"1963","num_nodes":"15","size_leaf_vector":"1"}},{"base_weights":[4.351395E-2,-2.3406658E-1,7.761291E-1,3.430633E-1,-6.337397E-1,5.481402E-3,5.086682E-2,-1.7570183E-2,4.4928007E-2,-8.751554E-1,9.132371E-3,-1.5479256E-3,-5.5579443E-2],"categories":[],"categories_nodes":[],"categories_segments":[],"categories_sizes":[],"default_left":[0,0,0,0,0,0,0,0,0,0,0,0,0],"id":27,"left_children":[1,3,5,7,9,-1,-1,-1,-1,11,-1,-1,-1],"loss_changes":[7.9125566E0,6.9608316E0,1.3827653E0,5.593225E0,3.8274384E0,0E0,0E0,0E0,0E0,2.5922337E0,0E0,0E0,0E0],"parents":[2147483647,0,0,1,1,2,2,3,3,4,4,9,9],"right_children":[2,4,6,8,10,-1,-1,-1,-1,12,-1,-1,-1],"split_conditions":[2.9220614E-1,4.162128E-1,1.1989062E0,8.390639E-3,8.6723745E-1,5.481402E-3,5.086682E-2,-1.7570183E-2,4.4928007E-2,2.2708783E-1,9.132371E-3,-1.5479256E-3,-5.5579443E-2],"split_indices":[1916,1043,742,49,856,0,0,0,0,139,0,0,0],"split_type":[0,0,0,0,0,0,0,0,0,0,0,0,0],"sum_hessian":[3.4855965E1,2.6166323E1,8.689643E0,1.0719865E1,1.5446458E1,3.1922977E0,5.4973454E0,5.010575E0,5.70929E0,1.1904632E1,3.5418258E0,3.1920605E0,8.712571E0],"tree_param":{"num_deleted":"0","num_feature":"1963","num_nodes":"13","size_leaf_vector":"1"}},{"base_weights":[6.2436998E-2,7.95532E-1,-1.8112424E-1,9.336363E-3,5.0456192E-2,-5.177717E-1,5.123185E-1,-8.3661544E-1,1.5796E-2,4.6978585E-2,-1.2290324E-2,-3.5379076E-4,-5.2408606E-2],"categories":[],"categories_nodes":[],"categories_segments":[],"categories_sizes":[],"default_left":[0,0,0,0,0,0,0,0,0,0,0,0,0],"id":28,"left_children":[1,3,5,-1,-1,7,9,11,-1,-1,-1,-1,-1],"loss_changes":[6.8413925E0,7.4412537E-1,7.2583537E0,0E0,0E0,6.0275974E0,3.8760245E0,2.592331E0,0E0,0E0,0E0,0E0,0E0],"parents":[2147483647,0,0,1,1,2,2,5,5,6,6,7,7],"right_children":[2,4,6,-1,-1,8,10,12,-1,-1,-1,-1,-1],"split_conditions":[2.7458313E-1,5.9030874E-4,5.022425E-4,9.336363E-3,5.0456192E-2,2.6617218E-2,1.4693353E-1,5.2768394E-2,1.5796E-2,4.6978585E-2,-1.2290324E-2,-3.5379076E-4,-5.2408606E-2],"split_indices":[212,1176,1263,0,0,901,1580,413,0,0,0,0,0],"split_type":[0,0,0,0,0,0,0,0,0,0,0,0,0],"sum_hessian":[3.4357567E1,7.5402474E0,2.681732E1,3.0534818E0,4.486766E0,1.8491213E1,8.326106E0,1.3457394E1,5.0338197E0,5.1032963E0,3.22281E0,3.250675E0,1.0206718E1],"tree_param":{"num_deleted":"0","num_feature":"1963","num_nodes":"13","size_leaf_vector":"1"}},{"base_weights":[8.840245E-2,-3.686828E-1,5.3058285E-1,-6.9570565E-1,3.0015884E-2,8.4506506E-1,-8.303568E-3,9.268145E-3,-4.9309153E-2,4.814978E-3,5.4861862E-2],"categories":[],"categories_nodes":[],"categories_segments":[],"categories_sizes":[],"default_left":[0,0,0,0,0,0,0,0,0,0,0],"id":29,"left_children":[1,3,5,7,-1,9,-1,-1,-1,-1,-1],"loss_changes":[7.8526735E0,6.923317E0,4.6546764E0,4.37304E0,0E0,2.3069572E0,0E0,0E0,0E0,0E0,0E0],"parents":[2147483647,0,0,1,1,2,2,3,3,5,5],"right_children":[2,4,6,8,-1,10,-1,-1,-1,-1,-1],"split_conditions":[9.594864E-2,2.0600657E-3,5.5096105E-2,2.6108354E-2,3.0015884E-2,4.417491E-3,-8.303568E-3,9.268145E-3,-4.9309153E-2,4.814978E-3,5.4861862E-2],"split_indices":[1860,1196,1820,1193,0,138,0,0,0,0,0],"split_type":[0,0,0,0,0,0,0,0,0,0,0],"sum_hessian":[3.483686E1,1.7181988E1,1.7654873E1,1.3345395E1,3.8365927E0,1.1969225E1,5.685648E0,3.4029942E0,9.942401E0,3.811675E0,8.15755E0],"tree_param":{"num_deleted":"0","num_feature":"1963","num_nodes":"11","size_leaf_vector":"1"}},{"base_weights":[7.98809E-2,-5.4375494E-1,4.0655267E-1,-4.7242716E-2,1.991356E-2,-2.9365767E-2,6.680411E-1,9.258539E-1,-1.0775159E-2,5.4295547E-2,7.0143403E-3],"categories":[],"categories_nodes":[],"categories_segments":[],"categories_sizes":[],"default_left":[0,0,0,0,0,0,0,0,0,0,0],"id":30,"left_children":[1,3,5,-1,-1,-1,7,9,-1,-1,-1],"loss_changes":[7.479091E0,5.586026E0,7.020035E0,0E0,0E0,0E0,5.022628E0,1.5764971E0,0E0,0E0,0E0],"parents":[2147483647,0,0,1,1,2,2,6,6,7,7],"right_children":[2,4,6,-1,-1,-1,8,10,-1,-1,-1],"split_conditions":[6.574445E-2,2.5651675E-1,5.5119026E-1,-4.7242716E-2,1.991356E-2,-2.9365767E-2,1.1011781E-2,1.50532E-1,-1.0775159E-2,5.4295547E-2,7.0143403E-3],"split_indices":[1559,1458,599,0,0,0,1453,1749,0,0,0],"split_type":[0,0,0,0,0,0,0,0,0,0,0],"sum_hessian":[3.2608948E1,1.0647348E1,2.1961597E1,7.537958E0,3.1093898E0,3.9758034E0,1.7985794E1,1.3936592E1,4.0492034E0,1.0836696E1,3.0998962E0],"tree_param":{"num_deleted":"0","num_feature":"1963","num_nodes":"11","size_leaf_vector":"1"}},{"base_weights":[-1.3201822E-2,6.1927295E-1,-3.3533064E-1,4.7704235E-2,-1.1668879E-2,-5.147962E-1,2.5873998E-2,1.7532106E-2,-7.3887634E-1,-1.0238352E0,1.5392946E-2,-5.693167E-2,-1.6734412E-2],"categories":[],"categories_nodes":[],"categories_segments":[],"categories_sizes":[],"default_left":[0,0,0,0,0,0,0,0,0,0,0,0,0],"id":31,"left_children":[1,3,5,-1,-1,7,-1,-1,9,11,-1,-1,-1],"loss_changes":[7.7415895E0,4.165561E0,4.4076605E0,0E0,0E0,4.8266835E0,0E0,0E0,6.137847E0,2.6626873E-1,0E0,0E0,0E0],"parents":[2147483647,0,0,1,1,2,2,5,5,8,8,9,9],"right_children":[2,4,6,-1,-1,8,-1,-1,10,12,-1,-1,-1],"split_conditions":[1.134801E0,7.590979E-2,3.2703787E-2,4.7704235E-2,-1.1668879E-2,3.7622574E-1,2.5873998E-2,1.7532106E-2,1.4900173E0,1.1439891E0,1.5392946E-2,-5.693167E-2,-1.6734412E-2],"split_indices":[719,1718,1128,0,0,282,0,0,553,969,0,0,0],"split_type":[0,0,0,0,0,0,0,0,0,0,0,0,0],"sum_hessian":[3.4098564E1,1.0779178E1,2.3319387E1,7.6532984E0,3.125879E0,2.0016977E1,3.302409E0,3.7927618E0,1.6224216E1,1.2862007E1,3.362209E0,9.782807E0,3.0791993E0],"tree_param":{"num_deleted":"0","num_feature":"1963","num_nodes":"13","size_leaf_vector":"1"}},{"base_weights":[5.597827E-2,6.7280334E-1,-2.38966E-1,-1.3455547E-3,5.099854E-2,-6.7642415E-1,2.3900111E-1,6.1747427E-3,-4.7173873E-2,-1.820381E-2,3.9527856E-2],"categories":[],"categories_nodes":[],"categories_segments":[],"categories_sizes":[],"default_left":[0,0,0,0,0,0,0,0,0,0,0],"id":32,"left_children":[1,3,5,-1,-1,7,9,-1,-1,-1,-1],"loss_changes":[6.586054E0,2.9952612E0,5.489742E0,0E0,0E0,3.1825376E0,4.967907E0,0E0,0E0,0E0,0E0],"parents":[2147483647,0,0,1,1,2,2,5,5,6,6],"right_children":[2,4,6,-1,-1,8,10,-1,-1,-1,-1],"split_conditions":[1.134801E0,1.5624899E-1,1.7919952E0,-1.3455547E-3,5.099854E-2,1.8820368E-1,7.485839E-1,6.1747427E-3,-4.7173873E-2,-1.820381E-2,3.9527856E-2],"split_indices":[719,190,512,0,0,441,762,0,0,0,0],"split_type":[0,0,0,0,0,0,0,0,0,0,0],"sum_hessian":[3.219529E1,9.695543E0,2.2499748E1,3.7315478E0,5.9639955E0,1.1423353E1,1.1076395E1,3.0345316E0,8.388822E0,5.529211E0,5.547184E0],"tree_param":{"num_deleted":"0","num_feature":"1963","num_nodes":"11","size_leaf_vector":"1"}},{"base_weights":[1.23192005E-1,-3.6959324E-2,3.3072904E-1,5.542419E-1,-2.100466E-2,-3.2824574E-3,7.7116364E-1,4.9489103E-2,4.7597303E-3],"categories":[],"categories_nodes":[],"categories_segments":[],"categories_sizes":[],"default_left":[0,0,0,0,0,0,0,0,0],"id":33,"left_children":[1,-1,3,5,-1,-1,7,-1,-1],"loss_changes":[6.5695834E0,0E0,5.353142E0,3.3110876E0,0E0,0E0,2.2996216E0,0E0,0E0],"parents":[2147483647,0,0,2,2,3,3,6,6],"right_children":[2,-1,4,6,-1,-1,8,-1,-1],"split_conditions":[6.654699E-2,-3.6959324E-2,3.3542544E-1,8.654558E-2,-2.100466E-2,-3.2824574E-3,1.6026536E-1,4.9489103E-2,4.7597303E-3],"split_indices":[92,0,144,1860,0,0,257,0,0],"split_type":[0,0,0,0,0,0,0,0,0],"sum_hessian":[3.2202946E1,5.1592913E0,2.7043657E1,2.1345982E1,5.697674E0,5.7754292E0,1.5570553E1,1.0952071E1,4.618482E0],"tree_param":{"num_deleted":"0","num_feature":"1963","num_nodes":"9","size_leaf_vector":"1"}},{"base_weights":[-2.347485E-3,-3.8240844E-1,5.3224504E-1,1.6676275E-2,-7.019669E-1,8.436185E-1,-7.781402E-3,-9.316847E-1,6.0150707E-3,9.750098E-3,5.179406E-2,-1.1641641E-2,-5.500524E-2],"categories":[],"categories_nodes":[],"categories_segments":[],"categories_sizes":[],"default_left":[0,0,0,0,0,0,0,0,0,0,0,0,0],"id":34,"left_children":[1,3,5,-1,7,9,-1,11,-1,-1,-1,-1,-1],"loss_changes":[7.4848495E0,5.464345E0,3.5939517E0,0E0,3.2761436E0,8.3187914E-1,0E0,8.3948326E-1,0E0,0E0,0E0,0E0,0E0],"parents":[2147483647,0,0,1,1,2,2,4,4,5,5,7,7],"right_children":[2,4,6,-1,8,10,-1,12,-1,-1,-1,-1,-1],"split_conditions":[1.0316275E-1,2.0462866E-1,5.5096105E-2,1.6676275E-2,4.2763588E-1,3.5805292E-2,-7.781402E-3,8.2769886E-2,6.0150707E-3,9.750098E-3,5.179406E-2,-1.1641641E-2,-5.500524E-2],"split_indices":[1860,494,1820,0,826,109,0,669,0,0,0,0,0],"split_type":[0,0,0,0,0,0,0,0,0,0,0,0,0],"sum_hessian":[3.290915E1,1.9676691E1,1.3232459E1,5.948782E0,1.3727909E1,8.897465E0,4.334994E0,1.0617243E1,3.1106665E0,3.0743766E0,5.8230886E0,3.1024444E0,7.514798E0],"tree_param":{"num_deleted":"0","num_feature":"1963","num_nodes":"13","size_leaf_vector":"1"}},{"base_weights":[2.9760279E-2,6.08596E-1,-2.3128612E-1,-1.3015404E-3,4.767686E-2,2.6689757E-2,-5.181356E-1,1.8933516E-2,-7.4952555E-1,-9.610183E-1,2.3930927E-3,-5.575452E-2,-1.3437911E-2],"categories":[],"categories_nodes":[],"categories_segments":[],"categories_sizes":[],"default_left":[0,0,0,0,0,0,0,0,0,0,0,0,0],"id":35,"left_children":[1,3,5,-1,-1,-1,7,-1,9,11,-1,-1,-1],"loss_changes":[5.4271812E0,2.5890608E0,5.9564548E0,0E0,0E0,0E0,4.552006E0,0E0,2.8614235E0,6.2163925E-1,0E0,0E0,0E0],"parents":[2147483647,0,0,1,1,2,2,6,6,8,8,9,9],"right_children":[2,4,6,-1,-1,-1,8,-1,10,12,-1,-1,-1],"split_conditions":[1.2528323E0,1.7979948E-1,2.280692E-1,-1.3015404E-3,4.767686E-2,2.6689757E-2,6.0757557E-3,1.8933516E-2,4.32403E-1,1.9724438E0,2.3930927E-3,-5.575452E-2,-1.3437911E-2],"split_indices":[518,154,498,0,0,0,1249,0,459,897,0,0,0],"split_type":[0,0,0,0,0,0,0,0,0,0,0,0,0],"sum_hessian":[3.18043E1,9.176643E0,2.2627657E1,3.7804656E0,5.396178E0,5.605731E0,1.7021925E1,3.1414235E0,1.3880503E1,1.0745454E1,3.1350484E0,7.6719146E0,3.0735393E0],"tree_param":{"num_deleted":"0","num_feature":"1963","num_nodes":"13","size_leaf_vector":"1"}},{"base_weights":[5.161307E-3,-3.634013E-1,4.109371E-1,2.0815097E-2,-7.110391E-1,7.041224E-1,-9.406314E-3,-4.5550253E-2,-5.902128E-4,5.718008E-4,5.283297E-2],"categories":[],"categories_nodes":[],"categories_segments":[],"categories_sizes":[],"default_left":[0,0,0,0,0,0,0,0,0,0,0],"id":36,"left_children":[1,3,5,-1,7,9,-1,-1,-1,-1,-1],"loss_changes":[5.306252E0,5.625668E0,3.3005562E0,0E0,1.7872572E0,2.7849512E0,0E0,0E0,0E0,0E0,0E0],"parents":[2147483647,0,0,1,1,2,2,4,4,5,5],"right_children":[2,4,6,-1,8,10,-1,-1,-1,-1,-1],"split_conditions":[1.0741348E-1,1.5069064E0,1.285939E0,2.0815097E-2,1.2735335E0,8.112276E-1,-9.406314E-3,-4.5550253E-2,-5.902128E-4,5.718008E-4,5.283297E-2],"split_indices":[1868,880,847,0,630,801,0,0,0,0,0],"split_type":[0,0,0,0,0,0,0,0,0,0,0],"sum_hessian":[3.14517E1,1.6461908E1,1.4989792E1,4.8658333E0,1.1596075E1,9.940858E0,5.0489345E0,8.43509E0,3.1609848E0,4.1450143E0,5.7958436E0],"tree_param":{"num_deleted":"0","num_feature":"1963","num_nodes":"11","size_leaf_vector":"1"}},{"base_weights":[-2.670448E-3,-2.9651377E-1,5.8089346E-1,-5.685263E-1,1.7827807E-2,4.4198267E-2,-4.879873E-3,-3.1544093E-2,-4.6525892E-2,-2.7429223E-2,2.300956E-2],"categories":[],"categories_nodes":[],"categories_segments":[],"categories_sizes":[],"default_left":[0,0,0,0,0,0,0,0,0,0,0],"id":37,"left_children":[1,3,5,7,-1,-1,-1,9,-1,-1,-1],"loss_changes":[5.8873167E0,4.5207996E0,2.6041832E0,3.1786284E0,0E0,0E0,0E0,2.8240817E0,0E0,0E0,0E0],"parents":[2147483647,0,0,1,1,2,2,3,3,7,7],"right_children":[2,4,6,8,-1,-1,-1,10,-1,-1,-1],"split_conditions":[2.5534797E-1,6.0433894E-1,2.813411E-1,1.8223794E-4,1.7827807E-2,4.4198267E-2,-4.879873E-3,8.239411E-4,-4.6525892E-2,-2.7429223E-2,2.300956E-2],"split_indices":[1893,300,1661,1387,0,0,0,1358,0,0,0],"split_type":[0,0,0,0,0,0,0,0,0,0,0],"sum_hessian":[3.0490011E1,2.1047205E1,9.442805E0,1.5149334E1,5.8978715E0,6.210412E0,3.232393E0,7.086971E0,8.062363E0,3.4410179E0,3.6459532E0],"tree_param":{"num_deleted":"0","num_feature":"1963","num_nodes":"11","size_leaf_vector":"1"}},{"base_weights":[-0E0,-4.079821E-2,2.1665393E-1,7.207987E-1,-1.8195212E-1,4.5964282E-2,2.497855E-3,-6.2215155E-1,2.5455818E-2,-4.7717016E-2,4.385379E-3],"categories":[],"categories_nodes":[],"categories_segments":[],"categories_sizes":[],"default_left":[0,0,0,0,0,0,0,0,0,0,0],"id":38,"left_children":[1,-1,3,5,7,-1,-1,9,-1,-1,-1],"loss_changes":[6.2805133E0,0E0,5.9490614E0,1.5276575E0,5.8588834E0,0E0,0E0,2.9561553E0,0E0,0E0,0E0],"parents":[2147483647,0,0,2,2,3,3,4,4,7,7],"right_children":[2,-1,4,6,8,-1,-1,10,-1,-1,-1],"split_conditions":[6.900395E-2,-4.079821E-2,6.0375392E-2,1.4593771E-1,8.006144E-2,4.5964282E-2,2.497855E-3,1.7896019E-1,2.5455818E-2,-4.7717016E-2,4.385379E-3],"split_indices":[92,0,1677,1576,1929,0,0,1902,0,0,0],"split_type":[0,0,0,0,0,0,0,0,0,0,0],"sum_hessian":[3.1487421E1,5.4569087E0,2.6030512E1,1.089064E1,1.5139872E1,7.7174573E0,3.1731832E0,9.458875E0,5.680997E0,6.0702643E0,3.3886104E0],"tree_param":{"num_deleted":"0","num_feature":"1963","num_nodes":"11","size_leaf_vector":"1"}},{"base_weights":[-1.0818322E-1,2.5338256E-1,-5.385815E-1,-2.1842854E-1,6.16396E-1,1.307112E-2,-8.15283E-1,1.4074648E-2,-3.193396E-2,4.2187165E-2,1.6562169E-3,-5.071479E-2,-7.212379E-3],"categories":[],"categories_nodes":[],"categories_segments":[],"categories_sizes":[],"default_left":[0,0,0,0,0,0,0,0,0,0,0,0,0],"id":39,"left_children":[1,3,5,7,9,-1,11,-1,-1,-1,-1,-1,-1],"loss_changes":[4.9539604E0,3.303219E0,3.6726942E0,2.277419E0,1.2518256E0,0E0,1.099155E0,0E0,0E0,0E0,0E0,0E0,0E0],"parents":[2147483647,0,0,1,1,2,2,3,3,4,4,6,6],"right_children":[2,4,6,8,10,-1,12,-1,-1,-1,-1,-1,-1],"split_conditions":[8.2861656E-1,2.9718438E-1,4.5554757E-2,1.6478162E0,4.275747E-1,1.307112E-2,1.139414E0,1.4074648E-2,-3.193396E-2,4.2187165E-2,1.6562169E-3,-5.071479E-2,-7.212379E-3],"split_indices":[1013,147,22,663,193,0,715,0,0,0,0,0,0],"split_type":[0,0,0,0,0,0,0,0,0,0,0,0,0],"sum_hessian":[2.7897106E1,1.5481634E1,1.2415472E1,6.9586015E0,8.523033E0,3.1261454E0,9.289327E0,3.3709693E0,3.5876322E0,5.3666406E0,3.156392E0,6.26051E0,3.028816E0],"tree_param":{"num_deleted":"0","num_feature":"1963","num_nodes":"13","size_leaf_vector":"1"}},{"base_weights":[8.546392E-3,-4.153917E-1,3.6908096E-1,1.2961467E-1,-4.134528E-2,-1.8777499E-1,6.789274E-1,-2.686274E-2,3.7352633E-2,-2.692316E-2,1.1220857E-2,-2.2622966E-4,5.0971072E-2],"categories":[],"categories_nodes":[],"categories_segments":[],"categories_sizes":[],"default_left":[0,0,0,0,0,0,0,0,0,0,0,0,0],"id":40,"left_children":[1,3,5,7,-1,9,11,-1,-1,-1,-1,-1,-1],"loss_changes":[5.259658E0,3.809892E0,3.5332232E0,4.277377E0,0E0,1.4500248E0,3.036655E0,0E0,0E0,0E0,0E0,0E0,0E0],"parents":[2147483647,0,0,1,1,2,2,3,3,5,5,6,6],"right_children":[2,4,6,8,-1,10,12,-1,-1,-1,-1,-1,-1],"split_conditions":[1.8493384E-2,3.596722E-1,3.0084107E-2,2.1055272E-2,-4.134528E-2,2.1804065E-1,1.0696404E0,-2.686274E-2,3.7352633E-2,-2.692316E-2,1.1220857E-2,-2.2622966E-4,5.0971072E-2],"split_indices":[453,317,1859,216,0,260,654,0,0,0,0,0,0],"split_type":[0,0,0,0,0,0,0,0,0,0,0,0,0],"sum_hessian":[3.0436022E1,1.3720712E1,1.671531E1,6.3878016E0,7.3329105E0,6.142042E0,1.0573267E1,3.1179743E0,3.2698274E0,3.1186533E0,3.023389E0,4.0745044E0,6.4987626E0],"tree_param":{"num_deleted":"0","num_feature":"1963","num_nodes":"13","size_leaf_vector":"1"}},{"base_weights":[8.747818E-2,3.678876E-2,-1.5194988E-1,-3.6250213E-1,2.9635698E-2,-7.3957217E-1,1.10104896E-1,-0E0,-4.990872E-2,-2.2806523E-2,2.957629E-2],"categories":[],"categories_nodes":[],"categories_segments":[],"categories_sizes":[],"default_left":[0,0,0,0,0,0,0,0,0,0,0],"id":41,"left_children":[1,-1,3,5,-1,7,9,-1,-1,-1,-1],"loss_changes":[5.320832E0,0E0,4.365987E0,3.9737659E0,0E0,2.3706212E0,3.5398955E0,0E0,0E0,0E0,0E0],"parents":[2147483647,0,0,2,2,3,3,5,5,6,6],"right_children":[2,-1,4,6,-1,8,10,-1,-1,-1,-1],"split_conditions":[5.848065E-1,3.678876E-2,8.1242494E-2,2.3640655E-1,2.9635698E-2,1.2717109E0,4.731089E-2,-0E0,-4.990872E-2,-2.2806523E-2,2.957629E-2],"split_indices":[693,0,1935,1709,0,1010,1559,0,0,0,0],"split_type":[0,0,0,0,0,0,0,0,0,0,0],"sum_hessian":[3.0462505E1,7.2104354E0,2.325207E1,1.9031609E1,4.2204604E0,1.0075053E1,8.956555E0,3.0669155E0,7.008138E0,4.0685616E0,4.8879943E0],"tree_param":{"num_deleted":"0","num_feature":"1963","num_nodes":"11","size_leaf_vector":"1"}},{"base_weights":[1.7859131E-2,4.02196E-1,-3.6061573E-1,-1.9957165E-1,7.872052E-1,1.7376525E-2,-6.7134994E-1,1.2466868E-2,-3.0085761E-2,5.1645458E-2,3.469963E-3,-4.5001786E-2,7.297827E-4],"categories":[],"categories_nodes":[],"categories_segments":[],"categories_sizes":[],"default_left":[0,0,0,0,0,0,0,0,0,0,0,0,0],"id":42,"left_children":[1,3,5,7,9,-1,11,-1,-1,-1,-1,-1,-1],"loss_changes":[4.986306E0,4.3303633E0,4.2784095E0,1.8081312E0,1.6727376E0,0E0,2.1097975E0,0E0,0E0,0E0,0E0,0E0,0E0],"parents":[2147483647,0,0,1,1,2,2,3,3,4,4,6,6],"right_children":[2,4,6,8,10,-1,12,-1,-1,-1,-1,-1,-1],"split_conditions":[8.457974E-2,3.0496327E-4,2.6910662E-4,8.6496603E-1,1.9359645E-2,1.7376525E-2,4.9052483E-1,1.2466868E-2,-3.0085761E-2,5.1645458E-2,3.469963E-3,-4.5001786E-2,7.297827E-4],"split_indices":[1744,1135,1432,773,1465,0,235,0,0,0,0,0,0],"split_type":[0,0,0,0,0,0,0,0,0,0,0,0,0],"sum_hessian":[3.025638E1,1.5080834E1,1.5175546E1,6.1585717E0,8.922263E0,4.4578037E0,1.0717742E1,3.1516764E0,3.0068955E0,5.8891435E0,3.0331197E0,7.6791687E0,3.0385737E0],"tree_param":{"num_deleted":"0","num_feature":"1963","num_nodes":"13","size_leaf_vector":"1"}},{"base_weights":[-7.676238E-2,3.525364E-1,-5.0918627E-1,3.984916E-2,-5.450773E-2,-4.3004155E-2,5.3077433E-3,-3.3246662E-2,2.156035E-2],"categories":[],"categories_nodes":[],"categories_segments":[],"categories_sizes":[],"default_left":[0,0,0,0,0,0,0,0,0],"id":43,"left_children":[1,3,5,-1,7,-1,-1,-1,-1],"loss_changes":[5.928001E0,3.0696657E0,3.6776123E0,0E0,3.6051188E0,0E0,0E0,0E0,0E0],"parents":[2147483647,0,0,1,1,2,2,4,4],"right_children":[2,4,6,-1,8,-1,-1,-1,-1],"split_conditions":[7.673027E-1,1.9005831E0,4.652683E-1,3.984916E-2,4.1626436E-1,-4.3004155E-2,5.3077433E-3,-3.3246662E-2,2.156035E-2],"split_indices":[1013,623,547,0,1030,0,0,0,0],"split_type":[0,0,0,0,0,0,0,0,0],"sum_hessian":[2.791462E1,1.4077294E1,1.3837325E1,5.931011E0,8.146283E0,8.4091E0,5.4282255E0,3.373959E0,4.7723236E0],"tree_param":{"num_deleted":"0","num_feature":"1963","num_nodes":"9","size_leaf_vector":"1"}},{"base_weights":[5.018159E-3,-3.4597865E-1,4.6988624E-1,2.5430983E-2,-7.3334605E-1,4.116299E-2,-5.185123E-3,-4.942402E-2,9.779569E-4],"categories":[],"categories_nodes":[],"categories_segments":[],"categories_sizes":[],"default_left":[0,0,0,0,0,0,0,0,0],"id":44,"left_children":[1,3,5,-1,7,-1,-1,-1,-1],"loss_changes":[5.0699987E0,6.5800114E0,2.9686031E0,0E0,2.6287918E0,0E0,0E0,0E0,0E0],"parents":[2147483647,0,0,1,1,2,2,4,4],"right_children":[2,4,6,-1,8,-1,-1,-1,-1],"split_conditions":[1.0316275E-1,2.1438746E-1,1.4769259E-1,2.5430983E-2,4.3660975E-1,4.116299E-2,-5.185123E-3,-4.942402E-2,9.779569E-4],"split_indices":[1860,139,501,0,732,0,0,0,0],"split_type":[0,0,0,0,0,0,0,0,0],"sum_hessian":[2.7003788E1,1.5555244E1,1.1448543E1,4.575884E0,1.0979361E1,6.653359E0,4.795183E0,7.832299E0,3.1470616E0],"tree_param":{"num_deleted":"0","num_feature":"1963","num_nodes":"9","size_leaf_vector":"1"}},{"base_weights":[2.5160423E-2,3.1191337E-1,-4.718365E-1,-2.2136832E-2,5.3802216E-1,1.3340437E-3,-3.8582753E-2,7.693254E-1,-5.855599E-3,4.0924097E-3,4.8783615E-2],"categories":[],"categories_nodes":[],"categories_segments":[],"categories_sizes":[],"default_left":[0,0,0,0,0,0,0,0,0,0,0],"id":45,"left_children":[1,3,5,-1,7,-1,-1,9,-1,-1,-1],"loss_changes":[4.450067E0,3.8804767E0,1.8163154E0,0E0,2.7172828E0,0E0,0E0,1.4982381E0,0E0,0E0,0E0],"parents":[2147483647,0,0,1,1,2,2,4,4,7,7],"right_children":[2,4,6,-1,8,-1,-1,10,-1,-1,-1],"split_conditions":[1.4967728E-1,2.7889404E-2,5.8581658E-2,-2.2136832E-2,3.3728167E-2,1.3340437E-3,-3.8582753E-2,2.4307176E-1,-5.855599E-3,4.0924097E-3,4.8783615E-2],"split_indices":[501,1559,304,0,206,0,0,1715,0,0,0],"split_type":[0,0,0,0,0,0,0,0,0,0,0],"sum_hessian":[2.7272041E1,1.7893831E1,9.37821E0,3.5816114E0,1.4312221E1,4.081034E0,5.297176E0,1.0432819E1,3.8794007E0,3.165243E0,7.2675767E0],"tree_param":{"num_deleted":"0","num_feature":"1963","num_nodes":"11","size_leaf_vector":"1"}},{"base_weights":[-1.160321E-2,-2.758123E-1,4.5668375E-1,2.8512945E-2,-5.322235E-1,3.8943153E-2,-1.1343403E-2,-7.460997E-1,1.194938E-2,-0E0,-4.7898576E-2],"categories":[],"categories_nodes":[],"categories_segments":[],"categories_sizes":[],"default_left":[0,0,0,0,0,0,0,0,0,0,0],"id":46,"left_children":[1,3,5,-1,7,-1,-1,9,-1,-1,-1],"loss_changes":[4.0380664E0,5.1677375E0,2.9867918E0,0E0,3.2562418E0,0E0,0E0,2.2313752E0,0E0,0E0,0E0],"parents":[2147483647,0,0,1,1,2,2,4,4,7,7],"right_children":[2,4,6,-1,8,-1,-1,10,-1,-1,-1],"split_conditions":[2.5534797E-1,2.2147324E-2,2.8441972E-1,2.8512945E-2,7.309902E-1,3.8943153E-2,-1.1343403E-2,4.9314415E-1,1.194938E-2,-0E0,-4.7898576E-2],"split_indices":[1893,431,1661,0,703,0,0,1061,0,0,0],"split_type":[0,0,0,0,0,0,0,0,0,0,0],"sum_hessian":[2.8747337E1,1.904031E1,9.707026E0,3.7682726E0,1.5272038E1,6.507339E0,3.1996872E0,1.2108763E1,3.1632755E0,3.1191983E0,8.989565E0],"tree_param":{"num_deleted":"0","num_feature":"1963","num_nodes":"11","size_leaf_vector":"1"}},{"base_weights":[8.400623E-2,5.3265315E-1,-2.3144071E-1,-5.2376366E-3,7.6926076E-1,-5.6242734E-1,3.171931E-1,1.0491419E-2,4.703784E-2,-4.204515E-2,8.28483E-3,3.771122E-2,-1.07378485E-2],"categories":[],"categories_nodes":[],"categories_segments":[],"categories_sizes":[],"default_left":[0,0,0,0,0,0,0,0,0,0,0,0,0],"id":47,"left_children":[1,3,5,-1,7,9,11,-1,-1,-1,-1,-1,-1],"loss_changes":[4.516921E0,2.2041683E0,3.8052883E0,0E0,4.411087E-1,2.9000814E0,2.2981954E0,0E0,0E0,0E0,0E0,0E0,0E0],"parents":[2147483647,0,0,1,1,2,2,4,4,5,5,6,6],"right_children":[2,4,6,-1,8,10,12,-1,-1,-1,-1,-1,-1],"split_conditions":[4.0832815E-1,1.4507109E-1,4.9248745E-4,-5.2376366E-3,5.996921E-1,2.5893574E0,4.586626E-3,1.0491419E-2,4.703784E-2,-4.204515E-2,8.28483E-3,3.771122E-2,-1.07378485E-2],"split_indices":[1043,1896,1166,0,1561,996,1364,0,0,0,0,0,0],"split_type":[0,0,0,0,0,0,0,0,0,0,0,0,0],"sum_hessian":[2.7961248E1,1.1105805E1,1.6855444E1,3.193804E0,7.912001E0,1.0595342E1,6.260102E0,3.0365841E0,4.875417E0,7.539407E0,3.055935E0,3.0810838E0,3.179018E0],"tree_param":{"num_deleted":"0","num_feature":"1963","num_nodes":"13","size_leaf_vector":"1"}},{"base_weights":[-0E0,4.122686E-1,-3.9013946E-1,-3.9747097E-3,3.7433963E-2,1.5764937E-2,-6.212597E-1,2.5967637E-3,-4.392788E-2],"categories":[],"categories_nodes":[],"categories_segments":[],"categories_sizes":[],"default_left":[0,0,0,0,0,0,0,0,0],"id":48,"left_children":[1,3,5,-1,-1,-1,7,-1,-1],"loss_changes":[4.983047E0,2.6737425E0,3.0222056E0,0E0,0E0,0E0,2.3894615E0,0E0,0E0],"parents":[2147483647,0,0,1,1,2,2,6,6],"right_children":[2,4,6,-1,-1,-1,8,-1,-1],"split_conditions":[1.4445353E-1,1.1374496E-5,9.514005E-4,-3.9747097E-3,3.7433963E-2,1.5764937E-2,2.746181E-2,2.5967637E-3,-4.392788E-2],"split_indices":[1580,1263,1268,0,0,0,1941,0,0],"split_type":[0,0,0,0,0,0,0,0,0],"sum_hessian":[2.698391E1,1.3037958E1,1.3945951E1,5.7958155E0,7.2421427E0,3.1549919E0,1.0790959E1,3.3178294E0,7.47313E0],"tree_param":{"num_deleted":"0","num_feature":"1963","num_nodes":"9","size_leaf_vector":"1"}},{"base_weights":[5.3817242E-2,-2.4539688E-1,4.841793E-1,-4.552521E-1,2.3708215E-2,7.811503E-1,-7.290724E-3,1.0482984E-2,-7.037229E-1,4.7437955E-2,1.2371859E-2,-4.6677317E-2,-8.501037E-3],"categories":[],"categories_nodes":[],"categories_segments":[],"categories_sizes":[],"default_left":[0,0,0,0,0,0,0,0,0,0,0,0,0],"id":49,"left_children":[1,3,5,7,-1,9,-1,-1,11,-1,-1,-1,-1],"loss_changes":[4.204768E0,3.3372235E0,2.7924774E0,2.9935417E0,0E0,2.614236E-1,0E0,0E0,1.0736499E0,0E0,0E0,0E0,0E0],"parents":[2147483647,0,0,1,1,2,2,3,3,5,5,8,8],"right_children":[2,4,6,8,-1,10,-1,-1,12,-1,-1,-1,-1],"split_conditions":[5.1890326E-1,1.8031925E-2,9.6218324E-1,6.1476086E-3,2.3708215E-2,1.6573775E0,-7.290724E-3,1.0482984E-2,3.873887E-1,4.7437955E-2,1.2371859E-2,-4.6677317E-2,-8.501037E-3],"split_indices":[616,1090,905,421,0,951,0,0,254,0,0,0,0],"split_type":[0,0,0,0,0,0,0,0,0,0,0,0,0],"sum_hessian":[2.862239E1,1.7253744E1,1.1368646E1,1.4034337E1,3.219408E0,7.508228E0,3.8604178E0,3.7933114E0,1.0241025E1,4.38764E0,3.1205878E0,5.980112E0,4.260913E0],"tree_param":{"num_deleted":"0","num_feature":"1963","num_nodes":"13","size_leaf_vector":"1"}},{"base_weights":[-4.539053E-3,-3.8390407E-1,3.5535842E-1,-6.541493E-1,2.0330317E-2,7.122855E-1,-1.6678017E-1,9.1477856E-4,-4.45781E-2,3.7899592E-3,4.846316E-2,-1.8447524E-2,4.1058525E-3],"categories":[],"categories_nodes":[],"categories_segments":[],"categories_sizes":[],"default_left":[0,0,0,0,0,0,0,0,0,0,0,0,0],"id":50,"left_children":[1,3,5,7,-1,9,11,-1,-1,-1,-1,-1,-1],"loss_changes":[4.293899E0,3.8518395E0,3.2751083E0,2.0924873E0,0E0,1.3842306E0,4.9212226E-1,0E0,0E0,0E0,0E0,0E0,0E0],"parents":[2147483647,0,0,1,1,2,2,3,3,5,5,6,6],"right_children":[2,4,6,8,-1,10,12,-1,-1,-1,-1,-1,-1],"split_conditions":[9.594864E-2,1.821369E-3,1.2426116E-1,9.944181E-1,2.0330317E-2,4.810535E-2,1.0656177E-1,9.1477856E-4,-4.45781E-2,3.7899592E-3,4.846316E-2,-1.8447524E-2,4.1058525E-3],"split_indices":[1860,1196,1768,382,0,1858,1815,0,0,0,0,0,0],"split_type":[0,0,0,0,0,0,0,0,0,0,0,0,0],"sum_hessian":[2.7430334E1,1.3424318E1,1.4006015E1,1.0355623E1,3.0686953E0,8.000298E0,6.0057173E0,3.073877E0,7.281746E0,3.157879E0,4.842419E0,3.0033195E0,3.0023978E0],"tree_param":{"num_deleted":"0","num_feature":"1963","num_nodes":"13","size_leaf_vector":"1"}},{"base_weights":[7.486986E-2,-3.0622644E-2,2.3890194E-1,4.3107906E-1,-1.8909698E-2,6.441549E-1,-2.3130378E-2,8.157404E-1,-3.310997E-3,7.153868E-3,4.880759E-2],"categories":[],"categories_nodes":[],"categories_segments":[],"categories_sizes":[],"default_left":[0,0,0,0,0,0,0,0,0,0,0],"id":51,"left_children":[1,-1,3,5,-1,7,-1,9,-1,-1,-1],"loss_changes":[3.6690466E0,0E0,3.4149132E0,4.5911555E0,0E0,2.35149E0,0E0,1.1833744E0,0E0,0E0,0E0],"parents":[2147483647,0,0,2,2,3,3,5,5,7,7],"right_children":[2,-1,4,6,-1,8,-1,10,-1,-1,-1],"split_conditions":[6.654699E-2,-3.0622644E-2,5.8920085E-2,1.2884946E0,-1.8909698E-2,3.8245812E-2,-2.3130378E-2,1.1359709E-1,-3.310997E-3,7.153868E-3,4.880759E-2],"split_indices":[92,0,1870,503,0,1663,0,1811,0,0,0],"split_type":[0,0,0,0,0,0,0,0,0,0,0],"sum_hessian":[2.8279217E1,4.2777195E0,2.4001497E1,1.8885172E1,5.1163263E0,1.579064E1,3.0945313E0,1.2593019E1,3.1976218E0,3.273467E0,9.319551E0],"tree_param":{"num_deleted":"0","num_feature":"1963","num_nodes":"11","size_leaf_vector":"1"}},{"base_weights":[-2.3798324E-2,-5.0824445E-1,4.3289557E-1,3.2541843E-3,-4.1533396E-2,-5.8631976E-3,4.0019993E-2],"categories":[],"categories_nodes":[],"categories_segments":[],"categories_sizes":[],"default_left":[0,0,0,0,0,0,0],"id":52,"left_children":[1,3,5,-1,-1,-1,-1],"loss_changes":[6.709345E0,2.9131756E0,3.3984883E0,0E0,0E0,0E0,0E0],"parents":[2147483647,0,0,1,1,2,2],"right_children":[2,4,6,-1,-1,-1,-1],"split_conditions":[4.663773E-1,9.654225E-1,8.0666095E-2,3.2541843E-3,-4.1533396E-2,-5.8631976E-3,4.0019993E-2],"split_indices":[616,887,255,0,0,0,0],"split_type":[0,0,0,0,0,0,0],"sum_hessian":[2.6302631E1,1.2760216E1,1.3542416E1,5.0559464E0,7.704269E0,5.859854E0,7.6825614E0],"tree_param":{"num_deleted":"0","num_feature":"1963","num_nodes":"7","size_leaf_vector":"1"}},{"base_weights":[-2.0769283E-2,-4.5134902E-1,3.2920292E-1,5.7885195E-3,-4.0135413E-2,6.8214136E-1,-1.9036874E-1,2.1442298E-3,4.6371397E-2,-3.0808328E-2,1.4854485E-2],"categories":[],"categories_nodes":[],"categories_segments":[],"categories_sizes":[],"default_left":[0,0,0,0,0,0,0,0,0,0,0],"id":53,"left_children":[1,3,5,-1,-1,7,9,-1,-1,-1,-1],"loss_changes":[4.5377493E0,2.9550967E0,3.3359246E0,0E0,0E0,1.4511518E0,2.0847092E0,0E0,0E0,0E0,0E0],"parents":[2147483647,0,0,1,1,2,2,5,5,6,6],"right_children":[2,4,6,-1,-1,8,10,-1,-1,-1,-1],"split_conditions":[3.9308643E-1,3.9592877E-1,1.3033232E-1,5.7885195E-3,-4.0135413E-2,1.1446476E-1,2.255908E-1,2.1442298E-3,4.6371397E-2,-3.0808328E-2,1.4854485E-2],"split_indices":[104,282,186,0,0,60,87,0,0,0,0],"split_type":[0,0,0,0,0,0,0,0,0,0,0],"sum_hessian":[2.6059843E1,1.1552681E1,1.4507162E1,4.8235407E0,6.72914E0,8.380844E0,6.126318E0,3.0886571E0,5.292187E0,3.0976074E0,3.0287106E0],"tree_param":{"num_deleted":"0","num_feature":"1963","num_nodes":"11","size_leaf_vector":"1"}},{"base_weights":[-8.659168E-2,4.837936E-1,-3.7988105E-1,-1.7164471E-3,3.6466796E-2,-6.618954E-1,1.2864062E-1,-4.449335E-2,-0E0,2.9827332E-2,-1.9502519E-2],"categories":[],"categories_nodes":[],"categories_segments":[],"categories_sizes":[],"default_left":[0,0,0,0,0,0,0,0,0,0,0],"id":54,"left_children":[1,3,5,-1,-1,7,9,-1,-1,-1,-1],"loss_changes":[5.100508E0,1.4417248E0,3.0863426E0,0E0,0E0,2.000287E0,2.5900116E0,0E0,0E0,0E0,0E0],"parents":[2147483647,0,0,1,1,2,2,5,5,6,6],"right_children":[2,4,6,-1,-1,8,10,-1,-1,-1,-1],"split_conditions":[6.0783446E-1,3.455648E-1,6.3127244E-1,-1.7164471E-3,3.6466796E-2,2.574821E0,2.5225937E-1,-4.449335E-2,-0E0,2.9827332E-2,-1.9502519E-2],"split_indices":[1013,104,573,0,0,996,498,0,0,0,0],"split_type":[0,0,0,0,0,0,0,0,0,0,0],"sum_hessian":[2.6354294E1,8.392542E0,1.7961752E1,3.1206765E0,5.271866E0,1.1292582E1,6.66917E0,7.880292E0,3.4122899E0,3.4497643E0,3.2194057E0],"tree_param":{"num_deleted":"0","num_feature":"1963","num_nodes":"11","size_leaf_vector":"1"}},{"base_weights":[3.0833608E-2,4.6780488E-1,-3.078245E-1,-3.3717204E-3,3.96367E-2,-5.924137E-1,1.2475576E-2,-4.0560335E-2,-3.1266798E-4],"categories":[],"categories_nodes":[],"categories_segments":[],"categories_sizes":[],"default_left":[0,0,0,0,0,0,0,0,0],"id":55,"left_children":[1,3,5,-1,-1,7,-1,-1,-1],"loss_changes":[4.3857765E0,2.4344015E0,2.9655228E0,0E0,0E0,1.4100676E0,0E0,0E0,0E0],"parents":[2147483647,0,0,1,1,2,2,5,5],"right_children":[2,4,6,-1,-1,8,-1,-1,-1],"split_conditions":[7.613009E-1,2.9718438E-1,1.1161703E-1,-3.3717204E-3,3.96367E-2,1.9512959E0,1.2475576E-2,-4.0560335E-2,-3.1266798E-4],"split_indices":[1013,147,1860,0,0,949,0,0,0],"split_type":[0,0,0,0,0,0,0,0,0],"sum_hessian":[2.5582565E1,1.0965868E1,1.4616698E1,4.6248145E0,6.341054E0,9.711381E0,4.9053173E0,6.388363E0,3.3230178E0],"tree_param":{"num_deleted":"0","num_feature":"1963","num_nodes":"9","size_leaf_vector":"1"}},{"base_weights":[4.6429276E-2,-1.5892312E-1,3.4521945E-2,3.3587512E-1,-4.9915743E-1,-1.0514709E-2,3.4926683E-2,-3.7913173E-2,-9.712073E-5],"categories":[],"categories_nodes":[],"categories_segments":[],"categories_sizes":[],"default_left":[0,0,0,0,0,0,0,0,0],"id":56,"left_children":[1,3,-1,5,7,-1,-1,-1,-1],"loss_changes":[3.5277812E0,3.7473824E0,0E0,2.1836064E0,1.5799408E0,0E0,0E0,0E0,0E0],"parents":[2147483647,0,0,1,1,3,3,4,4],"right_children":[2,4,-1,6,8,-1,-1,-1,-1],"split_conditions":[1.4889643E0,1.97313E-1,3.4521945E-2,1.21802896E-1,1.4630024E-2,-1.0514709E-2,3.4926683E-2,-3.7913173E-2,-9.712073E-5],"split_indices":[553,1590,0,205,901,0,0,0,0],"split_type":[0,0,0,0,0,0,0,0,0],"sum_hessian":[2.2614008E1,1.8171064E1,4.442944E0,7.2944913E0,1.0876573E1,3.1360595E0,4.158432E0,6.3278666E0,4.548706E0],"tree_param":{"num_deleted":"0","num_feature":"1963","num_nodes":"9","size_leaf_vector":"1"}}]},"name":"gbtree"},"learner_model_param":{"base_score":"[5.0051165E-1]","boost_from_average":"1","num_class":"0","num_feature":"1963","num_target":"1"},"objective":{"name":"binary:logistic","reg_loss_param":{"scale_pos_weight":"0.955223858"}}},"version":[3,1,2]}