{"learner":{"attributes":{"best_iteration":"31","best_score":"0.6147235325484905","scikit_learn":"{\"_estimator_type\": \"classifier\"}"},"feature_names":[],"feature_types":[],"gradient_booster":{"model":{"cats":{"enc":[],"feature_segments":[],"sorted_idx":[]},"gbtree_model_param":{"num_parallel_tree":"1","num_trees":"32"},"iteration_indptr":[0,1,2,3,4,5,6,7,8,9,10,11,12,13,14,15,16,17,18,19,20,21,22,23,24,25,26,27,28,29,30,31,32],"tree_info":[0,0,0,0,0,0,0,0,0,0,0,0,0,0,0,0,0,0,0,0,0,0,0,0,0,0,0,0,0,0,0,0],"trees":[{"base_weights":[-0E0,1.118645E0,-6.783766E-1,7.8068465E-2,-2.3977006E-2,5.1650167E-1,-1.1635413E0,-3.329631E-2,6.738282E-2,-1.4536846E0,-4.5945616E-3,-2.5403762E-2,-8.335101E-2],"categories":[],"categories_nodes":[],"categories_segments":[],"categories_sizes":[],"default_left":[0,0,0,0,0,0,0,0,0,0,0,0,0],"id":0,"left_children":[1,3,5,-1,-1,7,9,-1,-1,11,-1,-1,-1],"loss_changes":[3.4533615E1,1.3752901E1,1.7706242E1,0E0,0E0,1.1214127E1,6.0591145E0,0E0,0E0,1.3554039E0,0E0,0E0,0E0],"parents":[2147483647,0,0,1,1,2,2,5,5,6,6,9,9],"right_children":[2,4,6,-1,-1,8,10,-1,-1,12,-1,-1,-1],"split_conditions":[2.5094297E0,1.4644139E0,-4.132117E0,7.8068465E-2,-2.3977006E-2,-2.9707053E0,-6.446007E-1,-3.329631E-2,6.738282E-2,1.2455516E0,-4.5945616E-3,-2.5403762E-2,-8.335101E-2],"split_indices":[801,612,2927,0,0,2688,36,0,0,1209,0,0,0],"split_type":[0,0,0,0,0,0,0,0,0,0,0,0,0],"sum_hessian":[4.1526073E1,1.5167894E1,2.6358181E1,1.1962673E1,3.2052205E0,7.5149174E0,1.8843264E1,3.2164145E0,4.298503E0,1.4194015E1,4.6492486E0,3.9440255E0,1.0249989E1],"tree_param":{"num_deleted":"0","num_feature":"3072","num_nodes":"13","size_leaf_vector":"1"}},{"base_weights":[1.4166692E-1,-1.0415058E0,6.765218E-1,-7.4213944E-2,1.2140053E-2,-3.294372E-1,1.2863586E0,3.417883E-2,-5.920388E-2,2.7238377E-3,7.596033E-2],"categories":[],"categories_nodes":[],"categories_segments":[],"categories_sizes":[],"default_left":[0,0,0,0,0,0,0,0,0,0,0],"id":1,"left_children":[1,3,5,-1,-1,7,9,-1,-1,-1,-1],"loss_changes":[2.7611364E1,8.599958E0,1.9240139E1,0E0,0E0,1.2739399E1,5.1380424E0,0E0,0E0,0E0,0E0],"parents":[2147483647,0,0,1,1,2,2,5,5,6,6],"right_children":[2,4,6,-1,-1,8,10,-1,-1,-1,-1],"split_conditions":[-3.4949882E0,1.4005347E0,-3.8613802E-1,-7.4213944E-2,1.2140053E-2,2.0463312E0,-6.7822224E-1,3.417883E-2,-5.920388E-2,2.7238377E-3,7.596033E-2],"split_indices":[2701,1596,754,0,0,1194,492,0,0,0,0],"split_type":[0,0,0,0,0,0,0,0,0,0,0],"sum_hessian":[3.9462696E1,1.1637481E1,2.7825218E1,8.480298E0,3.1571827E0,1.0787032E1,1.7038185E1,5.0657997E0,5.721233E0,3.169155E0,1.386903E1],"tree_param":{"num_deleted":"0","num_feature":"3072","num_nodes":"11","size_leaf_vector":"1"}},{"base_weights":[-1.2761429E-1,1.0405154E0,-7.602995E-1,-1.0998781E-2,7.308816E-2,-1.126187E0,3.2826565E-2,-1.4228334E0,1.6306153E-2,-8.0837026E-2,-1.2941363E-2],"categories":[],"categories_nodes":[],"categories_segments":[],"categories_sizes":[],"default_left":[0,0,0,0,0,0,0,0,0,0,0],"id":2,"left_children":[1,3,5,-1,-1,7,-1,9,-1,-1,-1],"loss_changes":[3.1332462E1,8.702677E0,1.5702605E1,0E0,0E0,1.0742935E1,0E0,3.2947845E0,0E0,0E0,0E0],"parents":[2147483647,0,0,1,1,2,2,5,5,7,7],"right_children":[2,4,6,-1,-1,8,-1,10,-1,-1,-1],"split_conditions":[2.4404516E0,-1.6132675E0,4.279946E0,-1.0998781E-2,7.308816E-2,1.211557E0,3.2826565E-2,-2.3400282E-2,1.6306153E-2,-8.0837026E-2,-1.2941363E-2],"split_indices":[801,2779,1086,0,0,1589,0,560,0,0,0],"split_type":[0,0,0,0,0,0,0,0,0,0,0],"sum_hessian":[3.8292187E1,1.2944828E1,2.5347359E1,3.4223657E0,9.522462E0,2.0527195E1,4.820163E0,1.713639E1,3.3908038E0,1.3948901E1,3.1874897E0],"tree_param":{"num_deleted":"0","num_feature":"3072","num_nodes":"11","size_leaf_vector":"1"}},{"base_weights":[-4.0904902E-2,1.0087708E0,-5.6939095E-1,-1.304582E-2,6.988239E-2,-9.168634E-1,3.279313E-2,1.79969E-2,-1.2745377E0,-6.4240694E-3,-7.371648E-2],"categories":[],"categories_nodes":[],"categories_segments":[],"categories_sizes":[],"default_left":[0,0,0,0,0,0,0,0,0,0,0],"id":3,"left_children":[1,3,5,-1,-1,7,-1,-1,9,-1,-1],"loss_changes":[2.5131178E1,8.32928E0,1.4064498E1,0E0,0E0,1.2145397E1,0E0,0E0,3.9375076E0,0E0,0E0],"parents":[2147483647,0,0,1,1,2,2,5,5,8,8],"right_children":[2,4,6,-1,-1,8,-1,-1,10,-1,-1],"split_conditions":[1.5466133E-1,-1.2789426E0,-1.0368431E0,-1.304582E-2,6.988239E-2,-4.193311E0,3.279313E-2,1.79969E-2,-1.0715966E0,-6.4240694E-3,-7.371648E-2],"split_indices":[717,346,2535,0,0,2927,0,0,116,0,0],"split_type":[0,0,0,0,0,0,0,0,0,0,0],"sum_hessian":[4.131108E1,1.3161997E1,2.8149082E1,3.1800508E0,9.981946E0,2.2385683E1,5.7634E0,4.8347335E0,1.755095E1,3.1675801E0,1.43833685E1],"tree_param":{"num_deleted":"0","num_feature":"3072","num_nodes":"11","size_leaf_vector":"1"}},{"base_weights":[4.1326787E-2,1.225178E0,-4.802563E-1,8.085027E-3,7.447692E-2,3.9711985E-1,-1.005362E0,6.1051507E-2,-2.3586098E-2,-1.262394E0,1.2101237E-2,-7.802264E-2,1.9245383E-3],"categories":[],"categories_nodes":[],"categories_segments":[],"categories_sizes":[],"default_left":[0,0,0,0,0,0,0,0,0,0,0,0,0],"id":4,"left_children":[1,3,5,-1,-1,7,9,-1,-1,11,-1,-1,-1],"loss_changes":[2.846666E1,3.3176975E0,1.5590012E1,0E0,0E0,1.0771768E1,7.330616E0,0E0,0E0,7.0584545E0,0E0,0E0,0E0],"parents":[2147483647,0,0,1,1,2,2,5,5,6,6,9,9],"right_children":[2,4,6,-1,-1,8,10,-1,-1,12,-1,-1,-1],"split_conditions":[2.3904436E0,-1.0949001E0,-3.8535452E0,8.085027E-3,7.447692E-2,2.7659864E0,-5.587809E-1,6.1051507E-2,-2.3586098E-2,3.4019393E-1,1.2101237E-2,-7.802264E-2,1.9245383E-3],"split_indices":[1295,252,2927,0,0,1388,2764,0,0,652,0,0,0],"split_type":[0,0,0,0,0,0,0,0,0,0,0,0,0],"sum_hessian":[4.2075127E1,1.21016E1,2.9973526E1,3.1263642E0,8.975236E0,1.1333652E1,1.8639874E1,5.460205E0,5.8734465E0,1.5501746E1,3.1381278E0,1.2349936E1,3.1518106E0],"tree_param":{"num_deleted":"0","num_feature":"3072","num_nodes":"13","size_leaf_vector":"1"}},{"base_weights":[6.04033E-3,8.650654E-1,-6.1314744E-1,1.1949767E0,-9.04936E-3,4.0873042E-1,-1.0654354E0,7.39704E-2,5.1319557E-3,5.2729692E-2,-2.0246122E-2,1.7141983E-2,-7.05448E-2],"categories":[],"categories_nodes":[],"categories_segments":[],"categories_sizes":[],"default_left":[0,0,0,0,0,0,0,0,0,0,0,0,0],"id":5,"left_children":[1,3,5,7,-1,9,11,-1,-1,-1,-1,-1,-1],"loss_changes":[2.480689E1,7.290305E0,1.34243355E1,4.2666817E0,0E0,5.999283E0,1.0488876E1,0E0,0E0,0E0,0E0,0E0,0E0],"parents":[2147483647,0,0,1,1,2,2,3,3,5,5,6,6],"right_children":[2,4,6,8,-1,10,12,-1,-1,-1,-1,-1,-1],"split_conditions":[1.560468E0,3.4117472E0,2.6880457E0,1.1131709E0,-9.04936E-3,2.2070992E0,-5.5406413E0,7.39704E-2,5.1319557E-3,5.2729692E-2,-2.0246122E-2,1.7141983E-2,-7.05448E-2],"split_indices":[1412,1335,1351,735,0,1220,2524,0,0,0,0,0,0],"split_type":[0,0,0,0,0,0,0,0,0,0,0,0,0],"sum_hessian":[4.2596676E1,1.7577703E1,2.5018974E1,1.3219354E1,4.358349E0,7.6673174E0,1.7351658E1,9.853401E0,3.3659527E0,4.0127354E0,3.6545818E0,3.363993E0,1.3987664E1],"tree_param":{"num_deleted":"0","num_feature":"3072","num_nodes":"13","size_leaf_vector":"1"}},{"base_weights":[-2.650253E-2,5.914116E-1,-8.2488513E-1,-3.2682836E-2,9.623707E-1,2.350808E-2,-1.1560537E0,6.8971306E-2,-1.4031514E-4,-7.348791E-2,-1.3566972E-3],"categories":[],"categories_nodes":[],"categories_segments":[],"categories_sizes":[],"default_left":[0,0,0,0,0,0,0,0,0,0,0],"id":6,"left_children":[1,3,5,-1,7,-1,9,-1,-1,-1,-1],"loss_changes":[2.1952929E1,1.2853021E1,9.491676E0,0E0,8.260838E0,0E0,5.4788074E0,0E0,0E0,0E0,0E0],"parents":[2147483647,0,0,1,1,2,2,4,4,6,6],"right_children":[2,4,6,-1,8,-1,10,-1,-1,-1,-1],"split_conditions":[1.8217995E0,-2.4272616E0,8.9508724E-1,-3.2682836E-2,-6.3387895E-1,2.350808E-2,1.2797877E0,6.8971306E-2,-1.4031514E-4,-7.348791E-2,-1.3566972E-3],"split_indices":[1358,104,1972,0,576,0,1966,0,0,0,0],"split_type":[0,0,0,0,0,0,0,0,0,0,0],"sum_hessian":[4.0474224E1,2.3037447E1,1.7436779E1,4.8764987E0,1.8160948E1,3.318458E0,1.4118321E1,1.2154273E1,6.0066752E0,1.0506391E1,3.6119301E0],"tree_param":{"num_deleted":"0","num_feature":"3072","num_nodes":"11","size_leaf_vector":"1"}},{"base_weights":[1.631165E-2,1.0663708E0,-4.8483914E-1,6.8962455E-2,-1.344028E-4,4.6576905E-1,-1.0288064E0,-2.7001536E-2,5.2538842E-2,7.841966E-3,-1.3017521E0,-7.240126E-2,-2.045049E-2],"categories":[],"categories_nodes":[],"categories_segments":[],"categories_sizes":[],"default_left":[0,0,0,0,0,0,0,0,0,0,0,0,0],"id":7,"left_children":[1,3,5,-1,-1,7,9,-1,-1,-1,11,-1,-1],"loss_changes":[2.29254E1,4.859152E0,1.6215183E1,0E0,0E0,8.251906E0,6.7967777E0,0E0,0E0,0E0,7.2471046E-1,0E0,0E0],"parents":[2147483647,0,0,1,1,2,2,5,5,6,6,10,10],"right_children":[2,4,6,-1,-1,8,10,-1,-1,-1,12,-1,-1],"split_conditions":[2.4726465E0,2.2794494E-1,-3.8535452E0,6.8962455E-2,-1.344028E-4,-2.4236598E0,-4.026222E0,-2.7001536E-2,5.2538842E-2,7.841966E-3,-3.1862638E0,-7.240126E-2,-2.045049E-2],"split_indices":[1295,724,2927,0,0,104,2680,0,0,0,2308,0,0],"split_type":[0,0,0,0,0,0,0,0,0,0,0,0,0],"sum_hessian":[3.948923E1,1.209354E1,2.739569E1,8.978937E0,3.1146038E0,1.00087E1,1.7386992E1,3.6743107E0,6.334389E0,3.3442645E0,1.4042727E1,1.0900677E1,3.1420512E0],"tree_param":{"num_deleted":"0","num_feature":"3072","num_nodes":"13","size_leaf_vector":"1"}},{"base_weights":[-1.3328406E-2,-5.8744925E-1,7.2478455E-1,2.7764125E-2,-9.1133934E-1,-2.3488881E-2,1.0950896E0,-1.29035E0,1.5486379E-2,7.011094E-2,1.9660983E-3,-1.7326009E-2,-7.278257E-2],"categories":[],"categories_nodes":[],"categories_segments":[],"categories_sizes":[],"default_left":[0,0,0,0,0,0,0,0,0,0,0,0,0],"id":8,"left_children":[1,3,5,-1,7,-1,9,11,-1,-1,-1,-1,-1],"loss_changes":[1.850888E1,1.0166172E1,9.524213E0,0E0,1.0163134E1,0E0,4.6796856E0,1.2648506E0,0E0,0E0,0E0,0E0,0E0],"parents":[2147483647,0,0,1,1,2,2,4,4,6,6,7,7],"right_children":[2,4,6,-1,8,-1,10,12,-1,-1,-1,-1,-1],"split_conditions":[-1.234133E0,2.0184429E0,-8.652651E-2,2.7764125E-2,1.2663047E0,-2.3488881E-2,3.5104208E0,-5.384649E0,1.5486379E-2,7.011094E-2,1.9660983E-3,-1.7326009E-2,-7.278257E-2],"split_indices":[334,1232,94,0,1683,0,984,2877,0,0,0,0,0],"split_type":[0,0,0,0,0,0,0,0,0,0,0,0,0],"sum_hessian":[3.9700047E1,2.263655E1,1.7063498E1,4.615347E0,1.8021204E1,3.8468146E0,1.3216682E1,1.37284155E1,4.2927876E0,9.656523E0,3.5601597E0,3.0591242E0,1.06692915E1],"tree_param":{"num_deleted":"0","num_feature":"3072","num_nodes":"13","size_leaf_vector":"1"}},{"base_weights":[-0E0,7.334741E-1,-5.7423174E-1,-0E0,6.452718E-2,-8.494008E-1,4.3422364E-2,2.974755E-2,-4.024378E-2,1.675324E-2,-1.1491089E0,-6.910255E-2,-7.269237E-3],"categories":[],"categories_nodes":[],"categories_segments":[],"categories_sizes":[],"default_left":[0,0,0,0,0,0,0,0,0,0,0,0,0],"id":9,"left_children":[1,3,5,7,-1,9,-1,-1,-1,-1,11,-1,-1],"loss_changes":[1.9074734E1,8.174498E0,1.1591154E1,6.0065494E0,0E0,8.829412E0,0E0,0E0,0E0,0E0,3.7601643E0,0E0,0E0],"parents":[2147483647,0,0,1,1,2,2,3,3,5,5,10,10],"right_children":[2,4,6,8,-1,10,-1,-1,-1,-1,12,-1,-1],"split_conditions":[2.6674058E0,4.463354E-1,1.1344398E0,5.543493E-1,6.452718E-2,-5.4634805E0,4.3422364E-2,2.974755E-2,-4.024378E-2,1.675324E-2,-1.234133E0,-6.910255E-2,-7.269237E-3],"split_indices":[1351,541,62,1131,0,2524,0,0,0,0,334,0,0],"split_type":[0,0,0,0,0,0,0,0,0,0,0,0,0],"sum_hessian":[4.1321304E1,1.7834574E1,2.348673E1,8.519561E0,9.315013E0,2.0473503E1,3.0132267E0,5.1596847E0,3.3598762E0,4.0193143E0,1.645419E1,1.2662117E1,3.7920723E0],"tree_param":{"num_deleted":"0","num_feature":"3072","num_nodes":"13","size_leaf_vector":"1"}},{"base_weights":[-2.7029475E-2,9.8537076E-1,-4.5110258E-1,-1.2909526E-3,6.480509E-2,-7.8083384E-1,5.6551623E-1,-1.0394882E0,3.3550013E-2,5.223289E-2,-1.0454042E-2,-7.004432E-2,-5.467616E-2,2.9844651E-2,-3.4893863E-2],"categories":[],"categories_nodes":[],"categories_segments":[],"categories_sizes":[],"default_left":[0,0,0,0,0,0,0,0,0,0,0,0,0,0,0],"id":10,"left_children":[1,3,5,-1,-1,7,9,11,-1,-1,-1,-1,13,-1,-1],"loss_changes":[1.9725573E1,4.450736E0,1.17825985E1,0E0,0E0,1.0976822E1,3.8729663E0,7.679762E0,0E0,0E0,0E0,0E0,4.268671E0,0E0,0E0],"parents":[2147483647,0,0,1,1,2,2,5,5,6,6,7,7,12,12],"right_children":[2,4,6,-1,-1,8,10,12,-1,-1,-1,-1,14,-1,-1],"split_conditions":[2.3904436E0,-2.6988882E-1,9.947893E-1,-1.2909526E-3,6.480509E-2,3.7831146E-1,-3.2397306E0,1.0887603E0,3.3550013E-2,5.223289E-2,-1.0454042E-2,-7.004432E-2,-3.1061265E0,2.9844651E-2,-3.4893863E-2],"split_indices":[1295,178,177,0,0,235,2418,2214,0,0,0,0,2829,0,0],"split_type":[0,0,0,0,0,0,0,0,0,0,0,0,0,0,0],"sum_hessian":[4.19986E1,1.1547644E1,3.0450958E1,3.0698023E0,8.477841E0,2.3417822E1,7.033136E0,2.041726E1,3.000563E0,3.9942336E0,3.0389023E0,1.42437E1,6.173558E0,3.0611265E0,3.112432E0],"tree_param":{"num_deleted":"0","num_feature":"3072","num_nodes":"15","size_leaf_vector":"1"}},{"base_weights":[-6.759354E-2,5.3940064E-1,-7.3219365E-1,-3.1793356E-1,6.266134E-2,-5.8330625E-2,5.7361603E-2,-4.5846865E-2,3.7993524E-2,-3.6544155E-2,4.0930152E-2],"categories":[],"categories_nodes":[],"categories_segments":[],"categories_sizes":[],"default_left":[0,0,0,0,0,0,0,0,0,0,0],"id":11,"left_children":[1,3,5,7,-1,-1,9,-1,-1,-1,-1],"loss_changes":[1.6534868E1,1.4015715E1,6.9452486E0,8.688883E0,0E0,0E0,6.460601E0,0E0,0E0,0E0,0E0],"parents":[2147483647,0,0,1,1,2,2,3,3,6,6],"right_children":[2,4,6,8,-1,-1,10,-1,-1,-1,-1],"split_conditions":[1.8217995E0,2.291858E0,-4.4612556E0,-1.8677102E0,6.266134E-2,-5.8330625E-2,9.6025634E-1,-4.5846865E-2,3.7993524E-2,-3.6544155E-2,4.0930152E-2],"split_indices":[1358,1085,2967,2565,0,0,1581,0,0,0,0],"split_type":[0,0,0,0,0,0,0,0,0,0,0],"sum_hessian":[3.698208E1,1.9446999E1,1.753508E1,9.275668E0,1.01713295E1,1.0777025E1,6.7580543E0,6.2136436E0,3.0620246E0,3.2947874E0,3.4632666E0],"tree_param":{"num_deleted":"0","num_feature":"3072","num_nodes":"11","size_leaf_vector":"1"}},{"base_weights":[-1.6816696E-2,-9.48563E-1,4.566026E-1,-6.1324295E-2,2.2960876E-3,-4.011993E-1,9.771983E-1,3.1760063E-2,-5.6083262E-2,6.4405516E-2,-1.3571451E-2],"categories":[],"categories_nodes":[],"categories_segments":[],"categories_sizes":[],"default_left":[0,0,0,0,0,0,0,0,0,0,0],"id":12,"left_children":[1,3,5,-1,-1,7,9,-1,-1,-1,-1],"loss_changes":[1.8929594E1,4.2328634E0,1.3505676E1,0E0,0E0,1.0475573E1,7.9062557E0,0E0,0E0,0E0,0E0],"parents":[2147483647,0,0,1,1,2,2,5,5,6,6],"right_children":[2,4,6,-1,-1,8,10,-1,-1,-1,-1],"split_conditions":[-3.4446976E0,1.1469519E0,-2.4088752E0,-6.1324295E-2,2.2960876E-3,-2.451819E0,2.8526602E0,3.1760063E-2,-5.6083262E-2,6.4405516E-2,-1.3571451E-2],"split_indices":[2701,1854,2997,0,0,2798,350,0,0,0,0],"split_type":[0,0,0,0,0,0,0,0,0,0,0],"sum_hessian":[3.883857E1,1.24801235E1,2.6358444E1,9.468106E0,3.012017E0,1.0055797E1,1.6302649E1,4.1638837E0,5.8919125E0,1.3066017E1,3.2366314E0],"tree_param":{"num_deleted":"0","num_feature":"3072","num_nodes":"11","size_leaf_vector":"1"}},{"base_weights":[-0E0,5.099685E-1,-8.107062E-1,-4.070379E-2,7.626315E-1,-0E0,-6.282911E-2,-3.159659E-2,1.0427341E0,-4.062915E-3,6.365133E-2],"categories":[],"categories_nodes":[],"categories_segments":[],"categories_sizes":[],"default_left":[0,0,0,0,0,0,0,0,0,0,0],"id":13,"left_children":[1,3,5,-1,7,-1,-1,-1,9,-1,-1],"loss_changes":[1.7391987E1,9.89556E0,5.843215E0,0E0,1.027757E1,0E0,0E0,0E0,5.4583454E0,0E0,0E0],"parents":[2147483647,0,0,1,1,2,2,4,4,8,8],"right_children":[2,4,6,-1,8,-1,-1,-1,10,-1,-1],"split_conditions":[8.102236E-1,-5.3016334E0,1.0456393E0,-4.070379E-2,1.3047872E0,-0E0,-6.282911E-2,-3.159659E-2,-2.6345325E-1,-4.062915E-3,6.365133E-2],"split_indices":[494,2475,731,0,1366,0,0,0,93,0,0],"split_type":[0,0,0,0,0,0,0,0,0,0,0],"sum_hessian":[3.8103592E1,2.388362E1,1.4219974E1,3.051727E0,2.0831892E1,5.767966E0,8.452007E0,3.0044267E0,1.7827465E1,3.177764E0,1.4649701E1],"tree_param":{"num_deleted":"0","num_feature":"3072","num_nodes":"11","size_leaf_vector":"1"}},{"base_weights":[-5.2788015E-2,7.1982247E-1,-5.252562E-1,-1.1704955E-2,5.292962E-2,-8.3628386E-1,4.0521707E-2,-1.1236817E0,5.038924E-3,-1.352848E-2,-6.395717E-2],"categories":[],"categories_nodes":[],"categories_segments":[],"categories_sizes":[],"default_left":[0,0,0,0,0,0,0,0,0,0,0],"id":14,"left_children":[1,3,5,-1,-1,7,-1,9,-1,-1,-1],"loss_changes":[1.4762139E1,5.536467E0,1.1776733E1,0E0,0E0,6.088501E0,0E0,1.3562164E0,0E0,0E0,0E0],"parents":[2147483647,0,0,1,1,2,2,5,5,7,7],"right_children":[2,4,6,-1,-1,8,-1,10,-1,-1,-1],"split_conditions":[2.5094297E0,-9.1752255E-1,1.3712621E0,-1.1704955E-2,5.292962E-2,-1.4193796E0,4.0521707E-2,-7.5609076E-1,5.038924E-3,-1.352848E-2,-6.395717E-2],"split_indices":[801,703,2109,0,0,2917,0,296,0,0,0],"split_type":[0,0,0,0,0,0,0,0,0,0,0],"sum_hessian":[3.6422222E1,1.334344E1,2.3078781E1,3.5814414E0,9.761999E0,1.9387E1,3.6917837E0,1.461345E1,4.773548E0,3.1964881E0,1.1416962E1],"tree_param":{"num_deleted":"0","num_feature":"3072","num_nodes":"11","size_leaf_vector":"1"}},{"base_weights":[4.437464E-2,5.647937E-1,-6.5037066E-1,1.0562204E0,-2.705583E-1,-5.519084E-2,1.1855657E-2,6.2248316E-2,8.636827E-3,3.2714844E-2,-4.680963E-2],"categories":[],"categories_nodes":[],"categories_segments":[],"categories_sizes":[],"default_left":[0,0,0,0,0,0,0,0,0,0,0],"id":15,"left_children":[1,3,5,7,9,-1,-1,-1,-1,-1,-1],"loss_changes":[1.4873986E1,1.0307312E1,7.6950946E0,1.9785519E0,7.551094E0,0E0,0E0,0E0,0E0,0E0,0E0],"parents":[2147483647,0,0,1,1,2,2,3,3,4,4],"right_children":[2,4,6,8,10,-1,-1,-1,-1,-1,-1],"split_conditions":[2.3166432E0,-2.8786442E-1,1.2618072E0,-3.649744E-1,6.269669E-1,-5.519084E-2,1.1855657E-2,6.2248316E-2,8.636827E-3,3.2714844E-2,-4.680963E-2],"split_indices":[250,649,1102,636,83,0,0,0,0,0,0],"split_type":[0,0,0,0,0,0,0,0,0,0,0],"sum_hessian":[3.7130283E1,2.1524656E1,1.5605629E1,1.329455E1,8.230105E0,1.0080375E1,5.5252542E0,1.01867695E1,3.107781E0,3.3957562E0,4.8343487E0],"tree_param":{"num_deleted":"0","num_feature":"3072","num_nodes":"11","size_leaf_vector":"1"}},{"base_weights":[-0E0,4.1938594E-1,-8.670517E-1,6.555242E-1,-3.519913E-2,-5.8678456E-2,-2.3358257E-3,-2.503041E-2,8.9217776E-1,-6.385249E-3,5.9329785E-2],"categories":[],"categories_nodes":[],"categories_segments":[],"categories_sizes":[],"default_left":[0,0,0,0,0,0,0,0,0,0,0],"id":16,"left_children":[1,3,5,7,-1,-1,-1,-1,9,-1,-1],"loss_changes":[1.4079596E1,7.807077E0,2.9497766E0,7.1071024E0,0E0,0E0,0E0,0E0,6.271488E0,0E0,0E0],"parents":[2147483647,0,0,1,1,2,2,3,3,8,8],"right_children":[2,4,6,8,-1,-1,-1,-1,10,-1,-1],"split_conditions":[2.6323981E0,1.2471704E0,1.6678114E0,-2.1547529E-1,-3.519913E-2,-5.8678456E-2,-2.3358257E-3,-2.503041E-2,-5.7009083E-1,-6.385249E-3,5.9329785E-2],"split_indices":[250,2064,1431,59,0,0,0,0,64,0,0],"split_type":[0,0,0,0,0,0,0,0,0,0,0],"sum_hessian":[3.4622196E1,2.3969612E1,1.0652584E1,2.0568045E1,3.4015675E0,7.039272E0,3.613312E0,3.0439649E0,1.7524078E1,4.1031923E0,1.3420886E1],"tree_param":{"num_deleted":"0","num_feature":"3072","num_nodes":"11","size_leaf_vector":"1"}},{"base_weights":[5.027787E-2,5.077597E-2,-3.7020442E-1,5.329077E-1,-7.228255E-1,-1.3354865E-2,5.4202195E-2,-9.9895537E-1,1.8366272E-2,-0E0,-6.2128644E-2],"categories":[],"categories_nodes":[],"categories_segments":[],"categories_sizes":[],"default_left":[0,0,0,0,0,0,0,0,0,0,0],"id":17,"left_children":[1,-1,3,5,7,-1,-1,9,-1,-1,-1],"loss_changes":[1.581456E1,0E0,9.430314E0,4.4927535E0,6.9507923E0,0E0,0E0,4.008848E0,0E0,0E0,0E0],"parents":[2147483647,0,0,2,2,3,3,4,4,7,7],"right_children":[2,-1,4,6,8,-1,-1,10,-1,-1,-1],"split_conditions":[2.3904436E0,5.077597E-2,-3.228404E0,5.409578E-1,7.5860226E-1,-1.3354865E-2,5.4202195E-2,-4.6938464E-1,1.8366272E-2,-0E0,-6.2128644E-2],"split_indices":[1295,0,2871,429,541,0,0,538,0,0,0],"split_type":[0,0,0,0,0,0,0,0,0,0,0],"sum_hessian":[3.4953316E1,9.819544E0,2.5133772E1,6.6910114E0,1.844276E1,3.075723E0,3.6152885E0,1.4922103E1,3.5206566E0,3.388563E0,1.1533541E1],"tree_param":{"num_deleted":"0","num_feature":"3072","num_nodes":"11","size_leaf_vector":"1"}},{"base_weights":[7.4478455E-2,4.2215323E-1,-7.199847E-1,6.685961E-1,-3.6254358E-2,-5.7639103E-2,1.1968155E-2,9.691605E-1,-1.0717256E-2,1.1561192E0,-0E0,1.9178344E-2,6.37713E-2],"categories":[],"categories_nodes":[],"categories_segments":[],"categories_sizes":[],"default_left":[0,0,0,0,0,0,0,0,0,0,0,0,0],"id":18,"left_children":[1,3,5,7,-1,-1,-1,9,-1,11,-1,-1,-1],"loss_changes":[1.1185072E1,8.8972845E0,5.767341E0,6.915925E0,0E0,0E0,0E0,3.2423458E0,0E0,2.7808762E-1,0E0,0E0,0E0],"parents":[2147483647,0,0,1,1,2,2,3,3,7,7,9,9],"right_children":[2,4,6,8,-1,-1,-1,10,-1,12,-1,-1,-1],"split_conditions":[-3.3016E-1,4.4519753E0,-1.4318136E0,8.3035904E-1,-3.6254358E-2,-5.7639103E-2,1.1968155E-2,-1.6901598E0,-1.0717256E-2,-1.9417953E0,-0E0,1.9178344E-2,6.37713E-2],"split_indices":[644,1096,242,216,0,0,0,2674,0,47,0,0,0],"split_type":[0,0,0,0,0,0,0,0,0,0,0,0,0],"sum_hessian":[3.640116E1,2.60599E1,1.034126E1,2.2210398E1,3.8495028E0,6.9202523E0,3.4210076E0,1.6508612E1,5.7017846E0,1.3432286E1,3.0763268E0,3.0367026E0,1.0395583E1],"tree_param":{"num_deleted":"0","num_feature":"3072","num_nodes":"13","size_leaf_vector":"1"}},{"base_weights":[-1.4113825E-2,4.699657E-2,-3.8426864E-1,4.4477826E-1,-7.0286465E-1,-2.006692E-2,5.198117E-2,-9.747895E-1,5.8309822E-3,-6.1154407E-2,1.0865513E-3],"categories":[],"categories_nodes":[],"categories_segments":[],"categories_sizes":[],"default_left":[0,0,0,0,0,0,0,0,0,0,0],"id":19,"left_children":[1,-1,3,5,7,-1,-1,9,-1,-1,-1],"loss_changes":[1.3858265E1,0E0,8.154415E0,5.4401627E0,5.078291E0,0E0,0E0,4.221652E0,0E0,0E0,0E0],"parents":[2147483647,0,0,2,2,3,3,4,4,7,7],"right_children":[2,-1,4,6,8,-1,-1,10,-1,-1,-1],"split_conditions":[2.3433967E0,4.699657E-2,-4.132117E0,-3.081311E-1,3.9482367E-1,-2.006692E-2,5.198117E-2,4.211447E0,5.8309822E-3,-6.1154407E-2,1.0865513E-3],"split_indices":[1295,0,2927,754,132,0,0,1812,0,0,0],"split_type":[0,0,0,0,0,0,0,0,0,0,0],"sum_hessian":[3.5354286E1,8.946538E0,2.6407747E1,7.023996E0,1.9383753E1,3.0987659E0,3.9252303E0,1.4361315E1,5.022437E0,1.1213042E1,3.148273E0],"tree_param":{"num_deleted":"0","num_feature":"3072","num_nodes":"11","size_leaf_vector":"1"}},{"base_weights":[-0E0,4.1216567E-1,-7.6079607E-1,9.537102E-1,-2.92984E-1,9.961682E-3,-5.422796E-2,1.2323804E-3,6.1077453E-2,-4.2344492E-2,2.4734814E-2],"categories":[],"categories_nodes":[],"categories_segments":[],"categories_sizes":[],"default_left":[0,0,0,0,0,0,0,0,0,0,0],"id":20,"left_children":[1,3,5,7,9,-1,-1,-1,-1,-1,-1],"loss_changes":[1.2387675E1,1.0445536E1,4.8268166E0,3.5717058E0,6.3796387E0,0E0,0E0,0E0,0E0,0E0,0E0],"parents":[2147483647,0,0,1,1,2,2,3,3,4,4],"right_children":[2,4,6,8,10,-1,-1,-1,-1,-1,-1],"split_conditions":[5.2348495E-1,-2.2350742E-2,3.7142187E-1,-4.3824822E-1,5.049558E0,9.961682E-3,-5.422796E-2,1.2323804E-3,6.1077453E-2,-4.2344492E-2,2.4734814E-2],"split_indices":[513,464,32,403,796,0,0,0,0,0,0],"split_type":[0,0,0,0,0,0,0,0,0,0,0],"sum_hessian":[3.5571156E1,2.3717182E1,1.1853973E1,1.3096269E1,1.06209135E1,3.1055934E0,8.74838E0,3.5029302E0,9.593338E0,6.222087E0,4.398827E0],"tree_param":{"num_deleted":"0","num_feature":"3072","num_nodes":"11","size_leaf_vector":"1"}},{"base_weights":[-5.1808704E-2,7.547109E-1,-5.342262E-1,-9.110668E-3,5.4031964E-2,1.981469E-2,-7.625661E-1,-1.0802157E0,9.729297E-4,-1.4959014E-2,-6.1681535E-2],"categories":[],"categories_nodes":[],"categories_segments":[],"categories_sizes":[],"default_left":[0,0,0,0,0,0,0,0,0,0,0],"id":21,"left_children":[1,3,5,-1,-1,-1,7,9,-1,-1,-1],"loss_changes":[1.4438583E1,4.724055E0,5.5720773E0,0E0,0E0,0E0,4.9685354E0,7.772236E-1,0E0,0E0,0E0],"parents":[2147483647,0,0,1,1,2,2,6,6,7,7],"right_children":[2,4,6,-1,-1,-1,8,10,-1,-1,-1],"split_conditions":[2.5094297E0,6.973679E-1,-1.4948629E0,-9.110668E-3,5.4031964E-2,1.981469E-2,-6.3992524E-1,-8.670683E-1,9.729297E-4,-1.4959014E-2,-6.1681535E-2],"split_indices":[801,348,594,0,0,0,440,497,0,0,0],"split_type":[0,0,0,0,0,0,0,0,0,0,0],"sum_hessian":[3.309378E1,1.1886096E1,2.1207684E1,3.2160883E0,8.670009E0,3.8025765E0,1.7405107E1,1.1926114E1,5.4789934E0,3.033692E0,8.892423E0],"tree_param":{"num_deleted":"0","num_feature":"3072","num_nodes":"11","size_leaf_vector":"1"}},{"base_weights":[2.4236869E-2,4.200062E-1,-7.456481E-1,6.8371207E-1,-2.7973091E-2,-5.4157373E-2,1.0903034E-2,-1.3143583E-2,8.892836E-1,5.5794653E-2,-3.923471E-4],"categories":[],"categories_nodes":[],"categories_segments":[],"categories_sizes":[],"default_left":[0,0,0,0,0,0,0,0,0,0,0],"id":22,"left_children":[1,3,5,7,-1,-1,-1,-1,9,-1,-1],"loss_changes":[1.2040988E1,7.539158E0,4.9141765E0,4.7345057E0,0E0,0E0,0E0,0E0,3.847476E0,0E0,0E0],"parents":[2147483647,0,0,1,1,2,2,3,3,8,8],"right_children":[2,4,6,8,-1,-1,-1,-1,10,-1,-1],"split_conditions":[2.6297412E0,3.434035E0,1.6524935E0,3.301287E-1,-2.7973091E-2,-5.4157373E-2,1.0903034E-2,-1.3143583E-2,9.366538E-2,5.5794653E-2,-3.923471E-4],"split_indices":[250,1352,1431,59,0,0,0,0,373,0,0],"split_type":[0,0,0,0,0,0,0,0,0,0,0],"sum_hessian":[3.556914E1,2.4178612E1,1.1390528E1,1.9606018E1,4.572594E0,8.329393E0,3.0611343E0,3.3119142E0,1.6294104E1,1.2707934E1,3.5861695E0],"tree_param":{"num_deleted":"0","num_feature":"3072","num_nodes":"11","size_leaf_vector":"1"}},{"base_weights":[3.1790333E-3,7.7260464E-1,-3.0764356E-1,5.1388957E-2,1.8597223E-3,4.096191E-1,-7.929712E-1,-2.5328917E-2,8.321072E-1,-1.0444441E0,1.0135005E-2,9.339641E-3,5.3583026E-2,-1.5913108E-2,-5.8968265E-2],"categories":[],"categories_nodes":[],"categories_segments":[],"categories_sizes":[],"default_left":[0,0,0,0,0,0,0,0,0,0,0,0,0,0,0],"id":23,"left_children":[1,3,5,-1,-1,7,9,-1,11,13,-1,-1,-1,-1,-1],"loss_changes":[9.195317E0,1.8995585E0,1.0145942E1,0E0,0E0,5.5981913E0,4.756427E0,0E0,8.931451E-1,4.6660423E-1,0E0,0E0,0E0,0E0,0E0],"parents":[2147483647,0,0,1,1,2,2,5,5,6,6,8,8,9,9],"right_children":[2,4,6,-1,-1,8,10,-1,12,14,-1,-1,-1,-1,-1],"split_conditions":[2.3904436E0,-2.8145218E0,-3.8535452E0,5.1388957E-2,1.8597223E-3,2.0496588E0,-2.2000525E0,-2.5328917E-2,-1.0235502E0,-3.2207837E0,1.0135005E-2,9.339641E-3,5.3583026E-2,-1.5913108E-2,-5.8968265E-2],"split_indices":[1295,3030,2927,0,0,875,2760,0,204,2477,0,0,0,0,0],"split_type":[0,0,0,0,0,0,0,0,0,0,0,0,0,0,0],"sum_hessian":[3.4267075E1,9.09737E0,2.5169706E1,6.0626426E0,3.0347273E0,1.0200458E1,1.4969249E1,3.0189254E0,7.181532E0,1.1952833E1,3.016416E0,3.0208492E0,4.1606827E0,3.0415142E0,8.911319E0],"tree_param":{"num_deleted":"0","num_feature":"3072","num_nodes":"15","size_leaf_vector":"1"}},{"base_weights":[-3.6860067E-2,6.892127E-1,-4.3581215E-1,-7.168725E-3,4.866691E-2,3.1687174E-2,-5.3318985E-2,-6.0299456E-1,6.437019E-1,-0E0,-4.5687933E-2,5.3120952E-2,-4.8813163E-3],"categories":[],"categories_nodes":[],"categories_segments":[],"categories_sizes":[],"default_left":[0,0,0,0,0,0,0,0,0,0,0,0,0],"id":24,"left_children":[1,3,5,-1,-1,7,-1,9,11,-1,-1,-1,-1],"loss_changes":[1.1099288E1,3.572063E0,7.4704804E0,0E0,0E0,7.0227246E0,0E0,1.6410117E0,3.168642E0,0E0,0E0,0E0,0E0],"parents":[2147483647,0,0,1,1,2,2,5,5,7,7,8,8],"right_children":[2,4,6,-1,-1,8,-1,10,12,-1,-1,-1,-1],"split_conditions":[2.4716232E0,-2.123514E0,-1.0749632E0,-7.168725E-3,4.866691E-2,1.0396136E0,-5.3318985E-2,1.0067823E0,6.2697476E-1,-0E0,-4.5687933E-2,5.3120952E-2,-4.8813163E-3],"split_indices":[801,2527,47,0,0,1687,0,1703,558,0,0,0,0],"split_type":[0,0,0,0,0,0,0,0,0,0,0,0,0],"sum_hessian":[3.433085E1,1.1569383E1,2.2761467E1,3.1061337E0,8.463249E0,1.4070547E1,8.690919E0,6.8416195E0,7.2289276E0,3.0259209E0,3.8156989E0,4.152274E0,3.0766535E0],"tree_param":{"num_deleted":"0","num_feature":"3072","num_nodes":"13","size_leaf_vector":"1"}},{"base_weights":[-6.657205E-2,4.3892413E-2,-3.3649155E-1,3.4460038E-2,-5.505102E-1,-8.407779E-1,2.4409117E-1,-1.0295697E0,3.187239E-3,-1.4797616E-2,3.5275903E-2,-5.7053108E-2,-1.5672488E-2],"categories":[],"categories_nodes":[],"categories_segments":[],"categories_sizes":[],"default_left":[0,0,0,0,0,0,0,0,0,0,0,0,0],"id":25,"left_children":[1,-1,3,-1,5,7,9,11,-1,-1,-1,-1,-1],"loss_changes":[9.479483E0,0E0,7.069624E0,0E0,6.2432895E0,3.4511223E0,2.4906907E0,4.026413E-1,0E0,0E0,0E0,0E0,0E0],"parents":[2147483647,0,0,2,2,4,4,5,5,6,6,7,7],"right_children":[2,-1,4,-1,6,8,10,12,-1,-1,-1,-1,-1],"split_conditions":[6.8841213E-1,4.3892413E-2,-4.4410734E0,3.4460038E-2,1.9706783E-1,4.6323308E-1,1.6442995E0,2.8598887E-1,3.187239E-3,-1.4797616E-2,3.5275903E-2,-5.7053108E-2,-1.5672488E-2],"split_indices":[2196,0,2574,0,537,194,1284,652,0,0,0,0,0],"split_type":[0,0,0,0,0,0,0,0,0,0,0,0,0],"sum_hessian":[3.3081318E1,6.2696085E0,2.6811708E1,3.781399E0,2.303031E1,1.6875366E1,6.1549425E0,1.382407E1,3.0512967E0,3.0664961E0,3.0884461E0,1.0814012E1,3.010059E0],"tree_param":{"num_deleted":"0","num_feature":"3072","num_nodes":"13","size_leaf_vector":"1"}},{"base_weights":[-3.689802E-2,6.7570984E-1,-3.5581276E-1,4.8260942E-2,-1.6045537E-3,-7.663001E-1,3.663115E-1,-9.846284E-1,4.691149E-3,4.748176E-2,-2.5691522E-2,-5.6575686E-2,-1.7342938E-2],"categories":[],"categories_nodes":[],"categories_segments":[],"categories_sizes":[],"default_left":[0,0,0,0,0,0,0,0,0,0,0,0,0],"id":26,"left_children":[1,3,5,-1,-1,7,9,11,-1,-1,-1,-1,-1],"loss_changes":[8.163311E0,2.42731E0,7.9697475E0,0E0,0E0,3.3880758E0,6.294166E0,3.3123112E-1,0E0,0E0,0E0,0E0,0E0],"parents":[2147483647,0,0,1,1,2,2,5,5,6,6,7,7],"right_children":[2,4,6,-1,-1,8,10,12,-1,-1,-1,-1,-1],"split_conditions":[1.9530772E0,6.4399445E-1,1.1386395E0,4.8260942E-2,-1.6045537E-3,-1.0397083E-1,-3.2110724E0,1.9178486E-1,4.691149E-3,4.748176E-2,-2.5691522E-2,-5.6575686E-2,-1.7342938E-2],"split_indices":[1232,355,1983,0,0,164,2671,680,0,0,0,0,0],"split_type":[0,0,0,0,0,0,0,0,0,0,0,0,0],"sum_hessian":[3.19453E1,9.087768E0,2.2857533E1,6.033725E0,3.054042E0,1.4583665E1,8.273868E0,1.1493087E1,3.0905776E0,4.9493413E0,3.3245265E0,7.9556665E0,3.5374207E0],"tree_param":{"num_deleted":"0","num_feature":"3072","num_nodes":"13","size_leaf_vector":"1"}},{"base_weights":[3.2993045E-2,8.0784345E-1,-2.8770798E-1,5.0023027E-2,8.192333E-3,1.6038197E-1,-9.190311E-1,7.51421E-1,-3.938231E-1,-5.3108376E-2,-1.4840382E-2,6.39053E-3,5.1114358E-2,-4.0940586E-2,1.5152953E-2],"categories":[],"categories_nodes":[],"categories_segments":[],"categories_sizes":[],"default_left":[0,0,0,0,0,0,0,0,0,0,0,0,0,0,0],"id":27,"left_children":[1,3,5,-1,-1,7,9,11,13,-1,-1,-1,-1,-1,-1],"loss_changes":[9.246631E0,9.078479E-1,7.790921E0,0E0,0E0,6.1802397E0,2.3808956E-1,1.1402402E0,3.5016503E0,0E0,0E0,0E0,0E0,0E0,0E0],"parents":[2147483647,0,0,1,1,2,2,5,5,6,6,7,7,8,8],"right_children":[2,4,6,-1,-1,8,10,12,14,-1,-1,-1,-1,-1,-1],"split_conditions":[2.3904436E0,-1.694371E0,5.2348495E-1,5.0023027E-2,8.192333E-3,-8.58717E-1,1.0910118E0,-1.2805336E0,-1.2871873E-1,-5.3108376E-2,-1.4840382E-2,6.39053E-3,5.1114358E-2,-4.0940586E-2,1.5152953E-2],"split_indices":[1295,2792,513,0,0,594,1967,596,733,0,0,0,0,0,0],"split_type":[0,0,0,0,0,0,0,0,0,0,0,0,0,0,0],"sum_hessian":[3.3130527E1,8.900276E0,2.4230253E1,5.879441E0,3.0208352E0,1.4951645E1,9.278608E0,6.9782906E0,7.973355E0,6.2630396E0,3.0155685E0,3.1163886E0,3.8619018E0,4.824646E0,3.1487088E0],"tree_param":{"num_deleted":"0","num_feature":"3072","num_nodes":"15","size_leaf_vector":"1"}},{"base_weights":[5.2778315E-2,4.1931204E-2,-2.5023454E-1,2.0431527E-1,-8.214351E-1,-3.4660238E-1,4.0195417E-2,-2.225454E-3,-5.3619932E-2,-4.4591475E-2,1.3567092E-2],"categories":[],"categories_nodes":[],"categories_segments":[],"categories_sizes":[],"default_left":[0,0,0,0,0,0,0,0,0,0,0],"id":28,"left_children":[1,-1,3,5,7,9,-1,-1,-1,-1,-1],"loss_changes":[8.702912E0,0E0,7.245494E0,5.9515324E0,2.1684608E0,3.8306293E0,0E0,0E0,0E0,0E0,0E0],"parents":[2147483647,0,0,2,2,3,3,4,4,5,5],"right_children":[2,-1,4,6,8,10,-1,-1,-1,-1,-1],"split_conditions":[2.3904436E0,4.1931204E-2,5.1600707E-1,1.9929317E-1,1.6484562E0,-4.2426677E0,4.0195417E-2,-2.225454E-3,-5.3619932E-2,-4.4591475E-2,1.3567092E-2],"split_indices":[1295,0,513,457,1157,2990,0,0,0,0,0],"split_type":[0,0,0,0,0,0,0,0,0,0,0],"sum_hessian":[3.253855E1,8.163023E0,2.4375528E1,1.4191646E1,1.0183884E1,7.748901E0,6.4427447E0,3.1586356E0,7.0252476E0,3.73171E0,4.017191E0],"tree_param":{"num_deleted":"0","num_feature":"3072","num_nodes":"11","size_leaf_vector":"1"}},{"base_weights":[6.371143E-2,-2.880066E-1,6.5835494E-1,-5.575028E-1,3.1697076E-2,-3.2145975E-3,5.5110343E-2,-8.846797E-1,9.537908E-3,-5.3627905E-3,-5.5349804E-2],"categories":[],"categories_nodes":[],"categories_segments":[],"categories_sizes":[],"default_left":[0,0,0,0,0,0,0,0,0,0,0],"id":29,"left_children":[1,3,5,7,-1,-1,-1,9,-1,-1,-1],"loss_changes":[7.765806E0,6.504801E0,4.6636457E0,5.114435E0,0E0,0E0,0E0,2.0308475E0,0E0,0E0,0E0],"parents":[2147483647,0,0,1,1,2,2,3,3,7,7],"right_children":[2,4,6,8,-1,-1,-1,10,-1,-1,-1],"split_conditions":[-3.8116033E0,-3.342236E0,-1.2057881E-1,3.0783799E0,3.1697076E-2,-3.2145975E-3,5.5110343E-2,-2.19517E0,9.537908E-3,-5.3627905E-3,-5.5349804E-2],"split_indices":[2409,2596,510,789,0,0,0,2389,0,0,0],"split_type":[0,0,0,0,0,0,0,0,0,0,0],"sum_hessian":[3.314062E1,2.1366177E1,1.1774443E1,1.7229002E1,4.137174E0,5.045208E0,6.729235E0,1.1826767E1,5.4022355E0,3.3893092E0,8.437458E0],"tree_param":{"num_deleted":"0","num_feature":"3072","num_nodes":"11","size_leaf_vector":"1"}},{"base_weights":[8.762512E-2,-2.0291068E-1,4.181339E-2,-4.3174022E-1,3.310981E-2,-7.4192315E-1,1.4493353E-2,-4.7951482E-2,2.7167387E-3],"categories":[],"categories_nodes":[],"categories_segments":[],"categories_sizes":[],"default_left":[0,0,0,0,0,0,0,0,0],"id":30,"left_children":[1,3,-1,5,-1,7,-1,-1,-1],"loss_changes":[7.5099363E0,5.5083804E0,0E0,5.201466E0,0E0,2.8614168E0,0E0,0E0,0E0],"parents":[2147483647,0,0,1,1,3,3,5,5],"right_children":[2,4,-1,6,-1,8,-1,-1,-1],"split_conditions":[-3.9669507E0,1.3712621E0,4.181339E-2,-2.6072395E0,3.310981E-2,2.7009562E-1,1.4493353E-2,-4.7951482E-2,2.7167387E-3],"split_indices":[2408,2109,0,2701,0,240,0,0,0],"split_type":[0,0,0,0,0,0,0,0,0],"sum_hessian":[3.067577E1,2.3053453E1,7.622315E0,1.9114855E1,3.9386003E0,1.3425972E1,5.688882E0,1.032698E1,3.0989928E0],"tree_param":{"num_deleted":"0","num_feature":"3072","num_nodes":"9","size_leaf_vector":"1"}},{"base_weights":[-2.9599465E-2,-6.631166E-1,3.165364E-1,-4.9832452E-2,1.0522145E-2,5.5185425E-1,-3.1981226E-2,8.137358E-1,-2.0650597E-2,5.0128408E-2,-0E0],"categories":[],"categories_nodes":[],"categories_segments":[],"categories_sizes":[],"default_left":[0,0,0,0,0,0,0,0,0,0,0],"id":31,"left_children":[1,3,5,-1,-1,7,-1,9,-1,-1,-1],"loss_changes":[7.970474E0,4.2446003E0,5.965991E0,0E0,0E0,5.7530956E0,0E0,2.4817934E0,0E0,0E0,0E0],"parents":[2147483647,0,0,1,1,2,2,5,5,7,7],"right_children":[2,4,6,-1,-1,8,-1,10,-1,-1,-1],"split_conditions":[-3.232941E0,1.2605435E0,3.8534138E0,-4.9832452E-2,1.0522145E-2,-1.1445744E0,-3.1981226E-2,1.1164006E0,-2.0650597E-2,5.0128408E-2,-0E0],"split_indices":[2701,2185,1352,0,0,2733,0,2205,0,0,0],"split_type":[0,0,0,0,0,0,0,0,0,0,0],"sum_hessian":[3.227541E1,1.0858657E1,2.1416754E1,7.737193E0,3.1214635E0,1.7949524E1,3.46723E0,1.4445634E1,3.503889E0,1.1303116E1,3.1425183E0],"tree_param":{"num_deleted":"0","num_feature":"3072","num_nodes":"11","size_leaf_vector":"1"}}]},"name":"gbtree"},"learner_model_param":{"base_score":"[5.0051165E-1]","boost_from_average":"1","num_class":"0","num_feature":"3072","num_target":"1"},"objective":{"name":"binary:logistic","reg_loss_param":{"scale_pos_weight":"0.955223858"}}},"version":[3,1,2]}