{"learner":{"attributes":{"best_iteration":"199","best_score":"0.1250646441427636","scikit_learn":"{\"_estimator_type\": \"classifier\"}"},"feature_names":[],"feature_types":[],"gradient_booster":{"model":{"cats":{"enc":[],"feature_segments":[],"sorted_idx":[]},"gbtree_model_param":{"num_parallel_tree":"1","num_trees":"200"},"iteration_indptr":[0,1,2,3,4,5,6,7,8,9,10,11,12,13,14,15,16,17,18,19,20,21,22,23,24,25,26,27,28,29,30,31,32,33,34,35,36,37,38,39,40,41,42,43,44,45,46,47,48,49,50,51,52,53,54,55,56,57,58,59,60,61,62,63,64,65,66,67,68,69,70,71,72,73,74,75,76,77,78,79,80,81,82,83,84,85,86,87,88,89,90,91,92,93,94,95,96,97,98,99,100,101,102,103,104,105,106,107,108,109,110,111,112,113,114,115,116,117,118,119,120,121,122,123,124,125,126,127,128,129,130,131,132,133,134,135,136,137,138,139,140,141,142,143,144,145,146,147,148,149,150,151,152,153,154,155,156,157,158,159,160,161,162,163,164,165,166,167,168,169,170,171,172,173,174,175,176,177,178,179,180,181,182,183,184,185,186,187,188,189,190,191,192,193,194,195,196,197,198,199,200],"tree_info":[0,0,0,0,0,0,0,0,0,0,0,0,0,0,0,0,0,0,0,0,0,0,0,0,0,0,0,0,0,0,0,0,0,0,0,0,0,0,0,0,0,0,0,0,0,0,0,0,0,0,0,0,0,0,0,0,0,0,0,0,0,0,0,0,0,0,0,0,0,0,0,0,0,0,0,0,0,0,0,0,0,0,0,0,0,0,0,0,0,0,0,0,0,0,0,0,0,0,0,0,0,0,0,0,0,0,0,0,0,0,0,0,0,0,0,0,0,0,0,0,0,0,0,0,0,0,0,0,0,0,0,0,0,0,0,0,0,0,0,0,0,0,0,0,0,0,0,0,0,0,0,0,0,0,0,0,0,0,0,0,0,0,0,0,0,0,0,0,0,0,0,0,0,0,0,0,0,0,0,0,0,0,0,0,0,0,0,0,0,0,0,0,0,0,0,0,0,0,0,0],"trees":[{"base_weights":[3.1404693E-2,-2.8149354E-1,1.1073542E0,-1.1123353E0,4.9038276E-2,1.5664933E0,-6.865002E-2,-1.2901667E0,5.3028864E-1,6.336145E-1,-4.0549254E-1,8.901163E-4,1.7198004E0,9.2415065E-1,-7.4506056E-1,-1.4393564E0,3.1225694E-2,-2.7269403E-2,6.257738E-2,8.5459656E-1,-5.398951E-1,-7.257852E-1,6.0912156E-1,1.8082131E0,2.5327194E-3,7.584638E-2,-1.33341625E-2,-1.3378669E0,3.634589E-2,-1.5872685E0,1.1569024E-2,-3.5867702E-2,9.842955E-1,-1.2520206E0,5.8150258E-2,-1.3819007E0,-1.7450087E-1,1.2919503E0,-5.8721E-1,9.4331495E-2,2.5800258E-2,-7.998527E-2,-1.4401932E-2,-6.985311E-4,-1.7028724E0,4.3331407E-2,-3.896756E-2,-5.734831E-2,1.2434485E0,-7.948536E-2,-4.987482E-3,-5.857781E-1,-8.959531E-2,2.7115694E-1,-1.4688509E0,8.271192E-2,-1.33341625E-2,4.5752604E-2,-6.8231314E-2,-8.9773126E-2,2.5327194E-3,-3.9594438E-2,5.44534E-2,-8.6087093E-4,6.857074E-2,-6.1878867E-2,3.34042E-2,4.3116614E-2,-3.452074E-2,-8.2538E-2,-2.3780571E-2],"categories":[],"categories_nodes":[],"categories_segments":[],"categories_sizes":[],"default_left":[0,0,0,0,0,0,0,0,0,0,0,0,0,0,0,0,0,0,0,0,0,0,0,0,0,0,0,0,0,0,0,0,0,0,0,0,0,0,0,0,0,0,0,0,0,0,0,0,0,0,0,0,0,0,0,0,0,0,0,0,0,0,0,0,0,0,0,0,0,0,0],"id":0,"left_children":[1,3,5,7,9,11,13,15,17,19,21,-1,23,25,27,29,-1,-1,-1,31,33,35,37,39,-1,-1,-1,41,-1,43,45,-1,47,49,-1,51,53,55,57,-1,-1,-1,-1,-1,59,-1,-1,61,63,-1,-1,65,-1,67,69,-1,-1,-1,-1,-1,-1,-1,-1,-1,-1,-1,-1,-1,-1,-1,-1],"loss_changes":[1.3905002E2,8.805827E1,5.0610756E1,2.8086853E1,6.1825855E1,1.568959E1,2.015203E1,2.5569733E1,9.405269E0,2.7346924E1,4.343133E1,0E0,8.625671E0,9.52698E0,1.7548592E1,1.6846634E1,0E0,0E0,0E0,1.9073025E1,2.3878592E1,3.5703255E1,2.8069317E1,3.6665955E0,0E0,0E0,0E0,2.5870018E0,0E0,1.2601837E1,7.5146337E0,0E0,2.2073372E1,4.646429E0,0E0,1.2515518E1,3.377837E1,1.3057781E1,1.7843203E1,0E0,0E0,0E0,0E0,0E0,1.1005753E1,0E0,0E0,1.6796198E1,1.06475525E1,0E0,0E0,1.6848017E1,0E0,2.6225153E1,9.2015076E-1,0E0,0E0,0E0,0E0,0E0,0E0,0E0,0E0,0E0,0E0,0E0,0E0,0E0,0E0,0E0,0E0],"parents":[2147483647,0,0,1,1,2,2,3,3,4,4,5,5,6,6,7,7,8,8,9,9,10,10,12,12,13,13,14,14,15,15,19,19,20,20,21,21,22,22,23,23,27,27,29,29,30,30,32,32,33,33,35,35,36,36,37,37,38,38,44,44,47,47,48,48,51,51,53,53,54,54],"right_children":[2,4,6,8,10,12,14,16,18,20,22,-1,24,26,28,30,-1,-1,-1,32,34,36,38,40,-1,-1,-1,42,-1,44,46,-1,48,50,-1,52,54,56,58,-1,-1,-1,-1,-1,60,-1,-1,62,64,-1,-1,66,-1,68,70,-1,-1,-1,-1,-1,-1,-1,-1,-1,-1,-1,-1,-1,-1,-1,-1],"split_conditions":[1.7035155E0,6.883353E-1,1.3385198E0,3.855465E0,2.941017E0,2.8309176E0,3.1766894E0,4.473815E0,4.1303525E0,3.606254E0,1.4815682E-1,8.901163E-4,9.935851E-2,8.802542E-3,7.4533325E-1,5.785892E0,3.1225694E-2,-2.7269403E-2,6.257738E-2,1.3056229E-1,1.4323364E-1,4.0619946E0,1.3950868E-3,1.269322E-1,2.5327194E-3,7.584638E-2,-1.33341625E-2,7.283524E-1,3.634589E-2,2.4337348E-1,4.7576085E-1,-3.5867702E-2,5.9802532E-2,4.8497744E0,5.8150258E-2,4.4913244E-1,4.500617E0,1.1826017E0,2.756779E-1,9.4331495E-2,2.5800258E-2,-7.998527E-2,-1.4401932E-2,-6.985311E-4,6.1482882E0,4.3331407E-2,-3.896756E-2,1.8006142E-2,4.9278665E-2,-7.948536E-2,-4.987482E-3,2.7581517E-2,-8.959531E-2,7.058024E-1,1.1735075E0,8.271192E-2,-1.33341625E-2,4.5752604E-2,-6.8231314E-2,-8.9773126E-2,2.5327194E-3,-3.9594438E-2,5.44534E-2,-8.6087093E-4,6.857074E-2,-6.1878867E-2,3.34042E-2,4.3116614E-2,-3.452074E-2,-8.2538E-2,-2.3780571E-2],"split_indices":[194,130,449,739,679,1013,865,752,677,859,1747,0,1896,1431,254,976,0,0,0,1568,1671,959,1155,1902,0,0,0,226,0,1635,285,0,1768,789,0,215,852,504,1595,0,0,0,0,0,852,0,0,1033,1754,0,0,1315,0,205,159,0,0,0,0,0,0,0,0,0,0,0,0,0,0,0,0],"split_type":[0,0,0,0,0,0,0,0,0,0,0,0,0,0,0,0,0,0,0,0,0,0,0,0,0,0,0,0,0,0,0,0,0,0,0,0,0,0,0,0,0,0,0,0,0,0,0,0,0,0,0,0,0,0,0,0,0,0,0,0,0,0,0,0,0,0,0,0,0,0,0],"sum_hessian":[4.0892758E2,3.1787094E2,9.105665E1,8.920717E1,2.2866377E2,6.507198E1,2.5984665E1,8.0935104E1,8.272063E0,9.977467E1,1.288891E2,6.121166E0,5.8950817E1,1.0172961E1,1.5811704E1,7.559367E1,5.3414354E0,3.4603586E0,4.8117046E0,8.44927E1,1.5281973E1,9.8471565E1,3.0417536E1,5.5770187E1,3.1806278E0,6.482423E0,3.6905382E0,1.1450447E1,4.361256E0,6.8492325E1,7.1013455E0,5.690538E0,7.880216E1,1.1190537E1,4.0914354E0,4.350224E1,5.496933E1,1.931619E1,1.1101345E1,5.163911E1,4.131077E0,8.249999E0,3.2004485E0,4.900897E0,6.3591427E1,3.3810768E0,3.7202687E0,1.593287E1,6.286929E1,7.999999E0,3.1905382E0,1.6522062E1,2.6980177E1,4.2008972E1,1.2960358E1,1.5625653E1,3.6905382E0,3.6211665E0,7.480179E0,6.04108E1,3.1806278E0,1.0140986E1,5.7918844E0,5.8810763E0,5.6988213E1,1.0940537E1,5.5815253E0,2.6207178E1,1.5801793E1,9.749999E0,3.2103586E0],"tree_param":{"num_deleted":"0","num_feature":"1925","num_nodes":"71","size_leaf_vector":"1"}},{"base_weights":[-1.0313515E-2,-2.1130039E-1,1.4836746E0,-9.408615E-1,7.3068336E-2,1.6991316E0,-1.1390693E-2,-1.1794289E0,3.7272274E-1,7.3180395E-1,-2.6236975E-1,8.885225E-2,2.0536987E-2,3.421991E-1,-1.3768663E0,1.1127887E0,-4.0476456E-2,1.0539414E0,-2.4854533E-1,1.3900056E-1,-7.5092655E-1,6.0214084E-2,-4.6535946E-2,-1.6290581E0,-3.5866293E-1,7.454539E-2,3.0959405E-3,-4.2399213E-1,1.322359E0,-7.422273E-1,6.602984E-2,5.484274E-1,-7.9085845E-1,7.798607E-2,-1.1403677E0,-1.7416025E0,7.7704685E-3,7.00052E-1,-1.2187697E0,-6.1973013E-2,4.5152318E-2,-2.281328E-2,1.5353225E0,-1.1432904E0,3.9345425E-2,1.0259086E0,-2.911294E-1,-2.2389581E-3,-1.4873729E0,7.648554E-1,-6.7833714E-2,2.5361467E-2,-1.2982438E0,-8.99322E-2,-2.2741947E-2,-9.289758E-3,6.512008E-2,-7.1212724E-2,-2.176649E-2,8.320517E-2,-7.436717E-4,6.3129277E-3,-7.56028E-2,-6.2620826E-3,6.405926E-2,-4.9911853E-2,4.6654176E-2,4.4044707E-2,-4.514297E-2,-2.3318049E-2,-8.299785E-2,6.916249E-2,-2.1909282E-2,-7.875123E-2,-1.0519386E-2],"categories":[],"categories_nodes":[],"categories_segments":[],"categories_sizes":[],"default_left":[0,0,0,0,0,0,0,0,0,0,0,0,0,0,0,0,0,0,0,0,0,0,0,0,0,0,0,0,0,0,0,0,0,0,0,0,0,0,0,0,0,0,0,0,0,0,0,0,0,0,0,0,0,0,0,0,0,0,0,0,0,0,0,0,0,0,0,0,0,0,0,0,0,0,0],"id":1,"left_children":[1,3,5,7,9,11,-1,13,15,17,19,-1,-1,21,23,25,-1,27,29,31,33,-1,-1,35,37,-1,-1,39,41,43,-1,45,47,49,51,53,-1,55,57,-1,-1,-1,59,61,-1,63,65,67,69,71,-1,-1,73,-1,-1,-1,-1,-1,-1,-1,-1,-1,-1,-1,-1,-1,-1,-1,-1,-1,-1,-1,-1,-1,-1],"loss_changes":[1.2327791E2,7.537079E1,1.8870567E1,3.2871193E1,5.840865E1,2.6902313E0,0E0,2.7099754E1,1.6799404E1,2.8761108E1,3.4630447E1,0E0,0E0,1.4893103E1,1.8461227E1,4.1959305E0,0E0,2.801455E1,2.0178642E1,3.806586E1,2.5932983E1,0E0,0E0,1.3000244E1,1.812419E1,0E0,0E0,1.5087217E1,2.3373459E1,1.3656021E1,0E0,2.8386412E1,1.6671001E1,2.8806992E1,1.55119095E1,2.3831024E0,0E0,5.5443163E0,2.9624557E-1,0E0,0E0,0E0,1.06073E1,8.075314E0,0E0,1.3540016E1,2.4850191E1,1.4666523E1,1.093071E0,1.5970883E1,0E0,0E0,1.4255539E1,0E0,0E0,0E0,0E0,0E0,0E0,0E0,0E0,0E0,0E0,0E0,0E0,0E0,0E0,0E0,0E0,0E0,0E0,0E0,0E0,0E0,0E0],"parents":[2147483647,0,0,1,1,2,2,3,3,4,4,5,5,7,7,8,8,9,9,10,10,13,13,14,14,15,15,17,17,18,18,19,19,20,20,23,23,24,24,27,27,28,28,29,29,31,31,32,32,33,33,34,34,35,35,37,37,38,38,42,42,43,43,45,45,46,46,47,47,48,48,49,49,52,52],"right_children":[2,4,6,8,10,12,-1,14,16,18,20,-1,-1,22,24,26,-1,28,30,32,34,-1,-1,36,38,-1,-1,40,42,44,-1,46,48,50,52,54,-1,56,58,-1,-1,-1,60,62,-1,64,66,68,70,72,-1,-1,74,-1,-1,-1,-1,-1,-1,-1,-1,-1,-1,-1,-1,-1,-1,-1,-1,-1,-1,-1,-1,-1,-1],"split_conditions":[5.551274E0,6.853019E-1,1.534386E-1,1.1821113E0,5.4221946E-1,4.0933685E0,-1.1390693E-2,8.713888E-2,3.4692707E0,4.0910025E0,3.3415115E0,8.885225E-2,2.0536987E-2,1.0186126E0,6.3012683E-1,8.995571E-1,-4.0476456E-2,1.9435808E-1,2.0312405E0,2.7467318E0,4.7091074E-2,6.0214084E-2,-4.6535946E-2,5.1539212E-2,6.664574E-1,7.454539E-2,3.0959405E-3,5.7317424E-1,3.5832688E-1,4.8811927E0,6.602984E-2,9.084176E-1,2.7381316E-1,1.1967407E-1,8.6288145E-3,1.195165E0,7.7704685E-3,2.0609578E-1,3.3092437E0,-6.1973013E-2,4.5152318E-2,-2.281328E-2,3.0590785E-1,5.6454545E-1,3.9345425E-2,2.2652435E0,2.3397365E-1,8.7309957E-1,6.2206507E-1,9.7276896E-2,-6.7833714E-2,2.5361467E-2,3.7285E0,-8.99322E-2,-2.2741947E-2,-9.289758E-3,6.512008E-2,-7.1212724E-2,-2.176649E-2,8.320517E-2,-7.436717E-4,6.3129277E-3,-7.56028E-2,-6.2620826E-3,6.405926E-2,-4.9911853E-2,4.6654176E-2,4.4044707E-2,-4.514297E-2,-2.3318049E-2,-8.299785E-2,6.916249E-2,-2.1909282E-2,-7.875123E-2,-1.0519386E-2],"split_indices":[706,130,1837,217,201,652,0,1662,587,708,889,0,0,497,472,442,0,1693,296,863,1674,0,0,1278,97,0,0,402,126,809,0,475,1834,1758,1708,85,0,1611,751,0,0,0,1574,1608,0,898,1544,219,359,1632,0,0,847,0,0,0,0,0,0,0,0,0,0,0,0,0,0,0,0,0,0,0,0,0,0],"split_type":[0,0,0,0,0,0,0,0,0,0,0,0,0,0,0,0,0,0,0,0,0,0,0,0,0,0,0,0,0,0,0,0,0,0,0,0,0,0,0,0,0,0,0,0,0,0,0,0,0,0,0,0,0,0,0,0,0,0,0,0,0,0,0,0,0,0,0,0,0,0,0,0,0,0,0],"sum_hessian":[4.0688974E2,3.6021405E2,4.6675686E1,9.983001E1,2.6038403E2,4.1521473E1,5.1542115E0,8.472332E1,1.5106694E1,8.71578E1,1.7322624E2,3.836524E1,3.1562362E0,9.504015E0,7.52193E1,9.415115E0,5.691579E0,6.5565285E1,2.1592518E1,9.577186E1,7.745439E1,5.7775645E0,3.7264502E0,5.9246788E1,1.5972515E1,6.2379665E0,3.1771488E0,9.84208E0,5.57232E1,1.7275133E1,4.3173857E0,6.713816E1,2.8633698E1,2.5187132E1,5.2267258E1,5.582975E1,3.4170377E0,7.274348E0,8.698167E0,6.224474E0,3.6176066E0,5.6640277E0,5.0059174E1,1.4137255E1,3.1378777E0,4.259072E1,2.4547438E1,1.4437277E1,1.4196421E1,1.7711084E1,7.4760475E0,4.1280284E0,4.813923E1,5.2623646E1,3.2061017E0,3.436917E0,3.837431E0,5.493706E0,3.2044606E0,4.614341E1,3.9157653E0,3.417138E0,1.0720117E1,7.844335E0,3.4746384E1,1.584576E1,8.701677E0,7.255464E0,7.1818132E0,3.2070875E0,1.0989333E1,1.1555031E1,6.1560526E0,3.758818E1,1.0551049E1],"tree_param":{"num_deleted":"0","num_feature":"1925","num_nodes":"75","size_leaf_vector":"1"}},{"base_weights":[8.887037E-3,-2.8075495E-1,8.7552917E-1,1.5871512E-3,-8.904154E-1,1.360779E0,-3.2154235E-1,-9.3226266E-1,2.5165036E-1,-1.0292407E0,6.126651E-2,-4.500526E-2,1.5097929E0,-9.998135E-1,9.219976E-1,-1.3016346E0,5.1011664E-1,-3.8321182E-1,6.112989E-1,-1.2360975E0,2.1757892E-1,-3.3334866E-2,1.6375804E0,3.683188E-2,-1.3913679E0,-1.1163487E-2,7.254257E-2,-1.5181713E0,2.4032595E-2,6.62387E-2,-3.0986687E-2,-9.1574013E-1,4.602839E-1,7.7623266E-1,-7.4587005E-1,-1.4625071E0,-8.7462455E-2,5.373877E-2,-4.451479E-2,1.7148273E0,2.3098122E-3,-8.2717024E-2,-4.4020885E-3,-8.3516225E-2,-2.0826135E-3,2.5446514E-2,-1.1911709E0,8.993204E-1,-4.3362807E-2,9.121744E-1,-4.822207E-2,-6.548978E-2,2.3819076E-2,-1.5583131E0,-1.3617982E-2,-7.0175993E-1,6.00616E-2,1.7668849E0,2.9556254E-2,-7.749056E-2,-1.0428125E-3,-1.5456698E-2,6.7159295E-2,5.1048633E-2,-5.2420028E-2,-1.1395924E-2,-8.234943E-2,8.816564E-3,-6.2438983E-2,9.067054E-2,3.3096354E-2],"categories":[],"categories_nodes":[],"categories_segments":[],"categories_sizes":[],"default_left":[0,0,0,0,0,0,0,0,0,0,0,0,0,0,0,0,0,0,0,0,0,0,0,0,0,0,0,0,0,0,0,0,0,0,0,0,0,0,0,0,0,0,0,0,0,0,0,0,0,0,0,0,0,0,0,0,0,0,0,0,0,0,0,0,0,0,0,0,0,0,0],"id":2,"left_children":[1,3,5,7,9,11,13,15,17,19,-1,-1,21,23,25,27,29,31,33,35,37,-1,39,-1,41,-1,-1,43,-1,-1,-1,45,47,49,51,53,55,-1,-1,57,-1,-1,-1,-1,-1,-1,59,61,-1,63,-1,-1,-1,65,-1,67,-1,69,-1,-1,-1,-1,-1,-1,-1,-1,-1,-1,-1,-1,-1],"loss_changes":[1.0191776E2,5.243689E1,6.0070587E1,4.937694E1,3.0808594E1,2.7314621E1,2.7914902E1,2.518948E1,3.864217E1,2.4256287E1,0E0,0E0,2.1502747E1,1.639791E1,7.974786E0,1.5516994E1,1.1360974E1,2.8537521E1,2.5231895E1,2.010962E1,1.5856066E1,0E0,7.7667236E0,0E0,5.6628113E0,0E0,0E0,7.05175E0,0E0,0E0,0E0,1.6377686E1,1.6180607E1,2.4690388E1,1.0020497E1,6.4609833E0,1.3662865E1,0E0,0E0,1.3451538E0,0E0,0E0,0E0,0E0,0E0,0E0,1.3586376E1,1.1600197E1,0E0,2.154638E1,0E0,0E0,0E0,6.177475E0,0E0,6.121021E0,0E0,3.781128E-1,0E0,0E0,0E0,0E0,0E0,0E0,0E0,0E0,0E0,0E0,0E0,0E0,0E0],"parents":[2147483647,0,0,1,1,2,2,3,3,4,4,5,5,6,6,7,7,8,8,9,9,12,12,13,13,14,14,15,15,16,16,17,17,18,18,19,19,20,20,22,22,24,24,27,27,31,31,32,32,33,33,34,34,35,35,36,36,39,39,46,46,47,47,49,49,53,53,55,55,57,57],"right_children":[2,4,6,8,10,12,14,16,18,20,-1,-1,22,24,26,28,30,32,34,36,38,-1,40,-1,42,-1,-1,44,-1,-1,-1,46,48,50,52,54,56,-1,-1,58,-1,-1,-1,-1,-1,-1,60,62,-1,64,-1,-1,-1,66,-1,68,-1,70,-1,-1,-1,-1,-1,-1,-1,-1,-1,-1,-1,-1,-1],"split_conditions":[2.7013946E-1,3.4273567E0,1.0233005E-1,5.9039044E-1,1.5333326E0,3.824584E0,1.02681E0,1.7035155E0,5.602218E-1,8.3251506E-2,6.126651E-2,-4.500526E-2,1.6816026E0,1.0579822E-1,3.493713E0,1.5362228E-1,1.5717721E-1,7.7074906E-4,1.5881479E0,5.1041055E0,6.9750175E-2,-3.3334866E-2,1.7079867E-1,3.683188E-2,7.380265E-2,-1.1163487E-2,7.254257E-2,5.9104383E-2,2.4032595E-2,6.62387E-2,-3.0986687E-2,1.0728489E-2,2.846612E-1,5.0596576E0,1.7135912E0,4.802359E0,3.256187E0,5.373877E-2,-4.451479E-2,1.4334487E0,2.3098122E-3,-8.2717024E-2,-4.4020885E-3,-8.3516225E-2,-2.0826135E-3,2.5446514E-2,7.195192E-2,7.8229994E-1,-4.3362807E-2,3.9922824E0,-4.822207E-2,-6.548978E-2,2.3819076E-2,1.5297055E0,-1.3617982E-2,3.1564406E-1,6.00616E-2,1.5402155E0,2.9556254E-2,-7.749056E-2,-1.0428125E-3,-1.5456698E-2,6.7159295E-2,5.1048633E-2,-5.2420028E-2,-1.1395924E-2,-8.234943E-2,8.816564E-3,-6.2438983E-2,9.067054E-2,3.3096354E-2],"split_indices":[1781,821,1630,298,88,796,302,194,328,1908,0,0,754,1549,689,1750,1837,1121,171,770,1687,0,1559,0,1716,0,0,1432,0,0,0,1708,1638,523,273,918,685,0,0,270,0,0,0,0,0,0,1768,307,0,859,0,0,0,696,0,1820,0,20,0,0,0,0,0,0,0,0,0,0,0,0,0],"split_type":[0,0,0,0,0,0,0,0,0,0,0,0,0,0,0,0,0,0,0,0,0,0,0,0,0,0,0,0,0,0,0,0,0,0,0,0,0,0,0,0,0,0,0,0,0,0,0,0,0,0,0,0,0,0,0,0,0,0,0,0,0,0,0,0,0,0,0,0,0,0,0],"sum_hessian":[4.0182556E2,3.020977E2,9.97279E1,2.0772714E2,9.437053E1,7.082714E1,2.890076E1,4.2638706E1,1.6508844E2,8.956783E1,4.802695E0,3.7147002E0,6.711244E1,1.9006395E1,9.894364E0,3.4156277E1,8.482428E0,5.95536E1,1.0553484E2,7.690596E1,1.2661867E1,3.2106836E0,6.3901756E1,3.125871E0,1.5880525E1,3.4309585E0,6.4634056E0,3.0770355E1,3.385923E0,4.7796297E0,3.7027984E0,3.647372E1,2.3079878E1,9.492821E1,1.0606633E1,6.371366E1,1.3192301E1,7.2231283E0,5.4387393E0,6.073563E1,3.1661274E0,1.2702222E1,3.1783025E0,2.7596348E1,3.1740072E0,5.5755424E0,3.089818E1,1.7885384E1,5.194494E0,8.8987885E1,5.9403243E0,7.215906E0,3.3907268E0,5.8316513E1,5.3971477E0,9.603148E0,3.5891523E0,5.6867393E1,3.868238E0,2.308871E1,7.809469E0,4.907141E0,1.2978243E1,8.526574E1,3.7221472E0,4.1607704E0,5.4155743E1,4.1361613E0,5.466987E0,5.3252308E1,3.615083E0],"tree_param":{"num_deleted":"0","num_feature":"1925","num_nodes":"71","size_leaf_vector":"1"}},{"base_weights":[-1.5294238E-2,9.4939643E-1,-2.8304267E-1,-6.254031E-1,1.3390845E0,-8.0672216E-1,2.6282497E-2,2.841155E-2,-1.1721904E0,-2.7569667E-2,1.4717662E0,-1.0504869E0,3.317652E-2,4.6669364E-1,-7.46398E-1,-7.730557E-2,1.9473573E-3,1.6326098E0,-1.1842647E-2,-1.0931426E-1,-1.3505018E0,-8.6700946E-1,8.549914E-1,1.3095856E0,1.5885164E-1,1.020273E-2,-1.4122499E0,8.6319804E-2,2.5432376E-2,7.891572E-1,-9.506648E-1,-1.4584302E0,1.6049257E-2,2.0337244E-2,-6.443731E-2,-2.3213005E-2,6.7939624E-2,1.5164983E0,-2.2378048E-2,9.530976E-1,-2.8028518E-1,-1.2138195E0,6.255453E-1,2.0751778E-2,-1.5920877E0,7.03768E-2,-1.0877353E-2,-7.5095765E-2,1.8347276E-2,-1.52579E0,-2.1447316E-3,8.214316E-2,1.0179438E-2,1.2629108E0,-3.5638365E-1,-4.942984E-1,9.690807E-1,-7.343747E-2,-1.1817889E-2,1.2750217E0,-5.216144E-1,-8.476032E-2,-1.4264295E-2,-5.4684626E-3,-7.9729095E-2,7.5052455E-2,-1.6594915E-2,2.053458E-2,-4.9732074E-2,7.7853748E-3,-5.2815627E-2,2.0177586E-3,6.807333E-2,-4.6413704E-3,8.0068864E-2,3.0047486E-2,-5.7485312E-2],"categories":[],"categories_nodes":[],"categories_segments":[],"categories_sizes":[],"default_left":[0,0,0,0,0,0,0,0,0,0,0,0,0,0,0,0,0,0,0,0,0,0,0,0,0,0,0,0,0,0,0,0,0,0,0,0,0,0,0,0,0,0,0,0,0,0,0,0,0,0,0,0,0,0,0,0,0,0,0,0,0,0,0,0,0,0,0,0,0,0,0,0,0,0,0,0,0],"id":3,"left_children":[1,3,5,7,9,11,13,-1,15,-1,17,19,21,23,25,-1,-1,27,-1,29,31,33,35,37,39,41,43,-1,-1,45,47,49,-1,-1,-1,-1,-1,51,-1,53,55,57,59,-1,61,-1,-1,-1,-1,63,-1,-1,-1,65,67,69,71,-1,-1,73,75,-1,-1,-1,-1,-1,-1,-1,-1,-1,-1,-1,-1,-1,-1,-1,-1],"loss_changes":[1.0711482E2,5.702433E1,5.2734154E1,1.3910948E1,1.999965E1,2.4902481E1,7.0772514E1,0E0,6.5501842E0,0E0,1.9795776E1,2.6037727E1,2.2948837E1,3.3825623E1,3.819353E1,0E0,0E0,4.6722717E0,0E0,2.0357182E1,1.3831726E1,9.078297E0,1.2141308E1,1.4222645E1,3.528407E1,2.951365E1,1.4659805E1,0E0,0E0,8.879056E0,1.1265034E1,6.097946E0,0E0,0E0,0E0,0E0,0E0,4.4389725E0,0E0,1.557148E1,1.842366E1,2.3960896E0,2.0896278E1,0E0,3.832779E0,0E0,0E0,0E0,0E0,5.697754E0,0E0,0E0,0E0,1.2341911E1,4.9753823E0,2.1356018E1,3.461957E0,0E0,0E0,8.188723E0,9.065965E0,0E0,0E0,0E0,0E0,0E0,0E0,0E0,0E0,0E0,0E0,0E0,0E0,0E0,0E0,0E0,0E0],"parents":[2147483647,0,0,1,1,2,2,3,3,4,4,5,5,6,6,8,8,10,10,11,11,12,12,13,13,14,14,17,17,19,19,20,20,21,21,22,22,23,23,24,24,25,25,26,26,29,29,30,30,31,31,37,37,39,39,40,40,41,41,42,42,44,44,49,49,53,53,54,54,55,55,56,56,59,59,60,60],"right_children":[2,4,6,8,10,12,14,-1,16,-1,18,20,22,24,26,-1,-1,28,-1,30,32,34,36,38,40,42,44,-1,-1,46,48,50,-1,-1,-1,-1,-1,52,-1,54,56,58,60,-1,62,-1,-1,-1,-1,64,-1,-1,-1,66,68,70,72,-1,-1,74,76,-1,-1,-1,-1,-1,-1,-1,-1,-1,-1,-1,-1,-1,-1,-1,-1],"split_conditions":[2.4109865E-2,7.0689702E-3,4.205639E-2,8.5629E-1,4.4648656E-1,1.593107E0,4.484443E0,2.841155E-2,2.3934494E-1,-2.7569667E-2,1.9023042E0,1.6829433E-2,2.3955288E0,1.1485986E-1,3.8736172E0,-7.730557E-2,1.9473573E-3,6.8845105E-1,-1.1842647E-2,9.043773E-1,2.3347986E-1,1.0386805E-1,4.673972E-1,1.4661214E0,4.6975726E-1,2.418792E0,7.187532E-2,8.6319804E-2,2.5432376E-2,1.013836E0,4.5479186E-2,4.7293644E0,1.6049257E-2,2.0337244E-2,-6.443731E-2,-2.3213005E-2,6.7939624E-2,1.3164436E0,-2.2378048E-2,4.067255E0,3.1641075E-1,1.2872858E-3,3.009842E0,2.0751778E-2,1.1213037E0,7.03768E-2,-1.0877353E-2,-7.5095765E-2,1.8347276E-2,3.100073E-1,-2.1447316E-3,8.214316E-2,1.0179438E-2,3.610824E0,4.3895438E-1,5.4538872E-2,6.1994E-4,-7.343747E-2,-1.1817889E-2,3.5744686E0,3.8957336E0,-8.476032E-2,-1.4264295E-2,-5.4684626E-3,-7.9729095E-2,7.5052455E-2,-1.6594915E-2,2.053458E-2,-4.9732074E-2,7.7853748E-3,-5.2815627E-2,2.0177586E-3,6.807333E-2,-4.6413704E-3,8.0068864E-2,3.0047486E-2,-5.7485312E-2],"split_indices":[1731,1144,1760,408,125,455,802,0,1673,0,167,1885,990,1912,942,0,0,1658,0,55,1784,1630,226,400,365,957,1609,0,0,416,1620,803,0,0,0,0,0,78,0,708,1619,1251,682,0,159,0,0,0,0,432,0,0,0,662,278,1859,1381,0,0,733,722,0,0,0,0,0,0,0,0,0,0,0,0,0,0,0,0],"split_type":[0,0,0,0,0,0,0,0,0,0,0,0,0,0,0,0,0,0,0,0,0,0,0,0,0,0,0,0,0,0,0,0,0,0,0,0,0,0,0,0,0,0,0,0,0,0,0,0,0,0,0,0,0,0,0,0,0,0,0,0,0,0,0,0,0,0,0,0,0,0,0,0,0,0,0,0,0],"sum_hessian":[4.1087775E2,8.807622E1,3.2280154E2,1.7180471E1,7.089575E1,1.1879387E2,2.0400768E2,5.3154807E0,1.1864991E1,4.186097E0,6.670965E1,9.17754E1,2.7018473E1,1.3052989E2,7.3477776E1,8.706423E0,3.1585681E0,6.110494E1,5.6047144E0,2.2923729E1,6.885167E1,1.2783846E1,1.4234628E1,3.309114E1,9.743875E1,3.52466E1,3.8231174E1,5.532733E1,5.7776055E0,1.1088076E1,1.1835653E1,6.4971214E1,3.880451E0,3.1385593E0,9.645287E0,3.922269E0,1.0312359E1,2.9900969E1,3.19017E0,3.394001E1,6.3498745E1,1.1086316E1,2.4160284E1,3.1413178E0,3.508986E1,6.437056E0,4.6510196E0,8.200809E0,3.6348455E0,6.1803787E1,3.1674259E0,2.6747755E1,3.1532133E0,2.7565676E1,6.3743343E0,5.5312595E1,8.186147E0,7.914592E0,3.1717246E0,1.5339768E1,8.820516E0,3.1901571E1,3.188286E0,3.169862E0,5.8633926E1,2.4141178E1,3.4244964E0,3.1477246E0,3.2266097E0,2.6236425E1,2.9076172E1,3.1621945E0,5.0239525E0,3.1715622E0,1.2168206E1,3.1384685E0,5.6820474E0],"tree_param":{"num_deleted":"0","num_feature":"1925","num_nodes":"77","size_leaf_vector":"1"}},{"base_weights":[1.2690918E-2,-2.5964856E-1,8.2224905E-1,-5.6808275E-1,3.0526096E-1,-4.245936E-1,1.1517735E0,1.9253379E-1,-8.080444E-1,6.047191E-1,-9.431262E-1,-1.2908281E0,9.155813E-1,1.2818224E0,-5.63198E-2,6.417263E-1,-1.2441083E0,5.7796735E-1,-9.1594976E-1,-6.841134E-1,8.631594E-1,-1.3709922E0,3.0016264E-2,-1.3413787E-2,-7.5755276E-2,6.4233445E-2,1.9157779E-3,1.4381732E0,-3.1111082E-1,-7.5618577E-1,1.0755336E0,-2.0198528E-2,-7.167285E-2,6.531057E-2,-3.4665585E-2,-1.0410007E0,2.6525357E-1,3.7426505E-2,-1.2670344E0,-5.126046E-1,1.0917833E0,-7.799523E-2,-1.4402467E-2,1.5229588E0,6.175986E-3,-5.8912933E-2,3.1599086E-2,1.2444888E-2,-6.3969925E-2,-2.9843813E-2,1.317058E0,-1.1408007E0,1.6722365E-1,6.2561736E-2,-5.379199E-2,-2.201411E-2,-7.2583534E-2,4.2321593E-2,-6.5172285E-2,-3.0018685E-2,1.2427886E0,1.5929629E0,1.386896E-2,7.534968E-2,1.5647387E-3,-1.7246371E-2,-6.608513E-2,5.9568476E-2,-2.9315073E-2,7.267496E-2,2.1828426E-2,8.280838E-2,1.6787047E-2],"categories":[],"categories_nodes":[],"categories_segments":[],"categories_sizes":[],"default_left":[0,0,0,0,0,0,0,0,0,0,0,0,0,0,0,0,0,0,0,0,0,0,0,0,0,0,0,0,0,0,0,0,0,0,0,0,0,0,0,0,0,0,0,0,0,0,0,0,0,0,0,0,0,0,0,0,0,0,0,0,0,0,0,0,0,0,0,0,0,0,0,0,0],"id":4,"left_children":[1,3,5,7,9,11,13,15,17,19,21,23,25,27,-1,29,31,33,35,37,39,41,-1,-1,-1,-1,-1,43,45,47,49,-1,-1,-1,-1,51,53,-1,55,57,59,-1,-1,61,-1,-1,-1,-1,-1,-1,63,65,67,-1,-1,-1,-1,-1,-1,-1,69,71,-1,-1,-1,-1,-1,-1,-1,-1,-1,-1,-1],"loss_changes":[9.012958E1,5.3634216E1,4.333902E1,3.6609787E1,4.190852E1,2.9001442E1,2.7201096E1,3.3241146E1,2.3737091E1,3.094683E1,1.6140966E1,2.401247E0,3.0461502E0,2.0573364E1,0E0,2.5187557E1,6.195259E-1,1.3070619E1,2.150341E1,1.5284254E1,2.4874573E1,2.5485764E0,0E0,0E0,0E0,0E0,0E0,7.4790344E0,8.584176E0,6.16098E0,1.3960373E1,0E0,0E0,0E0,0E0,1.5945587E1,2.260455E1,0E0,3.8606453E-1,1.5187006E1,1.8243996E1,0E0,0E0,4.801346E0,0E0,0E0,0E0,0E0,0E0,0E0,6.4235153E0,1.6027771E1,1.0297182E1,0E0,0E0,0E0,0E0,0E0,0E0,0E0,8.847099E0,3.7157135E0,0E0,0E0,0E0,0E0,0E0,0E0,0E0,0E0,0E0,0E0,0E0],"parents":[2147483647,0,0,1,1,2,2,3,3,4,4,5,5,6,6,7,7,8,8,9,9,10,10,11,11,12,12,13,13,15,15,16,16,17,17,18,18,19,19,20,20,21,21,27,27,28,28,29,29,30,30,35,35,36,36,38,38,39,39,40,40,43,43,50,50,51,51,52,52,60,60,61,61],"right_children":[2,4,6,8,10,12,14,16,18,20,22,24,26,28,-1,30,32,34,36,38,40,42,-1,-1,-1,-1,-1,44,46,48,50,-1,-1,-1,-1,52,54,-1,56,58,60,-1,-1,62,-1,-1,-1,-1,-1,-1,64,66,68,-1,-1,-1,-1,-1,-1,-1,70,72,-1,-1,-1,-1,-1,-1,-1,-1,-1,-1,-1],"split_conditions":[2.7013946E-1,8.4287254E-5,2.5422754E0,1.8828899E-1,3.3768034E0,4.7971663E0,1.4717539E-1,3.9145162E0,2.82131E-2,3.0134654E-2,1.053478E0,2.2918596E0,9.899732E-2,5.005536E0,-5.63198E-2,2.6018386E0,5.4199517E-1,4.063891E0,5.5498257E0,3.421068E-4,4.5344606E-1,3.7921772E0,3.0016264E-2,-1.3413787E-2,-7.5755276E-2,6.4233445E-2,1.9157779E-3,4.785059E0,9.9886376E-1,5.946029E-3,6.023917E-2,-2.0198528E-2,-7.167285E-2,6.531057E-2,-3.4665585E-2,1.9407968E-1,1.01765E-1,3.7426505E-2,6.5427175E-4,2.7217454E-1,5.832646E-1,-7.799523E-2,-1.4402467E-2,1.4429602E-1,6.175986E-3,-5.8912933E-2,3.1599086E-2,1.2444888E-2,-6.3969925E-2,-2.9843813E-2,1.6469602E-1,5.0967956E-1,3.9269884E0,6.2561736E-2,-5.379199E-2,-2.201411E-2,-7.2583534E-2,4.2321593E-2,-6.5172285E-2,-3.0018685E-2,3.2238183E0,4.30247E0,1.386896E-2,7.534968E-2,1.5647387E-3,-1.7246371E-2,-6.608513E-2,5.9568476E-2,-2.9315073E-2,7.267496E-2,2.1828426E-2,8.280838E-2,1.6787047E-2],"split_indices":[1781,1329,697,1596,652,837,1865,717,1876,1713,22,1021,1865,963,0,674,352,680,625,1110,401,773,0,0,0,0,0,531,475,1301,1907,0,0,0,0,1863,1871,0,1376,1574,31,0,0,1750,0,0,0,0,0,0,1581,362,616,0,0,0,0,0,0,0,647,805,0,0,0,0,0,0,0,0,0,0,0],"split_type":[0,0,0,0,0,0,0,0,0,0,0,0,0,0,0,0,0,0,0,0,0,0,0,0,0,0,0,0,0,0,0,0,0,0,0,0,0,0,0,0,0,0,0,0,0,0,0,0,0,0,0,0,0,0,0,0,0,0,0,0,0,0,0,0,0,0,0,0,0,0,0,0,0],"sum_hessian":[4.0460608E2,3.0368118E2,1.0092487E2,1.9653894E2,1.0714225E2,2.0913319E1,8.001156E1,4.7129414E1,1.4940953E2,8.730998E1,1.983227E1,1.279282E1,8.120499E0,7.655974E1,3.4518201E0,3.6799583E1,1.0329829E1,1.0095584E1,1.3931395E2,1.3968494E1,7.334149E1,1.5753457E1,4.0788126E0,3.1714401E0,9.62138E0,4.981757E0,3.1387415E0,6.995095E1,6.608789E0,8.308681E0,2.8490904E1,3.149705E0,7.180124E0,6.4337544E0,3.6618292E0,1.26268295E2,1.304565E1,3.8258817E0,1.0142612E1,1.0034766E1,6.330672E1,1.2584899E1,3.1685586E0,6.534379E1,4.6071634E0,3.2384467E0,3.3703423E0,3.1380284E0,5.1706524E0,3.1717603E0,2.5319143E1,1.1681378E2,9.454512E0,7.638411E0,5.4072385E0,3.186244E0,6.9563684E0,3.5930994E0,6.4416666E0,4.644687E0,5.8662037E1,6.1262634E1,4.081154E0,2.1692747E1,3.6263962E0,2.2813322E1,9.400046E1,3.5712588E0,5.8832526E0,4.5135773E1,1.3526261E1,5.765018E1,3.6124525E0],"tree_param":{"num_deleted":"0","num_feature":"1925","num_nodes":"73","size_leaf_vector":"1"}},{"base_weights":[7.066504E-3,-2.3337005E-1,9.226009E-1,-9.195267E-1,2.4788167E-2,1.3004502E0,7.4835725E-2,-1.1002011E0,5.7170075E-1,5.9032065E-1,-2.3198915E-1,1.4156133E0,-9.931612E-3,9.7097236E-1,-5.0583154E-1,-1.366364E0,-1.6899091E-1,-2.9890493E-2,6.1119486E-2,-6.453956E-1,8.631874E-1,2.4432498E-1,-6.9849724E-1,1.5267291E0,8.30987E-3,-6.0464703E-3,6.9584414E-2,-6.611478E-2,5.04482E-1,1.8205777E-2,-1.4875264E0,7.660127E-1,-1.0114464E0,4.322992E-2,-1.2043065E0,1.2150315E0,-2.2933097E-1,7.57967E-1,-3.468952E-1,6.280754E-2,-1.0482867E0,8.02675E-2,2.270573E-2,-2.9423123E-2,6.1953545E-2,-7.8700155E-2,-2.3979055E-2,6.78825E-2,-1.4738003E-2,-6.721043E-2,-2.8266662E-3,-2.0486834E-2,-6.9636434E-2,-3.0383086E-2,1.3750031E0,-5.6532342E-2,6.594847E-1,1.1160616E0,-5.8513904E-1,5.4301584E-1,-8.966423E-1,-6.5939106E-2,5.6915885E-1,-7.788675E-2,-4.848384E-1,7.436246E-2,-0E0,-5.822011E-3,5.922201E-2,6.635391E-2,-1.0992377E-2,-5.9201043E-2,2.2115625E-2,-3.9699122E-2,4.9747966E-2,-5.884855E-2,2.1262981E-2,-4.015153E-2,5.0210953E-2,-3.7347164E-2,5.464647E-2],"categories":[],"categories_nodes":[],"categories_segments":[],"categories_sizes":[],"default_left":[0,0,0,0,0,0,0,0,0,0,0,0,0,0,0,0,0,0,0,0,0,0,0,0,0,0,0,0,0,0,0,0,0,0,0,0,0,0,0,0,0,0,0,0,0,0,0,0,0,0,0,0,0,0,0,0,0,0,0,0,0,0,0,0,0,0,0,0,0,0,0,0,0,0,0,0,0,0,0,0,0],"id":5,"left_children":[1,3,5,7,9,11,13,15,17,19,21,23,-1,25,27,29,31,-1,-1,33,35,37,39,41,-1,-1,-1,-1,43,-1,45,47,49,-1,51,53,55,57,59,61,63,-1,-1,-1,-1,-1,-1,-1,-1,-1,-1,-1,-1,-1,65,-1,67,69,71,73,75,-1,77,-1,79,-1,-1,-1,-1,-1,-1,-1,-1,-1,-1,-1,-1,-1,-1,-1,-1],"loss_changes":[9.0379456E1,5.768531E1,2.702903E1,2.528379E1,3.485857E1,1.0848938E1,1.5878262E1,1.9239204E1,9.79719E0,2.6417347E1,3.7036247E1,6.957039E0,0E0,5.9639587E0,1.6728891E1,1.4181129E1,1.7463928E1,0E0,0E0,1.4471692E1,2.4618294E1,2.5767776E1,2.2585827E1,2.5675507E0,0E0,0E0,0E0,0E0,9.303008E0,0E0,3.369049E0,7.586049E0,3.3715677E0,0E0,4.1049385E-1,1.5609238E1,1.4995823E1,2.3062405E1,2.051022E1,2.1172087E1,1.4854908E1,0E0,0E0,0E0,0E0,0E0,0E0,0E0,0E0,0E0,0E0,0E0,0E0,0E0,6.780304E0,0E0,4.319556E0,1.0947735E1,7.7374506E0,1.150821E1,1.0512165E1,0E0,1.48296175E1,0E0,1.4172445E1,0E0,0E0,0E0,0E0,0E0,0E0,0E0,0E0,0E0,0E0,0E0,0E0,0E0,0E0,0E0,0E0],"parents":[2147483647,0,0,1,1,2,2,3,3,4,4,5,5,6,6,7,7,8,8,9,9,10,10,11,11,13,13,14,14,15,15,16,16,19,19,20,20,21,21,22,22,23,23,28,28,30,30,31,31,32,32,34,34,35,35,36,36,37,37,38,38,39,39,40,40,54,54,56,56,57,57,58,58,59,59,60,60,62,62,64,64],"right_children":[2,4,6,8,10,12,14,16,18,20,22,24,-1,26,28,30,32,-1,-1,34,36,38,40,42,-1,-1,-1,-1,44,-1,46,48,50,-1,52,54,56,58,60,62,64,-1,-1,-1,-1,-1,-1,-1,-1,-1,-1,-1,-1,-1,66,-1,68,70,72,74,76,-1,78,-1,80,-1,-1,-1,-1,-1,-1,-1,-1,-1,-1,-1,-1,-1,-1,-1,-1],"split_conditions":[1.7570022E0,6.853019E-1,1.3385198E0,5.7118244E0,5.207099E-1,7.354194E-2,1.0261076E-5,5.1599467E-1,2.6139889E0,1.4986229E-1,3.1765842E0,5.0897207E0,-9.931612E-3,3.9119918E0,1.9053565E-1,1.3591478E0,6.910885E-1,-2.9890493E-2,6.1119486E-2,4.1993294E0,1.2905659E-1,3.5706608E0,1.7588188E-1,3.1349447E-1,8.30987E-3,-6.0464703E-3,6.9584414E-2,-6.611478E-2,1.0423592E0,1.8205777E-2,3.6921434E0,7.846879E-1,6.8406685E-4,4.322992E-2,2.9471526E0,5.3654563E-1,5.941261E-1,8.756463E-1,2.3941605E-1,1.0909904E0,1.0423768E0,8.02675E-2,2.270573E-2,-2.9423123E-2,6.1953545E-2,-7.8700155E-2,-2.3979055E-2,6.78825E-2,-1.4738003E-2,-6.721043E-2,-2.8266662E-3,-2.0486834E-2,-6.9636434E-2,-3.0383086E-2,1.153065E0,-5.6532342E-2,8.7428875E-3,2.8123715E0,6.5173656E-2,2.746177E0,1.9364176E0,-6.5939106E-2,4.3282622E-1,-7.788675E-2,1.0381827E0,7.436246E-2,-0E0,-5.822011E-3,5.922201E-2,6.635391E-2,-1.0992377E-2,-5.9201043E-2,2.2115625E-2,-3.9699122E-2,4.9747966E-2,-5.884855E-2,2.1262981E-2,-4.015153E-2,5.0210953E-2,-3.7347164E-2,5.464647E-2],"split_indices":[194,130,449,976,201,1099,1030,287,557,1793,679,963,0,626,1454,758,280,0,0,934,1630,579,1698,1834,0,0,0,0,44,0,933,97,1143,0,752,36,335,1,1676,1026,258,0,0,0,0,0,0,0,0,0,0,0,0,0,347,0,1247,754,1687,745,89,0,96,0,389,0,0,0,0,0,0,0,0,0,0,0,0,0,0,0,0],"split_type":[0,0,0,0,0,0,0,0,0,0,0,0,0,0,0,0,0,0,0,0,0,0,0,0,0,0,0,0,0,0,0,0,0,0,0,0,0,0,0,0,0,0,0,0,0,0,0,0,0,0,0,0,0,0,0,0,0,0,0,0,0,0,0,0,0,0,0,0,0,0,0,0,0,0,0,0,0,0,0,0,0],"sum_hessian":[4.0630762E2,3.2289127E2,8.341634E1,8.697766E1,2.359136E2,5.687931E1,2.6537033E1,7.810597E1,8.871688E0,7.297757E1,1.6293604E2,5.2986805E1,3.892505E0,9.973278E0,1.6563755E1,5.9933514E1,1.817246E1,3.1746337E0,5.697054E0,1.2639738E1,6.0337833E1,8.098594E1,8.195009E1,4.817817E1,4.8086348E0,3.1042144E0,6.869064E0,8.873888E0,7.689867E0,3.6053307E0,5.6328182E1,8.642885E0,9.529576E0,3.0707612E0,9.568977E0,4.5539234E1,1.4798598E1,4.312486E1,3.7861076E1,2.6225716E1,5.5724377E1,4.3875595E1,4.3025746E0,3.19619E0,4.4936767E0,5.0751545E1,5.5766354E0,5.2495337E0,3.393351E0,6.384627E0,3.1449492E0,3.1529505E0,6.4160266E0,3.172297E0,4.236694E1,7.133311E0,7.665288E0,3.4372986E1,8.751873E0,1.4397502E1,2.3463575E1,6.120194E0,2.0105522E1,2.7317846E1,2.8406528E1,3.8988068E1,3.3788707E0,3.644428E0,4.0208597E0,2.9760221E1,4.6127667E0,5.398024E0,3.3538485E0,3.1989746E0,1.1198527E1,1.9601679E1,3.8618972E0,4.377464E0,1.5728058E1,2.5317272E1,3.089257E0],"tree_param":{"num_deleted":"0","num_feature":"1925","num_nodes":"81","size_leaf_vector":"1"}},{"base_weights":[7.1666236E-3,-2.2879606E-1,9.4886005E-1,-6.261321E-3,-8.182661E-1,1.2255832E0,-4.9671903E-1,-4.8545644E-1,3.3479613E-1,-1.5084192E0,-2.765873E-1,-2.1742946E-2,1.3207269E0,-5.7267625E-2,2.4904748E-2,-1.0145725E0,2.5000516E-1,6.5585405E-1,-7.416394E-1,-1.7422676E-2,-7.940444E-2,8.9657485E-1,-7.0847636E-1,1.411456E0,-9.553245E-3,-1.2354363E0,4.0423773E-2,-2.6669517E-1,1.2082646E0,9.585153E-1,-1.343166E-1,5.1949065E-2,-1.1403961E0,6.519886E-2,-1.4395437E-2,-1.2647337E0,2.4152423E-1,-2.5384254E-3,1.498855E0,1.375994E-2,-1.3509004E0,2.5731382E-1,-6.1895963E-2,9.0753793E-4,7.476645E-2,1.1029583E0,-5.8221467E-2,-6.64254E-1,9.3610454E-1,-1.465706E0,2.4862466E-2,-7.305019E-2,-2.2478225E-3,5.8787275E-2,-4.8808943E-2,7.742881E-2,1.7334944E-2,-0E0,-7.2613634E-2,3.598052E-2,-3.3779982E-2,-1.7911587E-2,6.2470764E-2,-5.6367006E-2,3.2827508E-2,6.731725E-2,-3.4170584E-3,-1.6879683E-2,-7.9962924E-2],"categories":[],"categories_nodes":[],"categories_segments":[],"categories_sizes":[],"default_left":[0,0,0,0,0,0,0,0,0,0,0,0,0,0,0,0,0,0,0,0,0,0,0,0,0,0,0,0,0,0,0,0,0,0,0,0,0,0,0,0,0,0,0,0,0,0,0,0,0,0,0,0,0,0,0,0,0,0,0,0,0,0,0,0,0,0,0,0,0],"id":6,"left_children":[1,3,5,7,9,11,13,15,17,19,21,-1,23,-1,-1,25,27,29,31,-1,-1,33,35,37,-1,39,-1,41,43,45,47,-1,49,-1,-1,51,53,-1,55,-1,57,59,-1,-1,-1,61,-1,63,65,67,-1,-1,-1,-1,-1,-1,-1,-1,-1,-1,-1,-1,-1,-1,-1,-1,-1,-1,-1],"loss_changes":[8.952203E1,4.212841E1,3.3588814E1,3.887643E1,3.1911171E1,1.2043602E1,1.0457467E1,3.9101196E1,4.8937695E1,2.2295456E0,2.7534231E1,0E0,9.611099E0,0E0,0E0,2.5409786E1,2.1999634E1,2.6181732E1,2.563894E1,0E0,0E0,7.9839764E0,2.1372383E1,8.201881E0,0E0,1.0027222E1,0E0,1.57323E1,5.0801945E0,2.6623795E1,1.9135319E1,0E0,1.6345238E1,0E0,0E0,5.713703E0,2.0574337E1,0E0,2.0877533E0,0E0,6.888588E0,9.91715E0,0E0,0E0,0E0,1.693573E1,0E0,1.5204325E1,4.938406E0,2.3002167E0,0E0,0E0,0E0,0E0,0E0,0E0,0E0,0E0,0E0,0E0,0E0,0E0,0E0,0E0,0E0,0E0,0E0,0E0,0E0],"parents":[2147483647,0,0,1,1,2,2,3,3,4,4,5,5,6,6,7,7,8,8,9,9,10,10,12,12,15,15,16,16,17,17,18,18,21,21,22,22,23,23,25,25,27,27,28,28,29,29,30,30,32,32,35,35,36,36,38,38,40,40,41,41,45,45,47,47,48,48,49,49],"right_children":[2,4,6,8,10,12,14,16,18,20,22,-1,24,-1,-1,26,28,30,32,-1,-1,34,36,38,-1,40,-1,42,44,46,48,-1,50,-1,-1,52,54,-1,56,-1,58,60,-1,-1,-1,62,-1,64,66,68,-1,-1,-1,-1,-1,-1,-1,-1,-1,-1,-1,-1,-1,-1,-1,-1,-1,-1,-1],"split_conditions":[1.7934856E0,2.5913945E-1,1.6728773E0,4.1709293E-2,1.5301128E-1,3.4945004E-2,3.468895E0,6.6146886E-1,1.0628786E-1,3.043406E-1,2.9189563E0,-2.1742946E-2,9.956892E-2,-5.7267625E-2,2.4904748E-2,1.76169E-1,3.794451E0,3.8704014E0,3.102086E0,-1.7422676E-2,-7.940444E-2,1.9188912E-1,1.9658172E-1,2.860862E-1,-9.553245E-3,2.0456284E-1,4.0423773E-2,4.9992028E-1,4.3685824E-1,5.0917177E0,7.338675E-1,5.1949065E-2,1.2385331E0,6.519886E-2,-1.4395437E-2,4.1477046E0,3.3553576E-1,-2.5384254E-3,3.1011844E0,1.375994E-2,3.0389203E-2,3.2479924E-1,-6.1895963E-2,9.0753793E-4,7.476645E-2,2.2793183E0,-5.8221467E-2,2.922026E-1,5.774913E-4,1.5678318E-1,2.4862466E-2,-7.305019E-2,-2.2478225E-3,5.8787275E-2,-4.8808943E-2,7.742881E-2,1.7334944E-2,-0E0,-7.2613634E-2,3.598052E-2,-3.3779982E-2,-1.7911587E-2,6.2470764E-2,-5.6367006E-2,3.2827508E-2,6.731725E-2,-3.4170584E-3,-1.6879683E-2,-7.9962924E-2],"split_indices":[194,1568,449,1760,1819,1803,558,482,1699,348,608,0,1896,0,0,1743,589,655,551,0,0,1681,1793,1670,0,215,0,153,402,865,134,0,194,0,0,729,1903,0,583,0,1917,1635,0,0,0,984,0,1909,1285,1673,0,0,0,0,0,0,0,0,0,0,0,0,0,0,0,0,0,0,0],"split_type":[0,0,0,0,0,0,0,0,0,0,0,0,0,0,0,0,0,0,0,0,0,0,0,0,0,0,0,0,0,0,0,0,0,0,0,0,0,0,0,0,0,0,0,0,0,0,0,0,0,0,0,0,0,0,0,0,0,0,0,0,0,0,0,0,0,0,0,0,0],"sum_hessian":[3.986032E2,3.198623E2,7.874089E1,2.337926E2,8.606971E1,6.640308E1,1.2337809E1,9.6979774E1,1.3681282E2,3.619703E1,4.9872677E1,3.1547332E0,6.324835E1,7.345989E0,4.9918194E0,5.60398E1,4.093998E1,1.0605513E2,3.0757698E1,3.0977294E0,3.30993E1,1.2778465E1,3.709421E1,5.9855072E1,3.3932745E0,5.0608086E1,5.431711E0,2.7468037E1,1.3471943E1,7.646644E1,2.9588692E1,4.994266E0,2.5763432E1,9.420835E0,3.3576305E0,2.30439E1,1.4050313E1,3.358581E0,5.6496494E1,3.3355556E0,4.727253E1,1.8729815E1,8.738222E0,3.0989804E0,1.0372962E1,7.253898E1,3.9274588E0,2.0360872E1,9.22782E0,2.1719927E1,4.0435047E0,1.9438593E1,3.6053066E0,8.036075E0,6.0142384E0,5.341638E1,3.0801115E0,3.3724825E0,4.3900047E1,1.2901213E1,5.828602E0,6.282655E0,6.6256325E1,1.5348284E1,5.012588E0,6.1392035E0,3.0886166E0,3.1252687E0,1.8594658E1],"tree_param":{"num_deleted":"0","num_feature":"1925","num_nodes":"69","size_leaf_vector":"1"}},{"base_weights":[-3.1442687E-2,-2.4051706E-1,1.021027E0,-4.6328816E-1,3.7987766E-1,-3.844818E-2,1.2268456E0,-1.0157906E0,-2.3045374E-1,7.9346603E-1,-3.8422135E-1,1.3485655E0,-3.0140433E-2,-1.3393909E0,-1.4677583E-1,3.796555E-1,-5.1689416E-1,-2.4710952E-1,1.231631E0,9.2251474E-1,-8.6458087E-1,-1.2473226E-2,1.4514238E0,-1.4759623E0,-9.0623135E-3,9.066821E-1,-5.80104E-2,-6.1564345E-2,6.7250335E-1,5.835407E-1,-7.0194095E-1,-9.092895E-1,5.5507302E-2,1.3941755E0,-2.2489568E-2,7.5442526E-3,6.069475E-2,3.3408552E-1,-1.3331083E0,-0E0,7.688601E-2,-2.93427E-2,-7.7603966E-2,-1.0545128E-2,6.8063915E-2,-2.2878528E-1,1.1175574E0,-4.1098185E-2,1.1386025E0,4.335698E-2,-1.0237173E0,-6.869564E-2,2.108796E-2,2.455978E-3,1.5036434E0,-2.799133E-2,5.337077E-2,-1.233382E-2,-7.5857304E-2,4.957192E-2,-4.5108624E-2,7.052364E-2,-6.4680427E-3,1.621305E-3,7.136145E-2,3.9010163E-2,-3.7576362E-2,-5.949403E-2,1.5911149E-2,7.936781E-2,1.7482543E-2],"categories":[],"categories_nodes":[],"categories_segments":[],"categories_sizes":[],"default_left":[0,0,0,0,0,0,0,0,0,0,0,0,0,0,0,0,0,0,0,0,0,0,0,0,0,0,0,0,0,0,0,0,0,0,0,0,0,0,0,0,0,0,0,0,0,0,0,0,0,0,0,0,0,0,0,0,0,0,0,0,0,0,0,0,0,0,0,0,0,0,0],"id":7,"left_children":[1,3,5,7,9,-1,11,13,15,17,19,21,-1,23,25,27,29,31,33,35,37,-1,39,41,-1,43,-1,-1,45,47,49,51,-1,53,-1,-1,-1,55,57,-1,-1,-1,-1,-1,-1,59,61,-1,63,65,67,-1,-1,-1,69,-1,-1,-1,-1,-1,-1,-1,-1,-1,-1,-1,-1,-1,-1,-1,-1],"loss_changes":[8.877505E1,4.689586E1,2.6562073E1,3.1409245E1,2.907439E1,0E0,1.5236298E1,1.9998085E1,3.1466122E1,2.7650246E1,2.2208857E1,1.0321503E1,0E0,7.6651E0,2.5775122E1,2.8879568E1,2.5654709E1,1.9172062E1,1.2823376E1,1.6874037E0,1.50914135E1,0E0,6.880127E0,1.1421738E0,0E0,6.752329E0,0E0,0E0,2.076698E1,1.6384928E1,2.5449814E1,9.906923E0,0E0,5.413803E0,0E0,0E0,0E0,6.880351E0,2.7766228E0,0E0,0E0,0E0,0E0,0E0,0E0,1.6738949E1,1.2936989E1,0E0,4.294117E0,2.084998E1,1.7289558E1,0E0,0E0,0E0,2.1515656E0,0E0,0E0,0E0,0E0,0E0,0E0,0E0,0E0,0E0,0E0,0E0,0E0,0E0,0E0,0E0,0E0],"parents":[2147483647,0,0,1,1,2,2,3,3,4,4,6,6,7,7,8,8,9,9,10,10,11,11,13,13,14,14,15,15,16,16,17,17,18,18,19,19,20,20,22,22,23,23,25,25,28,28,29,29,30,30,31,31,33,33,37,37,38,38,45,45,46,46,48,48,49,49,50,50,54,54],"right_children":[2,4,6,8,10,-1,12,14,16,18,20,22,-1,24,26,28,30,32,34,36,38,-1,40,42,-1,44,-1,-1,46,48,50,52,-1,54,-1,-1,-1,56,58,-1,-1,-1,-1,-1,-1,60,62,-1,64,66,68,-1,-1,-1,70,-1,-1,-1,-1,-1,-1,-1,-1,-1,-1,-1,-1,-1,-1,-1,-1],"split_conditions":[1.884624E0,1.3550113E-1,2.7806568E0,6.883353E-1,4.1537004E0,-3.844818E-2,5.099286E0,8.022922E-1,3.2191339E0,4.2624924E-2,4.4705954E-1,1.2884112E-1,-3.0140433E-2,8.7654626E-1,1.387428E-1,1.4844111E0,2.8711927E-1,1.634161E0,1.0368614E0,6.500481E-1,8.343447E-1,-1.2473226E-2,1.6786622E0,3.255693E-1,-9.0623135E-3,1.2835291E-1,-5.80104E-2,-6.1564345E-2,7.3504907E-1,1.1174394E0,4.6961448E-1,6.845265E-2,5.5507302E-2,5.336211E-1,-2.2489568E-2,7.5442526E-3,6.069475E-2,2.5660086E0,1.14026286E-1,-0E0,7.688601E-2,-2.93427E-2,-7.7603966E-2,-1.0545128E-2,6.8063915E-2,2.5218496E0,6.610377E-1,-4.1098185E-2,4.6070242E-1,5.250868E-1,4.886454E0,-6.869564E-2,2.108796E-2,2.455978E-3,3.8332105E0,-2.799133E-2,5.337077E-2,-1.233382E-2,-7.5857304E-2,4.957192E-2,-4.5108624E-2,7.052364E-2,-6.4680427E-3,1.621305E-3,7.136145E-2,3.9010163E-2,-3.7576362E-2,-5.949403E-2,1.5911149E-2,7.936781E-2,1.7482543E-2],"split_indices":[194,1747,1013,130,683,0,927,261,774,1760,201,1695,0,255,1877,753,282,113,116,156,429,0,580,475,0,1819,0,0,210,1025,488,1771,0,388,0,0,0,675,1725,0,0,0,0,0,0,609,329,0,111,167,666,0,0,0,636,0,0,0,0,0,0,0,0,0,0,0,0,0,0,0,0],"split_type":[0,0,0,0,0,0,0,0,0,0,0,0,0,0,0,0,0,0,0,0,0,0,0,0,0,0,0,0,0,0,0,0,0,0,0,0,0,0,0,0,0,0,0,0,0,0,0,0,0,0,0,0,0,0,0,0,0,0,0,0,0,0,0,0,0,0,0,0,0,0,0],"sum_hessian":[3.9956415E2,3.347113E2,6.4852844E1,2.4676918E2,8.794212E1,6.073545E0,5.87793E1,7.104015E1,1.7572902E2,5.7093044E1,3.0849081E1,5.5657177E1,3.1221247E0,5.089168E1,2.0148472E1,5.582453E1,1.1990449E2,1.7107994E1,3.998505E1,7.7412424E0,2.310784E1,3.134589E0,5.2522587E1,4.4955257E1,5.936423E0,9.93406E0,1.0214412E1,7.548739E0,4.8275795E1,1.6562628E1,1.03341866E2,1.1991397E1,5.1165977E0,3.682618E1,3.1588721E0,3.0481145E0,4.6931276E0,6.5952373E0,1.6512602E1,3.0382168E0,4.948437E1,5.0224605E0,3.9932796E1,3.118836E0,6.8152246E0,1.6205292E1,3.2070503E1,4.36582E0,1.2196809E1,3.1590866E1,7.1751E1,8.896616E0,3.0947807E0,3.0583615E0,3.3767815E1,3.123992E0,3.4712455E0,3.1487353E0,1.3363867E1,5.3740363E0,1.0831255E1,2.5822392E1,6.2481103E0,3.055936E0,9.140872E0,1.6478384E1,1.5112483E1,6.411341E1,7.637582E0,3.0702852E1,3.0649636E0],"tree_param":{"num_deleted":"0","num_feature":"1925","num_nodes":"71","size_leaf_vector":"1"}},{"base_weights":[-1.3522527E-2,-1.7514569E-1,1.1625297E0,-3.1342617E-1,8.1658417E-1,1.3723043E0,-1.4307892E-1,-8.8473445E-1,-6.306013E-2,-4.2143065E-2,1.0844954E0,7.3213786E-2,5.264421E-3,3.4193635E-2,-4.7156062E-2,1.0155108E-1,-1.1660684E0,2.1846955E-1,-8.7318003E-1,1.3290898E0,-3.5373986E-2,7.382786E-1,-5.843527E-2,-1.3736761E0,-2.647477E-1,5.010533E-1,-7.594427E-1,-1.122212E0,5.2069753E-1,-6.7605944E-3,7.4278064E-2,6.366982E-2,-4.154092E-2,3.4609798E-4,-1.5044796E0,-8.241416E-1,4.8215438E-2,-3.2524148E-1,9.032102E-1,8.9675134E-1,-1.2131004E0,-1.3313125E0,2.2134734E-2,-2.8217172E-2,6.0743082E-2,-7.7786095E-2,-2.3963084E-2,3.8548426E-3,-6.4618535E-2,4.989676E-2,-4.4815056E-2,5.6929465E-2,-1.8264026E-3,5.9302755E-2,8.925913E-3,-6.990471E-2,1.1727992E-2,9.081007E-3,-7.438808E-2],"categories":[],"categories_nodes":[],"categories_segments":[],"categories_sizes":[],"default_left":[0,0,0,0,0,0,0,0,0,0,0,0,0,0,0,0,0,0,0,0,0,0,0,0,0,0,0,0,0,0,0,0,0,0,0,0,0,0,0,0,0,0,0,0,0,0,0,0,0,0,0,0,0,0,0,0,0,0,0],"id":8,"left_children":[1,3,5,7,9,11,13,15,17,-1,19,-1,-1,-1,-1,21,23,25,27,29,-1,31,-1,33,35,37,39,41,43,-1,-1,-1,-1,-1,45,47,-1,49,51,53,55,57,-1,-1,-1,-1,-1,-1,-1,-1,-1,-1,-1,-1,-1,-1,-1,-1,-1],"loss_changes":[7.537525E1,4.83256E1,1.3635681E1,4.3826927E1,2.1047962E1,4.373848E0,6.857738E0,2.629461E1,4.9783844E1,0E0,1.864288E1,0E0,0E0,0E0,0E0,1.9895386E1,1.2770241E1,4.551396E1,2.0764614E1,8.388588E0,0E0,1.5827691E1,0E0,1.0784142E1,1.2738067E1,4.2846863E1,3.0039244E1,1.7119396E1,8.844781E0,0E0,0E0,0E0,0E0,0E0,1.1296463E0,5.507818E0,0E0,3.424316E1,1.9223625E1,1.3241773E0,8.799866E0,1.0917389E1,0E0,0E0,0E0,0E0,0E0,0E0,0E0,0E0,0E0,0E0,0E0,0E0,0E0,0E0,0E0,0E0,0E0],"parents":[2147483647,0,0,1,1,2,2,3,3,4,4,5,5,6,6,7,7,8,8,10,10,15,15,16,16,17,17,18,18,19,19,21,21,23,23,24,24,25,25,26,26,27,27,28,28,34,34,35,35,37,37,38,38,39,39,40,40,41,41],"right_children":[2,4,6,8,10,12,14,16,18,-1,20,-1,-1,-1,-1,22,24,26,28,30,-1,32,-1,34,36,38,40,42,44,-1,-1,-1,-1,-1,46,48,-1,50,52,54,56,58,-1,-1,-1,-1,-1,-1,-1,-1,-1,-1,-1,-1,-1,-1,-1,-1,-1],"split_conditions":[5.5722985E0,1.3193518E-1,2.9686608E0,3.6485527E-2,1.9016669E0,1.1880918E0,4.017297E0,1.8303128E-1,1.1763777E-1,-4.2143065E-2,1.41148E0,7.3213786E-2,5.264421E-3,3.4193635E-2,-4.7156062E-2,3.133611E-2,1.3034816E-1,6.544929E-2,4.4339737E-3,3.177166E-1,-3.5373986E-2,1.1411597E-1,-5.843527E-2,2.4523363E0,7.441791E-1,1.627867E-1,1.6259451E-1,4.605825E-1,1.2651625E-1,-6.7605944E-3,7.4278064E-2,6.366982E-2,-4.154092E-2,3.4609798E-4,2.408201E-1,6.1115575E-1,4.8215438E-2,2.6350956E0,2.5295332E-1,1.0473534E0,4.810332E0,5.411997E-2,2.2134734E-2,-2.8217172E-2,6.0743082E-2,-7.7786095E-2,-2.3963084E-2,3.8548426E-3,-6.4618535E-2,4.989676E-2,-4.4815056E-2,5.6929465E-2,-1.8264026E-3,5.9302755E-2,8.925913E-3,-6.990471E-2,1.1727992E-2,9.081007E-3,-7.438808E-2],"split_indices":[706,1278,554,1760,913,474,852,1596,1699,0,27,0,0,0,0,1528,1703,1757,1159,66,0,1688,0,731,173,1793,1575,1759,1850,0,0,0,0,0,1892,167,0,608,1685,510,770,1922,0,0,0,0,0,0,0,0,0,0,0,0,0,0,0,0,0],"split_type":[0,0,0,0,0,0,0,0,0,0,0,0,0,0,0,0,0,0,0,0,0,0,0,0,0,0,0,0,0,0,0,0,0,0,0,0,0,0,0,0,0,0,0,0,0,0,0,0,0,0,0,0,0,0,0,0,0,0,0],"sum_hessian":[3.929276E2,3.470238E2,4.59038E1,3.0584717E2,4.1176624E1,3.9527298E1,6.3765025E0,9.1526535E1,2.1432063E2,5.0752316E0,3.6101395E1,3.6488342E1,3.038956E0,3.2168598E0,3.159643E0,2.0518055E1,7.1008484E1,1.6004102E2,5.4279617E1,3.226925E1,3.8321433E0,1.42775955E1,6.240459E0,5.677256E1,1.4235922E1,1.2499825E2,3.5042774E1,4.6443497E1,7.8361177E0,3.079849E0,2.91894E1,1.0975274E1,3.3023214E0,5.01112E0,5.176144E1,1.0291916E1,3.9440055E0,4.0964367E1,8.403388E1,7.0674343E0,2.7975338E1,4.128897E1,5.1545267E0,3.1470196E0,4.6890984E0,4.821892E1,3.5425177E0,4.0170636E0,6.2748523E0,1.1846116E1,2.911825E1,6.694834E1,1.7085539E1,4.010197E0,3.0572374E0,2.4927462E1,3.047876E0,3.779408E0,3.7509563E1],"tree_param":{"num_deleted":"0","num_feature":"1925","num_nodes":"59","size_leaf_vector":"1"}},{"base_weights":[-1.6595455E-2,-1.8057722E-1,1.1157757E0,-5.7434744E-1,1.4642075E-1,-3.5962948E-1,1.348364E0,-2.082192E-1,-1.0679132E0,2.8264907E-1,-8.7906736E-1,-5.3920835E-2,2.5370035E-2,7.1699716E-2,7.397996E-3,-1.0528616E0,2.3390278E-1,-1.1950912E0,3.2699335E-2,7.383575E-1,-4.1008987E-2,2.501368E-2,-6.65612E-2,-1.3383381E0,1.2238422E-2,5.610558E-1,-8.688105E-1,-1.3148438E0,-3.109623E-5,1.0590965E0,-2.1464458E-1,1.9494672E-1,-7.7103025E-1,-7.1925454E-2,-1.5840936E-2,1.2833745E0,6.577964E-2,-6.413706E-2,2.0457825E-2,-1.4727913E0,-2.6859686E-1,1.0738407E-1,1.3281248E0,-8.987306E-1,7.829819E-1,4.1355467E-1,-8.3705467E-1,1.8416788E-2,-1.1125643E0,7.517402E-2,1.5233149E-3,4.818631E-2,-1.7820682E-2,-7.5902365E-2,-2.3276882E-2,2.2456665E-2,-5.2738674E-2,4.502944E-2,-4.4641398E-2,7.1474604E-2,1.8715858E-3,-6.58929E-2,9.856819E-3,5.4857414E-2,4.895429E-3,-5.297603E-3,4.445794E-2,-6.569119E-2,2.5773538E-2,5.140764E-4,-6.620777E-2],"categories":[],"categories_nodes":[],"categories_segments":[],"categories_sizes":[],"default_left":[0,0,0,0,0,0,0,0,0,0,0,0,0,0,0,0,0,0,0,0,0,0,0,0,0,0,0,0,0,0,0,0,0,0,0,0,0,0,0,0,0,0,0,0,0,0,0,0,0,0,0,0,0,0,0,0,0,0,0,0,0,0,0,0,0,0,0,0,0,0,0],"id":9,"left_children":[1,3,5,7,9,11,13,15,17,19,21,-1,-1,-1,-1,23,25,27,-1,29,31,-1,-1,33,-1,35,37,39,-1,41,43,45,47,-1,-1,49,51,-1,-1,53,55,57,59,61,63,65,67,-1,69,-1,-1,-1,-1,-1,-1,-1,-1,-1,-1,-1,-1,-1,-1,-1,-1,-1,-1,-1,-1,-1,-1],"loss_changes":[7.193409E1,4.382677E1,1.7881454E1,2.7296635E1,2.649296E1,6.256889E0,3.8170624E0,3.460989E1,1.5868805E1,2.4649529E1,1.5305401E1,0E0,0E0,0E0,0E0,1.2528606E1,2.3089062E1,8.644424E0,0E0,2.1712498E1,1.7405949E1,0E0,0E0,1.6146622E0,0E0,1.7091759E1,8.944749E0,8.238564E0,0E0,1.2947311E1,1.4404324E1,1.786067E1,1.0498589E1,0E0,0E0,5.1570625E0,1.251377E1,0E0,0E0,5.6993866E-1,6.5572553E0,1.2534588E1,5.0413437E0,6.271041E0,1.5487294E0,1.6171429E1,1.0408258E1,0E0,4.804495E0,0E0,0E0,0E0,0E0,0E0,0E0,0E0,0E0,0E0,0E0,0E0,0E0,0E0,0E0,0E0,0E0,0E0,0E0,0E0,0E0,0E0,0E0],"parents":[2147483647,0,0,1,1,2,2,3,3,4,4,5,5,6,6,7,7,8,8,9,9,10,10,15,15,16,16,17,17,19,19,20,20,23,23,25,25,26,26,27,27,29,29,30,30,31,31,32,32,35,35,36,36,39,39,40,40,41,41,42,42,43,43,44,44,45,45,46,46,48,48],"right_children":[2,4,6,8,10,12,14,16,18,20,22,-1,-1,-1,-1,24,26,28,-1,30,32,-1,-1,34,-1,36,38,40,-1,42,44,46,48,-1,-1,50,52,-1,-1,54,56,58,60,62,64,66,68,-1,70,-1,-1,-1,-1,-1,-1,-1,-1,-1,-1,-1,-1,-1,-1,-1,-1,-1,-1,-1,-1,-1,-1],"split_conditions":[1.1085153E0,4.570425E-1,4.4846544E0,3.1788583E0,4.5502787E0,5.4726213E-1,2.7149916E-1,6.140872E-1,5.8661323E0,5.3768164E-1,2.3384273E-1,-5.3920835E-2,2.5370035E-2,7.1699716E-2,7.397996E-3,9.0233684E-1,1.2078625E0,1.033019E-1,3.2699335E-2,1.359454E-1,4.186902E0,2.501368E-2,-6.65612E-2,1.9413751E-1,1.2238422E-2,4.2256612E-1,5.4008126E-1,1.3630848E-1,-3.109623E-5,1.1249948E-1,1.5286487E-2,1.3943619E0,8.163924E-1,-7.1925454E-2,-1.5840936E-2,1.0078988E0,5.480546E-1,-6.413706E-2,2.0457825E-2,1.1061642E0,1.4729776E-5,6.5785694E-1,3.0141655E-1,7.6717144E-1,2.3138518E-3,3.355957E0,1.2670045E-1,1.8416788E-2,9.734298E-2,7.517402E-2,1.5233149E-3,4.818631E-2,-1.7820682E-2,-7.5902365E-2,-2.3276882E-2,2.2456665E-2,-5.2738674E-2,4.502944E-2,-4.4641398E-2,7.1474604E-2,1.8715858E-3,-6.58929E-2,9.856819E-3,5.4857414E-2,4.895429E-3,-5.297603E-3,4.445794E-2,-6.569119E-2,2.5773538E-2,5.140764E-4,-6.620777E-2],"split_indices":[235,46,796,944,811,344,1906,130,759,201,116,0,0,0,0,146,37,1830,0,1630,986,0,0,1281,0,231,195,1700,0,1728,1190,467,433,0,0,435,1628,0,0,282,1127,74,1792,313,1353,674,1822,0,1585,0,0,0,0,0,0,0,0,0,0,0,0,0,0,0,0,0,0,0,0,0,0],"split_type":[0,0,0,0,0,0,0,0,0,0,0,0,0,0,0,0,0,0,0,0,0,0,0,0,0,0,0,0,0,0,0,0,0,0,0,0,0,0,0,0,0,0,0,0,0,0,0,0,0,0,0,0,0,0,0,0,0,0,0,0,0,0,0,0,0,0,0,0,0,0,0],"sum_hessian":[3.8372528E2,3.3673163E2,4.6993652E1,1.5222072E2,1.845109E2,6.1921134E0,4.0801537E1,8.914161E1,6.3079117E1,1.6423923E2,2.0271667E1,3.1819403E0,3.010173E0,3.764375E1,3.1577902E0,2.9756796E1,5.938481E1,5.9364475E1,3.7146432E0,6.726996E1,9.696927E1,4.897486E0,1.537418E1,2.4402586E1,5.3542104E0,4.6625153E1,1.2759658E1,5.369588E1,5.6685944E0,5.0242725E1,1.7027233E1,7.4287254E1,2.2682014E1,2.1390694E1,3.011892E0,1.7588879E1,2.9036274E1,9.691409E0,3.0682483E0,4.5861412E1,7.834468E0,1.1771167E1,3.8471558E1,1.0277982E1,6.749251E0,6.237075E1,1.1916502E1,5.127341E0,1.7554674E1,1.4552547E1,3.0363312E0,8.541409E0,2.0494865E1,4.2823826E1,3.037589E0,4.477247E0,3.357221E0,6.7317924E0,5.039375E0,3.539888E1,3.072678E0,7.207498E0,3.0704842E0,3.7023966E0,3.0468543E0,3.0451973E1,3.1918776E1,8.907683E0,3.0088189E0,3.0102806E0,1.4544394E1],"tree_param":{"num_deleted":"0","num_feature":"1925","num_nodes":"71","size_leaf_vector":"1"}},{"base_weights":[-3.1927783E-2,-2.3857671E-1,8.2408345E-1,-5.242763E-1,1.9194518E-1,-8.8782513E-1,1.0056345E0,-7.844606E-1,6.0773928E-2,6.2977374E-1,-2.9662797E-1,-1.4812318E-2,-5.484218E-2,1.1418564E0,-2.1617135E-2,-8.876419E-1,2.9000005E-1,-8.844609E-1,4.4267523E-1,9.467708E-1,-3.2154697E-1,8.337031E-1,-5.61659E-1,-1.1217279E-2,1.2370015E0,-4.310903E-1,-1.1461643E0,8.038372E-1,-4.0304825E-2,-6.2185165E-2,1.426277E-2,7.2795427E-1,-5.001394E-2,1.0758907E0,-1.8239932E-2,3.6750275E-1,-5.6726288E-2,-9.260782E-3,6.1458547E-2,2.6813996E-1,-8.8160855E-1,1.3657933E0,2.7456078E-1,-8.46627E-1,3.827704E-1,-1.2433083E0,-3.0140838E-4,5.9065957E-2,-1.5487843E-4,1.0099406E0,-3.0368183E-2,1.2630104E0,9.947033E-2,5.4815095E-2,-3.7137013E-2,5.653579E-2,-7.365449E-1,1.5209803E-1,-1.1164881E0,1.7387947E-2,1.4162763E0,4.567362E-2,-3.1885035E-2,-5.6236487E-2,1.9927373E-2,5.1590126E-2,-3.5434995E-2,-3.686479E-3,-6.5525666E-2,6.705027E-2,1.212986E-3,6.857874E-2,6.750236E-3,4.8362523E-2,-4.5197036E-2,-7.2573866E-3,-4.9904443E-2,4.3236397E-2,-2.902683E-2,-6.817502E-2,5.0796894E-4,7.2787695E-2,2.3619913E-2],"categories":[],"categories_nodes":[],"categories_segments":[],"categories_sizes":[],"default_left":[0,0,0,0,0,0,0,0,0,0,0,0,0,0,0,0,0,0,0,0,0,0,0,0,0,0,0,0,0,0,0,0,0,0,0,0,0,0,0,0,0,0,0,0,0,0,0,0,0,0,0,0,0,0,0,0,0,0,0,0,0,0,0,0,0,0,0,0,0,0,0,0,0,0,0,0,0,0,0,0,0,0,0],"id":10,"left_children":[1,3,5,7,9,11,13,15,17,19,21,-1,-1,23,-1,25,27,29,31,33,35,37,39,-1,41,43,45,47,-1,-1,-1,49,-1,51,-1,53,-1,-1,-1,55,57,59,61,63,65,67,-1,-1,-1,69,-1,71,73,-1,-1,-1,75,77,79,-1,81,-1,-1,-1,-1,-1,-1,-1,-1,-1,-1,-1,-1,-1,-1,-1,-1,-1,-1,-1,-1,-1,-1],"loss_changes":[6.835475E1,3.8535927E1,2.5148094E1,2.8763168E1,2.7261116E1,2.2639179E-1,1.4558212E1,1.5019165E1,2.2240791E1,2.086304E1,1.9058285E1,0E0,0E0,8.919197E0,0E0,1.2952896E1,8.526401E0,8.256666E0,1.9472336E1,9.460274E0,1.1077215E1,5.4919424E0,1.3899769E1,0E0,6.4989166E0,1.6430948E1,8.158127E0,3.111536E0,0E0,0E0,0E0,1.5504927E1,0E0,8.168602E0,0E0,1.0780661E1,0E0,0E0,0E0,1.5099329E1,9.39205E0,1.5187454E0,6.8189917E0,1.1879877E1,1.3554304E1,5.087738E0,0E0,0E0,0E0,1.0251335E1,0E0,4.2600822E0,1.0277828E1,0E0,0E0,0E0,8.79333E-1,5.475995E0,8.616482E0,0E0,2.5547028E-1,0E0,0E0,0E0,0E0,0E0,0E0,0E0,0E0,0E0,0E0,0E0,0E0,0E0,0E0,0E0,0E0,0E0,0E0,0E0,0E0,0E0,0E0],"parents":[2147483647,0,0,1,1,2,2,3,3,4,4,5,5,6,6,7,7,8,8,9,9,10,10,13,13,15,15,16,16,17,17,18,18,19,19,20,20,21,21,22,22,24,24,25,25,26,26,27,27,31,31,33,33,35,35,39,39,40,40,41,41,42,42,43,43,44,44,45,45,49,49,51,51,52,52,56,56,57,57,58,58,60,60],"right_children":[2,4,6,8,10,12,14,16,18,20,22,-1,-1,24,-1,26,28,30,32,34,36,38,40,-1,42,44,46,48,-1,-1,-1,50,-1,52,-1,54,-1,-1,-1,56,58,60,62,64,66,68,-1,-1,-1,70,-1,72,74,-1,-1,-1,76,78,80,-1,82,-1,-1,-1,-1,-1,-1,-1,-1,-1,-1,-1,-1,-1,-1,-1,-1,-1,-1,-1,-1,-1,-1],"split_conditions":[1.7934856E0,5.202789E-1,2.2980416E0,9.84611E-1,6.0986555E-1,7.199129E-3,4.984396E0,1.3550113E-1,2.9398222E0,7.7458155E-1,3.9045053E0,-1.4812318E-2,-5.484218E-2,1.6131443E-1,-2.1617135E-2,1.8500873E-1,1.2030654E0,1.9049446E-1,3.021751E0,2.7730048E-1,8.137434E-1,5.0911325E-1,4.680971E-1,-1.1217279E-2,3.4877691E0,2.613385E-1,3.8943372E0,2.9195614E0,-4.0304825E-2,-6.2185165E-2,1.426277E-2,2.8777796E-1,-5.001394E-2,7.6312914E-2,-1.8239932E-2,1.20189585E-1,-5.6726288E-2,-9.260782E-3,6.1458547E-2,2.2636169E-1,1.7227432E-1,3.1351157E-2,2.036049E0,4.195453E0,3.9271018E-1,2.5799054E-1,-3.0140838E-4,5.9065957E-2,-1.5487843E-4,2.1411613E-5,-3.0368183E-2,1.0465213E0,5.864055E-1,5.4815095E-2,-3.7137013E-2,5.653579E-2,1.5393314E-1,2.953842E-1,1.1798677E0,1.7387947E-2,3.145508E0,4.567362E-2,-3.1885035E-2,-5.6236487E-2,1.9927373E-2,5.1590126E-2,-3.5434995E-2,-3.686479E-3,-6.5525666E-2,6.705027E-2,1.212986E-3,6.857874E-2,6.750236E-3,4.8362523E-2,-4.5197036E-2,-7.2573866E-3,-4.9904443E-2,4.3236397E-2,-2.902683E-2,-6.817502E-2,5.0796894E-4,7.2787695E-2,2.3619913E-2],"split_indices":[194,481,1001,339,201,1227,952,1747,642,245,951,0,0,1901,0,1906,220,1782,956,1906,124,421,410,0,755,1845,564,626,0,0,0,1868,0,1591,0,1721,0,0,0,1698,1575,1891,669,706,242,1666,0,0,0,1072,0,115,139,0,0,0,1796,1610,131,0,583,0,0,0,0,0,0,0,0,0,0,0,0,0,0,0,0,0,0,0,0,0,0],"split_type":[0,0,0,0,0,0,0,0,0,0,0,0,0,0,0,0,0,0,0,0,0,0,0,0,0,0,0,0,0,0,0,0,0,0,0,0,0,0,0,0,0,0,0,0,0,0,0,0,0,0,0,0,0,0,0,0,0,0,0,0,0,0,0,0,0,0,0,0,0,0,0,0,0,0,0,0,0,0,0,0,0,0,0],"sum_hessian":[3.8252496E2,3.0939386E2,7.3131096E1,1.8585495E2,1.23538895E2,6.2132196E0,6.691788E1,1.2829063E2,5.7564327E1,6.495604E1,5.8582855E1,3.0092628E0,3.2039568E0,6.156694E1,5.350934E0,1.174524E2,1.0838231E1,1.57322E1,4.1832127E1,4.880727E1,1.6148771E1,1.0240303E1,4.8342552E1,3.763237E0,5.7803703E1,4.453148E1,7.292092E1,7.8042135E0,3.0340173E0,1.2004404E1,3.727796E0,3.5812202E1,6.019922E0,4.4829567E1,3.9777014E0,9.267175E0,6.8815966E0,3.0898302E0,7.150473E0,1.345581E1,3.4886745E1,5.0150574E1,7.6531305E0,2.950786E1,1.5023617E1,6.6948E1,5.9729223E0,4.769202E0,3.0350113E0,3.003234E1,5.779865E0,3.7041546E1,7.788021E0,5.6641974E0,3.6029775E0,7.1585E0,6.2973094E0,6.510987E0,2.8375757E1,3.208404E0,4.694217E1,4.5637937E0,3.0893369E0,2.4344437E1,5.163425E0,9.547339E0,5.476278E0,3.9466095E0,6.3001392E1,2.1865768E1,8.166571E0,3.331468E1,3.7268682E0,4.2683544E0,3.5196664E0,3.0018556E0,3.2954535E0,3.1869514E0,3.3240354E0,2.3001162E1,5.374595E0,4.3914867E1,3.0273032E0],"tree_param":{"num_deleted":"0","num_feature":"1925","num_nodes":"83","size_leaf_vector":"1"}},{"base_weights":[1.3553569E-2,-1.8382134E-1,7.835325E-1,-8.175472E-1,-5.2204775E-3,-5.426966E-1,9.465359E-1,-9.7961396E-1,5.0881457E-2,-4.241618E-1,2.6683986E-1,-5.935947E-2,2.3531469E-2,1.1894488E0,-7.03054E-2,3.2389823E-2,-1.1020316E0,-6.056828E-1,4.5231083E-1,-4.8243284E-1,4.7623646E-1,1.2738883E0,-8.431706E-3,7.002826E-1,-4.6461307E-2,-1.2784531E0,2.2226125E-3,-8.595382E-1,2.9471707E-2,9.6199334E-1,-3.8080525E-2,4.526117E-1,-9.371009E-1,8.005719E-1,-8.034487E-2,7.038885E-2,6.8375147E-3,5.26506E-2,-0E0,-1.3706518E0,-1.4001362E-3,3.9841276E-2,-4.0195815E-2,4.056201E-2,-1.0059533E0,-9.592222E-1,6.449712E-1,-7.62159E-3,6.647815E-2,-3.2250557E-2,5.009814E-2,1.3899425E-2,-1.2658979E0,1.5596551E-3,1.0903078E0,8.3729035E-1,-5.053528E-1,-7.059454E-2,-2.3755891E-2,-5.5959355E-2,2.1513507E-2,-5.676576E-2,-1.6171712E-2,5.283126E-2,-2.5729576E-2,-1.1853116E-2,-7.153954E-2,4.97646E-2,-1.924324E-2,-2.1718713E-2,6.165433E-2,6.652583E-2,-1.6648952E-2,-4.8363984E-2,3.3648923E-2],"categories":[],"categories_nodes":[],"categories_segments":[],"categories_sizes":[],"default_left":[0,0,0,0,0,0,0,0,0,0,0,0,0,0,0,0,0,0,0,0,0,0,0,0,0,0,0,0,0,0,0,0,0,0,0,0,0,0,0,0,0,0,0,0,0,0,0,0,0,0,0,0,0,0,0,0,0,0,0,0,0,0,0,0,0,0,0,0,0,0,0,0,0,0,0],"id":11,"left_children":[1,3,5,7,9,11,13,15,-1,17,19,-1,-1,21,23,-1,25,27,29,31,33,35,-1,37,-1,39,41,43,45,47,-1,49,51,53,55,-1,-1,-1,-1,57,-1,-1,-1,-1,59,61,63,-1,-1,-1,-1,-1,65,67,69,71,73,-1,-1,-1,-1,-1,-1,-1,-1,-1,-1,-1,-1,-1,-1,-1,-1,-1,-1],"loss_changes":[5.831487E1,3.4443535E1,1.7996304E1,2.1901733E1,2.7615902E1,7.573087E0,1.7700977E1,1.3941566E1,0E0,1.5753315E1,2.3474277E1,0E0,0E0,7.0908127E0,1.15234785E1,0E0,1.1628082E1,1.3039867E1,1.2270403E1,1.4896635E1,2.1097975E1,7.6945724E0,0E0,2.345676E0,0E0,5.658226E0,7.7159095E0,1.5685101E1,1.6223387E1,5.937743E0,0E0,8.594425E0,9.943588E0,1.6888252E1,1.8100061E1,0E0,0E0,0E0,0E0,2.1804047E-1,0E0,0E0,0E0,0E0,9.763966E0,2.6283836E-1,9.002304E0,0E0,0E0,0E0,0E0,0E0,2.2818298E0,9.136054E0,1.2862804E1,9.476142E0,1.854007E1,0E0,0E0,0E0,0E0,0E0,0E0,0E0,0E0,0E0,0E0,0E0,0E0,0E0,0E0,0E0,0E0,0E0,0E0],"parents":[2147483647,0,0,1,1,2,2,3,3,4,4,5,5,6,6,7,7,9,9,10,10,13,13,14,14,16,16,17,17,18,18,19,19,20,20,21,21,23,23,25,25,26,26,27,27,28,28,29,29,31,31,32,32,33,33,34,34,39,39,44,44,45,45,46,46,52,52,53,53,54,54,55,55,56,56],"right_children":[2,4,6,8,10,12,14,16,-1,18,20,-1,-1,22,24,-1,26,28,30,32,34,36,-1,38,-1,40,42,44,46,48,-1,50,52,54,56,-1,-1,-1,-1,58,-1,-1,-1,-1,60,62,64,-1,-1,-1,-1,-1,66,68,70,72,74,-1,-1,-1,-1,-1,-1,-1,-1,-1,-1,-1,-1,-1,-1,-1,-1,-1,-1],"split_conditions":[1.7934856E0,5.975105E-1,2.8182416E0,4.028698E-1,2.366246E0,3.1464596E0,5.0384736E0,1.8598765E0,5.0881457E-2,2.3041461E-1,3.4360793E-1,-5.935947E-2,2.3531469E-2,4.3526173E0,6.0711604E-2,3.2389823E-2,2.1831149E-1,1.362669E-1,3.1394446E-3,5.649447E-1,3.8433304E0,1.2305244E-1,-8.431706E-3,4.369771E0,-4.6461307E-2,3.3689713E0,3.5080574E0,5.80978E-1,5.351722E-1,5.5400777E-1,-3.8080525E-2,2.6192479E-3,2.341176E0,1.214383E-1,5.379244E-1,7.038885E-2,6.8375147E-3,5.26506E-2,-0E0,3.8894305E0,-1.4001362E-3,3.9841276E-2,-4.0195815E-2,4.056201E-2,1.4993808E-1,1.131118E-1,2.8371234E0,-7.62159E-3,6.647815E-2,-3.2250557E-2,5.009814E-2,1.3899425E-2,9.319022E-2,2.427703E0,5.875767E-2,1.1695455E-1,4.3943776E-3,-7.059454E-2,-2.3755891E-2,-5.5959355E-2,2.1513507E-2,-5.676576E-2,-1.6171712E-2,5.283126E-2,-2.5729576E-2,-1.1853116E-2,-7.153954E-2,4.97646E-2,-1.924324E-2,-2.1718713E-2,6.165433E-2,6.652583E-2,-1.6648952E-2,-4.8363984E-2,3.3648923E-2],"split_indices":[194,298,1013,1643,993,658,941,713,0,1673,1828,0,0,986,1783,0,1695,1629,1477,429,651,1902,0,667,0,536,752,262,237,141,0,1454,849,1870,294,0,0,0,0,875,0,0,0,0,1030,1680,707,0,0,0,0,0,1776,630,1788,1877,1143,0,0,0,0,0,0,0,0,0,0,0,0,0,0,0,0,0,0],"split_type":[0,0,0,0,0,0,0,0,0,0,0,0,0,0,0,0,0,0,0,0,0,0,0,0,0,0,0,0,0,0,0,0,0,0,0,0,0,0,0,0,0,0,0,0,0,0,0,0,0,0,0,0,0,0,0,0,0,0,0,0,0,0,0,0,0,0,0,0,0,0,0,0,0,0,0],"sum_hessian":[3.7942468E2,3.0311694E2,7.6307755E1,6.4948074E1,2.3816887E2,7.7751694E0,6.8532585E1,6.0584656E1,4.3634133E0,9.347604E1,1.4469283E2,4.6030693E0,3.1720998E0,5.5123093E1,1.3409493E1,3.5808525E0,5.7003803E1,7.804468E1,1.5431364E1,3.0930492E1,1.1376234E2,5.208246E1,3.0406337E0,7.2015376E0,6.207956E0,4.89572E1,8.046605E0,5.536683E1,2.2677847E1,1.121854E1,4.2128243E0,1.0050437E1,2.0880054E1,7.143695E1,4.2325386E1,4.609161E1,5.9908495E0,4.1849375E0,3.0166E0,4.5341812E1,3.6153865E0,4.126405E0,3.9202008E0,3.674288E0,5.1692543E1,8.210206E0,1.4467641E1,3.005321E0,8.213219E0,3.1754594E0,6.874978E0,4.4478116E0,1.6432243E1,1.9637636E1,5.1799316E1,1.2709304E1,2.9616081E1,4.2136597E1,3.2052147E0,4.838863E1,3.303912E0,5.075739E0,3.1344671E0,1.0871838E1,3.5958033E0,3.0270455E0,1.3405198E1,4.6884007E0,1.4949235E1,4.0256715E0,4.7773643E1,8.808448E0,3.900855E0,2.1593954E1,8.022128E0],"tree_param":{"num_deleted":"0","num_feature":"1925","num_nodes":"75","size_leaf_vector":"1"}},{"base_weights":[-7.6875165E-3,-2.2289413E-1,6.6012174E-1,-1.1581676E-1,-1.2803962E0,1.0842868E0,-2.779038E-1,-4.9687836E-1,1.2691167E-1,-6.831096E-2,-2.1562086E-2,-3.2317004E-1,1.2817936E0,6.0204494E-1,-9.725816E-1,-1.1051868E0,-1.8481727E-1,5.390034E-1,-3.0242103E-1,-5.3224165E-2,2.6640985E-2,-6.713852E-3,1.3730822E0,-2.1159349E-2,1.0123905E0,1.6179716E-2,-6.864824E-2,-1.3581916E0,1.8245261E-2,2.9926136E-1,-6.8698275E-1,7.7307516E-1,-7.779771E-1,-6.254804E-1,7.787155E-1,2.1804152E-2,7.049998E-2,6.0982686E-2,1.3757597E-2,-1.9424945E-2,-7.213773E-2,-4.4474357E-1,9.8400027E-1,-9.989618E-1,3.900054E-2,9.4610786E-1,-4.379877E-1,-6.0318578E-2,1.9990569E-2,5.3572167E-2,-7.8579164E-1,-2.7312392E-2,1.1178448E0,2.483992E-2,-5.080628E-2,6.1931875E-2,-6.8723265E-4,-6.010961E-2,2.1054808E-2,5.1979672E-2,-2.6649827E-2,3.2055266E-2,-5.4522842E-2,2.086713E-2,-4.6680454E-2,5.4297596E-3,6.715264E-2],"categories":[],"categories_nodes":[],"categories_segments":[],"categories_sizes":[],"default_left":[0,0,0,0,0,0,0,0,0,0,0,0,0,0,0,0,0,0,0,0,0,0,0,0,0,0,0,0,0,0,0,0,0,0,0,0,0,0,0,0,0,0,0,0,0,0,0,0,0,0,0,0,0,0,0,0,0,0,0,0,0,0,0,0,0,0,0],"id":12,"left_children":[1,3,5,7,9,11,13,15,17,-1,-1,19,21,23,25,27,29,31,33,-1,-1,-1,35,-1,37,-1,-1,39,-1,41,43,45,47,49,51,-1,-1,-1,-1,-1,-1,53,55,57,-1,59,61,-1,-1,-1,63,-1,65,-1,-1,-1,-1,-1,-1,-1,-1,-1,-1,-1,-1,-1,-1],"loss_changes":[5.4369312E1,3.1993916E1,3.7354534E1,2.4429008E1,5.4021835E-1,1.8701073E1,1.9679802E1,1.8948927E1,2.8957867E1,0E0,0E0,7.1552477E0,7.8022003E0,7.017215E0,1.0186962E1,1.3846287E1,1.7552925E1,2.6894321E1,2.902428E1,0E0,0E0,0E0,4.3160248E-1,0E0,8.627243E-1,0E0,0E0,1.1346321E0,0E0,1.9837648E1,1.7709436E1,1.5932465E1,7.861766E0,1.8806564E1,9.953491E0,0E0,0E0,0E0,0E0,0E0,0E0,1.13344965E1,5.2429066E0,9.746975E0,0E0,9.947342E0,8.677558E0,0E0,0E0,0E0,1.1290504E1,0E0,3.2199364E0,0E0,0E0,0E0,0E0,0E0,0E0,0E0,0E0,0E0,0E0,0E0,0E0,0E0,0E0],"parents":[2147483647,0,0,1,1,2,2,3,3,4,4,5,5,6,6,7,7,8,8,11,11,12,12,13,13,14,14,15,15,16,16,17,17,18,18,22,22,24,24,27,27,29,29,30,30,31,31,32,32,33,33,34,34,41,41,42,42,43,43,45,45,46,46,50,50,52,52],"right_children":[2,4,6,8,10,12,14,16,18,-1,-1,20,22,24,26,28,30,32,34,-1,-1,-1,36,-1,38,-1,-1,40,-1,42,44,46,48,50,52,-1,-1,-1,-1,-1,-1,54,56,58,-1,60,62,-1,-1,-1,64,-1,66,-1,-1,-1,-1,-1,-1,-1,-1,-1,-1,-1,-1,-1,-1],"split_conditions":[2.7013946E-1,1.6362193E-1,1.0007574E-1,4.21625E-2,2.855346E-1,1.0120348E0,9.2350566E-1,4.3329668E-1,3.5548592E0,-6.831096E-2,-2.1562086E-2,3.8693607E-2,6.0161877E-1,2.4025989E0,1.9861345E0,1.7934856E0,2.6761396E0,1.6909511E-1,4.11362E0,-5.3224165E-2,2.6640985E-2,-6.713852E-3,2.0948145E-1,-2.1159349E-2,4.2183313E0,1.6179716E-2,-6.864824E-2,1.6876502E-1,1.8245261E-2,8.047097E-1,5.031043E0,1.3093871E-1,3.565874E0,1.0492833E-1,3.3731728E0,2.1804152E-2,7.049998E-2,6.0982686E-2,1.3757597E-2,-1.9424945E-2,-7.213773E-2,4.1024554E-1,1.3944924E-1,3.9894962E0,3.900054E-2,4.492305E0,5.615475E-1,-6.0318578E-2,1.9990569E-2,5.3572167E-2,4.677773E-1,-2.7312392E-2,3.1789055E0,2.483992E-2,-5.080628E-2,6.1931875E-2,-6.8723265E-4,-6.010961E-2,2.1054808E-2,5.1979672E-2,-2.6649827E-2,3.2055266E-2,-5.4522842E-2,2.086713E-2,-4.6680454E-2,5.4297596E-3,6.715264E-2],"split_indices":[1781,1902,1630,1760,1924,1025,197,259,655,0,0,1760,400,847,1017,194,519,1722,694,0,0,0,180,0,702,0,0,1596,0,359,559,1694,533,1912,786,0,0,0,0,0,0,288,1758,744,0,812,1608,0,0,0,393,0,991,0,0,0,0,0,0,0,0,0,0,0,0,0,0],"split_type":[0,0,0,0,0,0,0,0,0,0,0,0,0,0,0,0,0,0,0,0,0,0,0,0,0,0,0,0,0,0,0,0,0,0,0,0,0,0,0,0,0,0,0,0,0,0,0,0,0,0,0,0,0,0,0,0,0,0,0,0,0,0,0,0,0,0,0],"sum_hessian":[3.7456485E2,2.8439774E2,9.016713E1,2.6034964E2,2.4048101E1,6.194915E1,2.8217981E1,1.0065239E2,1.5969724E2,2.062769E1,3.4204116E0,7.404562E0,5.4544586E1,1.2503074E1,1.5714908E1,3.2295116E1,6.835727E1,8.13429E1,7.835433E1,3.7696302E0,3.6349318E0,3.179946E0,5.1364643E1,3.486331E0,9.016743E0,3.740255E0,1.1974653E1,2.7741096E1,4.5540195E0,3.5115517E1,3.3241756E1,6.983313E1,1.1509777E1,6.1047783E1,1.7306553E1,3.021047E0,4.8343594E1,5.910693E0,3.1060495E0,3.2174287E0,2.4523668E1,1.7095402E1,1.8020113E1,2.7994532E1,5.247224E0,6.1558044E1,8.275084E0,8.466605E0,3.0431716E0,4.2344565E0,5.6813324E1,3.2179236E0,1.4088629E1,6.4888735E0,1.0606529E1,1.4051376E1,3.968737E0,2.4819736E1,3.1747947E0,5.8521164E1,3.03688E0,3.0735047E0,5.201579E0,5.7433214E0,5.1070004E1,3.1920724E0,1.0896557E1],"tree_param":{"num_deleted":"0","num_feature":"1925","num_nodes":"67","size_leaf_vector":"1"}},{"base_weights":[1.6687118E-2,-1.3061073E-1,8.5925364E-1,-6.029724E-1,1.3656558E-1,-5.882602E-1,1.0613223E0,5.4511394E-2,-6.748018E-1,7.513433E-1,-2.1988712E-1,-5.0096065E-2,2.465398E-3,1.2634001E0,-2.332832E-2,-8.263252E-1,2.6568982E-1,1.0366771E0,-2.2358477E-1,1.4570741E-1,-9.0660197E-1,1.4710327E-2,1.3222532E0,-9.312371E-1,3.2118514E-2,-3.0045291E-2,8.618034E-1,1.2099754E0,-2.3317076E-1,-1.0486743E0,6.13544E-1,4.8790497E-1,-5.895018E-1,-1.1534988E0,3.36915E-1,2.0042202E-2,6.865847E-2,-1.0512319E0,2.4196312E-1,3.1718225E-3,5.7833344E-2,-6.3569993E-3,1.3006567E0,3.2942448E-2,-4.74608E-2,-6.1700452E-2,-1.7001478E-2,-1.1785937E-2,5.5307794E-2,-2.645405E-1,1.0659754E0,7.9573655E-1,-1.104489E0,2.8073217E-3,-1.3132341E0,-2.8462393E-2,5.3271253E-2,1.6760362E-2,-5.6483682E-2,-4.8221953E-2,5.533392E-2,6.9896236E-2,1.6751662E-3,1.7973283E-2,-5.9618462E-2,-1.5854813E-2,6.1440725E-2,5.2296262E-2,8.791539E-3,7.906538E-3,-6.848248E-2,-7.0141904E-2,-1.19788805E-2],"categories":[],"categories_nodes":[],"categories_segments":[],"categories_sizes":[],"default_left":[0,0,0,0,0,0,0,0,0,0,0,0,0,0,0,0,0,0,0,0,0,0,0,0,0,0,0,0,0,0,0,0,0,0,0,0,0,0,0,0,0,0,0,0,0,0,0,0,0,0,0,0,0,0,0,0,0,0,0,0,0,0,0,0,0,0,0,0,0,0,0,0,0],"id":13,"left_children":[1,3,5,7,9,11,13,-1,15,17,19,-1,-1,21,-1,23,25,27,29,31,33,-1,35,37,-1,-1,39,41,43,45,47,49,51,53,55,-1,-1,57,59,-1,-1,-1,61,-1,-1,-1,-1,-1,-1,63,65,67,69,-1,71,-1,-1,-1,-1,-1,-1,-1,-1,-1,-1,-1,-1,-1,-1,-1,-1,-1,-1],"loss_changes":[4.687389E1,4.073281E1,1.773735E1,1.5599049E1,4.5652706E1,2.3334355E0,1.6726658E1,0E0,1.6605984E1,2.1790024E1,3.3531616E1,0E0,0E0,1.6182175E0,0E0,1.6316963E1,9.899945E0,1.3758923E1,1.4355026E1,2.2680155E1,1.5074829E1,0E0,6.737213E-1,1.3582695E1,0E0,0E0,2.3269005E0,6.8453827E0,6.871436E0,3.555336E-1,5.027155E0,2.725129E1,2.2285294E1,7.8381805E0,7.303727E0,0E0,0E0,9.992027E0,1.2698102E1,0E0,0E0,0E0,5.883667E0,0E0,0E0,0E0,0E0,0E0,0E0,1.7211937E1,8.768105E0,8.898096E-1,7.8646793E0,0E0,2.50568E0,0E0,0E0,0E0,0E0,0E0,0E0,0E0,0E0,0E0,0E0,0E0,0E0,0E0,0E0,0E0,0E0,0E0,0E0],"parents":[2147483647,0,0,1,1,2,2,3,3,4,4,5,5,6,6,8,8,9,9,10,10,13,13,15,15,16,16,17,17,18,18,19,19,20,20,22,22,23,23,26,26,27,27,28,28,29,29,30,30,31,31,32,32,33,33,34,34,37,37,38,38,42,42,49,49,50,50,51,51,52,52,54,54],"right_children":[2,4,6,8,10,12,14,-1,16,18,20,-1,-1,22,-1,24,26,28,30,32,34,-1,36,38,-1,-1,40,42,44,46,48,50,52,54,56,-1,-1,58,60,-1,-1,-1,62,-1,-1,-1,-1,-1,-1,64,66,68,70,-1,72,-1,-1,-1,-1,-1,-1,-1,-1,-1,-1,-1,-1,-1,-1,-1,-1,-1,-1],"split_conditions":[1.3193518E-1,4.059387E-2,1.7224721E0,8.1738E-2,3.8843963E-2,2.0856946E0,1.505611E0,5.4511394E-2,1.3881193E-1,6.06076E-1,1.3908714E-1,-5.0096065E-2,2.465398E-3,2.967649E-1,-2.332832E-2,4.15022E0,3.2696073E0,1.3258708E0,6.194207E-1,1.5985444E-1,2.5849906E-1,1.4710327E-2,4.9963418E-1,1.730141E-1,3.2118514E-2,-3.0045291E-2,5.632467E-1,2.0443544E0,2.3356059E0,4.0609055E0,6.772386E-1,2.4758972E-1,2.9872074E0,2.6965186E-1,3.385732E0,2.0042202E-2,6.865847E-2,3.0088905E-1,6.854999E-1,3.1718225E-3,5.7833344E-2,-6.3569993E-3,9.227419E-1,3.2942448E-2,-4.74608E-2,-6.1700452E-2,-1.7001478E-2,-1.1785937E-2,5.5307794E-2,4.841807E-1,1.809488E-1,8.322824E-5,7.137935E-2,2.8073217E-3,1.2595634E0,-2.8462393E-2,5.3271253E-2,1.6760362E-2,-5.6483682E-2,-4.8221953E-2,5.533392E-2,6.9896236E-2,1.6751662E-3,1.7973283E-2,-5.9618462E-2,-1.5854813E-2,6.1440725E-2,5.2296262E-2,8.791539E-3,7.906538E-3,-6.848248E-2,-7.0141904E-2,-1.19788805E-2],"split_indices":[1278,1760,771,1568,1791,662,27,0,1703,460,1877,0,0,233,0,659,722,196,402,1612,1845,0,50,1743,0,0,92,541,688,934,504,1924,572,1780,675,0,0,300,298,0,0,0,231,0,0,0,0,0,0,427,1611,1132,1746,0,50,0,0,0,0,0,0,0,0,0,0,0,0,0,0,0,0,0,0],"split_type":[0,0,0,0,0,0,0,0,0,0,0,0,0,0,0,0,0,0,0,0,0,0,0,0,0,0,0,0,0,0,0,0,0,0,0,0,0,0,0,0,0,0,0,0,0,0,0,0,0,0,0,0,0,0,0,0,0,0,0,0,0,0,0,0,0,0,0,0,0,0,0,0,0],"sum_hessian":[3.7328992E2,3.190796E2,5.421035E1,1.1450246E2,2.0457712E2,6.1117477E0,4.8098602E1,3.4491484E0,1.1105331E2,7.437194E1,1.3020518E2,3.1086934E0,3.0030544E0,4.2843773E1,5.25483E0,9.594469E1,1.5108616E1,5.7514866E1,1.6857073E1,8.590235E1,4.4302834E1,3.2368255E0,3.9606945E1,9.029472E1,5.6499634E0,6.0824575E0,9.026158E0,5.076054E1,6.7543273E0,8.295209E0,8.561863E0,5.91706E1,2.6731747E1,3.7151672E1,7.151161E0,3.1061192E0,3.6500828E1,8.21823E1,8.112432E0,3.1814747E0,5.8446836E0,3.1027658E0,4.7657772E1,3.0165427E0,3.7377849E0,5.288296E0,3.006913E0,3.4514866E0,5.1103764E0,2.6104036E1,3.3066566E1,6.896554E0,1.9835194E1,4.4119315E0,3.2739742E1,3.3206751E0,3.830486E0,3.9818892E0,7.82004E1,3.2424507E0,4.8699813E0,4.399533E1,3.6624422E0,1.6275444E1,9.828593E0,3.2188246E0,2.984774E1,3.8193266E0,3.0772274E0,3.5172417E0,1.6317951E1,2.9565928E1,3.1738145E0],"tree_param":{"num_deleted":"0","num_feature":"1925","num_nodes":"73","size_leaf_vector":"1"}},{"base_weights":[1.2736852E-2,7.256279E-1,-1.7121443E-1,-3.608161E-1,1.0766714E0,6.5601006E-2,-6.861258E-1,-9.7524965E-1,5.8755016E-1,-2.2713281E-2,1.1910452E0,5.0357026E-1,-1.7613237E-1,-8.110034E-1,4.5500394E-2,-0E0,-6.390203E-2,5.391332E-2,-1.0760426E-2,-0E0,1.2719523E0,-1.7967485E-1,9.3332905E-1,5.708697E-1,-3.8601395E-1,-9.189297E-1,5.107933E-2,7.6470226E-3,6.767437E-2,-9.5232576E-1,2.8568155E-1,1.1113017E0,-3.0013233E-2,8.515742E-1,-4.590564E-2,-6.0247195E-1,3.9359856E-1,-4.6303326E-1,-1.1750058E0,-7.137908E-3,-6.0114723E-2,-3.818235E-1,5.7769656E-2,1.2399597E0,-3.26078E-3,-1.8427946E-2,1.0521165E0,-8.6303914E-1,2.83965E-1,9.786103E-1,-5.601795E-1,3.243429E-1,-1.1254014E0,-1.2808138E0,1.5553298E-2,2.9403884E-2,-5.329906E-2,8.644221E-3,6.6367716E-2,6.2795065E-2,-0E0,-4.947699E-2,2.6670024E-2,-3.5362408E-2,3.9488256E-2,6.4634085E-2,2.764683E-3,-5.501451E-2,2.0412061E-2,-4.281561E-2,4.0200423E-2,-6.1647505E-2,-1.6352778E-2,-6.882528E-2,-0E0],"categories":[],"categories_nodes":[],"categories_segments":[],"categories_sizes":[],"default_left":[0,0,0,0,0,0,0,0,0,0,0,0,0,0,0,0,0,0,0,0,0,0,0,0,0,0,0,0,0,0,0,0,0,0,0,0,0,0,0,0,0,0,0,0,0,0,0,0,0,0,0,0,0,0,0,0,0,0,0,0,0,0,0,0,0,0,0,0,0,0,0,0,0,0,0],"id":14,"left_children":[1,3,5,7,9,11,13,15,17,-1,19,21,23,25,-1,-1,-1,-1,-1,-1,27,29,31,33,35,37,-1,-1,-1,39,41,43,-1,45,-1,47,49,51,53,-1,-1,55,-1,57,-1,-1,59,61,63,65,67,69,71,73,-1,-1,-1,-1,-1,-1,-1,-1,-1,-1,-1,-1,-1,-1,-1,-1,-1,-1,-1,-1,-1],"loss_changes":[4.851936E1,2.9798431E1,3.5973503E1,1.2818701E1,1.1301231E1,2.169292E1,1.9973522E1,3.8819523E0,4.1090145E0,0E0,5.1724167E0,2.1796059E1,2.1130417E1,1.9120068E1,0E0,0E0,0E0,0E0,0E0,0E0,4.089203E0,1.1292906E1,1.3700638E1,1.395933E1,1.8114601E1,8.49424E0,0E0,0E0,0E0,1.8918648E0,1.2570035E1,6.5140114E0,0E0,7.220602E0,0E0,1.9629189E1,1.4417245E1,1.8264624E1,9.072639E0,0E0,0E0,9.764142E0,0E0,2.8700333E0,0E0,0E0,4.855118E0,1.2482174E1,1.1245E1,4.2298336E0,6.331312E0,1.0871455E1,6.4252853E-1,5.8852997E0,0E0,0E0,0E0,0E0,0E0,0E0,0E0,0E0,0E0,0E0,0E0,0E0,0E0,0E0,0E0,0E0,0E0,0E0,0E0,0E0,0E0],"parents":[2147483647,0,0,1,1,2,2,3,3,4,4,5,5,6,6,7,7,8,8,10,10,11,11,12,12,13,13,20,20,21,21,22,22,23,23,24,24,25,25,29,29,30,30,31,31,33,33,35,35,36,36,37,37,38,38,41,41,43,43,46,46,47,47,48,48,49,49,50,50,51,51,52,52,53,53],"right_children":[2,4,6,8,10,12,14,16,18,-1,20,22,24,26,-1,-1,-1,-1,-1,-1,28,30,32,34,36,38,-1,-1,-1,40,42,44,-1,46,-1,48,50,52,54,-1,-1,56,-1,58,-1,-1,60,62,64,66,68,70,72,74,-1,-1,-1,-1,-1,-1,-1,-1,-1,-1,-1,-1,-1,-1,-1,-1,-1,-1,-1,-1,-1],"split_conditions":[2.4109865E-2,1.2184134E0,1.7718983E-1,8.476616E-1,9.434806E-1,2.3634586E0,1.3828521E0,2.5511568E0,4.852074E0,-2.2713281E-2,1.1382613E-4,4.0792435E-2,3.348708E-1,1.6042723E-1,4.5500394E-2,-0E0,-6.390203E-2,5.391332E-2,-1.0760426E-2,-0E0,7.164512E-2,1.0901743E0,5.0063066E0,8.548561E-2,7.9228915E-2,3.9873326E-1,5.107933E-2,7.6470226E-3,6.767437E-2,7.8221506E-1,2.4273327E-1,1.3724456E0,-3.0013233E-2,2.974098E0,-4.590564E-2,6.403848E-1,7.6373506E-1,6.2279355E-2,1.9927697E0,-7.137908E-3,-6.0114723E-2,2.054762E0,5.7769656E-2,3.1093022E-1,-3.26078E-3,-1.8427946E-2,2.1862209E-1,3.4460854E-2,1.6006619E-1,5.6947116E-2,4.883421E0,3.0910432E-2,2.3575845E0,1.0302542E-1,1.5553298E-2,2.9403884E-2,-5.329906E-2,8.644221E-3,6.6367716E-2,6.2795065E-2,-0E0,-4.947699E-2,2.6670024E-2,-3.5362408E-2,3.9488256E-2,6.4634085E-2,2.764683E-3,-5.501451E-2,2.0412061E-2,-4.281561E-2,4.0200423E-2,-6.1647505E-2,-1.6352778E-2,-6.882528E-2,-0E0],"split_indices":[1731,113,1805,137,1025,971,22,841,891,0,1478,1760,140,1830,0,0,0,0,0,0,1892,462,997,1858,1830,242,0,0,0,18,1868,290,0,642,0,92,34,1775,356,0,0,665,0,233,0,0,1575,1708,1809,1921,578,1815,665,1278,0,0,0,0,0,0,0,0,0,0,0,0,0,0,0,0,0,0,0,0,0],"split_type":[0,0,0,0,0,0,0,0,0,0,0,0,0,0,0,0,0,0,0,0,0,0,0,0,0,0,0,0,0,0,0,0,0,0,0,0,0,0,0,0,0,0,0,0,0,0,0,0,0,0,0,0,0,0,0,0,0,0,0,0,0,0,0,0,0,0,0,0,0,0,0,0,0,0,0],"sum_hessian":[3.656717E2,7.390644E1,2.9176526E2,1.7965254E1,5.594119E1,2.0091324E2,9.085201E1,1.09315815E1,7.033672E0,3.414811E0,5.2526375E1,7.083063E1,1.3008261E2,8.523025E1,5.621763E0,3.024972E0,7.90661E0,4.016565E0,3.017107E0,3.5190036E0,4.9007374E1,2.770902E1,4.31216E1,2.7673134E1,1.02409485E2,8.148317E1,3.7470767E0,3.8022463E0,4.5205128E1,9.7096615E0,1.799936E1,3.91896E1,3.9320018E0,2.4060543E1,3.612591E0,8.0610756E1,2.1798727E1,3.146766E1,5.001551E1,3.1264298E0,6.5832314E0,1.075322E1,7.2461405E0,3.5305874E1,3.8837266E0,3.089464E0,2.0971079E1,6.2426235E1,1.8184525E1,1.3544074E1,8.254652E0,1.4774486E1,1.6693174E1,4.701181E1,3.0036993E0,4.503502E0,6.249717E0,3.2102177E0,3.2095657E1,1.7199373E1,3.7717052E0,5.7840923E1,4.585313E0,5.808124E0,1.23764E1,9.42852E0,4.1155534E0,5.190636E0,3.0640163E0,3.7544067E0,1.1020079E1,1.3641454E1,3.051721E0,4.354036E1,3.4714518E0],"tree_param":{"num_deleted":"0","num_feature":"1925","num_nodes":"75","size_leaf_vector":"1"}},{"base_weights":[-1.8324314E-3,7.692176E-1,-1.5601365E-1,-4.2627532E-2,9.5402133E-1,-6.2058634E-1,5.1130224E-2,-2.251428E-2,1.0889143E0,-7.894255E-1,3.8112748E-1,2.9801252E-1,-4.0110317E-1,1.1876731E0,-1.0635205E-2,3.0331928E-1,-9.6792793E-1,-4.6653175E-1,5.5135947E-2,-4.0184438E-1,5.12521E-1,-5.674482E-1,5.170981E-2,1.2825501E0,-5.270487E-3,5.5136748E-2,-3.9120793E-2,-1.1137596E0,2.1603708E-1,8.319317E-3,-4.6165742E-2,2.3988394E-1,-8.468116E-1,7.8537005E-1,-3.155227E-2,2.4829438E-1,-8.223585E-1,2.4563994E-2,6.728379E-2,-6.3778865E-1,-1.3382119E0,-2.9571518E-2,4.716588E-2,4.511722E-2,-2.9740158E-2,1.7391652E-2,-1.1680967E0,8.705684E-1,-3.3813838E-2,5.1666087E-1,-5.5793095E-1,-7.304077E-1,9.489003E-1,-8.305572E-2,-1.0910846E0,-4.7623564E-2,2.1610064E-2,-1.8047903E-2,-6.9774106E-2,-6.632493E-2,-1.3406704E-2,4.9227543E-2,-1.1525623E-2,-1.4306012E-2,5.4236658E-2,2.3802923E-2,-4.1995503E-2,-6.6223852E-3,-4.9299948E-2,4.226786E-3,6.124981E-2,-4.324471E-2,3.2409262E-2,2.3396618E-3,-6.196707E-2],"categories":[],"categories_nodes":[],"categories_segments":[],"categories_sizes":[],"default_left":[0,0,0,0,0,0,0,0,0,0,0,0,0,0,0,0,0,0,0,0,0,0,0,0,0,0,0,0,0,0,0,0,0,0,0,0,0,0,0,0,0,0,0,0,0,0,0,0,0,0,0,0,0,0,0,0,0,0,0,0,0,0,0,0,0,0,0,0,0,0,0,0,0,0,0],"id":15,"left_children":[1,3,5,-1,7,9,11,-1,13,15,17,19,21,23,-1,25,27,29,-1,31,33,35,-1,37,-1,-1,-1,39,41,-1,-1,43,45,47,49,51,53,-1,-1,55,57,-1,-1,-1,-1,-1,59,61,-1,63,65,67,69,71,73,-1,-1,-1,-1,-1,-1,-1,-1,-1,-1,-1,-1,-1,-1,-1,-1,-1,-1,-1,-1],"loss_changes":[4.3719658E1,1.999768E1,2.9663391E1,0E0,1.1651627E1,1.6704979E1,2.412392E1,0E0,7.2533836E0,1.665025E1,1.0244215E1,2.1400501E1,1.9341171E1,6.333832E0,0E0,1.3005906E1,1.2838486E1,2.7598834E0,0E0,1.0116465E1,1.614871E1,1.4963161E1,0E0,7.6055145E-1,0E0,0E0,0E0,4.8962326E0,6.66625E0,0E0,0E0,9.566274E0,8.758866E0,1.0174088E1,1.1503541E1,1.377914E1,1.036528E1,0E0,0E0,9.078695E0,1.1281128E0,0E0,0E0,0E0,0E0,0E0,1.5058212E0,9.196228E0,0E0,9.587324E0,6.773841E0,9.40979E-1,2.393096E0,1.0618125E1,6.83189E0,0E0,0E0,0E0,0E0,0E0,0E0,0E0,0E0,0E0,0E0,0E0,0E0,0E0,0E0,0E0,0E0,0E0,0E0,0E0,0E0],"parents":[2147483647,0,0,1,1,2,2,4,4,5,5,6,6,8,8,9,9,10,10,11,11,12,12,13,13,15,15,16,16,17,17,19,19,20,20,21,21,23,23,27,27,28,28,31,31,32,32,33,33,34,34,35,35,36,36,39,39,40,40,46,46,47,47,49,49,50,50,51,51,52,52,53,53,54,54],"right_children":[2,4,6,-1,8,10,12,-1,14,16,18,20,22,24,-1,26,28,30,-1,32,34,36,-1,38,-1,-1,-1,40,42,-1,-1,44,46,48,50,52,54,-1,-1,56,58,-1,-1,-1,-1,-1,60,62,-1,64,66,68,70,72,74,-1,-1,-1,-1,-1,-1,-1,-1,-1,-1,-1,-1,-1,-1,-1,-1,-1,-1,-1,-1],"split_conditions":[1.4105865E-1,6.03753E-1,5.244272E-1,-4.2627532E-2,9.085209E-1,4.4244957E0,3.3958302E0,-2.251428E-2,2.998726E-2,4.1909325E-1,5.54831E-1,2.5755854E0,1.6179346E0,1.614292E-1,-1.0635205E-2,2.5396137E0,1.9126297E-3,1.1762794E-4,5.5135947E-2,5.5675673E-1,8.999265E-1,6.03419E-1,5.170981E-2,7.508924E-1,-5.270487E-3,5.5136748E-2,-3.9120793E-2,6.944057E-1,5.2040064E-1,8.319317E-3,-4.6165742E-2,2.8960197E0,7.990875E-1,1.7798982E0,3.7475219E0,4.9536046E-1,3.834892E-2,2.4563994E-2,6.728379E-2,6.626503E-2,2.2194662E0,-2.9571518E-2,4.716588E-2,4.511722E-2,-2.9740158E-2,1.7391652E-2,7.763256E-1,1.171862E-1,-3.3813838E-2,9.844489E-1,2.4002857E0,3.7946463E0,4.8419937E-1,2.9751635E0,4.9217042E-1,-4.7623564E-2,2.1610064E-2,-1.8047903E-2,-6.9774106E-2,-6.632493E-2,-1.3406704E-2,4.9227543E-2,-1.1525623E-2,-1.4306012E-2,5.4236658E-2,2.3802923E-2,-4.1995503E-2,-6.6223852E-3,-4.9299948E-2,4.226786E-3,6.124981E-2,-4.324471E-2,3.2409262E-2,2.3396618E-3,-6.196707E-2],"split_indices":[246,502,274,0,113,664,821,0,1525,225,472,991,88,1647,0,869,1270,1387,0,199,348,509,0,264,0,0,0,270,336,0,0,947,217,27,606,483,1775,0,0,1816,713,0,0,0,0,0,363,1821,0,420,999,842,1649,855,496,0,0,0,0,0,0,0,0,0,0,0,0,0,0,0,0,0,0,0,0],"split_type":[0,0,0,0,0,0,0,0,0,0,0,0,0,0,0,0,0,0,0,0,0,0,0,0,0,0,0,0,0,0,0,0,0,0,0,0,0,0,0,0,0,0,0,0,0,0,0,0,0,0,0,0,0,0,0,0,0,0,0,0,0,0,0,0,0,0,0,0,0,0,0,0,0,0,0],"sum_hessian":[3.6425534E2,5.9262222E1,3.049931E2,5.2676477E0,5.399457E1,9.297161E1,2.120215E2,4.2572136E0,4.973736E1,8.000964E1,1.29619665E1,1.3773349E2,7.428801E1,4.6463875E1,3.2734838E0,1.095954E1,6.90501E1,6.221672E0,6.7402945E0,3.1792902E1,1.0594058E2,6.771867E1,6.569337E0,4.337496E1,3.0889122E0,6.3470564E0,4.612484E0,6.1658535E1,7.3915677E0,3.0492284E0,3.1724439E0,1.3303603E1,1.84893E1,7.0088486E1,3.5852093E1,1.6042004E1,5.167667E1,4.6195006E0,3.8755463E1,2.2363453E1,3.9295082E1,3.6145632E0,3.7770042E0,7.3934135E0,5.9101896E0,3.8176177E0,1.4671681E1,6.7056984E1,3.0315044E0,1.748684E1,1.8365255E1,6.5976696E0,9.444335E0,1.4573424E1,3.710325E1,1.7523066E1,4.8403873E0,3.0805378E0,3.6214546E1,1.1575307E1,3.0963748E0,6.1040623E1,6.0163608E0,7.584832E0,9.902006E0,3.5642638E0,1.4800991E1,3.0020273E0,3.5956423E0,3.0065098E0,6.4378247E0,6.932471E0,7.640954E0,4.3570366E0,3.274621E1],"tree_param":{"num_deleted":"0","num_feature":"1925","num_nodes":"75","size_leaf_vector":"1"}},{"base_weights":[1.141563E-2,7.482748E-1,-1.422911E-1,-4.2117573E-2,9.2678314E-1,-2.8053847E-1,5.36737E-1,-2.6828E-2,1.0949811E0,-9.914743E-1,-1.5033722E-1,-4.806201E-1,8.520303E-1,-2.9598463E-3,1.1729944E0,-1.1635507E0,1.40699735E-2,3.1694037E-1,-3.366103E-1,-5.0792772E-2,3.3710446E-2,-2.5355294E-2,1.0148904E0,1.2307729E0,8.0818795E-3,-1.2521644E0,-8.316809E-3,-4.0353748E-1,8.9082533E-1,-6.168986E-1,1.39111E-1,-8.195204E-3,1.1724411E0,6.490996E-2,1.2827582E-2,-2.1690859E-2,-6.596876E-2,6.593962E-1,-8.242056E-1,1.1214203E0,-1.495761E-2,-8.240007E-1,1.1485961E-1,6.7990595E-1,-4.2528197E-1,7.173113E-3,1.2839637E0,-8.204058E-4,5.1696926E-2,-5.4493587E-2,1.628839E-2,1.8164375E-3,6.346177E-2,1.4632165E-2,-4.8197847E-2,2.7129417E-2,-4.776525E-2,4.742756E-2,-3.355634E-2,-3.993564E-2,3.199295E-2,2.6434628E-2,6.945206E-2],"categories":[],"categories_nodes":[],"categories_segments":[],"categories_sizes":[],"default_left":[0,0,0,0,0,0,0,0,0,0,0,0,0,0,0,0,0,0,0,0,0,0,0,0,0,0,0,0,0,0,0,0,0,0,0,0,0,0,0,0,0,0,0,0,0,0,0,0,0,0,0,0,0,0,0,0,0,0,0,0,0,0,0],"id":16,"left_children":[1,3,5,-1,7,9,11,-1,13,15,17,19,21,-1,23,25,-1,27,29,-1,-1,-1,31,33,-1,35,-1,37,39,41,43,-1,45,-1,-1,-1,-1,47,49,51,-1,53,55,57,59,-1,61,-1,-1,-1,-1,-1,-1,-1,-1,-1,-1,-1,-1,-1,-1,-1,-1],"loss_changes":[4.038747E1,1.9049267E1,2.7932116E1,0E0,1.5102295E1,2.2378471E1,1.7022764E1,0E0,4.866371E0,8.986462E0,1.8544369E1,9.518369E0,9.772959E0,0E0,2.2793198E0,2.4118004E0,0E0,2.5946283E1,2.0444702E1,0E0,0E0,0E0,7.1343307E0,2.1473541E0,0E0,3.558998E-1,0E0,1.375696E1,1.0246677E1,1.4800896E1,1.822593E1,0E0,3.1496544E0,0E0,0E0,0E0,0E0,2.4308562E0,7.27277E0,4.5044136E0,0E0,1.2373302E1,1.1438158E1,1.231438E1,1.2728637E1,0E0,5.967293E-1,0E0,0E0,0E0,0E0,0E0,0E0,0E0,0E0,0E0,0E0,0E0,0E0,0E0,0E0,0E0,0E0],"parents":[2147483647,0,0,1,1,2,2,4,4,5,5,6,6,8,8,9,9,10,10,11,11,12,12,14,14,15,15,17,17,18,18,22,22,23,23,25,25,27,27,28,28,29,29,30,30,32,32,37,37,38,38,39,39,41,41,42,42,43,43,44,44,46,46],"right_children":[2,4,6,-1,8,10,12,-1,14,16,18,20,22,-1,24,26,-1,28,30,-1,-1,-1,32,34,-1,36,-1,38,40,42,44,-1,46,-1,-1,-1,-1,48,50,52,-1,54,56,58,60,-1,62,-1,-1,-1,-1,-1,-1,-1,-1,-1,-1,-1,-1,-1,-1,-1,-1],"split_conditions":[1.5042081E-1,6.293191E-1,4.4666054E-3,-4.2117573E-2,3.5078206E0,2.0704513E0,8.296716E-2,-2.6828E-2,2.832656E-1,1.3720448E0,1.1485986E-1,3.2419045E0,6.1217498E-2,-2.9598463E-3,1.7903443E-1,1.3083553E0,1.40699735E-2,4.1709293E-2,4.566115E-1,-5.0792772E-2,3.3710446E-2,-2.5355294E-2,2.7818623E-1,3.7342644E-1,8.0818795E-3,1.598019E-1,-8.316809E-3,7.500352E-1,4.7295237E0,9.8868096E-1,2.6173239E0,-8.195204E-3,3.9283358E-2,6.490996E-2,1.2827582E-2,-2.1690859E-2,-6.596876E-2,6.1113983E-1,2.1253893E-1,4.3427214E-1,-1.495761E-2,2.0352547E0,3.941101E0,5.5100694E0,1.0103481E-1,7.173113E-3,2.249895E0,-8.204058E-4,5.1696926E-2,-5.4493587E-2,1.628839E-2,1.8164375E-3,6.346177E-2,1.4632165E-2,-4.8197847E-2,2.7129417E-2,-4.776525E-2,4.742756E-2,-3.355634E-2,-3.993564E-2,3.199295E-2,2.6434628E-2,6.945206E-2],"split_indices":[246,502,1070,0,534,847,1758,0,134,146,1912,872,1691,0,1790,1027,0,1760,444,0,0,0,118,1843,0,1719,0,50,1013,122,754,0,1858,0,0,0,0,6,1695,270,0,1008,727,598,1911,0,622,0,0,0,0,0,0,0,0,0,0,0,0,0,0,0,0],"split_type":[0,0,0,0,0,0,0,0,0,0,0,0,0,0,0,0,0,0,0,0,0,0,0,0,0,0,0,0,0,0,0,0,0,0,0,0,0,0,0,0,0,0,0,0,0,0,0,0,0,0,0,0,0,0,0,0,0,0,0,0,0,0,0],"sum_hessian":[3.5217487E2,5.9560455E1,2.926144E2,5.202742E0,5.4357716E1,2.4421434E2,4.8400066E1,5.090974E0,4.926674E1,3.5635647E1,2.0857869E2,1.11278715E1,3.7272198E1,3.0685923E0,4.6198147E1,3.1612387E1,4.0232615E0,5.8895603E1,1.4968309E2,7.8273563E0,3.300515E0,3.4702199E0,3.3801975E1,4.319751E1,3.0006387E0,2.8470835E1,3.1415517E0,2.6298653E1,3.259695E1,9.394733E1,5.573577E1,3.900802E0,2.9901175E1,3.9683266E1,3.5142424E0,3.4053142E0,2.506552E1,7.0676293E0,1.9231022E1,2.7472555E1,5.1243973E0,7.3133606E1,2.0813715E1,2.8344364E1,2.7391405E1,3.4586785E0,2.6442497E1,3.1069698E0,3.9606597E0,1.577758E1,3.453442E0,3.6735504E0,2.3799004E1,7.8228E0,6.531081E1,1.5641471E1,5.172245E0,2.4201803E1,4.1425614E0,2.0720942E1,6.670462E0,4.8190365E0,2.162346E1],"tree_param":{"num_deleted":"0","num_feature":"1925","num_nodes":"63","size_leaf_vector":"1"}},{"base_weights":[7.8846863E-4,-1.8919455E-1,6.024842E-1,-1.0252715E-1,-1.1244141E0,1.45790465E-2,1.006671E0,1.5607634E-1,-4.0816745E-1,-1.0336686E-2,-6.220923E-2,-3.3699146E-1,8.373694E-1,1.1635443E0,-1.37735E-2,-1.4727075E-1,5.8914703E-1,7.830789E-2,-6.8704844E-1,-7.579337E-1,5.3748435E-1,5.771002E-2,-1.0102598E-3,1.2638745E-3,1.2426646E0,-6.127791E-1,3.1882027E-1,-1.7343245E-1,8.7091005E-1,-2.6336494E-1,8.728167E-1,-8.829566E-1,2.1469527E-1,7.997565E-3,-1.0715431E0,-7.3218876E-3,5.065133E-2,6.485363E-2,1.5006885E-2,5.282375E-1,-9.262767E-1,-5.159678E-1,6.9936496E-1,-9.3499523E-1,4.5436073E-2,-2.1296779E-2,1.0537531E0,2.8710592E-1,-8.218974E-1,5.7479065E-2,-0E0,-1.7261925E-1,-1.0585178E0,6.6997623E-1,-2.9840214E-2,-6.304006E-2,-1.1756309E-2,4.7885023E-2,-1.1940348E-2,-5.686493E-2,2.9416246E-2,-5.2442886E-2,2.1918323E-2,2.9602223E-3,5.5090543E-2,-5.668211E-2,-1.2436336E-2,4.0186815E-2,-3.6910366E-2,6.0061004E-2,9.937927E-4,3.930538E-2,-4.7028422E-2,1.2306138E-2,-5.539162E-2,3.0084392E-2,-3.938318E-2,-7.0763896E-3,-5.9572317E-2,5.0678004E-2,-2.1600178E-3],"categories":[],"categories_nodes":[],"categories_segments":[],"categories_sizes":[],"default_left":[0,0,0,0,0,0,0,0,0,0,0,0,0,0,0,0,0,0,0,0,0,0,0,0,0,0,0,0,0,0,0,0,0,0,0,0,0,0,0,0,0,0,0,0,0,0,0,0,0,0,0,0,0,0,0,0,0,0,0,0,0,0,0,0,0,0,0,0,0,0,0,0,0,0,0,0,0,0,0,0,0],"id":17,"left_children":[1,3,5,7,9,11,13,15,17,-1,-1,19,21,23,-1,25,27,29,31,33,35,-1,-1,-1,37,39,41,43,45,47,49,51,53,-1,55,-1,-1,-1,-1,57,59,61,63,65,-1,67,69,71,73,-1,-1,75,77,79,-1,-1,-1,-1,-1,-1,-1,-1,-1,-1,-1,-1,-1,-1,-1,-1,-1,-1,-1,-1,-1,-1,-1,-1,-1,-1,-1],"loss_changes":[4.043642E1,2.14058E1,2.0049175E1,1.9753277E1,1.8101139E0,1.12393055E1,1.0826126E1,1.8031385E1,1.5687164E1,0E0,0E0,1.0803259E1,3.3267908E0,3.8790207E0,0E0,1.803947E1,1.2488558E1,1.2287204E1,1.3349434E1,5.956251E0,3.6002262E0,0E0,0E0,0E0,1.221489E0,1.5834757E1,1.4014407E1,1.5536226E1,6.9353485E0,1.0289808E1,3.3866005E0,7.0547028E0,6.184183E0,0E0,1.5749645E0,0E0,0E0,0E0,0E0,3.867102E0,1.2032436E1,8.178034E0,7.3878946E0,7.8278255E-1,0E0,6.4699655E0,5.1147537E0,1.2114694E1,5.6312027E0,0E0,0E0,7.8668714E0,5.380127E0,2.719397E0,0E0,0E0,0E0,0E0,0E0,0E0,0E0,0E0,0E0,0E0,0E0,0E0,0E0,0E0,0E0,0E0,0E0,0E0,0E0,0E0,0E0,0E0,0E0,0E0,0E0,0E0,0E0],"parents":[2147483647,0,0,1,1,2,2,3,3,4,4,5,5,6,6,7,7,8,8,11,11,12,12,13,13,15,15,16,16,17,17,18,18,19,19,20,20,24,24,25,25,26,26,27,27,28,28,29,29,30,30,31,31,32,32,34,34,39,39,40,40,41,41,42,42,43,43,45,45,46,46,47,47,48,48,51,51,52,52,53,53],"right_children":[2,4,6,8,10,12,14,16,18,-1,-1,20,22,24,-1,26,28,30,32,34,36,-1,-1,-1,38,40,42,44,46,48,50,52,54,-1,56,-1,-1,-1,-1,58,60,62,64,66,-1,68,70,72,74,-1,-1,76,78,80,-1,-1,-1,-1,-1,-1,-1,-1,-1,-1,-1,-1,-1,-1,-1,-1,-1,-1,-1,-1,-1,-1,-1,-1,-1,-1,-1],"split_conditions":[2.7013946E-1,1.6362193E-1,3.0088034E-1,3.1556199E0,3.501238E-2,4.4862047E-1,6.901191E-1,1.867911E-2,1.2122769E-1,-1.0336686E-2,-6.220923E-2,3.5038726E0,4.4241905E0,2.1638591E0,-1.37735E-2,1.5369207E-1,8.959615E-2,1.6920452E0,1.5791496E0,2.8705683E-1,8.131759E-4,5.771002E-2,-1.0102598E-3,1.2638745E-3,9.006234E-1,2.266268E-1,8.896928E-1,1.63889E-1,1.5819055E0,3.510095E-1,1.6551069E0,8.6535084E-1,1.092628E0,7.997565E-3,5.4222965E-1,-7.3218876E-3,5.065133E-2,6.485363E-2,1.5006885E-2,8.022722E-2,3.732487E0,3.079659E0,2.4427202E0,4.2942904E-2,4.5436073E-2,2.3598447E0,3.283613E0,1.1334585E0,6.965255E-1,5.7479065E-2,-0E0,3.174745E-2,3.32775E0,3.873887E-3,-2.9840214E-2,-6.304006E-2,-1.1756309E-2,4.7885023E-2,-1.1940348E-2,-5.686493E-2,2.9416246E-2,-5.2442886E-2,2.1918323E-2,2.9602223E-3,5.5090543E-2,-5.668211E-2,-1.2436336E-2,4.0186815E-2,-3.6910366E-2,6.0061004E-2,9.937927E-4,3.930538E-2,-4.7028422E-2,1.2306138E-2,-5.539162E-2,3.0084392E-2,-3.938318E-2,-7.0763896E-3,-5.9572317E-2,5.0678004E-2,-2.1600178E-3],"split_indices":[1781,1902,1741,679,1841,1828,212,1356,1857,0,0,910,657,641,0,1819,1864,346,90,1666,1251,0,0,0,345,1651,1023,1797,863,1666,89,148,285,0,335,0,0,0,0,1798,1011,592,1011,1163,0,705,652,139,403,0,0,1886,679,1074,0,0,0,0,0,0,0,0,0,0,0,0,0,0,0,0,0,0,0,0,0,0,0,0,0,0,0],"split_type":[0,0,0,0,0,0,0,0,0,0,0,0,0,0,0,0,0,0,0,0,0,0,0,0,0,0,0,0,0,0,0,0,0,0,0,0,0,0,0,0,0,0,0,0,0,0,0,0,0,0,0,0,0,0,0,0,0,0,0,0,0,0,0,0,0,0,0,0,0,0,0,0,0,0,0,0,0,0,0,0,0],"sum_hessian":[3.4938153E2,2.6645453E2,8.292701E1,2.459851E2,2.0469414E1,3.473018E1,4.8196835E1,1.3359845E2,1.12386665E2,3.088957E0,1.7380457E1,2.5075132E1,9.655046E0,4.3177006E1,5.0198283E0,7.9206635E1,5.4391815E1,4.1344986E1,7.104168E1,1.7184168E1,7.8909645E0,6.630307E0,3.0247388E0,3.0598085E0,4.01172E1,3.9420513E1,3.9786118E1,1.4786588E1,3.960523E1,2.9758661E1,1.1586326E1,5.8487537E1,1.2554139E1,4.5444236E0,1.2639744E1,3.717834E0,4.1731305E0,3.711621E1,3.000988E0,8.132445E0,3.1288069E1,1.2152679E1,2.7633438E1,8.892734E0,5.893854E0,6.9435234E0,3.2661705E1,1.5386817E1,1.4371843E1,8.394552E0,3.1917737E0,1.2489579E1,4.599796E1,8.344559E0,4.2095804E0,9.382432E0,3.2573118E0,4.978352E0,3.1540933E0,2.7957178E1,3.330891E0,7.7383566E0,4.4143233E0,1.1647985E1,1.5985453E1,5.772365E0,3.1203685E0,3.0508468E0,3.8926766E0,2.8216593E1,4.4451113E0,1.1509475E1,3.877342E0,3.0200691E0,1.1351774E1,5.476194E0,7.013386E0,6.441787E0,3.955617E1,5.157628E0,3.1869307E0],"tree_param":{"num_deleted":"0","num_feature":"1925","num_nodes":"81","size_leaf_vector":"1"}},{"base_weights":[1.0741905E-2,-1.7461878E-1,6.057825E-1,-1.0500525E0,-5.5813123E-2,-5.507249E-1,7.5677747E-1,-1.227339E0,7.98516E-3,-5.077556E-1,1.4696297E-1,-5.466193E-2,1.5378001E-2,1.0513337E0,7.2534375E-2,-6.4706765E-2,-2.1376042E-2,-6.938664E-1,5.723708E-1,-1.15233965E-1,5.4471016E-1,1.1820132E0,-2.6244719E-2,7.7144146E-1,-6.126381E-1,1.6761938E-1,-8.9640737E-1,-2.1368181E-2,5.1852692E-2,2.4719918E-1,-6.3239324E-1,8.84309E-1,-3.274181E-1,6.119988E-3,6.2187787E-2,-1.14272665E-2,5.683964E-2,2.4100734E-2,-5.245767E-2,4.7762766E-2,-4.63067E-2,-1.072308E0,1.7501064E-1,-8.4196275E-1,5.326094E-1,3.6346834E-2,-8.4479797E-1,1.0968324E0,-1.5201022E-1,-8.7036353E-1,6.2836885E-1,-5.8935184E-2,9.844354E-3,4.2853724E-2,-3.2603063E-2,4.6693673E-5,-5.534057E-2,3.5878297E-2,-3.6674745E-2,1.8518986E-2,-5.1994354E-2,6.1707225E-2,-1.7302053E-2,-4.4538803E-2,3.128164E-2,-0E0,-5.6060392E-2,3.8374898E-3,4.5010347E-2],"categories":[],"categories_nodes":[],"categories_segments":[],"categories_sizes":[],"default_left":[0,0,0,0,0,0,0,0,0,0,0,0,0,0,0,0,0,0,0,0,0,0,0,0,0,0,0,0,0,0,0,0,0,0,0,0,0,0,0,0,0,0,0,0,0,0,0,0,0,0,0,0,0,0,0,0,0,0,0,0,0,0,0,0,0,0,0,0,0],"id":18,"left_children":[1,3,5,7,9,11,13,15,-1,17,19,-1,-1,21,23,-1,-1,25,27,29,31,33,-1,35,37,39,41,-1,-1,43,45,47,49,-1,-1,-1,-1,-1,-1,-1,-1,51,53,55,57,-1,59,61,63,65,67,-1,-1,-1,-1,-1,-1,-1,-1,-1,-1,-1,-1,-1,-1,-1,-1,-1,-1],"loss_changes":[3.902041E1,2.7792637E1,1.5532557E1,7.357662E0,2.2127472E1,5.77435E0,1.4905144E1,2.2760391E-1,0E0,1.5834314E1,1.7550556E1,0E0,0E0,1.2093075E1,1.2885568E1,0E0,0E0,1.167174E1,6.5242653E0,1.9460825E1,2.0395613E1,2.7666779E0,0E0,5.4638996E0,7.574589E0,1.3761282E1,1.0422588E1,0E0,0E0,1.9911558E1,1.3564438E1,1.1141468E1,1.1536336E1,0E0,0E0,0E0,0E0,0E0,0E0,0E0,0E0,6.7396126E0,6.2661676E0,3.1093397E0,1.2723318E1,0E0,9.823395E0,9.0045395E0,6.8599863E0,3.073226E0,1.0188723E0,0E0,0E0,0E0,0E0,0E0,0E0,0E0,0E0,0E0,0E0,0E0,0E0,0E0,0E0,0E0,0E0,0E0,0E0],"parents":[2147483647,0,0,1,1,2,2,3,3,4,4,5,5,6,6,7,7,9,9,10,10,13,13,14,14,17,17,18,18,19,19,20,20,21,21,23,23,24,24,25,25,26,26,29,29,30,30,31,31,32,32,41,41,42,42,43,43,44,44,46,46,47,47,48,48,49,49,50,50],"right_children":[2,4,6,8,10,12,14,16,-1,18,20,-1,-1,22,24,-1,-1,26,28,30,32,34,-1,36,38,40,42,-1,-1,44,46,48,50,-1,-1,-1,-1,-1,-1,-1,-1,52,54,56,58,-1,60,62,64,66,68,-1,-1,-1,-1,-1,-1,-1,-1,-1,-1,-1,-1,-1,-1,-1,-1,-1,-1],"split_conditions":[1.7362001E0,1.7556995E-1,1.4527123E-1,3.3431504E-2,6.461213E-1,4.085548E0,2.4032791E-1,2.0758156E-2,7.98516E-3,1.672085E-2,9.4876784E-1,-5.466193E-2,1.5378001E-2,1.6846471E0,3.158065E-1,-6.4706765E-2,-2.1376042E-2,5.1624244E-1,2.5915222E0,1.05500676E-1,5.0934124E0,3.7351754E0,-2.6244719E-2,1.5553907E-1,1.4243452E-1,1.2056575E0,8.4852445E-1,-2.1368181E-2,5.1852692E-2,3.3055514E-1,5.928291E-1,1.3665699E0,3.8453126E-3,6.119988E-3,6.2187787E-2,-1.14272665E-2,5.683964E-2,2.4100734E-2,-5.245767E-2,4.7762766E-2,-4.63067E-2,1.5140083E0,7.397631E-1,1.0430408E-1,1.1029128E0,3.6346834E-2,1.3299638E-1,1.1792943E0,2.3637493E0,5.643879E-1,1.7782745E-1,-5.8935184E-2,9.844354E-3,4.2853724E-2,-3.2603063E-2,4.6693673E-5,-5.534057E-2,3.5878297E-2,-3.6674745E-2,1.8518986E-2,-5.1994354E-2,6.1707225E-2,-1.7302053E-2,-4.4538803E-2,3.128164E-2,-0E0,-5.6060392E-2,3.8374898E-3,4.5010347E-2],"split_indices":[247,1650,1575,1708,162,549,1568,1213,0,1048,266,0,0,27,1666,0,0,299,792,1630,733,837,0,1920,1696,338,79,0,0,49,262,414,1247,0,0,0,0,0,0,0,0,247,475,1874,271,0,1835,209,160,186,1742,0,0,0,0,0,0,0,0,0,0,0,0,0,0,0,0,0,0],"split_type":[0,0,0,0,0,0,0,0,0,0,0,0,0,0,0,0,0,0,0,0,0,0,0,0,0,0,0,0,0,0,0,0,0,0,0,0,0,0,0,0,0,0,0,0,0,0,0,0,0,0,0,0,0,0,0,0,0,0,0,0,0,0,0,0,0,0,0,0,0],"sum_hessian":[3.4946634E2,2.6741052E2,8.205583E1,2.9980091E1,2.3743042E2,8.788171E0,7.326766E1,2.6194891E1,3.7852004E0,7.275685E1,1.6467358E2,5.1205416E0,3.6676292E0,5.0366516E1,2.2901142E1,2.2919666E1,3.2752228E0,6.275215E1,1.0004696E1,9.9953125E1,6.472045E1,4.7030983E1,3.335533E0,1.1284535E1,1.1616608E1,1.1916735E1,5.083542E1,3.1573315E0,6.8473644E0,5.9267914E1,4.068521E1,4.664431E1,1.8076145E1,3.0071564E0,4.4023827E1,3.1467893E0,8.137746E0,3.1869972E0,8.42961E0,7.128224E0,4.7885103E0,4.37452E1,7.090219E0,1.1423602E1,4.784431E1,4.779857E0,3.5905354E1,3.8689716E1,7.954593E0,1.1708422E1,6.367723E0,4.056597E1,3.179228E0,3.9122496E0,3.1779697E0,3.117463E0,8.306139E0,4.25709E1,5.2734084E0,4.6474614E0,3.1257893E1,3.5655197E1,3.034519E0,3.9959989E0,3.9585946E0,3.0030458E0,8.705376E0,3.0701845E0,3.2975388E0],"tree_param":{"num_deleted":"0","num_feature":"1925","num_nodes":"69","size_leaf_vector":"1"}},{"base_weights":[-8.619326E-3,-9.7783476E-2,1.1252911E0,1.8651906E-2,-7.675352E-1,6.0892012E-2,1.3615394E-2,-3.2733846E-1,2.4343884E-1,-3.0749056E-2,-1.0924237E0,-5.687953E-1,3.6616307E-1,4.9390662E-1,-2.739318E-1,-4.3773603E-2,7.17392E-1,-4.7599655E-4,-1.2280185E0,-7.111573E-1,4.4871878E-2,-7.0897555E-1,7.1232116E-1,6.6783917E-1,-5.619787E-1,4.46592E-1,-6.1756516E-1,-1.0626251E-3,5.355044E-2,-6.455961E-2,-2.0180773E-2,1.734587E-1,-9.892541E-1,-4.4565067E-2,-1.1035352E-2,-2.176347E-2,9.344622E-1,7.8863233E-1,-4.250795E-1,-5.1990688E-2,3.6460277E-2,7.977813E-1,-3.1668775E-2,-8.894616E-1,2.4246894E-1,4.481585E-2,-3.5241444E-2,-5.3422827E-2,9.875205E-3,5.727871E-2,8.457067E-3,4.3618605E-2,-3.011837E-2,-4.9736213E-2,2.5388256E-2,-1.3029954E-3,5.3303678E-2,4.664558E-3,-5.4794457E-2,-3.6494758E-2,4.1967332E-2],"categories":[],"categories_nodes":[],"categories_segments":[],"categories_sizes":[],"default_left":[0,0,0,0,0,0,0,0,0,0,0,0,0,0,0,0,0,0,0,0,0,0,0,0,0,0,0,0,0,0,0,0,0,0,0,0,0,0,0,0,0,0,0,0,0,0,0,0,0,0,0,0,0,0,0,0,0,0,0,0,0],"id":19,"left_children":[1,3,5,7,9,-1,-1,11,13,15,17,19,21,23,25,-1,27,-1,29,31,-1,33,35,37,39,41,43,-1,-1,-1,-1,45,47,-1,-1,-1,49,51,53,-1,-1,55,-1,57,59,-1,-1,-1,-1,-1,-1,-1,-1,-1,-1,-1,-1,-1,-1,-1,-1],"loss_changes":[3.4955338E1,2.5165422E1,1.1769505E0,2.1586016E1,1.1255621E1,0E0,0E0,1.8725555E1,2.2113037E1,1.1870586E1,4.698498E0,1.8353853E1,1.192083E1,2.1753372E1,1.4454878E1,0E0,2.7442636E0,0E0,3.1056213E-1,1.9080177E1,0E0,2.1396017E-1,6.7889338E0,1.3794048E1,1.2141369E1,8.300395E0,9.59403E0,0E0,0E0,0E0,0E0,1.3823468E1,5.968239E0,0E0,0E0,0E0,2.7419205E0,1.1567135E1,6.94838E0,0E0,0E0,3.5692387E0,0E0,6.4065704E0,7.521122E0,0E0,0E0,0E0,0E0,0E0,0E0,0E0,0E0,0E0,0E0,0E0,0E0,0E0,0E0,0E0,0E0],"parents":[2147483647,0,0,1,1,2,2,3,3,4,4,7,7,8,8,9,9,10,10,11,11,12,12,13,13,14,14,16,16,18,18,19,19,21,21,22,22,23,23,24,24,25,25,26,26,31,31,32,32,36,36,37,37,38,38,41,41,43,43,44,44],"right_children":[2,4,6,8,10,-1,-1,12,14,16,18,20,22,24,26,-1,28,-1,30,32,-1,34,36,38,40,42,44,-1,-1,-1,-1,46,48,-1,-1,-1,50,52,54,-1,-1,56,-1,58,60,-1,-1,-1,-1,-1,-1,-1,-1,-1,-1,-1,-1,-1,-1,-1,-1],"split_conditions":[4.303359E0,6.113262E-1,2.2680278E-1,4.0792435E-2,5.326378E-1,6.0892012E-2,1.3615394E-2,2.4149474E-2,3.8396091E0,6.010081E-1,1.4337371E-1,1.748817E-1,8.7591596E-2,1.6909511E-1,9.741361E-2,-4.3773603E-2,9.395814E-2,-4.7599655E-4,3.5082903E0,1.6945345E-2,4.4871878E-2,3.6609018E0,1.7639033E-1,5.2848697E-2,1.1582863E0,3.6301274E0,1.2726349E0,-1.0626251E-3,5.355044E-2,-6.455961E-2,-2.0180773E-2,7.206625E-1,5.021799E0,-4.4565067E-2,-1.1035352E-2,-2.176347E-2,1.1054313E0,1.5132478E-1,7.467713E-1,-5.1990688E-2,3.6460277E-2,1.5680279E-1,-3.1668775E-2,4.8753127E-1,1.0862957E-1,4.481585E-2,-3.5241444E-2,-5.3422827E-2,9.875205E-3,5.727871E-2,8.457067E-3,4.3618605E-2,-3.011837E-2,-4.9736213E-2,2.5388256E-2,-1.3029954E-3,5.3303678E-2,4.664558E-3,-5.4794457E-2,-3.6494758E-2,4.1967332E-2],"split_indices":[747,1628,1575,1760,97,0,0,1111,655,144,1807,1743,1758,1722,1679,0,1721,0,574,1885,0,858,1903,1885,159,886,327,0,0,0,0,432,918,0,0,0,377,1902,179,0,0,1790,0,105,1685,0,0,0,0,0,0,0,0,0,0,0,0,0,0,0,0],"split_type":[0,0,0,0,0,0,0,0,0,0,0,0,0,0,0,0,0,0,0,0,0,0,0,0,0,0,0,0,0,0,0,0,0,0,0,0,0,0,0,0,0,0,0,0,0,0,0,0,0,0,0,0,0,0,0,0,0,0,0,0,0],"sum_hessian":[3.4257556E2,3.1937732E2,2.3198261E1,2.7360623E2,4.577106E1,2.0050097E1,3.1481645E0,1.0721871E2,1.6638753E2,1.4770785E1,3.1000277E1,7.9902756E1,2.7315952E1,1.1230351E2,5.408402E1,6.8404894E0,7.930296E0,3.7699726E0,2.7230305E1,7.383226E1,6.070493E0,6.0719223E0,2.124403E1,9.713286E1,1.5170658E1,1.7177122E1,3.69069E1,3.08444E0,4.845856E0,2.4127682E1,3.1026225E0,1.7753134E1,5.6079132E1,3.069908E0,3.0020142E0,3.061121E0,1.8182909E1,8.804964E1,9.083219E0,1.1413588E1,3.7570705E0,1.3426276E1,3.7508461E0,2.8077991E1,8.828906E0,9.778183E0,7.9749503E0,5.2836536E1,3.2425926E0,1.3370354E1,4.8125563E0,8.38211E1,4.228542E0,5.623649E0,3.45957E0,3.6503139E0,9.775962E0,4.9801884E0,2.3097803E1,3.124912E0,5.703994E0],"tree_param":{"num_deleted":"0","num_feature":"1925","num_nodes":"61","size_leaf_vector":"1"}},{"base_weights":[3.2597467E-2,6.932772E-1,-1.2965076E-1,-4.886238E-1,9.351835E-1,-2.1276153E-3,-6.9869393E-1,-4.9161494E-2,1.9684723E-2,-2.3487257E-2,1.0771E0,-4.1989532E-1,2.28293E-1,-1.1685365E0,1.9822426E-1,-1.1364248E-2,1.1881135E0,-9.3550575E-1,-8.09791E-2,-1.0783888E-2,7.0533997E-1,-6.5736505E-3,-6.329709E-2,7.624015E-1,-3.6959372E-2,4.3235957E-3,6.30179E-2,-1.1769686E0,1.0718593E-2,-5.387843E-1,4.732494E-1,4.1994962E-1,-5.187262E-1,9.9387825E-1,-1.401113E-1,5.3588983E-2,-6.3244514E-3,-1.6592737E-2,-6.281447E-2,-7.735331E-1,4.0180765E-2,7.731264E-1,-3.460224E-2,7.008968E-1,-8.339237E-1,-7.931522E-1,5.2007145E-1,1.1754786E0,-2.376896E-2,3.843003E-2,-6.8713975E-1,2.28309E-2,-5.1059462E-2,-1.1623489E-2,5.5770736E-2,1.4463159E-2,6.0399115E-2,-5.434239E-2,-6.9147306E-3,-5.1475894E-2,1.130653E-2,4.908048E-2,-1.6184168E-2,6.2050432E-2,1.4005479E-2,-5.111283E-2,1.9999787E-3],"categories":[],"categories_nodes":[],"categories_segments":[],"categories_sizes":[],"default_left":[0,0,0,0,0,0,0,0,0,0,0,0,0,0,0,0,0,0,0,0,0,0,0,0,0,0,0,0,0,0,0,0,0,0,0,0,0,0,0,0,0,0,0,0,0,0,0,0,0,0,0,0,0,0,0,0,0,0,0,0,0,0,0,0,0,0,0],"id":20,"left_children":[1,3,5,7,9,11,13,-1,-1,-1,15,17,19,21,23,-1,25,27,29,31,33,-1,-1,35,-1,-1,-1,37,-1,39,41,43,45,47,49,-1,-1,-1,-1,51,-1,53,-1,55,57,59,61,63,-1,-1,65,-1,-1,-1,-1,-1,-1,-1,-1,-1,-1,-1,-1,-1,-1,-1,-1],"loss_changes":[3.715575E1,2.0498188E1,2.0105877E1,6.4429655E0,1.2534611E1,2.2285505E1,2.1950605E1,0E0,0E0,0E0,8.294144E0,1.4142182E1,1.7071419E1,2.9288864E0,1.1223284E1,0E0,3.5573807E0,9.587208E0,1.3713454E1,2.2553381E1,1.2535076E1,0E0,0E0,3.9313655E0,0E0,0E0,0E0,8.2593536E-1,0E0,1.054209E1,9.637552E0,2.0769445E1,1.4355939E1,1.1202187E1,8.186253E0,0E0,0E0,0E0,0E0,8.973052E0,0E0,7.660961E0,0E0,8.886318E0,1.5192575E0,9.782587E0,4.996833E0,1.1499596E0,0E0,0E0,2.638317E0,0E0,0E0,0E0,0E0,0E0,0E0,0E0,0E0,0E0,0E0,0E0,0E0,0E0,0E0,0E0,0E0],"parents":[2147483647,0,0,1,1,2,2,3,3,4,4,5,5,6,6,10,10,11,11,12,12,13,13,14,14,16,16,17,17,18,18,19,19,20,20,23,23,27,27,29,29,30,30,31,31,32,32,33,33,34,34,39,39,41,41,43,43,44,44,45,45,46,46,47,47,50,50],"right_children":[2,4,6,8,10,12,14,-1,-1,-1,16,18,20,22,24,-1,26,28,30,32,34,-1,-1,36,-1,-1,-1,38,-1,40,42,44,46,48,50,-1,-1,-1,-1,52,-1,54,-1,56,58,60,62,64,-1,-1,66,-1,-1,-1,-1,-1,-1,-1,-1,-1,-1,-1,-1,-1,-1,-1,-1],"split_conditions":[2.325224E-2,4.87812E-3,7.1960163E-1,7.41553E-2,4.13873E-1,4.140907E-2,8.704201E-3,-4.9161494E-2,1.9684723E-2,-2.3487257E-2,4.4648656E-1,4.6110904E-1,1.3209976E-1,5.026287E-1,1.096361E0,-1.1364248E-2,3.1684953E-1,3.9825554E0,1.02875E-1,1.6764157E-1,3.3162632E0,-6.5736505E-3,-6.329709E-2,7.654705E-1,-3.6959372E-2,4.3235957E-3,6.30179E-2,1.6923812E-1,1.0718593E-2,5.6478577E0,5.0753174E0,6.5339417E0,1.5585048E-1,8.722741E-2,3.4106106E-1,5.3588983E-2,-6.3244514E-3,-1.6592737E-2,-6.281447E-2,1.3962381E0,4.0180765E-2,4.9406868E-1,-3.460224E-2,3.1091154E0,2.8942761E0,4.436937E0,3.5985694E0,1.4477695E0,-2.376896E-2,3.843003E-2,9.828133E-1,2.28309E-2,-5.1059462E-2,-1.1623489E-2,5.5770736E-2,1.4463159E-2,6.0399115E-2,-5.434239E-2,-6.9147306E-3,-5.1475894E-2,1.130653E-2,4.908048E-2,-1.6184168E-2,6.2050432E-2,1.4005479E-2,-5.111283E-2,1.9999787E-3],"split_indices":[1731,1144,19,1751,12,1760,1486,0,0,0,125,259,1747,352,475,0,177,888,1896,1869,878,0,0,205,0,0,0,1619,0,534,671,740,1870,1198,212,0,0,0,0,925,0,15,0,882,887,563,864,400,0,0,443,0,0,0,0,0,0,0,0,0,0,0,0,0,0,0,0],"split_type":[0,0,0,0,0,0,0,0,0,0,0,0,0,0,0,0,0,0,0,0,0,0,0,0,0,0,0,0,0,0,0,0,0,0,0,0,0,0,0,0,0,0,0,0,0,0,0,0,0,0,0,0,0,0,0,0,0,0,0,0,0,0,0,0,0,0,0],"sum_hessian":[3.4241837E2,6.634203E1,2.7607632E2,1.0854786E1,5.5487247E1,2.2731747E2,4.875886E1,6.8816795E0,3.9731061E0,4.602204E0,