{"learner":{"attributes":{"best_iteration":"69","best_score":"0.5390686849659344","scikit_learn":"{\"_estimator_type\": \"classifier\"}"},"feature_names":[],"feature_types":[],"gradient_booster":{"model":{"cats":{"enc":[],"feature_segments":[],"sorted_idx":[]},"gbtree_model_param":{"num_parallel_tree":"1","num_trees":"70"},"iteration_indptr":[0,1,2,3,4,5,6,7,8,9,10,11,12,13,14,15,16,17,18,19,20,21,22,23,24,25,26,27,28,29,30,31,32,33,34,35,36,37,38,39,40,41,42,43,44,45,46,47,48,49,50,51,52,53,54,55,56,57,58,59,60,61,62,63,64,65,66,67,68,69,70],"tree_info":[0,0,0,0,0,0,0,0,0,0,0,0,0,0,0,0,0,0,0,0,0,0,0,0,0,0,0,0,0,0,0,0,0,0,0,0,0,0,0,0,0,0,0,0,0,0,0,0,0,0,0,0,0,0,0,0,0,0,0,0,0,0,0,0,0,0,0,0,0,0],"trees":[{"base_weights":[6.267551E-2,-5.58695E-1,1.1468798E0,1.9536276E-1,-1.3726517E0,-4.300073E-4,7.579756E-2,8.440679E-1,-5.3525973E-2,-1.4361471E-2,-8.136966E-2,6.6091225E-2,-1.4361471E-2],"categories":[],"categories_nodes":[],"categories_segments":[],"categories_sizes":[],"default_left":[0,0,0,0,0,0,0,0,0,0,0,0,0],"id":0,"left_children":[1,3,5,7,9,-1,-1,11,-1,-1,-1,-1,-1],"loss_changes":[3.0587706E1,1.838187E1,7.2261353E0,1.5482262E1,2.8008327E0,0E0,0E0,7.4563E0,0E0,0E0,0E0,0E0,0E0],"parents":[2147483647,0,0,1,1,2,2,3,3,4,4,7,7],"right_children":[2,4,6,8,10,-1,-1,12,-1,-1,-1,-1,-1],"split_conditions":[1.5905643E0,3.7916918E0,3.3602577E-1,1.776028E-1,4.768374E-1,-4.300073E-4,7.579756E-2,1.1227155E0,-5.3525973E-2,-1.4361471E-2,-8.136966E-2,6.6091225E-2,-1.4361471E-2],"split_indices":[137,943,1605,1810,57,0,0,299,0,0,0,0,0],"split_type":[0,0,0,0,0,0,0,0,0,0,0,0,0],"sum_hessian":[4.1413536E1,2.688346E1,1.4530075E1,1.4680451E1,1.2203008E1,3.924812E0,1.0605264E1,1.0199248E1,4.481203E0,3.2030075E0,9E0,6.9962406E0,3.2030075E0],"tree_param":{"num_deleted":"0","num_feature":"1930","num_nodes":"13","size_leaf_vector":"1"}},{"base_weights":[1.09155886E-1,-3.241162E-1,1.2147639E0,5.575799E-1,-7.947248E-1,7.509123E-2,1.1383909E-2,6.230552E-2,-1.4559443E-2,1.3658045E-1,-1.2393345E0,-3.1964514E-2,4.2815823E-2,-4.6709054E-3,-7.664158E-2],"categories":[],"categories_nodes":[],"categories_segments":[],"categories_sizes":[],"default_left":[0,0,0,0,0,0,0,0,0,0,0,0,0,0,0],"id":1,"left_children":[1,3,5,7,9,-1,-1,-1,-1,11,13,-1,-1,-1,-1],"loss_changes":[2.0705437E1,1.3878001E1,2.5832958E0,7.8210106E0,9.258331E0,0E0,0E0,0E0,0E0,5.921082E0,4.485468E0,0E0,0E0,0E0,0E0],"parents":[2147483647,0,0,1,1,2,2,3,3,4,4,9,9,10,10],"right_children":[2,4,6,8,10,-1,-1,-1,-1,12,14,-1,-1,-1,-1],"split_conditions":[4.3011573E-1,6.8192214E-2,3.8361871E0,2.4267232E-1,2.247977E-1,7.509123E-2,1.1383909E-2,6.230552E-2,-1.4559443E-2,8.908614E-1,2.5700603E0,-3.1964514E-2,4.2815823E-2,-4.6709054E-3,-7.664158E-2],"split_indices":[1833,1830,843,1549,352,0,0,0,0,290,578,0,0,0,0],"split_type":[0,0,0,0,0,0,0,0,0,0,0,0,0,0,0],"sum_hessian":[3.9393986E1,2.925328E1,1.0140707E1,9.97771E0,1.9275572E1,6.969584E0,3.1711228E0,5.0569754E0,4.920734E0,6.6037245E0,1.2671846E1,3.2186465E0,3.3850777E0,3.1908705E0,9.480976E0],"tree_param":{"num_deleted":"0","num_feature":"1930","num_nodes":"15","size_leaf_vector":"1"}},{"base_weights":[-8.7134935E-2,6.735122E-2,-5.54744E-1,7.443066E-1,-9.381526E-1,5.77356E-2,1.5748324E-3,-1.2647095E0,2.4472492E-2,-1.4512775E0,-8.3093755E-3,-8.019887E-2,-2.2100544E-2],"categories":[],"categories_nodes":[],"categories_segments":[],"categories_sizes":[],"default_left":[0,0,0,0,0,0,0,0,0,0,0,0,0],"id":2,"left_children":[1,-1,3,5,7,-1,-1,9,-1,11,-1,-1,-1],"loss_changes":[2.8363802E1,0E0,1.7240921E1,2.235662E0,1.3192501E1,0E0,0E0,3.731289E0,0E0,1.1381035E0,0E0,0E0,0E0],"parents":[2147483647,0,0,2,2,3,3,4,4,7,7,9,9],"right_children":[2,-1,4,6,8,-1,-1,10,-1,12,-1,-1,-1],"split_conditions":[2.5021695E-2,6.735122E-2,3.7421805E-1,9.676139E-1,8.677622E-2,5.77356E-2,1.5748324E-3,3.7591216E-1,2.4472492E-2,3.78853E0,-8.3093755E-3,-8.019887E-2,-2.2100544E-2],"split_indices":[1736,0,439,450,1773,0,0,1582,0,714,0,0,0],"split_type":[0,0,0,0,0,0,0,0,0,0,0,0,0],"sum_hessian":[3.8184135E1,8.411338E0,2.9772799E1,6.2963495E0,2.3476448E1,3.1198802E0,3.1764693E0,1.9348768E1,4.1276817E0,1.5912922E1,3.4358456E0,1.2712036E1,3.200886E0],"tree_param":{"num_deleted":"0","num_feature":"1930","num_nodes":"13","size_leaf_vector":"1"}},{"base_weights":[-1.06566645E-1,6.337943E-2,-4.8774105E-1,-9.2626333E-1,3.5904497E-1,-1.2103049E0,5.8074086E-3,5.6376543E-2,-2.0275006E-2,-7.316328E-2,-3.9513046E-3],"categories":[],"categories_nodes":[],"categories_segments":[],"categories_sizes":[],"default_left":[0,0,0,0,0,0,0,0,0,0,0],"id":3,"left_children":[1,-1,3,5,7,9,-1,-1,-1,-1,-1],"loss_changes":[2.3831165E1,0E0,1.38623495E1,7.4819527E0,8.881394E0,5.072361E0,0E0,0E0,0E0,0E0,0E0],"parents":[2147483647,0,0,2,2,3,3,4,4,5,5],"right_children":[2,-1,4,6,8,10,-1,-1,-1,-1,-1],"split_conditions":[2.4109865E-2,6.337943E-2,1.7347026E-1,1.0801686E-4,8.7710686E-2,3.7069765E-1,5.8074086E-3,5.6376543E-2,-2.0275006E-2,-7.316328E-2,-3.9513046E-3],"split_indices":[1736,0,1767,1480,1696,1675,0,0,0,0,0],"split_type":[0,0,0,0,0,0,0,0,0,0,0],"sum_hessian":[4.1285515E1,7.898319E0,3.3387196E1,2.1950264E1,1.1436933E1,1.7072163E1,4.878101E0,5.2954435E0,6.1414886E0,1.3400428E1,3.6717343E0],"tree_param":{"num_deleted":"0","num_feature":"1930","num_nodes":"11","size_leaf_vector":"1"}},{"base_weights":[2.5861368E-2,-4.18211E-1,6.4326726E-2,1.008344E-1,-1.0574929E0,-5.8585423E-1,7.0329666E-1,-7.179061E-2,1.200051E-2,2.0776842E-2,-5.6753844E-2,-3.1459656E-2,6.74812E-2],"categories":[],"categories_nodes":[],"categories_segments":[],"categories_sizes":[],"default_left":[0,0,0,0,0,0,0,0,0,0,0,0,0],"id":4,"left_children":[1,3,-1,5,7,9,11,-1,-1,-1,-1,-1,-1],"loss_changes":[2.5838257E1,1.160582E1,0E0,9.328885E0,8.425264E0,6.84931E0,1.203773E1,0E0,0E0,0E0,0E0,0E0,0E0],"parents":[2147483647,0,0,1,1,3,3,4,4,5,5,6,6],"right_children":[2,4,-1,6,8,10,12,-1,-1,-1,-1,-1,-1],"split_conditions":[4.3011573E-1,3.7668748E0,6.4326726E-2,3.1351474E-1,1.7140498E0,6.346055E-1,3.2399106E0,-7.179061E-2,1.200051E-2,2.0776842E-2,-5.6753844E-2,-3.1459656E-2,6.74812E-2],"split_indices":[1833,943,0,134,434,231,1014,0,0,0,0,0,0],"split_type":[0,0,0,0,0,0,0,0,0,0,0,0,0],"sum_hessian":[4.2076477E1,3.204561E1,1.0030869E1,1.8529367E1,1.3516242E1,8.6075735E0,9.921794E0,1.0359538E1,3.1567037E0,3.1567154E0,5.4508586E0,3.2074687E0,6.7143254E0],"tree_param":{"num_deleted":"0","num_feature":"1930","num_nodes":"13","size_leaf_vector":"1"}},{"base_weights":[-2.8158616E-2,5.751583E-2,-3.72922E-1,-8.598934E-1,3.7425354E-1,-1.1286049E0,1.3556937E-2,9.2617023E-1,-3.12757E-2,-7.361123E-2,-2.392278E-3,-3.8977761E-3,6.8525285E-2],"categories":[],"categories_nodes":[],"categories_segments":[],"categories_sizes":[],"default_left":[0,0,0,0,0,0,0,0,0,0,0,0,0],"id":5,"left_children":[1,-1,3,5,7,9,-1,11,-1,-1,-1,-1,-1],"loss_changes":[1.8913542E1,0E0,1.38292465E1,7.550085E0,9.773991E0,6.6431828E0,0E0,5.2041645E0,0E0,0E0,0E0,0E0,0E0],"parents":[2147483647,0,0,2,2,3,3,4,4,5,5,7,7],"right_children":[2,-1,4,6,8,10,-1,12,-1,-1,-1,-1,-1],"split_conditions":[2.4868626E-2,5.751583E-2,3.4343038E0,3.7180044E-2,4.3200364E0,7.978884E-2,1.3556937E-2,1.0359868E0,-3.12757E-2,-7.361123E-2,-2.392278E-3,-3.8977761E-3,6.8525285E-2],"split_indices":[1736,0,618,1500,685,1721,0,465,0,0,0,0,0],"split_type":[0,0,0,0,0,0,0,0,0,0,0,0,0],"sum_hessian":[4.263092E1,8.525568E0,3.410535E1,2.0546377E1,1.3558973E1,1.667696E1,3.8694181E0,8.895506E0,4.6634674E0,1.203391E1,4.6430497E0,3.1656687E0,5.7298374E0],"tree_param":{"num_deleted":"0","num_feature":"1930","num_nodes":"13","size_leaf_vector":"1"}},{"base_weights":[-2.4115877E-2,-5.051255E-1,8.2425815E-1,5.825585E-1,-8.6755425E-1,6.1834484E-2,-9.032022E-3,-5.330694E-3,5.367588E-2,-1.159247E0,3.4750383E-3,-6.852296E-2,-1.36450995E-2],"categories":[],"categories_nodes":[],"categories_segments":[],"categories_sizes":[],"default_left":[0,0,0,0,0,0,0,0,0,0,0,0,0],"id":6,"left_children":[1,3,5,7,9,-1,-1,-1,-1,11,-1,-1,-1],"loss_changes":[1.8140171E1,1.2247232E1,7.2080936E0,3.1114445E0,6.3375435E0,0E0,0E0,0E0,0E0,2.2931938E0,0E0,0E0,0E0],"parents":[2147483647,0,0,1,1,2,2,3,3,4,4,9,9],"right_children":[2,4,6,8,10,-1,-1,-1,-1,12,-1,-1,-1],"split_conditions":[3.4582388E-1,3.7421805E-1,3.6182652E0,1.1962883E0,4.7071252E-2,6.1834484E-2,-9.032022E-3,-5.330694E-3,5.367588E-2,9.131919E-1,3.4750383E-3,-6.852296E-2,-1.36450995E-2],"split_indices":[1675,439,930,421,1662,0,0,0,0,377,0,0,0],"split_type":[0,0,0,0,0,0,0,0,0,0,0,0,0],"sum_hessian":[4.0490547E1,2.6431517E1,1.40590315E1,6.2335033E0,2.0198013E1,9.711441E0,4.34759E0,3.1598897E0,3.0736136E0,1.512293E1,5.0750837E0,1.1239418E1,3.8835115E0],"tree_param":{"num_deleted":"0","num_feature":"1930","num_nodes":"13","size_leaf_vector":"1"}},{"base_weights":[-1.5986653E-2,-5.114072E-1,9.038151E-1,1.05168015E-1,-1.2034966E0,5.9770174E-2,-5.593065E-3,6.77249E-1,-4.2064242E-2,-1.642511E-2,-6.959156E-2,-2.0857792E-2,5.994721E-2],"categories":[],"categories_nodes":[],"categories_segments":[],"categories_sizes":[],"default_left":[0,0,0,0,0,0,0,0,0,0,0,0,0],"id":7,"left_children":[1,3,5,7,9,-1,-1,11,-1,-1,-1,-1,-1],"loss_changes":[1.9802486E1,1.2451702E1,4.872841E0,1.0189517E1,1.1521149E0,0E0,0E0,7.7073402E0,0E0,0E0,0E0,0E0,0E0],"parents":[2147483647,0,0,1,1,2,2,3,3,4,4,7,7],"right_children":[2,4,6,8,10,-1,-1,12,-1,-1,-1,-1,-1],"split_conditions":[1.5905643E0,3.7510805E0,7.480332E-1,4.1226795E-1,7.219433E-2,5.9770174E-2,-5.593065E-3,4.9381554E-1,-4.2064242E-2,-1.642511E-2,-6.959156E-2,-2.0857792E-2,5.994721E-2],"split_indices":[137,943,95,185,1774,0,0,503,0,0,0,0,0],"split_type":[0,0,0,0,0,0,0,0,0,0,0,0,0],"sum_hessian":[3.9513638E1,2.632908E1,1.3184556E1,1.47447405E1,1.1584339E1,1.004524E1,3.1393158E0,9.610329E0,5.134412E0,3.117949E0,8.466391E0,3.1698165E0,6.440512E0],"tree_param":{"num_deleted":"0","num_feature":"1930","num_nodes":"13","size_leaf_vector":"1"}},{"base_weights":[-4.13175E-2,-5.741313E-1,7.4264324E-1,3.9501324E-2,-8.4738517E-1,1.0982622E0,-2.326261E-2,6.457846E-3,-1.1455988E0,6.9331065E-2,3.9512874E-4,-6.821424E-2,-8.342153E-3],"categories":[],"categories_nodes":[],"categories_segments":[],"categories_sizes":[],"default_left":[0,0,0,0,0,0,0,0,0,0,0,0,0],"id":8,"left_children":[1,3,5,-1,7,9,-1,-1,11,-1,-1,-1,-1],"loss_changes":[1.8290142E1,1.1066952E1,8.690088E0,0E0,7.0243263E0,4.346243E0,0E0,0E0,3.182951E0,0E0,0E0,0E0,0E0],"parents":[2147483647,0,0,1,1,2,2,4,4,5,5,8,8],"right_children":[2,4,6,-1,8,10,-1,-1,12,-1,-1,-1,-1],"split_conditions":[1.2666041E0,4.211996E-1,4.15802E0,3.9501324E-2,3.9206162E-2,6.250484E-1,-2.326261E-2,6.457846E-3,8.098577E-2,6.9331065E-2,3.9512874E-4,-6.821424E-2,-8.342153E-3],"split_indices":[421,488,987,0,1926,43,0,0,1926,0,0,0,0],"split_type":[0,0,0,0,0,0,0,0,0,0,0,0,0],"sum_hessian":[3.9786045E1,2.408184E1,1.5704203E1,3.3265371E0,2.0755304E1,1.2336504E1,3.3676987E0,5.042243E0,1.571306E1,9.254028E0,3.0824754E0,1.2115989E1,3.5970721E0],"tree_param":{"num_deleted":"0","num_feature":"1930","num_nodes":"13","size_leaf_vector":"1"}},{"base_weights":[-1.7199093E-2,5.4277148E-2,-3.7767443E-1,5.6237453E-1,-6.9216156E-1,5.4046657E-2,-1.4451595E-2,-1.12820335E-1,-6.872874E-2,3.8179282E-2,-7.1824616E-1,-5.4286778E-2,5.4795616E-3],"categories":[],"categories_nodes":[],"categories_segments":[],"categories_sizes":[],"default_left":[0,0,0,0,0,0,0,0,0,0,0,0,0],"id":9,"left_children":[1,-1,3,5,7,-1,-1,9,-1,-1,11,-1,-1],"loss_changes":[1.802025E1,0E0,1.0930633E1,4.9518175E0,1.0087144E1,0E0,0E0,9.945512E0,0E0,0E0,3.671771E0,0E0,0E0],"parents":[2147483647,0,0,2,2,3,3,4,4,7,7,10,10],"right_children":[2,-1,4,6,8,-1,-1,10,-1,-1,12,-1,-1],"split_conditions":[2.4868626E-2,5.4277148E-2,3.8293353E-1,1.3511972E-1,3.9483006E0,5.4046657E-2,-1.4451595E-2,9.131935E-1,-6.872874E-2,3.8179282E-2,2.5650063E0,-5.4286778E-2,5.4795616E-3],"split_indices":[1736,0,439,1862,943,0,0,197,0,0,736,0,0],"split_type":[0,0,0,0,0,0,0,0,0,0,0,0,0],"sum_hessian":[4.1448006E1,9.151647E0,3.2296356E1,7.6211553E0,2.4675203E1,4.4743094E0,3.1468458E0,1.4685226E1,9.989976E0,5.7189326E0,8.966294E0,5.861859E0,3.104435E0],"tree_param":{"num_deleted":"0","num_feature":"1930","num_nodes":"13","size_leaf_vector":"1"}},{"base_weights":[-2.3457408E-2,6.165082E-1,-5.729374E-1,9.4184333E-1,-2.7508587E-2,-1.1350497E0,1.9903503E-1,4.506973E-3,6.273221E-2,-6.724705E-2,-1.6354788E-2,-4.595363E-2,8.161788E-1,5.9447963E-2,2.641957E-3],"categories":[],"categories_nodes":[],"categories_segments":[],"categories_sizes":[],"default_left":[0,0,0,0,0,0,0,0,0,0,0,0,0,0,0],"id":10,"left_children":[1,3,5,7,-1,9,11,-1,-1,-1,-1,-1,13,-1,-1],"loss_changes":[1.6204227E1,9.139157E0,1.1324225E1,4.279381E0,0E0,1.4537601E0,9.834371E0,0E0,0E0,0E0,0E0,0E0,2.2852688E0,0E0,0E0],"parents":[2147483647,0,0,1,1,2,2,3,3,5,5,6,6,12,12],"right_children":[2,4,6,8,-1,10,12,-1,-1,-1,-1,-1,14,-1,-1],"split_conditions":[1.0415648E-1,3.8950243E0,8.162428E-2,1.1961601E0,-2.7508587E-2,4.6494265E0,1.6942105E0,4.506973E-3,6.273221E-2,-6.724705E-2,-1.6354788E-2,-4.595363E-2,6.803676E-1,5.9447963E-2,2.641957E-3],"split_indices":[1623,1016,1721,465,0,829,629,0,0,0,0,0,135,0,0],"split_type":[0,0,0,0,0,0,0,0,0,0,0,0,0,0,0],"sum_hessian":[4.208423E1,1.9244585E1,2.2839643E1,1.5416697E1,3.8278885E0,1.2746883E1,1.009276E1,4.919032E0,1.0497664E1,8.96494E0,3.7819438E0,3.1838765E0,6.908884E0,3.8046906E0,3.1041932E0],"tree_param":{"num_deleted":"0","num_feature":"1930","num_nodes":"15","size_leaf_vector":"1"}},{"base_weights":[5.4384354E-3,7.3609895E-1,-5.322131E-1,1.0326816E0,-1.8968422E-2,-8.056681E-1,3.2026496E-2,1.4673251E-3,6.460013E-2,-1.0650722E0,1.2815917E-2,-6.441369E-2,-6.327472E-3],"categories":[],"categories_nodes":[],"categories_segments":[],"categories_sizes":[],"default_left":[0,0,0,0,0,0,0,0,0,0,0,0,0],"id":11,"left_children":[1,3,5,7,-1,9,-1,-1,-1,11,-1,-1,-1],"loss_changes":[1.6172338E1,6.6390314E0,8.623134E0,3.5475845E0,0E0,6.166335E0,0E0,0E0,0E0,3.0149155E0,0E0,0E0,0E0],"parents":[2147483647,0,0,1,1,2,2,3,3,5,5,9,9],"right_children":[2,4,6,8,-1,10,-1,-1,-1,12,-1,-1,-1],"split_conditions":[6.79587E-2,4.390046E0,4.068391E0,6.3250256E-1,-1.8968422E-2,1.6285646E-1,3.2026496E-2,1.4673251E-3,6.460013E-2,1.551352E-1,1.2815917E-2,-6.441369E-2,-6.327472E-3],"split_indices":[1830,731,1005,112,0,1058,0,0,0,1851,0,0,0],"split_type":[0,0,0,0,0,0,0,0,0,0,0,0,0],"sum_hessian":[3.7121265E1,1.550203E1,2.1619236E1,1.2434106E1,3.067924E0,1.810814E1,3.5110953E0,3.090121E0,9.343985E0,1.4624313E1,3.4838278E0,1.1126348E1,3.4979658E0],"tree_param":{"num_deleted":"0","num_feature":"1930","num_nodes":"13","size_leaf_vector":"1"}},{"base_weights":[3.5122015E-2,-3.874226E-1,8.008124E-1,5.2943593E-1,-8.1708026E-1,5.6159493E-2,-1.3600856E-2,5.281167E-2,-1.0308437E-2,-1.0447603E0,1.1747893E-2,-5.769648E-3,-6.129278E-2],"categories":[],"categories_nodes":[],"categories_segments":[],"categories_sizes":[],"default_left":[0,0,0,0,0,0,0,0,0,0,0,0,0],"id":12,"left_children":[1,3,5,7,9,-1,-1,-1,-1,11,-1,-1,-1],"loss_changes":[1.3964476E1,1.1829065E1,6.0076294E0,4.394447E0,5.3054476E0,0E0,0E0,0E0,0E0,2.3921738E0,0E0,0E0,0E0],"parents":[2147483647,0,0,1,1,2,2,3,3,4,4,9,9],"right_children":[2,4,6,8,10,-1,-1,-1,-1,12,-1,-1,-1],"split_conditions":[1.5379889E0,8.9780444E-1,1.5041183E-1,2.2716122E-5,9.5292646E-1,5.6159493E-2,-1.3600856E-2,5.281167E-2,-1.0308437E-2,3.2325923E-1,1.1747893E-2,-5.769648E-3,-6.129278E-2],"split_indices":[137,417,1587,1067,270,0,0,0,0,1630,0,0,0],"split_type":[0,0,0,0,0,0,0,0,0,0,0,0,0],"sum_hessian":[3.911609E1,2.5758665E1,1.3357422E1,7.9968233E0,1.7761843E1,1.0270531E1,3.0868905E0,4.2310157E0,3.7658076E0,1.4691275E1,3.0705686E0,3.0199084E0,1.1671366E1],"tree_param":{"num_deleted":"0","num_feature":"1930","num_nodes":"13","size_leaf_vector":"1"}},{"base_weights":[-7.2513476E-2,5.1283725E-2,-3.950117E-1,5.887927E-2,-1.0113171E0,4.6840736E-1,-4.254522E-2,-6.313511E-2,-2.0289933E-3,-2.1905718E-2,9.47709E-1,3.8590636E-3,6.3134424E-2],"categories":[],"categories_nodes":[],"categories_segments":[],"categories_sizes":[],"default_left":[0,0,0,0,0,0,0,0,0,0,0,0,0],"id":13,"left_children":[1,-1,3,5,7,9,-1,-1,-1,-1,11,-1,-1],"loss_changes":[1.5062034E1,0E0,9.377853E0,8.456846E0,3.2071905E0,7.665353E0,0E0,0E0,0E0,0E0,2.6647406E0,0E0,0E0],"parents":[2147483647,0,0,2,2,3,3,4,4,5,5,10,10],"right_children":[2,-1,4,6,8,10,-1,-1,-1,-1,12,-1,-1],"split_conditions":[2.4868626E-2,5.1283725E-2,4.0071564E0,3.1463776E0,7.637134E-2,1.2030177E0,-4.254522E-2,-6.313511E-2,-2.0289933E-3,-2.1905718E-2,2.2919416E0,3.8590636E-3,6.3134424E-2],"split_indices":[1736,0,943,653,1058,466,0,0,0,0,748,0,0],"split_type":[0,0,0,0,0,0,0,0,0,0,0,0,0],"sum_hessian":[3.8418583E1,7.6607857E0,3.0757797E1,1.8661108E1,1.209669E1,1.3613404E1,5.0477037E0,9.048831E0,3.0478587E0,4.6956215E0,8.917783E0,3.1153252E0,5.8024573E0],"tree_param":{"num_deleted":"0","num_feature":"1930","num_nodes":"13","size_leaf_vector":"1"}},{"base_weights":[-1.5627393E-2,-5.655324E-1,6.592091E-1,-8.437797E-1,1.7617887E-2,-1.08658E-1,5.831332E-2,-5.849866E-2,2.4025184E-3,2.9936183E-2,-3.9156463E-2],"categories":[],"categories_nodes":[],"categories_segments":[],"categories_sizes":[],"default_left":[0,0,0,0,0,0,0,0,0,0,0],"id":14,"left_children":[1,3,5,7,-1,9,-1,-1,-1,-1,-1],"loss_changes":[1.5055529E1,6.3696947E0,7.4326067E0,5.425191E0,0E0,5.238932E0,0E0,0E0,0E0,0E0,0E0],"parents":[2147483647,0,0,1,1,2,2,3,3,5,5],"right_children":[2,4,6,8,-1,10,-1,-1,-1,-1,-1],"split_conditions":[5.014457E0,1.0168587E0,2.493764E-2,8.812363E-1,1.7617887E-2,1.3790016E0,5.831332E-2,-5.849866E-2,2.4025184E-3,2.9936183E-2,-3.9156463E-2],"split_indices":[966,150,1483,123,0,36,0,0,0,0,0],"split_type":[0,0,0,0,0,0,0,0,0,0,0],"sum_hessian":[3.6586483E1,2.0419415E1,1.616707E1,1.5876938E1,4.5424757E0,6.9764376E0,9.190633E0,1.1250394E1,4.6265445E0,3.442408E0,3.5340292E0],"tree_param":{"num_deleted":"0","num_feature":"1930","num_nodes":"11","size_leaf_vector":"1"}},{"base_weights":[4.828265E-3,7.5308913E-1,-4.7938687E-1,5.500569E-2,-7.929205E-3,3.766661E-2,-1.0614843E0,-6.8878096E-1,8.2331324E-1,-1.7674897E-2,-6.1066743E-2,-5.1103245E-2,-2.5247247E-4,1.10694645E-2,5.3253412E-2],"categories":[],"categories_nodes":[],"categories_segments":[],"categories_sizes":[],"default_left":[0,0,0,0,0,0,0,0,0,0,0,0,0,0,0],"id":15,"left_children":[1,3,5,-1,-1,7,9,11,13,-1,-1,-1,-1,-1,-1],"loss_changes":[1.5040687E1,5.6175985E0,7.7332516E0,0E0,0E0,9.780981E0,3.327179E-1,1.9110527E0,5.994859E-1,0E0,0E0,0E0,0E0,0E0,0E0],"parents":[2147483647,0,0,1,1,2,2,5,5,6,6,7,7,8,8],"right_children":[2,4,6,-1,-1,8,10,12,14,-1,-1,-1,-1,-1,-1],"split_conditions":[6.572277E-2,4.446201E0,4.0361814E0,5.500569E-2,-7.929205E-3,2.812486E0,6.933649E-1,3.2378693E0,3.8569653E0,-1.7674897E-2,-6.1066743E-2,-5.1103245E-2,-2.5247247E-4,1.10694645E-2,5.3253412E-2],"split_indices":[1788,512,785,0,0,722,202,823,557,0,0,0,0,0,0],"split_type":[0,0,0,0,0,0,0,0,0,0,0,0,0,0,0],"sum_hessian":[3.7443874E1,1.4355771E1,2.3088104E1,1.0177892E1,4.1778784E0,1.3126849E1,9.961255E0,6.8823724E0,6.2444763E0,3.1330872E0,6.828168E0,3.8632927E0,3.01908E0,3.0057905E0,3.2386858E0],"tree_param":{"num_deleted":"0","num_feature":"1930","num_nodes":"15","size_leaf_vector":"1"}},{"base_weights":[-5.039413E-2,5.016274E-2,-3.418344E-1,1.461803E-1,-8.82225E-1,6.124302E-1,-4.0812068E-2,6.557792E-3,-5.9543103E-2,5.4798134E-2,-8.4309755E-3],"categories":[],"categories_nodes":[],"categories_segments":[],"categories_sizes":[],"default_left":[0,0,0,0,0,0,0,0,0,0,0],"id":16,"left_children":[1,-1,3,5,7,9,-1,-1,-1,-1,-1],"loss_changes":[1.1967642E1,0E0,8.378588E0,8.900544E0,5.0665035E0,5.411289E0,0E0,0E0,0E0,0E0,0E0],"parents":[2147483647,0,0,2,2,3,3,4,4,5,5],"right_children":[2,-1,4,6,8,10,-1,-1,-1,-1,-1],"split_conditions":[2.4109865E-2,5.016274E-2,3.7510805E0,7.1010137E-1,3.1956568E0,4.142218E-1,-4.0812068E-2,6.557792E-3,-5.9543103E-2,5.4798134E-2,-8.4309755E-3],"split_indices":[1736,0,943,168,569,1631,0,0,0,0,0],"split_type":[0,0,0,0,0,0,0,0,0,0,0],"sum_hessian":[3.4954697E1,6.4408937E0,2.8513802E1,1.56524E1,1.2861402E1,1.1104156E1,4.5482445E0,3.1954699E0,9.665932E0,6.4393377E0,4.664818E0],"tree_param":{"num_deleted":"0","num_feature":"1930","num_nodes":"11","size_leaf_vector":"1"}},{"base_weights":[1.3934237E-1,-5.5974466E-1,4.7704086E-1,-4.8652004E-2,1.3066351E-2,1.0008947E0,-4.938017E-2,1.9401513E-3,6.389645E-2,3.1126264E-2,-6.075695E-1,4.427397E-3,-5.2580602E-2],"categories":[],"categories_nodes":[],"categories_segments":[],"categories_sizes":[],"default_left":[0,0,0,0,0,0,0,0,0,0,0,0,0],"id":17,"left_children":[1,3,5,-1,-1,7,9,-1,-1,-1,11,-1,-1],"loss_changes":[9.369719E0,4.9999213E0,7.4841714E0,0E0,0E0,3.3512173E0,6.3793674E0,0E0,0E0,0E0,3.1525362E0,0E0,0E0],"parents":[2147483647,0,0,1,1,2,2,5,5,6,6,10,10],"right_children":[2,4,6,-1,-1,8,10,-1,-1,-1,12,-1,-1],"split_conditions":[1.4226942E-1,4.0919942E-4,2.5823612E0,-4.8652004E-2,1.3066351E-2,5.255183E-1,3.4301572E0,1.9401513E-3,6.389645E-2,3.1126264E-2,8.8762164E-1,4.427397E-3,-5.2580602E-2],"split_indices":[1680,1276,758,0,0,402,709,0,0,0,142,0,0],"split_type":[0,0,0,0,0,0,0,0,0,0,0,0,0],"sum_hessian":[3.546155E1,1.1025637E1,2.4435915E1,7.168776E0,3.8568604E0,1.1439512E1,1.2996404E1,3.1480348E0,8.291477E0,5.7115774E0,7.284826E0,3.373002E0,3.9118237E0],"tree_param":{"num_deleted":"0","num_feature":"1930","num_nodes":"13","size_leaf_vector":"1"}},{"base_weights":[5.801461E-2,7.342115E-1,-2.6435137E-1,5.86961E-2,-1.0662191E-2,-8.8640904E-1,1.4396726E-1,-1.2507708E-3,-5.9039902E-2,5.7844615E-1,-3.065352E-2,5.3379185E-2,-8.698064E-3],"categories":[],"categories_nodes":[],"categories_segments":[],"categories_sizes":[],"default_left":[0,0,0,0,0,0,0,0,0,0,0,0,0],"id":18,"left_children":[1,3,5,-1,-1,7,9,-1,-1,11,-1,-1,-1],"loss_changes":[8.995477E0,6.140642E0,7.4320726E0,0E0,0E0,2.7258682E0,6.7925463E0,0E0,0E0,5.1975513E0,0E0,0E0,0E0],"parents":[2147483647,0,0,1,1,2,2,5,5,6,6,9,9],"right_children":[2,4,6,-1,-1,8,10,-1,-1,12,-1,-1,-1],"split_conditions":[6.1746195E-2,3.9488926E0,1.1138587E0,5.86961E-2,-1.0662191E-2,6.7479944E-1,4.2981706E0,-1.2507708E-3,-5.9039902E-2,1.0784953E0,-3.065352E-2,5.3379185E-2,-8.698064E-3],"split_indices":[1921,853,466,0,0,466,931,0,0,146,0,0,0],"split_type":[0,0,0,0,0,0,0,0,0,0,0,0,0],"sum_hessian":[3.7270565E1,1.13073225E1,2.5963245E1,7.468645E0,3.838677E0,9.457803E0,1.6505442E1,3.0482223E0,6.4095807E0,1.0870536E1,5.634906E0,6.1606464E0,4.70989E0],"tree_param":{"num_deleted":"0","num_feature":"1930","num_nodes":"13","size_leaf_vector":"1"}},{"base_weights":[4.9028788E-2,5.002289E-2,-2.4471739E-1,-6.563375E-1,3.5721037E-1,-9.810686E-1,1.8722618E-2,7.980194E-1,-2.3694854E-2,-8.013476E-3,-5.8233775E-2,5.616228E-2,3.1089433E-3],"categories":[],"categories_nodes":[],"categories_segments":[],"categories_sizes":[],"default_left":[0,0,0,0,0,0,0,0,0,0,0,0,0],"id":19,"left_children":[1,-1,3,5,7,9,-1,11,-1,-1,-1,-1,-1],"loss_changes":[1.1177068E1,0E0,8.065401E0,7.1352577E0,5.7709064E0,1.7591429E0,0E0,2.0654693E0,0E0,0E0,0E0,0E0,0E0],"parents":[2147483647,0,0,2,2,3,3,4,4,5,5,7,7],"right_children":[2,-1,4,6,8,10,-1,12,-1,-1,-1,-1,-1],"split_conditions":[5.639908E-2,5.002289E-2,8.116684E-2,1.22176036E-1,7.1766675E-1,8.734284E-2,1.8722618E-2,2.4413253E-1,-2.3694854E-2,-8.013476E-3,-5.8233775E-2,5.616228E-2,3.1089433E-3],"split_indices":[1921,0,1721,1456,412,1623,0,1563,0,0,0,0,0],"split_type":[0,0,0,0,0,0,0,0,0,0,0,0,0],"sum_hessian":[3.597011E1,7.4308105E0,2.8539303E1,1.6940275E1,1.1599028E1,1.3029164E1,3.9111102E0,7.709794E0,3.8892336E0,3.1660473E0,9.863117E0,4.522213E0,3.1875813E0],"tree_param":{"num_deleted":"0","num_feature":"1930","num_nodes":"13","size_leaf_vector":"1"}},{"base_weights":[2.889269E-2,-3.4772903E-1,6.758955E-1,2.7019111E-2,-5.535297E-1,-2.0503206E-2,5.1563736E-2,-8.367301E-1,1.7750628E-2,-3.1772747E-3,-5.6191105E-2],"categories":[],"categories_nodes":[],"categories_segments":[],"categories_sizes":[],"default_left":[0,0,0,0,0,0,0,0,0,0,0],"id":20,"left_children":[1,3,5,-1,7,-1,-1,9,-1,-1,-1],"loss_changes":[9.846333E0,5.25278E0,6.65241E0,0E0,6.2381945E0,0E0,0E0,3.5697527E0,0E0,0E0,0E0],"parents":[2147483647,0,0,1,1,2,2,4,4,7,7],"right_children":[2,4,6,-1,8,-1,-1,10,-1,-1,-1],"split_conditions":[4.520475E-2,3.945113E-1,5.4335725E-1,2.7019111E-2,9.4548357E-1,-2.0503206E-2,5.1563736E-2,6.303551E-1,1.7750628E-2,-3.1772747E-3,-5.6191105E-2],"split_indices":[1320,310,402,0,270,0,0,192,0,0,0],"split_type":[0,0,0,0,0,0,0,0,0,0,0],"sum_hessian":[3.634389E1,2.345894E1,1.2884951E1,3.7102652E0,1.9748676E1,3.031677E0,9.853273E0,1.5260116E1,4.48856E0,4.887717E0,1.0372398E1],"tree_param":{"num_deleted":"0","num_feature":"1930","num_nodes":"11","size_leaf_vector":"1"}},{"base_weights":[-7.447765E-2,6.486054E-1,-4.4287577E-1,4.890713E-2,-1.0237249E-2,3.2575643E-1,-7.5450474E-1,4.1036468E-2,-1.3589451E-2,-9.8902065E-1,6.850411E-3,-6.0604103E-2,-2.489486E-3],"categories":[],"categories_nodes":[],"categories_segments":[],"categories_sizes":[],"default_left":[0,0,0,0,0,0,0,0,0,0,0,0,0],"id":21,"left_children":[1,3,5,-1,-1,7,9,-1,-1,11,-1,-1,-1],"loss_changes":[1.0148787E1,4.09906E0,6.5566583E0,0E0,0E0,3.0319698E0,4.24181E0,0E0,0E0,2.9054193E0,0E0,0E0,0E0],"parents":[2147483647,0,0,1,1,2,2,5,5,6,6,9,9],"right_children":[2,4,6,-1,-1,8,10,-1,-1,12,-1,-1,-1],"split_conditions":[4.0493494E-1,2.5283453E-1,1.7716677E-1,4.890713E-2,-1.0237249E-2,4.1147292E-1,4.376728E0,4.1036468E-2,-1.3589451E-2,3.9717007E-1,6.850411E-3,-6.0604103E-2,-2.489486E-3],"split_indices":[1561,1867,1911,0,0,398,667,0,0,247,0,0,0],"split_type":[0,0,0,0,0,0,0,0,0,0,0,0,0],"sum_hessian":[3.4019104E1,1.0877109E1,2.3141994E1,7.7204294E0,3.1566792E0,6.5571747E0,1.658482E1,3.2693658E0,3.287809E0,1.30463505E1,3.53847E0,9.987018E0,3.0593324E0],"tree_param":{"num_deleted":"0","num_feature":"1930","num_nodes":"13","size_leaf_vector":"1"}},{"base_weights":[-0E0,6.622242E-1,-3.9351404E-1,-1.5732111E-2,5.217836E-2,4.145029E-1,-6.972973E-1,-6.4175087E-3,4.0395807E-2,1.4072711E-2,-9.555646E-1,-8.089752E-3,-5.754223E-2],"categories":[],"categories_nodes":[],"categories_segments":[],"categories_sizes":[],"default_left":[0,0,0,0,0,0,0,0,0,0,0,0,0],"id":22,"left_children":[1,3,5,-1,-1,7,9,-1,-1,-1,11,-1,-1],"loss_changes":[1.0529371E1,6.3337E0,6.8391886E0,0E0,0E0,2.0057619E0,5.4813776E0,0E0,0E0,0E0,1.9451923E0,0E0,0E0],"parents":[2147483647,0,0,1,1,2,2,5,5,6,6,10,10],"right_children":[2,4,6,-1,-1,8,10,-1,-1,-1,12,-1,-1],"split_conditions":[5.443418E-1,4.5998994E-1,7.5094886E-2,-1.5732111E-2,5.217836E-2,3.5259504E0,5.2526955E-2,-6.4175087E-3,4.0395807E-2,1.4072711E-2,4.4408637E-1,-8.089752E-3,-5.754223E-2],"split_indices":[202,236,1770,0,0,1019,1685,0,0,0,376,0,0],"split_type":[0,0,0,0,0,0,0,0,0,0,0,0,0],"sum_hessian":[3.643603E1,1.3043727E1,2.3392305E1,3.686866E0,9.356861E0,6.1024904E0,1.7289814E1,3.0236342E0,3.0788565E0,3.4914756E0,1.3798339E1,3.5475373E0,1.0250802E1],"tree_param":{"num_deleted":"0","num_feature":"1930","num_nodes":"13","size_leaf_vector":"1"}},{"base_weights":[-6.909353E-4,-3.387683E-1,6.13858E-1,4.124336E-1,-7.170314E-1,-1.1652709E-2,5.1088165E-2,4.430642E-2,-1.7548589E-2,7.432481E-3,-9.939914E-1,-1.2595181E-2,-5.9054326E-2],"categories":[],"categories_nodes":[],"categories_segments":[],"categories_sizes":[],"default_left":[0,0,0,0,0,0,0,0,0,0,0,0,0],"id":23,"left_children":[1,3,5,7,9,-1,-1,-1,-1,-1,11,-1,-1],"loss_changes":[8.080678E0,7.804778E0,5.3037004E0,4.1640673E0,4.6073103E0,0E0,0E0,0E0,0E0,0E0,1.1645355E0,0E0,0E0],"parents":[2147483647,0,0,1,1,2,2,3,3,4,4,10,10],"right_children":[2,4,6,8,10,-1,-1,-1,-1,-1,12,-1,-1],"split_conditions":[1.5696975E0,8.9780444E-1,1.1029179E-1,7.878385E-4,1.3160037E-1,-1.1652709E-2,5.1088165E-2,4.430642E-2,-1.7548589E-2,7.432481E-3,1.8689123E0,-1.2595181E-2,-5.9054326E-2],"split_indices":[137,417,1733,1067,1917,0,0,0,0,0,926,0,0],"split_type":[0,0,0,0,0,0,0,0,0,0,0,0,0],"sum_hessian":[3.5023914E1,2.3278246E1,1.1745667E1,7.646948E0,1.5631298E1,4.017176E0,7.728492E0,4.601305E0,3.0456429E0,3.925874E0,1.1705423E1,3.4094741E0,8.295949E0],"tree_param":{"num_deleted":"0","num_feature":"1930","num_nodes":"13","size_leaf_vector":"1"}},{"base_weights":[-8.1914745E-2,-3.6385232E-1,6.9322383E-1,-5.683308E-1,3.8297493E-2,-0E0,4.7982495E-2,1.17995525E-2,-7.9098785E-1,1.0413264E-2,-1.000763E0,-6.1555065E-2,-1.0623377E-2],"categories":[],"categories_nodes":[],"categories_segments":[],"categories_sizes":[],"default_left":[0,0,0,0,0,0,0,0,0,0,0,0,0],"id":24,"left_children":[1,3,5,7,-1,-1,-1,-1,9,-1,11,-1,-1],"loss_changes":[8.61302E0,7.4866734E0,1.8717661E0,5.003642E0,0E0,0E0,0E0,0E0,4.8066177E0,0E0,2.4960651E0,0E0,0E0],"parents":[2147483647,0,0,1,1,2,2,3,3,8,8,10,10],"right_children":[2,4,6,8,-1,-1,-1,-1,10,-1,12,-1,-1],"split_conditions":[1.0121198E0,4.478347E-1,8.009517E-2,3.1097014E0,3.8297493E-2,-0E0,4.7982495E-2,1.17995525E-2,1.8798175E-1,1.0413264E-2,4.277466E0,-6.1555065E-2,-1.0623377E-2],"split_indices":[147,1645,1661,569,0,0,0,0,1746,0,591,0,0],"split_type":[0,0,0,0,0,0,0,0,0,0,0,0,0],"sum_hessian":[3.5253906E1,2.6723934E1,8.529971E0,2.3545048E1,3.1788867E0,3.0027354E0,5.5272355E0,4.9814095E0,1.8563639E1,3.1407137E0,1.5422925E1,1.096784E1,4.4550843E0],"tree_param":{"num_deleted":"0","num_feature":"1930","num_nodes":"13","size_leaf_vector":"1"}},{"base_weights":[-2.8434701E-2,4.356907E-2,-3.029312E-1,-6.8470335E-1,2.4780002E-1,3.7563958E-3,-9.3336403E-1,-2.2446286E-2,4.550073E-2,-8.960896E-3,-5.6026485E-2],"categories":[],"categories_nodes":[],"categories_segments":[],"categories_sizes":[],"default_left":[0,0,0,0,0,0,0,0,0,0,0],"id":25,"left_children":[1,-1,3,5,7,-1,9,-1,-1,-1,-1],"loss_changes":[9.382401E0,0E0,6.5254908E0,3.6067047E0,7.0096393E0,0E0,1.4062471E0,0E0,0E0,0E0,0E0],"parents":[2147483647,0,0,2,2,3,3,4,4,6,6],"right_children":[2,-1,4,6,8,-1,10,-1,-1,-1,-1],"split_conditions":[5.5749245E-2,4.356907E-2,7.011702E-1,7.528841E-1,1.9679348E-1,3.7563958E-3,5.3730328E-2,-2.2446286E-2,4.550073E-2,-8.960896E-3,-5.6026485E-2],"split_indices":[1921,0,228,173,1616,0,1892,0,0,0,0],"split_type":[0,0,0,0,0,0,0,0,0,0,0],"sum_hessian":[3.407871E1,6.8641996E0,2.721451E1,1.5892634E1,1.1321875E1,4.1635823E0,1.1729053E1,5.757492E0,5.5643826E0,3.2168329E0,8.512219E0],"tree_param":{"num_deleted":"0","num_feature":"1930","num_nodes":"11","size_leaf_vector":"1"}},{"base_weights":[-2.2421652E-2,-3.9666256E-1,4.5828405E-1,-7.384154E-1,1.8253807E-2,8.268223E-1,-1.6778473E-2,-3.3194253E-3,-5.0974768E-2,4.6875705E-3,5.4699462E-2],"categories":[],"categories_nodes":[],"categories_segments":[],"categories_sizes":[],"default_left":[0,0,0,0,0,0,0,0,0,0,0],"id":26,"left_children":[1,3,5,7,-1,9,-1,-1,-1,-1,-1],"loss_changes":[6.6174803E0,5.9794245E0,5.297695E0,2.6043816E0,0E0,1.9519076E0,0E0,0E0,0E0,0E0,0E0],"parents":[2147483647,0,0,1,1,2,2,3,3,5,5],"right_children":[2,4,6,8,-1,10,-1,-1,-1,-1,-1],"split_conditions":[3.4343038E0,3.4745422E-1,1.3130026E-1,7.3373497E-1,1.8253807E-2,3.2502599E0,-1.6778473E-2,-3.3194253E-3,-5.0974768E-2,4.6875705E-3,5.4699462E-2],"split_indices":[618,1675,1758,430,0,999,0,0,0,0,0],"split_type":[0,0,0,0,0,0,0,0,0,0,0],"sum_hessian":[3.279757E1,1.8754463E1,1.4043107E1,1.3079074E1,5.67539E0,9.62002E0,4.423087E0,4.691187E0,8.387887E0,3.3911815E0,6.228839E0],"tree_param":{"num_deleted":"0","num_feature":"1930","num_nodes":"11","size_leaf_vector":"1"}},{"base_weights":[-3.8303107E-2,6.481821E-1,-3.481401E-1,4.986001E-2,-9.099142E-3,-7.882495E-1,2.7527028E-1,1.0135175E-2,-5.3659495E-2,-3.0439723E-2,7.590372E-1,5.1283844E-2,6.1917445E-3],"categories":[],"categories_nodes":[],"categories_segments":[],"categories_sizes":[],"default_left":[0,0,0,0,0,0,0,0,0,0,0,0,0],"id":27,"left_children":[1,3,5,-1,-1,7,9,-1,-1,-1,11,-1,-1],"loss_changes":[8.115312E0,3.877243E0,7.7081833E0,0E0,0E0,5.052106E0,6.1921988E0,0E0,0E0,0E0,1.1387091E0,0E0,0E0],"parents":[2147483647,0,0,1,1,2,2,5,5,6,6,10,10],"right_children":[2,4,6,-1,-1,8,10,-1,-1,-1,12,-1,-1],"split_conditions":[6.1746195E-2,4.968034E0,8.162428E-2,4.986001E-2,-9.099142E-3,2.4133387E0,4.049337E-1,1.0135175E-2,-5.3659495E-2,-3.0439723E-2,2.964769E-1,5.1283844E-2,6.1917445E-3],"split_indices":[1921,814,1721,0,0,714,333,0,0,0,1724,0,0],"split_type":[0,0,0,0,0,0,0,0,0,0,0,0,0],"sum_hessian":[3.4173267E1,9.84767E0,2.4325598E1,6.734425E0,3.1132445E0,1.4043135E1,1.0282463E1,3.1867313E0,1.0856403E1,3.380723E0,6.90174E0,3.88433E0,3.0174098E0],"tree_param":{"num_deleted":"0","num_feature":"1930","num_nodes":"13","size_leaf_vector":"1"}},{"base_weights":[7.369854E-2,-2.0406097E-1,7.6769304E-1,2.6447821E-2,-4.568451E-1,5.0246537E-2,5.747787E-3,-8.521234E-1,3.288982E-2,-7.1341186E-3,-5.3031057E-2,3.2929275E-2,-2.9423371E-2],"categories":[],"categories_nodes":[],"categories_segments":[],"categories_sizes":[],"default_left":[0,0,0,0,0,0,0,0,0,0,0,0,0],"id":28,"left_children":[1,3,5,-1,7,-1,-1,9,11,-1,-1,-1,-1],"loss_changes":[7.2515655E0,5.4741898E0,1.3181567E0,0E0,4.2480164E0,0E0,0E0,1.3425589E0,5.173576E0,0E0,0E0,0E0,0E0],"parents":[2147483647,0,0,1,1,2,2,4,4,7,7,8,8],"right_children":[2,4,6,-1,8,-1,-1,10,12,-1,-1,-1,-1],"split_conditions":[4.3011573E-1,4.789957E-1,3.8361871E0,2.6447821E-2,2.9831772E0,5.0246537E-2,5.747787E-3,2.5997788E-1,3.1722202E0,-7.1341186E-3,-5.3031057E-2,3.2929275E-2,-2.9423371E-2],"split_indices":[1833,497,843,0,796,0,0,7,905,0,0,0,0],"split_type":[0,0,0,0,0,0,0,0,0,0,0,0,0],"sum_hessian":[3.3701187E1,2.4973713E1,8.727474E0,5.742143E0,1.923157E1,5.4971895E0,3.2302847E0,9.936116E0,9.295453E0,3.1309483E0,6.805168E0,4.6520405E0,4.643413E0],"tree_param":{"num_deleted":"0","num_feature":"1930","num_nodes":"13","size_leaf_vector":"1"}},{"base_weights":[2.9033782E-2,3.8891748E-1,-5.9211785E-1,-1.5447451E-1,8.6776656E-1,8.011595E-3,-8.5624635E-1,-4.201181E-2,2.6095003E-2,5.2943088E-2,8.193143E-3,-1.2415636E-2,-5.1274326E-2],"categories":[],"categories_nodes":[],"categories_segments":[],"categories_sizes":[],"default_left":[0,0,0,0,0,0,0,0,0,0,0,0,0],"id":29,"left_children":[1,3,5,7,9,-1,11,-1,-1,-1,-1,-1,-1],"loss_changes":[8.596194E0,6.6909432E0,3.1409645E0,6.954588E0,1.3298988E0,0E0,4.777441E-1,0E0,0E0,0E0,0E0,0E0,0E0],"parents":[2147483647,0,0,1,1,2,2,3,3,4,4,6,6],"right_children":[2,4,6,8,10,-1,12,-1,-1,-1,-1,-1,-1],"split_conditions":[1.5416418E-1,3.070883E0,6.0475475E-1,4.7003934E-1,3.2632904E0,8.011595E-3,2.2791681E0,-4.201181E-2,2.6095003E-2,5.2943088E-2,8.193143E-3,-1.2415636E-2,-5.1274326E-2],"split_indices":[1627,630,191,7,653,0,708,0,0,0,0,0,0],"split_type":[0,0,0,0,0,0,0,0,0,0,0,0,0],"sum_hessian":[3.448501E1,2.2409883E1,1.2075125E1,1.10342865E1,1.1375597E1,3.2437265E0,8.831398E0,5.3119416E0,5.7223454E0,8.041807E0,3.3337898E0,3.12637E0,5.705028E0],"tree_param":{"num_deleted":"0","num_feature":"1930","num_nodes":"13","size_leaf_vector":"1"}},{"base_weights":[4.595617E-2,6.6638845E-1,-2.7690718E-1,-6.4038984E-3,4.793965E-2,2.6242277E-2,-6.054833E-1,1.0295141E-2,-9.255823E-1,-9.3505755E-3,-5.5275865E-2],"categories":[],"categories_nodes":[],"categories_segments":[],"categories_sizes":[],"default_left":[0,0,0,0,0,0,0,0,0,0,0],"id":30,"left_children":[1,3,5,-1,-1,-1,7,-1,9,-1,-1],"loss_changes":[7.3078036E0,3.228446E0,6.9561563E0,0E0,0E0,0E0,5.131723E0,0E0,1.2340546E0,0E0,0E0],"parents":[2147483647,0,0,1,1,2,2,6,6,8,8],"right_children":[2,4,6,-1,-1,-1,8,-1,10,-1,-1],"split_conditions":[2.285738E-1,4.7148764E-1,7.677548E-2,-6.4038984E-3,4.793965E-2,2.6242277E-2,2.1233234E0,1.0295141E-2,4.858061E-1,-9.3505755E-3,-5.5275865E-2],"split_indices":[1579,364,1851,0,0,0,959,0,376,0,0],"split_type":[0,0,0,0,0,0,0,0,0,0,0],"sum_hessian":[3.2444775E1,1.0482587E1,2.1962187E1,3.0305429E0,7.452044E0,5.9484563E0,1.6013731E1,4.643783E0,1.1369948E1,3.1352491E0,8.234699E0],"tree_param":{"num_deleted":"0","num_feature":"1930","num_nodes":"11","size_leaf_vector":"1"}},{"base_weights":[-9.219312E-2,4.0928334E-1,-4.9106276E-1,-3.083376E-2,8.0565166E-1,1.274356E-2,-7.6576275E-1,1.0632429E-3,5.1763583E-2,-9.604425E-1,2.1954475E-4,-5.5231404E-2,-1.4800943E-2],"categories":[],"categories_nodes":[],"categories_segments":[],"categories_sizes":[],"default_left":[0,0,0,0,0,0,0,0,0,0,0,0,0],"id":31,"left_children":[1,3,5,-1,7,-1,9,-1,-1,11,-1,-1,-1],"loss_changes":[7.466666E0,7.766616E0,4.6768136E0,0E0,2.17694E0,0E0,2.458581E0,0E0,0E0,4.1763687E-1,0E0,0E0,0E0],"parents":[2147483647,0,0,1,1,2,2,4,4,6,6,9,9],"right_children":[2,4,6,-1,8,-1,10,-1,-1,12,-1,-1,-1],"split_conditions":[2.7462597E0,2.637669E-2,7.512644E-2,-3.083376E-2,2.432848E0,1.274356E-2,3.6366796E0,1.0632429E-3,5.1763583E-2,1.6932319E-1,2.1954475E-4,-5.5231404E-2,-1.4800943E-2],"split_indices":[714,1899,1770,0,905,0,793,0,0,1789,0,0,0],"split_type":[0,0,0,0,0,0,0,0,0,0,0,0,0],"sum_hessian":[3.3278416E1,1.4608741E1,1.8669676E1,3.6910138E0,1.09177265E1,4.9657545E0,1.3703921E1,3.0657558E0,7.8519707E0,1.0648002E1,3.0559194E0,7.5368605E0,3.1111417E0],"tree_param":{"num_deleted":"0","num_feature":"1930","num_nodes":"13","size_leaf_vector":"1"}},{"base_weights":[5.8796942E-2,3.0829558E-1,-6.644455E-1,5.4728633E-1,-2.706337E-2,-3.9152447E-3,-4.6566788E-2,-1.6075136E-2,7.499919E-1,9.911377E-1,-0E0,1.0188375E-2,5.879996E-2],"categories":[],"categories_nodes":[],"categories_segments":[],"categories_sizes":[],"default_left":[0,0,0,0,0,0,0,0,0,0,0,0,0],"id":32,"left_children":[1,3,5,7,-1,-1,-1,-1,9,11,-1,-1,-1],"loss_changes":[6.47743E0,5.997296E0,1.1933885E0,4.374744E0,0E0,0E0,0E0,0E0,3.3379412E0,1.412324E0,0E0,0E0,0E0],"parents":[2147483647,0,0,1,1,2,2,3,3,8,8,9,9],"right_children":[2,4,6,8,-1,-1,-1,-1,10,12,-1,-1,-1],"split_conditions":[3.8279364E-1,3.6999292E0,1.003141E0,2.477222E0,-2.706337E-2,-3.9152447E-3,-4.6566788E-2,-1.6075136E-2,7.48158E-1,1.565872E-1,-0E0,1.0188375E-2,5.879996E-2],"split_indices":[1558,663,450,914,0,0,0,0,497,1798,0,0,0],"split_type":[0,0,0,0,0,0,0,0,0,0,0,0,0],"sum_hessian":[3.1823338E1,2.4616913E1,7.2064247E0,1.9859535E1,4.757378E0,3.1812618E0,4.0251627E0,3.4419618E0,1.6417574E1,1.1943653E1,4.473921E0,3.1732965E0,8.770356E0],"tree_param":{"num_deleted":"0","num_feature":"1930","num_nodes":"13","size_leaf_vector":"1"}},{"base_weights":[1.1726946E-1,-3.5488006E-2,2.9674676E-1,-8.609211E-2,8.4081036E-1,3.7775487E-2,-5.833182E-1,5.3709596E-2,2.7209877E-3,7.2611175E-3,-4.5076165E-2],"categories":[],"categories_nodes":[],"categories_segments":[],"categories_sizes":[],"default_left":[0,0,0,0,0,0,0,0,0,0,0],"id":33,"left_children":[1,-1,3,5,7,-1,9,-1,-1,-1,-1],"loss_changes":[5.412839E0,0E0,6.3377705E0,8.792405E0,2.0504856E0,0E0,3.3773746E0,0E0,0E0,0E0,0E0],"parents":[2147483647,0,0,2,2,3,3,4,4,6,6],"right_children":[2,-1,4,6,8,-1,10,-1,-1,-1,-1],"split_conditions":[3.8781056E-1,-3.5488006E-2,7.978884E-2,2.7223825E0,3.7742496E-1,3.7775487E-2,7.884772E-2,5.3709596E-2,2.7209877E-3,7.2611175E-3,-4.5076165E-2],"split_indices":[484,0,1721,607,1626,0,1902,0,0,0,0],"split_type":[0,0,0,0,0,0,0,0,0,0,0],"sum_hessian":[3.190689E1,4.5364785E0,2.7370413E1,1.694589E1,1.0424521E1,5.8329916E0,1.11129E1,7.376298E0,3.0482235E0,3.6132433E0,7.4996557E0],"tree_param":{"num_deleted":"0","num_feature":"1930","num_nodes":"11","size_leaf_vector":"1"}},{"base_weights":[-4.5740314E-2,2.67946E-1,-5.7221836E-1,5.579615E-1,-2.132214E-2,7.740105E-3,-4.533629E-2,-1.3038895E-2,8.589625E-1,5.5033248E-2,5.679166E-3],"categories":[],"categories_nodes":[],"categories_segments":[],"categories_sizes":[],"default_left":[0,0,0,0,0,0,0,0,0,0,0],"id":34,"left_children":[1,3,5,7,-1,-1,-1,-1,9,-1,-1],"loss_changes":[5.969211E0,5.0430293E0,3.6365538E0,4.6774445E0,0E0,0E0,0E0,0E0,1.957344E0,0E0,0E0],"parents":[2147483647,0,0,1,1,2,2,3,3,8,8],"right_children":[2,4,6,8,-1,-1,-1,-1,10,-1,-1],"split_conditions":[1.5688102E-1,9.474647E-2,9.663896E-2,7.025732E-2,-2.132214E-2,7.740105E-3,-4.533629E-2,-1.3038895E-2,1.1070373E0,5.5033248E-2,5.679166E-3],"split_indices":[1917,1704,1781,1556,0,0,0,0,61,0,0],"split_type":[0,0,0,0,0,0,0,0,0,0,0],"sum_hessian":[3.210337E1,2.0613565E1,1.1489803E1,1.4919361E1,5.694205E0,3.8650281E0,7.6247754E0,3.9930573E0,1.0926304E1,7.4296455E0,3.496658E0],"tree_param":{"num_deleted":"0","num_feature":"1930","num_nodes":"11","size_leaf_vector":"1"}},{"base_weights":[2.0591531E-2,6.0014576E-1,-3.0031526E-1,4.3118153E-2,-5.8979685E-3,-6.604207E-1,2.739802E-1,-8.906113E-1,3.560897E-3,-2.086166E-2,3.736981E-2,-5.2328944E-2,-1.3228156E-2],"categories":[],"categories_nodes":[],"categories_segments":[],"categories_sizes":[],"default_left":[0,0,0,0,0,0,0,0,0,0,0,0,0],"id":35,"left_children":[1,3,5,-1,-1,7,9,11,-1,-1,-1,-1,-1],"loss_changes":[6.5191374E0,2.6357527E0,5.0394344E0,0E0,0E0,2.6474462E0,3.9130352E0,4.152155E-1,0E0,0E0,0E0,0E0,0E0],"parents":[2147483647,0,0,1,1,2,2,5,5,6,6,7,7],"right_children":[2,4,6,-1,-1,8,10,12,-1,-1,-1,-1,-1],"split_conditions":[7.051775E-2,2.8973184E0,8.162428E-2,4.3118153E-2,-5.8979685E-3,4.2886333E0,4.7687113E-1,3.097843E0,3.560897E-3,-2.086166E-2,3.736981E-2,-5.2328944E-2,-1.3228156E-2],"split_indices":[1704,951,1721,0,0,659,333,718,0,0,0,0,0],"split_type":[0,0,0,0,0,0,0,0,0,0,0,0,0],"sum_hessian":[3.095297E1,1.0521877E1,2.0431093E1,7.5151787E0,3.006699E0,1.2479903E1,7.9511895E0,9.266546E0,3.2133574E0,3.242736E0,4.7084537E0,6.215019E0,3.0515265E0],"tree_param":{"num_deleted":"0","num_feature":"1930","num_nodes":"13","size_leaf_vector":"1"}},{"base_weights":[-3.924116E-2,-2.9110187E-1,6.253672E-1,2.837005E-1,-6.248557E-1,4.4527497E-2,1.4479324E-3,-1.7517997E-2,4.3503497E-2,6.2039746E-3,-9.306432E-1,-5.4785457E-2,-1.2345682E-2],"categories":[],"categories_nodes":[],"categories_segments":[],"categories_sizes":[],"default_left":[0,0,0,0,0,0,0,0,0,0,0,0,0],"id":36,"left_children":[1,3,5,7,9,-1,-1,-1,-1,-1,11,-1,-1],"loss_changes":[5.791962E0,5.2104287E0,1.3577671E0,4.5648413E0,4.121434E0,0E0,0E0,0E0,0E0,0E0,6.9508076E-1,0E0,0E0],"parents":[2147483647,0,0,1,1,2,2,3,3,4,4,10,10],"right_children":[2,4,6,8,10,-1,-1,-1,-1,-1,12,-1,-1],"split_conditions":[4.2849556E-1,9.7430736E-2,2.557424E-3,2.219474E-5,5.9969854E-1,4.4527497E-2,1.4479324E-3,-1.7517997E-2,4.3503497E-2,6.2039746E-3,1.2550135E-1,-5.4785457E-2,-1.2345682E-2],"split_indices":[1833,1781,1473,1294,202,0,0,0,0,0,1845,0,0],"split_type":[0,0,0,0,0,0,0,0,0,0,0,0,0],"sum_hessian":[3.0626432E1,2.3134E1,7.492431E0,8.498283E0,1.4635718E1,4.3875422E0,3.1048892E0,4.3879232E0,4.11036E0,4.492969E0,1.0142749E1,7.0817285E0,3.0610204E0],"tree_param":{"num_deleted":"0","num_feature":"1930","num_nodes":"13","size_leaf_vector":"1"}},{"base_weights":[1.0757059E-2,-3.7911132E-2,1.9765761E-1,4.254195E-1,-2.8000994E-2,7.500216E-1,-9.770295E-2,5.131514E-2,-1.0877736E-3,-2.4668785E-2,2.3149312E-2],"categories":[],"categories_nodes":[],"categories_segments":[],"categories_sizes":[],"default_left":[0,0,0,0,0,0,0,0,0,0,0],"id":37,"left_children":[1,-1,3,5,-1,7,9,-1,-1,-1,-1],"loss_changes":[4.8311877E0,0E0,5.186121E0,3.9953299E0,0E0,3.1512194E0,2.7190552E0,0E0,0E0,0E0,0E0],"parents":[2147483647,0,0,2,2,3,3,5,5,6,6],"right_children":[2,-1,4,6,-1,8,10,-1,-1,-1,-1],"split_conditions":[3.8781056E-1,-3.7911132E-2,7.2879493E-1,3.7857223E0,-2.8000994E-2,2.3384798E-1,4.705175E0,5.131514E-2,-1.0877736E-3,-2.4668785E-2,2.3149312E-2],"split_indices":[484,0,19,941,0,1646,869,0,0,0,0],"split_type":[0,0,0,0,0,0,0,0,0,0,0],"sum_hessian":[2.9919147E1,4.5500064E0,2.536914E1,2.0281454E1,5.0876875E0,1.2098135E1,8.183319E0,8.518621E0,3.579513E0,5.042992E0,3.1403272E0],"tree_param":{"num_deleted":"0","num_feature":"1930","num_nodes":"11","size_leaf_vector":"1"}},{"base_weights":[3.6229324E-3,-6.596095E-1,2.370539E-1,-4.504985E-2,-5.215227E-3,-3.6766004E-2,4.454466E-1,8.5393167E-1,-1.1665506E-1,5.251598E-2,4.274072E-3,-2.5714053E-2,2.3340244E-2],"categories":[],"categories_nodes":[],"categories_segments":[],"categories_sizes":[],"default_left":[0,0,0,0,0,0,0,0,0,0,0,0,0],"id":38,"left_children":[1,3,5,-1,-1,-1,7,9,11,-1,-1,-1,-1],"loss_changes":[5.369181E0,9.166825E-1,5.8829813E0,0E0,0E0,0E0,5.483758E0,1.7421436E0,3.0850651E0,0E0,0E0,0E0,0E0],"parents":[2147483647,0,0,1,1,2,2,6,6,7,7,8,8],"right_children":[2,4,6,-1,-1,-1,8,10,12,-1,-1,-1,-1],"split_conditions":[5.835773E-1,1.5490317E-1,3.800312E-1,-4.504985E-2,-5.215227E-3,-3.6766004E-2,2.9325602E0,5.4649734E0,5.20508E-2,5.251598E-2,4.274072E-3,-2.5714053E-2,2.3340244E-2],"split_indices":[131,1700,484,0,0,0,910,694,1854,0,0,0,0],"split_type":[0,0,0,0,0,0,0,0,0,0,0,0,0],"sum_hessian":[3.0933369E1,6.990861E0,2.3942509E1,3.8793838E0,3.1114774E0,3.248389E0,2.0694118E1,1.1486391E1,9.207728E0,8.460467E0,3.0259235E0,5.7188654E0,3.488863E0],"tree_param":{"num_deleted":"0","num_feature":"1930","num_nodes":"13","size_leaf_vector":"1"}},{"base_weights":[3.2978377E-3,4.7154447E-1,-4.186769E-1,4.310489E-2,-1.0230856E-2,-7.048946E-1,1.6537365E-2,-4.590978E-2,-9.2169736E-4],"categories":[],"categories_nodes":[],"categories_segments":[],"categories_sizes":[],"default_left":[0,0,0,0,0,0,0,0,0],"id":39,"left_children":[1,3,5,-1,-1,7,-1,-1,-1],"loss_changes":[6.157932E0,4.344267E0,3.9945695E0,0E0,0E0,1.7045403E0,0E0,0E0,0E0],"parents":[2147483647,0,0,1,1,2,2,5,5],"right_children":[2,4,6,-1,-1,8,-1,-1,-1],"split_conditions":[1.0485128E-1,2.3139956E0,4.3430443E0,4.310489E-2,-1.0230856E-2,3.9050314E-1,1.6537365E-2,-4.590978E-2,-9.2169736E-4],"split_indices":[1623,827,672,0,0,1605,0,0,0],"split_type":[0,0,0,0,0,0,0,0,0],"sum_hessian":[2.7140375E1,1.2865804E1,1.4274571E1,7.9004145E0,4.9653893E0,1.0512097E1,3.7624743E0,7.3938155E0,3.1182816E0],"tree_param":{"num_deleted":"0","num_feature":"1930","num_nodes":"9","size_leaf_vector":"1"}},{"base_weights":[5.220838E-2,-5.1425374E-1,3.1789896E-1,-4.1630983E-2,4.5389817E-3,4.1042257E-2,-0E0,-3.040961E-2,3.8440818E-1,3.7031513E-2,-4.8141726E-3],"categories":[],"categories_nodes":[],"categories_segments":[],"categories_sizes":[],"default_left":[0,0,0,0,0,0,0,0,0,0,0],"id":40,"left_children":[1,3,5,-1,-1,-1,7,-1,9,-1,-1],"loss_changes":[5.0437393E0,2.2848253E0,3.6499758E0,0E0,0E0,0E0,4.1976156E0,0E0,2.0881484E0,0E0,0E0],"parents":[2147483647,0,0,1,1,2,2,6,6,8,8],"right_children":[2,4,6,-1,-1,-1,8,-1,10,-1,-1],"split_conditions":[2.5402347E-2,8.116684E-2,2.288094E0,-4.1630983E-2,4.5389817E-3,4.1042257E-2,6.229475E-1,-3.040961E-2,3.3949456E0,3.7031513E-2,-4.8141726E-3],"split_indices":[1899,1721,520,0,0,0,402,0,536,0,0],"split_type":[0,0,0,0,0,0,0,0,0,0,0],"sum_hessian":[2.947042E1,8.691779E0,2.0778643E1,5.310426E0,3.381353E0,6.833626E0,1.3945016E1,4.95944E0,8.985577E0,4.6592784E0,4.3262978E0],"tree_param":{"num_deleted":"0","num_feature":"1930","num_nodes":"11","size_leaf_vector":"1"}},{"base_weights":[2.2211775E-2,6.610556E-1,-2.0486721E-1,8.587147E-3,4.207113E-2,2.5132114E-2,-4.8093417E-1,-6.8211913E-1,1.4061025E-2,-8.820943E-1,2.873702E-3,-1.4070838E-2,-5.0487198E-2],"categories":[],"categories_nodes":[],"categories_segments":[],"categories_sizes":[],"default_left":[0,0,0,0,0,0,0,0,0,0,0,0,0],"id":41,"left_children":[1,3,5,-1,-1,-1,7,9,-1,11,-1,-1,-1],"loss_changes":[4.894097E0,3.919325E-1,5.304024E0,0E0,0E0,0E0,3.319428E0,2.4953241E0,0E0,2.633953E-1,0E0,0E0,0E0],"parents":[2147483647,0,0,1,1,2,2,6,6,7,7,9,9],"right_children":[2,4,6,-1,-1,-1,8,10,-1,12,-1,-1,-1],"split_conditions":[2.6540732E0,4.484933E-1,2.6904023E0,8.587147E-3,4.207113E-2,2.5132114E-2,7.2193414E-2,8.317133E-2,1.4061025E-2,2.4599457E0,2.873702E-3,-1.4070838E-2,-5.0487198E-2],"split_indices":[607,55,980,0,0,0,1926,1773,0,716,0,0,0],"split_type":[0,0,0,0,0,0,0,0,0,0,0,0,0],"sum_hessian":[2.9554996E1,6.8636203E0,2.2691378E1,3.0495024E0,3.814118E0,5.8065534E0,1.6884825E1,1.3628547E1,3.2562776E0,1.0530981E1,3.097565E0,3.106308E0,7.4246736E0],"tree_param":{"num_deleted":"0","num_feature":"1930","num_nodes":"13","size_leaf_vector":"1"}},{"base_weights":[-9.862625E-2,2.701577E-1,-5.761313E-1,5.740885E-1,-2.3545798E-2,-7.777891E-1,4.6136007E-3,4.4894043E-2,-6.241347E-3,-4.9195673E-2,-5.041163E-3],"categories":[],"categories_nodes":[],"categories_segments":[],"categories_sizes":[],"default_left":[0,0,0,0,0,0,0,0,0,0,0],"id":42,"left_children":[1,3,5,7,-1,9,-1,-1,-1,-1,-1],"loss_changes":[5.888451E0,4.833915E0,2.1641102E0,3.578745E0,0E0,1.2912016E0,0E0,0E0,0E0,0E0,0E0],"parents":[2147483647,0,0,1,1,2,2,3,3,5,5],"right_children":[2,4,6,8,-1,10,-1,-1,-1,-1,-1],"split_conditions":[5.15378E-1,1.776028E-1,1.9105305E-3,5.5570096E-1,-2.3545798E-2,2.6522827E-1,4.6136007E-3,4.4894043E-2,-6.241347E-3,-4.9195673E-2,-5.041163E-3],"split_indices":[397,1810,1165,125,0,1794,0,0,0,0,0],"split_type":[0,0,0,0,0,0,0,0,0,0,0],"sum_hessian":[2.9497337E1,1.7015253E1,1.2482083E1,1.248179E1,4.533464E0,9.452547E0,3.029536E0,8.238702E0,4.2430873E0,6.4377985E0,3.014749E0],"tree_param":{"num_deleted":"0","num_feature":"1930","num_nodes":"11","size_leaf_vector":"1"}},{"base_weights":[-4.6117425E-2,-4.6809435E-1,3.7007222E-1,1.3074492E-1,-4.9329262E-2,7.1387625E-1,-1.8214645E-2,-2.3422295E-2,3.3636224E-2,4.9269985E-2,-0E0],"categories":[],"categories_nodes":[],"categories_segments":[],"categories_sizes":[],"default_left":[0,0,0,0,0,0,0,0,0,0,0],"id":43,"left_children":[1,3,5,7,-1,9,-1,-1,-1,-1,-1],"loss_changes":[5.4376774E0,5.115636E0,4.484745E0,3.511261E0,0E0,2.2191882E0,0E0,0E0,0E0,0E0,0E0],"parents":[2147483647,0,0,1,1,2,2,3,3,5,5],"right_children":[2,4,6,8,-1,10,-1,-1,-1,-1,-1],"split_conditions":[5.7105696E-1,6.535799E-1,8.5760795E-2,2.5605943E-2,-4.9329262E-2,1.0453205E-2,-1.8214645E-2,-2.3422295E-2,3.3636224E-2,4.9269985E-2,-0E0],"split_indices":[364,168,1685,1899,0,1195,0,0,0,0,0],"split_type":[0,0,0,0,0,0,0,0,0,0,0],"sum_hessian":[2.6933762E1,1.3369351E1,1.3564411E1,6.808532E0,6.560819E0,9.36978E0,4.1946316E0,3.2748415E0,3.5336907E0,6.252671E0,3.1171093E0],"tree_param":{"num_deleted":"0","num_feature":"1930","num_nodes":"11","size_leaf_vector":"1"}},{"base_weights":[-1.4598918E-2,5.859819E-1,-2.9830217E-1,4.479837E-2,-2.2608475E-3,-6.5489095E-1,1.5682004E-1,3.7376434E-3,-4.6193104E-2,-2.5786558E-2,3.4818336E-2],"categories":[],"categories_nodes":[],"categories_segments":[],"categories_sizes":[],"default_left":[0,0,0,0,0,0,0,0,0,0,0],"id":44,"left_children":[1,3,5,-1,-1,7,9,-1,-1,-1,-1],"loss_changes":[5.2269125E0,2.0834858E0,3.6624098E0,0E0,0E0,2.6332207E0,4.623916E0,0E0,0E0,0E0,0E0],"parents":[2147483647,0,0,1,1,2,2,5,5,6,6],"right_children":[2,4,6,-1,-1,8,10,-1,-1,-1,-1],"split_conditions":[6.1733842E-2,3.5454707E0,8.162428E-2,4.479837E-2,-2.2608475E-3,5.5558186E-2,3.247358E-1,3.7376434E-3,-4.6193104E-2,-2.5786558E-2,3.4818336E-2],"split_indices":[1921,987,1721,0,0,1922,1558,0,0,0,0],"split_type":[0,0,0,0,0,0,0,0,0,0,0],"sum_hessian":[2.6793795E1,7.7994504E0,1.8994345E1,4.7742686E0,3.0251818E0,1.0281013E1,8.713332E0,3.057967E0,7.2230453E0,3.8354006E0,4.877932E0],"tree_param":{"num_deleted":"0","num_feature":"1930","num_nodes":"11","size_leaf_vector":"1"}},{"base_weights":[7.878473E-3,4.453521E-1,-3.1490228E-1,-9.59467E-3,7.189139E-1,9.0228744E-2,-4.020379E-2,4.4608813E-2,9.175084E-3,-1.9901963E-2,2.8834486E-2],"categories":[],"categories_nodes":[],"categories_segments":[],"categories_sizes":[],"default_left":[0,0,0,0,0,0,0,0,0,0,0],"id":45,"left_children":[1,3,5,-1,7,9,-1,-1,-1,-1,-1],"loss_changes":[4.320813E0,2.606836E0,3.6750038E0,0E0,4.62492E-1,3.1448472E0,0E0,0E0,0E0,0E0,0E0],"parents":[2147483647,0,0,1,1,2,2,4,4,5,5],"right_children":[2,4,6,-1,8,10,-1,-1,-1,-1,-1],"split_conditions":[6.8192214E-2,3.559114E-1,3.7879455E0,-9.59467E-3,8.337844E-1,3.7503648E0,-4.020379E-2,4.4608813E-2,9.175084E-3,-1.9901963E-2,2.8834486E-2],"split_indices":[1830,1833,943,0,436,1019,0,0,0,0,0],"split_type":[0,0,0,0,0,0,0,0,0,0,0],"sum_hessian":[2.652021E1,1.1068757E1,1.5451454E1,3.3940501E0,7.6747065E0,9.232125E0,6.219329E0,4.6503763E0,3.02433E0,4.6863413E0,4.5457845E0],"tree_param":{"num_deleted":"0","num_feature":"1930","num_nodes":"11","size_leaf_vector":"1"}},{"base_weights":[-3.0183824E-2,5.684561E-1,-2.4931127E-1,3.9731752E-2,3.5140556E-3,1.5978968E-1,-7.234449E-1,-2.7990413E-1,3.1950217E-2,-9.891273E-3,-4.6861086E-2,-3.5213158E-2,1.0569091E-2],"categories":[],"categories_nodes":[],"categories_segments":[],"categories_sizes":[],"default_left":[0,0,0,0,0,0,0,0,0,0,0,0,0],"id":46,"left_children":[1,3,5,-1,-1,7,9,11,-1,-1,-1,-1,-1],"loss_changes":[4.234977E0,7.735858E-1,4.8928003E0,0E0,0E0,3.400453E0,8.047457E-1,2.1657956E0,0E0,0E0,0E0,0E0,0E0],"parents":[2147483647,0,0,1,1,2,2,5,5,6,6,7,7],"right_children":[2,4,6,-1,-1,8,10,12,-1,-1,-1,-1,-1],"split_conditions":[5.8423575E-2,6.8120635E-1,3.0343983E0,3.9731752E-2,3.5140556E-3,3.2729468E-1,8.1901133E-1,4.780084E0,3.1950217E-2,-9.891273E-3,-4.6861086E-2,-3.5213158E-2,1.0569091E-2],"split_indices":[1921,249,680,0,0,1598,280,602,0,0,0,0,0],"split_type":[0,0,0,0,0,0,0,0,0,0,0,0,0],"sum_hessian":[2.8366627E1,6.6244383E0,2.174219E1,3.5993578E0,3.0250802E0,1.2270116E1,9.472074E0,6.723891E0,5.5462255E0,3.9871914E0,5.484882E0,3.2516956E0,3.4721951E0],"tree_param":{"num_deleted":"0","num_feature":"1930","num_nodes":"13","size_leaf_vector":"1"}},{"base_weights":[1.2902653E-1,4.4267997E-1,-3.0525815E-1,-2.3470838E-2,7.060392E-1,-7.178221E-1,2.7199483E-2,5.1518362E-2,-5.009993E-3,-8.626814E-3,-4.4702165E-2],"categories":[],"categories_nodes":[],"categories_segments":[],"categories_sizes":[],"default_left":[0,0,0,0,0,0,0,0,0,0,0],"id":47,"left_children":[1,3,5,-1,7,9,-1,-1,-1,-1,-1],"loss_changes":[4.2537007E0,4.9794273E0,5.4482174E0,0E0,4.156744E0,5.3359556E-1,0E0,0E0,0E0,0E0,0E0],"parents":[2147483647,0,0,1,1,2,2,4,4,5,5],"right_children":[2,4,6,-1,8,10,-1,-1,-1,-1,-1],"split_conditions":[3.7916918E0,4.3294725E-1,6.0547058E-2,-2.3470838E-2,1.8133905E-2,2.946638E0,2.7199483E-2,5.1518362E-2,-5.009993E-3,-8.626814E-3,-4.4702165E-2],"split_indices":[943,402,1320,0,1490,872,0,0,0,0,0],"split_type":[0,0,0,0,0,0,0,0,0,0,0],"sum_hessian":[2.7142885E1,1.5871566E1,1.127132E1,3.1203277E0,1.2751238E1,7.873596E0,3.3977244E0,8.785227E0,3.9660108E0,3.028397E0,4.845199E0],"tree_param":{"num_deleted":"0","num_feature":"1930","num_nodes":"11","size_leaf_vector":"1"}},{"base_weights":[1.416859E-2,-3.0917102E-1,6.453162E-1,-0E0,-4.0618178E-2,4.3614794E-2,2.0625934E-3,2.7299518E-2,-4.579194E-1,3.402254E-3,-4.2629983E-2],"categories":[],"categories_nodes":[],"categories_segments":[],"categories_sizes":[],"default_left":[0,0,0,0,0,0,0,0,0,0,0],"id":48,"left_children":[1,3,5,7,-1,-1,-1,-1,9,-1,-1],"loss_changes":[6.2008524E0,3.1324153E0,1.2527018E0,4.0794373E0,0E0,0E0,0E0,0E0,2.0272956E0,0E0,0E0],"parents":[2147483647,0,0,1,1,2,2,3,3,8,8],"right_children":[2,4,6,8,-1,-1,-1,-1,10,-1,-1],"split_conditions":[7.892077E-1,3.1605198E0,1.171604E-3,2.9449735E0,-4.0618178E-2,4.3614794E-2,2.0625934E-3,2.7299518E-2,7.9072756E-4,3.402254E-3,-4.2629983E-2],"split_indices":[106,848,1073,890,0,0,0,0,1274,0,0],"split_type":[0,0,0,0,0,0,0,0,0,0,0],"sum_hessian":[2.6265152E1,1.7937527E1,8.327624E0,1.2303167E1,5.634361E0,5.2872744E0,3.0403497E0,5.4740853E0,6.8290815E0,3.528586E0,3.3004954E0],"tree_param":{"num_deleted":"0","num_feature":"1930","num_nodes":"11","size_leaf_vector":"1"}},{"base_weights":[1.4038738E-2,-5.2680665E-1,2.6129127E-1,-0E0,-4.0529262E-2,6.2319136E-1,-2.0963697E-1,-4.158518E-3,4.4516537E-2,-3.5946023E-2,2.5794039E-2],"categories":[],"categories_nodes":[],"categories_segments":[],"categories_sizes":[],"default_left":[0,0,0,0,0,0,0,0,0,0,0],"id":49,"left_children":[1,3,5,-1,-1,7,9,-1,-1,-1,-1],"loss_changes":[4.1622887E0,1.5018647E0,3.975001E0,0E0,0E0,2.6456103E0,4.7303967E0,0E0,0E0,0E0,0E0],"parents":[2147483647,0,0,1,1,2,2,5,5,6,6],"right_children":[2,4,6,-1,-1,8,10,-1,-1,-1,-1],"split_conditions":[1.20549984E-1,3.1945863E0,1.1574059E0,-0E0,-4.0529262E-2,1.0200258E-1,3.4582388E-1,-4.158518E-3,4.4516537E-2,-3.5946023E-2,2.5794039E-2],"split_indices":[1666,799,455,0,0,1920,1675,0,0,0,0],"split_type":[0,0,0,0,0,0,0,0,0,0,0],"sum_hessian":[2.72655E1,7.717766E0,1.9547733E1,3.3273838E0,4.3903823E0,1.0807814E1,8.73992E0,3.241014E0,7.5668E0,5.226883E0,3.513037E0],"tree_param":{"num_deleted":"0","num_feature":"1930","num_nodes":"11","size_leaf_vector":"1"}},{"base_weights":[-1.7905513E-2,3.1975296E-1,-4.936335E-1,5.753053E-1,-1.4122063E-2,-3.8581427E-2,7.461339E-3,4.1392177E-2,-4.6953047E-3],"categories":[],"categories_nodes":[],"categories_segments":[],"categories_sizes":[],"default_left":[0,0,0,0,0,0,0,0,0],"id":50,"left_children":[1,3,5,7,-1,-1,-1,-1,-1],"loss_changes":[4.913104E0,3.0884552E0,2.5702891E0,2.4679203E0,0E0,0E0,0E0,0E0,0E0],"parents":[2147483647,0,0,1,1,2,2,3,3],"right_children":[2,4,6,8,-1,-1,-1,-1,-1],"split_conditions":[5.4254025E-1,1.2342515E0,1.4016504E0,3.4784956E0,-1.4122063E-2,-3.8581427E-2,7.461339E-3,4.1392177E-2,-4.6953047E-3],"split_indices":[125,469,421,656,0,0,0,0,0],"split_type":[0,0,0,0,0,0,0,0,0],"sum_hessian":[2.651231E1,1.5766919E1,1.0745392E1,1.124869E1,4.518229E0,7.330412E0,3.4149795E0,7.9310985E0,3.3175912E0],"tree_param":{"num_deleted":"0","num_feature":"1930","num_nodes":"9","size_leaf_vector":"1"}},{"base_weights":[3.3046253E-2,-3.2640654E-1,4.1056943E-1,-4.2051014E-2,1.4692426E-1,-1.6661622E-2,7.198572E-1,3.154288E-2,-1.8337624E-2,4.500405E-2,1.0032874E-2],"categories":[],"categories_nodes":[],"categories_segments":[],"categories_sizes":[],"default_left":[0,0,0,0,0,0,0,0,0,0,0],"id":51,"left_children":[1,3,5,-1,7,-1,9,-1,-1,-1,-1],"loss_changes":[4.202041E0,4.164472E0,3.9992697E0,0E0,2.9327462E0,0E0,5.968218E-1,0E0,0E0,0E0,0E0],"parents":[2147483647,0,0,1,1,2,2,4,4,6,6],"right_children":[2,4,6,-1,8,-1,10,-1,-1,-1,-1],"split_conditions":[5.7429373E-1,9.404737E-1,5.8375144E-1,-4.2051014E-2,2.5588658E0,-1.6661622E-2,3.2939978E0,3.154288E-2,-1.8337624E-2,4.500405E-2,1.0032874E-2],"split_indices":[364,423,358,0,1009,0,901,0,0,0,0],"split_type":[0,0,0,0,0,0,0,0,0,0,0],"sum_hessian":[2.692814E1,1.3797235E1,1.3130905E1,5.967215E0,7.83002E0,3.7160554E0,9.414849E0,3.897051E0,3.9329686E0,5.7567773E0,3.6580725E0],"tree_param":{"num_deleted":"0","num_feature":"1930","num_nodes":"11","size_leaf_vector":"1"}},{"base_weights":[-1.0585343E-2,-2.8264958E-1,4.4305772E-1,2.2833964E-2,-4.9170402E-1,-1.1234715E-2,4.2493187E-2,3.7739493E-3,-7.797165E-1,-4.736123E-2,-1.0588194E-2],"categories":[],"categories_nodes":[],"categories_segments":[],"categories_sizes":[],"default_left":[0,0,0,0,0,0,0,0,0,0,0],"id":52,"left_children":[1,3,5,-1,7,-1,-1,-1,9,-1,-1],"loss_changes":[3.6489413E0,3.3355956E0,3.4360592E0,0E0,2.738063E0,0E0,0E0,0E0,4.957614E-1,0E0,0E0],"parents":[2147483647,0,0,1,1,2,2,4,4,8,8],"right_children":[2,4,6,-1,8,-1,-1,-1,10,-1,-1],"split_conditions":[3.4745422E-1,3.7900132E-1,5.460049E-1,2.2833964E-2,9.990842E-1,-1.1234715E-2,4.2493187E-2,3.7739493E-3,1.2458229E0,-4.736123E-2,-1.0588194E-2],"split_indices":[1675,439,364,0,277,0,0,0,451,0,0],"split_type":[0,0,0,0,0,0,0,0,0,0,0],"sum_hessian":[2.5665861E1,1.6652893E1,9.012967E0,3.0431917E0,1.3609702E1,3.658018E0,5.354949E0,4.9635797E0,8.646123E0,5.509532E0,3.1365907E0],"tree_param":{"num_deleted":"0","num_feature":"1930","num_nodes":"11","size_leaf_vector":"1"}},{"base_weights":[-4.9634278E-2,-2.8589275E-1,3.0260488E-2,-7.186306E-1,1.9108406E-1,-3.8105894E-3,-4.5850072E-2,-2.1545699E-2,3.1818677E-2],"categories":[],"categories_nodes":[],"categories_segments":[],"categories_sizes":[],"default_left":[0,0,0,0,0,0,0,0,0],"id":53,"left_children":[1,3,-1,5,7,-1,-1,-1,-1],"loss_changes":[4.4599E0,4.695485E0,0E0,1.2424774E0,3.7643087E0,0E0,0E0,0E0,0E0],"parents":[2147483647,0,0,1,1,3,3,4,4],"right_children":[2,4,-1,6,8,-1,-1,-1,-1],"split_conditions":[1.0167775E0,8.162428E-2,3.0260488E-2,8.007306E-2,2.8993905E0,-3.8105894E-3,-4.5850072E-2,-2.1545699E-2,3.1818677E-2],"split_indices":[147,1721,0,1902,922,0,0,0,0],"split_type":[0,0,0,0,0,0,0,0,0],"sum_hessian":[2.479669E1,1.916263E1,5.63406E0,9.625899E0,9.53673E0,3.0431664E0,6.582733E0,3.9121196E0,5.6246104E0],"tree_param":{"num_deleted":"0","num_feature":"1930","num_nodes":"9","size_leaf_vector":"1"}},{"base_weights":[-5.2267224E-2,-3.5986148E-2,1.29486E-1,4.0278554E-1,-4.0039137E-1,7.0576113E-1,-8.905476E-3,6.0240803E-3,-3.623021E-2,5.865041E-3,4.3817382E-2],"categories":[],"categories_nodes":[],"categories_segments":[],"categories_sizes":[],"default_left":[0,0,0,0,0,0,0,0,0,0,0],"id":54,"left_children":[1,-1,3,5,7,9,-1,-1,-1,-1,-1],"loss_changes":[3.6639967E0,0E0,3.7586787E0,3.256388E0,1.7467413E0,8.5351515E-1,0E0,0E0,0E0,0E0,0E0],"parents":[2147483647,0,0,2,2,3,3,4,4,5,5],"right_children":[2,-1,4,6,8,10,-1,-1,-1,-1,-1],"split_conditions":[4.153694E-1,-3.5986148E-2,4.1299033E0,5.363022E-1,4.9445477E0,5.247923E-1,-8.905476E-3,6.0240803E-3,-3.623021E-2,5.865041E-3,4.3817382E-2],"split_indices":[402,0,568,397,548,422,0,0,0,0,0],"split_type":[0,0,0,0,0,0,0,0,0,0,0],"sum_hessian":[2.6180054E1,4.4539924E0,2.1726063E1,1.4774244E1,6.9518175E0,9.540483E0,5.233761E0,3.0308528E0,3.9209645E0,3.0344012E0,6.5060825E0],"tree_param":{"num_deleted":"0","num_feature":"1930","num_nodes":"11","size_leaf_vector":"1"}},{"base_weights":[1.9514484E-2,5.121283E-1,-2.4506944E-1,4.1480303E-2,-2.1488238E-3,1.05931774E-1,-3.6002044E-2,4.5486182E-1,-2.2909703E-2,-0E0,3.857276E-2],"categories":[],"categories_nodes":[],"categories_segments":[],"categories_sizes":[],"default_left":[0,0,0,0,0,0,0,0,0,0,0],"id":55,"left_children":[1,3,5,-1,-1,7,-1,9,-1,-1,-1],"loss_changes":[3.7147956E0,1.9112303E0,3.2776327E0,0E0,0E0,2.815947E0,0E0,1.3002644E0,0E0,0E0,0E0],"parents":[2147483647,0,0,1,1,2,2,5,5,7,7],"right_children":[2,4,6,-1,-1,8,-1,10,-1,-1,-1],"split_conditions":[1.8309163E0,7.307411E-2,9.3662034E-5,4.1480303E-2,-2.1488238E-3,2.8978484E0,-3.6002044E-2,9.736082E-2,-2.2909703E-2,-0E0,3.857276E-2],"split_indices":[759,1830,1423,0,0,531,0,1827,0,0,0],"split_type":[0,0,0,0,0,0,0,0,0,0,0],"sum_hessian":[2.437054E1,7.993902E0,1.6376638E1,4.5708575E0,3.4230444E0,1.0189823E1,6.186816E0,6.644577E0,3.545246E0,3.454529E0,3.1900477E0],"tree_param":{"num_deleted":"0","num_feature":"1930","num_nodes":"11","size_leaf_vector":"1"}},{"base_weights":[9.80762E-3,-2.450454E-1,5.170524E-1,2.4084E-2,-4.7202185E-1,2.922003E-4,3.8043287E-2,-2.8709564E-2,-4.2461675E-2,-2.127337E-2,2.053755E-2],"categories":[],"categories_nodes":[],"categories_segments":[],"categories_sizes":[],"default_left":[0,0,0,0,0,0,0,0,0,0,0],"id":56,"left_children":[1,3,5,-1,7,-1,-1,9,-1,-1,-1],"loss_changes":[3.401501E0,3.3064551E0,1.0171959E0,0E0,2.2536142E0,0E0,0E0,1.8788702E0,0E0,0E0,0E0],"parents":[2147483647,0,0,1,1,2,2,4,4,7,7],"right_children":[2,4,6,-1,8,-1,-1,10,-1,-1,-1],"split_conditions":[7.892077E-1,4.4090652E-1,2.906104E0,2.4084E-2,6.9660795E-1,2.922003E-4,3.8043287E-2,2.786034E-1,-4.2461675E-2,-2.127337E-2,2.053755E-2],"split_indices":[106,369,961,0,304,0,0,1643,0,0,0],"split_type":[0,0,0,0,0,0,0,0,0,0,0],"sum_hessian":[2.2141941E1,1.5294339E1,6.847601E0,3.000988E0,1.2293351E1,3.0050144E0,3.8425863E0,6.762798E0,5.5305533E0,3.7071285E0,3.0556693E0],"tree_param":{"num_deleted":"0","num_feature":"1930","num_nodes":"11","size_leaf_vector":"1"}},{"base_weights":[4.486904E-2,-4.2528656E-1,2.6391757E-1,-4.084666E-2,9.589131E-3,5.787123E-1,-2.090799E-1,-0E0,3.861126E-2,2.141162E-2,-3.5060227E-2],"categories":[],"categories_nodes":[],"categories_segments":[],"categories_sizes":[],"default_left":[0,0,0,0,0,0,0,0,0,0,0],"id":57,"left_children":[1,3,5,-1,-1,7,9,-1,-1,-1,-1],"loss_changes":[3.0795147E0,2.667285E0,3.3160858E0,0E0,0E0,1.500545E0,3.6051862E0,0E0,0E0,0E0,0E0],"parents":[2147483647,0,0,1,1,2,2,5,5,6,6],"right_children":[2,4,6,-1,-1,8,10,-1,-1,-1,-1],"split_conditions":[1.1138587E0,1.0159698E0,6.6198075E-1,-4.084666E-2,9.589131E-3,8.1084795E-2,3.211832E0,-0E0,3.861126E-2,2.141162E-2,-3.5060227E-2],"split_indices":[466,280,439,0,0,1547,653,0,0,0,0],"split_type":[0,0,0,0,0,0,0,0,0,0,0],"sum_hessian":[2.587899E1,7.481497E0,1.8397493E1,4.279573E0,3.2019238E0,1.0904573E1,7.4929204E0,3.1408968E0,7.7636766E0,3.2894578E0,4.2034626E0],"tree_param":{"num_deleted":"0","num_feature":"1930","num_nodes":"11","size_leaf_vector":"1"}},{"base_weights":[6.1298434E-2,3.4966025E-1,-4.9339184E-1,-1.3637128E-2,6.2841004E-1,-4.177454E-2,5.045588E-3,4.2703606E-2,-8.758719E-5],"categories":[],"categories_nodes":[],"categories_segments":[],"categories_sizes":[],"default_left":[0,0,0,0,0,0,0,0,0],"id":58,"left_children":[1,3,5,-1,7,-1,-1,-1,-1],"loss_changes":[4.37035E0,3.4849856E0,2.1429272E0,0E0,1.9487648E0,0E0,0E0,0E0,0E0],"parents":[2147483647,0,0,1,1,2,2,4,4],"right_children":[2,4,6,-1,8,-1,-1,-1,-1],"split_conditions":[3.9511943E0,2.7363763E0,1.3960689E0,-1.3637128E-2,1.1265038E0,-4.177454E-2,5.045588E-3,4.2703606E-2,-8.758719E-5],"split_indices":[943,914,248,0,38,0,0,0,0],"split_type":[0,0,0,0,0,0,0,0,0],"sum_hessian":[2.3255678E1,1.5906204E1,7.3494744E0,4.8225627E0,1.1083641E1,4.256123E0,3.0933511E0,7.7547107E0,3.3289306E0],"tree_param":{"num_deleted":"0","num_feature":"1930","num_nodes":"9","size_leaf_vector":"1"}},{"base_weights":[-9.372221E-2,-3.058621E-1,2.7001102E-2,1.3842507E-1,-5.5234253E-1,-1.9467708E-2,2.6648512E-2,9.636102E-3,-3.9598707E-2],"categories":[],"categories_nodes":[],"categories_segments":[],"categories_sizes":[],"default_left":[0,0,0,0,0,0,0,0,0],"id":59,"left_children":[1,3,-1,5,7,-1,-1,-1,-1],"loss_changes":[3.9811301E0,2.589285E0,0E0,2.3572586E0,2.974043E0,0E0,0E0,0E0,0E0],"parents":[2147483647,0,0,1,1,3,3,4,4],"right_children":[2,4,-1,6,8,-1,-1,-1,-1],"split_conditions":[4.2992783E-1,4.5543313E-1,2.7001102E-2,1.1065247E0,2.6849167E0,-1.9467708E-2,2.6648512E-2,9.636102E-3,-3.9598707E-2],"split_indices":[1833,366,0,1030,938,0,0,0,0],"split_type":[0,0,0,0,0,0,0,0,0],"sum_hessian":[2.5329184E1,1.9870321E1,5.4588633E0,7.2582383E0,1.26120825E1,3.007711E0,4.2505274E0,3.0629473E0,9.549135E0],"tree_param":{"num_deleted":"0","num_feature":"1930","num_nodes":"9","size_leaf_vector":"1"}},{"base_weights":[4.618296E-2,2.8536016E-1,-4.4086972E-1,7.198661E-1,-1.1877478E-1,3.8165469E-3,-3.6950402E-2,9.678058E-3,4.4461284E-2,-2.397728E-2,1.9991482E-2],"categories":[],"categories_nodes":[],"categories_segments":[],"categories_sizes":[],"default_left":[0,0,0,0,0,0,0,0,0,0,0],"id":60,"left_children":[1,3,5,7,9,-1,-1,-1,-1,-1,-1],"loss_changes":[3.3584142E0,3.6250238E0,1.6401906E0,4.1354513E-1,2.563885E0,0E0,0E0,0E0,0E0,0E0,0E0],"parents":[2147483647,0,0,1,1,2,2,3,3,4,4],"right_children":[2,4,6,8,10,-1,-1,-1,-1,-1,-1],"split_conditions":[4.0867033E0,8.990635E-1,3.327865E-1,3.5142708E-1,4.5037627E0,3.8165469E-3,-3.6950402E-2,9.678058E-3,4.4461284E-2,-2.397728E-2,1.9991482E-2],"split_indices":[607,382,177,1605,771,0,0,0,0,0,0],"split_type":[0,0,0,0,0,0,0,0,0,0,0],"sum_hessian":[2.480317E1,1.732762E1,7.4755497E0,7.7163353E0,9.611284E0,3.1549609E0,4.320589E0,3.0656686E0,4.6506667E0,5.870727E0,3.740557E0],"tree_param":{"num_deleted":"0","num_feature":"1930","num_nodes":"11","size_leaf_vector":"1"}},{"base_weights":[3.2771252E-2,-4.5934626E-1,2.4551E-1,1.60834E-3,-3.9075244E-2,-2.6701728E-1,5.272571E-1,1.1451918E-2,-3.3399977E-2,3.7911918E-2,-6.852881E-3],"categories":[],"categories_nodes":[],"categories_segments":[],"categories_sizes":[],"default_left":[0,0,0,0,0,0,0,0,0,0,0],"id":61,"left_children":[1,3,5,-1,-1,7,9,-1,-1,-1,-1],"loss_changes":[3.0078452E0,1.4929171E0,3.216259E0,0E0,0E0,2.010149E0,2.3868577E0,0E0,0E0,0E0,0E0],"parents":[2147483647,0,0,1,1,2,2,5,5,6,6],"right_children":[2,4,6,-1,-1,8,10,-1,-1,-1,-1],"split_conditions":[3.4026444E-1,1.9077312E-4,8.6113524E-1,1.60834E-3,-3.9075244E-2,6.1493915E-1,1.3575652E-1,1.1451918E-2,-3.3399977E-2,3.7911918E-2,-6.852881E-3],"split_indices":[134,1155,189,0,0,202,1758,0,0,0,0],"split_type":[0,0,0,0,0,0,0,0,0,0,0],"sum_hessian":[2.4780157E1,6.6375012E0,1.8142656E1,3.2178972E0,3.4196043E0,6.3468E0,1.17958555E1,3.1089456E0,3.2378542E0,8.654471E0,3.1413846E0],"tree_param":{"num_deleted":"0","num_feature":"1930","num_nodes":"11","size_leaf_vector":"1"}},{"base_weights":[-0E0,3.5153094E-1,-3.674318E-1,3.5808526E-2,-1.426061E-2,9.025581E-3,-6.0278326E-1,-3.8590692E-2,-6.567693E-3],"categories":[],"categories_nodes":[],"categories_segments":[],"categories_sizes":[],"default_left":[0,0,0,0,0,0,0,0,0],"id":62,"left_children":[1,3,5,-1,-1,-1,7,-1,-1],"loss_changes":[3.4053018E0,3.6012158E0,1.911398E0,0E0,0E0,0E0,4.6771288E-1,0E0,0E0],"parents":[2147483647,0,0,1,1,2,2,6,6],"right_children":[2,4,6,-1,-1,-1,8,-1,-1],"split_conditions":[2.016039E0,2.7992125E0,3.340007E-1,3.5808526E-2,-1.426061E-2,9.025581E-3,6.4367305E-5,-3.8590692E-2,-6.567693E-3],"split_indices":[759,878,1607,0,0,0,1343,0,0],"split_type":[0,0,0,0,0,0,0,0,0],"sum_hessian":[2.2371998E1,1.1565231E1,1.0806767E1,7.2951403E0,4.270091E0,3.2593963E0,7.547371E0,4.4613004E0,3.0860708E0],"tree_param":{"num_deleted":"0","num_feature":"1930","num_nodes":"9","size_leaf_vector":"1"}},{"base_weights":[-3.0648557E-3,2.055304E-1,-2.6743999E-2,-3.9653292E-1,5.4464054E-1,-0E0,-3.1764742E-2,3.8727522E-2,-6.8247444E-3],"categories":[],"categories_nodes":[],"categories_segments":[],"categories_sizes":[],"default_left":[0,0,0,0,0,0,0,0,0],"id":63,"left_children":[1,3,-1,5,7,-1,-1,-1,-1],"loss_changes":[3.094741E0,4.4709764E0,0E0,7.566019E-1,2.398374E0,0E0,0E0,0E0,0E0],"parents":[2147483647,0,0,1,1,3,3,4,4],"right_children":[2,4,-1,6,8,-1,-1,-1,-1],"split_conditions":[4.15802E0,1.1089575E0,-2.6743999E-2,4.9223807E-1,1.842118E-1,-0E0,-3.1764742E-2,3.8727522E-2,-6.8247444E-3],"split_indices":[987,466,0,489,1810,0,0,0,0],"split_type":[0,0,0,0,0,0,0,0,0],"sum_hessian":[2.361825E1,1.77106E1,5.9076505E0,6.152955E0,1.1557645E1,3.1020095E0,3.0509455E0,8.545669E0,3.0119762E0],"tree_param":{"num_deleted":"0","num_feature":"1930","num_nodes":"9","size_leaf_vector":"1"}},{"base_weights":[-8.813117E-3,2.6193172E-2,-2.0119892E-1,2.724392E-1,-4.7559693E-1,3.3631764E-2,-1.2707131E-2,6.4469134E-3,-4.549984E-2,-2.3593435E-2,2.3717528E-2],"categories":[],"categories_nodes":[],"categories_segments":[],"categories_sizes":[],"default_left":[0,0,0,0,0,0,0,0,0,0,0],"id":64,"left_children":[1,-1,3,5,7,-1,-1,9,-1,-1,-1],"loss_changes":[2.788982E0,0E0,2.9173555E0,2.1925528E0,2.9737155E0,0E0,0E0,2.3227634E0,0E0,0E0,0E0],"parents":[2147483647,0,0,2,2,3,3,4,4,7,7],"right_children":[2,-1,4,6,8,-1,-1,10,-1,-1,-1],"split_conditions":[2.616247E0,2.6193172E-2,7.2977173E-1,3.3043556E0,6.3811606E-1,3.3631764E-2,-1.2707131E-2,4.704808E0,-4.549984E-2,-2.3593435E-2,2.3717528E-2],"split_indices":[607,0,319,991,295,0,0,966,0,0,0],"split_type":[0,0,0,0,0,0,0,0,0,0,0],"sum_hessian":[2.3472889E1,5.1759624E0,1.8296926E1,6.5833154E0,1.1713612E1,3.5332603E0,3.050055E0,6.3771477E0,5.3364635E0,3.039423E0,3.3377247E0],"tree_param":{"num_deleted":"0","num_feature":"1930","num_nodes":"11","size_leaf_vector":"1"}},{"base_weights":[-4.1121524E-2,2.7132705E-2,-2.5020054E-1,6.60152E-2,-3.6725026E-2,-1.9704305E-2,4.1192076E-1,3.6029607E-2,-3.1894357E-3],"categories":[],"categories_nodes":[],"categories_segments":[],"categories_sizes":[],"default_left":[0,0,0,0,0,0,0,0,0],"id":65,"left_children":[1,-1,3,5,-1,-1,7,-1,-1],"loss_changes":[3.2110384E0,0E0,3.1353948E0,2.4669077E0,0E0,0E0,1.4467428E0,0E0,0E0],"parents":[2147483647,0,0,2,2,3,3,6,6],"right_children":[2,-1,4,6,-1,-1,8,-1,-1],"split_conditions":[5.8423575E-2,2.7132705E-2,7.1010137E-1,2.623515E-2,-3.6725026E-2,-1.9704305E-2,2.8939128E0,3.6029607E-2,-3.1894357E-3],"split_indices":[1921,0,168,1899,0,0,910,0,0],"split_type":[0,0,0,0,0,0,0,0,0],"sum_hessian":[2.2322918E1,4.919065E0,1.7403852E1,1.1449188E1,5.954664E0,4.6699066E0,6.7792816E0,3.6145747E0,3.1647072E0],"tree_param":{"num_deleted":"0","num_feature":"1930","num_nodes":"9","size_leaf_vector":"1"}},{"base_weights":[4.7873072E-2,5.3960943E-1,-1.6781892E-1,3.494553E-2,7.222877E-3,1.6387606E-2,-4.0899345E-1,8.838371E-3,-6.443149E-1,-6.297029E-3,-4.076789E-2],"categories":[],"categories_nodes":[],"categories_segments":[],"categories_sizes":[],"default_left":[0,0,0,0,0,0,0,0,0,0,0],"id":66,"left_children":[1,3,5,-1,-1,-1,7,-1,9,-1,-1],"loss_changes":[2.8243833E0,2.240839E-1,2.4829757E0,0E0,0E0,0E0,2.1278281E0,0E0,5.999098E-1,0E0,0E0],"parents":[2147483647,0,0,1,1,2,2,6,6,8,8],"right_children":[2,4,6,-1,-1,-1,8,-1,10,-1,-1],"split_conditions":[3.8293353E-1,3.8359942E0,7.1950465E-2,3.494553E-2,7.222877E-3,1.6387606E-2,6.736034E-1,8.838371E-3,3.9322808E0,-6.297029E-3,-4.076789E-2],"split_indices":[439,730,1635,0,0,0,319,0,929,0,0],"split_type":[0,0,0,0,0,0,0,0,0,0,0],"sum_hessian":[2.2571022E1,6.107408E0,1.6463614E1,3.076611E0,3.030797E0,5.0186243E0,1.1444989E1,3.3009596E0,8.14403E0,3.0271149E0,5.1169147E0],"tree_param":{"num_deleted":"0","num_feature":"1930","num_nodes":"11","size_leaf_vector":"1"}},{"base_weights":[-1.7022492E-2,-5.301811E-1,1.9185627E-1,-5.3358003E-3,-3.6127985E-2,4.0839884E-1,-2.6661625E-2,6.291698E-1,-6.922672E-3,4.4138607E-2,-1.8358435E-3],"categories":[],"categories_nodes":[],"categories_segments":[],"categories_sizes":[],"default_left":[0,0,0,0,0,0,0,0,0,0,0],"id":67,"left_children":[1,3,5,-1,-1,7,-1,9,-1,-1,-1],"loss_changes":[2.9654922E0,4.1728115E-1,3.4721723E0,0E0,0E0,2.178198E0,0E0,2.180347E0,0E0,0E0,0E0],"parents":[2147483647,0,0,1,1,2,2,5,5,7,7],"right_children":[2,4,6,-1,-1,8,-1,10,-1,-1,-1],"split_conditions":[5.245085E-1,5.672542E-1,3.9766288E0,-5.3358003E-3,-3.6127985E-2,1.6927307E0,-2.6661625E-2,7.628449E-2,-6.922672E-3,4.4138607E-2,-1.8358435E-3],"split_indices":[402,15,847,0,0,182,0,1859,0,0,0],"split_type":[0,0,0,0,0,0,0,0,0,0,0],"sum_hessian":[2.34527E1,6.033159E0,1.741954E1,3.018363E0,3.0147958E0,1.419249E1,3.2270508E0,1.0026481E1,4.1660085E0,6.898103E0,3.128378E0],"tree_param":{"num_deleted":"0","num_feature":"1930","num_nodes":"11","size_leaf_vector":"1"}},{"base_weights":[-4.975676E-3,-4.1890955E-1,2.8465703E-1,2.805443E-3,-3.616102E-2,-6.1517786E-2,4.102462E-2,-2.5806412E-2,2.4170939E-2],"categories":[],"categories_nodes":[],"categories_segments":[],"categories_sizes":[],"default_left":[0,0,0,0,0,0,0,0,0],"id":68,"left_children":[1,3,5,-1,-1,7,-1,-1,-1],"loss_changes":[3.2299573E0,1.7635484E0,3.0822158E0,0E0,0E0,3.2924201E0,0E0,0E0,0E0],"parents":[2147483647,0,0,1,1,2,2,5,5],"right_children":[2,4,6,-1,-1,8,-1,-1,-1],"split_conditions":[6.229475E-1,2.5523496E0,4.520475E-2,2.805443E-3,-3.616102E-2,5.1385373E-2,4.102462E-2,-2.5806412E-2,2.4170939E-2],"split_indices":[402,850,1320,0,0,1578,0,0,0],"split_type":[0,0,0,0,0,0,0,0,0],"sum_hessian":[2.2840029E1,9.17705E0,1.3662979E1,4.092083E0,5.0849667E0,9.26264E0,4.4003386E0,5.2075267E0,4.0551133E0],"tree_param":{"num_deleted":"0","num_feature":"1930","num_nodes":"9","size_leaf_vector":"1"}},{"base_weights":[-1.121248E-2,2.450231E-1,-4.4433582E-1,-1.6473185E-2,5.969528E-1,-3.7500404E-2,-0E0,1.5996833E-3,4.1361403E-2],"categories":[],"categories_nodes":[],"categories_segments":[],"categories_sizes":[],"default_left":[0,0,0,0,0,0,0,0,0],"id":69,"left_children":[1,3,5,-1,7,-1,-1,-1,-1],"loss_changes":[2.8373733E0,3.6269991E0,1.2512535E0,0E0,1.2473612E0,0E0,0E0,0E0,0E0],"parents":[2147483647,0,0,1,1,2,2,4,4],"right_children":[2,4,6,-1,8,-1,-1,-1,-1],"split_conditions":[3.084327E0,1.1138587E0,4.8720565E-1,-1.6473185E-2,2.4188514E0,-3.7500404E-2,-0E0,1.5996833E-3,4.1361403E-2],"split_indices":[653,466,174,0,567,0,0,0,0],"split_type":[0,0,0,0,0,0,0,0,0],"sum_hessian":[2.1424576E1,1.3861697E1,7.562879E0,5.2063785E0,8.655318E0,3.5808475E0,3.9820318E0,3.291663E0,5.3636556E0],"tree_param":{"num_deleted":"0","num_feature":"1930","num_nodes":"9","size_leaf_vector":"1"}}]},"name":"gbtree"},"learner_model_param":{"base_score":"[5.0003684E-1]","boost_from_average":"1","num_class":"0","num_feature":"1930","num_target":"1"},"objective":{"name":"binary:logistic","reg_loss_param":{"scale_pos_weight":"0.962406039"}}},"version":[3,1,2]}