{"learner":{"attributes":{"best_iteration":"55","best_score":"0.5839455115064135","scikit_learn":"{\"_estimator_type\": \"classifier\"}"},"feature_names":[],"feature_types":[],"gradient_booster":{"model":{"cats":{"enc":[],"feature_segments":[],"sorted_idx":[]},"gbtree_model_param":{"num_parallel_tree":"1","num_trees":"56"},"iteration_indptr":[0,1,2,3,4,5,6,7,8,9,10,11,12,13,14,15,16,17,18,19,20,21,22,23,24,25,26,27,28,29,30,31,32,33,34,35,36,37,38,39,40,41,42,43,44,45,46,47,48,49,50,51,52,53,54,55,56],"tree_info":[0,0,0,0,0,0,0,0,0,0,0,0,0,0,0,0,0,0,0,0,0,0,0,0,0,0,0,0,0,0,0,0,0,0,0,0,0,0,0,0,0,0,0,0,0,0,0,0,0,0,0,0,0,0,0,0],"trees":[{"base_weights":[6.267551E-2,1.0030457E0,-7.593258E-1,-2.3747778E-2,1.3259578E0,1.8130788E-1,-1.3502207E0,7.8649275E-2,1.08578745E-2,-3.334033E-2,4.2873822E-2,-7.889625E-2,-1.4361471E-2],"categories":[],"categories_nodes":[],"categories_segments":[],"categories_sizes":[],"default_left":[0,0,0,0,0,0,0,0,0,0,0,0,0],"id":0,"left_children":[1,3,5,-1,7,9,11,-1,-1,-1,-1,-1,-1],"loss_changes":[3.5105686E1,1.1447042E1,1.4082943E1,0E0,4.0557404E0,7.500943E0,2.58461E0,0E0,0E0,0E0,0E0,0E0,0E0],"parents":[2147483647,0,0,1,1,2,2,4,4,5,5,6,6],"right_children":[2,4,6,-1,8,10,12,-1,-1,-1,-1,-1,-1],"split_conditions":[1.0951622E0,4.412736E-1,1.1487884E-1,-2.3747778E-2,2.4418488E0,5.7720203E-2,8.9972633E-1,7.8649275E-2,1.08578745E-2,-3.334033E-2,4.2873822E-2,-7.889625E-2,-1.4361471E-2],"split_indices":[603,545,1783,0,609,1618,577,0,0,0,0,0,0],"split_type":[0,0,0,0,0,0,0,0,0,0,0,0,0],"sum_hessian":[4.1413536E1,1.9167294E1,2.224624E1,3.2124062E0,1.5954887E1,9.052631E0,1.3193609E1,1.2289474E1,3.6654136E0,3.9624062E0,5.0902257E0,9.990602E0,3.2030075E0],"tree_param":{"num_deleted":"0","num_feature":"1983","num_nodes":"13","size_leaf_vector":"1"}},{"base_weights":[1.1245546E-1,8.18858E-1,-7.1811616E-1,1.1139449E0,-2.694503E-2,2.0701383E-1,-6.923706E-2,1.4028519E0,-4.298126E-3,4.907777E-2,-3.1964514E-2,8.1371434E-2,2.1993926E-2],"categories":[],"categories_nodes":[],"categories_segments":[],"categories_sizes":[],"default_left":[0,0,0,0,0,0,0,0,0,0,0,0,0],"id":1,"left_children":[1,3,5,7,-1,9,-1,11,-1,-1,-1,-1,-1],"loss_changes":[2.5473194E1,1.0621059E1,1.3041275E1,7.274725E0,0E0,7.8860435E0,0E0,1.871151E0,0E0,0E0,0E0,0E0,0E0],"parents":[2147483647,0,0,1,1,2,2,3,3,5,5,7,7],"right_children":[2,4,6,8,-1,10,-1,12,-1,-1,-1,-1,-1],"split_conditions":[1.8639501E-2,1.2115021E-3,1.8484664E-1,3.6909573E-2,-2.694503E-2,1.3270485E0,-6.923706E-2,4.02996E-1,-4.298126E-3,4.907777E-2,-3.1964514E-2,8.1371434E-2,2.1993926E-2],"split_indices":[1616,425,370,1658,0,677,0,1558,0,0,0,0,0],"split_type":[0,0,0,0,0,0,0,0,0,0,0,0,0],"sum_hessian":[3.939476E1,2.1368998E1,1.8025763E1,1.790946E1,3.4595377E0,8.063833E0,9.96193E0,1.4228639E1,3.6808212E0,4.105235E0,3.9585981E0,1.0334629E1,3.8940094E0],"tree_param":{"num_deleted":"0","num_feature":"1983","num_nodes":"13","size_leaf_vector":"1"}},{"base_weights":[-8.570796E-2,1.0176007E0,-5.1678187E-1,2.0983673E-3,7.1472846E-2,5.7594204E-1,-8.860872E-1,6.0506582E-2,-1.5501748E-2,-1.199954E0,7.859659E-3,-1.4123088E0,-7.873763E-3,-2.250201E-2,-7.948199E-2],"categories":[],"categories_nodes":[],"categories_segments":[],"categories_sizes":[],"default_left":[0,0,0,0,0,0,0,0,0,0,0,0,0,0,0],"id":2,"left_children":[1,3,5,-1,-1,7,9,-1,-1,11,-1,13,-1,-1,-1],"loss_changes":[2.011066E1,4.5130033E0,1.3271902E1,0E0,0E0,5.7808914E0,8.173029E0,0E0,0E0,3.4631214E0,0E0,9.118557E-1,0E0,0E0,0E0],"parents":[2147483647,0,0,1,1,2,2,5,5,6,6,9,9,11,11],"right_children":[2,4,6,-1,-1,8,10,-1,-1,12,-1,14,-1,-1,-1],"split_conditions":[6.4906436E-3,2.7071908E-1,9.8725986E-1,2.0983673E-3,7.1472846E-2,2.8469178E-1,3.784192E-1,6.0506582E-2,-1.5501748E-2,1.7999068E-2,7.859659E-3,6.0120504E-3,-7.873763E-3,-2.250201E-2,-7.948199E-2],"split_indices":[1801,1626,137,0,0,918,381,0,0,1489,0,1182,0,0,0],"split_type":[0,0,0,0,0,0,0,0,0,0,0,0,0,0,0],"sum_hessian":[3.8178055E1,9.89617E0,2.8281887E1,3.6637733E0,6.232397E0,6.792872E0,2.1489014E1,3.5983024E0,3.1945696E0,1.6362057E1,5.126958E0,1.2923973E1,3.4380834E0,3.1998627E0,9.724111E0],"tree_param":{"num_deleted":"0","num_feature":"1983","num_nodes":"15","size_leaf_vector":"1"}},{"base_weights":[-1.1981001E-1,7.695646E-1,-7.528617E-1,1.1792085E0,-2.5339285E-2,-1.0921198E0,4.8345417E-2,7.359814E-2,1.6903622E-3,2.5324859E-3,-1.2850966E0,-1.1986005E-2,-7.634259E-2],"categories":[],"categories_nodes":[],"categories_segments":[],"categories_sizes":[],"default_left":[0,0,0,0,0,0,0,0,0,0,0,0,0],"id":3,"left_children":[1,3,5,7,-1,9,-1,-1,-1,-1,11,-1,-1],"loss_changes":[2.5522537E1,1.1153929E1,1.750291E1,4.7737827E0,0E0,5.326391E0,0E0,0E0,0E0,0E0,4.1029167E0,0E0,0E0],"parents":[2147483647,0,0,1,1,2,2,3,3,5,5,10,10],"right_children":[2,4,6,8,-1,10,-1,-1,-1,-1,12,-1,-1],"split_conditions":[1.2251508E0,5.211991E-1,3.009482E-1,1.3742661E0,-2.5339285E-2,4.3151674E-1,4.8345417E-2,7.359814E-2,1.6903622E-3,2.5324859E-3,7.094617E-2,-1.1986005E-2,-7.634259E-2],"split_indices":[669,1073,1936,453,0,294,0,0,0,0,201,0,0],"split_type":[0,0,0,0,0,0,0,0,0,0,0,0,0],"sum_hessian":[4.1276352E1,1.6918413E1,2.4357939E1,1.2982314E1,3.9361E0,2.10028E1,3.3551402E0,9.815932E0,3.1663818E0,3.1725404E0,1.783026E1,4.174792E0,1.3655467E1],"tree_param":{"num_deleted":"0","num_feature":"1983","num_nodes":"13","size_leaf_vector":"1"}},{"base_weights":[9.217773E-3,8.7592494E-1,-5.745835E-1,1.2027818E0,-1.3715553E-2,2.4799071E-1,-1.0231929E0,1.5644973E-2,7.118567E-2,-3.582386E-2,5.205183E-2,-6.8400614E-2,4.3077446E-3],"categories":[],"categories_nodes":[],"categories_segments":[],"categories_sizes":[],"default_left":[0,0,0,0,0,0,0,0,0,0,0,0,0],"id":4,"left_children":[1,3,5,7,-1,9,11,-1,-1,-1,-1,-1,-1],"loss_changes":[2.3330915E1,7.743701E0,1.0720403E1,1.8685532E0,0E0,1.0109193E1,7.341915E0,0E0,0E0,0E0,0E0,0E0,0E0],"parents":[2147483647,0,0,1,1,2,2,3,3,5,5,6,6],"right_children":[2,4,6,8,-1,10,12,-1,-1,-1,-1,-1,-1],"split_conditions":[1.3458403E-2,3.337815E-2,1.0973272E0,3.075164E-1,-1.3715553E-2,7.416238E-2,6.2056836E-2,1.5644973E-2,7.118567E-2,-3.582386E-2,5.205183E-2,-6.8400614E-2,4.3077446E-3],"split_indices":[1616,1658,137,647,0,1759,347,0,0,0,0,0,0],"split_type":[0,0,0,0,0,0,0,0,0,0,0,0,0],"sum_hessian":[4.206101E1,1.6594887E1,2.5466122E1,1.2919258E1,3.6756284E0,9.224143E0,1.624198E1,3.6207085E0,9.29855E0,4.19246E0,5.031683E0,1.2103611E1,4.138368E0],"tree_param":{"num_deleted":"0","num_feature":"1983","num_nodes":"13","size_leaf_vector":"1"}},{"base_weights":[-4.0569115E-2,7.838544E-1,-5.2779937E-1,1.1173561E0,-1.7064337E-2,6.0672575E-1,-9.0808356E-1,1.0527368E-2,7.0740946E-2,-7.2230063E-3,5.6289997E-2,-1.2975574E0,-0E0,-1.9063542E-2,-7.281195E-2,-3.6551185E-2,4.0907867E-2],"categories":[],"categories_nodes":[],"categories_segments":[],"categories_sizes":[],"default_left":[0,0,0,0,0,0,0,0,0,0,0,0,0,0,0,0,0],"id":5,"left_children":[1,3,5,7,-1,9,11,-1,-1,-1,-1,13,15,-1,-1,-1,-1],"loss_changes":[1.8739693E1,7.3381824E0,1.3790486E1,2.9894924E0,0E0,3.7371542E0,8.118975E0,0E0,0E0,0E0,0E0,1.0335388E0,6.4812164E0,0E0,0E0,0E0,0E0],"parents":[2147483647,0,0,1,1,2,2,3,3,5,5,6,6,11,11,12,12],"right_children":[2,4,6,8,-1,10,12,-1,-1,-1,-1,14,16,-1,-1,-1,-1],"split_conditions":[5.1122684E-2,3.5174068E-2,2.0567474E0,6.533502E-2,-1.7064337E-2,7.875415E-2,1.6670257E-3,1.0527368E-2,7.0740946E-2,-7.2230063E-3,5.6289997E-2,8.896228E-3,9.181189E-1,-1.9063542E-2,-7.281195E-2,-3.6551185E-2,4.0907867E-2],"split_indices":[1632,1658,641,343,0,1949,1513,0,0,0,0,1144,827,0,0,0,0],"split_type":[0,0,0,0,0,0,0,0,0,0,0,0,0,0,0,0,0],"sum_hessian":[4.2656643E1,1.5316813E1,2.7339828E1,1.1894035E1,3.4227788E0,6.4985223E0,2.0841305E1,3.864622E0,8.029413E0,3.1666298E0,3.3318925E0,1.4009382E1,6.831923E0,3.165618E0,1.0843764E1,3.7003927E0,3.1315303E0],"tree_param":{"num_deleted":"0","num_feature":"1983","num_nodes":"17","size_leaf_vector":"1"}},{"base_weights":[-2.9688742E-2,7.501074E-1,-5.707722E-1,1.1403465E0,-4.7338116E-3,-1.1680968E0,6.6297874E-2,1.227843E-2,6.9991514E-2,-7.424226E-2,-1.8179215E-3,5.2005526E-2,-6.1074615E-1,-5.5807766E-2,1.3370623E-2],"categories":[],"categories_nodes":[],"categories_segments":[],"categories_sizes":[],"default_left":[0,0,0,0,0,0,0,0,0,0,0,0,0,0,0],"id":6,"left_children":[1,3,5,7,-1,9,11,-1,-1,-1,-1,-1,13,-1,-1],"loss_changes":[1.8795704E1,6.327882E0,1.0287281E1,2.0963955E0,0E0,4.6800404E0,1.0910439E1,0E0,0E0,0E0,0E0,0E0,5.0250874E0,0E0,0E0],"parents":[2147483647,0,0,1,1,2,2,3,3,5,5,6,6,12,12],"right_children":[2,4,6,8,-1,10,12,-1,-1,-1,-1,-1,14,-1,-1],"split_conditions":[1.7724924E0,1.6389115E-1,6.092094E-1,6.5435325E-3,-4.7338116E-3,3.952077E-1,1.4994769E-1,1.227843E-2,6.9991514E-2,-7.424226E-2,-1.8179215E-3,5.2005526E-2,4.6792044E-3,-5.5807766E-2,1.3370623E-2],"split_indices":[471,328,667,1395,0,96,255,0,0,0,0,0,1517,0,0],"split_type":[0,0,0,0,0,0,0,0,0,0,0,0,0,0,0],"sum_hessian":[4.055956E1,1.6222567E1,2.4336992E1,1.0698939E1,5.5236273E0,1.1780929E1,1.2556063E1,3.3669186E0,7.3320203E0,8.648139E0,3.1327896E0,4.7701745E0,7.7858887E0,4.6699924E0,3.1158957E0],"tree_param":{"num_deleted":"0","num_feature":"1983","num_nodes":"15","size_leaf_vector":"1"}},{"base_weights":[-1.5856216E-2,-4.1800788E-1,5.8843326E-2,6.034439E-1,-8.0687857E-1,5.9927534E-2,-1.6885204E-2,-1.0595598E0,3.2317068E-3,-6.7333125E-2,-1.8783057E-3],"categories":[],"categories_nodes":[],"categories_segments":[],"categories_sizes":[],"default_left":[0,0,0,0,0,0,0,0,0,0,0],"id":7,"left_children":[1,3,-1,5,7,-1,-1,9,-1,-1,-1],"loss_changes":[2.0869438E1,1.3967556E1,0E0,6.540702E0,5.6497936E0,0E0,0E0,5.4118385E0,0E0,0E0,0E0],"parents":[2147483647,0,0,1,1,3,3,4,4,7,7],"right_children":[2,4,-1,6,8,-1,-1,10,-1,-1,-1],"split_conditions":[2.9220614E-1,1.6416826E0,5.8843326E-2,9.1909957E-1,2.4729262E-1,5.9927534E-2,-1.6885204E-2,1.3125033E0,3.2317068E-3,-6.7333125E-2,-1.8783057E-3],"split_indices":[1936,884,0,794,235,0,0,1007,0,0,0],"split_type":[0,0,0,0,0,0,0,0,0,0,0],"sum_hessian":[3.961622E1,3.0661093E1,8.955124E0,8.0790415E0,2.2582052E1,4.6794114E0,3.3996298E0,1.7260769E1,5.3212833E0,1.2902838E1,4.3579307E0],"tree_param":{"num_deleted":"0","num_feature":"1983","num_nodes":"11","size_leaf_vector":"1"}},{"base_weights":[-3.0853136E-2,7.571831E-1,-5.952809E-1,1.1441227E0,-1.0652682E-2,3.2573532E-2,-8.604879E-1,6.9066964E-2,9.621891E-3,8.2027335E-3,-1.0988361E0,-6.986218E-2,-8.881452E-3],"categories":[],"categories_nodes":[],"categories_segments":[],"categories_sizes":[],"default_left":[0,0,0,0,0,0,0,0,0,0,0,0,0],"id":8,"left_children":[1,3,5,7,-1,-1,9,-1,-1,-1,11,-1,-1],"loss_changes":[1.9533257E1,7.4520674E0,9.613971E0,2.3524647E0,0E0,0E0,5.8399925E0,0E0,0E0,0E0,4.358057E0,0E0,0E0],"parents":[2147483647,0,0,1,1,2,2,3,3,6,6,10,10],"right_children":[2,4,6,8,-1,-1,10,-1,-1,-1,12,-1,-1],"split_conditions":[1.4040565E-2,2.679475E-1,7.303192E-1,3.5082608E-1,-1.0652682E-2,3.2573532E-2,6.8502736E-1,6.9066964E-2,9.621891E-3,8.2027335E-3,1.2842396E-1,-6.986218E-2,-8.881452E-3],"split_indices":[1616,464,325,312,0,0,366,0,0,0,13,0,0],"split_type":[0,0,0,0,0,0,0,0,0,0,0,0,0],"sum_hessian":[3.9925385E1,1.6303196E1,2.3622189E1,1.14724865E1,4.83071E0,3.5663958E0,2.0055794E1,8.376543E0,3.095944E0,3.823647E0,1.6232147E1,1.1397942E1,4.8342047E0],"tree_param":{"num_deleted":"0","num_feature":"1983","num_nodes":"13","size_leaf_vector":"1"}},{"base_weights":[-1.7381663E-2,5.9944636E-1,-7.8182054E-1,8.5372853E-1,-2.8098185E-2,2.3484427E-2,-1.108358E0,1.0941274E0,-1.5798718E-2,-7.021739E-2,-2.5563005E-3,-7.378597E-3,6.867431E-2],"categories":[],"categories_nodes":[],"categories_segments":[],"categories_sizes":[],"default_left":[0,0,0,0,0,0,0,0,0,0,0,0,0],"id":9,"left_children":[1,3,5,7,-1,-1,9,11,-1,-1,-1,-1,-1],"loss_changes":[2.1478369E1,8.4153595E0,9.43231E0,6.8135376E0,0E0,0E0,4.9740124E0,6.8930435E0,0E0,0E0,0E0,0E0,0E0],"parents":[2147483647,0,0,1,1,2,2,3,3,6,6,7,7],"right_children":[2,4,6,8,-1,-1,10,12,-1,-1,-1,-1,-1],"split_conditions":[1.832631E-2,1.0062021E0,7.600603E-1,2.8492975E-1,-2.8098185E-2,2.3484427E-2,1.6170429E-1,1.6874457E-3,-1.5798718E-2,-7.021739E-2,-2.5563005E-3,-7.378597E-3,6.867431E-2],"split_indices":[1616,748,875,1680,0,0,1835,500,0,0,0,0,0],"split_type":[0,0,0,0,0,0,0,0,0,0,0,0,0],"sum_hessian":[4.152412E1,2.3147326E1,1.8376793E1,1.9494987E1,3.6523397E0,3.557823E0,1.481897E1,1.6349524E1,3.1454628E0,1.0990702E1,3.828268E0,3.1103058E0,1.3239218E1],"tree_param":{"num_deleted":"0","num_feature":"1983","num_nodes":"13","size_leaf_vector":"1"}},{"base_weights":[-2.41277E-2,1.0045235E0,-3.823398E-1,6.322954E-2,6.8697445E-3,6.806987E-1,-7.614112E-1,6.002562E-2,-1.3246976E-2,-1.0508969E0,7.7550258E-3,-0E0,-1.2582759E0,-1.5889866E-2,-7.078899E-2],"categories":[],"categories_nodes":[],"categories_segments":[],"categories_sizes":[],"default_left":[0,0,0,0,0,0,0,0,0,0,0,0,0,0,0],"id":10,"left_children":[1,3,5,-1,-1,7,9,-1,-1,11,-1,-1,13,-1,-1],"loss_changes":[1.7013844E1,2.198285E0,1.4885475E1,0E0,0E0,5.652663E0,7.4019356E0,0E0,0E0,4.416315E0,0E0,0E0,1.4428062E0,0E0,0E0],"parents":[2147483647,0,0,1,1,2,2,5,5,6,6,9,9,12,12],"right_children":[2,4,6,-1,-1,8,10,-1,-1,12,-1,-1,14,-1,-1],"split_conditions":[7.869644E-2,3.0217445E-4,9.759112E-1,6.322954E-2,6.8697445E-3,9.905434E-2,5.7703733E-2,6.002562E-2,-1.3246976E-2,5.883745E-2,7.7550258E-3,-0E0,3.4102664E-4,-1.5889866E-2,-7.078899E-2],"split_indices":[1650,493,137,0,0,320,1932,0,0,1681,0,0,1243,0,0],"split_type":[0,0,0,0,0,0,0,0,0,0,0,0,0,0,0],"sum_hessian":[4.2257843E1,9.910601E0,3.2347244E1,6.8300834E0,3.0805173E0,8.015103E0,2.433214E1,4.8924427E0,3.1226604E0,1.835155E1,5.9805913E0,3.3661647E0,1.4985383E1,3.1064777E0,1.1878906E1],"tree_param":{"num_deleted":"0","num_feature":"1983","num_nodes":"15","size_leaf_vector":"1"}},{"base_weights":[1.206419E-2,-3.4546244E-1,1.0078351E0,5.07011E-1,-8.126857E-1,1.2951839E-2,6.0745765E-2,5.2136272E-2,-1.6588653E-2,7.913427E-3,-1.0205972E0,-1.202592E-4,-6.385383E-2],"categories":[],"categories_nodes":[],"categories_segments":[],"categories_sizes":[],"default_left":[0,0,0,0,0,0,0,0,0,0,0,0,0],"id":11,"left_children":[1,3,5,7,9,-1,-1,-1,-1,-1,11,-1,-1],"loss_changes":[1.4693709E1,1.2886522E1,9.168272E-1,6.088127E0,4.518938E0,0E0,0E0,0E0,0E0,0E0,4.3368645E0,0E0,0E0],"parents":[2147483647,0,0,1,1,2,2,3,3,4,4,10,10],"right_children":[2,4,6,8,10,-1,-1,-1,-1,-1,12,-1,-1],"split_conditions":[2.9220614E-1,7.902445E-2,9.6506454E-2,7.658382E-1,7.174418E-1,1.2951839E-2,6.0745765E-2,5.2136272E-2,-1.6588653E-2,7.913427E-3,1.3459916E0,-1.202592E-4,-6.385383E-2],"split_indices":[1936,201,434,332,675,0,0,0,0,0,844,0,0],"split_type":[0,0,0,0,0,0,0,0,0,0,0,0,0],"sum_hessian":[3.713079E1,2.8208416E1,8.922376E0,9.850788E0,1.8357628E1,3.0128107E0,5.9095654E0,5.787421E0,4.063367E0,3.2370508E0,1.5120577E1,3.527093E0,1.1593484E1],"tree_param":{"num_deleted":"0","num_feature":"1983","num_nodes":"13","size_leaf_vector":"1"}},{"base_weights":[3.0162582E-2,6.590176E-1,-5.333003E-1,3.824372E-2,6.2135857E-2,2.110844E-2,-9.012571E-1,3.481848E-2,-3.307384E-2,-6.06316E-2,-5.7348884E-3],"categories":[],"categories_nodes":[],"categories_segments":[],"categories_sizes":[],"default_left":[0,0,0,0,0,0,0,0,0,0,0],"id":12,"left_children":[1,3,5,7,-1,-1,9,-1,-1,-1,-1],"loss_changes":[1.5327157E1,7.192608E0,8.814414E0,6.4805264E0,0E0,0E0,3.7901812E0,0E0,0E0,0E0,0E0],"parents":[2147483647,0,0,1,1,2,2,3,3,6,6],"right_children":[2,4,6,8,-1,-1,10,-1,-1,-1,-1],"split_conditions":[1.4445353E-1,3.0544156E-1,6.473276E-1,4.8531628E-1,6.2135857E-2,2.110844E-2,1.9395061E-1,3.481848E-2,-3.307384E-2,-6.06316E-2,-5.7348884E-3],"split_indices":[1599,153,290,1073,0,0,237,0,0,0,0],"split_type":[0,0,0,0,0,0,0,0,0,0,0],"sum_hessian":[3.923673E1,1.846599E1,2.0770739E1,1.0064544E1,8.401446E0,5.6174746E0,1.5153265E1,5.265006E0,4.7995377E0,9.988575E0,5.16469E0],"tree_param":{"num_deleted":"0","num_feature":"1983","num_nodes":"11","size_leaf_vector":"1"}},{"base_weights":[-7.9857476E-2,9.684299E-1,-4.734175E-1,6.043882E-2,9.319678E-3,5.762353E-1,-8.602263E-1,-5.495295E-3,5.254742E-2,-1.1191744E0,2.9795093E-3,-7.898449E-3,-6.406184E-2],"categories":[],"categories_nodes":[],"categories_segments":[],"categories_sizes":[],"default_left":[0,0,0,0,0,0,0,0,0,0,0,0,0],"id":13,"left_children":[1,3,5,-1,-1,7,9,-1,-1,11,-1,-1,-1],"loss_changes":[1.7577961E1,1.5983047E0,1.3549784E1,0E0,0E0,3.3993554E0,5.818262E0,0E0,0E0,2.3273926E0,0E0,0E0,0E0],"parents":[2147483647,0,0,1,1,2,2,5,5,6,6,9,9],"right_children":[2,4,6,-1,-1,8,10,-1,-1,12,-1,-1,-1],"split_conditions":[7.917214E-2,2.2343288E-1,9.8725986E-1,6.043882E-2,9.319678E-3,1.8953177E-1,5.6713656E-2,-5.495295E-3,5.254742E-2,7.198512E-3,2.9795093E-3,-7.898449E-3,-6.406184E-2],"split_indices":[1650,170,137,0,0,1904,1932,0,0,245,0,0,0],"split_type":[0,0,0,0,0,0,0,0,0,0,0,0,0],"sum_hessian":[3.8504063E1,9.643128E0,2.8860935E1,6.443572E0,3.1995566E0,7.438285E0,2.1422651E1,3.5841413E0,3.8541439E0,1.6463161E1,4.95949E0,3.034115E0,1.3429046E1],"tree_param":{"num_deleted":"0","num_feature":"1983","num_nodes":"13","size_leaf_vector":"1"}},{"base_weights":[-3.9007873E-3,5.7839364E-1,-6.9482535E-1,-2.9140112E-1,1.0688121E0,2.014811E-2,-1.0212984E0,3.112602E-2,-4.789756E-2,8.242535E-3,6.411176E-2,-6.3889824E-2,-4.9725766E-3],"categories":[],"categories_nodes":[],"categories_segments":[],"categories_sizes":[],"default_left":[0,0,0,0,0,0,0,0,0,0,0,0,0],"id":14,"left_children":[1,3,5,7,9,-1,11,-1,-1,-1,-1,-1,-1],"loss_changes":[1.6434782E1,1.0119442E1,7.602189E0,6.988467E0,2.253416E0,0E0,3.174365E0,0E0,0E0,0E0,0E0,0E0,0E0],"parents":[2147483647,0,0,1,1,2,2,3,3,4,4,6,6],"right_children":[2,4,6,8,10,-1,12,-1,-1,-1,-1,-1,-1],"split_conditions":[1.832631E-2,1.2207771E-1,7.955692E-1,2.1827704E-1,4.2741933E-1,2.014811E-2,7.017117E-1,3.112602E-2,-4.789756E-2,8.242535E-3,6.411176E-2,-6.3889824E-2,-4.9725766E-3],"split_indices":[1616,1853,325,335,487,0,667,0,0,0,0,0,0],"split_type":[0,0,0,0,0,0,0,0,0,0,0,0,0],"sum_hessian":[3.6823112E1,2.0080643E1,1.674247E1,7.45909E0,1.26215515E1,3.6601362E0,1.30823345E1,3.138251E0,4.3208394E0,3.177311E0,9.444242E0,9.5456E0,3.5367339E0],"tree_param":{"num_deleted":"0","num_feature":"1983","num_nodes":"13","size_leaf_vector":"1"}},{"base_weights":[-4.9692305E-4,6.5833765E-1,-4.8267707E-1,-1.84091E-2,9.5202255E-1,-7.3476046E-1,3.2576397E-2,6.232765E-2,8.49934E-3,1.0914992E-2,-9.468949E-1,-5.9557308E-2,-3.764083E-3],"categories":[],"categories_nodes":[],"categories_segments":[],"categories_sizes":[],"default_left":[0,0,0,0,0,0,0,0,0,0,0,0,0],"id":15,"left_children":[1,3,5,-1,7,9,-1,-1,-1,-1,11,-1,-1],"loss_changes":[1.3180965E1,6.0262504E0,7.8494754E0,0E0,2.7093096E0,4.6734037E0,0E0,0E0,0E0,0E0,3.398407E0,0E0,0E0],"parents":[2147483647,0,0,1,1,2,2,4,4,5,5,10,10],"right_children":[2,4,6,-1,8,10,-1,-1,-1,-1,12,-1,-1],"split_conditions":[1.2060075E0,4.2322195E-1,3.009482E-1,-1.84091E-2,8.971356E-1,9.9884E-1,3.2576397E-2,6.232765E-2,8.49934E-3,1.0914992E-2,1.2805096E-2,-5.9557308E-2,-3.764083E-3],"split_indices":[730,545,1936,0,422,137,0,0,0,0,474,0,0],"split_type":[0,0,0,0,0,0,0,0,0,0,0,0,0],"sum_hessian":[3.754647E1,1.5470307E1,2.2076164E1,3.2528305E0,1.2217477E1,1.8710238E1,3.3659272E0,7.9191318E0,4.298345E0,3.3099654E0,1.5400272E1,1.1366984E1,4.033288E0],"tree_param":{"num_deleted":"0","num_feature":"1983","num_nodes":"13","size_leaf_vector":"1"}},{"base_weights":[-4.3459713E-2,8.3892924E-1,-3.904718E-1,7.353745E-3,5.640175E-2,4.3406495E-1,-7.0683223E-1,4.755273E-2,-9.060582E-3,9.821623E-3,-1.080544E0,-6.4796223E-3,-6.433679E-2],"categories":[],"categories_nodes":[],"categories_segments":[],"categories_sizes":[],"default_left":[0,0,0,0,0,0,0,0,0,0,0,0,0],"id":16,"left_children":[1,3,5,-1,-1,7,9,-1,-1,-1,11,-1,-1],"loss_changes":[1.19232025E1,1.7373552E0,7.9352784E0,0E0,0E0,3.2544458E0,7.621358E0,0E0,0E0,0E0,2.521227E0,0E0,0E0],"parents":[2147483647,0,0,1,1,2,2,5,5,6,6,10,10],"right_children":[2,4,6,-1,-1,8,10,-1,-1,-1,12,-1,-1],"split_conditions":[6.4906436E-3,2.1993954E-2,8.3621636E-2,7.353745E-3,5.640175E-2,2.5590128E-1,2.0276954E0,4.755273E-2,-9.060582E-3,9.821623E-3,1.4136065E0,-6.4796223E-3,-6.433679E-2],"split_indices":[1801,1773,1805,0,0,52,937,0,0,0,583,0,0],"split_type":[0,0,0,0,0,0,0,0,0,0,0,0,0],"sum_hessian":[3.4946136E1,8.982339E0,2.5963797E1,3.6384828E0,5.343856E0,6.905539E0,1.9058258E1,3.2476995E0,3.6578393E0,5.776813E0,1.32814455E1,3.033412E0,1.0248033E1],"tree_param":{"num_deleted":"0","num_feature":"1983","num_nodes":"13","size_leaf_vector":"1"}},{"base_weights":[1.5214306E-1,7.2881746E-1,-3.7494332E-1,1.119624E0,-2.3272606E-2,2.4835788E-2,-6.903511E-1,6.392088E-2,1.4729964E-2,1.2337876E-2,-9.5256174E-1,-5.870534E-2,-6.9394605E-3],"categories":[],"categories_nodes":[],"categories_segments":[],"categories_sizes":[],"default_left":[0,0,0,0,0,0,0,0,0,0,0,0,0],"id":17,"left_children":[1,3,5,7,-1,-1,9,-1,-1,-1,11,-1,-1],"loss_changes":[1.2044833E1,9.872365E0,6.4603257E0,1.0282974E0,0E0,0E0,4.54404E0,0E0,0E0,0E0,1.9271374E0,0E0,0E0],"parents":[2147483647,0,0,1,1,2,2,3,3,6,6,10,10],"right_children":[2,4,6,8,-1,-1,10,-1,-1,-1,12,-1,-1],"split_conditions":[1.1085509E0,3.1985366E-1,5.392613E-1,2.5588655E-1,-2.3272606E-2,2.4835788E-2,7.47755E-2,6.392088E-2,1.4729964E-2,1.2337876E-2,1.303587E-4,-5.870534E-2,-6.9394605E-3],"split_indices":[603,266,545,263,0,0,1802,0,0,0,1415,0,0],"split_type":[0,0,0,0,0,0,0,0,0,0,0,0,0],"sum_hessian":[3.5712265E1,1.6778986E1,1.8933279E1,1.2799337E1,3.979649E0,4.640925E0,1.4292355E1,9.710112E0,3.0892253E0,3.067168E0,1.1225186E1,8.030462E0,3.1947236E0],"tree_param":{"num_deleted":"0","num_feature":"1983","num_nodes":"13","size_leaf_vector":"1"}},{"base_weights":[7.030809E-2,3.5586897E-1,-4.875798E-2,-3.4911203E-1,6.807603E-1,-4.146645E-2,2.69998E-2,-2.158053E-2,9.265971E-1,1.9736385E-3,6.378963E-2],"categories":[],"categories_nodes":[],"categories_segments":[],"categories_sizes":[],"default_left":[0,0,0,0,0,0,0,0,0,0,0],"id":18,"left_children":[1,3,-1,5,7,-1,-1,-1,9,-1,-1],"loss_changes":[1.2364935E1,7.931502E0,0E0,5.812876E0,7.128047E0,0E0,0E0,0E0,5.812622E0,0E0,0E0],"parents":[2147483647,0,0,1,1,3,3,4,4,8,8],"right_children":[2,4,-1,6,8,-1,-1,-1,10,-1,-1],"split_conditions":[1.0327707E-1,6.653142E-2,-4.875798E-2,2.8778407E-1,9.162208E-1,-4.146645E-2,2.69998E-2,-2.158053E-2,1.6483346E-1,1.9736385E-3,6.378963E-2],"split_indices":[1859,162,0,1626,820,0,0,0,122,0,0],"split_type":[0,0,0,0,0,0,0,0,0,0,0],"sum_hessian":[3.7300007E1,3.0408926E1,6.8910804E0,9.4488945E0,2.096003E1,6.2955446E0,3.1533504E0,3.4466002E0,1.751343E1,5.6562605E0,1.1857169E1],"tree_param":{"num_deleted":"0","num_feature":"1983","num_nodes":"11","size_leaf_vector":"1"}},{"base_weights":[5.361164E-2,-7.4561286E-1,4.671693E-1,8.247458E-3,-5.2721407E-2,8.7007225E-1,-2.9205754E-1,1.0678804E0,-1.208437E-3,3.019934E-2,-4.147714E-2,6.250993E-2,1.4036319E-2],"categories":[],"categories_nodes":[],"categories_segments":[],"categories_sizes":[],"default_left":[0,0,0,0,0,0,0,0,0,0,0,0,0],"id":19,"left_children":[1,3,5,-1,-1,7,9,11,-1,-1,-1,-1,-1],"loss_changes":[1.3265201E1,4.284539E0,8.649811E0,0E0,0E0,3.314046E0,6.116832E0,1.2625599E0,0E0,0E0,0E0,0E0,0E0],"parents":[2147483647,0,0,1,1,2,2,5,5,6,6,7,7],"right_children":[2,4,6,-1,-1,8,10,12,-1,-1,-1,-1,-1],"split_conditions":[2.6887542E-1,1.0550077E0,8.651503E-3,8.247458E-3,-5.2721407E-2,7.465718E-4,1.7982159E0,4.8137385E-2,-1.208437E-3,3.019934E-2,-4.147714E-2,6.250993E-2,1.4036319E-2],"split_indices":[37,603,465,0,0,1238,471,1790,0,0,0,0,0],"split_type":[0,0,0,0,0,0,0,0,0,0,0,0,0],"sum_hessian":[3.6110195E1,1.1683497E1,2.4426697E1,3.1128795E0,8.570618E0,1.5853405E1,8.573293E0,1.2755364E1,3.0980406E0,3.0519183E0,5.521374E0,9.298202E0,3.457163E0],"tree_param":{"num_deleted":"0","num_feature":"1983","num_nodes":"13","size_leaf_vector":"1"}},{"base_weights":[4.667439E-2,9.166086E-1,-2.8614658E-1,5.567782E-2,1.0354127E-2,-4.832123E-2,5.210884E-2,7.1709055E-1,-3.9273652E-1,5.4116864E-2,-0E0,-8.7572104E-1,2.8780991E-2,-8.318312E-3,-5.5762555E-2],"categories":[],"categories_nodes":[],"categories_segments":[],"categories_sizes":[],"default_left":[0,0,0,0,0,0,0,0,0,0,0,0,0,0,0],"id":20,"left_children":[1,3,5,-1,-1,-1,7,9,11,-1,-1,13,-1,-1,-1],"loss_changes":[1.1723049E1,9.720268E-1,6.9247837E0,0E0,0E0,0E0,6.90875E0,2.4521222E0,7.581012E0,0E0,0E0,1.2331853E0,0E0,0E0,0E0],"parents":[2147483647,0,0,1,1,2,2,6,6,7,7,8,8,11,11],"right_children":[2,4,6,-1,-1,-1,8,10,12,-1,-1,14,-1,-1,-1],"split_conditions":[7.917214E-2,3.174165E-1,5.9602063E-2,5.567782E-2,1.0354127E-2,-4.832123E-2,2.908665E-1,6.2361753E-1,1.24571025E-1,5.4116864E-2,-0E0,4.662485E-2,2.8780991E-2,-8.318312E-3,-5.5762555E-2],"split_indices":[1650,428,162,0,0,0,99,612,1644,0,0,1636,0,0,0],"split_type":[0,0,0,0,0,0,0,0,0,0,0,0,0,0,0],"sum_hessian":[3.646007E1,9.201459E0,2.7258614E1,6.2005243E0,3.0009341E0,7.9173007E0,1.9341312E1,7.351959E0,1.1989354E1,4.1983447E0,3.1536145E0,8.196033E0,3.7933211E0,3.0298603E0,5.1661725E0],"tree_param":{"num_deleted":"0","num_feature":"1983","num_nodes":"15","size_leaf_vector":"1"}},{"base_weights":[-6.344089E-2,5.009223E-1,-4.7498238E-1,-2.3127332E-1,5.0048262E-2,-9.538416E-1,5.8858874E-3,-3.599244E-2,1.6569577E-2,-1.5732734E-2,-5.5568207E-2,-3.9832312E-1,3.7127394E-2,2.6821623E-2,-5.0739136E-2],"categories":[],"categories_nodes":[],"categories_segments":[],"categories_sizes":[],"default_left":[0,0,0,0,0,0,0,0,0,0,0,0,0,0,0],"id":21,"left_children":[1,3,5,7,-1,9,11,-1,-1,-1,-1,13,-1,-1,-1],"loss_changes":[8.85098E0,6.4280567E0,5.169295E0,2.7343063E0,0E0,2.7902317E-1,4.4536896E0,0E0,0E0,0E0,0E0,6.6191506E0,0E0,0E0,0E0],"parents":[2147483647,0,0,1,1,2,2,3,3,5,5,6,6,11,11],"right_children":[2,4,6,8,-1,10,12,-1,-1,-1,-1,14,-1,-1,-1],"split_conditions":[1.4445353E-1,1.2552686E-1,6.1647004E-1,1.09692E0,5.0048262E-2,1.0653469E-1,9.7347724E-1,-3.599244E-2,1.6569577E-2,-1.5732734E-2,-5.5568207E-2,9.131813E-1,3.7127394E-2,2.6821623E-2,-5.0739136E-2],"split_indices":[1599,1902,667,486,0,482,742,0,0,0,0,637,0,0,0],"split_type":[0,0,0,0,0,0,0,0,0,0,0,0,0,0,0],"sum_hessian":[3.407059E1,1.408201E1,1.998858E1,6.069562E0,8.012448E0,9.133767E0,1.0854813E1,3.0447476E0,3.0248144E0,3.1167297E0,6.0170374E0,7.514439E0,3.3403738E0,3.0249848E0,4.4894543E0],"tree_param":{"num_deleted":"0","num_feature":"1983","num_nodes":"15","size_leaf_vector":"1"}},{"base_weights":[1.4270786E-2,5.6211895E-1,-3.3378962E-1,4.801601E-2,-1.1313202E-2,5.050463E-1,-6.6752166E-1,-6.705619E-3,4.845329E-2,1.3039856E-2,-9.159759E-1,-5.8104277E-2,-6.679532E-5],"categories":[],"categories_nodes":[],"categories_segments":[],"categories_sizes":[],"default_left":[0,0,0,0,0,0,0,0,0,0,0,0,0],"id":22,"left_children":[1,3,5,-1,-1,7,9,-1,-1,-1,11,-1,-1],"loss_changes":[7.7659183E0,5.489489E0,7.625037E0,0E0,0E0,2.7467735E0,4.848831E0,0E0,0E0,0E0,3.3143358E0,0E0,0E0],"parents":[2147483647,0,0,1,1,2,2,5,5,6,6,10,10],"right_children":[2,4,6,-1,-1,8,10,-1,-1,-1,12,-1,-1],"split_conditions":[1.37811685E-2,1.2517694E-1,1.7012665E0,4.801601E-2,-1.1313202E-2,1.4043867E-3,4.279006E-1,-6.705619E-3,4.845329E-2,1.3039856E-2,1.3174667E0,-5.8104277E-2,-6.679532E-5],"split_indices":[1616,1645,508,0,0,103,294,0,0,0,886,0,0],"split_type":[0,0,0,0,0,0,0,0,0,0,0,0,0],"sum_hessian":[3.6638885E1,1.3867965E1,2.2770922E1,9.00854E0,4.859424E0,6.1034913E0,1.666743E1,3.0747104E0,3.028781E0,3.4130695E0,1.325436E1,9.93158E0,3.3227808E0],"tree_param":{"num_deleted":"0","num_feature":"1983","num_nodes":"13","size_leaf_vector":"1"}},{"base_weights":[7.179786E-3,-3.5407346E-1,6.108657E-1,4.5454544E-1,-7.231278E-1,4.8372E-2,-1.6675653E-2,-1.0532229E-2,4.715746E-2,-9.536763E-1,1.0931117E-2,-5.7707656E-2,-5.3049275E-3],"categories":[],"categories_nodes":[],"categories_segments":[],"categories_sizes":[],"default_left":[0,0,0,0,0,0,0,0,0,0,0,0,0],"id":23,"left_children":[1,3,5,7,9,-1,-1,-1,-1,11,-1,-1,-1],"loss_changes":[8.560781E0,7.967696E0,5.6746016E0,3.3279555E0,4.315013E0,0E0,0E0,0E0,0E0,2.111412E0,0E0,0E0,0E0],"parents":[2147483647,0,0,1,1,2,2,3,3,4,4,9,9],"right_children":[2,4,6,8,10,-1,-1,-1,-1,12,-1,-1,-1],"split_conditions":[2.5773838E-1,6.8502736E-1,8.539488E-3,8.218374E-1,1.9675451E-3,4.8372E-2,-1.6675653E-2,-1.0532229E-2,4.715746E-2,7.812248E-2,1.0931117E-2,-5.7707656E-2,-5.3049275E-3],"split_indices":[1936,366,1929,645,1526,0,0,0,0,607,0,0,0],"split_type":[0,0,0,0,0,0,0,0,0,0,0,0,0],"sum_hessian":[3.5153286E1,2.2406353E1,1.2746933E1,6.7915096E0,1.5614844E1,9.294578E0,3.452355E0,3.2711868E0,3.5203226E0,1.2608929E1,3.0059159E0,9.516582E0,3.0923474E0],"tree_param":{"num_deleted":"0","num_feature":"1983","num_nodes":"13","size_leaf_vector":"1"}},{"base_weights":[-6.760931E-2,6.4993876E-1,-3.7308362E-1,5.0899673E-2,-4.3548155E-3,3.6633557E-1,-6.4913535E-1,4.656909E-2,-1.8181374E-2,-9.6106356E-1,6.5958174E-3,-8.076519E-3,-5.7358768E-2],"categories":[],"categories_nodes":[],"categories_segments":[],"categories_sizes":[],"default_left":[0,0,0,0,0,0,0,0,0,0,0,0,0],"id":24,"left_children":[1,3,5,-1,-1,7,9,-1,-1,11,-1,-1,-1],"loss_changes":[8.641555E0,3.4661965E0,6.1288567E0,0E0,0E0,4.3107595E0,5.4249897E0,0E0,0E0,1.7689838E0,0E0,0E0,0E0],"parents":[2147483647,0,0,1,1,2,2,5,5,6,6,9,9],"right_children":[2,4,6,-1,-1,8,10,-1,-1,12,-1,-1,-1],"split_conditions":[6.2177335E-3,1.1494909E-1,9.8725986E-1,5.0899673E-2,-4.3548155E-3,2.6764524E-1,2.2803727E-3,4.656909E-2,-1.8181374E-2,1.3160784E0,6.5958174E-3,-8.076519E-3,-5.7358768E-2],"split_indices":[1801,124,137,0,0,918,1513,0,0,463,0,0,0],"split_type":[0,0,0,0,0,0,0,0,0,0,0,0,0],"sum_hessian":[3.533831E1,9.780839E0,2.5557472E1,6.1053004E0,3.675539E0,6.6714034E0,1.8886068E1,3.526647E0,3.1447563E0,1.3258224E1,5.627845E0,3.310315E0,9.947908E0],"tree_param":{"num_deleted":"0","num_feature":"1983","num_nodes":"13","size_leaf_vector":"1"}},{"base_weights":[-0E0,-2.642513E-1,4.4814453E-2,-4.7549486E-1,3.0746145E-2,2.9751593E-2,-7.6169693E-1,-0E0,-1.0106751E0,-5.9092518E-2,-7.966743E-3],"categories":[],"categories_nodes":[],"categories_segments":[],"categories_sizes":[],"default_left":[0,0,0,0,0,0,0,0,0,0,0],"id":25,"left_children":[1,3,-1,5,-1,-1,7,-1,9,-1,-1],"loss_changes":[8.978945E0,6.0574512E0,0E0,8.594696E0,0E0,0E0,3.8458595E0,0E0,1.7519627E0,0E0,0E0],"parents":[2147483647,0,0,1,1,3,3,6,6,8,8],"right_children":[2,4,-1,6,-1,-1,8,-1,10,-1,-1],"split_conditions":[3.009482E-1,1.2029737E-1,4.4814453E-2,6.9904854E-3,3.0746145E-2,2.9751593E-2,1.4906526E-1,-0E0,5.756703E-1,-5.9092518E-2,-7.966743E-3],"split_indices":[1936,1200,0,1144,0,0,223,0,134,0,0],"split_type":[0,0,0,0,0,0,0,0,0,0,0],"sum_hessian":[3.4151554E1,2.7542387E1,6.6091666E0,2.30388E1,4.503589E0,4.331074E0,1.8707726E1,5.1808815E0,1.3526843E1,1.05181055E1,3.0087376E0],"tree_param":{"num_deleted":"0","num_feature":"1983","num_nodes":"11","size_leaf_vector":"1"}},{"base_weights":[-1.3752595E-2,-2.5946134E-1,3.9122883E-2,2.30143E-1,-8.817872E-1,5.6505954E-1,-2.7387232E-2,-5.7186093E-2,-1.5600477E-4,4.6336785E-2,-6.453387E-3],"categories":[],"categories_nodes":[],"categories_segments":[],"categories_sizes":[],"default_left":[0,0,0,0,0,0,0,0,0,0,0],"id":26,"left_children":[1,3,-1,5,7,9,-1,-1,-1,-1,-1],"loss_changes":[7.1501474E0,9.046794E0,0E0,5.114487E0,2.8464441E0,3.615686E0,0E0,0E0,0E0,0E0,0E0],"parents":[2147483647,0,0,1,1,3,3,4,4,5,5],"right_children":[2,4,-1,6,8,10,-1,-1,-1,-1,-1],"split_conditions":[3.009482E-1,7.697878E-1,3.9122883E-2,1.1864841E-1,1.993511E0,3.8256985E-1,-2.7387232E-2,-5.7186093E-2,-1.5600477E-4,4.6336785E-2,-6.453387E-3],"split_indices":[1936,332,0,201,508,220,0,0,0,0,0],"split_type":[0,0,0,0,0,0,0,0,0,0,0],"sum_hessian":[3.274012E1,2.6145521E1,6.5945973E0,1.5248618E1,1.0896904E1,1.1131668E1,4.1169496E0,7.842037E0,3.0548666E0,6.97249E0,4.1591787E0],"tree_param":{"num_deleted":"0","num_feature":"1983","num_nodes":"11","size_leaf_vector":"1"}},{"base_weights":[-3.328116E-2,5.7759815E-1,-4.38963E-1,8.4864324E-1,-1.4441686E-2,-6.7955434E-1,1.110559E-2,2.077282E-3,5.510669E-2,-9.011846E-1,6.4264694E-3,-1.42770065E-2,-5.554039E-2],"categories":[],"categories_nodes":[],"categories_segments":[],"categories_sizes":[],"default_left":[0,0,0,0,0,0,0,0,0,0,0,0,0],"id":27,"left_children":[1,3,5,7,-1,9,-1,-1,-1,11,-1,-1,-1],"loss_changes":[9.436251E0,4.107911E0,3.9930248E0,2.2794685E0,0E0,3.4266005E0,0E0,0E0,0E0,1.0337639E0,0E0,0E0,0E0],"parents":[2147483647,0,0,1,1,2,2,3,3,5,5,9,9],"right_children":[2,4,6,8,-1,10,-1,-1,-1,12,-1,-1,-1],"split_conditions":[1.7724924E0,4.4493037E-1,1.24571025E-1,5.0290215E-1,-1.4441686E-2,5.030976E-1,1.110559E-2,2.077282E-3,5.510669E-2,3.8555685E-2,6.4264694E-3,-1.42770065E-2,-5.554039E-2],"split_indices":[471,17,1644,545,0,159,0,0,0,428,0,0,0],"split_type":[0,0,0,0,0,0,0,0,0,0,0,0,0],"sum_hessian":[3.408639E1,1.31663475E1,2.0920044E1,1.014818E1,3.0181675E0,1.540787E1,5.512174E0,3.0761607E0,7.072019E0,1.2007847E1,3.4000237E0,4.3712482E0,7.6365986E0],"tree_param":{"num_deleted":"0","num_feature":"1983","num_nodes":"13","size_leaf_vector":"1"}},{"base_weights":[7.201655E-2,8.412346E-1,-2.2643189E-1,5.05851E-2,1.1670444E-2,4.0092906E-1,-5.0212747E-1,-1.5940323E-2,4.327827E-2,-8.29169E-1,9.972386E-3,-5.21874E-2,-3.1039927E-3],"categories":[],"categories_nodes":[],"categories_segments":[],"categories_sizes":[],"default_left":[0,0,0,0,0,0,0,0,0,0,0,0,0],"id":28,"left_children":[1,3,5,-1,-1,7,9,-1,-1,11,-1,-1,-1],"loss_changes":[8.641197E0,4.9124908E-1,5.1194205E0,0E0,0E0,3.7196527E0,4.960427E0,0E0,0E0,2.0741549E0,0E0,0E0,0E0],"parents":[2147483647,0,0,1,1,2,2,5,5,6,6,9,9],"right_children":[2,4,6,-1,-1,8,10,-1,-1,12,-1,-1,-1],"split_conditions":[6.4906436E-3,8.697464E-1,2.3137116E-1,5.05851E-2,1.1670444E-2,1.1326519E0,8.577032E-2,-1.5940323E-2,4.327827E-2,3.3928254E-3,9.972386E-3,-5.21874E-2,-3.1039927E-3],"split_indices":[1801,4,62,0,0,761,1777,0,0,1513,0,0,0],"split_type":[0,0,0,0,0,0,0,0,0,0,0,0,0],"sum_hessian":[3.3713215E1,8.50086E0,2.5212353E1,5.4726033E0,3.0282571E0,7.3090296E0,1.7903324E1,3.0292006E0,4.279829E0,1.2060217E1,5.843107E0,8.758503E0,3.3017142E0],"tree_param":{"num_deleted":"0","num_feature":"1983","num_nodes":"13","size_leaf_vector":"1"}},{"base_weights":[3.495412E-2,4.075722E-1,-5.914044E-1,-1.264456E-1,8.928276E-1,-1.0689992E-3,-4.7052804E-2,3.3194967E-2,-6.2545884E-1,5.5220943E-2,1.1738683E-2,-4.9274225E-2,-0E0],"categories":[],"categories_nodes":[],"categories_segments":[],"categories_sizes":[],"default_left":[0,0,0,0,0,0,0,0,0,0,0,0,0],"id":29,"left_children":[1,3,5,7,9,-1,-1,-1,11,-1,-1,-1,-1],"loss_changes":[9.002365E0,6.5794363E0,2.7260227E0,6.0270324E0,1.1627712E0,0E0,0E0,0E0,1.9807227E0,0E0,0E0,0E0,0E0],"parents":[2147483647,0,0,1,1,2,2,3,3,4,4,8,8],"right_children":[2,4,6,8,10,-1,-1,-1,12,-1,-1,-1,-1],"split_conditions":[6.2362876E-2,2.878599E-1,3.4089289E0,1.0551367E0,7.3605675E-1,-1.0689992E-3,-4.7052804E-2,3.3194967E-2,9.9704996E-2,5.5220943E-2,1.1738683E-2,-4.9274225E-2,-0E0],"split_indices":[1638,1626,983,970,621,0,0,0,205,0,0,0,0],"split_type":[0,0,0,0,0,0,0,0,0,0,0,0,0],"sum_hessian":[3.458502E1,2.2222937E1,1.23620825E1,1.1185831E1,1.1037105E1,5.6155496E0,6.7465334E0,3.9958684E0,7.189963E0,7.2101583E0,3.8269458E0,3.7412899E0,3.4486732E0],"tree_param":{"num_deleted":"0","num_feature":"1983","num_nodes":"13","size_leaf_vector":"1"}},{"base_weights":[7.141043E-2,4.5889598E-1,-4.0613982E-1,-0E0,9.017392E-1,1.3398627E-2,-8.260735E-1,2.9717287E-2,-3.210899E-2,5.3898513E-2,1.3760037E-2,-8.601475E-3,-5.141434E-2],"categories":[],"categories_nodes":[],"categories_segments":[],"categories_sizes":[],"default_left":[0,0,0,0,0,0,0,0,0,0,0,0,0],"id":30,"left_children":[1,3,5,7,9,-1,11,-1,-1,-1,-1,-1,-1],"loss_changes":[6.7490497E0,4.118603E0,5.1320143E0,5.269787E0,4.0431118E-1,0E0,9.369049E-1,0E0,0E0,0E0,0E0,0E0,0E0],"parents":[2147483647,0,0,1,1,2,2,3,3,4,4,6,6],"right_children":[2,4,6,8,10,-1,12,-1,-1,-1,-1,-1,-1],"split_conditions":[1.2147376E-1,5.9813387E-6,3.3869028E-2,5.1122684E-2,2.4000973E-2,1.3398627E-2,9.1921514E-1,2.9717287E-2,-3.210899E-2,5.3898513E-2,1.3760037E-2,-8.601475E-3,-5.141434E-2],"split_indices":[1783,1415,1925,1632,1397,0,427,0,0,0,0,0,0],"split_type":[0,0,0,0,0,0,0,0,0,0,0,0,0],"sum_hessian":[3.2429802E1,1.8061876E1,1.4367928E1,9.801146E0,8.260731E0,5.701313E0,8.666615E0,5.130163E0,4.6709824E0,5.1980066E0,3.0627236E0,3.0376263E0,5.628988E0],"tree_param":{"num_deleted":"0","num_feature":"1983","num_nodes":"13","size_leaf_vector":"1"}},{"base_weights":[-8.3446704E-2,-4.6742436E-1,5.0751996E-1,3.0468354E-2,-7.4225664E-1,5.0885804E-2,-2.8537527E-2,8.022406E-3,-9.65066E-1,2.5092049E-2,-3.2149743E-2,-5.698038E-2,-6.3058897E-3],"categories":[],"categories_nodes":[],"categories_segments":[],"categories_sizes":[],"default_left":[0,0,0,0,0,0,0,0,0,0,0,0,0],"id":31,"left_children":[1,3,5,-1,7,-1,9,-1,11,-1,-1,-1,-1],"loss_changes":[8.508244E0,7.6104164E0,4.206623E0,0E0,4.210023E0,0E0,3.6154575E0,0E0,1.8712206E0,0E0,0E0,0E0,0E0],"parents":[2147483647,0,0,1,1,2,2,4,4,6,6,8,8],"right_children":[2,4,6,-1,8,-1,10,-1,12,-1,-1,-1,-1],"split_conditions":[1.0450724E-1,2.0412578E-1,8.405304E-1,3.0468354E-2,6.5880466E-1,5.0885804E-2,1.6639124E-1,8.022406E-3,2.541891E-1,2.5092049E-2,-3.2149743E-2,-5.698038E-2,-6.3058897E-3],"split_indices":[1879,99,800,0,366,0,611,0,1936,0,0,0,0],"split_type":[0,0,0,0,0,0,0,0,0,0,0,0,0],"sum_hessian":[3.3421604E1,2.0614653E1,1.28069515E1,3.6226819E0,1.699197E1,5.736606E0,7.0703454E0,3.3857355E0,1.36062355E1,3.9041915E0,3.166154E0,1.0571009E1,3.0352263E0],"tree_param":{"num_deleted":"0","num_feature":"1983","num_nodes":"13","size_leaf_vector":"1"}},{"base_weights":[6.669257E-2,2.8056133E-1,-3.8547743E-2,6.2797195E-1,-3.6658323E-1,8.692663E-1,-1.6176445E-2,1.8671025E-2,-7.549661E-1,5.382433E-2,-0E0,-1.169642E-2,-4.7735255E-2],"categories":[],"categories_nodes":[],"categories_segments":[],"categories_sizes":[],"default_left":[0,0,0,0,0,0,0,0,0,0,0,0,0],"id":32,"left_children":[1,3,-1,5,7,9,-1,-1,11,-1,-1,-1,-1],"loss_changes":[6.4955397E0,6.9479094E0,0E0,5.102846E0,3.8213162E0,2.937561E0,0E0,0E0,2.770772E-1,0E0,0E0,0E0,0E0],"parents":[2147483647,0,0,1,1,3,3,4,4,5,5,8,8],"right_children":[2,4,-1,6,8,10,-1,-1,12,-1,-1,-1,-1],"split_conditions":[1.0327707E-1,5.1419693E-1,-3.8547743E-2,1.191514E0,1.5095975E-2,2.368927E-1,-1.6176445E-2,1.8671025E-2,7.702247E-1,5.382433E-2,-0E0,-1.169642E-2,-4.7735255E-2],"split_indices":[1859,964,0,209,213,1693,0,0,452,0,0,0,0],"split_type":[0,0,0,0,0,0,0,0,0,0,0,0,0],"sum_hessian":[3.2117188E1,2.6739532E1,5.3776546E0,1.7538181E1,9.201351E0,1.4212049E1,3.3261323E0,3.1049395E0,6.096412E0,1.11062E1,3.1058476E0,3.0314877E0,3.0649242E0],"tree_param":{"num_deleted":"0","num_feature":"1983","num_nodes":"13","size_leaf_vector":"1"}},{"base_weights":[1.2199658E-1,3.491604E-1,-3.4872696E-2,-2.0570888E-1,7.018521E-1,2.7267104E-2,-5.8668226E-1,5.0283737E-2,-2.589397E-4,3.6266518E-3,-4.730155E-2],"categories":[],"categories_nodes":[],"categories_segments":[],"categories_sizes":[],"default_left":[0,0,0,0,0,0,0,0,0,0,0],"id":33,"left_children":[1,3,-1,5,7,-1,9,-1,-1,-1,-1],"loss_changes":[6.7532935E0,5.8043942E0,0E0,4.1608124E0,3.899765E0,0E0,2.4054506E0,0E0,0E0,0E0,0E0],"parents":[2147483647,0,0,1,1,3,3,4,4,6,6],"right_children":[2,4,-1,6,8,-1,10,-1,-1,-1,-1],"split_conditions":[1.0327707E-1,1.2300127E-1,-3.4872696E-2,1.8190762E-1,1.9523247E-1,2.7267104E-2,3.3121663E-1,5.0283737E-2,-2.589397E-4,3.6266518E-3,-4.730155E-2],"split_indices":[1859,1853,0,92,1916,0,68,0,0,0,0],"split_type":[0,0,0,0,0,0,0,0,0,0,0],"sum_hessian":[3.1849548E1,2.5930954E1,5.9185934E0,1.0290876E1,1.5640079E1,3.0845735E0,7.2063026E0,1.0447341E1,5.1927376E0,3.007378E0,4.1989245E0],"tree_param":{"num_deleted":"0","num_feature":"1983","num_nodes":"11","size_leaf_vector":"1"}},{"base_weights":[-3.843231E-2,-4.087267E-1,5.261045E-1,-6.496646E-1,2.857763E-2,-9.041952E-3,4.4521227E-2,9.4434526E-4,-9.459469E-1,-1.3734455E-2,-5.4608416E-2],"categories":[],"categories_nodes":[],"categories_segments":[],"categories_sizes":[],"default_left":[0,0,0,0,0,0,0,0,0,0,0],"id":34,"left_children":[1,3,5,7,-1,-1,-1,-1,9,-1,-1],"loss_changes":[7.569926E0,5.9210796E0,4.0808296E0,3.8109264E0,0E0,0E0,0E0,0E0,5.4171467E-1,0E0,0E0],"parents":[2147483647,0,0,1,1,2,2,3,3,8,8],"right_children":[2,4,6,8,-1,-1,-1,-1,10,-1,-1],"split_conditions":[1.0316275E-1,2.5842068E-1,1.16809525E-1,1.8866889E-1,2.857763E-2,-9.041952E-3,4.4521227E-2,9.4434526E-4,5.682637E-2,-1.3734455E-2,-5.4608416E-2],"split_indices":[1879,1794,1768,1609,0,0,0,0,1752,0,0],"split_type":[0,0,0,0,0,0,0,0,0,0,0],"sum_hessian":[3.2210835E1,1.9892172E1,1.2318663E1,1.6590918E1,3.3012543E0,4.4385877E0,7.880075E0,5.5661254E0,1.1024792E1,3.1240945E0,7.9006968E0],"tree_param":{"num_deleted":"0","num_feature":"1983","num_nodes":"11","size_leaf_vector":"1"}},{"base_weights":[4.1040543E-2,-6.3082457E-1,3.2994258E-1,-0E0,-4.5161642E-2,5.6707907E-1,-2.5022948E-2,-0E0,9.4185615E-1,2.8783357E-2,-2.4840133E-2,1.2925724E-2,5.507918E-2],"categories":[],"categories_nodes":[],"categories_segments":[],"categories_sizes":[],"default_left":[0,0,0,0,0,0,0,0,0,0,0,0,0],"id":35,"left_children":[1,3,5,-1,-1,7,-1,9,11,-1,-1,-1,-1],"loss_changes":[6.75175E0,1.7919579E0,5.3693542E0,0E0,0E0,4.19868E0,0E0,3.43561E0,6.013155E-1,0E0,0E0,0E0,0E0],"parents":[2147483647,0,0,1,1,2,2,5,5,7,7,8,8],"right_children":[2,4,6,-1,-1,8,-1,10,12,-1,-1,-1,-1],"split_conditions":[5.768118E-2,2.1905312E-2,1.2106385E0,-0E0,-4.5161642E-2,1.0086516E-1,-2.5022948E-2,8.3939105E-2,1.635203E-1,2.8783357E-2,-2.4840133E-2,1.2925724E-2,5.507918E-2],"split_indices":[162,1658,834,0,0,226,0,201,342,0,0,0,0],"split_type":[0,0,0,0,0,0,0,0,0,0,0,0,0],"sum_hessian":[3.0794754E1,8.444109E0,2.2350645E1,3.1532693E0,5.2908397E0,1.7972807E1,4.377837E0,7.99942E0,9.973388E0,3.6041632E0,4.395257E0,3.0003555E0,6.973032E0],"tree_param":{"num_deleted":"0","num_feature":"1983","num_nodes":"13","size_leaf_vector":"1"}},{"base_weights":[-2.7598497E-2,3.6371064E-1,-4.79425E-1,-2.7128375E-1,7.421195E-1,-7.3193216E-1,1.6170684E-2,-3.839643E-2,1.477083E-2,2.8835647E-3,4.7097564E-2,-4.3553146E-4,-4.866408E-2],"categories":[],"categories_nodes":[],"categories_segments":[],"categories_sizes":[],"default_left":[0,0,0,0,0,0,0,0,0,0,0,0,0],"id":36,"left_children":[1,3,5,7,9,11,-1,-1,-1,-1,-1,-1,-1],"loss_changes":[6.1359086E0,4.900896E0,3.7867033E0,2.8322053E0,1.465693E0,2.1518369E0,0E0,0E0,0E0,0E0,0E0,0E0,0E0],"parents":[2147483647,0,0,1,1,2,2,3,3,4,4,5,5],"right_children":[2,4,6,8,10,12,-1,-1,-1,-1,-1,-1,-1],"split_conditions":[2.9871845E-1,9.5731564E-2,1.2156272E0,8.5991925E-1,1.1422387E-1,4.8744217E-2,1.6170684E-2,-3.839643E-2,1.477083E-2,2.8835647E-3,4.7097564E-2,-4.3553146E-4,-4.866408E-2],"split_indices":[99,1926,102,792,1768,1844,0,0,0,0,0,0,0],"split_type":[0,0,0,0,0,0,0,0,0,0,0,0,0],"sum_hessian":[3.066667E1,1.6524323E1,1.4142347E1,6.2829876E0,1.0241336E1,1.0987712E1,3.154635E0,3.0640237E0,3.2189639E0,3.009851E0,7.231485E0,3.3714454E0,7.6162667E0],"tree_param":{"num_deleted":"0","num_feature":"1983","num_nodes":"13","size_leaf_vector":"1"}},{"base_weights":[3.4184497E-2,6.713209E-1,-2.2023007E-1,4.5341644E-2,4.098553E-3,4.4013816E-1,-5.304798E-1,-4.645451E-3,3.891492E-2,4.176152E-2,-4.55961E-2,3.185866E-2,-2.7411297E-2],"categories":[],"categories_nodes":[],"categories_segments":[],"categories_sizes":[],"default_left":[0,0,0,0,0,0,0,0,0,0,0,0,0],"id":37,"left_children":[1,3,5,-1,-1,7,9,-1,-1,11,-1,-1,-1],"loss_changes":[5.5285845E0,1.1042128E0,5.447445E0,0E0,0E0,1.7897156E0,3.9871821E0,0E0,0E0,3.8039649E0,0E0,0E0,0E0],"parents":[2147483647,0,0,1,1,2,2,5,5,6,6,9,9],"right_children":[2,4,6,-1,-1,8,10,-1,-1,12,-1,-1,-1],"split_conditions":[7.917214E-2,5.3184605E-1,6.973196E-1,4.5341644E-2,4.098553E-3,1.6422082E-1,1.0640688E-2,-4.645451E-3,3.891492E-2,1.4288927E0,-4.55961E-2,3.185866E-2,-2.7411297E-2],"split_indices":[1650,1073,366,0,0,1972,1373,0,0,584,0,0,0],"split_type":[0,0,0,0,0,0,0,0,0,0,0,0,0],"sum_hessian":[3.0004244E1,7.7389894E0,2.2265255E1,4.6383605E0,3.100629E0,6.7462296E0,1.5519025E1,3.0667887E0,3.6794412E0,6.8146005E0,8.704424E0,3.3964574E0,3.4181433E0],"tree_param":{"num_deleted":"0","num_feature":"1983","num_nodes":"13","size_leaf_vector":"1"}},{"base_weights":[2.3940185E-2,2.3338793E-1,-3.6151286E-2,5.397079E-1,-3.314544E-1,8.1907296E-1,-7.808981E-3,1.3384367E-2,-4.0003683E-2,5.090223E-2,7.2692805E-3],"categories":[],"categories_nodes":[],"categories_segments":[],"categories_sizes":[],"default_left":[0,0,0,0,0,0,0,0,0,0,0],"id":38,"left_children":[1,3,-1,5,7,9,-1,-1,-1,-1,-1],"loss_changes":[5.455936E0,5.1215734E0,0E0,3.9476948E0,3.5035233E0,1.428071E0,0E0,0E0,0E0,0E0,0E0],"parents":[2147483647,0,0,1,1,3,3,4,4,5,5],"right_children":[2,4,-1,6,8,10,-1,-1,-1,-1,-1],"split_conditions":[1.0327707E-1,2.8898215E-1,-3.6151286E-2,5.697356E-2,2.3998207E-1,6.975012E-1,-7.808981E-3,1.3384367E-2,-4.0003683E-2,5.090223E-2,7.2692805E-3],"split_indices":[1859,266,0,1795,40,636,0,0,0,0,0],"split_type":[0,0,0,0,0,0,0,0,0,0,0],"sum_hessian":[3.1029072E1,2.541245E1,5.616622E0,1.6649363E1,8.763088E0,1.173E1,4.919362E0,4.128654E0,4.634434E0,8.151682E0,3.578318E0],"tree_param":{"num_deleted":"0","num_feature":"1983","num_nodes":"11","size_leaf_vector":"1"}},{"base_weights":[4.0503673E-2,6.6035587E-1,-3.582651E-1,4.5478363E-2,-7.004075E-5,-7.4099463E-1,1.3818927E-1,-3.0679905E-3,-4.9410168E-2,3.0896926E-2,-2.0459237E-2],"categories":[],"categories_nodes":[],"categories_segments":[],"categories_sizes":[],"default_left":[0,0,0,0,0,0,0,0,0,0,0],"id":39,"left_children":[1,3,5,-1,-1,7,9,-1,-1,-1,-1],"loss_changes":[7.701947E0,2.1057973E0,3.860097E0,0E0,0E0,1.640717E0,3.1022837E0,0E0,0E0,0E0,0E0],"parents":[2147483647,0,0,1,1,2,2,5,5,6,6],"right_children":[2,4,6,-1,-1,8,10,-1,-1,-1,-1],"split_conditions":[1.7724924E0,1.03610605E-2,2.4225347E-1,4.5478363E-2,-7.004075E-5,1.3248264E0,5.7824135E-2,-3.0679905E-3,-4.9410168E-2,3.0896926E-2,-2.0459237E-2],"split_indices":[471,1929,1728,0,0,784,0,0,0,0,0],"split_type":[0,0,0,0,0,0,0,0,0,0,0],"sum_hessian":[2.7123068E1,1.0202675E1,1.6920393E1,6.977267E0,3.2254083E0,9.111999E0,7.808394E0,3.2041032E0,5.907895E0,4.1212025E0,3.6871917E0],"tree_param":{"num_deleted":"0","num_feature":"1983","num_nodes":"11","size_leaf_vector":"1"}},{"base_weights":[5.9558332E-2,2.8414297E-1,-3.9165482E-2,-2.7768913E-1,5.5953836E-1,1.897656E-2,-3.491829E-2,4.748343E-2,3.0597826E-3,2.8684655E-2,-2.2111444E-2],"categories":[],"categories_nodes":[],"categories_segments":[],"categories_sizes":[],"default_left":[0,0,0,0,0,0,0,0,0,0,0],"id":40,"left_children":[1,3,-1,5,7,-1,-1,-1,9,-1,-1],"loss_changes":[6.3465996E0,4.4215803E0,0E0,3.29818E0,3.9129992E0,0E0,0E0,0E0,2.993503E0,0E0,0E0],"parents":[2147483647,0,0,1,1,3,3,4,4,8,8],"right_children":[2,4,-1,6,8,-1,-1,-1,10,-1,-1],"split_conditions":[1.0327707E-1,6.653142E-2,-3.9165482E-2,1.0102501E0,2.928092E-1,1.897656E-2,-3.491829E-2,4.748343E-2,1.3003873E0,2.8684655E-2,-2.2111444E-2],"split_indices":[1859,162,0,878,464,0,0,0,807,0,0],"split_type":[0,0,0,0,0,0,0,0,0,0,0],"sum_hessian":[2.9439638E1,2.4386261E1,5.053377E0,7.896631E0,1.648963E1,3.065431E0,4.8311996E0,8.757309E0,7.7323213E0,3.2348015E0,4.4975195E0],"tree_param":{"num_deleted":"0","num_feature":"1983","num_nodes":"11","size_leaf_vector":"1"}},{"base_weights":[4.0519927E-2,6.4730036E-1,-2.1417196E-1,4.503799E-2,1.4250897E-3,3.4052957E-2,-5.2856374E-1,9.817212E-3,-7.5403637E-1,-2.0674553E-3,-4.631196E-2],"categories":[],"categories_nodes":[],"categories_segments":[],"categories_sizes":[],"default_left":[0,0,0,0,0,0,0,0,0,0,0],"id":41,"left_children":[1,3,5,-1,-1,-1,7,-1,9,-1,-1],"loss_changes":[5.215813E0,1.420702E0,7.3744807E0,0E0,0E0,0E0,3.416028E0,0E0,1.6451912E0,0E0,0E0],"parents":[2147483647,0,0,1,1,2,2,6,6,8,8],"right_children":[2,4,6,-1,-1,-1,8,-1,10,-1,-1],"split_conditions":[7.917214E-2,1.607716E-1,6.690277E-1,4.503799E-2,1.4250897E-3,3.4052957E-2,5.734929E-2,9.817212E-3,4.7646838E-1,-2.0674553E-3,-4.631196E-2],"split_indices":[1650,1885,366,0,0,0,1893,0,891,0,0],"split_type":[0,0,0,0,0,0,0,0,0,0,0],"sum_hessian":[2.9675732E1,7.9781446E0,2.1697586E1,4.898714E0,3.0794306E0,4.9504757E0,1.674711E1,3.9292374E0,1.2817873E1,3.0900762E0,9.7277975E0],"tree_param":{"num_deleted":"0","num_feature":"1983","num_nodes":"11","size_leaf_vector":"1"}},{"base_weights":[-9.122743E-2,-3.0710202E-1,3.2630045E-2,3.3834395E-1,-6.2120557E-1,4.002692E-2,-1.7512804E-2,-8.309024E-1,8.639071E-3,-5.090737E-2,-2.4445315E-3],"categories":[],"categories_nodes":[],"categories_segments":[],"categories_sizes":[],"default_left":[0,0,0,0,0,0,0,0,0,0,0],"id":42,"left_children":[1,3,-1,5,7,-1,-1,9,-1,-1,-1],"loss_changes":[5.3975244E0,5.668949E0,0E0,3.6673598E0,3.3714786E0,0E0,0E0,1.9588003E0,0E0,0E0,0E0],"parents":[2147483647,0,0,1,1,3,3,4,4,7,7],"right_children":[2,4,-1,6,8,-1,-1,10,-1,-1,-1],"split_conditions":[3.009482E-1,2.111531E0,3.2630045E-2,1.4561129E-1,8.6066715E-4,4.002692E-2,-1.7512804E-2,3.1826212E0,8.639071E-3,-5.090737E-2,-2.4445315E-3],"split_indices":[1936,641,0,193,1415,0,0,977,0,0,0],"split_type":[0,0,0,0,0,0,0,0,0,0,0],"sum_hessian":[2.933294E1,2.3749146E1,5.583795E0,7.619418E0,1.6129726E1,4.4515805E0,3.1678376E0,1.2785861E1,3.3438659E0,9.725414E0,3.060447E0],"tree_param":{"num_deleted":"0","num_feature":"1983","num_nodes":"11","size_leaf_vector":"1"}},{"base_weights":[-3.8354743E-2,3.2777655E-1,-5.001586E-1,-1.977024E-1,7.4305415E-1,8.275284E-3,-7.55658E-1,1.5166315E-2,-3.350413E-2,8.37598E-3,4.740658E-2,-4.704331E-2,-8.719682E-3],"categories":[],"categories_nodes":[],"categories_segments":[],"categories_sizes":[],"default_left":[0,0,0,0,0,0,0,0,0,0,0,0,0],"id":43,"left_children":[1,3,5,7,9,-1,11,-1,-1,-1,-1,-1,-1],"loss_changes":[5.224689E0,4.0983496E0,2.6349194E0,2.58727E0,7.658644E-1,0E0,6.7451906E-1,0E0,0E0,0E0,0E0,0E0,0E0],"parents":[2147483647,0,0,1,1,2,2,3,3,4,4,6,6],"right_children":[2,4,6,8,10,-1,12,-1,-1,-1,-1,-1,-1],"split_conditions":[6.707394E-2,9.691963E-2,1.6059325E0,4.326453E-2,6.769369E-2,8.275284E-3,4.6026784E-1,1.5166315E-2,-3.350413E-2,8.37598E-3,4.740658E-2,-4.704331E-2,-8.719682E-3],"split_indices":[1776,1879,884,1844,1955,0,271,0,0,0,0,0,0],"split_type":[0,0,0,0,0,0,0,0,0,0,0,0,0],"sum_hessian":[2.6859392E1,1.5184553E1,1.1674839E1,7.0591645E0,8.125388E0,3.3250349E0,8.349804E0,3.670315E0,3.3888495E0,3.2173831E0,4.908005E0,5.2633843E0,3.08642E0],"tree_param":{"num_deleted":"0","num_feature":"1983","num_nodes":"13","size_leaf_vector":"1"}},{"base_weights":[-7.1540917E-3,4.6350333E-1,-2.963755E-1,4.2371463E-2,-1.1885899E-2,2.4559047E-2,-4.332957E-2,-3.0371347E-2,5.3783554E-1,2.4082747E-3,4.09312E-2],"categories":[],"categories_nodes":[],"categories_segments":[],"categories_sizes":[],"default_left":[0,0,0,0,0,0,0,0,0,0,0],"id":44,"left_children":[1,3,5,-1,-1,7,-1,-1,9,-1,-1],"loss_changes":[4.17254E0,3.585111E0,3.6336594E0,0E0,0E0,5.21845E0,0E0,0E0,1.0617018E0,0E0,0E0],"parents":[2147483647,0,0,1,1,2,2,5,5,8,8],"right_children":[2,4,6,-1,-1,8,-1,-1,10,-1,-1],"split_conditions":[6.0874946E-2,1.8129618E-1,4.0931278E-1,4.2371463E-2,-1.1885899E-2,4.7164387E-1,-4.332957E-2,-3.0371347E-2,1.6026653E-1,2.4082747E-3,4.09312E-2],"split_indices":[1681,1746,501,0,0,1081,0,0,1846,0,0],"split_type":[0,0,0,0,0,0,0,0,0,0,0],"sum_hessian":[2.6756905E1,9.593775E0,1.716313E1,6.0221725E0,3.571602E0,1.2094481E1,5.0686483E0,5.168695E0,6.925787E0,3.507767E0,3.41802E0],"tree_param":{"num_deleted":"0","num_feature":"1983","num_nodes":"11","size_leaf_vector":"1"}},{"base_weights":[4.003989E-2,3.4489578E-1,-4.658345E-1,5.616201E-1,-1.868816E-2,9.682655E-3,-4.3366168E-2,-0E0,8.850624E-1,1.3975279E-2,5.275091E-2],"categories":[],"categories_nodes":[],"categories_segments":[],"categories_sizes":[],"default_left":[0,0,0,0,0,0,0,0,0,0,0],"id":45,"left_children":[1,3,5,7,-1,-1,-1,-1,9,-1,-1],"loss_changes":[4.69603E0,3.401246E0,3.428006E0,2.861374E0,0E0,0E0,0E0,0E0,2.9590225E-1,0E0,0E0],"parents":[2147483647,0,0,1,1,2,2,3,3,8,8],"right_children":[2,4,6,8,-1,-1,-1,-1,10,-1,-1],"split_conditions":[3.183718E-2,7.641247E-1,1.6209788E0,2.1474194E-3,-1.868816E-2,9.682655E-3,-4.3366168E-2,-0E0,4.3792E-2,1.3975279E-2,5.275091E-2],"split_indices":[213,706,835,1318,0,0,0,0,1915,0,0],"split_type":[0,0,0,0,0,0,0,0,0,0,0],"sum_hessian":[2.644527E1,1.702162E1,9.423652E0,1.3520465E1,3.501154E0,3.8635752E0,5.560076E0,5.618199E0,7.902266E0,3.0198853E0,4.8823805E0],"tree_param":{"num_deleted":"0","num_feature":"1983","num_nodes":"11","size_leaf_vector":"1"}},{"base_weights":[-2.4168463E-2,3.0093816E-1,-4.7673982E-1,6.0980034E-1,-2.504001E-2,-4.0228296E-2,7.224583E-3,8.594802E-1,-7.920793E-3,9.775848E-3,5.1988464E-2],"categories":[],"categories_nodes":[],"categories_segments":[],"categories_sizes":[],"default_left":[0,0,0,0,0,0,0,0,0,0,0],"id":46,"left_children":[1,3,5,7,-1,-1,-1,9,-1,-1,-1],"loss_changes":[4.771363E0,5.268384E0,3.0670235E0,3.1309748E0,0E0,0E0,0E0,8.3233166E-1,0E0,0E0,0E0],"parents":[2147483647,0,0,1,1,2,2,3,3,7,7],"right_children":[2,4,6,8,-1,-1,-1,10,-1,-1,-1],"split_conditions":[1.0538658E-1,1.2584563E0,1.8864958E0,7.6595485E-1,-2.504001E-2,-4.0228296E-2,7.224583E-3,1.1053903E0,-7.920793E-3,9.775848E-3,5.1988464E-2],"split_indices":[1708,525,960,1069,0,0,0,601,0,0,0],"split_type":[0,0,0,0,0,0,0,0,0,0,0],"sum_hessian":[2.8359032E1,1.6764975E1,1.1594057E1,1.253826E1,4.2267137E0,7.3082232E0,4.285834E0,9.381672E0,3.1565888E0,3.0121627E0,6.3695097E0],"tree_param":{"num_deleted":"0","num_feature":"1983","num_nodes":"11","size_leaf_vector":"1"}},{"base_weights":[1.4396091E-1,4.0863365E-1,-3.9862865E-1,7.5366664E-1,-4.1505914E-2,-3.844404E-2,1.4186111E-2,5.112201E-3,4.8221633E-2,-2.4064405E-2,3.0373896E-2],"categories":[],"categories_nodes":[],"categories_segments":[],"categories_sizes":[],"default_left":[0,0,0,0,0,0,0,0,0,0,0],"id":47,"left_children":[1,3,5,7,9,-1,-1,-1,-1,-1,-1],"loss_changes":[4.514699E0,3.350665E0,3.1248436E0,1.3375373E0,3.6423254E0,0E0,0E0,0E0,0E0,0E0,0E0],"parents":[2147483647,0,0,1,1,2,2,3,3,4,4],"right_children":[2,4,6,8,10,-1,-1,-1,-1,-1,-1],"split_conditions":[2.2789586E-1,7.2039247E-1,1.8497727E0,6.0873055E-1,2.7217692E-1,-3.844404E-2,1.4186111E-2,5.112201E-3,4.8221633E-2,-2.4064405E-2,3.0373896E-2],"split_indices":[295,796,548,517,1542,0,0,0,0,0,0],"split_type":[0,0,0,0,0,0,0,0,0,0,0],"sum_hessian":[2.7161976E1,1.8712276E1,8.449698E0,9.955175E0,8.757102E0,5.4081163E0,3.0415816E0,3.2756553E0,6.6795197E0,5.619765E0,3.137337E0],"tree_param":{"num_deleted":"0","num_feature":"1983","num_nodes":"11","size_leaf_vector":"1"}},{"base_weights":[2.9909275E-2,-3.1735893E-2,2.4183954E-1,6.912989E-1,-1.5867613E-1,4.3661065E-2,4.5331395E-3,-3.6152147E-2,2.2372234E-1,-1.2253247E-2,3.5275877E-2],"categories":[],"categories_nodes":[],"categories_segments":[],"categories_sizes":[],"default_left":[0,0,0,0,0,0,0,0,0,0,0],"id":48,"left_children":[1,-1,3,5,7,-1,-1,-1,9,-1,-1],"loss_changes":[4.3013854E0,0E0,4.462629E0,9.9735785E-1,3.3553314E0,0E0,0E0,0E0,2.573204E0,0E0,0E0],"parents":[2147483647,0,0,2,2,3,3,4,4,8,8],"right_children":[2,-1,4,6,8,-1,-1,-1,10,-1,-1],"split_conditions":[9.3873656E-1,-3.1735893E-2,1.1214887E0,2.641658E-1,2.1485075E-1,4.3661065E-2,4.5331395E-3,-3.6152147E-2,8.6555265E-2,-1.2253247E-2,3.5275877E-2],"split_indices":[820,0,603,66,66,0,0,0,162,0,0],"split_type":[0,0,0,0,0,0,0,0,0,0,0],"sum_hessian":[2.663714E1,5.361475E0,2.1275665E1,9.458714E0,1.1816952E1,6.4353976E0,3.0233164E0,4.158893E0,7.6580586E0,4.2743015E0,3.383757E0],"tree_param":{"num_deleted":"0","num_feature":"1983","num_nodes":"11","size_leaf_vector":"1"}},{"base_weights":[2.0926503E-2,-4.900906E-1,3.0978265E-1,7.612514E-3,-4.022319E-2,7.0209527E-1,-2.4955325E-1,4.6144348E-2,1.0711531E-3,-3.252155E-2,1.653927E-2],"categories":[],"categories_nodes":[],"categories_segments":[],"categories_sizes":[],"default_left":[0,0,0,0,0,0,0,0,0,0,0],"id":49,"left_children":[1,3,5,-1,-1,7,9,-1,-1,-1,-1],"loss_changes":[4.653128E0,2.5990381E0,4.8399878E0,0E0,0E0,1.7496653E0,2.723545E0,0E0,0E0,0E0,0E0],"parents":[2147483647,0,0,1,1,2,2,5,5,6,6],"right_children":[2,4,6,-1,-1,8,10,-1,-1,-1,-1],"split_conditions":[6.653142E-2,2.1905312E-2,7.823106E-1,7.612514E-3,-4.022319E-2,7.578963E-2,1.587773E-4,4.6144348E-2,1.0711531E-3,-3.252155E-2,1.653927E-2],"split_indices":[162,1658,50,0,0,1632,1180,0,0,0,0],"split_type":[0,0,0,0,0,0,0,0,0,0,0],"sum_hessian":[2.7588123E1,9.334641E0,1.8253483E1,3.3017247E0,6.0329165E0,1.0533626E1,7.7198567E0,7.305358E0,3.2282672E0,4.5249414E0,3.1949155E0],"tree_param":{"num_deleted":"0","num_feature":"1983","num_nodes":"11","size_leaf_vector":"1"}},{"base_weights":[-6.035167E-3,4.0090504E-1,-3.5457116E-1,7.306475E-1,-1.1281765E-2,-7.057028E-1,1.0565038E-2,4.5640472E-2,1.0728724E-2,-4.5036253E-2,-5.9874062E-3],"categories":[],"categories_nodes":[],"categories_segments":[],"categories_sizes":[],"default_left":[0,0,0,0,0,0,0,0,0,0,0],"id":50,"left_children":[1,3,5,7,-1,9,-1,-1,-1,-1,-1],"loss_changes":[4.35512E0,3.2855268E0,3.6602118E0,4.1588688E-1,0E0,9.2298174E-1,0E0,0E0,0E0,0E0,0E0],"parents":[2147483647,0,0,1,1,2,2,3,3,5,5],"right_children":[2,4,6,8,-1,10,-1,-1,-1,-1,-1],"split_conditions":[5.3398218E-2,6.117687E-1,1.0487383E-1,6.685474E-1,-1.1281765E-2,2.4091227E-3,1.0565038E-2,4.5640472E-2,1.0728724E-2,-4.5036253E-2,-5.9874062E-3],"split_indices":[1844,377,1879,825,0,445,0,0,0,0,0],"split_type":[0,0,0,0,0,0,0,0,0,0,0],"sum_hessian":[2.6734118E1,1.2062675E1,1.4671443E1,7.7901E0,4.2725754E0,8.85765E0,5.813793E0,4.478131E0,3.3119693E0,5.711616E0,3.1460335E0],"tree_param":{"num_deleted":"0","num_feature":"1983","num_nodes":"11","size_leaf_vector":"1"}},{"base_weights":[5.798844E-2,4.4354647E-1,-2.5899413E-1,4.1308034E-2,-2.2993088E-2,2.1163357E-2,-4.8771352E-1,-2.3946738E-2,2.0870099E-2,-4.3856878E-2,5.8268826E-3],"categories":[],"categories_nodes":[],"categories_segments":[],"categories_sizes":[],"default_left":[0,0,0,0,0,0,0,0,0,0,0],"id":51,"left_children":[1,3,5,-1,7,-1,9,-1,-1,-1,-1],"loss_changes":[3.811434E0,2.623512E0,3.0909753E0,0E0,2.042793E0,0E0,3.5422344E0,0E0,0E0,0E0,0E0],"parents":[2147483647,0,0,1,1,2,2,4,4,6,6],"right_children":[2,4,6,-1,8,-1,10,-1,-1,-1,-1],"split_conditions":[5.963448E-2,1.2206303E-1,5.1127444E-3,4.1308034E-2,7.9581237E-1,2.1163357E-2,9.665327E-2,-2.3946738E-2,2.0870099E-2,-4.3856878E-2,5.8268826E-3],"split_indices":[1855,1602,1801,0,608,0,1879,0,0,0,0],"split_type":[0,0,0,0,0,0,0,0,0,0,0],"sum_hessian":[2.7155352E1,1.2034387E1,1.5120965E1,5.8826513E0,6.1517353E0,3.2595224E0,1.1861443E1,3.0480893E0,3.1036458E0,6.7643003E0,5.097142E0],"tree_param":{"num_deleted":"0","num_feature":"1983","num_nodes":"11","size_leaf_vector":"1"}},{"base_weights":[-0E0,-5.385012E-1,2.2563587E-1,-3.971765E-2,-2.1051553E-3,-2.178852E-2,4.6922866E-1,7.8935426E-1,-8.144055E-3,8.775056E-3,4.801118E-2],"categories":[],"categories_nodes":[],"categories_segments":[],"categories_sizes":[],"default_left":[0,0,0,0,0,0,0,0,0,0,0],"id":52,"left_children":[1,3,5,-1,-1,-1,7,9,-1,-1,-1],"loss_changes":[3.632522E0,9.7133875E-1,3.801556E0,0E0,0E0,0E0,3.648058E0,7.414861E-1,0E0,0E0,0E0],"parents":[2147483647,0,0,1,1,2,2,6,6,7,7],"right_children":[2,4,6,-1,-1,-1,8,10,-1,-1,-1],"split_conditions":[5.9602063E-2,1.2578136E-1,4.1080274E-2,-3.971765E-2,-2.1051553E-3,-2.178852E-2,1.3395618E-1,6.814439E-1,-8.144055E-3,8.775056E-3,4.801118E-2],"split_indices":[162,1902,1760,0,0,0,372,875,0,0,0],"split_type":[0,0,0,0,0,0,0,0,0,0,0],"sum_hessian":[2.5869774E1,6.8333483E0,1.9036425E1,3.5841167E0,3.2492316E0,4.5887127E0,1.4447713E1,9.365385E0,5.0823274E0,3.0494828E0,6.315902E0],"tree_param":{"num_deleted":"0","num_feature":"1983","num_nodes":"11","size_leaf_vector":"1"}},{"base_weights":[-5.0223228E-2,-2.7253416E-1,3.1556882E-2,2.0059362E-1,-5.914709E-1,-1.945008E-2,3.5461564E-2,-8.069023E-1,4.3356675E-3,-4.889592E-2,-1.081142E-2],"categories":[],"categories_nodes":[],"categories_segments":[],"categories_sizes":[],"default_left":[0,0,0,0,0,0,0,0,0,0,0],"id":53,"left_children":[1,3,-1,5,7,-1,-1,9,-1,-1,-1],"loss_changes":[4.4050746E0,3.5811505E0,0E0,3.6384585E0,2.215723E0,0E0,0E0,5.3999615E-1,0E0,0E0,0E0],"parents":[2147483647,0,0,1,1,3,3,4,4,7,7],"right_children":[2,4,-1,6,8,-1,-1,10,-1,-1,-1],"split_conditions":[3.2055816E-1,2.2958174E-1,3.1556882E-2,6.8792533E-3,1.395671E-2,-1.945008E-2,3.5461564E-2,8.8158655E-1,4.3356675E-3,-4.889592E-2,-1.081142E-2],"split_indices":[1626,11,0,1395,474,0,0,1001,0,0,0],"split_type":[0,0,0,0,0,0,0,0,0,0,0],"sum_hessian":[2.5047035E1,1.9900724E1,5.1463118E0,8.185896E0,1.1714828E1,3.918046E0,4.26785E0,8.7144575E0,3.0003707E0,5.6097803E0,3.1046767E0],"tree_param":{"num_deleted":"0","num_feature":"1983","num_nodes":"11","size_leaf_vector":"1"}},{"base_weights":[-4.1455593E-2,-2.4746828E-1,2.8204946E-2,2.1766248E-1,-5.7131815E-1,3.2569166E-2,-1.5874699E-2,-4.343442E-2,2.4570284E-6],"categories":[],"categories_nodes":[],"categories_segments":[],"categories_sizes":[],"default_left":[0,0,0,0,0,0,0,0,0],"id":54,"left_children":[1,3,-1,5,7,-1,-1,-1,-1],"loss_changes":[3.7845244E0,3.6986895E0,0E0,2.9134305E0,2.4728518E0,0E0,0E0,0E0,0E0],"parents":[2147483647,0,0,1,1,3,3,4,4],"right_children":[2,4,-1,6,8,-1,-1,-1,-1],"split_conditions":[1.1844937E0,1.5263958E-1,2.8204946E-2,5.4769218E-2,1.0339926E-1,3.2569166E-2,-1.5874699E-2,-4.343442E-2,2.4570284E-6],"split_indices":[865,1807,0,367,630,0,0,0,0],"split_type":[0,0,0,0,0,0,0,0,0],"sum_hessian":[2.6352228E1,2.0668507E1,5.68372E0,8.626154E0,1.2042354E1,4.6279216E0,3.9982328E0,7.350857E0,4.6914964E0],"tree_param":{"num_deleted":"0","num_feature":"1983","num_nodes":"9","size_leaf_vector":"1"}},{"base_weights":[3.1923234E-2,-1.7600337E-1,3.6609758E-2,-4.68214E-1,2.8423145E-1,9.080819E-3,-6.9852847E-1,3.518523E-2,-8.013891E-3,-4.5717355E-2,-4.4698995E-3],"categories":[],"categories_nodes":[],"categories_segments":[],"categories_sizes":[],"default_left":[0,0,0,0,0,0,0,0,0,0,0],"id":55,"left_children":[1,3,-1,5,7,-1,9,-1,-1,-1,-1],"loss_changes":[4.1867795E0,3.24514E0,0E0,2.4536216E0,2.0812597E0,0E0,1.1984873E0,0E0,0E0,0E0,0E0],"parents":[2147483647,0,0,1,1,3,3,4,4,6,6],"right_children":[2,4,-1,6,8,-1,10,-1,-1,-1,-1],"split_conditions":[3.009482E-1,9.531485E-2,3.6609758E-2,1.163921E0,1.3734122E-1,9.080819E-3,7.3156394E-2,3.518523E-2,-8.013891E-3,-4.5717355E-2,-4.4698995E-3],"split_indices":[1936,162,0,971,317,0,1898,0,0,0,0],"split_type":[0,0,0,0,0,0,0,0,0,0,0],"sum_hessian":[2.4602238E1,2.0014118E1,4.5881186E0,1.2353369E1,7.66075E0,3.2296453E0,9.123723E0,3.4571118E0,4.203638E0,5.8756404E0,3.248083E0],"tree_param":{"num_deleted":"0","num_feature":"1983","num_nodes":"11","size_leaf_vector":"1"}}]},"name":"gbtree"},"learner_model_param":{"base_score":"[5.0003684E-1]","boost_from_average":"1","num_class":"0","num_feature":"1983","num_target":"1"},"objective":{"name":"binary:logistic","reg_loss_param":{"scale_pos_weight":"0.962406039"}}},"version":[3,1,2]}