{"learner":{"attributes":{"best_iteration":"50","best_score":"0.5352093207667459","scikit_learn":"{\"_estimator_type\": \"classifier\"}"},"feature_names":[],"feature_types":[],"gradient_booster":{"model":{"cats":{"enc":[],"feature_segments":[],"sorted_idx":[]},"gbtree_model_param":{"num_parallel_tree":"1","num_trees":"51"},"iteration_indptr":[0,1,2,3,4,5,6,7,8,9,10,11,12,13,14,15,16,17,18,19,20,21,22,23,24,25,26,27,28,29,30,31,32,33,34,35,36,37,38,39,40,41,42,43,44,45,46,47,48,49,50,51],"tree_info":[0,0,0,0,0,0,0,0,0,0,0,0,0,0,0,0,0,0,0,0,0,0,0,0,0,0,0,0,0,0,0,0,0,0,0,0,0,0,0,0,0,0,0,0,0,0,0,0,0,0,0],"trees":[{"base_weights":[-0E0,1.0853269E0,-8.3871114E-1,1.3910227E0,-1.4617534E-2,4.6600136E-1,-1.3387787E0,2.2893378E-3,8.4685676E-2,-2.3977006E-2,6.157009E-2,-8.098145E-2,-5.876371E-4],"categories":[],"categories_nodes":[],"categories_segments":[],"categories_sizes":[],"default_left":[0,0,0,0,0,0,0,0,0,0,0,0,0],"id":0,"left_children":[1,3,5,7,-1,9,11,-1,-1,-1,-1,-1,-1],"loss_changes":[4.1433205E1,9.2739105E0,1.810137E1,6.4442825E0,0E0,7.4429026E0,6.9356194E0,0E0,0E0,0E0,0E0,0E0,0E0],"parents":[2147483647,0,0,1,1,2,2,3,3,5,5,6,6],"right_children":[2,4,6,8,-1,10,12,-1,-1,-1,-1,-1,-1],"split_conditions":[1.6037813E-1,4.945531E0,4.8097E-3,3.4503513E-3,-1.4617534E-2,1.038552E-1,1.24516286E-1,2.2893378E-3,8.4685676E-2,-2.3977006E-2,6.157009E-2,-8.098145E-2,-5.876371E-4],"split_indices":[1209,2500,4655,5116,0,674,173,0,0,0,0,0,0],"split_type":[0,0,0,0,0,0,0,0,0,0,0,0,0],"sum_hessian":[4.1526073E1,1.7828339E1,2.3697735E1,1.4634313E1,3.1940265E0,6.5485005E0,1.7149235E1,3.1716385E0,1.1462674E1,3.2052205E0,3.3432798E0,1.3727597E1,3.421638E0],"tree_param":{"num_deleted":"0","num_feature":"5146","num_nodes":"13","size_leaf_vector":"1"}},{"base_weights":[1.3763697E-1,1.2644005E0,-8.7392634E-1,1.3509E-3,1.4821031E0,-1.2396225E0,1.1383725E-2,2.0400386E-2,8.279904E-2,-3.952065E-3,-7.8923486E-2],"categories":[],"categories_nodes":[],"categories_segments":[],"categories_sizes":[],"default_left":[0,0,0,0,0,0,0,0,0,0,0],"id":1,"left_children":[1,3,5,-1,7,9,-1,-1,-1,-1,-1],"loss_changes":[4.950147E1,5.2848473E0,9.923618E0,0E0,1.6744919E0,6.518667E0,0E0,0E0,0E0,0E0,0E0],"parents":[2147483647,0,0,1,1,2,2,4,4,5,5],"right_children":[2,4,6,-1,8,10,-1,-1,-1,-1,-1],"split_conditions":[4.212635E0,1.1218706E-2,3.6321075E0,1.3509E-3,1.5254986E-1,3.4521695E-3,1.1383725E-2,2.0400386E-2,8.279904E-2,-3.952065E-3,-7.8923486E-2],"split_indices":[3173,6,3073,0,4570,4517,0,0,0,0,0],"split_type":[0,0,0,0,0,0,0,0,0,0,0],"sum_hessian":[3.945705E1,1.8475956E1,2.0981094E1,3.1693723E0,1.5306583E1,1.5631973E1,5.3491216E0,3.145295E0,1.2161288E1,4.1566696E0,1.1475304E1],"tree_param":{"num_deleted":"0","num_feature":"5146","num_nodes":"11","size_leaf_vector":"1"}},{"base_weights":[-1.2214349E-1,1.1197859E0,-9.198682E-1,-0E0,7.435577E-2,-1.173865E0,1.9149808E-2,-7.4822776E-2,-3.2982477E-3],"categories":[],"categories_nodes":[],"categories_segments":[],"categories_sizes":[],"default_left":[0,0,0,0,0,0,0,0,0],"id":2,"left_children":[1,3,5,-1,-1,7,-1,-1,-1],"loss_changes":[4.1935772E1,6.745693E0,9.471998E0,0E0,0E0,7.521805E0,0E0,0E0,0E0],"parents":[2147483647,0,0,1,1,2,2,5,5],"right_children":[2,4,6,-1,-1,8,-1,-1,-1],"split_conditions":[1.2781729E-1,2.3872314E-2,7.457541E-2,-0E0,7.435577E-2,2.3376656E-1,1.9149808E-2,-7.4822776E-2,-3.2982477E-3],"split_indices":[1209,956,4632,0,0,4462,0,0,0],"split_type":[0,0,0,0,0,0,0,0,0],"sum_hessian":[3.826944E1,1.460265E1,2.3666792E1,4.1387377E0,1.0463912E1,2.0035582E1,3.6312099E0,1.4904196E1,5.131386E0],"tree_param":{"num_deleted":"0","num_feature":"5146","num_nodes":"9","size_leaf_vector":"1"}},{"base_weights":[-3.0401463E-2,9.509648E-1,-7.716455E-1,-1.484921E-2,6.947701E-2,1.9311903E-2,-1.1156799E0,-3.469044E-4,-7.157227E-2],"categories":[],"categories_nodes":[],"categories_segments":[],"categories_sizes":[],"default_left":[0,0,0,0,0,0,0,0,0],"id":3,"left_children":[1,3,5,-1,-1,-1,7,-1,-1],"loss_changes":[3.291114E1,1.1579123E1,1.1212884E1,0E0,0E0,0E0,7.0036964E0,0E0,0E0],"parents":[2147483647,0,0,1,1,2,2,6,6],"right_children":[2,4,6,-1,-1,-1,8,-1,-1],"split_conditions":[4.4642687E0,3.2786503E-2,4.464199E-2,-1.484921E-2,6.947701E-2,1.9311903E-2,6.777525E-2,-3.469044E-4,-7.157227E-2],"split_indices":[3173,4304,4758,0,0,0,4313,0,0],"split_type":[0,0,0,0,0,0,0,0,0],"sum_hessian":[4.1250042E1,1.7448463E1,2.3801577E1,4.6460323E0,1.2802431E1,5.3292885E0,1.8472288E1,4.6179595E0,1.3854329E1],"tree_param":{"num_deleted":"0","num_feature":"5146","num_nodes":"9","size_leaf_vector":"1"}},{"base_weights":[3.810443E-2,9.935093E-1,-7.1469027E-1,-9.363492E-3,1.2807133E0,-1.1273837E0,2.8140187E-2,7.230558E-2,1.6129013E-2,5.494794E-3,-7.094469E-2],"categories":[],"categories_nodes":[],"categories_segments":[],"categories_sizes":[],"default_left":[0,0,0,0,0,0,0,0,0,0,0],"id":4,"left_children":[1,3,5,-1,7,9,-1,-1,-1,-1,-1],"loss_changes":[3.3091812E1,7.4680443E0,1.4881446E1,0E0,1.52705E0,7.7138577E0,0E0,0E0,0E0,0E0,0E0],"parents":[2147483647,0,0,1,1,2,2,4,4,5,5],"right_children":[2,4,6,-1,8,10,-1,-1,-1,-1,-1],"split_conditions":[4.212635E0,1.2663716E-2,3.7029786E0,-9.363492E-3,2.0860322E-2,5.7148866E-2,2.8140187E-2,7.230558E-2,1.6129013E-2,5.494794E-3,-7.094469E-2],"split_indices":[3173,597,3073,0,4525,835,0,0,0,0,0],"split_type":[0,0,0,0,0,0,0,0,0,0,0],"sum_hessian":[4.1997196E1,1.8284653E1,2.3712543E1,3.6453378E0,1.4639316E1,1.8159437E1,5.5531063E0,1.1526563E1,3.1127532E0,3.6348293E0,1.4524608E1],"tree_param":{"num_deleted":"0","num_feature":"5146","num_nodes":"11","size_leaf_vector":"1"}},{"base_weights":[2.7655734E-2,1.0969135E0,-6.913602E-1,6.931831E-2,-5.8045466E-3,3.2444417E-2,-1.0164541E0,-7.313993E-2,-0E0,-5.0379187E-2,5.4301035E-2],"categories":[],"categories_nodes":[],"categories_segments":[],"categories_sizes":[],"default_left":[0,0,0,0,0,0,0,0,0,0,0],"id":5,"left_children":[1,3,5,-1,-1,-1,7,-1,9,-1,-1],"loss_changes":[3.5727955E1,7.0145035E0,1.3445153E1,0E0,0E0,0E0,1.0598343E1,0E0,1.2073355E1,0E0,0E0],"parents":[2147483647,0,0,1,1,2,2,6,6,8,8],"right_children":[2,4,6,-1,-1,-1,8,-1,10,-1,-1],"split_conditions":[4.212635E0,3.120592E-1,4.464199E-2,6.931831E-2,-5.8045466E-3,3.2444417E-2,2.8960986E0,-7.313993E-2,8.280968E-2,-5.0379187E-2,5.4301035E-2],"split_indices":[3173,4374,4758,0,0,0,3073,0,1348,0,0],"split_type":[0,0,0,0,0,0,0,0,0,0,0],"sum_hessian":[4.2446E1,1.6699656E1,2.5746344E1,1.3318206E1,3.38145E0,4.5770707E0,2.1169271E1,1.4140138E1,7.0291348E0,3.692861E0,3.3362737E0],"tree_param":{"num_deleted":"0","num_feature":"5146","num_nodes":"11","size_leaf_vector":"1"}},{"base_weights":[-2.4298323E-2,7.2141474E-1,-7.027848E-1,-2.9263407E-2,1.0468322E0,-1.2196226E0,3.3443227E-1,6.7841254E-2,-1.1059456E-2,-8.291672E-3,-7.211312E-2,-3.6425646E-2,5.7548463E-2],"categories":[],"categories_nodes":[],"categories_segments":[],"categories_sizes":[],"default_left":[0,0,0,0,0,0,0,0,0,0,0,0,0],"id":6,"left_children":[1,3,5,-1,7,9,11,-1,-1,-1,-1,-1,-1],"loss_changes":[2.2435015E1,1.0238524E1,1.3369753E1,0E0,7.6562786E0,3.1181126E0,9.737813E0,0E0,0E0,0E0,0E0,0E0,0E0],"parents":[2147483647,0,0,1,1,2,2,4,4,5,5,6,6],"right_children":[2,4,6,-1,8,10,12,-1,-1,-1,-1,-1,-1],"split_conditions":[4.6826153E0,2.2756538E0,2.953189E0,-2.9263407E-2,2.8612065E0,1.5457814E0,2.4581222E-2,6.7841254E-2,-1.1059456E-2,-8.291672E-3,-7.211312E-2,-3.6425646E-2,5.7548463E-2],"split_indices":[3173,2335,3073,0,2849,2971,4664,0,0,0,0,0,0],"split_type":[0,0,0,0,0,0,0,0,0,0,0,0,0],"sum_hessian":[4.0341373E1,1.908807E1,2.1253305E1,3.4261923E0,1.5661878E1,1.4014613E1,7.2386923E0,1.2536001E1,3.1258757E0,3.131513E0,1.08831E1,3.1852965E0,4.0533957E0],"tree_param":{"num_deleted":"0","num_feature":"5146","num_nodes":"13","size_leaf_vector":"1"}},{"base_weights":[3.044649E-2,7.9264355E-1,-5.395478E-1,1.105983E0,-2.2019831E-2,-1.0668588E0,4.2393696E-1,-2.3098825E-3,7.059155E-2,-6.900333E-2,8.24217E-3,5.8456726E-2,-2.5282731E-2],"categories":[],"categories_nodes":[],"categories_segments":[],"categories_sizes":[],"default_left":[0,0,0,0,0,0,0,0,0,0,0,0,0],"id":7,"left_children":[1,3,5,7,-1,9,11,-1,-1,-1,-1,-1,-1],"loss_changes":[1.8835667E1,8.214605E0,1.3548544E1,5.7078705E0,0E0,6.99518E0,8.260666E0,0E0,0E0,0E0,0E0,0E0,0E0],"parents":[2147483647,0,0,1,1,2,2,3,3,5,5,6,6],"right_children":[2,4,6,8,-1,10,12,-1,-1,-1,-1,-1,-1],"split_conditions":[4.4642687E0,5.3633623E0,1.3494402E-1,7.2117555E-3,-2.2019831E-2,1.4361978E-1,1.0131924E-1,-2.3098825E-3,7.059155E-2,-6.900333E-2,8.24217E-3,5.8456726E-2,-2.5282731E-2],"split_indices":[3173,3674,4919,392,0,5107,769,0,0,0,0,0,0],"split_type":[0,0,0,0,0,0,0,0,0,0,0,0,0],"sum_hessian":[3.9328354E1,1.656792E1,2.2760435E1,1.34397955E1,3.1281247E0,1.4638212E1,8.122224E0,3.1068213E0,1.03329735E1,1.154319E1,3.0950215E0,4.281891E0,3.8403325E0],"tree_param":{"num_deleted":"0","num_feature":"5146","num_nodes":"13","size_leaf_vector":"1"}},{"base_weights":[-1.2707148E-2,6.806964E-1,-6.10771E-1,-1.7666622E-1,5.8663018E-2,2.9798094E-2,-9.7012615E-1,3.220349E-2,-5.2074213E-2,-6.675131E-2,5.94682E-4],"categories":[],"categories_nodes":[],"categories_segments":[],"categories_sizes":[],"default_left":[0,0,0,0,0,0,0,0,0,0,0],"id":8,"left_children":[1,3,5,7,-1,-1,9,-1,-1,-1,-1],"loss_changes":[1.7996256E1,8.978847E0,1.1325357E1,7.7536626E0,0E0,0E0,6.9107685E0,0E0,0E0,0E0,0E0],"parents":[2147483647,0,0,1,1,2,2,3,3,6,6],"right_children":[2,4,6,8,-1,-1,10,-1,-1,-1,-1],"split_conditions":[1.6037813E-1,1.7669262E0,4.464199E-2,1.2106488E0,5.8663018E-2,2.9798094E-2,1.431204E-1,3.220349E-2,-5.2074213E-2,-6.675131E-2,5.94682E-4],"split_indices":[1209,2706,4758,3424,0,0,4919,0,0,0,0],"split_type":[0,0,0,0,0,0,0,0,0,0,0],"sum_hessian":[3.9407684E1,1.804385E1,2.1363832E1,6.9778204E0,1.10660305E1,4.5361366E0,1.6827696E1,3.7827568E0,3.1950638E0,1.1818905E1,5.008791E0],"tree_param":{"num_deleted":"0","num_feature":"5146","num_nodes":"11","size_leaf_vector":"1"}},{"base_weights":[9.45246E-3,8.923545E-1,-6.117298E-1,-1.2331712E-2,1.1573291E0,-1.0973136E0,3.0693993E-1,6.71897E-2,1.0434046E-2,9.415436E-3,-6.99351E-2,5.531587E-2,-4.3295152E-2],"categories":[],"categories_nodes":[],"categories_segments":[],"categories_sizes":[],"default_left":[0,0,0,0,0,0,0,0,0,0,0,0,0],"id":9,"left_children":[1,3,5,-1,7,9,11,-1,-1,-1,-1,-1,-1],"loss_changes":[2.4642988E1,6.2735777E0,1.2483574E1,0E0,2.0269318E0,7.5107403E0,1.1863918E1,0E0,0E0,0E0,0E0,0E0,0E0],"parents":[2147483647,0,0,1,1,2,2,4,4,5,5,6,6],"right_children":[2,4,6,-1,8,10,12,-1,-1,-1,-1,-1,-1],"split_conditions":[4.212635E0,8.611411E-3,2.8960986E0,-1.2331712E-2,1.734227E-1,2.208467E0,6.069352E-2,6.71897E-2,1.0434046E-2,9.415436E-3,-6.99351E-2,5.531587E-2,-4.3295152E-2],"split_indices":[3173,1740,3073,0,112,2820,4501,0,0,0,0,0,0],"split_type":[0,0,0,0,0,0,0,0,0,0,0,0,0],"sum_hessian":[4.0890812E1,1.6593687E1,2.4297127E1,3.0866807E0,1.3507006E1,1.5712081E1,8.585046E0,1.0503892E1,3.003114E0,3.0633662E0,1.2648715E1,5.223534E0,3.3615112E0],"tree_param":{"num_deleted":"0","num_feature":"5146","num_nodes":"13","size_leaf_vector":"1"}},{"base_weights":[-3.6012188E-2,6.8864477E-1,-5.896947E-1,-9.374633E-2,5.8576025E-2,-9.9322283E-1,5.1022446E-1,3.0785685E-2,-4.563613E-2,1.0800487E-2,-6.2322635E-2,5.459515E-2,-1.2336004E-2],"categories":[],"categories_nodes":[],"categories_segments":[],"categories_sizes":[],"default_left":[0,0,0,0,0,0,0,0,0,0,0,0,0],"id":10,"left_children":[1,3,5,7,-1,9,11,-1,-1,-1,-1,-1,-1],"loss_changes":[1.8267443E1,7.769268E0,1.2526925E1,6.551602E0,0E0,6.6565704E0,4.2284107E0,0E0,0E0,0E0,0E0,0E0,0E0],"parents":[2147483647,0,0,1,1,2,2,3,3,5,5,6,6],"right_children":[2,4,6,8,-1,10,12,-1,-1,-1,-1,-1,-1],"split_conditions":[4.3142285E0,2.8789296E0,3.7029786E0,3.1763595E-1,5.8576025E-2,2.3752794E0,3.2420325E0,3.0785685E-2,-4.563613E-2,1.0800487E-2,-6.2322635E-2,5.459515E-2,-1.2336004E-2],"split_indices":[3173,3845,3073,4235,0,2696,3168,0,0,0,0,0,0],"split_type":[0,0,0,0,0,0,0,0,0,0,0,0,0],"sum_hessian":[4.1529057E1,1.769795E1,2.3831106E1,7.290295E0,1.0407655E1,1.7643242E1,6.1878653E0,4.106879E0,3.1834157E0,3.0375047E0,1.4605737E1,3.0732727E0,3.1145923E0],"tree_param":{"num_deleted":"0","num_feature":"5146","num_nodes":"13","size_leaf_vector":"1"}},{"base_weights":[-5.5668555E-2,6.024011E-1,-7.246342E-1,-1.6989933E-1,5.888443E-2,2.687863E-2,-1.0325719E0,3.155085E-2,-4.2272326E-2,-6.624954E-2,8.208103E-3],"categories":[],"categories_nodes":[],"categories_segments":[],"categories_sizes":[],"default_left":[0,0,0,0,0,0,0,0,0,0,0],"id":11,"left_children":[1,3,5,7,-1,-1,9,-1,-1,-1,-1],"loss_changes":[1.784652E1,9.581981E0,8.968011E0,6.714963E0,0E0,0E0,6.4644623E0,0E0,0E0,0E0,0E0],"parents":[2147483647,0,0,1,1,2,2,3,3,6,6],"right_children":[2,4,6,8,-1,-1,10,-1,-1,-1,-1],"split_conditions":[4.137789E0,7.496357E-2,3.6166108E-1,2.8259495E-2,5.888443E-2,2.687863E-2,3.4617074E-2,3.155085E-2,-4.2272326E-2,-6.624954E-2,8.208103E-3],"split_indices":[2744,164,4178,291,0,0,4386,0,0,0,0],"split_type":[0,0,0,0,0,0,0,0,0,0,0],"sum_hessian":[3.6528522E1,1.843919E1,1.8089333E1,8.399163E0,1.0040026E1,3.1915019E0,1.4897831E1,3.8355784E0,4.5635853E0,1.1867303E1,3.0305285E0],"tree_param":{"num_deleted":"0","num_feature":"5146","num_nodes":"11","size_leaf_vector":"1"}},{"base_weights":[-2.9278041E-3,6.007109E-1,-8.158686E-1,9.132636E-1,-1.7913839E-2,-1.143169E0,2.0735782E-2,-8.579935E-3,1.1496226E0,-6.5526836E-2,-1.4826069E-2,6.781607E-2,1.2666071E-2],"categories":[],"categories_nodes":[],"categories_segments":[],"categories_sizes":[],"default_left":[0,0,0,0,0,0,0,0,0,0,0,0,0],"id":12,"left_children":[1,3,5,7,-1,9,-1,-1,11,-1,-1,-1,-1],"loss_changes":[2.0835022E1,7.9860573E0,8.327757E0,5.3515797E0,0E0,1.1771889E0,0E0,0E0,2.096796E0,0E0,0E0,0E0,0E0],"parents":[2147483647,0,0,1,1,2,2,3,3,5,5,8,8],"right_children":[2,4,6,8,-1,10,-1,-1,12,-1,-1,-1,-1],"split_conditions":[3.6864905E0,2.0773102E-1,4.681905E0,1.2016943E0,-1.7913839E-2,7.0598535E-2,2.0735782E-2,-8.579935E-3,4.2653775E0,-6.5526836E-2,-1.4826069E-2,6.781607E-2,1.2666071E-2],"split_indices":[3026,503,2084,3408,0,198,0,0,2351,0,0,0,0],"split_type":[0,0,0,0,0,0,0,0,0,0,0,0,0],"sum_hessian":[3.8416534E1,2.2275366E1,1.6141167E1,1.6950504E1,5.3248625E0,1.2926436E1,3.214731E0,3.0546918E0,1.3895812E1,9.779299E0,3.1471374E0,1.0366991E1,3.5288212E0],"tree_param":{"num_deleted":"0","num_feature":"5146","num_nodes":"13","size_leaf_vector":"1"}},{"base_weights":[2.1772837E-2,6.598416E-1,-5.5566007E-1,-2.5076693E-2,9.7528243E-1,-8.747044E-1,2.950666E-2,6.641408E-2,-1.1673256E-2,8.133532E-3,-5.9506178E-2],"categories":[],"categories_nodes":[],"categories_segments":[],"categories_sizes":[],"default_left":[0,0,0,0,0,0,0,0,0,0,0],"id":13,"left_children":[1,3,5,-1,7,9,-1,-1,-1,-1,-1],"loss_changes":[1.5404328E1,8.31573E0,9.063417E0,0E0,7.725642E0,6.378825E0,0E0,0E0,0E0,0E0,0E0],"parents":[2147483647,0,0,1,1,2,2,4,4,5,5],"right_children":[2,4,6,-1,8,10,-1,-1,-1,-1,-1],"split_conditions":[3.9095435E0,9.352175E-3,7.8169096E-1,-2.5076693E-2,1.8826103E-1,2.4892229E-1,2.950666E-2,6.641408E-2,-1.1673256E-2,8.133532E-3,-5.9506178E-2],"split_indices":[3241,461,3901,0,280,4391,0,0,0,0,0],"split_type":[0,0,0,0,0,0,0,0,0,0,0],"sum_hessian":[3.779084E1,1.7899487E1,1.9891352E1,3.503512E0,1.4395975E1,1.5997374E1,3.8939776E0,1.105303E1,3.342946E0,3.8818724E0,1.2115501E1],"tree_param":{"num_deleted":"0","num_feature":"5146","num_nodes":"11","size_leaf_vector":"1"}},{"base_weights":[-3.5526473E-2,7.044888E-1,-6.001798E-1,1.0141145E0,-1.903286E-2,-8.8498765E-1,3.3234715E-2,6.235533E-2,5.2459757E-3,-1.1485728E0,1.0381627E-2,-6.489261E-2,-1.5014793E-2],"categories":[],"categories_nodes":[],"categories_segments":[],"categories_sizes":[],"default_left":[0,0,0,0,0,0,0,0,0,0,0,0,0],"id":14,"left_children":[1,3,5,7,-1,9,-1,-1,-1,11,-1,-1,-1],"loss_changes":[1.6738995E1,6.6533613E0,9.392284E0,2.5877514E0,0E0,6.1833153E0,0E0,0E0,0E0,1.0968742E0,0E0,0E0,0E0],"parents":[2147483647,0,0,1,1,2,2,3,3,5,5,9,9],"right_children":[2,4,6,8,-1,10,-1,-1,-1,12,-1,-1,-1],"split_conditions":[4.4642687E0,1.1774817E-1,4.5037493E-1,2.691121E0,-1.903286E-2,4.213662E0,3.3234715E-2,6.235533E-2,5.2459757E-3,6.535305E-1,1.0381627E-2,-6.489261E-2,-1.5014793E-2],"split_indices":[3173,158,3900,2730,0,2977,0,0,0,4022,0,0,0],"split_type":[0,0,0,0,0,0,0,0,0,0,0,0,0],"sum_hessian":[3.606081E1,1.5315908E1,2.0744902E1,1.2089477E1,3.2264314E0,1.748711E1,3.2577906E0,8.944129E0,3.1453478E0,1.4079627E1,3.407484E0,1.0971081E1,3.1085458E0],"tree_param":{"num_deleted":"0","num_feature":"5146","num_nodes":"13","size_leaf_vector":"1"}},{"base_weights":[4.9779344E-2,5.8516586E-1,-5.521715E-1,-2.3368834E-2,8.8116574E-1,-9.1898936E-1,3.322925E-2,1.139794E0,-1.0132246E-2,-6.2945805E-2,1.206806E-2,6.4586304E-2,1.5811007E-2],"categories":[],"categories_nodes":[],"categories_segments":[],"categories_sizes":[],"default_left":[0,0,0,0,0,0,0,0,0,0,0,0,0],"id":15,"left_children":[1,3,5,-1,7,9,-1,11,-1,-1,-1,-1,-1],"loss_changes":[1.3142554E1,7.5870395E0,9.811599E0,0E0,5.4910574E0,6.8810587E0,0E0,8.480644E-1,0E0,0E0,0E0,0E0,0E0],"parents":[2147483647,0,0,1,1,2,2,4,4,5,5,7,7],"right_children":[2,4,6,-1,8,10,-1,12,-1,-1,-1,-1,-1],"split_conditions":[4.137789E0,1.5622769E-2,7.403466E-2,-2.3368834E-2,2.6327407E-1,1.6153648E-1,3.322925E-2,6.7481856E0,-1.0132246E-2,-6.2945805E-2,1.206806E-2,6.4586304E-2,1.5811007E-2],"split_indices":[2744,362,1226,0,17,4919,0,3491,0,0,0,0,0],"split_type":[0,0,0,0,0,0,0,0,0,0,0,0,0],"sum_hessian":[3.676496E1,1.9575783E1,1.7189177E1,3.968489E0,1.5607294E1,1.36467085E1,3.542468E0,1.2591549E1,3.0157456E0,1.048995E1,3.1567585E0,9.56813E0,3.0234194E0],"tree_param":{"num_deleted":"0","num_feature":"5146","num_nodes":"13","size_leaf_vector":"1"}},{"base_weights":[1.5823254E-2,4.071194E-1,-8.5560083E-1,-1.4963298E-1,9.1418016E-1,-5.824069E-2,-1.341693E-4,3.232053E-2,-7.07018E-1,6.2957965E-2,5.565096E-3,9.2079485E-4,-5.4599173E-2],"categories":[],"categories_nodes":[],"categories_segments":[],"categories_sizes":[],"default_left":[0,0,0,0,0,0,0,0,0,0,0,0,0],"id":16,"left_children":[1,3,5,7,9,-1,-1,-1,11,-1,-1,-1,-1],"loss_changes":[1.2982131E1,7.8000126E0,2.9814796E0,7.2220817E0,3.5119696E0,0E0,0E0,0E0,2.767921E0,0E0,0E0,0E0,0E0],"parents":[2147483647,0,0,1,1,2,2,3,3,4,4,8,8],"right_children":[2,4,6,8,10,-1,-1,-1,12,-1,-1,-1,-1],"split_conditions":[3.3657627E0,3.039931E-1,3.6095494E-1,3.2214224E-2,4.2910557E0,-5.824069E-2,-1.341693E-4,3.232053E-2,1.5340366E0,6.2957965E-2,5.565096E-3,9.2079485E-4,-5.4599173E-2],"split_indices":[2313,3871,3938,665,3807,0,0,0,3439,0,0,0,0],"split_type":[0,0,0,0,0,0,0,0,0,0,0,0,0],"sum_hessian":[3.4160892E1,2.4389593E1,9.771298E0,1.2203141E1,1.2186452E1,6.5485926E0,3.2227054E0,4.8202004E0,7.382941E0,7.6417823E0,4.54467E0,3.129753E0,4.2531877E0],"tree_param":{"num_deleted":"0","num_feature":"5146","num_nodes":"13","size_leaf_vector":"1"}},{"base_weights":[8.367622E-2,5.394858E-1,-5.999024E-1,8.6314857E-1,-3.7368745E-2,-5.65336E-2,2.5394663E-2,1.6592582E-1,6.0070544E-2,3.8932554E-2,-2.4674205E-2],"categories":[],"categories_nodes":[],"categories_segments":[],"categories_sizes":[],"default_left":[0,0,0,0,0,0,0,0,0,0,0],"id":17,"left_children":[1,3,5,7,-1,-1,-1,9,-1,-1,-1],"loss_changes":[1.2096378E1,1.0963831E1,1.036381E1,4.06966E0,0E0,0E0,0E0,4.3507705E0,0E0,0E0,0E0],"parents":[2147483647,0,0,1,1,2,2,3,3,7,7],"right_children":[2,4,6,8,-1,-1,-1,10,-1,-1,-1],"split_conditions":[3.3339562E0,1.0533367E-1,1.29105E-1,5.1303368E-2,-3.7368745E-2,-5.65336E-2,2.5394663E-2,1.7913167E-1,6.0070544E-2,3.8932554E-2,-2.4674205E-2],"split_indices":[2025,1051,1478,1299,0,0,0,4398,0,0,0],"split_type":[0,0,0,0,0,0,0,0,0,0,0],"sum_hessian":[3.4764492E1,2.1197735E1,1.3566758E1,1.7525951E1,3.671783E0,9.205275E0,4.361484E0,6.7956033E0,1.0730349E1,3.4136355E0,3.381968E0],"tree_param":{"num_deleted":"0","num_feature":"5146","num_nodes":"11","size_leaf_vector":"1"}},{"base_weights":[5.5719476E-2,6.2583745E-1,-4.3471274E-1,-1.1731542E-2,9.850808E-1,-9.5536304E-1,3.5675624E-1,5.8113195E-2,9.923208E-3,-4.1905898E-3,-5.883193E-2,5.2897997E-2,-3.0874932E-2],"categories":[],"categories_nodes":[],"categories_segments":[],"categories_sizes":[],"default_left":[0,0,0,0,0,0,0,0,0,0,0,0,0],"id":18,"left_children":[1,3,5,-1,7,9,11,-1,-1,-1,-1,-1,-1],"loss_changes":[1.1207092E1,6.261465E0,9.621756E0,0E0,1.2883968E0,2.3031588E0,8.135E0,0E0,0E0,0E0,0E0,0E0,0E0],"parents":[2147483647,0,0,1,1,2,2,4,4,5,5,6,6],"right_children":[2,4,6,-1,8,10,12,-1,-1,-1,-1,-1,-1],"split_conditions":[4.4783144E0,2.5780017E0,2.884594E0,-1.1731542E-2,8.7527886E-2,2.8788283E0,6.3904874E-2,5.8113195E-2,9.923208E-3,-4.1905898E-3,-5.883193E-2,5.2897997E-2,-3.0874932E-2],"split_indices":[3173,2822,3073,0,833,2636,4501,0,0,0,0,0,0],"split_type":[0,0,0,0,0,0,0,0,0,0,0,0,0],"sum_hessian":[3.60676E1,1.651775E1,1.954985E1,4.98734E0,1.153041E1,1.1618846E1,7.931004E0,8.527411E0,3.0029979E0,3.0024343E0,8.616411E0,4.57153E0,3.359474E0],"tree_param":{"num_deleted":"0","num_feature":"5146","num_nodes":"13","size_leaf_vector":"1"}},{"base_weights":[-1.2493599E-2,4.2512167E-1,-6.619686E-1,-2.501339E-2,7.621933E-1,-5.5862147E-2,1.9096399E-2,-1.5442053E-2,1.0465893E0,6.1936643E-2,8.490003E-3],"categories":[],"categories_nodes":[],"categories_segments":[],"categories_sizes":[],"default_left":[0,0,0,0,0,0,0,0,0,0,0],"id":19,"left_children":[1,3,5,-1,7,-1,-1,-1,9,-1,-1],"loss_changes":[1.10935755E1,8.029199E0,8.415049E0,0E0,6.1683807E0,0E0,0E0,0E0,1.9087315E0,0E0,0E0],"parents":[2147483647,0,0,1,1,2,2,4,4,8,8],"right_children":[2,4,6,-1,8,-1,-1,-1,10,-1,-1],"split_conditions":[3.2672787E0,2.4309506E0,1.29105E-1,-2.501339E-2,2.5060767E-1,-5.5862147E-2,1.9096399E-2,-1.5442053E-2,1.1631994E-2,6.1936643E-2,8.490003E-3],"split_indices":[2025,2335,1478,0,4896,0,0,0,4892,0,0],"split_type":[0,0,0,0,0,0,0,0,0,0,0],"sum_hessian":[3.4968018E1,2.1212185E1,1.3755832E1,5.3258147E0,1.588637E1,9.547259E0,4.2085724E0,3.2234254E0,1.2662945E1,9.615989E0,3.0469558E0],"tree_param":{"num_deleted":"0","num_feature":"5146","num_nodes":"11","size_leaf_vector":"1"}},{"base_weights":[1.839685E-2,5.094027E-1,-6.3408494E-1,8.236578E-1,-1.5506156E-2,1.3491965E-2,-8.9381033E-1,-3.8317337E-3,5.7679545E-2,-5.505978E-2,-4.6067913E-3],"categories":[],"categories_nodes":[],"categories_segments":[],"categories_sizes":[],"default_left":[0,0,0,0,0,0,0,0,0,0,0],"id":20,"left_children":[1,3,5,7,-1,-1,9,-1,-1,-1,-1],"loss_changes":[1.2509635E1,6.317908E0,4.4703846E0,5.2715874E0,0E0,0E0,1.9286118E0,0E0,0E0,0E0,0E0],"parents":[2147483647,0,0,1,1,2,2,3,3,6,6],"right_children":[2,4,6,8,-1,-1,10,-1,-1,-1,-1],"split_conditions":[3.026259E0,1.1397163E-1,5.5756424E-2,8.6289756E-2,-1.5506156E-2,1.3491965E-2,4.3399E0,-3.8317337E-3,5.7679545E-2,-5.505978E-2,-4.6067913E-3],"split_indices":[3778,191,1563,470,0,0,2974,0,0,0,0],"split_type":[0,0,0,0,0,0,0,0,0,0,0],"sum_hessian":[3.506966E1,2.0348686E1,1.4720972E1,1.4789462E1,5.5592246E0,3.1823862E0,1.1538586E1,4.2968783E0,1.0492584E1,8.474373E0,3.064213E0],"tree_param":{"num_deleted":"0","num_feature":"5146","num_nodes":"11","size_leaf_vector":"1"}},{"base_weights":[-4.337424E-2,5.1975983E-1,-5.081341E-1,-1.1569925E-1,5.230564E-2,2.2120215E-2,-8.705331E-1,2.9855458E-2,-3.95163E-2,-1.4850413E-3,-5.3551674E-2],"categories":[],"categories_nodes":[],"categories_segments":[],"categories_sizes":[],"default_left":[0,0,0,0,0,0,0,0,0,0,0],"id":21,"left_children":[1,3,5,7,-1,-1,9,-1,-1,-1,-1],"loss_changes":[9.661045E0,5.911213E0,7.781234E0,5.4197164E0,0E0,0E0,2.4217072E0,0E0,0E0,0E0,0E0],"parents":[2147483647,0,0,1,1,2,2,3,3,6,6],"right_children":[2,4,6,8,-1,-1,10,-1,-1,-1,-1],"split_conditions":[4.4783144E0,6.453726E-2,1.6598812E-1,1.2076844E-1,5.230564E-2,2.2120215E-2,1.8795006E-1,2.9855458E-2,-3.95163E-2,-1.4850413E-3,-5.3551674E-2],"split_indices":[3173,49,4856,4170,0,0,4462,0,0,0,0],"split_type":[0,0,0,0,0,0,0,0,0,0,0],"sum_hessian":[3.2899582E1,1.4671167E1,1.8228413E1,7.267544E0,7.4036236E0,4.8333974E0,1.3395016E1,3.573439E0,3.694105E0,3.1172624E0,1.0277753E1],"tree_param":{"num_deleted":"0","num_feature":"5146","num_nodes":"11","size_leaf_vector":"1"}},{"base_weights":[3.4852933E-2,4.110101E-1,-7.0367086E-1,6.8530536E-1,-2.84603E-2,-5.2063197E-2,1.0447419E-2,9.7756916E-1,-2.816058E-3,3.3070382E-3,5.9485752E-2],"categories":[],"categories_nodes":[],"categories_segments":[],"categories_sizes":[],"default_left":[0,0,0,0,0,0,0,0,0,0,0],"id":22,"left_children":[1,3,5,7,-1,-1,-1,9,-1,-1,-1],"loss_changes":[1.0920573E1,7.805905E0,4.599491E0,4.8343706E0,0E0,0E0,0E0,2.7208738E0,0E0,0E0,0E0],"parents":[2147483647,0,0,1,1,2,2,3,3,7,7],"right_children":[2,4,6,8,-1,-1,-1,10,-1,-1,-1],"split_conditions":[3.2207983E0,1.8670788E-1,4.659939E0,8.221425E-2,-2.84603E-2,-5.2063197E-2,1.0447419E-2,4.247887E-2,-2.816058E-3,3.3070382E-3,5.9485752E-2],"split_indices":[2313,775,2466,4659,0,0,0,1793,0,0,0],"split_type":[0,0,0,0,0,0,0,0,0,0,0],"sum_hessian":[3.533394E1,2.4087595E1,1.1246345E1,1.9370785E1,4.71681E0,8.0837E0,3.162645E0,1.3535287E1,5.8354974E0,3.1400037E0,1.0395283E1],"tree_param":{"num_deleted":"0","num_feature":"5146","num_nodes":"11","size_leaf_vector":"1"}},{"base_weights":[3.7830055E-2,8.2695544E-1,-2.690151E-1,5.26535E-2,8.754925E-3,-8.340834E-1,4.637953E-1,-5.9204366E-2,-2.3513902E-3,8.616272E-1,-2.3009835E-2,1.2223362E-2,5.2440833E-2],"categories":[],"categories_nodes":[],"categories_segments":[],"categories_sizes":[],"default_left":[0,0,0,0,0,0,0,0,0,0,0,0,0],"id":23,"left_children":[1,3,5,-1,-1,7,9,-1,-1,11,-1,-1,-1],"loss_changes":[9.0935755E0,1.0586538E0,1.1978466E1,0E0,0E0,4.178399E0,5.593586E0,0E0,0E0,4.9285412E-1,0E0,0E0,0E0],"parents":[2147483647,0,0,1,1,2,2,5,5,6,6,9,9],"right_children":[2,4,6,-1,-1,8,10,-1,-1,12,-1,-1,-1],"split_conditions":[1.8959308E0,3.817743E-1,2.4426706E0,5.26535E-2,8.754925E-3,2.4244037E0,7.69561E0,-5.9204366E-2,-2.3513902E-3,2.385065E0,-2.3009835E-2,1.2223362E-2,5.2440833E-2],"split_indices":[3209,4073,3006,0,0,3773,3623,0,0,3087,0,0,0],"split_type":[0,0,0,0,0,0,0,0,0,0,0,0,0],"sum_hessian":[3.3487236E1,8.517725E0,2.4969511E1,5.2962003E0,3.2215245E0,1.4019317E1,1.0950195E1,8.917667E0,5.1016498E0,7.8245087E0,3.1256866E0,3.018562E0,4.8059464E0],"tree_param":{"num_deleted":"0","num_feature":"5146","num_nodes":"13","size_leaf_vector":"1"}},{"base_weights":[-9.82088E-3,-4.43931E-1,5.791247E-1,3.7498245E-1,-8.3363616E-1,5.4820824E-2,-1.9003333E-1,4.226445E-2,-1.2408791E-2,-5.3693723E-2,-2.3005912E-3,2.1423772E-2,-3.7157904E-2],"categories":[],"categories_nodes":[],"categories_segments":[],"categories_sizes":[],"default_left":[0,0,0,0,0,0,0,0,0,0,0,0,0],"id":24,"left_children":[1,3,5,7,9,-1,11,-1,-1,-1,-1,-1,-1],"loss_changes":[9.752236E0,7.7115574E0,6.92307E0,2.9440727E0,2.7506466E0,0E0,3.4431033E0,0E0,0E0,0E0,0E0,0E0,0E0],"parents":[2147483647,0,0,1,1,2,2,3,3,4,4,6,6],"right_children":[2,4,6,8,10,-1,12,-1,-1,-1,-1,-1,-1],"split_conditions":[6.8050995E-2,2.8607578E0,3.2430988E-2,5.8089063E-2,5.6533587E-1,5.4820824E-2,1.7104236E-2,4.226445E-2,-1.2408791E-2,-5.3693723E-2,-2.3005912E-3,2.1423772E-2,-3.7157904E-2],"split_indices":[842,3299,4746,451,3858,0,4753,0,0,0,0,0,0],"split_type":[0,0,0,0,0,0,0,0,0,0,0,0,0],"sum_hessian":[3.4185993E1,2.0061193E1,1.4124801E1,6.4101243E0,1.365107E1,8.014061E0,6.11074E0,3.3382514E0,3.071873E0,9.806188E0,3.8448813E0,3.01229E0,3.09845E0],"tree_param":{"num_deleted":"0","num_feature":"5146","num_nodes":"13","size_leaf_vector":"1"}},{"base_weights":[-5.1077977E-2,5.396296E-1,-4.488247E-1,-1.23739075E-2,4.919663E-2,-7.1261257E-1,3.1615544E-2,8.363045E-3,-9.578223E-1,-5.6542367E-2,-7.4061053E-3],"categories":[],"categories_nodes":[],"categories_segments":[],"categories_sizes":[],"default_left":[0,0,0,0,0,0,0,0,0,0,0],"id":25,"left_children":[1,3,5,-1,-1,7,-1,-1,9,-1,-1],"loss_changes":[8.684347E0,5.759586E0,7.204208E0,0E0,0E0,4.446637E0,0E0,0E0,1.6464415E0,0E0,0E0],"parents":[2147483647,0,0,1,1,2,2,5,5,8,8],"right_children":[2,4,6,-1,-1,8,-1,-1,10,-1,-1],"split_conditions":[4.212635E0,2.5626192E0,4.5037493E-1,-1.23739075E-2,4.919663E-2,2.2780013E-1,3.1615544E-2,8.363045E-3,4.1749707E-1,-5.6542367E-2,-7.4061053E-3],"split_indices":[3173,3845,3900,0,0,4385,0,0,997,0,0],"split_type":[0,0,0,0,0,0,0,0,0,0,0],"sum_hessian":[3.293918E1,1.2866236E1,2.0072945E1,4.880709E0,7.9855266E0,1.6758293E1,3.3146517E0,3.7021215E0,1.3056171E1,1.0002073E1,3.0540981E0],"tree_param":{"num_deleted":"0","num_feature":"5146","num_nodes":"11","size_leaf_vector":"1"}},{"base_weights":[-2.7510997E-2,4.5173806E-1,-5.5674165E-1,-2.2121487E-2,7.563527E-1,-8.4072864E-1,2.0475516E-2,5.19067E-2,-5.255101E-3,-5.229887E-2,-3.3796758E-3],"categories":[],"categories_nodes":[],"categories_segments":[],"categories_sizes":[],"default_left":[0,0,0,0,0,0,0,0,0,0,0],"id":26,"left_children":[1,3,5,-1,7,9,-1,-1,-1,-1,-1],"loss_changes":[8.987492E0,5.7500005E0,5.361506E0,0E0,3.8674612E0,1.9331121E0,0E0,0E0,0E0,0E0,0E0],"parents":[2147483647,0,0,1,1,2,2,4,4,5,5],"right_children":[2,4,6,-1,8,10,-1,-1,-1,-1,-1],"split_conditions":[6.639825E-2,4.1873388E-2,3.5385594E0,-2.2121487E-2,3.2207983E0,3.7352176E0,2.0475516E-2,5.19067E-2,-5.255101E-3,-5.229887E-2,-3.3796758E-3],"split_indices":[818,5112,3245,0,2313,3393,0,0,0,0,0],"split_type":[0,0,0,0,0,0,0,0,0,0,0],"sum_hessian":[3.1410395E1,1.6538092E1,1.4872305E1,3.8890417E0,1.264905E1,1.1774901E1,3.097403E0,9.309735E0,3.3393137E0,8.644772E0,3.13013E0],"tree_param":{"num_deleted":"0","num_feature":"5146","num_nodes":"11","size_leaf_vector":"1"}},{"base_weights":[4.639498E-2,5.0654244E-1,-5.662439E-1,8.3744675E-1,-1.9867224E-1,-5.3027745E-2,1.5923272E-1,3.5788247E-3,5.1121492E-2,-3.7351713E-2,2.1366533E-2,3.202783E-2,-1.8256657E-2],"categories":[],"categories_nodes":[],"categories_segments":[],"categories_sizes":[],"default_left":[0,0,0,0,0,0,0,0,0,0,0,0,0],"id":27,"left_children":[1,3,5,7,9,-1,11,-1,-1,-1,-1,-1,-1],"loss_changes":[1.03634205E1,5.295473E0,6.0780506E0,1.8365107E0,3.4936833E0,0E0,2.5249956E0,0E0,0E0,0E0,0E0,0E0,0E0],"parents":[2147483647,0,0,1,1,2,2,3,3,4,4,6,6],"right_children":[2,4,6,8,10,-1,12,-1,-1,-1,-1,-1,-1],"split_conditions":[2.6074496E-1,6.2598395E-1,7.8732654E-2,1.8130956E0,1.146315E-1,-5.3027745E-2,1.07768E-1,3.5788247E-3,5.1121492E-2,-3.7351713E-2,2.1366533E-2,3.202783E-2,-1.8256657E-2],"split_indices":[4709,3877,1669,3845,1302,0,330,0,0,0,0,0,0],"split_type":[0,0,0,0,0,0,0,0,0,0,0,0,0],"sum_hessian":[3.2748463E1,1.8992762E1,1.3755701E1,1.2768331E1,6.2244306E0,7.7138696E0,6.0418315E0,3.1288157E0,9.639515E0,3.1970036E0,3.0274272E0,3.0185738E0,3.0232575E0],"tree_param":{"num_deleted":"0","num_feature":"5146","num_nodes":"13","size_leaf_vector":"1"}},{"base_weights":[5.470408E-2,8.2182246E-1,-2.6692405E-1,5.1428627E-2,7.721651E-3,-8.645109E-1,2.8169972E-1,-8.75741E-3,-5.2357048E-2,-2.7935961E-2,4.6123523E-2],"categories":[],"categories_nodes":[],"categories_segments":[],"categories_sizes":[],"default_left":[0,0,0,0,0,0,0,0,0,0,0],"id":28,"left_children":[1,3,5,-1,-1,7,9,-1,-1,-1,-1],"loss_changes":[8.974361E0,1.045342E0,8.949766E0,0E0,0E0,1.1285944E0,9.029792E0,0E0,0E0,0E0,0E0],"parents":[2147483647,0,0,1,1,2,2,5,5,6,6],"right_children":[2,4,6,-1,-1,8,10,-1,-1,-1,-1],"split_conditions":[1.8640087E0,4.566967E-1,4.542546E-2,5.1428627E-2,7.721651E-3,1.6197339E-1,2.6253355E-1,-8.75741E-3,-5.2357048E-2,-2.7935961E-2,4.6123523E-2],"split_indices":[3209,3940,1116,0,0,1209,3939,0,0,0,0],"split_type":[0,0,0,0,0,0,0,0,0,0,0],"sum_hessian":[3.237057E1,8.73564E0,2.363493E1,5.728728E0,3.0069118E0,1.0848714E1,1.2786217E1,3.207433E0,7.64128E0,5.5746655E0,7.2115517E0],"tree_param":{"num_deleted":"0","num_feature":"5146","num_nodes":"11","size_leaf_vector":"1"}},{"base_weights":[8.9101955E-2,3.553342E-1,-6.55884E-1,7.2045153E-1,-1.6945836E-1,-0E0,-4.7810275E-2,5.47583E-2,-1.8686643E-3,-7.322077E-1,3.0488849E-2,-1.0029325E-2,-4.7155563E-2],"categories":[],"categories_nodes":[],"categories_segments":[],"categories_sizes":[],"default_left":[0,0,0,0,0,0,0,0,0,0,0,0,0],"id":29,"left_children":[1,3,5,7,9,-1,-1,-1,-1,11,-1,-1,-1],"loss_changes":[7.3686075E0,5.5008745E0,1.9153223E0,4.873679E0,6.4500847E0,0E0,0E0,0E0,0E0,4.407444E-1,0E0,0E0,0E0],"parents":[2147483647,0,0,1,1,2,2,3,3,4,4,9,9],"right_children":[2,4,6,8,10,-1,-1,-1,-1,12,-1,-1,-1],"split_conditions":[3.5688404E-2,3.0683112E-1,1.0928414E-1,1.422076E-1,6.702998E-2,-0E0,-4.7810275E-2,5.47583E-2,-1.8686643E-3,5.7253443E-2,3.0488849E-2,-1.0029325E-2,-4.7155563E-2],"split_indices":[4512,4759,1190,662,842,0,0,0,0,606,0,0,0],"split_type":[0,0,0,0,0,0,0,0,0,0,0,0,0],"sum_hessian":[3.2952965E1,2.5146698E1,7.806266E0,1.4502011E1,1.0644688E1,3.0977182E0,4.7085476E0,9.196416E0,5.3055954E0,6.325536E0,4.3191524E0,3.0397072E0,3.2858284E0],"tree_param":{"num_deleted":"0","num_feature":"5146","num_nodes":"13","size_leaf_vector":"1"}},{"base_weights":[9.213754E-2,6.663896E-1,-3.3561116E-1,4.6340205E-2,-9.090735E-3,-8.597065E-1,2.666913E-1,-1.1649408E-2,-5.163855E-2,-2.007812E-2,3.5109863E-2],"categories":[],"categories_nodes":[],"categories_segments":[],"categories_sizes":[],"default_left":[0,0,0,0,0,0,0,0,0,0,0],"id":30,"left_children":[1,3,5,-1,-1,7,9,-1,-1,-1,-1],"loss_changes":[8.480291E0,3.6525292E0,6.7980995E0,0E0,0E0,6.0703087E-1,3.7064753E0,0E0,0E0,0E0,0E0],"parents":[2147483647,0,0,1,1,2,2,5,5,6,6],"right_children":[2,4,6,-1,-1,8,10,-1,-1,-1,-1],"split_conditions":[1.5344946E-1,1.07842796E-1,4.9781474E-1,4.6340205E-2,-9.090735E-3,2.0940425E-2,3.7011273E-2,-1.1649408E-2,-5.163855E-2,-2.007812E-2,3.5109863E-2],"split_indices":[1466,1686,3858,0,0,4452,360,0,0,0,0],"split_type":[0,0,0,0,0,0,0,0,0,0,0],"sum_hessian":[3.0568245E1,1.2672891E1,1.7895355E1,9.644433E0,3.0284567E0,9.200664E0,8.694691E0,3.131367E0,6.0692973E0,3.4015348E0,5.2931557E0],"tree_param":{"num_deleted":"0","num_feature":"5146","num_nodes":"11","size_leaf_vector":"1"}},{"base_weights":[-2.3499683E-2,6.95584E-1,-3.2730484E-1,4.8613686E-2,-0E0,-4.5983605E-2,1.3024102E-1,6.9075763E-1,-5.690575E-1,1.0367321E-3,4.86619E-2,-4.3422736E-2,-1.2660564E-3],"categories":[],"categories_nodes":[],"categories_segments":[],"categories_sizes":[],"default_left":[0,0,0,0,0,0,0,0,0,0,0,0,0],"id":31,"left_children":[1,3,5,-1,-1,-1,7,9,11,-1,-1,-1,-1],"loss_changes":[7.8058834E0,1.950994E0,7.1566772E0,0E0,0E0,0E0,7.027293E0,1.715797E0,1.1832573E0,0E0,0E0,0E0,0E0],"parents":[2147483647,0,0,1,1,2,2,6,6,7,7,8,8],"right_children":[2,4,6,-1,-1,-1,8,10,12,-1,-1,-1,-1],"split_conditions":[1.8640087E0,4.566967E-1,2.0512977E0,4.8613686E-2,-0E0,-4.5983605E-2,1.1465251E-2,3.611347E-2,3.1167407E-2,1.0367321E-3,4.86619E-2,-4.3422736E-2,-1.2660564E-3],"split_indices":[3209,3940,3006,0,0,0,4608,1108,4244,0,0,0,0],"split_type":[0,0,0,0,0,0,0,0,0,0,0,0,0],"sum_hessian":[3.1815483E1,8.585635E0,2.3229847E1,5.4818535E0,3.1037815E0,9.338362E0,1.3891486E1,7.803826E0,6.0876603E0,3.0560076E0,4.747818E0,3.0370586E0,3.0506017E0],"tree_param":{"num_deleted":"0","num_feature":"5146","num_nodes":"13","size_leaf_vector":"1"}},{"base_weights":[6.58418E-2,4.060409E-1,-5.1597726E-1,-1.8643668E-2,6.632369E-1,8.25389E-3,-4.5037035E-2,3.2014237E-4,9.4927764E-1,5.4711938E-2,1.5515168E-2],"categories":[],"categories_nodes":[],"categories_segments":[],"categories_sizes":[],"default_left":[0,0,0,0,0,0,0,0,0,0,0],"id":32,"left_children":[1,3,5,-1,7,-1,-1,-1,9,-1,-1],"loss_changes":[6.7838817E0,4.8417063E0,3.6878228E0,0E0,3.0900416E0,0E0,0E0,0E0,2.6761723E-1,0E0,0E0],"parents":[2147483647,0,0,1,1,2,2,4,4,8,8],"right_children":[2,4,6,-1,8,-1,-1,-1,10,-1,-1],"split_conditions":[2.0330462E-1,5.3536785E-3,3.2150365E-2,-1.8643668E-2,4.804313E-2,8.25389E-3,-4.5037035E-2,3.2014237E-4,4.941845E0,5.4711938E-2,1.5515168E-2],"split_indices":[239,5110,690,0,574,0,0,0,3238,0,0],"split_type":[0,0,0,0,0,0,0,0,0,0,0],"sum_hessian":[3.0211996E1,1.9554356E1,1.065764E1,4.534217E0,1.502014E1,4.1658516E0,6.4917884E0,5.283054E0,9.737086E0,6.6475105E0,3.0895755E0],"tree_param":{"num_deleted":"0","num_feature":"5146","num_nodes":"11","size_leaf_vector":"1"}},{"base_weights":[9.5610924E-2,4.9301204E-1,-4.8246858E-1,7.126111E-1,-2.2135561E-2,-4.8689414E-2,2.6657397E-2,-8.119668E-3,5.123313E-2],"categories":[],"categories_nodes":[],"categories_segments":[],"categories_sizes":[],"default_left":[0,0,0,0,0,0,0,0,0],"id":33,"left_children":[1,3,5,7,-1,-1,-1,-1,-1],"loss_changes":[7.960622E0,4.849213E0,8.157996E0,5.162654E0,0E0,0E0,0E0,0E0,0E0],"parents":[2147483647,0,0,1,1,2,2,3,3],"right_children":[2,4,6,8,-1,-1,-1,-1,-1],"split_conditions":[3.2672787E0,1.0533367E-1,4.1695037E0,1.4696381E0,-2.2135561E-2,-4.8689414E-2,2.6657397E-2,-8.119668E-3,5.123313E-2],"split_indices":[2025,1051,3475,2958,0,0,0,0,0],"split_type":[0,0,0,0,0,0,0,0,0],"sum_hessian":[3.0576769E1,1.8397022E1,1.2179747E1,1.5372978E1,3.0240433E0,8.33055E0,3.8491962E0,4.209133E0,1.1163845E1],"tree_param":{"num_deleted":"0","num_feature":"5146","num_nodes":"9","size_leaf_vector":"1"}},{"base_weights":[-3.7328478E-2,6.6942996E-1,-3.2802817E-1,4.6902638E-2,7.905623E-4,-7.330717E-1,3.5968423E-1,9.542837E-3,-4.988134E-2,4.1885436E-2,-2.2276958E-2],"categories":[],"categories_nodes":[],"categories_segments":[],"categories_sizes":[],"default_left":[0,0,0,0,0,0,0,0,0,0,0],"id":34,"left_children":[1,3,5,-1,-1,7,9,-1,-1,-1,-1],"loss_changes":[7.0979733E0,1.639761E0,7.396132E0,0E0,0E0,4.4173746E0,4.7659383E0,0E0,0E0,0E0,0E0],"parents":[2147483647,0,0,1,1,2,2,5,5,6,6],"right_children":[2,4,6,-1,-1,8,10,-1,-1,-1,-1],"split_conditions":[1.8640087E0,2.3848262E-1,3.5630856E0,4.6902638E-2,7.905623E-4,4.007678E-1,1.9758113E-1,9.542837E-3,-4.988134E-2,4.1885436E-2,-2.2276958E-2],"split_indices":[3209,1627,2424,0,0,4606,4650,0,0,0,0],"split_type":[0,0,0,0,0,0,0,0,0,0,0],"sum_hessian":[3.057622E1,8.051502E0,2.2524717E1,4.9810653E0,3.070437E0,1.4184145E1,8.340571E0,3.1972544E0,1.0986891E1,5.260911E0,3.079661E0],"tree_param":{"num_deleted":"0","num_feature":"5146","num_nodes":"11","size_leaf_vector":"1"}},{"base_weights":[2.380746E-2,5.2819693E-1,-3.984959E-1,-1.8739196E-2,8.467698E-1,-7.5958943E-1,2.1306133E-1,1.0743512E-2,5.0001837E-2,-4.7112126E-3,-4.9421515E-2,-1.6578931E-2,3.534068E-2],"categories":[],"categories_nodes":[],"categories_segments":[],"categories_sizes":[],"default_left":[0,0,0,0,0,0,0,0,0,0,0,0,0],"id":35,"left_children":[1,3,5,-1,7,9,11,-1,-1,-1,-1,-1,-1],"loss_changes":[7.0855594E0,5.0540257E0,4.3596306E0,0E0,6.0420513E-1,1.5138307E0,2.698529E0,0E0,0E0,0E0,0E0,0E0,0E0],"parents":[2147483647,0,0,1,1,2,2,4,4,5,5,6,6],"right_children":[2,4,6,-1,8,10,12,-1,-1,-1,-1,-1,-1],"split_conditions":[4.4783144E0,9.258264E-1,8.47353E-2,-1.8739196E-2,3.467862E-1,8.624314E-2,8.525632E-2,1.0743512E-2,5.0001837E-2,-4.7112126E-3,-4.9421515E-2,-1.6578931E-2,3.534068E-2],"split_indices":[3173,3408,4829,0,4054,4437,403,0,0,0,0,0,0],"split_type":[0,0,0,0,0,0,0,0,0,0,0,0,0],"sum_hessian":[2.9227476E1,1.3198628E1,1.6028849E1,3.268217E0,9.930411E0,9.876612E0,6.152237E0,3.0035388E0,6.9268727E0,3.3619795E0,6.5146317E0,3.141422E0,3.0108147E0],"tree_param":{"num_deleted":"0","num_feature":"5146","num_nodes":"13","size_leaf_vector":"1"}},{"base_weights":[-1.1397425E-2,-3.6464563E-1,5.277427E-1,3.1823684E-2,-6.46482E-1,4.413569E-2,-1.5769929E-2,-9.3273073E-1,1.5471633E-2,-7.5448863E-3,-5.589058E-2],"categories":[],"categories_nodes":[],"categories_segments":[],"categories_sizes":[],"default_left":[0,0,0,0,0,0,0,0,0,0,0],"id":36,"left_children":[1,3,5,-1,7,-1,-1,9,-1,-1,-1],"loss_changes":[6.319151E0,6.515365E0,4.5262656E0,0E0,5.239392E0,0E0,0E0,1.4914722E0,0E0,0E0,0E0],"parents":[2147483647,0,0,1,1,2,2,4,4,7,7],"right_children":[2,4,6,-1,8,-1,-1,10,-1,-1,-1],"split_conditions":[6.8050995E-2,5.45472E-1,4.84725E0,3.1823684E-2,3.496662E0,4.413569E-2,-1.5769929E-2,1.1371931E0,1.5471633E-2,-7.5448863E-3,-5.589058E-2],"split_indices":[842,4037,1969,0,1987,0,0,4245,0,0,0],"split_type":[0,0,0,0,0,0,0,0,0,0,0],"sum_hessian":[2.9244812E1,1.8171505E1,1.1073305E1,3.36108E0,1.4810426E1,7.8099647E0,3.263341E0,1.1515289E1,3.295137E0,3.0025594E0,8.51273E0],"tree_param":{"num_deleted":"0","num_feature":"5146","num_nodes":"11","size_leaf_vector":"1"}},{"base_weights":[-2.1824993E-2,3.4647104E-1,-5.6522316E-1,-2.1747136E-1,8.173621E-1,-5.0508935E-2,1.648282E-2,-3.7140325E-2,1.9227285E-2,5.0735213E-2,9.5280325E-3],"categories":[],"categories_nodes":[],"categories_segments":[],"categories_sizes":[],"default_left":[0,0,0,0,0,0,0,0,0,0,0],"id":37,"left_children":[1,3,5,7,9,-1,-1,-1,-1,-1,-1],"loss_changes":[6.3891263E0,5.4415927E0,5.8831897E0,3.79992E0,8.325119E-1,0E0,0E0,0E0,0E0,0E0,0E0],"parents":[2147483647,0,0,1,1,2,2,3,3,4,4],"right_children":[2,4,6,8,10,-1,-1,-1,-1,-1,-1],"split_conditions":[3.2952116E0,3.7995234E0,4.158265E0,2.512024E-1,1.0074469E-1,-5.0508935E-2,1.648282E-2,-3.7140325E-2,1.9227285E-2,5.0735213E-2,9.5280325E-3],"split_indices":[2025,2199,3475,4534,4504,0,0,0,0,0,0],"split_type":[0,0,0,0,0,0,0,0,0,0,0],"sum_hessian":[2.7858305E1,1.6926735E1,1.093157E1,8.095493E0,8.831242E0,7.203753E0,3.7278168E0,4.162006E0,3.9334877E0,5.653905E0,3.1773365E0],"tree_param":{"num_deleted":"0","num_feature":"5146","num_nodes":"11","size_leaf_vector":"1"}},{"base_weights":[8.4314286E-4,4.9103254E-1,-3.874339E-1,-2.1391872E-2,4.3861758E-2,-8.1849384E-1,2.5087944E-1,-4.9944982E-2,-8.319105E-3,3.892894E-2,-1.5420102E-2],"categories":[],"categories_nodes":[],"categories_segments":[],"categories_sizes":[],"default_left":[0,0,0,0,0,0,0,0,0,0,0],"id":38,"left_children":[1,3,5,-1,-1,7,9,-1,-1,-1,-1],"loss_changes":[6.287993E0,6.0088263E0,5.5008745E0,0E0,0E0,9.0187883E-1,3.1277301E0,0E0,0E0,0E0,0E0],"parents":[2147483647,0,0,1,1,2,2,5,5,6,6],"right_children":[2,4,6,-1,-1,8,10,-1,-1,-1,-1],"split_conditions":[4.4783144E0,3.5413753E-3,2.980069E0,-2.1391872E-2,4.3861758E-2,1.00085765E-1,1.3639939E-1,-4.9944982E-2,-8.319105E-3,3.892894E-2,-1.5420102E-2],"split_indices":[3173,5116,3503,0,0,4954,345,0,0,0,0],"split_type":[0,0,0,0,0,0,0,0,0,0,0],"sum_hessian":[2.8983923E1,1.2690617E1,1.6293306E1,3.6150324E0,9.075584E0,9.482071E0,6.811235E0,6.474091E0,3.0079803E0,3.1930673E0,3.6181676E0],"tree_param":{"num_deleted":"0","num_feature":"5146","num_nodes":"11","size_leaf_vector":"1"}},{"base_weights":[-8.6607665E-2,5.436396E-1,-3.679778E-1,-2.2727603E-5,4.4267938E-2,-4.4915736E-2,1.060626E-1,5.2174735E-1,-2.9844431E-2,-5.729915E-3,4.4921145E-2],"categories":[],"categories_nodes":[],"categories_segments":[],"categories_sizes":[],"default_left":[0,0,0,0,0,0,0,0,0,0,0],"id":39,"left_children":[1,3,5,-1,-1,-1,7,9,-1,-1,-1],"loss_changes":[5.368395E0,1.8324687E0,5.48392E0,0E0,0E0,0E0,4.3090124E0,2.4655204E0,0E0,0E0,0E0],"parents":[2147483647,0,0,1,1,2,2,6,6,7,7],"right_children":[2,4,6,-1,-1,-1,8,10,-1,-1,-1],"split_conditions":[1.8959308E0,1.7946452E-2,2.0512977E0,-2.2727603E-5,4.4267938E-2,-4.4915736E-2,5.395756E0,4.2850353E-2,-2.9844431E-2,-5.729915E-3,4.4921145E-2],"split_indices":[3209,529,3006,0,0,0,1881,90,0,0,0],"split_type":[0,0,0,0,0,0,0,0,0,0,0],"sum_hessian":[2.611588E1,7.3755603E0,1.8740318E1,3.5028815E0,3.8726788E0,8.099665E0,1.0640654E1,7.099958E0,3.540696E0,3.0587068E0,4.0412507E0],"tree_param":{"num_deleted":"0","num_feature":"5146","num_nodes":"11","size_leaf_vector":"1"}},{"base_weights":[-0E0,2.5657356E-1,-6.8035334E-1,7.217738E-1,-3.4162405E-1,-4.3154445E-2,-9.297929E-3,1.0415465E-3,4.7993165E-2,-4.1016664E-2,9.319699E-3],"categories":[],"categories_nodes":[],"categories_segments":[],"categories_sizes":[],"default_left":[0,0,0,0,0,0,0,0,0,0,0],"id":40,"left_children":[1,3,5,7,9,-1,-1,-1,-1,-1,-1],"loss_changes":[5.517736E0,6.967027E0,3.538828E-1,2.1560326E0,3.245892E0,0E0,0E0,0E0,0E0,0E0,0E0],"parents":[2147483647,0,0,1,1,2,2,3,3,4,4],"right_children":[2,4,6,8,10,-1,-1,-1,-1,-1,-1],"split_conditions":[9.986445E-2,7.708784E-2,1.0931237E-1,3.4133315E0,1.5771497E0,-4.3154445E-2,-9.297929E-3,1.0415465E-3,4.7993165E-2,-4.1016664E-2,9.319699E-3],"split_indices":[671,4659,1756,2199,2033,0,0,0,0,0,0],"split_type":[0,0,0,0,0,0,0,0,0,0,0],"sum_hessian":[2.7758476E1,2.1127144E1,6.631332E0,1.174636E1,9.380784E0,3.6050777E0,3.0262544E0,3.6362174E0,8.110143E0,4.438732E0,4.942052E0],"tree_param":{"num_deleted":"0","num_feature":"5146","num_nodes":"11","size_leaf_vector":"1"}},{"base_weights":[6.7313075E-2,5.5894816E-1,-2.3854533E-1,-3.4918622E-3,4.162603E-2,-6.1763E-1,3.665018E-1,2.2113477E-3,-4.757569E-2,-1.7810864E-2,4.4553947E-2],"categories":[],"categories_nodes":[],"categories_segments":[],"categories_sizes":[],"default_left":[0,0,0,0,0,0,0,0,0,0,0],"id":41,"left_children":[1,3,5,-1,-1,7,9,-1,-1,-1,-1],"loss_changes":[4.8088756E0,2.2958066E0,5.011612E0,0E0,0E0,3.0474706E0,4.012327E0,0E0,0E0,0E0,0E0],"parents":[2147483647,0,0,1,1,2,2,5,5,6,6],"right_children":[2,4,6,-1,-1,8,10,-1,-1,-1,-1],"split_conditions":[2.6422563E0,1.0077589E0,3.0454137E0,-3.4918622E-3,4.162603E-2,2.0822115E0,4.5153275E-2,2.2113477E-3,-4.757569E-2,-1.7810864E-2,4.4553947E-2],"split_indices":[2944,3568,2801,0,0,2556,1116,0,0,0,0],"split_type":[0,0,0,0,0,0,0,0,0,0,0],"sum_hessian":[2.7993649E1,1.02269335E1,1.7766714E1,3.4412925E0,6.7856417E0,1.0999069E1,6.7676444E0,4.1694837E0,6.8295856E0,3.0360641E0,3.7315805E0],"tree_param":{"num_deleted":"0","num_feature":"5146","num_nodes":"11","size_leaf_vector":"1"}},{"base_weights":[-2.780868E-2,3.018622E-1,-5.514027E-1,-3.486466E-1,7.2040844E-1,1.0093368E-2,-4.4027172E-2,1.818837E-2,-4.4097174E-2,3.0021255E-3,4.538719E-2],"categories":[],"categories_nodes":[],"categories_segments":[],"categories_sizes":[],"default_left":[0,0,0,0,0,0,0,0,0,0,0],"id":42,"left_children":[1,3,5,7,9,-1,-1,-1,-1,-1,-1],"loss_changes":[5.4301715E0,5.769017E0,3.4427392E0,4.0269613E0,1.3323207E0,0E0,0E0,0E0,0E0,0E0,0E0],"parents":[2147483647,0,0,1,1,2,2,3,3,4,4],"right_children":[2,4,6,8,10,-1,-1,-1,-1,-1,-1],"split_conditions":[3.026259E0,1.3350961E0,3.31244E-1,1.0674975E0,1.3743944E-1,1.0093368E-2,-4.4027172E-2,1.818837E-2,-4.4097174E-2,3.0021255E-3,4.538719E-2],"split_indices":[3778,3385,4846,3424,5111,0,0,0,0,0,0],"split_type":[0,0,0,0,0,0,0,0,0,0,0],"sum_hessian":[2.73854E1,1.7207195E1,1.0178206E1,6.774025E0,1.043317E1,3.2377813E0,6.940425E0,3.0919094E0,3.6821158E0,3.007259E0,7.425911E0],"tree_param":{"num_deleted":"0","num_feature":"5146","num_nodes":"11","size_leaf_vector":"1"}},{"base_weights":[-6.5694496E-2,3.0644828E-1,-4.895987E-1,-2.309802E-2,5.998467E-1,-4.0213436E-2,9.245597E-3,4.0550645E-2,-0E0],"categories":[],"categories_nodes":[],"categories_segments":[],"categories_sizes":[],"default_left":[0,0,0,0,0,0,0,0,0],"id":43,"left_children":[1,3,5,-1,7,-1,-1,-1,-1],"loss_changes":[4.5685396E0,4.051491E0,3.222718E0,0E0,1.5558181E0,0E0,0E0,0E0,0E0],"parents":[2147483647,0,0,1,1,2,2,4,4],"right_children":[2,4,6,-1,8,-1,-1,-1,-1],"split_conditions":[4.3153853E0,1.8508907E-2,3.7422693E0,-2.309802E-2,1.6486318E-1,-4.0213436E-2,9.245597E-3,4.0550645E-2,-0E0],"split_indices":[2744,976,2188,0,4916,0,0,0,0],"split_type":[0,0,0,0,0,0,0,0,0],"sum_hessian":[2.494183E1,1.3451289E1,1.14905405E1,3.30518E0,1.014611E1,7.674003E0,3.816537E0,7.0098925E0,3.1362169E0],"tree_param":{"num_deleted":"0","num_feature":"5146","num_nodes":"9","size_leaf_vector":"1"}},{"base_weights":[1.22484565E-2,3.6032933E-1,-4.5910323E-1,-1.549942E-2,6.8104005E-1,4.9424996E-3,-4.280414E-2,4.867261E-2,-1.8526763E-3],"categories":[],"categories_nodes":[],"categories_segments":[],"categories_sizes":[],"default_left":[0,0,0,0,0,0,0,0,0],"id":44,"left_children":[1,3,5,-1,7,-1,-1,-1,-1],"loss_changes":[4.727302E0,4.0475245E0,2.9396136E0,0E0,2.6888943E0,0E0,0E0,0E0,0E0],"parents":[2147483647,0,0,1,1,2,2,4,4],"right_children":[2,4,6,-1,8,-1,-1,-1,-1],"split_conditions":[7.433614E-2,1.2994122E-2,3.4944814E-1,-1.549942E-2,6.335918E0,4.9424996E-3,-4.280414E-2,4.867261E-2,-1.8526763E-3],"split_indices":[818,20,4451,0,3491,0,0,0,0],"split_type":[0,0,0,0,0,0,0,0,0],"sum_hessian":[2.4856602E1,1.4690954E1,1.0165648E1,4.674932E0,1.0016022E1,4.745689E0,5.4199595E0,6.7112184E0,3.3048036E0],"tree_param":{"num_deleted":"0","num_feature":"5146","num_nodes":"9","size_leaf_vector":"1"}},{"base_weights":[-5.114214E-3,3.174107E-1,-5.569755E-1,5.8549917E-1,-2.4458004E-2,-4.2376705E-2,3.64828E-3,-5.3691296E-3,7.9739684E-1,4.9298007E-2,7.6428982E-3],"categories":[],"categories_nodes":[],"categories_segments":[],"categories_sizes":[],"default_left":[0,0,0,0,0,0,0,0,0,0,0],"id":45,"left_children":[1,3,5,7,-1,-1,-1,-1,9,-1,-1],"loss_changes":[5.1036797E0,4.4569583E0,2.1476572E0,2.362061E0,0E0,0E0,0E0,0E0,9.7204065E-1,0E0,0E0],"parents":[2147483647,0,0,1,1,2,2,3,3,8,8],"right_children":[2,4,6,8,-1,-1,-1,-1,10,-1,-1],"split_conditions":[3.4007099E0,1.4188975E-1,3.5792668E0,6.9077685E-2,-2.4458004E-2,-4.2376705E-2,3.64828E-3,-5.3691296E-3,5.4686066E-2,4.9298007E-2,7.6428982E-3],"split_indices":[2849,1522,3743,1483,0,0,0,0,1482,0,0],"split_type":[0,0,0,0,0,0,0,0,0,0,0],"sum_hessian":[2.4553005E1,1.5918313E1,8.634691E0,1.2451752E1,3.4665618E0,5.544989E0,3.0897021E0,3.0366821E0,9.41507E0,6.3444033E0,3.0706663E0],"tree_param":{"num_deleted":"0","num_feature":"5146","num_nodes":"11","size_leaf_vector":"1"}},{"base_weights":[-1.4798179E-2,3.221067E-1,-4.965634E-1,-2.6096711E-2,5.760661E-1,1.3349614E-2,-4.059201E-2,4.3311574E-2,-3.7286622E-3],"categories":[],"categories_nodes":[],"categories_segments":[],"categories_sizes":[],"default_left":[0,0,0,0,0,0,0,0,0],"id":46,"left_children":[1,3,5,-1,7,-1,-1,-1,-1],"loss_changes":[4.8899665E0,4.378728E0,3.4855893E0,0E0,2.9588485E0,0E0,0E0,0E0,0E0],"parents":[2147483647,0,0,1,1,2,2,4,4],"right_children":[2,4,6,-1,8,-1,-1,-1,-1],"split_conditions":[4.488821E0,2.2552421E-2,2.21224E0,-2.6096711E-2,8.221425E-2,1.3349614E-2,-4.059201E-2,4.3311574E-2,-3.7286622E-3],"split_indices":[2500,781,2557,0,4659,0,0,0,0],"split_type":[0,0,0,0,0,0,0,0,0],"sum_hessian":[2.6049133E1,1.5597106E1,1.0452028E1,3.0283072E0,1.2568799E1,3.0513089E0,7.400719E0,8.340276E0,4.2285233E0],"tree_param":{"num_deleted":"0","num_feature":"5146","num_nodes":"9","size_leaf_vector":"1"}},{"base_weights":[3.6621824E-2,4.5208102E-1,-3.8736454E-1,-1.461596E-2,7.1399295E-1,-6.4919615E-1,1.5224543E-2,4.6110358E-2,7.3929206E-3,4.424884E-4,-4.6689816E-2],"categories":[],"categories_nodes":[],"categories_segments":[],"categories_sizes":[],"default_left":[0,0,0,0,0,0,0,0,0,0,0],"id":47,"left_children":[1,3,5,-1,7,9,-1,-1,-1,-1,-1],"loss_changes":[5.064749E0,3.294725E0,2.9996085E0,0E0,9.684663E-1,2.1755996E0,0E0,0E0,0E0,0E0,0E0],"parents":[2147483647,0,0,1,1,2,2,4,4,5,5],"right_children":[2,4,6,-1,8,10,-1,-1,-1,-1,-1],"split_conditions":[3.17858E0,1.1646574E0,9.0324385E-3,-1.461596E-2,4.6274584E-2,1.1237025E-2,1.5224543E-2,4.6110358E-2,7.3929206E-3,4.424884E-4,-4.6689816E-2],"split_indices":[3143,3408,4156,0,4489,4516,0,0,0,0,0],"split_type":[0,0,0,0,0,0,0,0,0,0,0],"sum_hessian":[2.4727573E1,1.2541569E1,1.2186005E1,3.1043763E0,9.437193E0,9.034696E0,3.1513093E0,5.85082E0,3.5863729E0,3.2066925E0,5.828003E0],"tree_param":{"num_deleted":"0","num_feature":"5146","num_nodes":"11","size_leaf_vector":"1"}},{"base_weights":[-3.9443627E-2,-3.809137E-1,4.1083756E-1,1.8638412E-2,-7.435324E-1,3.956406E-2,-1.0357182E-2,-4.950631E-2,-1.1929584E-3],"categories":[],"categories_nodes":[],"categories_segments":[],"categories_sizes":[],"default_left":[0,0,0,0,0,0,0,0,0],"id":48,"left_children":[1,3,5,-1,7,-1,-1,-1,-1],"loss_changes":[4.3941054E0,5.0380735E0,3.2760935E0,0E0,1.9352636E0,0E0,0E0,0E0,0E0],"parents":[2147483647,0,0,1,1,2,2,4,4],"right_children":[2,4,6,-1,8,-1,-1,-1,-1],"split_conditions":[6.286067E-2,3.5287477E-2,3.4372628E-2,1.8638412E-2,3.979566E-1,3.956406E-2,-1.0357182E-2,-4.950631E-2,-1.1929584E-3],"split_indices":[842,1774,4746,0,3987,0,0,0,0],"split_type":[0,0,0,0,0,0,0,0,0],"sum_hessian":[2.4562014E1,1.4270325E1,1.0291689E1,4.5278015E0,9.742523E0,6.123116E0,4.1685734E0,6.5929265E0,3.149597E0],"tree_param":{"num_deleted":"0","num_feature":"5146","num_nodes":"9","size_leaf_vector":"1"}},{"base_weights":[3.216041E-2,3.6028627E-1,-4.0240806E-1,-1.8292865E-2,6.4066947E-1,-4.1394107E-2,1.9822193E-2,4.6041083E-2,-4.565935E-3],"categories":[],"categories_nodes":[],"categories_segments":[],"categories_sizes":[],"default_left":[0,0,0,0,0,0,0,0,0],"id":49,"left_children":[1,3,5,-1,7,-1,-1,-1,-1],"loss_changes":[4.240828E0,3.9554534E0,5.0319996E0,0E0,2.9341674E0,0E0,0E0,0E0,0E0],"parents":[2147483647,0,0,1,1,2,2,4,4],"right_children":[2,4,6,-1,8,-1,-1,-1,-1],"split_conditions":[3.2952116E0,2.4309506E0,4.1695037E0,-1.8292865E-2,3.2283483E0,-4.1394107E-2,1.9822193E-2,4.6041083E-2,-4.565935E-3],"split_indices":[2025,2335,3475,0,2146,0,0,0,0],"split_type":[0,0,0,0,0,0,0,0,0],"sum_hessian":[2.573679E1,1.4990229E1,1.0746562E1,3.9065633E0,1.1083665E1,7.046205E0,3.700357E0,7.7414613E0,3.3422034E0],"tree_param":{"num_deleted":"0","num_feature":"5146","num_nodes":"9","size_leaf_vector":"1"}},{"base_weights":[-1.7303407E-2,-3.2066572E-1,4.5210123E-1,1.8482834E-2,-5.9762895E-1,3.9438765E-2,-4.5785583E-3,-4.551525E-2,-0E0],"categories":[],"categories_nodes":[],"categories_segments":[],"categories_sizes":[],"default_left":[0,0,0,0,0,0,0,0,0],"id":50,"left_children":[1,3,5,-1,7,-1,-1,-1,-1],"loss_changes":[4.1235175E0,3.850371E0,2.2834682E0,0E0,2.4556823E0,0E0,0E0,0E0,0E0],"parents":[2147483647,0,0,1,1,2,2,4,4],"right_children":[2,4,6,-1,8,-1,-1,-1,-1],"split_conditions":[6.8050995E-2,3.5287477E-2,3.4372628E-2,1.8482834E-2,5.647912E-2,3.9438765E-2,-4.5785583E-3,-4.551525E-2,-0E0],"split_indices":[842,1774,4746,0,1053,0,0,0,0],"split_type":[0,0,0,0,0,0,0,0,0],"sum_hessian":[2.5013504E1,1.5708401E1,9.305103E0,4.202753E0,1.1505648E1,5.303279E0,4.001825E0,6.78455E0,4.7210975E0],"tree_param":{"num_deleted":"0","num_feature":"5146","num_nodes":"9","size_leaf_vector":"1"}}]},"name":"gbtree"},"learner_model_param":{"base_score":"[5.0051165E-1]","boost_from_average":"1","num_class":"0","num_feature":"5146","num_target":"1"},"objective":{"name":"binary:logistic","reg_loss_param":{"scale_pos_weight":"0.955223858"}}},"version":[3,1,2]}