{"learner":{"attributes":{"best_iteration":"50","best_score":"0.5759671471028958","scikit_learn":"{\"_estimator_type\": \"classifier\"}"},"feature_names":[],"feature_types":[],"gradient_booster":{"model":{"cats":{"enc":[],"feature_segments":[],"sorted_idx":[]},"gbtree_model_param":{"num_parallel_tree":"1","num_trees":"51"},"iteration_indptr":[0,1,2,3,4,5,6,7,8,9,10,11,12,13,14,15,16,17,18,19,20,21,22,23,24,25,26,27,28,29,30,31,32,33,34,35,36,37,38,39,40,41,42,43,44,45,46,47,48,49,50,51],"tree_info":[0,0,0,0,0,0,0,0,0,0,0,0,0,0,0,0,0,0,0,0,0,0,0,0,0,0,0,0,0,0,0,0,0,0,0,0,0,0,0,0,0,0,0,0,0,0,0,0,0,0,0],"trees":[{"base_weights":[-0E0,-4.5626804E-1,7.965985E-2,4.8281464E-1,-1.1635413E0,-5.4739803E-1,7.212826E-2,1.9232461E-2,-1.5414327E0,1.9232461E-2,-6.441461E-2,-8.5444935E-2,-2.3977006E-2],"categories":[],"categories_nodes":[],"categories_segments":[],"categories_sizes":[],"default_left":[0,0,0,0,0,0,0,0,0,0,0,0,0],"id":0,"left_children":[1,3,-1,5,7,9,-1,-1,11,-1,-1,-1,-1],"loss_changes":[3.305681E1,2.4708315E1,0E0,1.8045858E1,1.3495813E1,7.564349E0,0E0,0E0,1.2018013E0,0E0,0E0,0E0,0E0],"parents":[2147483647,0,0,1,1,3,3,4,4,5,5,8,8],"right_children":[2,4,-1,6,8,10,-1,-1,12,-1,-1,-1,-1],"split_conditions":[-3.1889362E0,4.6007513E-4,7.965985E-2,1.0312986E0,-6.145204E0,-1.1092701E-2,7.212826E-2,1.9232461E-2,2.2907195E0,1.9232461E-2,-6.441461E-2,-8.5444935E-2,-2.3977006E-2],"split_indices":[2596,583,0,1836,2576,438,0,0,809,0,0,0,0],"split_type":[0,0,0,0,0,0,0,0,0,0,0,0,0],"sum_hessian":[4.1526073E1,3.340668E1,8.119394E0,1.4563417E1,1.8843264E1,7.388052E0,7.1753654E0,3.6380558E0,1.5205208E1,3.6380558E0,3.749996E0,1.1999987E1,3.2052205E0],"tree_param":{"num_deleted":"0","num_feature":"3072","num_nodes":"13","size_leaf_vector":"1"}},{"base_weights":[1.4098668E-1,8.7479025E-1,-8.331226E-1,7.9214476E-2,-3.079558E-2,3.3339307E-2,-1.2545271E0,-3.6857776E-2,3.9260324E-2,-8.077335E-2,3.3166085E-3],"categories":[],"categories_nodes":[],"categories_segments":[],"categories_sizes":[],"default_left":[0,0,0,0,0,0,0,0,0,0,0],"id":1,"left_children":[1,3,5,-1,7,-1,9,-1,-1,-1,-1],"loss_changes":[3.1095095E1,1.6109436E1,1.3600509E1,0E0,8.496792E0,0E0,7.7136803E0,0E0,0E0,0E0,0E0],"parents":[2147483647,0,0,1,1,2,2,4,4,6,6],"right_children":[2,4,6,-1,8,-1,10,-1,-1,-1,-1],"split_conditions":[9.1405547E-1,6.15647E-1,-1.1059884E0,7.9214476E-2,-2.8919606E0,3.3339307E-2,1.2523514E0,-3.6857776E-2,3.9260324E-2,-8.077335E-2,3.3166085E-3],"split_indices":[375,717,716,0,2959,0,1785,0,0,0,0],"split_type":[0,0,0,0,0,0,0,0,0,0,0],"sum_hessian":[3.945651E1,2.2678904E1,1.6777607E1,1.1937628E1,1.0741275E1,3.3723786E0,1.3405228E1,5.926708E0,4.814567E0,1.0237372E1,3.1678557E0],"tree_param":{"num_deleted":"0","num_feature":"3072","num_nodes":"11","size_leaf_vector":"1"}},{"base_weights":[-1.2846123E-1,-6.99546E-1,1.2055366E0,5.0682545E-2,-9.9980575E-1,7.398976E-2,1.0294618E-2,-1.4590808E0,-1.5333305E-1,-8.15353E-2,-2.1643644E-2,4.0477995E-2,-4.561908E-2],"categories":[],"categories_nodes":[],"categories_segments":[],"categories_sizes":[],"default_left":[0,0,0,0,0,0,0,0,0,0,0,0,0],"id":2,"left_children":[1,3,5,-1,7,-1,-1,9,11,-1,-1,-1,-1],"loss_changes":[3.2322197E1,1.7212383E1,2.7194157E0,0E0,9.567999E0,0E0,0E0,1.315773E0,9.906417E0,0E0,0E0,0E0,0E0],"parents":[2147483647,0,0,1,1,2,2,4,4,7,7,8,8],"right_children":[2,4,6,-1,8,-1,-1,10,12,-1,-1,-1,-1],"split_conditions":[-6.77335E-1,-2.1935093E0,3.2620199E0,5.0682545E-2,-3.3450208E0,7.398976E-2,1.0294618E-2,2.7720656E0,1.3057098E0,-8.15353E-2,-2.1643644E-2,4.0477995E-2,-4.561908E-2],"split_indices":[158,48,773,0,2762,0,0,1071,82,0,0,0,0],"split_type":[0,0,0,0,0,0,0,0,0,0,0,0,0],"sum_hessian":[3.827973E1,2.7523209E1,1.0756524E1,3.346151E0,2.4177057E1,7.608427E0,3.148097E0,1.465827E1,9.518787E0,1.1465232E1,3.193038E0,4.079232E0,5.439555E0],"tree_param":{"num_deleted":"0","num_feature":"3072","num_nodes":"13","size_leaf_vector":"1"}},{"base_weights":[-4.1261837E-2,1.1836014E0,-5.201005E-1,1.0167585E-2,7.260717E-2,4.4185662E-1,-1.0806295E0,1.0074564E0,-2.342367E-2,-1.3503425E0,1.3311893E-2,1.7343348E-2,6.132107E-2,-1.1378194E-2,-7.757927E-2],"categories":[],"categories_nodes":[],"categories_segments":[],"categories_sizes":[],"default_left":[0,0,0,0,0,0,0,0,0,0,0,0,0,0,0],"id":3,"left_children":[1,3,5,-1,-1,7,9,11,-1,13,-1,-1,-1,-1,-1],"loss_changes":[2.6543404E1,2.5904903E0,1.8573746E1,0E0,0E0,7.866516E0,8.534788E0,2.8364372E-1,0E0,3.198429E0,0E0,0E0,0E0,0E0,0E0],"parents":[2147483647,0,0,1,1,2,2,5,5,6,6,7,7,9,9],"right_children":[2,4,6,-1,-1,8,10,12,-1,14,-1,-1,-1,-1,-1],"split_conditions":[1.3991015E0,-3.0353408E0,-4.8435498E-2,1.0167585E-2,7.260717E-2,-3.0682316E0,1.2113212E0,-4.85769E0,-2.342367E-2,8.404342E-1,1.3311893E-2,1.7343348E-2,6.132107E-2,-1.1378194E-2,-7.757927E-2],"split_indices":[1083,2621,583,0,0,2427,1593,2348,0,1824,0,0,0,0,0],"split_type":[0,0,0,0,0,0,0,0,0,0,0,0,0,0,0],"sum_hessian":[4.1270348E1,1.0713324E1,3.0557024E1,3.1396458E0,7.573678E0,1.1340296E1,1.9216728E1,6.9306536E0,4.4096417E0,1.6068134E1,3.1485925E0,3.125712E0,3.8049417E0,3.1655161E0,1.2902619E1],"tree_param":{"num_deleted":"0","num_feature":"3072","num_nodes":"15","size_leaf_vector":"1"}},{"base_weights":[3.838381E-2,-9.0896004E-1,7.279643E-1,1.9136785E-2,-1.2841407E0,1.2167895E0,-4.7673577E-1,-7.541236E-2,-1.1637359E-2,-0E0,7.3815376E-2,2.1877334E-2,-5.915454E-2],"categories":[],"categories_nodes":[],"categories_segments":[],"categories_sizes":[],"default_left":[0,0,0,0,0,0,0,0,0,0,0,0,0],"id":4,"left_children":[1,3,5,-1,7,9,11,-1,-1,-1,-1,-1,-1],"loss_changes":[3.0064543E1,1.0462109E1,1.6927797E1,0E0,2.7836494E0,6.2756443E0,6.9674616E0,0E0,0E0,0E0,0E0,0E0,0E0],"parents":[2147483647,0,0,1,1,2,2,4,4,5,5,6,6],"right_children":[2,4,6,-1,8,10,12,-1,-1,-1,-1,-1,-1],"split_conditions":[-1.4446092E0,-4.9038595E-1,5.2348495E-1,1.9136785E-2,-1.3976815E-1,-2.0380545E0,1.2364916E0,-7.541236E-2,-1.1637359E-2,-0E0,7.3815376E-2,2.1877334E-2,-5.915454E-2],"split_indices":[346,583,513,0,228,36,2058,0,0,0,0,0,0],"split_type":[0,0,0,0,0,0,0,0,0,0,0,0,0],"sum_hessian":[4.2023556E1,1.7373964E1,2.4649591E1,3.841476E0,1.3532489E1,1.7579416E1,7.0701747E0,1.0360065E1,3.1724234E0,3.399222E0,1.4180195E1,3.351564E0,3.7186108E0],"tree_param":{"num_deleted":"0","num_feature":"3072","num_nodes":"13","size_leaf_vector":"1"}},{"base_weights":[8.0252433E-4,-4.0307343E-1,6.663384E-2,-7.72305E-1,6.063387E-1,-1.0865977E0,3.288908E-2,5.853985E-2,-1.7530784E-2,-3.6772618E-3,-1.3589096E0,-7.563167E-2,-1.8495185E-2],"categories":[],"categories_nodes":[],"categories_segments":[],"categories_sizes":[],"default_left":[0,0,0,0,0,0,0,0,0,0,0,0,0],"id":5,"left_children":[1,3,-1,5,7,9,-1,-1,-1,-1,11,-1,-1],"loss_changes":[2.5135614E1,1.4246938E1,0E0,1.363834E1,6.629042E0,6.002407E0,0E0,0E0,0E0,0E0,1.419693E0,0E0,0E0],"parents":[2147483647,0,0,1,1,3,3,4,4,5,5,10,10],"right_children":[2,4,-1,6,8,10,-1,-1,-1,-1,12,-1,-1],"split_conditions":[-3.1720574E0,6.2086904E-1,6.663384E-2,1.3026153E0,3.3251342E-1,9.225498E-1,3.288908E-2,5.853985E-2,-1.7530784E-2,-3.6772618E-3,1.4302499E0,-7.563167E-2,-1.8495185E-2],"split_indices":[2596,184,0,1992,355,2299,0,0,0,0,2153,0,0],"split_type":[0,0,0,0,0,0,0,0,0,0,0,0,0],"sum_hessian":[4.255807E1,3.366821E1,8.889861E0,2.5067617E1,8.600592E0,2.1002222E1,4.065396E0,5.1943097E0,3.4062817E0,5.065388E0,1.5936834E1,1.2788998E1,3.1478364E0],"tree_param":{"num_deleted":"0","num_feature":"3072","num_nodes":"13","size_leaf_vector":"1"}},{"base_weights":[-2.2947878E-2,3.4126908E-1,-6.195252E-2,8.255386E-1,-4.8277676E-1,-3.3079144E-2,1.2648337E0,-1.0354298E0,3.899906E-2,6.82879E-3,7.3793896E-2,-6.568841E-2,-1.0448022E-2],"categories":[],"categories_nodes":[],"categories_segments":[],"categories_sizes":[],"default_left":[0,0,0,0,0,0,0,0,0,0,0,0,0],"id":6,"left_children":[1,3,-1,5,7,-1,9,11,-1,-1,-1,-1,-1],"loss_changes":[1.974305E1,1.447155E1,0E0,1.6330435E1,1.1297485E1,0E0,3.7185268E0,1.7231369E0,0E0,0E0,0E0,0E0,0E0],"parents":[2147483647,0,0,1,1,3,3,4,4,6,6,7,7],"right_children":[2,4,-1,6,8,-1,10,12,-1,-1,-1,-1,-1],"split_conditions":[2.8861916E0,4.9009523E-1,-6.195252E-2,-5.6712875E0,-1.4385616E0,-3.3079144E-2,1.855165E0,1.1301126E0,3.899906E-2,6.82879E-3,7.3793896E-2,-6.568841E-2,-1.0448022E-2],"split_indices":[350,513,0,2803,2510,0,1366,1887,0,0,0,0,0],"split_type":[0,0,0,0,0,0,0,0,0,0,0,0,0],"sum_hessian":[4.046219E1,3.2180733E1,8.281458E0,2.034327E1,1.1837461E1,4.356339E0,1.5986931E1,8.539391E0,3.2980707E0,3.112956E0,1.2873975E1,5.415375E0,3.1240153E0],"tree_param":{"num_deleted":"0","num_feature":"3072","num_nodes":"13","size_leaf_vector":"1"}},{"base_weights":[1.4405404E-2,7.8580236E-1,-6.284556E-1,-2.0843068E-2,1.2340305E0,-1.0983437E0,5.115285E-1,7.0805386E-2,1.4916561E-2,-6.760036E-2,1.2851579E-3,5.5454817E-2,-1.2974947E-2],"categories":[],"categories_nodes":[],"categories_segments":[],"categories_sizes":[],"default_left":[0,0,0,0,0,0,0,0,0,0,0,0,0],"id":7,"left_children":[1,3,5,-1,7,9,11,-1,-1,-1,-1,-1,-1],"loss_changes":[2.154423E1,1.1777493E1,1.3841959E1,0E0,1.5358925E0,5.172783E0,4.438888E0,0E0,0E0,0E0,0E0,0E0,0E0],"parents":[2147483647,0,0,1,1,2,2,4,4,5,5,6,6],"right_children":[2,4,6,-1,8,10,12,-1,-1,-1,-1,-1,-1],"split_conditions":[8.6202186E-1,-2.0563712E0,6.4198464E-1,-2.0843068E-2,-5.520056E-1,-4.7777724E-2,-2.9676938E0,7.0805386E-2,1.4916561E-2,-6.760036E-2,1.2851579E-3,5.5454817E-2,-1.2974947E-2],"split_indices":[727,2779,693,0,2727,235,2464,0,0,0,0,0,0],"split_type":[0,0,0,0,0,0,0,0,0,0,0,0,0],"sum_hessian":[3.9421196E1,1.7787748E1,2.1633446E1,4.8069186E0,1.298083E1,1.5432941E1,6.2005043E0,9.917312E0,3.0635188E0,1.2333092E1,3.0998497E0,3.0722163E0,3.1282878E0],"tree_param":{"num_deleted":"0","num_feature":"3072","num_nodes":"13","size_leaf_vector":"1"}},{"base_weights":[-2.8860409E-2,-5.421465E-1,1.0652256E0,-8.360758E-1,4.3925688E-2,1.1754831E-3,6.7177564E-2,-1.079156E0,2.8577743E-2,1.1094655E-2,-1.3290178E0,-2.1112649E-2,-7.4592136E-2],"categories":[],"categories_nodes":[],"categories_segments":[],"categories_sizes":[],"default_left":[0,0,0,0,0,0,0,0,0,0,0,0,0],"id":8,"left_children":[1,3,5,7,-1,-1,-1,9,-1,-1,11,-1,-1],"loss_changes":[2.4463896E1,1.386787E1,3.8291645E0,1.0075989E1,0E0,0E0,0E0,8.067987E0,0E0,0E0,1.4075165E0,0E0,0E0],"parents":[2147483647,0,0,1,1,2,2,3,3,7,7,10,10],"right_children":[2,4,6,8,-1,-1,-1,10,-1,-1,12,-1,-1],"split_conditions":[-2.1347394E0,1.5054548E0,-1.3495516E0,1.9606467E-1,4.3925688E-2,1.1754831E-3,6.7177564E-2,2.037323E0,2.8577743E-2,1.1094655E-2,-3.963031E0,-2.1112649E-2,-7.4592136E-2],"split_indices":[2873,1542,633,418,0,0,0,801,0,0,2451,0,0],"split_type":[0,0,0,0,0,0,0,0,0,0,0,0,0],"sum_hessian":[3.9599102E1,2.7702797E1,1.1896305E1,2.3693968E1,4.0088277E0,3.0413566E0,8.854948E0,2.0663403E1,3.0305657E0,3.300596E0,1.7362806E1,3.8306763E0,1.353213E1],"tree_param":{"num_deleted":"0","num_feature":"3072","num_nodes":"13","size_leaf_vector":"1"}},{"base_weights":[-5.251305E-3,-6.19441E-1,7.698424E-1,-9.136749E-1,4.499129E-2,-2.8113121E-2,1.0904192E0,-1.2272825E0,-0E0,-0E0,6.636868E-2,-7.119455E-2,-1.2637587E-2],"categories":[],"categories_nodes":[],"categories_segments":[],"categories_sizes":[],"default_left":[0,0,0,0,0,0,0,0,0,0,0,0,0],"id":9,"left_children":[1,3,5,7,-1,-1,9,11,-1,-1,-1,-1,-1],"loss_changes":[2.146465E1,1.2926443E1,9.769175E0,6.387808E0,0E0,0E0,4.214842E0,2.2813797E0,0E0,0E0,0E0,0E0,0E0],"parents":[2147483647,0,0,1,1,2,2,3,3,6,6,7,7],"right_children":[2,4,6,8,-1,-1,10,12,-1,-1,-1,-1,-1],"split_conditions":[-2.8422453E0,1.2714454E0,-3.4834754E0,-5.6415457E-1,4.499129E-2,-2.8113121E-2,-6.1782246E0,-2.423894E0,-0E0,-0E0,6.636868E-2,-7.119455E-2,-1.2637587E-2],"split_indices":[2621,1768,2443,609,0,0,2807,2731,0,0,0,0,0],"split_type":[0,0,0,0,0,0,0,0,0,0,0,0,0],"sum_hessian":[4.1116795E1,2.3235485E1,1.788131E1,2.0188625E1,3.0468607E0,3.1155198E0,1.4765789E1,1.4538667E1,5.649958E0,3.0593798E0,1.1706409E1,1.1245168E1,3.2934983E0],"tree_param":{"num_deleted":"0","num_feature":"3072","num_nodes":"13","size_leaf_vector":"1"}},{"base_weights":[-3.8535286E-2,-5.0466824E-1,9.800043E-1,-8.4824675E-1,4.1421562E-2,-0E0,6.237275E-2,-1.0696123E0,2.436936E-2,-0E0,-1.338912E0,-7.256651E-2,-2.217423E-2],"categories":[],"categories_nodes":[],"categories_segments":[],"categories_sizes":[],"default_left":[0,0,0,0,0,0,0,0,0,0,0,0,0],"id":10,"left_children":[1,3,5,7,-1,-1,-1,9,-1,-1,11,-1,-1],"loss_changes":[2.1718391E1,1.5793668E1,3.8287315E0,8.794279E0,0E0,0E0,0E0,6.5972347E0,0E0,0E0,3.7198257E-1,0E0,0E0],"parents":[2147483647,0,0,1,1,2,2,3,3,7,7,10,10],"right_children":[2,4,6,8,-1,-1,-1,10,-1,-1,12,-1,-1],"split_conditions":[-2.1117377E0,1.2714454E0,-2.416962E-1,-1.9897671E0,4.1421562E-2,-0E0,6.237275E-2,-1.724801E0,2.436936E-2,-0E0,4.9932475E0,-7.256651E-2,-2.217423E-2],"split_indices":[2873,1768,357,2384,0,0,0,4,0,0,917,0,0],"split_type":[0,0,0,0,0,0,0,0,0,0,0,0,0],"sum_hessian":[4.1761307E1,2.940937E1,1.23519335E1,2.4020905E1,5.388467E0,3.0339246E0,9.318009E0,2.1011683E1,3.0092218E0,4.645817E0,1.6365866E1,1.3337996E1,3.02787E0],"tree_param":{"num_deleted":"0","num_feature":"3072","num_nodes":"13","size_leaf_vector":"1"}},{"base_weights":[-6.968536E-2,8.3185524E-1,-6.599765E-1,5.8804967E-2,-4.1194325E-3,2.1413026E-2,-9.434576E-1,-1.1398753E0,4.3710372E-3,-6.918311E-2,-5.095624E-3],"categories":[],"categories_nodes":[],"categories_segments":[],"categories_sizes":[],"default_left":[0,0,0,0,0,0,0,0,0,0,0],"id":11,"left_children":[1,3,5,-1,-1,-1,7,9,-1,-1,-1],"loss_changes":[2.1699192E1,5.385315E0,8.447296E0,0E0,0E0,0E0,4.3967514E0,3.9216423E0,0E0,0E0,0E0],"parents":[2147483647,0,0,1,1,2,2,6,6,7,7],"right_children":[2,4,6,-1,-1,-1,8,10,-1,-1,-1],"split_conditions":[1.0514038E0,2.742959E0,-3.727152E-1,5.8804967E-2,-4.1194325E-3,2.1413026E-2,3.659489E0,-1.3962532E0,4.3710372E-3,-6.918311E-2,-5.095624E-3],"split_indices":[372,884,281,0,0,0,1021,2545,0,0,0],"split_type":[0,0,0,0,0,0,0,0,0,0,0],"sum_hessian":[3.674385E1,1.4148005E1,2.2595848E1,9.941307E0,4.206697E0,4.385695E0,1.8210154E1,1.5199641E1,3.0105119E0,1.1691255E1,3.5083864E0],"tree_param":{"num_deleted":"0","num_feature":"3072","num_nodes":"11","size_leaf_vector":"1"}},{"base_weights":[-2.0476839E-2,7.2222376E-1,-5.948844E-1,-2.2096835E-2,1.0174396E0,3.6792672E-1,-9.813687E-1,6.247414E-2,6.878594E-4,5.220389E-2,-1.992667E-2,4.0388606E-3,-6.46713E-2],"categories":[],"categories_nodes":[],"categories_segments":[],"categories_sizes":[],"default_left":[0,0,0,0,0,0,0,0,0,0,0,0,0],"id":12,"left_children":[1,3,5,-1,7,9,11,-1,-1,-1,-1,-1,-1],"loss_changes":[1.8222342E1,7.3458624E0,9.766088E0,0E0,3.450077E0,5.195534E0,6.244831E0,0E0,0E0,0E0,0E0,0E0,0E0],"parents":[2147483647,0,0,1,1,2,2,4,4,5,5,6,6],"right_children":[2,4,6,-1,8,10,12,-1,-1,-1,-1,-1,-1],"split_conditions":[8.6202186E-1,-6.652925E-1,-5.881413E0,-2.2096835E-2,-1.0197134E-2,-2.5535924E0,2.5364308E0,6.247414E-2,6.878594E-4,5.220389E-2,-1.992667E-2,4.0388606E-3,-6.46713E-2],"split_indices":[727,13,2576,0,480,2326,1281,0,0,0,0,0,0],"split_type":[0,0,0,0,0,0,0,0,0,0,0,0,0],"sum_hessian":[3.872966E1,1.6590117E1,2.2139545E1,3.0864024E0,1.3503714E1,6.294916E0,1.5844628E1,1.0489254E1,3.0144594E0,3.0289292E0,3.2659872E0,3.861869E0,1.1982759E1],"tree_param":{"num_deleted":"0","num_feature":"3072","num_nodes":"13","size_leaf_vector":"1"}},{"base_weights":[3.014039E-3,5.7115716E-1,-8.847755E-1,-4.02647E-2,8.6059326E-1,-6.3087784E-2,2.1057834E-3,-1.5263741E-2,1.1171397E0,6.497174E-2,7.1246414E-3],"categories":[],"categories_nodes":[],"categories_segments":[],"categories_sizes":[],"default_left":[0,0,0,0,0,0,0,0,0,0,0],"id":13,"left_children":[1,3,5,-1,7,-1,-1,-1,9,-1,-1],"loss_changes":[2.1070835E1,1.1579861E1,5.909753E0,0E0,7.390383E0,0E0,0E0,0E0,2.8009167E0,0E0,0E0],"parents":[2147483647,0,0,1,1,2,2,4,4,8,8],"right_children":[2,4,6,-1,8,-1,-1,-1,10,-1,-1],"split_conditions":[2.028094E0,-3.7834327E0,1.192371E0,-4.02647E-2,-4.290504E0,-6.3087784E-2,2.1057834E-3,-1.5263741E-2,1.1503247E0,6.497174E-2,7.1246414E-3],"split_indices":[988,2910,1578,0,2783,0,0,0,27,0,0],"split_type":[0,0,0,0,0,0,0,0,0,0,0],"sum_hessian":[3.7833153E1,2.3573303E1,1.425985E1,3.4163473E0,2.0156956E1,9.700037E0,4.559813E0,3.4966872E0,1.6660269E1,1.338728E1,3.2729886E0],"tree_param":{"num_deleted":"0","num_feature":"3072","num_nodes":"11","size_leaf_vector":"1"}},{"base_weights":[-4.6891257E-2,-4.3940216E-1,8.64449E-1,3.995031E-1,-9.3200153E-1,5.8347773E-2,-0E0,-1.5048242E-2,5.3030647E-2,-6.2444652E-3,-5.9699237E-2],"categories":[],"categories_nodes":[],"categories_segments":[],"categories_sizes":[],"default_left":[0,0,0,0,0,0,0,0,0,0,0],"id":14,"left_children":[1,3,5,7,9,-1,-1,-1,-1,-1,-1],"loss_changes":[1.4403473E1,1.2428866E1,3.118434E0,6.1498175E0,3.4622545E0,0E0,0E0,0E0,0E0,0E0,0E0],"parents":[2147483647,0,0,1,1,2,2,3,3,4,4],"right_children":[2,4,6,8,10,-1,-1,-1,-1,-1,-1],"split_conditions":[-2.051824E0,-1.8793395E0,2.839968E0,1.2797512E0,8.6343266E-2,5.8347773E-2,-0E0,-1.5048242E-2,5.3030647E-2,-6.2444652E-3,-5.9699237E-2],"split_indices":[2845,2747,801,1877,321,0,0,0,0,0,0],"split_type":[0,0,0,0,0,0,0,0,0,0,0],"sum_hessian":[3.626076E1,2.6145445E1,1.0115317E1,9.737422E0,1.6408024E1,6.9381757E0,3.1771417E0,5.183542E0,4.5538797E0,4.838082E0,1.1569941E1],"tree_param":{"num_deleted":"0","num_feature":"3072","num_nodes":"11","size_leaf_vector":"1"}},{"base_weights":[3.8747717E-2,5.675644E-1,-6.604068E-1,-2.0547227E-3,6.0350526E-2,-1.00951E0,2.4070561E-2,4.1947242E-2,-4.5475832E-1,-6.034518E-2,-8.095284E-3,1.8266259E-2,-5.1512208E-2],"categories":[],"categories_nodes":[],"categories_segments":[],"categories_sizes":[],"default_left":[0,0,0,0,0,0,0,0,0,0,0,0,0],"id":15,"left_children":[1,3,5,7,-1,9,-1,-1,11,-1,-1,-1,-1],"loss_changes":[1.5127704E1,8.61694E0,8.040702E0,6.1474504E0,0E0,1.8468657E0,0E0,0E0,5.8377085E0,0E0,0E0,0E0,0E0],"parents":[2147483647,0,0,1,1,2,2,3,3,5,5,8,8],"right_children":[2,4,6,8,-1,10,-1,-1,12,-1,-1,-1,-1],"split_conditions":[1.9772279E0,1.10287204E-1,1.5131719E0,8.747013E-2,6.0350526E-2,4.0969567E0,2.4070561E-2,4.1947242E-2,1.6347243E-2,-6.034518E-2,-8.095284E-3,1.8266259E-2,-5.1512208E-2],"split_indices":[988,317,2020,691,0,1109,0,0,513,0,0,0,0],"split_type":[0,0,0,0,0,0,0,0,0,0,0,0,0],"sum_hessian":[3.691367E1,2.1312828E1,1.56008415E1,1.2243498E1,9.069329E0,1.219242E1,3.4084215E0,3.6099422E0,8.633556E0,9.105999E0,3.0864208E0,3.789715E0,4.843841E0],"tree_param":{"num_deleted":"0","num_feature":"3072","num_nodes":"13","size_leaf_vector":"1"}},{"base_weights":[1.4729204E-2,4.9985775E-1,-6.697498E-1,-2.9366449E-2,8.1883025E-1,1.9964334E-2,-5.3347033E-2,4.4563137E-2,6.056733E-2,-3.0562637E-2,3.3692162E-2],"categories":[],"categories_nodes":[],"categories_segments":[],"categories_sizes":[],"default_left":[0,0,0,0,0,0,0,0,0,0,0],"id":16,"left_children":[1,3,5,-1,7,-1,-1,9,-1,-1,-1],"loss_changes":[1.271287E1,8.782667E0,7.642032E0,0E0,5.325486E0,0E0,0E0,4.261792E0,0E0,0E0,0E0],"parents":[2147483647,0,0,1,1,2,2,4,4,7,7],"right_children":[2,4,6,-1,8,-1,-1,10,-1,-1,-1],"split_conditions":[2.028094E0,-2.320613E0,-5.960877E0,-2.9366449E-2,-3.2147117E0,1.9964334E-2,-5.3347033E-2,2.5764406E0,6.056733E-2,-3.0562637E-2,3.3692162E-2],"split_indices":[988,2914,2576,0,2964,0,0,1305,0,0,0],"split_type":[0,0,0,0,0,0,0,0,0,0,0],"sum_hessian":[3.431961E1,2.0485756E1,1.3833854E1,4.1941767E0,1.6291578E1,3.6764343E0,1.0157419E1,6.3155417E0,9.976037E0,3.0428076E0,3.2727342E0],"tree_param":{"num_deleted":"0","num_feature":"3072","num_nodes":"11","size_leaf_vector":"1"}},{"base_weights":[5.107729E-2,-3.241539E-1,9.587072E-1,-6.4583397E-1,5.4854923E-1,1.3494792E-2,5.6523103E-2,-1.0222911E0,2.5693102E-2,-4.915704E-3,5.087137E-2,-3.6089632E-3,-6.0771137E-2],"categories":[],"categories_nodes":[],"categories_segments":[],"categories_sizes":[],"default_left":[0,0,0,0,0,0,0,0,0,0,0,0,0],"id":17,"left_children":[1,3,5,7,9,-1,-1,11,-1,-1,-1,-1,-1],"loss_changes":[1.3289555E1,8.466869E0,5.994625E-1,1.0343753E1,2.8492582E0,0E0,0E0,2.7631207E0,0E0,0E0,0E0,0E0,0E0],"parents":[2147483647,0,0,1,1,2,2,3,3,4,4,7,7],"right_children":[2,4,6,8,10,-1,-1,12,-1,-1,-1,-1,-1],"split_conditions":[-6.1060995E-1,-3.8676422E0,8.6989254E-1,2.669189E0,3.6241696E0,1.3494792E-2,5.6523103E-2,2.4702306E0,2.5693102E-2,-4.915704E-3,5.087137E-2,-3.6089632E-3,-6.0771137E-2],"split_indices":[158,2409,2104,1122,795,0,0,984,0,0,0,0,0],"split_type":[0,0,0,0,0,0,0,0,0,0,0,0,0],"sum_hessian":[3.501008E1,2.5601482E1,9.408595E0,1.9169922E1,6.431561E0,3.0204217E0,6.3881736E0,1.4716041E1,4.4538817E0,3.2774134E0,3.1541474E0,3.0376344E0,1.1678406E1],"tree_param":{"num_deleted":"0","num_feature":"3072","num_nodes":"13","size_leaf_vector":"1"}},{"base_weights":[5.4515872E-2,7.29616E-1,-4.10667E-1,-1.2683265E-2,5.2663445E-2,-7.7628565E-1,3.5318162E-2,-1.0675476E0,6.2342114E-3,-9.367215E-3,-6.2900245E-2],"categories":[],"categories_nodes":[],"categories_segments":[],"categories_sizes":[],"default_left":[0,0,0,0,0,0,0,0,0,0,0],"id":18,"left_children":[1,3,5,-1,-1,7,-1,9,-1,-1,-1],"loss_changes":[1.2628878E1,5.831379E0,1.0828026E1,0E0,0E0,5.3357153E0,0E0,1.8350945E0,0E0,0E0,0E0],"parents":[2147483647,0,0,1,1,2,2,5,5,7,7],"right_children":[2,4,6,-1,-1,8,-1,10,-1,-1,-1],"split_conditions":[3.2236269E0,8.844437E-2,2.0464716E0,-1.2683265E-2,5.2663445E-2,2.3302759E-1,3.5318162E-2,9.9738085E-1,6.2342114E-3,-9.367215E-3,-6.2900245E-2],"split_indices":[1181,541,1431,0,0,570,0,1986,0,0,0],"split_type":[0,0,0,0,0,0,0,0,0,0,0],"sum_hessian":[3.6203835E1,1.439339E1,2.1810444E1,3.5950072E0,1.0798382E1,1.6959116E1,4.8513284E0,1.2620447E1,4.338669E0,3.044159E0,9.576288E0],"tree_param":{"num_deleted":"0","num_feature":"3072","num_nodes":"11","size_leaf_vector":"1"}},{"base_weights":[-1.2260749E-2,4.472621E-1,-7.560024E-1,-3.962786E-1,9.7482E-1,-5.23366E-2,7.280846E-3,-4.735619E-2,1.4892111E-2,6.6837566E-3,6.0268074E-2],"categories":[],"categories_nodes":[],"categories_segments":[],"categories_sizes":[],"default_left":[0,0,0,0,0,0,0,0,0,0,0],"id":19,"left_children":[1,3,5,7,9,-1,-1,-1,-1,-1,-1],"loss_changes":[1.34437065E1,1.1603535E1,4.3422346E0,4.7063913E0,2.558237E0,0E0,0E0,0E0,0E0,0E0,0E0],"parents":[2147483647,0,0,1,1,2,2,3,3,4,4],"right_children":[2,4,6,8,10,-1,-1,-1,-1,-1,-1],"split_conditions":[2.028094E0,-1.7089494E0,1.381659E0,2.189307E0,-2.67629E0,-5.23366E-2,7.280846E-3,-4.735619E-2,1.4892111E-2,6.6837566E-3,6.0268074E-2],"split_indices":[988,2684,1878,1468,2873,0,0,0,0,0,0],"split_type":[0,0,0,0,0,0,0,0,0,0,0],"sum_hessian":[3.52669E1,2.2208267E1,1.3058631E1,8.663641E0,1.3544627E1,9.715017E0,3.3436139E0,4.5042253E0,4.1594152E0,3.686743E0,9.857884E0],"tree_param":{"num_deleted":"0","num_feature":"3072","num_nodes":"11","size_leaf_vector":"1"}},{"base_weights":[1.5141132E-2,-3.055052E-1,4.76971E-2,-5.903388E-1,5.745657E-1,-9.0855867E-1,1.915974E-2,-0E0,4.547171E-2,-5.7122808E-2,-0E0],"categories":[],"categories_nodes":[],"categories_segments":[],"categories_sizes":[],"default_left":[0,0,0,0,0,0,0,0,0,0,0],"id":20,"left_children":[1,3,-1,5,7,9,-1,-1,-1,-1,-1],"loss_changes":[1.191583E1,8.034244E0,0E0,7.9475727E0,1.5008953E0,3.851925E0,0E0,0E0,0E0,0E0,0E0],"parents":[2147483647,0,0,1,1,3,3,4,4,5,5],"right_children":[2,4,-1,6,8,10,-1,-1,-1,-1,-1],"split_conditions":[2.4383825E-1,-3.8423343E0,4.76971E-2,1.2482452E0,-2.6712787E-1,-8.3779234E-1,1.915974E-2,-0E0,4.547171E-2,-5.7122808E-2,-0E0],"split_indices":[235,2409,0,1651,121,604,0,0,0,0,0],"split_type":[0,0,0,0,0,0,0,0,0,0,0],"sum_hessian":[3.543274E1,2.7338089E1,8.094652E0,2.1236866E1,6.101223E0,1.6183237E1,5.0536284E0,3.0529022E0,3.048321E0,1.2451204E1,3.7320325E0],"tree_param":{"num_deleted":"0","num_feature":"3072","num_nodes":"11","size_leaf_vector":"1"}},{"base_weights":[-1.0496355E-2,-5.9947413E-1,4.3567696E-1,-9.484833E-1,9.547699E-3,-2.746122E-1,8.688436E-1,-1.5362473E-2,-5.4862108E-2,-4.4442948E-2,2.321049E-2,5.6058835E-2,-0E0],"categories":[],"categories_nodes":[],"categories_segments":[],"categories_sizes":[],"default_left":[0,0,0,0,0,0,0,0,0,0,0,0,0],"id":21,"left_children":[1,3,5,7,-1,9,11,-1,-1,-1,-1,-1,-1],"loss_changes":[9.799577E0,4.8871684E0,7.032513E0,2.9285622E-1,0E0,5.147343E0,2.987235E0,0E0,0E0,0E0,0E0,0E0,0E0],"parents":[2147483647,0,0,1,1,2,2,3,3,5,5,6,6],"right_children":[2,4,6,8,-1,10,12,-1,-1,-1,-1,-1,-1],"split_conditions":[-1.4446092E0,-3.6808615E0,-2.8367128E0,-7.398979E-2,9.547699E-3,1.1561495E0,-2.0406191E-1,-1.5362473E-2,-5.4862108E-2,-4.4442948E-2,2.321049E-2,5.6058835E-2,-0E0],"split_indices":[346,2913,2787,482,0,1987,211,0,0,0,0,0,0],"split_type":[0,0,0,0,0,0,0,0,0,0,0,0,0],"sum_hessian":[3.3240982E1,1.4128021E1,1.9112959E1,9.61095E0,4.517071E0,7.4302874E0,1.1682672E1,3.090826E0,6.5201244E0,3.9093251E0,3.5209622E0,8.59327E0,3.089401E0],"tree_param":{"num_deleted":"0","num_feature":"3072","num_nodes":"13","size_leaf_vector":"1"}},{"base_weights":[3.5497673E-2,5.6197536E-1,-4.6805236E-1,9.2296743E-1,-2.1869304E-2,2.6323456E-2,-7.76324E-1,5.9081044E-2,-0E0,-1.0317953E0,9.308038E-3,-1.650803E-2,-5.818191E-2],"categories":[],"categories_nodes":[],"categories_segments":[],"categories_sizes":[],"default_left":[0,0,0,0,0,0,0,0,0,0,0,0,0],"id":22,"left_children":[1,3,5,7,-1,-1,9,-1,-1,11,-1,-1,-1],"loss_changes":[1.0463249E1,7.823396E0,7.0154324E0,3.6228104E0,0E0,0E0,4.465748E0,0E0,0E0,3.0642986E-1,0E0,0E0,0E0],"parents":[2147483647,0,0,1,1,2,2,3,3,6,6,9,9],"right_children":[2,4,6,8,-1,-1,10,-1,-1,12,-1,-1,-1],"split_conditions":[2.9967456E0,5.5442256E-1,-3.6939552E0,1.1038166E0,-2.1869304E-2,2.6323456E-2,1.1794037E0,5.9081044E-2,-0E0,2.4202425E0,9.308038E-3,-1.650803E-2,-5.818191E-2],"split_indices":[955,513,3020,73,0,0,1901,0,0,1120,0,0,0],"split_type":[0,0,0,0,0,0,0,0,0,0,0,0,0],"sum_hessian":[3.544812E1,1.7313175E1,1.8134943E1,1.2904666E1,4.4085097E0,3.879429E0,1.4255513E1,9.688374E0,3.2162926E0,1.1233651E1,3.0218625E0,3.0055807E0,8.22807E0],"tree_param":{"num_deleted":"0","num_feature":"3072","num_nodes":"13","size_leaf_vector":"1"}},{"base_weights":[1.307034E-2,-3.4858266E-1,8.0841273E-1,-7.2754365E-1,6.210956E-1,7.991222E-4,5.324724E-2,7.962088E-3,-9.5397043E-1,-0E0,4.8906486E-2,-0E0,-5.9008002E-2],"categories":[],"categories_nodes":[],"categories_segments":[],"categories_sizes":[],"default_left":[0,0,0,0,0,0,0,0,0,0,0,0,0],"id":23,"left_children":[1,3,5,7,9,-1,-1,-1,11,-1,-1,-1,-1],"loss_changes":[1.0919047E1,1.0450027E1,2.2754002E0,4.3294544E0,1.8593771E0,0E0,0E0,0E0,3.4036398E0,0E0,0E0,0E0,0E0],"parents":[2147483647,0,0,1,1,2,2,3,3,4,4,8,8],"right_children":[2,4,6,8,10,-1,-1,-1,12,-1,-1,-1,-1],"split_conditions":[-2.1117377E0,1.9765018E0,-2.7852948E0,9.274778E-1,4.7617793E0,7.991222E-4,5.324724E-2,7.962088E-3,-3.4384499E0,-0E0,4.8906486E-2,-0E0,-5.9008002E-2],"split_indices":[2873,1431,2791,1567,1009,0,0,0,2376,0,0,0,0],"split_type":[0,0,0,0,0,0,0,0,0,0,0,0,0],"sum_hessian":[3.3841816E1,2.3949406E1,9.892412E0,1.7652967E1,6.296437E0,3.0341883E0,6.8582234E0,3.6214786E0,1.4031489E1,3.0078316E0,3.2886052E0,3.1125228E0,1.0918966E1],"tree_param":{"num_deleted":"0","num_feature":"3072","num_nodes":"13","size_leaf_vector":"1"}},{"base_weights":[-3.8394097E-2,4.8007086E-1,-5.7699406E-1,-2.669397E-1,9.470477E-1,1.1209127E-2,-9.4183886E-1,-4.798017E-2,2.321675E-2,5.4499175E-2,1.5891789E-2,-5.6449898E-2,-8.482531E-3],"categories":[],"categories_nodes":[],"categories_segments":[],"categories_sizes":[],"default_left":[0,0,0,0,0,0,0,0,0,0,0,0,0],"id":24,"left_children":[1,3,5,7,9,-1,11,-1,-1,-1,-1,-1,-1],"loss_changes":[1.066753E1,7.352575E0,5.9746704E0,5.47564E0,2.8875828E-1,0E0,1.4168997E0,0E0,0E0,0E0,0E0,0E0,0E0],"parents":[2147483647,0,0,1,1,2,2,3,3,4,4,6,6],"right_children":[2,4,6,8,10,-1,12,-1,-1,-1,-1,-1,-1],"split_conditions":[1.329167E0,-4.095455E0,1.321207E-1,1.1050991E0,-1.7556751E0,1.1209127E-2,3.075488E-1,-4.798017E-2,2.321675E-2,5.4499175E-2,1.5891789E-2,-5.6449898E-2,-8.482531E-3],"split_indices":[372,2363,187,1839,2592,0,194,0,0,0,0,0,0],"split_type":[0,0,0,0,0,0,0,0,0,0,0,0,0],"sum_hessian":[3.4182682E1,1.7433035E1,1.6749647E1,6.9530363E0,1.048E1,5.396424E0,1.1353223E1,3.3203135E0,3.6327226E0,7.2170105E0,3.262989E0,8.290226E0,3.062997E0],"tree_param":{"num_deleted":"0","num_feature":"3072","num_nodes":"13","size_leaf_vector":"1"}},{"base_weights":[-5.0351758E-2,7.164558E-1,-4.0277267E-1,5.2137684E-2,-3.335759E-3,-6.6702133E-1,3.7093807E-2,-9.19237E-1,6.864836E-3,-1.0968223E-3,-5.53854E-2],"categories":[],"categories_nodes":[],"categories_segments":[],"categories_sizes":[],"default_left":[0,0,0,0,0,0,0,0,0,0,0],"id":25,"left_children":[1,3,5,-1,-1,7,-1,9,-1,-1,-1],"loss_changes":[9.989943E0,3.2099242E0,8.638647E0,0E0,0E0,4.7305546E0,0E0,2.690774E0,0E0,0E0,0E0],"parents":[2147483647,0,0,1,1,2,2,5,5,7,7],"right_children":[2,4,6,-1,-1,8,-1,10,-1,-1,-1],"split_conditions":[2.399445E0,1.0460814E0,1.5054548E0,5.2137684E-2,-3.335759E-3,6.969331E-1,3.7093807E-2,2.4893656E0,6.864836E-3,-1.0968223E-3,-5.53854E-2],"split_indices":[983,1867,1542,0,0,693,0,1123,0,0,0],"split_type":[0,0,0,0,0,0,0,0,0,0,0],"sum_hessian":[3.294748E1,9.634593E0,2.3312887E1,6.423226E0,3.2113674E0,1.9689384E1,3.6235037E0,1.4866245E1,4.8231387E0,3.0601928E0,1.1806052E1],"tree_param":{"num_deleted":"0","num_feature":"3072","num_nodes":"11","size_leaf_vector":"1"}},{"base_weights":[-6.929008E-2,-4.6643552E-1,7.2536266E-1,-8.821634E-1,2.5366783E-1,5.098644E-2,-2.1357797E-3,-4.5534526E-3,-5.5177893E-2,3.9596356E-2,-2.2774383E-2],"categories":[],"categories_nodes":[],"categories_segments":[],"categories_sizes":[],"default_left":[0,0,0,0,0,0,0,0,0,0,0],"id":26,"left_children":[1,3,5,7,9,-1,-1,-1,-1,-1,-1],"loss_changes":[1.1118419E1,7.520577E0,2.8417983E0,2.373351E0,4.585934E0,0E0,0E0,0E0,0E0,0E0,0E0],"parents":[2147483647,0,0,1,1,2,2,3,3,4,4],"right_children":[2,4,6,8,10,-1,-1,-1,-1,-1,-1],"split_conditions":[-2.1347394E0,2.879963E0,9.1010237E-1,-7.4132127E-1,4.5801897E0,5.098644E-2,-2.1357797E-3,-4.5534526E-3,-5.5177893E-2,3.9596356E-2,-2.2774383E-2],"split_indices":[2873,875,375,211,925,0,0,0,0,0,0],"split_type":[0,0,0,0,0,0,0,0,0,0,0],"sum_hessian":[3.1168198E1,2.1416653E1,9.751544E0,1.3380583E1,8.036071E0,6.6701355E0,3.081409E0,3.6418314E0,9.738751E0,4.515964E0,3.5201063E0],"tree_param":{"num_deleted":"0","num_feature":"3072","num_nodes":"11","size_leaf_vector":"1"}},{"base_weights":[4.9829774E-2,-3.06241E-1,7.970737E-1,-5.9411544E-1,2.5571514E-2,3.0908526E-3,5.2660365E-2,-8.739273E-1,2.367911E-2,-1.7929703E-3,-5.311302E-2],"categories":[],"categories_nodes":[],"categories_segments":[],"categories_sizes":[],"default_left":[0,0,0,0,0,0,0,0,0,0,0],"id":27,"left_children":[1,3,5,7,-1,-1,-1,9,-1,-1,-1],"loss_changes":[9.765464E0,6.4639378E0,1.9878473E0,6.660811E0,0E0,0E0,0E0,2.3616676E0,0E0,0E0,0E0],"parents":[2147483647,0,0,1,1,2,2,3,3,7,7],"right_children":[2,4,6,8,-1,-1,-1,10,-1,-1,-1],"split_conditions":[6.519754E-1,-1.9183259E0,-6.650147E-1,2.0464716E0,2.5571514E-2,3.0908526E-3,5.2660365E-2,-2.5764563E0,2.367911E-2,-1.7929703E-3,-5.311302E-2],"split_indices":[184,2472,80,1431,0,0,0,459,0,0,0],"split_type":[0,0,0,0,0,0,0,0,0,0,0],"sum_hessian":[3.2683083E1,2.2844109E1,9.838974E0,1.7390583E1,5.4535275E0,3.2842698E0,6.554704E0,1.4141217E1,3.2493653E0,3.129034E0,1.1012182E1],"tree_param":{"num_deleted":"0","num_feature":"3072","num_nodes":"11","size_leaf_vector":"1"}},{"base_weights":[5.984921E-2,4.575263E-2,-2.5691783E-1,-5.109555E-1,3.407198E-2,2.5753608E-2,-7.781592E-1,-9.934766E-1,6.518466E-3,-5.688656E-2,-1.2400832E-2],"categories":[],"categories_nodes":[],"categories_segments":[],"categories_sizes":[],"default_left":[0,0,0,0,0,0,0,0,0,0,0],"id":28,"left_children":[1,-1,3,5,-1,-1,7,9,-1,-1,-1],"loss_changes":[9.811302E0,0E0,6.986993E0,6.87317E0,0E0,0E0,3.9385624E0,9.283924E-1,0E0,0E0,0E0],"parents":[2147483647,0,0,2,2,3,3,6,6,7,7],"right_children":[2,-1,4,6,-1,-1,8,10,-1,-1,-1],"split_conditions":[1.3991015E0,4.575263E-2,2.0464716E0,8.6752236E-1,3.407198E-2,2.5753608E-2,-2.1117377E0,1.310725E0,6.518466E-3,-5.688656E-2,-1.2400832E-2],"split_indices":[1083,0,1431,1907,0,0,2873,2082,0,0,0],"split_type":[0,0,0,0,0,0,0,0,0,0,0],"sum_hessian":[3.223881E1,7.77803E0,2.4460781E1,2.0050198E1,4.410582E0,3.682056E0,1.6368143E1,1.3169979E1,3.1981637E0,1.0040468E1,3.1295104E0],"tree_param":{"num_deleted":"0","num_feature":"3072","num_nodes":"11","size_leaf_vector":"1"}},{"base_weights":[6.799343E-2,-2.7410442E-1,7.325977E-1,3.305542E-2,-5.903562E-1,5.158153E-2,-4.9977754E-3,-8.092329E-1,1.6096672E-2,-5.0302267E-2,-2.0574518E-3],"categories":[],"categories_nodes":[],"categories_segments":[],"categories_sizes":[],"default_left":[0,0,0,0,0,0,0,0,0,0,0],"id":29,"left_children":[1,3,5,-1,7,-1,-1,9,-1,-1,-1],"loss_changes":[8.358054E0,7.968202E0,3.4032855E0,0E0,4.426583E0,0E0,0E0,2.2667465E0,0E0,0E0,0E0],"parents":[2147483647,0,0,1,1,2,2,4,4,7,7],"right_children":[2,4,6,-1,8,-1,-1,10,-1,-1,-1],"split_conditions":[5.988001E-1,-3.3822646E0,9.593024E-1,3.305542E-2,-6.1512023E-1,5.158153E-2,-4.9977754E-3,1.3189667E0,1.6096672E-2,-5.0302267E-2,-2.0574518E-3],"split_indices":[541,2310,2126,0,2441,0,0,1606,0,0,0],"split_type":[0,0,0,0,0,0,0,0,0,0,0],"sum_hessian":[3.2793274E1,2.232592E1,1.0467356E1,5.0108476E0,1.7315073E1,7.437768E0,3.0295875E0,1.4235284E1,3.0797882E0,1.07348E1,3.5004835E0],"tree_param":{"num_deleted":"0","num_feature":"3072","num_nodes":"11","size_leaf_vector":"1"}},{"base_weights":[6.311828E-2,4.0588298E-1,-5.3166014E-1,7.689296E-1,-3.7098545E-1,-4.5412473E-2,9.430469E-3,-2.9058857E-3,4.9226787E-2,-4.1941725E-2,1.2410468E-2],"categories":[],"categories_nodes":[],"categories_segments":[],"categories_sizes":[],"default_left":[0,0,0,0,0,0,0,0,0,0,0],"id":30,"left_children":[1,3,5,7,9,-1,-1,-1,-1,-1,-1],"loss_changes":[7.101686E0,6.825348E0,3.871126E0,3.0167217E0,2.8739715E0,0E0,0E0,0E0,0E0,0E0,0E0],"parents":[2147483647,0,0,1,1,2,2,3,3,4,4],"right_children":[2,4,6,8,10,-1,-1,-1,-1,-1,-1],"split_conditions":[4.6199274E-1,5.5442256E-1,-3.3948233E0,2.3048844E0,-3.7625906E0,-4.5412473E-2,9.430469E-3,-2.9058857E-3,4.9226787E-2,-4.1941725E-2,1.2410468E-2],"split_indices":[187,513,2777,1337,2363,0,0,0,0,0,0],"split_type":[0,0,0,0,0,0,0,0,0,0,0],"sum_hessian":[3.0779278E1,2.003603E1,1.0743249E1,1.3756495E1,6.2795343E0,6.8031316E0,3.9401171E0,3.0508323E0,1.0705663E1,3.2647955E0,3.0147386E0],"tree_param":{"num_deleted":"0","num_feature":"3072","num_nodes":"11","size_leaf_vector":"1"}},{"base_weights":[-2.6159082E-2,-7.320556E-1,3.8114175E-1,9.1325067E-4,-4.974049E-2,8.0848104E-1,-3.1067228E-1,-0E0,5.1593702E-2,-4.623909E-2,1.9327404E-2],"categories":[],"categories_nodes":[],"categories_segments":[],"categories_sizes":[],"default_left":[0,0,0,0,0,0,0,0,0,0,0],"id":31,"left_children":[1,3,5,-1,-1,7,9,-1,-1,-1,-1],"loss_changes":[1.0334002E1,2.730595E0,7.26585E0,0E0,0E0,2.6668634E0,5.0619235E0,0E0,0E0,0E0,0E0],"parents":[2147483647,0,0,1,1,2,2,5,5,6,6],"right_children":[2,4,6,-1,-1,8,10,-1,-1,-1,-1],"split_conditions":[-1.4446092E0,2.0841506E0,4.5673758E-1,9.1325067E-4,-4.974049E-2,2.1898959E0,-2.1509137E0,-0E0,5.1593702E-2,-4.623909E-2,1.9327404E-2],"split_indices":[346,1097,513,0,0,1057,2939,0,0,0,0],"split_type":[0,0,0,0,0,0,0,0,0,0,0],"sum_hessian":[3.1879866E1,1.1170693E1,2.0709173E1,3.2812235E0,7.88947E0,1.2682411E1,8.026762E0,3.1644626E0,9.517948E0,3.996934E0,4.0298276E0],"tree_param":{"num_deleted":"0","num_feature":"3072","num_nodes":"11","size_leaf_vector":"1"}},{"base_weights":[5.459201E-2,4.3966615E-1,-4.9316084E-1,6.900048E-1,-2.3628158E-2,-4.512445E-2,2.1251453E-2,9.521739E-1,-5.9983977E-3,1.5694102E-2,5.4513354E-2],"categories":[],"categories_nodes":[],"categories_segments":[],"categories_sizes":[],"default_left":[0,0,0,0,0,0,0,0,0,0,0],"id":32,"left_children":[1,3,5,7,-1,-1,-1,9,-1,-1,-1],"loss_changes":[7.2356253E0,5.267586E0,6.136108E0,3.8543053E0,0E0,0E0,0E0,3.140192E-1,0E0,0E0,0E0],"parents":[2147483647,0,0,1,1,2,2,3,3,7,7],"right_children":[2,4,6,8,-1,-1,-1,10,-1,-1,-1],"split_conditions":[1.9772279E0,2.0543034E0,1.3769605E0,3.675018E0,-2.3628158E-2,-4.512445E-2,2.1251453E-2,4.6799842E-1,-5.9983977E-3,1.5694102E-2,5.4513354E-2],"split_indices":[988,73,2020,941,0,0,0,396,0,0,0],"split_type":[0,0,0,0,0,0,0,0,0,0,0],"sum_hessian":[3.0273594E1,1.8115494E1,1.2158101E1,1.4682954E1,3.4325392E0,8.5082445E0,3.6498566E0,1.0920562E1,3.762392E0,3.2355158E0,7.685046E0],"tree_param":{"num_deleted":"0","num_feature":"3072","num_nodes":"11","size_leaf_vector":"1"}},{"base_weights":[1.1295594E-1,-4.7182468E-1,4.4887248E-1,-3.9298777E-2,1.3887278E-2,-2.5274789E-2,6.842895E-1,-2.760176E-3,9.031546E-1,5.510636E-2,4.36494E-3],"categories":[],"categories_nodes":[],"categories_segments":[],"categories_sizes":[],"default_left":[0,0,0,0,0,0,0,0,0,0,0],"id":33,"left_children":[1,3,5,-1,-1,-1,7,-1,9,-1,-1],"loss_changes":[6.7369723E0,3.453698E0,5.552401E0,0E0,0E0,0E0,3.1339293E0,0E0,2.006918E0,0E0,0E0],"parents":[2147483647,0,0,1,1,2,2,6,6,8,8],"right_children":[2,4,6,-1,-1,-1,8,-1,10,-1,-1],"split_conditions":[-1.4446092E0,7.176501E-1,-7.796762E-1,-3.9298777E-2,1.3887278E-2,-2.5274789E-2,2.3335285E0,-2.760176E-3,5.991073E-1,5.510636E-2,4.36494E-3],"split_indices":[346,179,64,0,0,0,929,0,677,0,0],"split_type":[0,0,0,0,0,0,0,0,0,0,0],"sum_hessian":[3.0151146E1,1.0596809E1,1.9554337E1,7.492793E0,3.1040158E0,3.3310769E0,1.6223259E1,3.9421887E0,1.2281071E1,9.210464E0,3.0706074E0],"tree_param":{"num_deleted":"0","num_feature":"3072","num_nodes":"11","size_leaf_vector":"1"}},{"base_weights":[-4.2631794E-2,4.418166E-1,-4.957298E-1,4.4124003E-2,-1.2574191E-1,1.6892174E-2,-7.6900077E-1,2.1883646E-2,-3.2391947E-2,2.348458E-3,-5.0669696E-2],"categories":[],"categories_nodes":[],"categories_segments":[],"categories_sizes":[],"default_left":[0,0,0,0,0,0,0,0,0,0,0],"id":34,"left_children":[1,3,5,-1,7,-1,9,-1,-1,-1,-1],"loss_changes":[7.5906143E0,4.471022E0,4.6342525E0,0E0,3.219248E0,0E0,3.015953E0,0E0,0E0,0E0,0E0],"parents":[2147483647,0,0,1,1,2,2,4,4,6,6],"right_children":[2,4,6,-1,8,-1,10,-1,-1,-1,-1],"split_conditions":[-1.6876752E0,3.0368605E0,-2.7966485E0,4.4124003E-2,1.5617064E-1,1.6892174E-2,2.0847743E0,2.1883646E-2,-3.2391947E-2,2.348458E-3,-5.0669696E-2],"split_indices":[459,801,3018,0,675,0,1220,0,0,0,0],"split_type":[0,0,0,0,0,0,0,0,0,0,0],"sum_hessian":[3.0560799E1,1.4686846E1,1.5873952E1,7.7421455E0,6.9447007E0,3.712126E0,1.2161826E1,3.4036071E0,3.5410936E0,3.081128E0,9.080698E0],"tree_param":{"num_deleted":"0","num_feature":"3072","num_nodes":"11","size_leaf_vector":"1"}},{"base_weights":[1.0632306E-2,-5.0444716E-1,4.0569088E-1,-8.3312875E-1,2.0769104E-2,-2.8037203E-2,8.1561035E-1,-7.4164807E-3,-5.2085616E-2,5.120441E-2,8.253048E-3],"categories":[],"categories_nodes":[],"categories_segments":[],"categories_sizes":[],"default_left":[0,0,0,0,0,0,0,0,0,0,0],"id":35,"left_children":[1,3,5,7,-1,-1,9,-1,-1,-1,-1],"loss_changes":[6.724524E0,5.0493546E0,8.391847E0,1.1805558E0,0E0,0E0,1.4546604E0,0E0,0E0,0E0,0E0],"parents":[2147483647,0,0,1,1,2,2,3,3,6,6],"right_children":[2,4,6,8,-1,-1,10,-1,-1,-1,-1],"split_conditions":[-3.4679502E-1,1.3267287E0,-2.7702364E-1,1.6773843E0,2.0769104E-2,-2.8037203E-2,2.9631975E0,-7.4164807E-3,-5.2085616E-2,5.120441E-2,8.253048E-3],"split_indices":[754,1789,606,1090,0,0,1464,0,0,0,0],"split_type":[0,0,0,0,0,0,0,0,0,0,0],"sum_hessian":[2.9083626E1,1.2273916E1,1.680971E1,9.261681E0,3.012236E0,4.7146125E0,1.2095097E1,3.0733302E0,6.18835E0,8.173642E0,3.9214544E0],"tree_param":{"num_deleted":"0","num_feature":"3072","num_nodes":"11","size_leaf_vector":"1"}},{"base_weights":[1.1180948E-3,3.6316448E-1,-5.2883106E-1,-2.4834324E-1,6.9134027E-1,1.4199729E-2,-4.3752458E-2,-3.2903783E-2,1.2744869E-2,4.5246895E-2,8.043192E-4],"categories":[],"categories_nodes":[],"categories_segments":[],"categories_sizes":[],"default_left":[0,0,0,0,0,0,0,0,0,0,0],"id":36,"left_children":[1,3,5,7,9,-1,-1,-1,-1,-1,-1],"loss_changes":[6.3009E0,4.33521E0,4.2859707E0,2.0737634E0,1.8166623E0,0E0,0E0,0E0,0E0,0E0,0E0],"parents":[2147483647,0,0,1,1,2,2,3,3,4,4],"right_children":[2,4,6,8,10,-1,-1,-1,-1,-1,-1],"split_conditions":[1.9772279E0,-4.3709283E0,-1.5512371E0,3.3131616E0,3.87509E-1,1.4199729E-2,-4.3752458E-2,-3.2903783E-2,1.2744869E-2,4.5246895E-2,8.043192E-4],"split_indices":[988,2855,2727,1004,187,0,0,0,0,0,0],"split_type":[0,0,0,0,0,0,0,0,0,0,0],"sum_hessian":[2.8924479E1,1.7670572E1,1.1253905E1,6.2347794E0,1.1435793E1,3.3827481E0,7.8711576E0,3.207022E0,3.0277574E0,8.058372E0,3.3774216E0],"tree_param":{"num_deleted":"0","num_feature":"3072","num_nodes":"11","size_leaf_vector":"1"}},{"base_weights":[-7.6684835E-3,5.0571394E-1,-4.5733517E-1,4.195228E-2,-1.4391563E-2,2.3476651E-2,-7.687159E-1,-1.1267932E-3,-4.8336927E-2],"categories":[],"categories_nodes":[],"categories_segments":[],"categories_sizes":[],"default_left":[0,0,0,0,0,0,0,0,0],"id":37,"left_children":[1,3,5,-1,-1,-1,7,-1,-1],"loss_changes":[7.378505E0,4.464548E0,5.697254E0,0E0,0E0,0E0,1.8767385E0,0E0,0E0],"parents":[2147483647,0,0,1,1,2,2,6,6],"right_children":[2,4,6,-1,-1,-1,8,-1,-1],"split_conditions":[3.5038326E0,3.2179515E0,-1.7465838E0,4.195228E-2,-1.4391563E-2,2.3476651E-2,-2.6752675E0,-1.1267932E-3,-4.8336927E-2],"split_indices":[1200,955,203,0,0,0,2717,0,0],"split_type":[0,0,0,0,0,0,0,0,0],"sum_hessian":[2.7979433E1,1.2843918E1,1.5135514E1,9.052656E0,3.7912614E0,3.4699025E0,1.1665612E1,3.019661E0,8.645951E0],"tree_param":{"num_deleted":"0","num_feature":"3072","num_nodes":"9","size_leaf_vector":"1"}},{"base_weights":[2.3003222E-2,-2.329649E-1,3.842281E-2,-5.184425E-1,2.7956937E-2,-7.919703E-1,1.55404275E-2,-4.9060807E-2,-1.63545E-4],"categories":[],"categories_nodes":[],"categories_segments":[],"categories_sizes":[],"default_left":[0,0,0,0,0,0,0,0,0],"id":38,"left_children":[1,3,-1,5,-1,7,-1,-1,-1],"loss_changes":[6.370656E0,6.1570516E0,0E0,4.9121943E0,0E0,2.156046E0,0E0,0E0,0E0],"parents":[2147483647,0,0,1,1,3,3,5,5],"right_children":[2,4,-1,6,-1,8,-1,-1,-1],"split_conditions":[7.5433254E-1,1.3090388E0,3.842281E-2,-3.8116033E0,2.7956937E-2,-8.468513E-3,1.55404275E-2,-4.9060807E-2,-1.63545E-4],"split_indices":[541,1795,0,2409,0,255,0,0,0],"split_type":[0,0,0,0,0,0,0,0,0],"sum_hessian":[2.9229977E1,2.2682316E1,6.547661E0,1.7273933E1,5.4083815E0,1.3147685E1,4.126249E0,1.0107455E1,3.0402293E0],"tree_param":{"num_deleted":"0","num_feature":"3072","num_nodes":"9","size_leaf_vector":"1"}},{"base_weights":[-1.1452584E-1,3.502194E-1,-4.7804233E-1,-1.3560446E-1,4.2361792E-2,-7.781542E-1,5.586024E-3,2.0539893E-2,-3.1287026E-2,-8.751745E-3,-4.7574922E-2],"categories":[],"categories_nodes":[],"categories_segments":[],"categories_sizes":[],"default_left":[0,0,0,0,0,0,0,0,0,0,0],"id":39,"left_children":[1,3,5,7,-1,9,-1,-1,-1,-1,-1],"loss_changes":[5.0384946E0,3.493043E0,3.1691077E0,2.7604487E0,0E0,7.387171E-1,0E0,0E0,0E0,0E0,0E0],"parents":[2147483647,0,0,1,1,2,2,3,3,5,5],"right_children":[2,4,6,8,-1,10,-1,-1,-1,-1,-1],"split_conditions":[1.321207E-1,-3.324206E0,1.7328872E-1,3.6105484E-1,4.2361792E-2,-5.3258188E-2,5.586024E-3,2.0539893E-2,-3.1287026E-2,-8.751745E-3,-4.7574922E-2],"split_indices":[187,2886,722,513,0,29,0,0,0,0,0],"split_type":[0,0,0,0,0,0,0,0,0,0,0],"sum_hessian":[2.5766077E1,1.121987E1,1.4546208E1,6.3075185E0,4.912351E0,9.329437E0,5.2167706E0,3.0391722E0,3.2683465E0,3.1089196E0,6.220518E0],"tree_param":{"num_deleted":"0","num_feature":"3072","num_nodes":"11","size_leaf_vector":"1"}},{"base_weights":[6.247229E-3,3.9502513E-1,-5.0090504E-1,-1.18235005E-2,6.997589E-1,-4.129869E-2,1.4518893E-2,-1.5310365E-3,4.7642086E-2],"categories":[],"categories_nodes":[],"categories_segments":[],"categories_sizes":[],"default_left":[0,0,0,0,0,0,0,0,0],"id":40,"left_children":[1,3,5,-1,7,-1,-1,-1,-1],"loss_changes":[6.2794356E0,3.8703926E0,4.068126E0,0E0,2.5268917E0,0E0,0E0,0E0,0E0],"parents":[2147483647,0,0,1,1,2,2,4,4],"right_children":[2,4,6,-1,8,-1,-1,-1,-1],"split_conditions":[9.1405547E-1,-1.5868698E0,-4.7777724E-2,-1.18235005E-2,-4.756814E0,-4.129869E-2,1.4518893E-2,-1.5310365E-3,4.7642086E-2],"split_indices":[375,719,235,0,2681,0,0,0,0],"split_type":[0,0,0,0,0,0,0,0,0],"sum_hessian":[2.7894484E1,1.6151934E1,1.174255E1,5.296319E0,1.0855616E1,8.350681E0,3.3918688E0,3.1442928E0,7.711323E0],"tree_param":{"num_deleted":"0","num_feature":"3072","num_nodes":"9","size_leaf_vector":"1"}},{"base_weights":[5.60581E-2,4.202549E-1,-4.6179086E-1,-2.4374813E-2,6.673556E-1,1.2526765E-2,-4.0463693E-2,4.4737484E-2,-7.105175E-3],"categories":[],"categories_nodes":[],"categories_segments":[],"categories_sizes":[],"default_left":[0,0,0,0,0,0,0,0,0],"id":41,"left_children":[1,3,5,-1,7,-1,-1,-1,-1],"loss_changes":[5.937376E0,4.80663E0,3.6785553E0,0E0,3.1699772E0,0E0,0E0,0E0,0E0],"parents":[2147483647,0,0,1,1,2,2,4,4],"right_children":[2,4,6,-1,8,-1,-1,-1,-1],"split_conditions":[3.2562215E0,-4.7665377E0,-5.881413E0,-2.4374813E-2,3.097626E0,1.2526765E-2,-4.0463693E-2,4.4737484E-2,-7.105175E-3],"split_indices":[955,2957,2576,0,833,0,0,0,0],"split_type":[0,0,0,0,0,0,0,0,0],"sum_hessian":[2.74455E1,1.6447914E1,1.0997587E1,3.0164046E0,1.3431509E1,3.6944103E0,7.3031764E0,1.0417749E1,3.0137596E0],"tree_param":{"num_deleted":"0","num_feature":"3072","num_nodes":"9","size_leaf_vector":"1"}},{"base_weights":[-2.7862577E-2,4.9261105E-1,-4.265799E-1,-8.949507E-3,3.9339915E-2,2.0935625E-2,-6.7011374E-1,-4.7023464E-2,6.728269E-3],"categories":[],"categories_nodes":[],"categories_segments":[],"categories_sizes":[],"default_left":[0,0,0,0,0,0,0,0,0],"id":42,"left_children":[1,3,5,-1,-1,-1,7,-1,-1],"loss_changes":[6.498379E0,3.0172E0,4.24706E0,0E0,0E0,0E0,3.5243783E0,0E0,0E0],"parents":[2147483647,0,0,1,1,2,2,6,6],"right_children":[2,4,6,-1,-1,-1,8,-1,-1],"split_conditions":[1.4726799E0,-7.004566E-2,3.1343997E0,-8.949507E-3,3.9339915E-2,2.0935625E-2,1.3022141E0,-4.7023464E-2,6.728269E-3],"split_indices":[1358,261,910,0,0,0,1900,0,0],"split_type":[0,0,0,0,0,0,0,0,0],"sum_hessian":[2.7320799E1,1.153785E1,1.5782948E1,3.649539E0,7.8883114E0,3.1164975E0,1.266645E1,9.321418E0,3.345032E0],"tree_param":{"num_deleted":"0","num_feature":"3072","num_nodes":"9","size_leaf_vector":"1"}},{"base_weights":[-7.4697636E-2,5.110276E-1,-3.538555E-1,4.4005763E-2,-6.5507493E-3,-6.239528E-1,2.2291088E-2,-8.4229577E-1,5.224633E-3,-4.960678E-2,-1.0312631E-2],"categories":[],"categories_nodes":[],"categories_segments":[],"categories_sizes":[],"default_left":[0,0,0,0,0,0,0,0,0,0,0],"id":43,"left_children":[1,3,5,-1,-1,7,-1,9,-1,-1,-1],"loss_changes":[4.777609E0,2.545081E0,4.8189297E0,0E0,0E0,2.7338095E0,0E0,6.4718246E-1,0E0,0E0,0E0],"parents":[2147483647,0,0,1,1,2,2,5,5,7,7],"right_children":[2,4,6,-1,-1,8,-1,10,-1,-1,-1],"split_conditions":[-3.6056755E0,2.6508648E0,-1.938404E0,4.4005763E-2,-6.5507493E-3,-2.322046E0,2.2291088E-2,1.2662529E0,5.224633E-3,-4.960678E-2,-1.0312631E-2],"split_indices":[3020,803,2873,0,0,2726,0,1571,0,0,0],"split_type":[0,0,0,0,0,0,0,0,0,0,0],"sum_hessian":[2.5103373E1,7.4507923E0,1.765258E1,4.3590627E0,3.0917296E0,1.361765E1,4.0349298E0,1.0342347E1,3.275303E0,7.3369627E0,3.0053842E0],"tree_param":{"num_deleted":"0","num_feature":"3072","num_nodes":"11","size_leaf_vector":"1"}},{"base_weights":[2.816832E-2,4.8521426E-1,-3.6140785E-1,4.3868076E-2,-1.0832147E-2,2.3201546E-2,-6.6707754E-1,-4.602344E-2,-0E0],"categories":[],"categories_nodes":[],"categories_segments":[],"categories_sizes":[],"default_left":[0,0,0,0,0,0,0,0,0],"id":44,"left_children":[1,3,5,-1,-1,-1,7,-1,-1],"loss_changes":[5.1240606E0,4.100148E0,4.540882E0,0E0,0E0,0E0,2.1342058E0,0E0,0E0],"parents":[2147483647,0,0,1,1,2,2,6,6],"right_children":[2,4,6,-1,-1,-1,8,-1,-1],"split_conditions":[1.321207E-1,4.9009523E-1,-2.63932E0,4.3868076E-2,-1.0832147E-2,2.3201546E-2,1.0866453E-1,-4.602344E-2,-0E0],"split_indices":[187,513,459,0,0,0,99,0,0],"split_type":[0,0,0,0,0,0,0,0,0],"sum_hessian":[2.473882E1,1.1275844E1,1.34629755E1,7.0045633E0,4.2712803E0,3.2698023E0,1.0193173E1,6.922942E0,3.2702315E0],"tree_param":{"num_deleted":"0","num_feature":"3072","num_nodes":"9","size_leaf_vector":"1"}},{"base_weights":[-0E0,-5.78692E-1,2.7955315E-1,-4.3330945E-2,-0E0,-2.7275294E-2,5.1032394E-1,7.371823E-1,-1.2867913E-2,5.3108917E-3,4.575726E-2],"categories":[],"categories_nodes":[],"categories_segments":[],"categories_sizes":[],"default_left":[0,0,0,0,0,0,0,0,0,0,0],"id":45,"left_children":[1,3,5,-1,-1,-1,7,9,-1,-1,-1],"loss_changes":[4.6450677E0,1.6234105E0,4.195562E0,0E0,0E0,0E0,3.227261E0,1.1663041E0,0E0,0E0,0E0],"parents":[2147483647,0,0,1,1,2,2,6,6,7,7],"right_children":[2,4,6,-1,-1,-1,8,10,-1,-1,-1],"split_conditions":[-1.5836517E0,-2.5458786E-1,-1.6180362E-1,-4.3330945E-2,-0E0,-2.7275294E-2,3.6175945E0,-3.7800112E0,-1.2867913E-2,5.3108917E-3,4.575726E-2],"split_indices":[719,76,193,0,0,0,1492,2886,0,0,0],"split_type":[0,0,0,0,0,0,0,0,0,0,0],"sum_hessian":[2.4536276E1,7.4064455E0,1.7129831E1,4.3559294E0,3.0505161E0,3.053138E0,1.4076693E1,1.1027631E1,3.0490625E0,3.2522938E0,7.7753367E0],"tree_param":{"num_deleted":"0","num_feature":"3072","num_nodes":"11","size_leaf_vector":"1"}},{"base_weights":[-5.922564E-3,5.749444E-1,-2.785971E-1,4.433702E-2,-0E0,1.8912154E-1,-6.4607584E-1,-1.7284757E-2,3.6609124E-2,-0E0,-4.396407E-2],"categories":[],"categories_nodes":[],"categories_segments":[],"categories_sizes":[],"default_left":[0,0,0,0,0,0,0,0,0,0,0],"id":46,"left_children":[1,3,5,-1,-1,7,9,-1,-1,-1,-1],"loss_changes":[4.7864633E0,1.7189865E0,3.8618422E0,0E0,0E0,3.6150467E0,1.8984494E0,0E0,0E0,0E0,0E0],"parents":[2147483647,0,0,1,1,2,2,5,5,6,6],"right_children":[2,4,6,-1,-1,8,10,-1,-1,-1,-1],"split_conditions":[-7.395979E-1,-7.5513357E-1,1.675582E0,4.433702E-2,-0E0,4.5213425E-1,-1.3097662E0,-1.7284757E-2,3.6609124E-2,-0E0,-4.396407E-2],"split_indices":[296,238,1358,0,0,149,740,0,0,0,0],"split_type":[0,0,0,0,0,0,0,0,0,0,0],"sum_hessian":[2.6384434E1,7.603407E0,1.8781027E1,4.223382E0,3.3800251E0,8.57084E0,1.0210187E1,4.5916343E0,3.9792051E0,3.1624196E0,7.047767E0],"tree_param":{"num_deleted":"0","num_feature":"3072","num_nodes":"11","size_leaf_vector":"1"}},{"base_weights":[5.9768684E-2,4.4159302E-1,-4.3371692E-1,-1.5195546E-2,7.038699E-1,-3.9633483E-2,1.0100088E-2,4.5311544E-2,1.7313336E-3],"categories":[],"categories_nodes":[],"categories_segments":[],"categories_sizes":[],"default_left":[0,0,0,0,0,0,0,0,0],"id":47,"left_children":[1,3,5,-1,7,-1,-1,-1,-1],"loss_changes":[5.5011744E0,3.6777685E0,3.2868807E0,0E0,1.5829573E0,0E0,0E0,0E0,0E0],"parents":[2147483647,0,0,1,1,2,2,4,4],"right_children":[2,4,6,-1,8,-1,-1,-1,-1],"split_conditions":[-1.4564697E0,-9.936311E-1,1.9248829E0,-1.5195546E-2,3.2425063E0,-3.9633483E-2,1.0100088E-2,4.5311544E-2,1.7313336E-3],"split_indices":[459,545,1438,0,1464,0,0,0,0],"split_type":[0,0,0,0,0,0,0,0,0],"sum_hessian":[2.5158497E1,1.4416769E1,1.0741728E1,3.5701387E0,1.084663E1,6.6502514E0,4.0914764E0,7.669833E0,3.1767972E0],"tree_param":{"num_deleted":"0","num_feature":"3072","num_nodes":"9","size_leaf_vector":"1"}},{"base_weights":[-2.3559682E-2,-5.301842E-1,3.1717536E-1,-4.0573984E-2,5.795176E-3,-1.6573844E-2,5.540062E-1,-5.1401863E-3,4.2523053E-2],"categories":[],"categories_nodes":[],"categories_segments":[],"categories_sizes":[],"default_left":[0,0,0,0,0,0,0,0,0],"id":48,"left_children":[1,3,5,-1,-1,-1,7,-1,-1],"loss_changes":[4.8699036E0,2.3254445E0,2.9644732E0,0E0,0E0,0E0,2.808217E0,0E0,0E0],"parents":[2147483647,0,0,1,1,2,2,6,6],"right_children":[2,4,6,-1,-1,-1,8,-1,-1],"split_conditions":[-1.4446092E0,-1.0412882E-1,-4.8258373E-1,-4.0573984E-2,5.795176E-3,-1.6573844E-2,-2.1354195E-1,-5.1401863E-3,4.2523053E-2],"split_indices":[346,352,64,0,0,0,569,0,0],"split_type":[0,0,0,0,0,0,0,0,0],"sum_hessian":[2.4139244E1,9.377587E0,1.4761657E1,6.284306E0,3.0932813E0,3.6214402E0,1.1140217E1,3.7658715E0,7.3743453E0],"tree_param":{"num_deleted":"0","num_feature":"3072","num_nodes":"9","size_leaf_vector":"1"}},{"base_weights":[1.2769663E-2,-2.3277415E-1,3.291172E-2,2.3465617E-2,-4.8692784E-1,1.4995376E-2,-7.353877E-1,-4.600581E-2,-2.2734948E-3],"categories":[],"categories_nodes":[],"categories_segments":[],"categories_sizes":[],"default_left":[0,0,0,0,0,0,0,0,0],"id":49,"left_children":[1,3,-1,-1,5,-1,7,-1,-1],"loss_changes":[4.677015E0,4.2323523E0,0E0,0E0,3.732459E0,0E0,1.5150852E0,0E0,0E0],"parents":[2147483647,0,0,1,1,4,4,6,6],"right_children":[2,4,-1,-1,6,-1,8,-1,-1],"split_conditions":[1.8386967E-1,-2.508254E0,3.291172E-2,2.3465617E-2,1.900734E0,1.4995376E-2,4.236493E0,-4.600581E-2,-2.2734948E-3],"split_indices":[235,3018,0,0,982,0,1086,0,0],"split_type":[0,0,0,0,0,0,0,0,0],"sum_hessian":[2.5307922E1,1.9147688E1,6.160236E0,4.5345697E0,1.4613117E1,3.311015E0,1.1302102E1,8.274344E0,3.0277576E0],"tree_param":{"num_deleted":"0","num_feature":"3072","num_nodes":"9","size_leaf_vector":"1"}},{"base_weights":[-1.929323E-2,4.5238587E-1,-3.6668348E-1,3.709802E-2,-7.3599764E-3,1.152015E-2,-7.279209E-1,-4.703832E-2,-7.0070303E-3],"categories":[],"categories_nodes":[],"categories_segments":[],"categories_sizes":[],"default_left":[0,0,0,0,0,0,0,0,0],"id":50,"left_children":[1,3,5,-1,-1,-1,7,-1,-1],"loss_changes":[4.6616864E0,2.3619356E0,3.9385211E0,0E0,0E0,0E0,9.855776E-1,0E0,0E0],"parents":[2147483647,0,0,1,1,2,2,6,6],"right_children":[2,4,6,-1,-1,-1,8,-1,-1],"split_conditions":[1.321207E-1,4.9009523E-1,5.940504E-1,3.709802E-2,-7.3599764E-3,1.152015E-2,-3.392311E-1,-4.703832E-2,-7.0070303E-3],"split_indices":[187,513,692,0,0,0,754,0,0],"split_type":[0,0,0,0,0,0,0,0,0],"sum_hessian":[2.447735E1,1.0003061E1,1.4474289E1,6.537564E0,3.465498E0,5.624741E0,8.849547E0,5.490227E0,3.3593202E0],"tree_param":{"num_deleted":"0","num_feature":"3072","num_nodes":"9","size_leaf_vector":"1"}}]},"name":"gbtree"},"learner_model_param":{"base_score":"[5.0051165E-1]","boost_from_average":"1","num_class":"0","num_feature":"3072","num_target":"1"},"objective":{"name":"binary:logistic","reg_loss_param":{"scale_pos_weight":"0.955223858"}}},"version":[3,1,2]}