{"learner":{"attributes":{"best_iteration":"199","best_score":"0.178802752121396","scikit_learn":"{\"_estimator_type\": \"classifier\"}"},"feature_names":[],"feature_types":[],"gradient_booster":{"model":{"cats":{"enc":[],"feature_segments":[],"sorted_idx":[]},"gbtree_model_param":{"num_parallel_tree":"1","num_trees":"200"},"iteration_indptr":[0,1,2,3,4,5,6,7,8,9,10,11,12,13,14,15,16,17,18,19,20,21,22,23,24,25,26,27,28,29,30,31,32,33,34,35,36,37,38,39,40,41,42,43,44,45,46,47,48,49,50,51,52,53,54,55,56,57,58,59,60,61,62,63,64,65,66,67,68,69,70,71,72,73,74,75,76,77,78,79,80,81,82,83,84,85,86,87,88,89,90,91,92,93,94,95,96,97,98,99,100,101,102,103,104,105,106,107,108,109,110,111,112,113,114,115,116,117,118,119,120,121,122,123,124,125,126,127,128,129,130,131,132,133,134,135,136,137,138,139,140,141,142,143,144,145,146,147,148,149,150,151,152,153,154,155,156,157,158,159,160,161,162,163,164,165,166,167,168,169,170,171,172,173,174,175,176,177,178,179,180,181,182,183,184,185,186,187,188,189,190,191,192,193,194,195,196,197,198,199,200],"tree_info":[0,0,0,0,0,0,0,0,0,0,0,0,0,0,0,0,0,0,0,0,0,0,0,0,0,0,0,0,0,0,0,0,0,0,0,0,0,0,0,0,0,0,0,0,0,0,0,0,0,0,0,0,0,0,0,0,0,0,0,0,0,0,0,0,0,0,0,0,0,0,0,0,0,0,0,0,0,0,0,0,0,0,0,0,0,0,0,0,0,0,0,0,0,0,0,0,0,0,0,0,0,0,0,0,0,0,0,0,0,0,0,0,0,0,0,0,0,0,0,0,0,0,0,0,0,0,0,0,0,0,0,0,0,0,0,0,0,0,0,0,0,0,0,0,0,0,0,0,0,0,0,0,0,0,0,0,0,0,0,0,0,0,0,0,0,0,0,0,0,0,0,0,0,0,0,0,0,0,0,0,0,0,0,0,0,0,0,0,0,0,0,0,0,0,0,0,0,0,0,0],"trees":[{"base_weights":[3.1404693E-2,7.574959E-1,-3.0976063E-1,-3.854261E-1,1.2392626E0,2.780124E-1,-7.596081E-1,-1.1898499E0,5.785809E-1,1.5244433E0,-1.7002797E-1,-1.0494674E0,4.332596E-1,-8.681573E-1,6.512642E-2,9.781625E-3,-1.5236527E0,1.2620019E0,-5.5257883E-2,1.6659328E0,-7.0705204E-3,8.333612E-1,-1.105095E0,-7.400849E-2,2.1406512E-3,1.0273793E0,-5.271439E-2,-1.0298334E0,3.0076408E-1,-8.675825E-2,-1.4401932E-2,7.850276E-2,2.5327194E-3,1.8201448E0,-1.4859453E-2,6.7584105E-2,-4.987482E-3,-1.4401932E-2,-6.961675E-2,1.2239003E0,-4.152248E-2,-5.1948535E-1,6.1684656E-1,-1.3219976E0,-4.3002954E-1,-8.12004E-1,1.168567E0,1.8737584E0,2.1535132E-2,-2.190834E-2,1.3904392E0,-8.358012E-1,4.350463E-2,-2.9290458E-2,7.0709154E-2,-1.4776964E0,-6.5776765E-2,9.262244E-2,-1.4502008E0,6.8504675E-3,-6.8448864E-2,2.5327194E-3,7.714141E-2,3.1091178E-2,9.582584E-2,7.590285E-2,-4.987482E-3,-5.538232E-2,3.3848476E-2,3.8510766E-2,-6.5039955E-2,5.4945974E-3,-7.874212E-2,-7.0701204E-2,6.3852124E-2,-2.1097008E-2,5.9291728E-2,-8.390614E-2,-1.8327286E-2],"categories":[],"categories_nodes":[],"categories_segments":[],"categories_sizes":[],"default_left":[0,0,0,0,0,0,0,0,0,0,0,0,0,0,0,0,0,0,0,0,0,0,0,0,0,0,0,0,0,0,0,0,0,0,0,0,0,0,0,0,0,0,0,0,0,0,0,0,0,0,0,0,0,0,0,0,0,0,0,0,0,0,0,0,0,0,0,0,0,0,0,0,0,0,0,0,0,0,0],"id":0,"left_children":[1,3,5,7,9,11,13,15,17,19,21,23,25,27,-1,-1,29,31,-1,33,-1,35,37,-1,-1,39,41,43,45,-1,-1,-1,-1,47,-1,-1,-1,-1,-1,49,-1,51,53,55,57,59,61,63,-1,-1,65,67,-1,69,-1,71,73,75,77,-1,-1,-1,-1,-1,-1,-1,-1,-1,-1,-1,-1,-1,-1,-1,-1,-1,-1,-1,-1],"loss_changes":[1.0230785E2,7.374128E1,7.474118E1,3.2934273E1,3.8198715E1,2.6226585E1,3.7976715E1,1.1297192E1,2.5548044E1,1.8997726E1,1.8253103E1,6.579562E0,3.2466675E1,2.9608429E1,0E0,0E0,3.6854057E0,5.28903E0,0E0,2.3050674E1,0E0,4.9954133E0,1.3651524E0,0E0,0E0,2.0496624E1,2.0405376E1,2.233519E1,2.1308437E1,0E0,0E0,0E0,0E0,3.1572266E0,0E0,0E0,0E0,0E0,0E0,1.418309E1,0E0,1.8353714E1,1.403673E1,1.7189041E1,2.5611996E1,5.742165E0,4.764971E0,7.8775024E-1,0E0,0E0,8.582863E0,1.4868202E1,0E0,1.9036446E1,0E0,1.277124E1,2.5444435E1,1.968326E1,2.5666428E0,0E0,0E0,0E0,0E0,0E0,0E0,0E0,0E0,0E0,0E0,0E0,0E0,0E0,0E0,0E0,0E0,0E0,0E0,0E0,0E0],"parents":[2147483647,0,0,1,1,2,2,3,3,4,4,5,5,6,6,7,7,8,8,9,9,10,10,11,11,12,12,13,13,16,16,17,17,19,19,21,21,22,22,25,25,26,26,27,27,28,28,33,33,39,39,41,41,42,42,43,43,44,44,45,45,46,46,47,47,50,50,51,51,53,53,55,55,56,56,57,57,58,58],"right_children":[2,4,6,8,10,12,14,16,18,20,22,24,26,28,-1,-1,30,32,-1,34,-1,36,38,-1,-1,40,42,44,46,-1,-1,-1,-1,48,-1,-1,-1,-1,-1,50,-1,52,54,56,58,60,62,64,-1,-1,66,68,-1,70,-1,72,74,76,78,-1,-1,-1,-1,-1,-1,-1,-1,-1,-1,-1,-1,-1,-1,-1,-1,-1,-1,-1,-1],"split_conditions":[4.2014487E-2,1.3271692E-1,1.4522948E0,9.5348215E-1,1.0946225E-1,1.3010256E-1,1.8636917E-1,3.7321058E-1,4.7810595E-2,2.6244453E-1,3.3192042E-2,8.0545604E-1,9.171275E-1,6.684459E-1,6.512642E-2,9.781625E-3,1.1806626E0,2.2844078E-1,-5.5257883E-2,2.0007873E-1,-7.0705204E-3,6.2815007E-4,5.2448504E-2,-7.400849E-2,2.1406512E-3,1.1532106E0,3.393788E-1,2.3275828E-1,1.3446242E-2,-8.675825E-2,-1.4401932E-2,7.850276E-2,2.5327194E-3,2.3263897E-1,-1.4859453E-2,6.7584105E-2,-4.987482E-3,-1.4401932E-2,-6.961675E-2,3.815715E-2,-4.152248E-2,1.5231166E0,1.3004246E-1,7.296515E-2,1.5631058E0,5.3533718E-2,8.687507E-1,6.5838564E-3,2.1535132E-2,-2.190834E-2,1.4987788E-1,1.0036643E-2,4.350463E-2,1.8200619E0,7.0709154E-2,2.1677306E-1,8.0027506E-2,5.7050947E-2,9.4813695E-3,6.8504675E-3,-6.8448864E-2,2.5327194E-3,7.714141E-2,3.1091178E-2,9.582584E-2,7.590285E-2,-4.987482E-3,-5.538232E-2,3.3848476E-2,3.8510766E-2,-6.5039955E-2,5.4945974E-3,-7.874212E-2,-7.0701204E-2,6.3852124E-2,-2.1097008E-2,5.9291728E-2,-8.390614E-2,-1.8327286E-2],"split_indices":[1645,1959,771,708,1770,227,1619,123,1636,1916,1983,564,840,268,0,0,714,1978,0,59,0,1310,4,0,0,586,28,1925,1390,0,0,0,0,1679,0,0,0,0,0,305,0,949,1914,1649,788,1709,547,403,0,0,1913,1396,0,907,0,1955,341,921,1483,0,0,0,0,0,0,0,0,0,0,0,0,0,0,0,0,0,0,0,0],"split_type":[0,0,0,0,0,0,0,0,0,0,0,0,0,0,0,0,0,0,0,0,0,0,0,0,0,0,0,0,0,0,0,0,0,0,0,0,0,0,0,0,0,0,0,0,0,0,0,0,0,0,0,0,0,0,0,0,0,0,0,0,0,0,0,0,0,0,0,0,0,0,0,0,0,0,0,0,0,0,0],"sum_hessian":[4.0892758E2,1.3003365E2,2.7889395E2,3.861574E1,9.14179E1,1.21145836E2,1.5774811E2,2.0851343E1,1.7764397E1,7.59553E1,1.5462601E1,1.1410807E1,1.0973503E2,1.5100578E2,6.742333E0,4.150897E0,1.6700447E1,1.3034217E1,4.730179E0,7.0064316E1,5.8909864E0,7.512153E0,7.950448E0,7.740089E0,3.6707177E0,4.8463905E1,6.1271122E1,1.3294183E2,1.8063948E1,1.3499998E1,3.2004485E0,9.853589E0,3.1806278E0,6.51436E1,4.9207172E0,4.321615E0,3.1905382E0,3.2004485E0,4.7499995E0,4.4493637E1,3.9702687E0,3.6454933E1,2.481619E1,8.766528E1,4.5276546E1,7.9207172E0,1.014323E1,6.198279E1,3.1608074E0,3.7004483E0,4.079319E1,3.0403137E1,6.0517945E0,1.4702691E1,1.01135E1,7.7613495E1,1.0051794E1,3.10761E1,1.4200447E1,3.4207177E0,4.4999995E0,3.1806278E0,6.962602E0,3.1508973E0,5.8831894E1,3.760265E1,3.1905382E0,2.6281971E1,4.121166E0,9.462602E0,5.240089E0,4.400897E0,7.321259E1,4.9999995E0,5.0517945E0,2.190314E1,9.172961E0,1.0749999E1,3.4504483E0],"tree_param":{"num_deleted":"0","num_feature":"1995","num_nodes":"79","size_leaf_vector":"1"}},{"base_weights":[-8.3950255E-3,5.914696E-1,-3.9315388E-1,-5.311436E-3,1.1475263E0,-5.048363E-1,1.421615E0,-1.4178029E0,3.1135267E-1,1.595883E0,4.4005796E-1,-1.2750491E0,-2.4219921E-1,2.0788377E-2,8.055924E-2,-7.992765E-2,-2.2323338E-2,-7.333023E-1,8.3712256E-1,1.7169062E0,-4.684919E-3,-4.6011993E-1,1.1051112E0,-4.2871106E-2,-1.5346097E0,-5.897892E-1,4.3593687E-1,-1.387575E0,7.6623744E-1,-1.8322119E-1,1.3335589E0,9.147412E-2,3.182689E-2,4.6218585E-2,-1.0473813E0,1.5072095E0,-3.289915E-2,-6.6974446E-2,5.0159115E-2,-0E0,-1.6674392E0,1.5039659E-1,-8.5326177E-1,-6.95431E-1,6.8578035E-1,-1.4079593E-2,-7.984213E-2,5.903992E-2,2.050755E-3,5.556169E-2,-7.619157E-1,-2.245608E-2,1.578019E0,-1.1581106E-3,-7.511811E-2,8.400314E-2,2.0919885E-2,-6.458829E-1,-9.189106E-2,-9.0877175E-1,6.8683976E-1,-1.2828721E0,-3.514753E-1,-6.388857E-2,2.423753E-2,9.978925E-1,-4.6598646E-1,2.1411901E-2,-7.003602E-2,8.4434696E-2,2.4060965E-2,-6.6107824E-2,2.182843E-2,-6.865474E-2,6.770254E-3,5.4780107E-2,-2.8443892E-2,-7.3170684E-2,2.277702E-2,1.9035278E-2,-4.1461054E-2,5.9923556E-2,-4.1592132E-2,-6.02221E-2,1.4858891E-2],"categories":[],"categories_nodes":[],"categories_segments":[],"categories_sizes":[],"default_left":[0,0,0,0,0,0,0,0,0,0,0,0,0,0,0,0,0,0,0,0,0,0,0,0,0,0,0,0,0,0,0,0,0,0,0,0,0,0,0,0,0,0,0,0,0,0,0,0,0,0,0,0,0,0,0,0,0,0,0,0,0,0,0,0,0,0,0,0,0,0,0,0,0,0,0,0,0,0,0,0,0,0,0,0,0],"id":1,"left_children":[1,3,5,7,9,11,13,15,17,19,21,23,25,-1,-1,-1,-1,27,29,31,-1,33,35,37,39,41,43,45,47,49,51,-1,-1,-1,53,55,-1,-1,-1,-1,57,59,61,63,65,-1,-1,-1,-1,-1,67,-1,69,-1,-1,-1,-1,71,-1,73,75,77,79,-1,-1,81,83,-1,-1,-1,-1,-1,-1,-1,-1,-1,-1,-1,-1,-1,-1,-1,-1,-1,-1],"loss_changes":[9.482317E1,5.338277E1,5.209923E1,3.6468822E1,2.4774353E1,4.7260456E1,1.3158379E0,9.915619E-1,3.7691628E1,1.0720612E1,2.2101776E1,1.8839394E1,4.2869522E1,0E0,0E0,0E0,0E0,2.4972538E1,2.3472343E1,3.125351E0,0E0,1.5174603E1,1.6846134E1,1.9717833E1,1.0073128E1,2.3671124E1,1.8456116E1,2.8303452E0,2.2752948E0,1.3995204E1,1.4899712E1,0E0,0E0,0E0,5.561082E0,1.7019157E0,0E0,0E0,0E0,0E0,5.2732544E0,1.9989857E1,1.8051392E1,9.648859E0,1.9604546E1,0E0,0E0,0E0,0E0,0E0,1.08922825E1,0E0,1.4924011E0,0E0,0E0,0E0,0E0,8.308636E0,0E0,6.26558E0,1.3168068E1,1.615802E1,1.5985176E1,0E0,0E0,1.724707E1,7.760635E0,0E0,0E0,0E0,0E0,0E0,0E0,0E0,0E0,0E0,0E0,0E0,0E0,0E0,0E0,0E0,0E0,0E0,0E0],"parents":[2147483647,0,0,1,1,2,2,3,3,4,4,5,5,6,6,7,7,8,8,9,9,10,10,11,11,12,12,17,17,18,18,19,19,21,21,22,22,23,23,24,24,25,25,26,26,27,27,28,28,29,29,30,30,34,34,35,35,40,40,41,41,42,42,43,43,44,44,50,50,52,52,57,57,59,59,60,60,61,61,62,62,65,65,66,66],"right_children":[2,4,6,8,10,12,14,16,18,20,22,24,26,-1,-1,-1,-1,28,30,32,-1,34,36,38,40,42,44,46,48,50,52,-1,-1,-1,54,56,-1,-1,-1,-1,58,60,62,64,66,-1,-1,-1,-1,-1,68,-1,70,-1,-1,-1,-1,72,-1,74,76,78,80,-1,-1,82,84,-1,-1,-1,-1,-1,-1,-1,-1,-1,-1,-1,-1,-1,-1,-1,-1,-1,-1],"split_conditions":[4.6886206E-2,3.1377208E-1,1.8009761E-1,3.9100626E-1,6.7510344E-2,1.1206717E0,4.195874E-3,8.424252E-2,1.0067322E0,1.7015289E-1,2.946968E-3,1.9640945E-1,7.7972366E-3,2.0788377E-2,8.055924E-2,-7.992765E-2,-2.2323338E-2,2.0049777E0,3.0379247E-2,5.9441803E-4,-4.684919E-3,1.2195282E0,1.2678558E-3,1.4962685E0,1.01983905E-1,7.4922276E-1,1.8780615E-2,1.5326138E-1,1.1467707E0,6.525818E-1,5.250188E-1,9.147412E-2,3.182689E-2,4.6218585E-2,1.3612461E-1,2.4533315E0,-3.289915E-2,-6.6974446E-2,5.0159115E-2,-0E0,1.02284655E-1,3.650088E-1,2.149966E-2,2.2049867E-2,2.428413E0,-1.4079593E-2,-7.984213E-2,5.903992E-2,2.050755E-3,5.556169E-2,4.3281916E-1,-2.245608E-2,1.5911789E-1,-1.1581106E-3,-7.511811E-2,8.400314E-2,2.0919885E-2,4.4377167E-2,-9.189106E-2,1.0275096E0,1.1555228E0,8.7393273E-4,2.1177497E-2,-6.388857E-2,2.423753E-2,1.9039569E0,7.5166345E-2,2.1411901E-2,-7.003602E-2,8.4434696E-2,2.4060965E-2,-6.6107824E-2,2.182843E-2,-6.865474E-2,6.770254E-3,5.4780107E-2,-2.8443892E-2,-7.3170684E-2,2.277702E-2,1.9035278E-2,-4.1461054E-2,5.9923556E-2,-4.1592132E-2,-6.02221E-2,1.4858891E-2],"split_indices":[1645,1842,1619,839,1922,1500,1525,385,755,1897,1581,1622,111,0,0,0,0,963,384,1519,0,1001,1516,629,1956,586,132,1982,443,198,232,0,0,0,1612,1022,0,0,0,0,1869,677,1399,1399,984,0,0,0,0,0,981,0,1894,0,0,0,0,0,0,762,769,1198,1392,0,0,687,1188,0,0,0,0,0,0,0,0,0,0,0,0,0,0,0,0,0,0],"split_type":[0,0,0,0,0,0,0,0,0,0,0,0,0,0,0,0,0,0,0,0,0,0,0,0,0,0,0,0,0,0,0,0,0,0,0,0,0,0,0,0,0,0,0,0,0,0,0,0,0,0,0,0,0,0,0,0,0,0,0,0,0,0,0,0,0,0,0,0,0,0,0,0,0,0,0,0,0,0,0,0,0,0,0,0,0],"sum_hessian":[4.069108E2,1.5848607E2,2.4842473E2,7.731247E1,8.11736E1,2.3543462E2,1.2990112E1,1.2942621E1,6.436984E1,4.8061707E1,3.3111897E1,5.780999E1,1.7762462E2,3.1563923E0,9.833719E0,9.736425E0,3.206195E0,2.1222704E1,4.314714E1,4.487425E1,3.187459E0,1.4266929E1,1.8844967E1,1.0531375E1,4.7278614E1,1.1770234E2,5.9922283E1,1.4926191E1,6.2965126E0,1.4468966E1,2.8678177E1,3.9299805E1,5.5744433E0,3.8565652E0,1.0410364E1,1.5627812E1,3.2171552E0,4.4946594E0,6.036715E0,3.9154692E0,4.3363144E1,3.1023989E1,8.667835E1,1.0121562E1,4.980072E1,3.197325E0,1.1728867E1,3.1192064E0,3.1773064E0,3.8480814E0,1.0620884E1,3.2071512E0,2.5471025E1,3.9161727E0,6.4941907E0,1.2470223E1,3.157589E0,7.652094E0,3.5711052E1,9.900875E0,2.1123114E1,4.4913033E1,4.1765316E1,6.7233777E0,3.3981843E0,3.94613E1,1.0339422E1,3.8851638E0,6.73572E0,2.2073196E1,3.3978279E0,4.493943E0,3.1581507E0,6.4835463E0,3.4173284E0,1.6188177E1,4.9349375E0,4.1026184E1,3.8868458E0,1.656901E1,2.5196308E1,3.6233936E1,3.227364E0,4.733636E0,5.605786E0],"tree_param":{"num_deleted":"0","num_feature":"1995","num_nodes":"85","size_leaf_vector":"1"}},{"base_weights":[9.854649E-3,1.6558413E-1,-1.1307783E0,7.018385E-1,-1.4068034E-1,3.443893E-1,-1.4305891E0,1.0487419E0,-9.325551E-2,1.6618559E-1,-7.3367035E-1,6.4856045E-2,-4.3125477E-2,-1.6085063E0,1.5739318E-2,1.4379634E0,2.8033996E-1,1.2456173E0,-6.97267E-1,-3.55289E-1,5.627356E-1,8.082259E-1,-9.6252114E-1,-8.5798286E-2,-1.2954644E-2,1.5295221E0,-4.921225E-3,-6.4588934E-1,1.0550647E0,7.558874E-2,1.0412693E-2,-1.0436238E0,3.8021915E-2,-8.5433847E-1,3.8480306E-1,1.0135479E0,-5.2785146E-1,-1.33342445E-2,6.582425E-2,-1.1180769E0,3.53848E-2,1.4970707E-2,1.6252934E0,2.5272032E-2,-1.1270754E0,7.509091E-2,-1.004849E-2,2.9372348E-2,-1.336436E0,-1.1078883E0,2.948588E-2,-5.6166077E-1,9.990365E-1,3.4647295E-1,1.5288683E0,-1.0676932E0,7.643617E-1,-1.3185784E0,4.9441256E-2,8.499495E-2,2.4649998E-2,-7.395736E-2,-3.1492242E-3,-5.9088874E-3,-7.6300584E-2,-6.5067016E-2,1.7767707E-2,2.3950506E-2,-5.371499E-2,-1.3061771E-2,6.843083E-2,4.7494695E-2,-4.372908E-2,1.4426383E-2,8.319602E-2,2.0150043E-2,-7.00239E-2,6.368291E-2,-4.2389254E-3,1.2399287E-2,-7.127442E-2,4.501858E-2,-5.3571302E-2],"categories":[],"categories_nodes":[],"categories_segments":[],"categories_sizes":[],"default_left":[0,0,0,0,0,0,0,0,0,0,0,0,0,0,0,0,0,0,0,0,0,0,0,0,0,0,0,0,0,0,0,0,0,0,0,0,0,0,0,0,0,0,0,0,0,0,0,0,0,0,0,0,0,0,0,0,0,0,0,0,0,0,0,0,0,0,0,0,0,0,0,0,0,0,0,0,0,0,0,0,0,0,0],"id":2,"left_children":[1,3,5,7,9,11,13,15,17,19,21,-1,-1,23,-1,25,27,29,31,33,35,37,39,-1,-1,41,-1,43,45,-1,-1,47,-1,49,51,53,55,-1,-1,57,-1,-1,59,-1,61,-1,-1,-1,63,65,-1,67,69,71,73,75,77,79,81,-1,-1,-1,-1,-1,-1,-1,-1,-1,-1,-1,-1,-1,-1,-1,-1,-1,-1,-1,-1,-1,-1,-1,-1],"loss_changes":[7.202708E1,5.8922375E1,2.2633E1,3.623256E1,4.1956116E1,1.3528473E1,1.3848793E1,2.6230507E1,3.510747E1,3.1929615E1,2.9286926E1,0E0,0E0,4.353012E0,0E0,8.85849E0,2.5197563E1,2.9300861E0,1.6669476E1,2.5426554E1,4.41065E1,6.916117E0,1.9644882E1,0E0,0E0,5.506302E0,0E0,1.0223101E1,1.1324797E1,0E0,0E0,1.3580502E1,0E0,1.6253002E1,1.7592396E1,2.027687E1,2.0373726E1,0E0,0E0,1.530529E1,0E0,0E0,2.498703E0,0E0,4.216913E0,0E0,0E0,0E0,4.521137E0,1.1028046E1,0E0,7.6701465E0,9.172001E0,2.374334E1,4.6495132E0,1.0923031E1,4.233359E0,1.0037422E1,1.2667254E1,0E0,0E0,0E0,0E0,0E0,0E0,0E0,0E0,0E0,0E0,0E0,0E0,0E0,0E0,0E0,0E0,0E0,0E0,0E0,0E0,0E0,0E0,0E0,0E0],"parents":[2147483647,0,0,1,1,2,2,3,3,4,4,5,5,6,6,7,7,8,8,9,9,10,10,13,13,15,15,16,16,17,17,18,18,19,19,20,20,21,21,22,22,25,25,27,27,28,28,31,31,33,33,34,34,35,35,36,36,39,39,42,42,44,44,48,48,49,49,51,51,52,52,53,53,54,54,55,55,56,56,57,57,58,58],"right_children":[2,4,6,8,10,12,14,16,18,20,22,-1,-1,24,-1,26,28,30,32,34,36,38,40,-1,-1,42,-1,44,46,-1,-1,48,-1,50,52,54,56,-1,-1,58,-1,-1,60,-1,62,-1,-1,-1,64,66,-1,68,70,72,74,76,78,80,82,-1,-1,-1,-1,-1,-1,-1,-1,-1,-1,-1,-1,-1,-1,-1,-1,-1,-1,-1,-1,-1,-1,-1,-1],"split_conditions":[1.0576395E-1,6.6007555E-2,1.1287424E-1,4.68247E-2,8.3517253E-1,5.098702E-1,4.0309024E-1,9.3316346E-1,7.425596E-2,9.84003E-2,2.2737701E-1,6.4856045E-2,-4.3125477E-2,2.4512419E-1,1.5739318E-2,2.4149305E-1,2.4913403E-1,1.2066952E-1,5.7765645E-1,5.89775E-3,3.3946685E-2,5.7497986E-2,2.2316393E-1,-8.5798286E-2,-1.2954644E-2,2.132374E-1,-4.921225E-3,7.499063E-1,1.2873752E-1,7.558874E-2,1.0412693E-2,9.089586E-2,3.8021915E-2,3.0417476E-2,2.6020736E-1,1.8663041E-3,3.658152E-1,-1.33342445E-2,6.582425E-2,2.4652709E-1,3.53848E-2,1.4970707E-2,3.9099264E-1,2.5272032E-2,1.0529515E-1,7.509091E-2,-1.004849E-2,2.9372348E-2,5.676866E-2,1.3761131E-1,2.948588E-2,1.5847133E-2,6.286028E-1,1.6745451E-1,1.4404322E0,3.2276925E-1,4.5324022E-1,2.6890907E-2,1.7371593E0,8.499495E-2,2.4649998E-2,-7.395736E-2,-3.1492242E-3,-5.9088874E-3,-7.6300584E-2,-6.5067016E-2,1.7767707E-2,2.3950506E-2,-5.371499E-2,-1.3061771E-2,6.843083E-2,4.7494695E-2,-4.372908E-2,1.4426383E-2,8.319602E-2,2.0150043E-2,-7.00239E-2,6.368291E-2,-4.2389254E-3,1.2399287E-2,-7.127442E-2,4.501858E-2,-5.3571302E-2],"split_indices":[1872,1765,1731,1172,784,1066,61,472,1656,1731,1639,0,0,1003,0,1665,61,1796,255,1525,1695,1802,446,0,0,168,0,753,1867,0,0,379,0,491,1015,1581,300,0,0,1620,0,0,186,0,1654,0,0,0,62,1689,0,441,418,52,916,917,994,319,966,0,0,0,0,0,0,0,0,0,0,0,0,0,0,0,0,0,0,0,0,0,0,0,0],"split_type":[0,0,0,0,0,0,0,0,0,0,0,0,0,0,0,0,0,0,0,0,0,0,0,0,0,0,0,0,0,0,0,0,0,0,0,0,0,0,0,0,0,0,0,0,0,0,0,0,0,0,0,0,0,0,0,0,0,0,0,0,0,0,0,0,0,0,0,0,0,0,0,0,0,0,0,0,0,0,0,0,0,0,0],"sum_hessian":[4.0192413E2,3.552232E2,4.6700935E1,1.2830704E2,2.2691615E2,7.781665E0,3.891927E1,8.897468E1,3.9332355E1,1.5037143E2,7.654473E1,4.311496E0,3.470169E0,3.5513306E1,3.405965E0,5.781604E1,3.1158638E1,1.151586E1,2.7816496E1,6.493542E1,8.543601E1,9.181757E0,6.736297E1,3.2321987E1,3.1913178E0,5.4634224E1,3.181818E0,1.4284359E1,1.6874279E1,8.359903E0,3.1559567E0,2.299057E1,4.825926E0,3.867976E1,2.6255661E1,6.061342E1,2.4822594E1,3.189714E0,5.9920425E0,6.228325E1,5.0797243E0,4.617891E0,5.001633E1,4.1193624E0,1.0164997E1,1.2217087E1,4.6571927E0,3.1408625E0,1.9849709E1,3.335761E1,5.322151E0,1.0336565E1,1.5919095E1,2.7959272E1,3.2654144E1,1.780794E1,7.0146537E0,5.300707E1,9.276181E0,4.590107E1,4.115263E0,6.981096E0,3.1839008E0,3.1811488E0,1.666856E1,2.971826E1,3.6393495E0,3.3902988E0,6.946266E0,3.6813586E0,1.2237737E1,1.9064175E1,8.895099E0,3.8950121E0,2.8759132E1,3.1526728E0,1.4655266E1,3.8333693E0,3.1812847E0,3.1580029E0,4.9849064E1,5.547405E0,3.7287765E0],"tree_param":{"num_deleted":"0","num_feature":"1995","num_nodes":"83","size_leaf_vector":"1"}},{"base_weights":[-1.1490479E-2,6.81855E-1,-3.1318063E-1,1.0086961E0,-6.306305E-1,-4.164218E-1,1.1114582E0,1.5776713E0,4.81957E-1,4.227156E-2,-1.0237652E0,-2.0233074E-1,-1.0787157E0,7.601484E-2,-2.1818344E-2,1.6583949E0,1.817271E-2,7.1236056E-1,-5.3499848E-2,4.235094E-3,-1.4014986E0,-1.0326477E0,6.367206E-2,4.945698E-2,-1.2583436E0,2.726831E-2,8.570411E-2,-5.695232E-2,1.2456245E0,-7.826304E-2,-2.1331197E-2,1.2487919E-1,-1.3991144E0,-1.1771157E-1,1.2147434E0,3.0041099E-2,-1.3808814E0,9.223997E-1,-6.56165E-1,-1.3066376E-2,1.4515395E0,-4.9138527E-2,6.513784E-1,2.1342263E-2,-1.5882778E0,5.368743E-1,-4.5641702E-1,7.529519E-2,-1.0330204E-2,7.754429E-3,-1.4837922E0,6.1130907E-2,9.59046E-3,-5.8925252E-2,2.3703806E-2,1.7852975E-2,7.821698E-2,6.545715E-2,-1.2065607E-2,-8.515492E-2,-1.2077218E-2,6.0388606E-2,-1.04441615E-2,-3.252751E-2,4.525059E-2,-7.837982E-2,-6.058442E-3],"categories":[],"categories_nodes":[],"categories_segments":[],"categories_sizes":[],"default_left":[0,0,0,0,0,0,0,0,0,0,0,0,0,0,0,0,0,0,0,0,0,0,0,0,0,0,0,0,0,0,0,0,0,0,0,0,0,0,0,0,0,0,0,0,0,0,0,0,0,0,0,0,0,0,0,0,0,0,0,0,0,0,0,0,0,0,0],"id":3,"left_children":[1,3,5,7,9,11,13,15,17,-1,19,21,23,-1,-1,25,-1,27,-1,-1,29,31,33,-1,35,-1,-1,37,39,-1,-1,41,43,45,47,-1,49,51,53,-1,55,-1,57,-1,59,61,63,-1,-1,-1,65,-1,-1,-1,-1,-1,-1,-1,-1,-1,-1,-1,-1,-1,-1,-1,-1],"loss_changes":[8.679244E1,5.5260864E1,4.3405884E1,2.8699776E1,1.6978302E1,3.789853E1,1.4108921E1,3.2807693E0,2.140171E1,0E0,9.447771E0,4.6074715E1,2.6916992E1,0E0,0E0,6.448517E-1,0E0,2.066925E1,0E0,0E0,1.0759964E0,2.1929142E1,3.359319E1,0E0,1.5717583E1,0E0,0E0,1.4212739E1,1.0045647E1,0E0,0E0,9.371529E0,1.4818657E1,3.1323595E1,9.813778E0,0E0,9.797104E0,1.4064765E0,1.0047005E1,0E0,1.9446831E0,0E0,7.0254045E0,0E0,4.470169E0,2.4746582E1,2.5693197E1,0E0,0E0,0E0,5.7115555E0,0E0,0E0,0E0,0E0,0E0,0E0,0E0,0E0,0E0,0E0,0E0,0E0,0E0,0E0,0E0,0E0],"parents":[2147483647,0,0,1,1,2,2,3,3,4,4,5,5,6,6,7,7,8,8,10,10,11,11,12,12,15,15,17,17,20,20,21,21,22,22,24,24,27,27,28,28,31,31,32,32,33,33,34,34,36,36,37,37,38,38,40,40,42,42,44,44,45,45,46,46,50,50],"right_children":[2,4,6,8,10,12,14,16,18,-1,20,22,24,-1,-1,26,-1,28,-1,-1,30,32,34,-1,36,-1,-1,38,40,-1,-1,42,44,46,48,-1,50,52,54,-1,56,-1,58,-1,60,62,64,-1,-1,-1,66,-1,-1,-1,-1,-1,-1,-1,-1,-1,-1,-1,-1,-1,-1,-1,-1],"split_conditions":[4.2014487E-2,5.9446725E-3,2.3302957E-3,3.5624886E-1,3.6696368E-1,9.632707E-2,5.203871E-1,1.4152017E-1,6.63052E-2,4.227156E-2,1.4520454E-1,9.763044E-2,6.0492646E-2,7.601484E-2,-2.1818344E-2,2.5866008E-1,1.817271E-2,3.6429964E-2,-5.3499848E-2,4.235094E-3,7.915605E-1,1.2636504E-1,1.6034095E-1,4.945698E-2,6.776139E-2,2.726831E-2,8.570411E-2,1.335008E-1,7.1377695E-1,-7.826304E-2,-2.1331197E-2,3.268927E-1,2.3047048E-1,5.3536892E-2,1.17975935E-1,3.0041099E-2,1.7734945E-1,9.476335E-4,4.5070514E-1,-1.3066376E-2,2.89936E-1,-4.9138527E-2,1.8018174E0,2.1342263E-2,4.51567E-1,5.3757995E-1,6.741478E-2,7.529519E-2,-1.0330204E-2,7.754429E-3,2.4131218E-2,6.1130907E-2,9.59046E-3,-5.8925252E-2,2.3703806E-2,1.7852975E-2,7.821698E-2,6.545715E-2,-1.2065607E-2,-8.515492E-2,-1.2077218E-2,6.0388606E-2,-1.04441615E-2,-3.252751E-2,4.525059E-2,-7.837982E-2,-6.058442E-3],"split_indices":[1645,1102,1360,174,220,1872,440,252,1883,0,1936,1731,1694,0,0,164,0,1660,0,0,636,1936,1619,0,1981,0,0,1885,424,0,0,67,1639,1651,1657,0,1622,1412,526,0,184,0,778,0,1024,259,1881,0,0,0,1941,0,0,0,0,0,0,0,0,0,0,0,0,0,0,0,0],"split_type":[0,0,0,0,0,0,0,0,0,0,0,0,0,0,0,0,0,0,0,0,0,0,0,0,0,0,0,0,0,0,0,0,0,0,0,0,0,0,0,0,0,0,0,0,0,0,0,0,0,0,0,0,0,0,0,0,0,0,0,0,0,0,0,0,0,0,0],"sum_hessian":[4.1106085E2,1.237671E2,2.8729373E2,9.952264E1,2.4244461E1,2.6926608E2,1.8027664E1,4.5833664E1,5.3688976E1,4.5617175E0,1.9682743E1,2.0557465E2,6.369143E1,1.4340087E1,3.6875772E0,4.2213253E1,3.6204097E0,4.7746876E1,5.9420996E0,5.3296256E0,1.4353117E1,4.8571724E1,1.5700293E2,4.3256087E0,5.936582E1,3.125519E0,3.9087734E1,2.0201735E1,2.7545141E1,1.1163979E1,3.1891387E0,1.1931211E1,3.664051E1,1.3710654E2,1.9896387E1,3.1377008E0,5.6228123E1,7.195626E0,1.3006108E1,3.1882977E0,2.4356844E1,3.2244494E0,8.706761E0,3.153993E0,3.348652E1,4.625269E1,9.085385E1,1.647325E1,3.4231384E0,3.4060605E0,5.282206E1,4.0482783E0,3.147348E0,8.8973E0,4.1088085E0,3.1369455E0,2.1219898E1,4.540305E0,4.1664567E0,3.0299725E1,3.186794E0,2.3766727E1,2.248596E1,8.0493614E1,1.0360236E1,4.9409065E1,3.4129941E0],"tree_param":{"num_deleted":"0","num_feature":"1995","num_nodes":"67","size_leaf_vector":"1"}},{"base_weights":[1.7018298E-2,-1.2003239E-1,1.3404773E0,1.23912945E-1,-7.9119563E-1,-2.1232415E-3,1.5456388E0,-1.7808573E-1,4.9334645E-1,-1.1916482E0,1.7937677E-2,1.6994368E-2,8.2193375E-2,1.10247225E-1,-1.0039608E0,-8.083178E-1,6.6786414E-1,-1.4466149E0,2.4209218E-2,-1.0897559E0,6.6822815E-1,1.1102542E0,-2.1749525E-1,-1.328616E0,2.9312992E-1,1.5409189E-2,-6.911414E-2,1.0403907E0,1.2544677E-1,-1.5848076E0,-5.0050557E-1,9.2443323E-1,-5.6960117E-2,-3.9096265E-3,-6.863749E-2,7.089897E-2,-2.2638267E-1,1.3715464E0,-2.0744342E-2,-5.8201784E-1,9.0627193E-1,3.2252937E-3,-1.5154701E0,-2.6795631E-2,5.8042634E-2,1.2239834E0,-2.7048552E-1,-4.8952806E-1,7.001494E-1,-1.6478859E0,-2.6454372E-2,-6.175192E-2,3.3222586E-2,1.0634615E-2,6.147745E-2,5.1580705E-2,-4.9982466E-2,7.726513E-2,1.5698403E-2,-5.2508976E-2,-3.5950155E-3,6.1252523E-2,-9.6567515E-3,-1.917292E-2,-8.237802E-2,6.966811E-2,-0E0,3.9617743E-2,-5.5712957E-2,2.784966E-2,-5.2940894E-2,5.119733E-2,-2.8030043E-2,-8.5083984E-2,-2.87299E-2],"categories":[],"categories_nodes":[],"categories_segments":[],"categories_sizes":[],"default_left":[0,0,0,0,0,0,0,0,0,0,0,0,0,0,0,0,0,0,0,0,0,0,0,0,0,0,0,0,0,0,0,0,0,0,0,0,0,0,0,0,0,0,0,0,0,0,0,0,0,0,0,0,0,0,0,0,0,0,0,0,0,0,0,0,0,0,0,0,0,0,0,0,0,0,0],"id":4,"left_children":[1,3,5,7,9,-1,11,13,15,17,19,-1,-1,21,23,25,27,29,31,33,35,37,39,41,43,-1,-1,45,47,49,51,53,-1,-1,-1,-1,55,57,-1,59,61,-1,63,-1,-1,65,67,69,71,73,-1,-1,-1,-1,-1,-1,-1,-1,-1,-1,-1,-1,-1,-1,-1,-1,-1,-1,-1,-1,-1,-1,-1,-1,-1],"loss_changes":[7.425699E1,6.0928757E1,1.1182404E1,3.0707407E1,3.228809E1,0E0,2.6605453E0,3.6443405E1,2.9151997E1,2.0808945E1,2.6419765E1,0E0,0E0,3.7995125E1,1.7538887E1,1.0862867E1,2.1886974E1,5.399147E0,1.6136229E1,3.5175343E0,1.630206E1,1.2626251E1,3.690484E1,8.68586E0,8.137286E0,0E0,0E0,1.6386185E1,1.7404709E1,1.168129E0,1.0279343E1,1.2256045E0,0E0,0E0,0E0,0E0,1.3954521E1,3.424324E0,0E0,1.5839222E1,8.346027E0,0E0,2.781784E0,0E0,0E0,1.1788116E1,1.0361246E1,1.5478502E1,1.1534728E1,3.1739807E-1,0E0,0E0,0E0,0E0,0E0,0E0,0E0,0E0,0E0,0E0,0E0,0E0,0E0,0E0,0E0,0E0,0E0,0E0,0E0,0E0,0E0,0E0,0E0,0E0,0E0],"parents":[2147483647,0,0,1,1,2,2,3,3,4,4,6,6,7,7,8,8,9,9,10,10,13,13,14,14,15,15,16,16,17,17,18,18,19,19,20,20,21,21,22,22,23,23,24,24,27,27,28,28,29,29,30,30,31,31,36,36,37,37,39,39,40,40,42,42,45,45,46,46,47,47,48,48,49,49],"right_children":[2,4,6,8,10,-1,12,14,16,18,20,-1,-1,22,24,26,28,30,32,34,36,38,40,42,44,-1,-1,46,48,50,52,54,-1,-1,-1,-1,56,58,-1,60,62,-1,64,-1,-1,66,68,70,72,74,-1,-1,-1,-1,-1,-1,-1,-1,-1,-1,-1,-1,-1,-1,-1,-1,-1,-1,-1,-1,-1,-1,-1,-1,-1],"split_conditions":[4.865825E-1,1.3165531E0,9.911171E-1,3.253384E-1,1.842682E-1,-2.1232415E-3,8.8702135E-2,1.8399813E0,6.1743057E-1,7.201936E-1,5.7636815E-1,1.6994368E-2,8.2193375E-2,2.9315564E-1,1.1872016E-1,1.14124134E-1,1.8957818E0,1.0542999E-1,2.281006E-1,6.071139E-2,9.655233E-1,1.1743264E0,1.7983671E0,4.810351E-2,2.3101976E0,1.5409189E-2,-6.911414E-2,1.06220245E-1,1.2273754E0,1.0348872E-3,2.3208682E-1,1.0755758E-1,-5.6960117E-2,-3.9096265E-3,-6.863749E-2,7.089897E-2,2.9325402E-1,3.0188254E-1,-2.0744342E-2,4.8178315E-2,2.6405425E0,3.2252937E-3,8.174051E-1,-2.6795631E-2,5.8042634E-2,7.439517E-1,9.401709E-1,2.9887402E-1,1.6558933E-3,1.1492269E0,-2.6454372E-2,-6.175192E-2,3.3222586E-2,1.0634615E-2,6.147745E-2,5.1580705E-2,-4.9982466E-2,7.726513E-2,1.5698403E-2,-5.2508976E-2,-3.5950155E-3,6.1252523E-2,-9.6567515E-3,-1.917292E-2,-8.237802E-2,6.966811E-2,-0E0,3.9617743E-2,-5.5712957E-2,2.784966E-2,-5.2940894E-2,5.119733E-2,-2.8030043E-2,-8.5083984E-2,-2.87299E-2],"split_indices":[61,618,950,214,1807,0,1992,688,819,289,555,0,0,1955,1994,1879,582,1855,286,1922,870,740,943,1905,972,0,0,1801,849,1459,1635,1873,0,0,0,0,323,65,0,1773,936,0,615,0,0,31,426,526,1196,615,0,0,0,0,0,0,0,0,0,0,0,0,0,0,0,0,0,0,0,0,0,0,0,0,0],"split_type":[0,0,0,0,0,0,0,0,0,0,0,0,0,0,0,0,0,0,0,0,0,0,0,0,0,0,0,0,0,0,0,0,0,0,0,0,0,0,0,0,0,0,0,0,0,0,0,0,0,0,0,0,0,0,0,0,0,0,0,0,0,0,0,0,0,0,0,0,0,0,0,0,0,0,0],"sum_hessian":[4.049509E2,3.6853076E2,3.6420128E1,2.7137634E2,9.715444E1,4.846915E0,3.1573212E1,1.4973694E2,1.2163938E2,6.4440125E1,3.271432E1,3.12706E0,2.8446152E1,1.1218306E2,3.7553883E1,1.3454051E1,1.0818533E2,5.3023666E1,1.1416456E1,1.1544405E1,2.1169914E1,2.6587948E1,8.5595116E1,3.0058805E1,7.495079E0,4.8233533E0,8.630698E0,6.2939003E1,4.524633E1,4.499557E1,8.028098E0,6.716299E0,4.700157E0,3.158894E0,8.385511E0,1.0941688E1,1.0228227E1,2.2927002E1,3.660946E0,6.542575E1,2.0169361E1,3.6464534E0,2.6412352E1,4.165143E0,3.3299358E0,5.5390263E1,7.548741E0,2.1916471E1,2.3329857E1,4.131075E1,3.6848207E0,4.9024887E0,3.1256092E0,3.132068E0,3.5842314E0,3.5901062E0,6.6381207E0,1.8818325E1,4.1086764E0,3.290952E1,3.251623E1,1.5529034E1,4.640328E0,3.6546993E0,2.2757652E1,4.8357254E1,7.0330086E0,3.34219E0,4.206551E0,7.675042E0,1.424143E1,1.8924475E1,4.4053807E0,3.8135254E1,3.1754951E0],"tree_param":{"num_deleted":"0","num_feature":"1995","num_nodes":"75","size_leaf_vector":"1"}},{"base_weights":[1.1686944E-2,8.4531957E-1,-2.0956312E-1,-6.788143E-1,1.093049E0,-5.5113208E-2,-1.0745953E0,-5.9850384E-2,2.9578859E-2,1.4003195E0,8.00153E-3,-1.7926838E-1,9.5893747E-1,4.313365E-2,-1.3256279E0,1.4720987E0,3.258918E-3,5.7232697E-2,-7.9924333E-1,1.5071617E-1,-5.502322E-1,-1.5331549E-2,1.198428E0,2.2234619E-3,-1.4427785E0,1.0849646E-2,1.5373329E0,-6.591627E-2,1.9600254E-2,-3.958885E-1,5.478847E-1,4.7918104E-2,-9.835145E-1,1.4190722E0,-1.9022421E-3,-1.5361536E0,-8.869347E-3,1.6095185E0,1.4562966E-2,-7.107821E-1,9.298942E-1,8.611599E-1,-4.8854488E-1,6.426013E-1,-6.063808E-1,1.3239749E-1,-1.1939543E0,7.993718E-2,8.681299E-3,-2.157495E-2,-8.088183E-2,2.7732972E-2,8.275797E-2,3.828406E-2,-4.6199523E-2,6.7699246E-2,-2.7895456E-3,5.39228E-2,-1.7014777E-2,2.7709225E-2,-5.710839E-2,6.391958E-2,-1.1522747E-2,-5.130635E-2,2.5131071E-2,4.5080964E-2,-5.5584367E-2,1.2916627E-2,-6.4416714E-2],"categories":[],"categories_nodes":[],"categories_segments":[],"categories_sizes":[],"default_left":[0,0,0,0,0,0,0,0,0,0,0,0,0,0,0,0,0,0,0,0,0,0,0,0,0,0,0,0,0,0,0,0,0,0,0,0,0,0,0,0,0,0,0,0,0,0,0,0,0,0,0,0,0,0,0,0,0,0,0,0,0,0,0,0,0,0,0,0,0],"id":5,"left_children":[1,3,5,7,9,11,13,-1,-1,15,17,19,21,-1,23,25,-1,-1,27,29,31,-1,33,-1,35,-1,37,-1,-1,39,41,43,45,47,-1,49,-1,51,-1,53,55,57,59,61,63,65,67,-1,-1,-1,-1,-1,-1,-1,-1,-1,-1,-1,-1,-1,-1,-1,-1,-1,-1,-1,-1,-1,-1],"loss_changes":[7.586374E1,3.4104664E1,4.3158512E1,1.0193621E1,2.4856903E1,3.523695E1,2.6160652E1,0E0,0E0,5.2511597E0,1.8972044E1,3.071629E1,1.0076363E1,0E0,7.3639984E0,3.6815643E0,0E0,0E0,8.564089E0,2.9395203E1,3.0745987E1,0E0,7.378334E0,0E0,4.1107407E0,0E0,3.5606537E0,0E0,0E0,2.5165861E1,2.6258986E1,2.0759766E1,1.6524231E1,4.258774E0,0E0,1.7934875E0,0E0,2.8998566E-1,0E0,1.6348589E1,5.2040873E0,1.6686958E1,1.4509609E1,1.6206783E1,1.2904823E1,1.4045337E1,8.713539E0,0E0,0E0,0E0,0E0,0E0,0E0,0E0,0E0,0E0,0E0,0E0,0E0,0E0,0E0,0E0,0E0,0E0,0E0,0E0,0E0,0E0,0E0],"parents":[2147483647,0,0,1,1,2,2,3,3,4,4,5,5,6,6,9,9,10,10,11,11,12,12,14,14,15,15,18,18,19,19,20,20,22,22,24,24,26,26,29,29,30,30,31,31,32,32,33,33,35,35,37,37,39,39,40,40,41,41,42,42,43,43,44,44,45,45,46,46],"right_children":[2,4,6,8,10,12,14,-1,-1,16,18,20,22,-1,24,26,-1,-1,28,30,32,-1,34,-1,36,-1,38,-1,-1,40,42,44,46,48,-1,50,-1,52,-1,54,56,58,60,62,64,66,68,-1,-1,-1,-1,-1,-1,-1,-1,-1,-1,-1,-1,-1,-1,-1,-1,-1,-1,-1,-1,-1,-1],"split_conditions":[9.600511E-3,2.8807825E-1,1.064948E-1,4.469714E-2,1.0489731E-3,2.0058455E-1,6.816487E-2,-5.9850384E-2,2.9578859E-2,4.6158943E-1,9.066448E-2,6.9602853E-1,1.3927585E-1,4.313365E-2,2.0176883E-1,1.4005402E-1,3.258918E-3,5.7232697E-2,9.8260194E-2,2.0120704E-1,6.985611E-2,-1.5331549E-2,2.0753576E-1,2.2234619E-3,1.0597277E-1,1.0849646E-2,3.1749335E-1,-6.591627E-2,1.9600254E-2,1.3687421E-1,1.0886987E-1,9.52116E-2,1.1350099E-1,5.493208E-2,-1.9022421E-3,6.2197667E-2,-8.869347E-3,4.3719652E-1,1.4562966E-2,5.376921E-2,5.378526E-2,1.2350725E-1,8.1052876E-1,1.3848291E-1,1.5077887E-1,3.765874E-2,3.467729E-1,7.993718E-2,8.681299E-3,-2.157495E-2,-8.088183E-2,2.7732972E-2,8.275797E-2,3.828406E-2,-4.6199523E-2,6.7699246E-2,-2.7895456E-3,5.39228E-2,-1.7014777E-2,2.7709225E-2,-5.710839E-2,6.391958E-2,-1.1522747E-2,-5.130635E-2,2.5131071E-2,4.5080964E-2,-5.5584367E-2,1.2916627E-2,-6.4416714E-2],"split_indices":[1629,432,1872,1675,1431,1947,1981,0,0,1049,1798,176,1934,0,1624,896,0,0,244,1701,1765,0,1706,0,360,0,1807,0,0,1654,1815,1725,1869,1609,0,1678,0,436,0,88,1966,1715,576,1781,1761,1987,865,0,0,0,0,0,0,0,0,0,0,0,0,0,0,0,0,0,0,0,0,0,0],"split_type":[0,0,0,0,0,0,0,0,0,0,0,0,0,0,0,0,0,0,0,0,0,0,0,0,0,0,0,0,0,0,0,0,0,0,0,0,0,0,0,0,0,0,0,0,0,0,0,0,0,0,0,0,0,0,0,0,0,0,0,0,0,0,0,0,0,0,0,0,0],"sum_hessian":[4.070509E2,8.428606E1,3.2276483E2,1.1241261E1,7.30448E1,2.7576968E2,4.6995148E1,8.122382E0,3.1188784E0,5.639986E1,1.6644938E1,2.4724352E2,2.8526184E1,4.786376E0,4.220877E1,5.3256645E1,3.143215E0,6.616462E0,1.0028477E1,1.3133476E2,1.15908745E2,4.3835297E0,2.4142654E1,3.3552873E0,3.8853485E1,3.1345003E0,5.0122143E1,6.8947215E0,3.1337547E0,5.5166424E1,7.616834E1,4.9341022E1,6.6567726E1,2.0304846E1,3.8378072E0,3.5711315E1,3.14217E0,4.6750282E1,3.3718624E0,4.5389023E1,9.777403E0,5.8822983E1,1.734536E1,2.5946867E1,2.3394154E1,1.0603966E1,5.596376E1,1.7178932E1,3.125915E0,3.4024923E0,3.2308823E1,3.1206932E0,4.362959E1,5.0142117E0,4.037481E1,6.3845897E0,3.392813E0,5.0057526E1,8.765455E0,6.7416434E0,1.0603716E1,1.4542501E1,1.1404366E1,1.7144691E1,6.249463E0,6.942392E0,3.6615736E0,3.1383276E0,5.282543E1],"tree_param":{"num_deleted":"0","num_feature":"1995","num_nodes":"69","size_leaf_vector":"1"}},{"base_weights":[1.0992762E-2,-1.4592947E-1,1.175779E0,4.2135045E-1,-4.415537E-1,1.3318E0,-3.0435134E-2,6.5432394E-1,-3.5328633E-1,-2.0575263E-1,-1.3379854E0,3.946412E-3,1.5012468E0,9.4196147E-1,-1.4672579E-1,7.6843816E-1,-8.333798E-1,-6.197926E-1,1.579743E-1,2.275608E-3,-1.4366906E0,7.772887E-2,2.5549546E-2,1.0646298E0,-3.339934E-2,-8.102513E-1,7.9887944E-1,6.240046E-2,-6.857728E-3,-1.2666869E0,3.1316828E-2,6.30992E-1,-7.5447965E-1,-3.3549055E-1,6.621215E-1,-5.40791E-1,-7.912567E-2,1.17397E0,-1.5768195E-2,-1.1799461E0,1.6648496E-2,-1.5421964E-2,6.373679E-2,-7.546472E-2,-4.1627595E-3,6.100115E-2,-1.0430518E-2,-2.3300609E-1,-1.1174738E0,6.4795107E-1,-6.4418703E-1,8.964648E-1,-7.4652225E-1,2.2009926E-2,-5.871841E-2,6.552423E-2,-0E0,-7.1186714E-2,-1.0719801E-2,-4.008918E-2,2.9107718E-2,-6.637707E-2,1.4015821E-2,-3.7177153E-2,6.1313547E-2,-5.6685943E-2,7.0207007E-3,7.4185818E-3,6.4109884E-2,-5.5739988E-2,-3.0284366E-3],"categories":[],"categories_nodes":[],"categories_segments":[],"categories_sizes":[],"default_left":[0,0,0,0,0,0,0,0,0,0,0,0,0,0,0,0,0,0,0,0,0,0,0,0,0,0,0,0,0,0,0,0,0,0,0,0,0,0,0,0,0,0,0,0,0,0,0,0,0,0,0,0,0,0,0,0,0,0,0,0,0,0,0,0,0,0,0,0,0,0,0],"id":6,"left_children":[1,3,5,7,9,11,-1,13,15,17,19,-1,21,23,25,27,29,31,33,-1,35,-1,-1,37,-1,39,41,-1,-1,43,-1,45,47,49,51,53,-1,55,-1,57,-1,-1,-1,-1,-1,-1,-1,59,61,63,65,67,69,-1,-1,-1,-1,-1,-1,-1,-1,-1,-1,-1,-1,-1,-1,-1,-1,-1,-1],"loss_changes":[7.3908E1,6.005881E1,1.5061607E1,2.2660507E1,4.898246E1,9.122757E0,0E0,2.2299145E1,1.7228273E1,2.8638628E1,6.8933487E0,0E0,2.807083E-1,1.5372051E1,1.8111027E1,4.731238E0,1.5408261E1,1.5909946E1,2.5813559E1,0E0,4.007454E0,0E0,0E0,1.0826721E1,0E0,7.972637E0,7.2039585E0,0E0,0E0,4.61001E0,0E0,5.378311E0,1.4690922E1,1.6831656E1,1.823824E1,7.0054874E0,0E0,9.825127E0,0E0,2.3338299E0,0E0,0E0,0E0,0E0,0E0,0E0,0E0,1.7606678E1,1.4696827E1,1.2742586E1,1.623666E1,1.2410927E1,1.8507404E0,0E0,0E0,0E0,0E0,0E0,0E0,0E0,0E0,0E0,0E0,0E0,0E0,0E0,0E0,0E0,0E0,0E0,0E0],"parents":[2147483647,0,0,1,1,2,2,3,3,4,4,5,5,7,7,8,8,9,9,10,10,12,12,13,13,14,14,15,15,16,16,17,17,18,18,20,20,23,23,25,25,26,26,29,29,31,31,32,32,33,33,34,34,35,35,37,37,39,39,47,47,48,48,49,49,50,50,51,51,52,52],"right_children":[2,4,6,8,10,12,-1,14,16,18,20,-1,22,24,26,28,30,32,34,-1,36,-1,-1,38,-1,40,42,-1,-1,44,-1,46,48,50,52,54,-1,56,-1,58,-1,-1,-1,-1,-1,-1,-1,60,62,64,66,68,70,-1,-1,-1,-1,-1,-1,-1,-1,-1,-1,-1,-1,-1,-1,-1,-1,-1,-1],"split_conditions":[4.4655767E-1,1.3823938E0,8.096254E-2,1.0218242E-2,1.0617925E0,1.0165324E0,-3.0435134E-2,5.72961E-1,1.7479165E-1,7.7178085E-1,1.7806315E-1,3.946412E-3,6.499288E-2,1.7292343E-1,1.5516196E-3,1.7260018E-1,1.4932053E0,4.124055E-1,1.0914525E-1,2.275608E-3,1.8576092E-1,7.772887E-2,2.5549546E-2,1.0612925E-1,-3.339934E-2,9.269886E-2,8.9307964E-1,6.240046E-2,-6.857728E-3,3.490819E-2,3.1316828E-2,1.1835859E0,5.761076E-1,6.617526E-2,2.5984967E-1,8.0707826E-4,-7.912567E-2,4.5752206E-1,-1.5768195E-2,5.0215345E-2,1.6648496E-2,-1.5421964E-2,6.373679E-2,-7.546472E-2,-4.1627595E-3,6.100115E-2,-1.0430518E-2,1.100966E0,2.7495563E-1,6.4563894E-1,1.8724504E-1,3.1161878E-2,4.8299007E-2,2.2009926E-2,-5.871841E-2,6.552423E-2,-0E0,-7.1186714E-2,-1.0719801E-2,-4.008918E-2,2.9107718E-2,-6.637707E-2,1.4015821E-2,-3.7177153E-2,6.1313547E-2,-5.6685943E-2,7.0207007E-3,7.4185818E-3,6.4109884E-2,-5.5739988E-2,-3.0284366E-3],"split_indices":[61,771,1645,387,897,535,0,361,282,741,1917,0,1660,1847,1129,173,746,198,1994,0,1622,0,0,1937,0,1751,976,0,0,1585,0,530,31,1722,1555,1518,0,1792,0,1410,0,0,0,0,0,0,0,1009,1925,1569,292,412,1789,0,0,0,0,0,0,0,0,0,0,0,0,0,0,0,0,0,0],"split_type":[0,0,0,0,0,0,0,0,0,0,0,0,0,0,0,0,0,0,0,0,0,0,0,0,0,0,0,0,0,0,0,0,0,0,0,0,0,0,0,0,0,0,0,0,0,0,0,0,0,0,0,0,0,0,0,0,0,0,0,0,0,0,0,0,0,0,0,0,0,0,0],"sum_hessian":[3.9991217E2,3.5389795E2,4.601423E1,1.2083538E2,2.3306255E2,4.2832672E1,3.1815572E0,9.323462E1,2.7600765E1,1.8655972E2,4.650283E1,5.5223994E0,3.7310272E1,6.843447E1,2.4800146E1,7.8499913E0,1.9750772E1,8.671578E1,9.984394E1,3.1010964E0,4.3401733E1,3.422627E1,3.0840023E0,6.427654E1,4.1579328E0,1.4804176E1,9.995969E0,4.709957E0,3.140034E0,1.5486647E1,4.264127E0,7.641357E0,7.9074425E1,5.069441E1,4.9149532E1,7.489703E0,3.591203E1,5.9901455E1,4.375088E0,1.120419E1,3.5999858E0,3.1528285E0,6.8431406E0,1.2324811E1,3.1618357E0,4.0282273E0,3.6131296E0,3.3913677E1,4.5160748E1,1.1508581E1,3.918583E1,4.2823547E1,6.325983E0,3.1166646E0,4.373039E0,5.339754E1,6.5039105E0,8.105126E0,3.099064E0,2.006726E1,1.3846417E1,3.941004E1,5.750705E0,3.1602957E0,8.348285E0,2.3660803E1,1.5525024E1,1.5599092E1,2.7224457E1,3.207682E0,3.1183014E0],"tree_param":{"num_deleted":"0","num_feature":"1995","num_nodes":"71","size_leaf_vector":"1"}},{"base_weights":[-2.7258E-2,7.331266E-1,-2.2127534E-1,5.8446188E-2,1.3201104E0,1.9555561E-1,-5.048112E-1,-1.0411825E0,4.6404764E-1,1.4837424E0,-2.35066E-2,8.0620444E-1,-1.3540389E-1,-6.6728747E-1,5.308683E-1,-6.812377E-2,-4.0136073E-3,8.516782E-1,-6.558581E-1,7.687216E-2,2.3513308E-2,-3.0249214E-1,1.2509332E0,2.6704395E-1,-6.938322E-1,-3.250406E-1,-1.1029476E0,-3.867423E-2,8.86561E-1,1.1222667E0,-2.798464E-2,8.262916E-3,-5.803851E-2,-1.069706E0,4.7485102E-2,1.4343848E0,1.4101489E-3,6.6345304E-1,-5.0979006E-1,-9.468452E-1,4.974618E-2,1.7521608E-1,-8.3260375E-1,-1.1948769E0,2.4505194E-2,1.1511154E0,-2.1014918E-2,-8.023704E-3,7.420171E-2,-6.3255005E-2,-1.7928435E-2,1.4712228E-2,7.709685E-2,8.836551E-1,-3.6407642E-2,3.4702066E-2,-1.000235E0,5.6834437E-2,-1.2398738E0,5.497211E-1,-7.726588E-1,-1.1073608E0,2.1459384E-1,-1.2984596E0,1.5295858E-3,6.8385124E-2,8.667094E-5,5.8016684E-2,-3.1613715E-2,3.587645E-4,-6.639981E-2,5.063312E-2,-4.6572432E-2,-0E0,-7.1349464E-2,6.1831634E-2,-9.318974E-3,-6.2214106E-2,1.613002E-2,2.52844E-3,-6.571169E-2,-2.9474422E-2,4.8098456E-2,-7.063646E-2,-0E0],"categories":[],"categories_nodes":[],"categories_segments":[],"categories_sizes":[],"default_left":[0,0,0,0,0,0,0,0,0,0,0,0,0,0,0,0,0,0,0,0,0,0,0,0,0,0,0,0,0,0,0,0,0,0,0,0,0,0,0,0,0,0,0,0,0,0,0,0,0,0,0,0,0,0,0,0,0,0,0,0,0,0,0,0,0,0,0,0,0,0,0,0,0,0,0,0,0,0,0,0,0,0,0,0,0],"id":7,"left_children":[1,3,5,7,9,11,13,15,17,19,-1,21,23,25,27,-1,-1,29,31,-1,-1,33,35,37,39,41,43,-1,45,47,-1,-1,-1,49,-1,51,-1,53,55,57,-1,59,61,63,-1,65,-1,-1,-1,-1,-1,-1,-1,67,-1,-1,69,71,73,75,77,79,81,83,-1,-1,-1,-1,-1,-1,-1,-1,-1,-1,-1,-1,-1,-1,-1,-1,-1,-1,-1,-1,-1],"loss_changes":[5.983756E1,3.2354637E1,3.8439693E1,1.8983133E1,1.4359795E1,2.7000774E1,3.3219902E1,3.178172E0,1.4617945E1,5.7188416E-1,0E0,2.3954872E1,2.0040283E1,2.4175499E1,1.4011087E1,0E0,0E0,1.0480486E1,4.234696E0,0E0,0E0,1.6416391E1,7.3759766E0,1.6734144E1,1.7790173E1,2.4986557E1,1.19188385E1,0E0,8.77796E0,1.0293051E1,0E0,0E0,0E0,3.5697556E-1,0E0,2.5094872E0,0E0,1.21648035E1,1.242864E1,1.010066E1,0E0,1.8719767E1,1.4546402E1,9.037369E0,0E0,4.6404915E0,0E0,0E0,0E0,0E0,0E0,0E0,0E0,1.4761541E1,0E0,0E0,4.815978E0,1.0771222E1,6.176861E0,1.9463345E1,8.658948E0,9.576328E0,8.20231E0,9.47657E0,0E0,0E0,0E0,0E0,0E0,0E0,0E0,0E0,0E0,0E0,0E0,0E0,0E0,0E0,0E0,0E0,0E0,0E0,0E0,0E0,0E0],"parents":[2147483647,0,0,1,1,2,2,3,3,4,4,5,5,6,6,7,7,8,8,9,9,11,11,12,12,13,13,14,14,17,17,18,18,21,21,22,22,23,23,24,24,25,25,26,26,28,28,29,29,33,33,35,35,37,37,38,38,39,39,41,41,42,42,43,43,45,45,53,53,56,56,57,57,58,58,59,59,60,60,61,61,62,62,63,63],"right_children":[2,4,6,8,10,12,14,16,18,20,-1,22,24,26,28,-1,-1,30,32,-1,-1,34,36,38,40,42,44,-1,46,48,-1,-1,-1,50,-1,52,-1,54,56,58,-1,60,62,64,-1,66,-1,-1,-1,-1,-1,-1,-1,68,-1,-1,70,72,74,76,78,80,82,84,-1,-1,-1,-1,-1,-1,-1,-1,-1,-1,-1,-1,-1,-1,-1,-1,-1,-1,-1,-1,-1],"split_conditions":[9.48255E-3,2.9774126E-1,1.6992159E0,2.7190806E-2,9.7389296E-2,6.1486196E-2,6.684459E-1,2.4561088E0,7.024512E-1,5.758362E-1,-2.35066E-2,1.5970631E-1,3.9505173E-2,8.8911615E-2,7.976248E-5,-6.812377E-2,-4.0136073E-3,7.372445E-3,5.544644E-1,7.687216E-2,2.3513308E-2,8.5251294E-2,1.5916343E0,5.951965E-1,5.143217E-1,5.1872585E-2,2.3187532E-1,-3.867423E-2,8.5111177E-1,1.513998E-2,-2.798464E-2,8.262916E-3,-5.803851E-2,1.16129816E-1,4.7485102E-2,4.4589672E-2,1.4101489E-3,5.1007974E-1,2.8557068E-1,1.4741134E-3,4.974618E-2,2.3295075E-2,3.619467E-2,1.0170392E0,2.4505194E-2,3.407352E-2,-2.1014918E-2,-8.023704E-3,7.420171E-2,-6.3255005E-2,-1.7928435E-2,1.4712228E-2,7.709685E-2,2.7162509E-2,-3.6407642E-2,3.4702066E-2,8.185494E-2,5.029563E-2,3.2223463E-1,3.6791693E-2,6.2236983E-2,3.8544357E-1,3.0936983E-1,1.9068736E0,1.5295858E-3,6.8385124E-2,8.667094E-5,5.8016684E-2,-3.1613715E-2,3.587645E-4,-6.639981E-2,5.063312E-2,-4.6572432E-2,-0E0,-7.1349464E-2,6.1831634E-2,-9.318974E-3,-6.2214106E-2,1.613002E-2,2.52844E-3,-6.571169E-2,-2.9474422E-2,4.8098456E-2,-7.063646E-2,-0E0],"split_indices":[1629,1639,582,211,211,1922,268,610,1099,871,0,172,441,1815,1353,0,0,1177,13,0,0,1932,730,831,346,1784,493,0,481,503,0,0,0,180,0,1744,0,552,208,1319,0,1840,95,646,0,1614,0,0,0,0,0,0,0,1103,0,0,1621,1675,584,921,1756,340,406,998,0,0,0,0,0,0,0,0,0,0,0,0,0,0,0,0,0,0,0,0,0],"split_type":[0,0,0,0,0,0,0,0,0,0,0,0,0,0,0,0,0,0,0,0,0,0,0,0,0,0,0,0,0,0,0,0,0,0,0,0,0,0,0,0,0,0,0,0,0,0,0,0,0,0,0,0,0,0,0,0,0,0,0,0,0,0,0,0,0,0,0,0,0,0,0,0,0,0,0,0,0,0,0,0,0,0,0,0,0],"sum_hessian":[4.0174963E2,8.04359E1,3.2131375E2,3.8524857E1,4.191104E1,1.3018881E2,1.9112492E2,9.470031E0,2.9054827E1,3.8766018E1,3.145023E0,4.485595E1,8.533287E1,1.6590576E2,2.521916E1,6.3926845E0,3.0773466E0,2.2006184E1,7.048642E0,3.573962E1,3.0263982E0,1.2960523E1,3.1895428E1,5.0094967E1,3.5237904E1,9.4998405E1,7.090736E1,4.84004E0,2.037912E1,1.8869122E1,3.137062E0,3.1207864E0,3.9278557E0,8.266812E0,4.6937103E0,2.7362175E1,4.5332537E0,3.344766E1,1.6647306E1,3.1462053E1,3.7758493E0,4.8403873E1,4.6594532E1,6.7570755E1,3.336604E0,1.7210064E1,3.1690567E0,4.3349266E0,1.4534196E1,5.1525126E0,3.1143E0,3.0828536E0,2.4279322E1,2.9570435E1,3.8772252E0,4.5195665E0,1.2127739E1,7.396937E0,2.4065117E1,3.5373436E1,1.3030436E1,3.689488E1,9.6996565E0,6.2269867E1,5.3008857E0,1.4088384E1,3.1216795E0,2.5458931E1,4.111504E0,3.3824677E0,8.745272E0,3.7865682E0,3.610369E0,3.3540888E0,2.0711027E1,1.7664883E1,1.7708553E1,8.98195E0,4.048486E0,5.748199E0,3.1146677E1,4.8116407E0,4.8880157E0,5.704158E1,5.2282853E0],"tree_param":{"num_deleted":"0","num_feature":"1995","num_nodes":"85","size_leaf_vector":"1"}},{"base_weights":[-8.1949355E-3,-2.9300165E-1,4.7716278E-1,6.458376E-2,-6.855764E-1,1.19215734E-1,1.1754613E0,5.113008E-1,-3.1653655E-1,-1.0156628E0,9.578855E-2,4.204727E-1,-6.979723E-1,1.362532E0,-2.7322948E-2,1.2149879E0,-4.1903656E-2,-1.0454032E0,5.7293076E-2,-0E0,-1.1934582E0,-4.616907E-1,1.0514362E0,-9.438302E-1,6.4119554E-1,2.6772285E-1,-1.1982387E0,7.4942365E-2,-0E0,1.4229152E-1,7.53393E-2,4.0582797E-1,-1.1006465E0,-1.2951024E0,1.3864252E-2,-5.0057834E-1,6.4123076E-1,5.830719E-1,-5.3508785E-2,1.756443E-2,-1.2734727E0,-1.0549995E0,3.7552357E-1,-0E0,7.142087E-2,-6.394615E-2,-1.17554E-3,8.557207E-1,-6.160792E-1,-2.9507045E-2,3.851661E-2,5.3162785E-4,-7.219111E-2,4.3083537E-2,-2.995777E-2,-5.5002993E-1,9.529144E-1,-6.4578176E-2,-1.6194612E-2,-7.392433E-2,-5.421185E-3,4.5792958E-1,-9.865687E-1,-2.761661E-1,1.0732658E0,6.080026E-2,-2.7812436E-2,-1.3620745E0,-4.12685E-3,-6.520202E-2,-1.560142E-3,5.042979E-2,-3.6839154E-2,1.0634657E0,-3.2335747E-2,1.5777651E-2,-5.9535164E-2,2.7788892E-2,-5.589521E-2,6.454172E-2,-1.1890535E-2,-2.3250459E-2,5.0312318E-2,2.479944E-4,-6.37447E-2,-4.820728E-2,2.194478E-2,6.741279E-2,-5.7816515E-3,-7.369893E-2,-2.5731746E-2,6.5046854E-2,-2.1340658E-3],"categories":[],"categories_nodes":[],"categories_segments":[],"categories_sizes":[],"default_left":[0,0,0,0,0,0,0,0,0,0,0,0,0,0,0,0,0,0,0,0,0,0,0,0,0,0,0,0,0,0,0,0,0,0,0,0,0,0,0,0,0,0,0,0,0,0,0,0,0,0,0,0,0,0,0,0,0,0,0,0,0,0,0,0,0,0,0,0,0,0,0,0,0,0,0,0,0,0,0,0,0,0,0,0,0,0,0,0,0,0,0,0,0],"id":8,"left_children":[1,3,5,7,9,11,13,15,17,19,21,23,25,27,-1,29,31,33,35,37,39,41,43,45,47,49,51,-1,-1,53,-1,55,57,59,-1,61,63,65,-1,-1,67,69,71,-1,-1,-1,-1,73,75,-1,-1,-1,-1,-1,-1,77,79,-1,-1,-1,-1,81,83,85,87,-1,-1,89,-1,-1,-1,-1,-1,91,-1,-1,-1,-1,-1,-1,-1,-1,-1,-1,-1,-1,-1,-1,-1,-1,-1,-1,-1],"loss_changes":[5.5239017E1,3.5527695E1,3.6510235E1,2.3085072E1,3.1348595E1,2.5170584E1,1.7591583E1,2.4503328E1,2.0162266E1,1.54210205E1,2.1010729E1,2.3578789E1,1.4063593E1,8.326935E0,0E0,8.046257E0,1.8397306E1,9.079779E0,1.7004883E1,1.0319283E1,9.927795E0,1.3283779E1,5.7574387E0,3.2339973E0,1.8684801E1,5.662262E0,5.698448E0,0E0,0E0,5.424384E0,0E0,1.5334915E1,7.1254826E-1,4.189411E0,0E0,1.3394749E1,1.0773337E1,9.195074E0,0E0,0E0,6.9397583E0,3.6688652E0,9.807311E0,0E0,0E0,0E0,0E0,1.9104607E1,6.5186644E0,0E0,0E0,0E0,0E0,0E0,0E0,8.280634E0,8.0121E0,0E0,0E0,0E0,0E0,6.192436E0,5.4059925E0,5.6588364E0,6.2574463E0,0E0,0E0,4.378296E0,0E0,0E0,0E0,0E0,0E0,1.3528126E1,0E0,0E0,0E0,0E0,0E0,0E0,0E0,0E0,0E0,0E0,0E0,0E0,0E0,0E0,0E0,0E0,0E0,0E0,0E0],"parents":[2147483647,0,0,1,1,2,2,3,3,4,4,5,5,6,6,7,7,8,8,9,9,10,10,11,11,12,12,13,13,15,15,16,16,17,17,18,18,19,19,20,20,21,21,22,22,23,23,24,24,25,25,26,26,29,29,31,31,32,32,33,33,35,35,36,36,37,37,40,40,41,41,42,42,47,47,48,48,55,55,56,56,61,61,62,62,63,63,64,64,67,67,73,73],"right_children":[2,4,6,8,10,12,14,16,18,20,22,24,26,28,-1,30,32,34,36,38,40,42,44,46,48,50,52,-1,-1,54,-1,56,58,60,-1,62,64,66,-1,-1,68,70,72,-1,-1,-1,-1,74,76,-1,-1,-1,-1,-1,-1,78,80,-1,-1,-1,-1,82,84,86,88,-1,-1,90,-1,-1,-1,-1,-1,92,-1,-1,-1,-1,-1,-1,-1,-1,-1,-1,-1,-1,-1,-1,-1,-1,-1,-1,-1],"split_conditions":[2.5575382E-1,1.4937382E0,1.921733E-1,4.3089548E-1,5.53926E-1,2.48115E-1,3.6493844E-1,1.4343616E-1,1.7307814E0,1.1853911E-2,1.0535543E0,2.1753553E-1,9.718208E-1,8.0526404E-2,-2.7322948E-2,2.2671051E-2,1.2486391E-1,4.6160527E-2,1.7808704E-1,1.0161221E0,2.1029106E-1,9.699936E-1,3.8386926E-3,3.1060195E-2,6.497707E-1,4.0584138E-1,2.1905988E-2,7.4942365E-2,-0E0,1.5263813E0,7.53393E-2,2.4200194E-2,1.4011446E-2,1.3509141E-1,1.3864252E-2,2.221938E-1,8.780201E-1,1.8347357E-1,-5.3508785E-2,1.756443E-2,3.2928842E-3,4.810977E-2,1.3732575E0,-0E0,7.142087E-2,-6.394615E-2,-1.17554E-3,2.93084E-3,2.5362213E0,-2.9507045E-2,3.851661E-2,5.3162785E-4,-7.219111E-2,4.3083537E-2,-2.995777E-2,3.6466703E-1,2.3130407E-3,-6.4578176E-2,-1.6194612E-2,-7.392433E-2,-5.421185E-3,6.94829E-2,8.429672E-2,9.936587E-1,4.9937223E-3,6.080026E-2,-2.7812436E-2,6.757039E-2,-4.12685E-3,-6.520202E-2,-1.560142E-3,5.042979E-2,-3.6839154E-2,1.375803E0,-3.2335747E-2,1.5777651E-2,-5.9535164E-2,2.7788892E-2,-5.589521E-2,6.454172E-2,-1.1890535E-2,-2.3250459E-2,5.0312318E-2,2.479944E-4,-6.37447E-2,-4.820728E-2,2.194478E-2,6.741279E-2,-5.7816515E-3,-7.369893E-2,-2.5731746E-2,6.5046854E-2,-2.1340658E-3],"split_indices":[1925,771,1762,791,268,1635,186,1850,711,503,615,163,386,1923,0,205,1625,1524,349,199,1639,882,1366,1739,871,946,1808,0,0,627,0,1668,1580,1798,0,186,846,358,0,0,1296,1245,720,0,0,0,0,1456,948,0,0,0,0,0,0,1032,1606,0,0,0,0,1880,242,669,1199,0,0,1944,0,0,0,0,0,603,0,0,0,0,0,0,0,0,0,0,0,0,0,0,0,0,0,0,0],"split_type":[0,0,0,0,0,0,0,0,0,0,0,0,0,0,0,0,0,0,0,0,0,0,0,0,0,0,0,0,0,0,0,0,0,0,0,0,0,0,0,0,0,0,0,0,0,0,0,0,0,0,0,0,0,0,0,0,0,0,0,0,0,0,0,0,0,0,0,0,0,0,0,0,0,0,0,0,0,0,0,0,0,0,0,0,0,0,0,0,0,0,0,0,0],"sum_hessian":[3.9571805E2,2.5001093E2,1.4570714E2,1.3157716E2,1.18433754E2,9.7971634E1,4.77355E1,6.038187E1,7.11953E1,8.292885E1,3.5504906E1,7.2381454E1,2.559018E1,4.3486588E1,4.2489142E0,2.560281E1,3.4779064E1,2.300884E1,4.8186455E1,1.2592901E1,7.0335945E1,2.3010689E1,1.2494215E1,9.103968E0,6.327749E1,8.981815E0,1.6608364E1,3.929566E1,4.190929E0,6.1847305E0,1.941808E1,2.5242987E1,9.536077E0,1.9453663E1,3.5551777E0,2.4701683E1,2.3484772E1,8.783727E0,3.809175E0,3.0683558E0,6.726759E1,1.3232436E1,9.778253E0,3.8191948E0,8.67502E0,6.023003E0,3.080964E0,5.4667957E1,8.60953E0,3.1160345E0,5.8657804E0,3.0586312E0,1.3549734E1,3.0429368E0,3.141794E0,9.118241E0,1.6124744E1,6.4872966E0,3.0487802E0,1.6350803E1,3.102859E0,8.280315E0,1.6421368E1,7.675809E0,1.5808962E1,5.61664E0,3.1670868E0,6.2263977E1,5.003612E0,1.0124495E1,3.1079423E0,6.407684E0,3.3705683E0,4.8598972E1,6.0689845E0,3.5620668E0,5.047463E0,3.0484927E0,6.0697484E0,1.2494673E1,3.630072E0,3.1312377E0,5.149078E0,4.0640783E0,1.2357288E1,3.6281967E0,4.047612E0,1.2689858E1,3.119103E0,5.3590683E1,8.673294E0,3.979406E1,8.804913E0],"tree_param":{"num_deleted":"0","num_feature":"1995","num_nodes":"93","size_leaf_vector":"1"}},{"base_weights":[-1.592954E-2,5.601479E-1,-2.7201548E-1,-2.5256595E-1,9.27138E-1,3.5662818E-1,-4.543123E-1,-1.0709276E0,3.023834E-1,-1.5989453E-1,1.1433977E0,6.7629075E-1,-6.4488727E-1,-5.6754225E-1,7.398137E-1,-6.4172745E-2,-3.561678E-3,8.6926484E-1,-6.524385E-1,-6.264132E-2,6.095316E-1,1.320684E0,-1.7483918E-1,8.3217764E-1,-3.2463197E-2,2.2852933E-2,-1.0387303E0,-6.943934E-1,1.913375E-1,-5.18313E-2,1.2271547E0,-1.38028655E-2,5.9050005E-2,9.223006E-3,-5.38013E-2,-2.3053505E-2,6.032914E-2,1.3899037E0,4.233319E-3,3.396083E-2,-5.0606817E-2,9.9549586E-1,-3.1428173E-2,-5.390081E-3,-6.549439E-2,-8.6902833E-1,-1.3443182E-1,8.247761E-1,-5.597425E-1,7.212268E-2,8.730137E-3,1.450701E0,1.6803771E-2,-1.1070294E-2,1.1207823E0,-1.7270213E-1,-1.0340084E0,-5.518444E-1,8.9564764E-1,1.1501975E0,-1.8252673E-2,2.2093462E-2,-9.713666E-1,7.532177E-2,1.940893E-2,6.5585025E-2,2.2707563E-3,5.1709432E-2,-3.5421785E-2,-5.5932738E-2,1.6766718E-2,1.9590644E-2,-5.0835695E-2,-1.2024682E-2,6.5970644E-2,1.2207314E-2,6.763559E-2,-8.10951E-3,-6.366463E-2],"categories":[],"categories_nodes":[],"categories_segments":[],"categories_sizes":[],"default_left":[0,0,0,0,0,0,0,0,0,0,0,0,0,0,0,0,0,0,0,0,0,0,0,0,0,0,0,0,0,0,0,0,0,0,0,0,0,0,0,0,0,0,0,0,0,0,0,0,0,0,0,0,0,0,0,0,0,0,0,0,0,0,0,0,0,0,0,0,0,0,0,0,0,0,0,0,0,0,0],"id":9,"left_children":[1,3,5,7,9,11,13,15,17,19,21,23,25,27,29,-1,-1,31,33,-1,35,37,39,41,-1,-1,43,45,47,-1,49,-1,-1,-1,-1,-1,-1,51,-1,-1,-1,53,-1,-1,-1,55,57,59,61,-1,-1,63,-1,-1,65,67,69,71,73,75,-1,-1,77,-1,-1,-1,-1,-1,-1,-1,-1,-1,-1,-1,-1,-1,-1,-1,-1],"loss_changes":[5.766415E1,3.6399624E1,3.136301E1,1.8387957E1,2.005825E1,2.0680805E1,2.9338226E1,3.1299171E0,1.4505646E1,1.4633263E1,1.6898926E1,1.1006573E1,7.9151807E0,1.8976044E1,1.906202E1,0E0,0E0,6.5975504E0,4.124966E0,0E0,7.8304434E0,4.9100266E0,8.544002E0,1.174832E1,0E0,0E0,2.7067738E0,1.5959999E1,1.4849809E1,0E0,2.9411182E0,0E0,0E0,0E0,0E0,0E0,0E0,2.5864105E0,0E0,0E0,0E0,6.726223E0,0E0,0E0,0E0,1.405571E1,1.9061628E1,7.396121E0,6.883803E0,0E0,0E0,1.8684235E0,0E0,0E0,7.324604E0,1.8728397E1,1.262368E1,1.4579246E1,6.9233007E0,1.6908188E0,0E0,0E0,2.1217785E0,0E0,0E0,0E0,0E0,0E0,0E0,0E0,0E0,0E0,0E0,0E0,0E0,0E0,0E0,0E0,0E0],"parents":[2147483647,0,0,1,1,2,2,3,3,4,4,5,5,6,6,7,7,8,8,9,9,10,10,11,11,12,12,13,13,14,14,17,17,18,18,20,20,21,21,22,22,23,23,26,26,27,27,28,28,30,30,37,37,41,41,45,45,46,46,47,47,48,48,51,51,54,54,55,55,56,56,57,57,58,58,59,59,62,62],"right_children":[2,4,6,8,10,12,14,16,18,20,22,24,26,28,30,-1,-1,32,34,-1,36,38,40,42,-1,-1,44,46,48,-1,50,-1,-1,-1,-1,-1,-1,52,-1,-1,-1,54,-1,-1,-1,56,58,60,62,-1,-1,64,-1,-1,66,68,70,72,74,76,-1,-1,78,-1,-1,-1,-1,-1,-1,-1,-1,-1,-1,-1,-1,-1,-1,-1,-1],"split_conditions":[4.2014487E-2,1.3429849E-1,7.4344355E-1,8.68791E-1,5.4335803E-2,1.5345964E-1,1.7067945E-1,7.540834E-1,1.058081E-1,2.9991327E-2,1.2678558E-3,7.9585266E-1,1.23427786E-1,1.0213327E-2,9.561578E-2,-6.4172745E-2,-3.561678E-3,3.5953063E-1,3.4330875E-2,-6.264132E-2,1.1289101E0,5.111969E-2,1.0018565E-1,7.3105074E-2,-3.2463197E-2,2.2852933E-2,2.3075145E-1,1.33847445E-2,2.3846443E-1,-5.18313E-2,2.792173E-1,-1.38028655E-2,5.9050005E-2,9.223006E-3,-5.38013E-2,-2.3053505E-2,6.032914E-2,1.7210934E-1,4.233319E-3,3.396083E-2,-5.0606817E-2,4.859537E-4,-3.1428173E-2,-5.390081E-3,-6.549439E-2,6.961261E-3,4.141762E-4,2.1168254E-1,5.142398E-1,7.212268E-2,8.730137E-3,4.0429786E-2,1.6803771E-2,-1.1070294E-2,3.0715007E-4,2.1403053E-1,6.890317E-1,7.58525E-2,4.0767655E-2,5.178565E-3,-1.8252673E-2,2.2093462E-2,8.840768E-3,7.532177E-2,1.940893E-2,6.5585025E-2,2.2707563E-3,5.1709432E-2,-3.5421785E-2,-5.5932738E-2,1.6766718E-2,1.9590644E-2,-5.0835695E-2,-1.2024682E-2,6.5970644E-2,1.2207314E-2,6.763559E-2,-8.10951E-3,-6.366463E-2],"split_indices":[1645,1959,586,708,1764,1936,1619,640,1836,1559,1516,1092,116,1533,1731,0,0,1094,476,0,937,41,59,1988,0,0,328,1834,1768,0,189,0,0,0,0,0,0,1858,0,0,0,1336,0,0,0,1814,1446,1859,338,0,0,1645,0,0,1226,152,220,179,341,452,0,0,1399,0,0,0,0,0,0,0,0,0,0,0,0,0,0,0,0],"split_type":[0,0,0,0,0,0,0,0,0,0,0,0,0,0,0,0,0,0,0,0,0,0,0,0,0,0,0,0,0,0,0,0,0,0,0,0,0,0,0,0,0,0,0,0,0,0,0,0,0,0,0,0,0,0,0,0,0,0,0,0,0,0,0,0,0,0,0,0,0,0,0,0,0,0,0,0,0,0,0],"sum_hessian":[3.8700592E2,1.182444E2,2.6876154E2,3.6893467E1,8.135093E1,5.986346E1,2.0889807E2,1.4229879E1,2.266359E1,1.3508606E1,6.784232E1,4.5947353E1,1.391611E1,1.9184047E2,1.7057594E1,1.118443E1,3.0454488E0,1.4398869E1,8.264721E0,5.115597E0,8.393009E0,5.9863575E1,7.9787498E0,4.1846054E1,4.1013E0,3.5127494E0,1.040336E1,1.6462428E2,2.7216185E1,3.1426613E0,1.3914933E1,3.0609574E0,1.1337911E1,3.0774534E0,5.187268E0,3.107972E0,5.2850366E0,5.637646E1,3.487112E0,4.07765E0,3.9010997E0,3.8272457E1,3.5735965E0,3.0604024E0,7.342958E0,1.2451072E2,4.0113567E1,1.473013E1,1.2486054E1,1.0858049E1,3.0568829E0,5.249957E1,3.8768935E0,3.3548036E0,3.4917652E1,2.4749786E1,9.976093E1,2.92759E1,1.0837667E1,1.1684935E1,3.0451956E0,3.52317E0,8.962884E0,4.8999607E1,3.4999619E0,2.9200865E1,5.716788E0,6.979348E0,1.777044E1,9.436679E1,5.3941402E0,9.6949415E0,1.9580957E1,3.115039E0,7.7226286E0,3.0306618E0,8.654273E0,3.3609502E0,5.6019335E0],"tree_param":{"num_deleted":"0","num_feature":"1995","num_nodes":"79","size_leaf_vector":"1"}},{"base_weights":[-2.9618075E-2,-1.4995798E-1,1.0146257E0,1.0252322E-1,-6.87357E-1,-4.0480828E-1,1.3564357E0,-5.952278E-2,6.2911683E-1,-2.6054848E-2,-9.580016E-1,-5.665451E-2,3.2636814E-2,7.216113E-2,1.9558417E-2,5.154128E-1,-2.5247806E-1,8.0046165E-1,-4.0809896E-2,-3.9773148E-1,6.3236885E-2,-1.0665764E0,3.235574E-2,-8.3025086E-1,7.8023857E-1,-6.068501E-1,2.168668E-1,-2.3320254E-2,9.6427107E-1,2.7954915E-1,-9.7714806E-1,-1.02077566E-1,-1.2476641E0,-1.0119083E-2,-5.3958204E-2,-2.7579734E-2,1.0117033E0,-8.6606616E-1,5.939841E-1,8.232739E-1,-4.1193154E-1,1.1146909E0,-9.577562E-3,8.509465E-1,-4.298023E-2,-6.4071596E-2,5.3971712E-3,-6.589366E-1,4.9437784E-2,8.432618E-3,-1.3345664E0,-3.111271E-2,6.1343897E-2,1.7212167E-3,-5.344761E-2,5.1431566E-2,-2.9680997E-2,5.2562416E-2,-1.210867E-2,-4.3504313E-2,1.9149989E-2,6.456485E-2,1.0102393E-2,6.1448157E-2,-5.0462113E-4,-5.4882478E-2,1.2256383E-2,-1.1454145E-2,-7.119317E-2],"categories":[],"categories_nodes":[],"categories_segments":[],"categories_sizes":[],"default_left":[0,0,0,0,0,0,0,0,0,0,0,0,0,0,0,0,0,0,0,0,0,0,0,0,0,0,0,0,0,0,0,0,0,0,0,0,0,0,0,0,0,0,0,0,0,0,0,0,0,0,0,0,0,0,0,0,0,0,0,0,0,0,0,0,0,0,0,0,0],"id":10,"left_children":[1,3,5,7,9,11,13,15,17,19,21,-1,-1,-1,-1,23,25,27,-1,29,-1,31,-1,33,35,37,39,-1,41,43,45,47,49,-1,-1,-1,51,53,55,57,59,61,-1,63,-1,-1,-1,65,-1,-1,67,-1,-1,-1,-1,-1,-1,-1,-1,-1,-1,-1,-1,-1,-1,-1,-1,-1,-1],"loss_changes":[4.901613E1,4.7691875E1,2.0745117E1,2.059071E1,1.9945488E1,8.693365E0,1.4514618E0,2.0759432E1,1.5355507E1,1.7599197E1,1.5277664E1,0E0,0E0,0E0,0E0,1.8046555E1,2.358745E1,1.1697792E1,0E0,1.1830109E1,0E0,1.2758476E1,0E0,7.851157E-1,1.3610266E1,2.6088423E1,2.4200994E1,0E0,8.618652E0,1.0998487E1,5.652092E0,9.874581E0,8.334869E0,0E0,0E0,0E0,1.3953045E1,1.24220085E1,9.211624E0,8.386265E0,1.21819935E1,6.032402E0,0E0,3.6685886E0,0E0,0E0,0E0,4.8429685E0,0E0,0E0,5.081253E0,0E0,0E0,0E0,0E0,0E0,0E0,0E0,0E0,0E0,0E0,0E0,0E0,0E0,0E0,0E0,0E0,0E0,0E0],"parents":[2147483647,0,0,1,1,2,2,3,3,4,4,5,5,6,6,7,7,8,8,9,9,10,10,15,15,16,16,17,17,19,19,21,21,23,23,24,24,25,25,26,26,28,28,29,29,30,30,31,31,32,32,36,36,37,37,38,38,39,39,40,40,41,41,43,43,47,47,50,50],"right_children":[2,4,6,8,10,12,14,16,18,20,22,-1,-1,-1,-1,24,26,28,-1,30,-1,32,-1,34,36,38,40,-1,42,44,46,48,50,-1,-1,-1,52,54,56,58,60,62,-1,64,-1,-1,-1,66,-1,-1,68,-1,-1,-1,-1,-1,-1,-1,-1,-1,-1,-1,-1,-1,-1,-1,-1,-1,-1],"split_conditions":[1.4272649E0,1.2644444E0,4.5044973E-1,1.2747594E0,1.11696705E-1,5.9539366E-1,2.49049E0,6.601039E-1,2.2107236E-1,8.969508E-1,6.2110705E0,-5.665451E-2,3.2636814E-2,7.216113E-2,1.9558417E-2,7.22409E-2,1.285787E0,5.8646863E-3,-4.0809896E-2,3.4626003E-3,6.3236885E-2,3.5660058E-1,3.235574E-2,3.6322075E-1,7.033598E-2,3.100699E-2,5.584113E-1,-2.3320254E-2,1.1002523E-3,2.7600062E-1,1.0915718E0,1.4521434E0,1.7804095E-1,-1.0119083E-2,-5.3958204E-2,-2.7579734E-2,3.2605127E-1,2.165747E-1,4.510094E-1,4.9738163E-1,6.0155675E-2,1.0322275E-1,-9.577562E-3,5.824514E-2,-4.298023E-2,-6.4071596E-2,5.3971712E-3,6.4100194E-1,4.9437784E-2,8.432618E-3,1.206511E-3,-3.111271E-2,6.1343897E-2,1.7212167E-3,-5.344761E-2,5.1431566E-2,-2.9680997E-2,5.2562416E-2,-1.210867E-2,-4.3504313E-2,1.9149989E-2,6.456485E-2,1.0102393E-2,6.1448157E-2,-5.0462113E-4,-5.4882478E-2,1.2256383E-2,-1.1454145E-2,-7.119317E-2],"split_indices":[573,618,369,998,1956,268,744,862,124,764,910,0,0,0,0,1911,666,1526,0,1457,0,340,0,831,1878,491,865,0,1516,90,665,812,1622,0,0,0,1045,118,87,21,1950,1772,0,1803,0,0,0,1082,0,0,1361,0,0,0,0,0,0,0,0,0,0,0,0,0,0,0,0,0,0],"split_type":[0,0,0,0,0,0,0,0,0,0,0,0,0,0,0,0,0,0,0,0,0,0,0,0,0,0,0,0,0,0,0,0,0,0,0,0,0,0,0,0,0,0,0,0,0,0,0,0,0,0,0,0,0,0,0,0,0,0,0,0,0,0,0,0,0,0,0,0,0],"sum_hessian":[3.8632297E2,3.4802472E2,3.829823E1,2.377549E2,1.1026982E2,7.3043375E0,3.0993893E1,1.8301932E2,5.4735584E1,3.276725E1,7.750257E1,4.2969303E0,3.0074072E0,2.7433453E1,3.5604398E0,4.5018936E1,1.3800038E2,4.979394E1,4.9416437E0,2.6576036E1,6.191212E0,7.327909E1,4.22348E0,6.638556E0,3.8380383E1,7.841865E1,5.9581738E1,5.208394E0,4.458555E1,1.2650885E1,1.3925153E1,1.2165192E1,6.11139E1,3.0281327E0,3.6104236E0,5.209143E0,3.3171238E1,6.502333E1,1.3395318E1,3.0096973E1,2.9484762E1,3.9590847E1,4.9946995E0,8.820384E0,3.8305004E0,1.0664782E1,3.2603714E0,8.638742E0,3.5264497E0,3.3577476E0,5.775615E1,3.3656063E0,2.9805632E1,1.2171049E1,5.285228E1,1.0063965E1,3.3313537E0,2.4891445E1,5.205528E0,1.8664362E1,1.08204E1,3.2384697E1,7.2061515E0,5.6162496E0,3.2041345E0,5.602424E0,3.036318E0,4.933306E0,5.2822845E1],"tree_param":{"num_deleted":"0","num_feature":"1995","num_nodes":"69","size_leaf_vector":"1"}},{"base_weights":[1.7218249E-2,-9.626328E-2,1.1430054E0,1.09759696E-1,-6.3539195E-1,-5.4820864E-3,6.7503296E-2,-1.1960198E-1,5.4014546E-1,1.9274402E-1,-8.7668324E-1,3.2852632E-1,-4.6266878E-1,-7.614099E-1,6.915491E-1,-3.970189E-2,5.512175E-1,-9.7402316E-1,2.5716608E-2,-2.873837E-1,8.531447E-1,-1.4362255E-1,-1.083981E0,-5.9503753E-2,6.8141865E-3,1.2027141E0,3.6565033E-1,9.4995904E-1,-2.9270599E-2,-3.091095E-1,-1.207143E0,-7.003114E-1,7.400005E-1,-3.4499265E-2,1.051925E0,-7.818704E-1,2.0052949E-1,-3.014251E-1,-7.099189E-2,8.2146603E-4,1.3888451E0,-6.818938E-1,7.693683E-1,6.8740465E-2,-1.907546E-2,4.15188E-2,-7.812281E-1,1.3420181E-2,-1.3152273E0,-5.7727057E-2,1.1093679E-2,-1.32855E-2,5.9849318E-2,-2.6077306E-2,6.1394837E-2,3.424524E-3,-6.0820974E-2,2.8380021E-2,-2.8151644E-2,3.6350533E-2,-4.880677E-2,2.6337339E-2,7.4227706E-2,1.6673598E-2,-5.301231E-2,5.761617E-2,-9.955751E-4,-5.9038397E-2,1.14715295E-2,-7.0593596E-2,-4.0443405E-3],"categories":[],"categories_nodes":[],"categories_segments":[],"categories_sizes":[],"default_left":[0,0,0,0,0,0,0,0,0,0,0,0,0,0,0,0,0,0,0,0,0,0,0,0,0,0,0,0,0,0,0,0,0,0,0,0,0,0,0,0,0,0,0,0,0,0,0,0,0,0,0,0,0,0,0,0,0,0,0,0,0,0,0,0,0,0,0,0,0,0,0],"id":11,"left_children":[1,3,5,7,9,-1,-1,11,13,15,17,19,21,23,25,-1,27,29,-1,31,33,35,37,-1,-1,39,41,43,-1,45,47,49,51,-1,53,55,57,59,-1,-1,61,63,65,-1,-1,-1,67,-1,69,-1,-1,-1,-1,-1,-1,-1,-1,-1,-1,-1,-1,-1,-1,-1,-1,-1,-1,-1,-1,-1,-1],"loss_changes":[4.9594913E1,3.930159E1,9.6411705E0,2.5474226E1,1.9945137E1,0E0,0E0,2.6252996E1,1.8707855E1,9.20208E0,1.13618355E1,2.4519825E1,1.8696299E1,4.363458E0,1.252449E1,0E0,9.565906E0,1.0254593E1,0E0,1.610782E1,1.3959143E1,1.4907579E1,7.4694824E0,0E0,0E0,6.592579E0,2.3346924E1,9.3938675E0,0E0,1.2846588E1,9.179176E0,1.1682782E1,5.826485E0,0E0,1.1559456E1,9.036428E0,1.3107492E1,1.0005167E1,0E0,0E0,4.1645813E-1,6.793005E0,1.1962568E1,0E0,0E0,0E0,7.2099447E0,0E0,5.5026245E0,0E0,0E0,0E0,0E0,0E0,0E0,0E0,0E0,0E0,0E0,0E0,0E0,0E0,0E0,0E0,0E0,0E0,0E0,0E0,0E0,0E0,0E0],"parents":[2147483647,0,0,1,1,2,2,3,3,4,4,7,7,8,8,9,9,10,10,11,11,12,12,13,13,14,14,16,16,17,17,19,19,20,20,21,21,22,22,25,25,26,26,27,27,29,29,30,30,31,31,32,32,34,34,35,35,36,36,37,37,40,40,41,41,42,42,46,46,48,48],"right_children":[2,4,6,8,10,-1,-1,12,14,16,18,20,22,24,26,-1,28,30,-1,32,34,36,38,-1,-1,40,42,44,-1,46,48,50,52,-1,54,56,58,60,-1,-1,62,64,66,-1,-1,-1,68,-1,70,-1,-1,-1,-1,-1,-1,-1,-1,-1,-1,-1,-1,-1,-1,-1,-1,-1,-1,-1,-1,-1,-1],"split_conditions":[4.865825E-1,3.7143284E-1,9.911171E-1,2.5284946E-1,1.06650256E-1,-5.4820864E-3,6.7503296E-2,8.7957805E-1,2.8629307E-2,1.4087848E-1,5.977723E0,6.910976E-2,1.7304805E-1,2.5173596E-1,9.581577E-2,-3.970189E-2,1.2449392E-1,6.1955433E-2,2.5716608E-2,2.7480423E-2,4.043647E-2,2.7582717E-1,6.0346365E-2,-5.9503753E-2,6.8141865E-3,1.312068E-1,2.788724E-1,1.4237066E-2,-2.9270599E-2,9.509401E-2,1.8857726E-1,8.0789054E-5,3.3156943E-2,-3.4499265E-2,1.3438062E-1,1.7495184E-1,5.2255476E-1,2.7533773E-1,-7.099189E-2,8.2146603E-4,1.0185697E-3,1.1969714E0,1.0738926E-2,6.8740465E-2,-1.907546E-2,4.15188E-2,2.0444651E-1,1.3420181E-2,1.5570551E0,-5.7727057E-2,1.1093679E-2,-1.32855E-2,5.9849318E-2,-2.6077306E-2,6.1394837E-2,3.424524E-3,-6.0820974E-2,2.8380021E-2,-2.8151644E-2,3.6350533E-2,-4.880677E-2,2.6337339E-2,7.4227706E-2,1.6673598E-2,-5.301231E-2,5.761617E-2,-9.955751E-4,-5.9038397E-2,1.14715295E-2,-7.0593596E-2,-4.0443405E-3],"split_indices":[61,106,950,486,1956,0,0,840,1618,312,910,1862,52,1639,1654,0,1911,1932,0,48,1789,437,1967,0,0,406,633,1814,0,236,94,1298,1423,0,1984,102,1036,106,0,0,1572,609,1814,0,0,0,280,0,704,0,0,0,0,0,0,0,0,0,0,0,0,0,0,0,0,0,0,0,0,0,0],"split_type":[0,0,0,0,0,0,0,0,0,0,0,0,0,0,0,0,0,0,0,0,0,0,0,0,0,0,0,0,0,0,0,0,0,0,0,0,0,0,0,0,0,0,0,0,0,0,0,0,0,0,0,0,0,0,0,0,0,0,0,0,0,0,0,0,0,0,0,0,0,0,0],"sum_hessian":[3.8365833E2,3.5010703E2,3.355131E1,2.5432603E2,9.5780975E1,4.824246E0,2.8727064E1,1.6669997E2,8.7626076E1,2.1608028E1,7.417295E1,7.219244E1,9.450752E1,8.22246E0,7.940362E1,5.036052E0,1.6571976E1,6.994949E1,4.223455E0,3.3535286E1,3.865715E1,6.417612E1,3.033141E1,5.199564E0,3.0228958E0,2.8700218E1,5.07034E1,1.2576463E1,3.9955127E0,1.9477085E1,5.047241E1,2.4444546E1,9.090742E0,3.7900152E0,3.4867134E1,2.1692698E1,4.2483418E1,1.0337482E1,1.9993927E1,4.2604585E0,2.443976E1,1.3652615E1,3.7050785E1,9.541822E0,3.0346406E0,5.1991553E0,1.427793E1,3.1791701E0,4.729324E1,1.6112644E1,8.331902E0,3.0333652E0,6.057377E0,3.0549624E0,3.181217E1,7.8282986E0,1.38644E1,2.9125856E1,1.3357561E1,3.9751172E0,6.3623652E0,3.8463037E0,2.0593456E1,3.6989255E0,9.953689E0,2.4412642E1,1.2638143E1,1.006234E1,4.2155905E0,4.351731E1,3.7759287E0],"tree_param":{"num_deleted":"0","num_feature":"1995","num_nodes":"71","size_leaf_vector":"1"}},{"base_weights":[-6.70829E-4,-1.07277974E-1,1.0802549E0,1.3751066E-2,-8.819205E-1,-5.1614363E-3,1.2857407E0,4.9410278E-1,-1.8817812E-1,3.9232265E-2,-1.0689785E0,1.8383717E-2,6.797964E-2,6.6946185E-1,-5.059611E-1,6.899152E-1,-2.837529E-1,2.4458993E-2,-1.2320505E0,8.7356955E-1,-1.826351E-1,-9.09503E-1,2.7283488E-2,-2.3733275E-2,1.0150585E0,-6.2619627E-1,-1.11857E-3,-7.1169585E-2,3.9336603E-4,9.999356E-1,-2.5882712E-2,6.055911E-1,-5.174109E-2,-6.139153E-2,-3.1981437E-4,3.3137102E-3,6.786961E-2,-1.3204435E0,-3.4290326E-1,-2.8624427E-1,5.577365E-1,5.6736816E-2,-2.8563774E-4,-1.43374E-2,5.636887E-2,-7.1722895E-2,-1.5890373E-2,3.4975793E-2,-3.3288967E-2,2.8126061E-2,-2.9492905E-2,-6.3024447E-3,5.5339057E-2],"categories":[],"categories_nodes":[],"categories_segments":[],"categories_sizes":[],"default_left":[0,0,0,0,0,0,0,0,0,0,0,0,0,0,0,0,0,0,0,0,0,0,0,0,0,0,0,0,0,0,0,0,0,0,0,0,0,0,0,0,0,0,0,0,0,0,0,0,0,0,0,0,0],"id":12,"left_children":[1,3,5,7,9,-1,11,13,15,-1,17,-1,-1,19,21,23,25,-1,27,29,31,33,-1,-1,35,37,39,-1,-1,41,-1,43,-1,-1,-1,-1,-1,45,47,49,51,-1,-1,-1,-1,-1,-1,-1,-1,-1,-1,-1,-1],"loss_changes":[4.415249E1,3.288742E1,8.746521E0,2.9724611E1,1.6477177E1,0E0,8.290825E-1,1.6605946E1,1.8434898E1,0E0,1.2333023E1,0E0,0E0,1.3978958E1,7.220851E0,9.208635E0,1.8891441E1,0E0,9.655392E0,1.2244095E1,1.248743E1,3.1275635E0,0E0,0E0,5.3990192E0,1.6312561E1,1.7733648E1,0E0,0E0,8.116638E0,0E0,5.319558E0,0E0,0E0,0E0,0E0,0E0,1.7494087E0,2.3000294E1,1.9715212E1,1.4470144E1,0E0,0E0,0E0,0E0,0E0,0E0,0E0,0E0,0E0,0E0,0E0,0E0],"parents":[2147483647,0,0,1,1,2,2,3,3,4,4,6,6,7,7,8,8,10,10,13,13,14,14,15,15,16,16,18,18,19,19,20,20,21,21,24,24,25,25,26,26,29,29,31,31,37,37,38,38,39,39,40,40],"right_children":[2,4,6,8,10,-1,12,14,16,-1,18,-1,-1,20,22,24,26,-1,28,30,32,34,-1,-1,36,38,40,-1,-1,42,-1,44,-1,-1,-1,-1,-1,46,48,50,52,-1,-1,-1,-1,-1,-1,-1,-1,-1,-1,-1,-1],"split_conditions":[4.865825E-1,1.064948E-1,9.911171E-1,6.0301296E-2,6.873037E-2,-5.1614363E-3,4.4243813E-1,3.5360032E-1,3.960586E-2,3.9232265E-2,3.6373775E-2,1.8383717E-2,6.797964E-2,2.8411713E-1,1.1807781E-2,7.250738E-2,5.671226E-1,2.4458993E-2,2.1091348E-1,1.7475879E-1,7.276001E-2,1.7085016E-1,2.7283488E-2,-2.3733275E-2,1.6214916E0,1.0003507E0,3.001275E-4,-7.1169585E-2,3.9336603E-4,1.4907277E0,-2.5882712E-2,5.394595E-1,-5.174109E-2,-6.139153E-2,-3.1981437E-4,3.3137102E-3,6.786961E-2,7.726257E-2,3.8400748E-1,1.4460626E-1,7.9149556E-1,5.6736816E-2,-2.8563774E-4,-1.43374E-2,5.636887E-2,-7.1722895E-2,-1.5890373E-2,3.4975793E-2,-3.3288967E-2,2.8126061E-2,-2.9492905E-2,-6.3024447E-3,5.5339057E-2],"split_indices":[61,1872,950,1922,1981,0,719,417,1709,0,1649,0,0,1693,1370,46,555,0,280,1776,322,145,0,0,930,812,1446,0,0,788,0,1071,0,0,0,0,0,1646,220,336,882,0,0,0,0,0,0,0,0,0,0,0,0],"split_type":[0,0,0,0,0,0,0,0,0,0,0,0,0,0,0,0,0,0,0,0,0,0,0,0,0,0,0,0,0,0,0,0,0,0,0,0,0,0,0,0,0,0,0,0,0,0,0,0,0,0,0,0,0],"sum_hessian":[3.799867E2,3.4759854E2,3.2388157E1,3.0221616E2,4.5382412E1,4.8667865E0,2.752137E1,8.873459E1,2.1348155E2,3.8810296E0,4.150138E1,3.0401335E0,2.4481236E1,7.614404E1,1.2590541E1,1.9631714E1,1.9384984E2,3.4948823E0,3.80065E1,6.1483505E1,1.4660542E1,9.363051E0,3.2274892E0,4.0169024E0,1.5614811E1,8.6391655E1,1.0745818E2,3.2739E1,5.2674994E0,5.6945484E1,4.538021E0,7.855771E0,6.80477E0,6.309293E0,3.0537584E0,4.850596E0,1.07642145E1,2.2812206E1,6.357945E1,7.191962E1,3.5538567E1,5.007585E1,6.86963E0,3.1603348E0,4.6954365E0,1.9620014E1,3.1921928E0,1.4410806E1,4.9168644E1,1.8412321E1,5.3507298E1,1.6432312E1,1.9106255E1],"tree_param":{"num_deleted":"0","num_feature":"1995","num_nodes":"53","size_leaf_vector":"1"}},{"base_weights":[2.0040762E-2,2.538361E-1,-4.1089857E-1,5.2602667E-1,-3.431307E-1,5.079631E-1,-5.913889E-1,7.382144E-1,-1.3472049E-2,-5.765346E-1,7.7626914E-1,1.0932822E0,-1.7387542E-1,-1.0236696E0,-2.1228127E-1,8.894202E-1,-7.216748E-4,-4.0614557E-1,7.748144E-1,-8.4771633E-1,2.1694432E-1,-2.0240692E-2,5.879401E-2,1.7326145E-2,6.262848E-2,4.4446833E-2,-7.4176633E-1,2.0642642E-2,-1.134297E0,6.9681346E-1,-6.952812E-1,1.1211668E0,4.48245E-1,4.8941635E-2,-4.9224454E-1,-7.975715E-1,7.1665376E-1,-2.6994854E-2,5.994565E-2,-1.0467609E0,1.1141607E-1,-4.5976706E-2,8.44349E-1,-2.643191E-3,-5.372752E-2,3.1942248E-4,-1.2274773E0,1.2328398E0,-3.8376093E-1,-1.0002439E0,3.4500182E-1,7.611013E-2,1.2334182E0,-1.4245293E-1,1.0994884E0,1.688481E-2,-1.0212716E0,-1.1072406E0,3.358793E-2,5.9129782E-2,-1.013843E-2,7.909915E-3,-1.1572385E0,4.49184E-2,-2.7304819E-2,6.254025E-2,-1.2276288E-2,-1.2217454E-2,-1.3384585E0,1.3492097E-2,7.077499E-2,-5.2056737E-2,2.5499186E-2,-1.1968963E0,7.093761E-3,5.1951576E-2,-2.7337147E-2,4.0594812E-2,-3.657989E-2,1.9815579E-2,6.731775E-2,-3.3465758E-2,3.92934E-2,5.4671047E-3,6.343901E-2,-1.4943232E-2,-6.2013786E-2,-1.3173126E-2,-6.766693E-2,-6.322651E-2,-0E0,-1.2853813E-2,-7.0585094E-2,-7.5378786E-3,-6.579928E-2],"categories":[],"categories_nodes":[],"categories_segments":[],"categories_sizes":[],"default_left":[0,0,0,0,0,0,0,0,0,0,0,0,0,0,0,0,0,0,0,0,0,0,0,0,0,0,0,0,0,0,0,0,0,0,0,0,0,0,0,0,0,0,0,0,0,0,0,0,0,0,0,0,0,0,0,0,0,0,0,0,0,0,0,0,0,0,0,0,0,0,0,0,0,0,0,0,0,0,0,0,0,0,0,0,0,0,0,0,0,0,0,0,0,0,0],"id":13,"left_children":[1,3,5,7,9,11,13,15,17,19,21,23,25,27,29,31,33,35,37,39,41,-1,-1,-1,-1,-1,43,-1,45,47,49,51,53,-1,55,57,59,-1,-1,61,63,-1,65,-1,-1,-1,67,69,71,73,75,77,79,81,83,-1,85,87,-1,-1,-1,-1,89,-1,-1,-1,-1,-1,91,-1,-1,-1,-1,93,-1,-1,-1,-1,-1,-1,-1,-1,-1,-1,-1,-1,-1,-1,-1,-1,-1,-1,-1,-1,-1],"loss_changes":[3.8665817E1,4.082944E1,2.2984686E1,1.9769012E1,2.1530094E1,9.7053795E0,1.8088535E1,1.3892845E1,1.6178263E1,1.4769684E1,7.8341103E0,4.948225E-1,8.747963E0,9.35458E0,2.8748407E1,9.334404E0,1.1926522E1,1.6536263E1,1.1031592E1,9.90387E0,1.4716295E1,0E0,0E0,0E0,0E0,0E0,1.8804688E0,0E0,5.384186E0,1.4282308E1,1.4203234E1,7.403389E0,1.534915E1,0E0,8.058669E0,1.3802561E1,4.8771753E0,0E0,0E0,6.0335274E0,6.368047E0,0E0,6.4739122E0,0E0,0E0,0E0,4.1764297E0,1.8518219E0,6.4315953E0,7.9391785E0,8.00688E0,6.308588E0,4.3576202E0,1.1827532E1,2.7330055E0,0E0,8.01589E-1,3.9191875E0,0E0,0E0,0E0,0E0,4.7626266E0,0E0,0E0,0E0,0E0,0E0,2.3188171E0,0E0,0E0,0E0,0E0,3.0385246E0,0E0,0E0,0E0,0E0,0E0,0E0,0E0,0E0,0E0,0E0,0E0,0E0,0E0,0E0,0E0,0E0,0E0,0E0,0E0,0E0,0E0],"parents":[2147483647,0,0,1,1,2,2,3,3,4,4,5,5,6,6,7,7,8,8,9,9,10,10,11,11,12,12,13,13,14,14,15,15,16,16,17,17,18,18,19,19,20,20,26,26,28,28,29,29,30,30,31,31,32,32,34,34,35,35,36,36,39,39,40,40,42,42,46,46,47,47,48,48,49,49,50,50,51,51,52,52,53,53,54,54,56,56,57,57,62,62,68,68,73,73],"right_children":[2,4,6,8,10,12,14,16,18,20,22,24,26,28,30,32,34,36,38,40,42,-1,-1,-1,-1,-1,44,-1,46,48,50,52,54,-1,56,58,60,-1,-1,62,64,-1,66,-1,-1,-1,68,70,72,74,76,78,80,82,84,-1,86,88,-1,-1,-1,-1,90,-1,-1,-1,-1,-1,92,-1,-1,-1,-1,94,-1,-1,-1,-1,-1,-1,-1,-1,-1,-1,-1,-1,-1,-1,-1,-1,-1,-1,-1,-1,-1],"split_conditions":[7.9141915E-1,1.5825592E-1,1.0985706E0,4.1270684E-2,1.3817959E0,9.112254E-2,1.8094578E-1,1.1313445E-1,5.4387793E-2,1.00298725E-1,6.2288698E-2,1.8449664E-1,9.834421E-2,3.6286604E-1,1.4990804E0,1.4560103E-1,1.8146627E0,1.455276E-1,9.826904E-2,1.8454785E0,8.625852E-2,-2.0240692E-2,5.879401E-2,1.7326145E-2,6.262848E-2,4.4446833E-2,8.4412384E-1,2.0642642E-2,2.6342905E-1,1.4214459E-1,4.8817977E-2,8.936988E-2,6.858971E-1,4.8941635E-2,1.6080867E-1,1.3202186E-1,7.487812E-1,-2.6994854E-2,5.994565E-2,1.4691009E-1,2.79431E-1,-4.5976706E-2,4.8968747E-1,-2.643191E-3,-5.372752E-2,3.1942248E-4,1.9686066E-5,1.1046996E-3,1.0260413E0,1.259957E-1,8.833711E-1,1.8228757E-1,9.113802E-2,9.220558E-2,9.327415E-1,1.688481E-2,2.0329449E-1,1.385648E-1,3.358793E-2,5.9129782E-2,-1.013843E-2,7.909915E-3,1.067745E0,4.49184E-2,-2.7304819E-2,6.254025E-2,-1.2276288E-2,-1.2217454E-2,1.236314E-1,1.3492097E-2,7.077499E-2,-5.2056737E-2,2.5499186E-2,1.4300327E0,7.093761E-3,5.1951576E-2,-2.7337147E-2,4.0594812E-2,-3.657989E-2,1.9815579E-2,6.731775E-2,-3.3465758E-2,3.92934E-2,5.4671047E-3,6.343901E-2,-1.4943232E-2,-6.2013786E-2,-1.3173126E-2,-6.766693E-2,-6.322651E-2,-0E0,-1.2853813E-2,-7.0585094E-2,-7.5378786E-3,-6.579928E-2],"split_indices":[897,1936,720,1638,1017,1870,316,1818,1877,1860,236,228,1627,1053,399,271,1012,1822,1615,939,1818,0,0,0,0,0,885,0,1523,216,80,316,150,0,1859,1654,597,0,0,286,253,0,392,0,0,0,1135,487,786,1990,784,78,229,1723,618,0,1706,1854,0,0,0,0,615,0,0,0,0,0,468,0,0,0,0,771,0,0,0,0,0,0,0,0,0,0,0,0,0,0,0,0,0,0,0,0,0],"split_type":[0,0,0,0,0,0,0,0,0,0,0,0,0,0,0,0,0,0,0,0,0,0,0,0,0,0,0,0,0,0,0,0,0,0,0,0,0,0,0,0,0,0,0,0,0,0,0,0,0,0,0,0,0,0,0,0,0,0,0,0,0,0,0,0,0,0,0,0,0,0,0,0,0,0,0,0,0,0,0,0,0,0,0,0,0,0,0,0,0,0,0,0,0,0,0],"sum_hessian":[3.7985916E2,2.4694133E2,1.3291785E2,1.6988599E2,7.705534E1,2.1135576E1,1.11782265E2,1.2153451E2,4.835147E1,6.4637215E1,1.2418129E1,1.08022585E1,1.0333319E1,5.0516357E1,6.1265907E1,1.00664024E2,2.0870487E1,3.3006275E1,1.5345195E1,4.8165394E1,1.6471825E1,3.0695477E0,9.348581E0,3.1259792E0,7.676279E0,3.143495E0,7.1898236E0,3.1568003E0,4.7359554E1,2.0877748E1,4.0388157E1,6.3826855E1,3.6837166E1,6.2428417E0,1.46276455E1,2.4969786E1,8.03649E0,3.5520139E0,1.179318E1,3.9822697E1,8.342697E0,5.4710207E0,1.1000804E1,3.1946728E0,3.9951506E0,3.6361833E0,4.3723373E1,1.3828665E1,7.049084E0,3.1366161E1,9.021997E0,6.602716E0,5.722414E1,2.005533E1,1.6781836E1,5.9023347E0,8.725311E0,2.1086596E1,3.8831894E0,5.0258136E0,3.0106764E0,3.1959498E0,3.6626747E1,3.5332935E0,4.809404E0,7.8643303E0,3.1364734E0,5.1760206E0,3.854735E1,3.082025E0,1.0746639E1,3.9360638E0,3.1130204E0,2.6751644E1,4.6145167E0,4.9507327E0,4.071265E0,3.5145514E0,3.0881643E0,7.9798417E0,4.9244297E1,1.3218812E1,6.836517E0,3.0172324E0,1.3764604E1,3.2362232E0,5.489088E0,5.7882648E0,1.5298331E1,3.332851E1,3.2982357E0,3.1040175E0,3.5443333E1,3.2830706E0,2.3468573E1],"tree_param":{"num_deleted":"0","num_feature":"1995","num_nodes":"95","size_leaf_vector":"1"}},{"base_weights":[2.2603638E-2,6.85464E-1,-1.4373627E-1,-4.3127242E-2,1.080129E0,-1.8447027E-2,-8.2509816E-1,-5.1042385E-2,3.9529628E-1,-1.01993345E-2,1.2620292E0,-6.122873E-1,1.3504146E-1,-1.0181571E0,4.0119726E-2,9.5587105E-1,-7.1328306E-1,1.3515705E0,6.3868286E-4,5.1352274E-1,-9.343336E-1,2.7492437E-1,-5.976761E-1,2.8407706E-3,-1.1923455E0,6.377986E-2,-1.302284E-4,-5.1828533E-2,-3.8192004E-3,2.1016655E-2,7.022754E-2,-3.7395734E-2,5.2770317E-2,3.9157692E-2,-1.1149843E0,3.645666E-1,-8.569508E-1,-8.932147E-1,4.7949594E-1,-1.2739867E0,-8.088083E-3,-1.2670541E0,3.5767218E-3,4.6650302E-1,-5.503429E-1,7.4108834E-3,-6.0462702E-2,-1.1166494E0,1.918785E-2,4.9310397E-2,-1.0730367E-2,-6.667339E-2,-1.99504E-2,-1.0166067E-2,-6.803028E-2,-4.8749506E-2,2.6441593E-2,-5.8115937E-2,8.216717E-3,-6.4499006E-2,-5.6288945E-3],"categories":[],"categories_nodes":[],"categories_segments":[],"categories_sizes":[],"default_left":[0,0,0,0,0,0,0,0,0,0,0,0,0,0,0,0,0,0,0,0,0,0,0,0,0,0,0,0,0,0,0,0,0,0,0,0,0,0,0,0,0,0,0,0,0,0,0,0,0,0,0,0,0,0,0,0,0,0,0,0,0],"id":14,"left_children":[1,3,5,7,9,11,13,-1,15,-1,17,19,21,23,-1,25,27,29,-1,31,33,35,37,-1,39,-1,-1,-1,-1,-1,-1,-1,-1,-1,41,43,45,47,49,51,-1,53,-1,55,57,-1,-1,59,-1,-1,-1,-1,-1,-1,-1,-1,-1,-1,-1,-1,-1],"loss_changes":[4.16025E1,2.1964397E1,2.5609247E1,1.3057179E1,1.2128757E1,2.361071E1,1.6307846E1,0E0,1.4438692E1,0E0,4.695122E0,2.02962E1,2.135728E1,8.230423E0,0E0,4.6885357E0,1.4060664E0,6.3482666E-1,0E0,1.0535707E1,1.4859879E1,1.8233084E1,1.1548433E1,0E0,2.544918E0,0E0,0E0,0E0,0E0,0E0,0E0,0E0,0E0,0E0,7.3420525E0,1.568277E1,5.1695385E0,8.64089E0,3.465866E0,5.199623E-1,0E0,2.750637E0,0E0,1.4248634E1,7.975475E0,0E0,0E0,3.6727467E0,0E0,0E0,0E0,0E0,0E0,0E0,0E0,0E0,0E0,0E0,0E0,0E0,0E0],"parents":[2147483647,0,0,1,1,2,2,3,3,4,4,5,5,6,6,8,8,10,10,11,11,12,12,13,13,15,15,16,16,17,17,19,19,20,20,21,21,22,22,24,24,34,34,35,35,36,36,37,37,38,38,39,39,41,41,43,43,44,44,47,47],"right_children":[2,4,6,8,10,12,14,-1,16,-1,18,20,22,24,-1,26,28,30,-1,32,34,36,38,-1,40,-1,-1,-1,-1,-1,-1,-1,-1,-1,42,44,46,48,50,52,-1,54,-1,56,58,-1,-1,60,-1,-1,-1,-1,-1,-1,-1,-1,-1,-1,-1,-1,-1],"split_conditions":[9.48255E-3,6.1890125E-2,1.0576395E-1,2.7190806E-2,2.8807825E-1,8.085221E-2,2.0675987E-2,-5.1042385E-2,9.5751905E-1,-1.01993345E-2,9.3148055E-4,8.425934E-2,4.2245936E-2,5.355019E-3,4.0119726E-2,1.0486307E-1,1.4371736E0,2.8108072E-4,6.3868286E-4,1.2954826E0,1.0655549E0,1.1379685E0,2.154166E-1,2.8407706E-3,3.2724562E-1,6.377986E-2,-1.302284E-4,-5.1828533E-2,-3.8192004E-3,2.1016655E-2,7.022754E-2,-3.7395734E-2,5.2770317E-2,3.9157692E-2,7.474029E-1,1.70503E-1,1.2556765E-2,6.496382E-1,1.1348486E0,9.2698894E-2,-8.088083E-3,5.255659E-2,3.5767218E-3,1.7934555E-1,1.0978184E0,7.4108834E-3,-6.0462702E-2,6.622229E-1,1.918785E-2,4.9310397E-2,-1.0730367E-2,-6.667339E-2,-1.99504E-2,-1.0166067E-2,-6.803028E-2,-4.8749506E-2,2.6441593E-2,-5.8115937E-2,8.216717E-3,-6.4499006E-2,-5.6288945E-3],"split_indices":[1629,1725,1872,211,432,1619,1370,0,705,0,1445,1200,1695,1217,0,1938,825,1387,0,1500,776,885,1644,0,226,0,0,0,0,0,0,0,0,0,562,1936,224,677,561,1988,0,1992,0,1669,669,0,0,335,0,0,0,0,0,0,0,0,0,0,0,0,0],"split_type":[0,0,0,0,0,0,0,0,0,0,0,0,0,0,0,0,0,0,0,0,0,0,0,0,0,0,0,0,0,0,0,0,0,0,0,0,0,0,0,0,0,0,0,0,0,0,0,0,0,0,0,0,0,0,0,0,0,0,0,0,0],"sum_hessian":[3.7303378E2,7.370012E1,2.9933368E2,2.6432024E1,4.7268093E1,2.5470016E2,4.463351E1,7.4311457E0,1.9000877E1,5.7665787E0,4.1501514E1,5.121701E1,2.0348315E2,4.062471E1,4.0088005E0,1.2862442E1,6.1384363E0,3.8498272E1,3.0032449E0,1.1058622E1,4.015839E1,1.720275E2,3.1455662E1,5.7727513E0,3.4851955E1,9.227098E0,3.6353436E0,3.1350374E0,3.003399E0,3.1357663E0,3.5362503E1,3.039073E0,8.019549E0,3.1344588E0,3.702393E1,1.6074127E2,1.1286216E1,2.5024263E1,6.4313974E0,3.1766104E1,3.085853E0,3.277222E1,4.251709E0,1.4560764E2,1.513364E1,3.1561186E0,8.130097E0,2.1578102E1,3.4461625E0,3.3142853E0,3.117112E0,2.865579E1,3.1103141E0,3.248672E0,2.952355E1,4.754705E0,1.4085292E2,7.5531325E0,7.580508E0,1.78309E1,3.7472012E0],"tree_param":{"num_deleted":"0","num_feature":"1995","num_nodes":"61","size_leaf_vector":"1"}},{"base_weights":[-1.2581045E-3,-1.1120215E-1,1.0704366E0,1.8289682E-2,-7.839503E-1,-1.2202688E-2,1.2160269E0,-5.166895E-2,1.1760318E0,1.9005321E-1,-1.1366063E0,1.3017142E-2,6.499583E-2,3.2028228E-1,-2.577396E-1,6.630296E-2,1.5113989E-2,9.040177E-1,-4.4015687E-2,-1.2866521E-2,-1.2679285E0,-4.5089135E-1,5.6594086E-1,-9.56174E-1,-8.7292306E-2,4.681516E-3,6.032098E-2,-6.716807E-2,-1.5515353E-2,3.5833295E-2,-7.3880285E-1,-4.1116063E-2,6.892738E-1,-1.7679375E-1,-1.1856982E0,-3.9256954E-1,2.191178E-1,3.194134E-2,-5.2820016E-2,-2.7977988E-2,4.0012028E-2,3.4966685E-2,-4.4436242E-2,-6.570245E-2,-1.5767802E-2,6.7768837E-3,-4.0524587E-2,-2.305763E-2,2.3392824E-2],"categories":[],"categories_nodes":[],"categories_segments":[],"categories_sizes":[],"default_left":[0,0,0,0,0,0,0,0,0,0,0,0,0,0,0,0,0,0,0,0,0,0,0,0,0,0,0,0,0,0,0,0,0,0,0,0,0,0,0,0,0,0,0,0,0,0,0,0,0],"id":15,"left_children":[1,3,5,7,9,-1,11,13,15,17,19,-1,-1,21,23,-1,-1,25,-1,-1,27,29,31,33,35,-1,-1,-1,-1,-1,37,-1,39,41,43,45,47,-1,-1,-1,-1,-1,-1,-1,-1,-1,-1,-1,-1],"loss_changes":[4.424947E1,2.9847107E1,7.376251E0,2.3570774E1,1.951397E1,0E0,1.7208595E0,2.1125631E1,1.2094612E0,1.4075142E1,3.922844E0,0E0,0E0,1.9133085E1,2.0836224E1,0E0,0E0,2.3005495E0,0E0,0E0,1.5304031E0,9.380598E0,1.4045864E1,5.6099453E0,1.3737663E1,0E0,0E0,0E0,0E0,0E0,1.0538839E1,0E0,1.0687557E1,7.6805677E0,1.9322815E0,1.6494593E1,1.2853113E1,0E0,0E0,0E0,0E0,0E0,0E0,0E0,0E0,0E0,0E0,0E0,0E0],"parents":[2147483647,0,0,1,1,2,2,3,3,4,4,6,6,7,7,8,8,9,9,10,10,13,13,14,14,17,17,20,20,21,21,22,22,23,23,24,24,30,30,32,32,33,33,34,34,35,35,36,36],"right_children":[2,4,6,8,10,-1,12,14,16,18,20,-1,-1,22,24,-1,-1,26,-1,-1,28,30,32,34,36,-1,-1,-1,-1,-1,38,-1,40,42,44,46,48,-1,-1,-1,-1,-1,-1,-1,-1,-1,-1,-1,-1],"split_conditions":[4.8061454E-1,9.925963E-2,3.871867E-2,2.1336693E-1,1.2005256E-1,-1.2202688E-2,4.5089785E-2,1.3648736E0,3.6952066E-1,1.5472438E0,1.923183E-1,1.3017142E-2,6.499583E-2,4.2712387E-1,2.5873065E0,6.630296E-2,1.5113989E-2,8.575362E-1,-4.4015687E-2,-1.2866521E-2,1.6142094E0,8.48799E-3,1.0548949E0,1.0263764E0,4.068893E-3,4.681516E-3,6.032098E-2,-6.716807E-2,-1.5515353E-2,3.5833295E-2,7.476559E-1,-4.1116063E-2,7.4497676E-1,7.6414144E-1,2.094335E0,1.5545803E-1,2.1302795E-2,3.194134E-2,-5.2820016E-2,-2.7977988E-2,4.0012028E-2,3.4966685E-2,-4.4436242E-2,-6.570245E-2,-1.5767802E-2,6.7768837E-3,-4.0524587E-2,-2.305763E-2,2.3392824E-2],"split_indices":[61,1872,1617,1947,1731,0,1526,771,126,771,1622,0,0,555,1004,0,0,500,0,0,812,1629,888,613,1370,0,0,0,0,0,950,0,971,821,1008,136,1779,0,0,0,0,0,0,0,0,0,0,0,0],"split_type":[0,0,0,0,0,0,0,0,0,0,0,0,0,0,0,0,0,0,0,0,0,0,0,0,0,0,0,0,0,0,0,0,0,0,0,0,0,0,0,0,0,0,0,0,0,0,0,0,0],"sum_hessian":[3.723414E2,3.3940768E2,3.2933697E1,2.8612985E2,5.3277832E1,3.0805812E0,2.9853117E1,2.715456E2,1.458426E1,1.4332202E1,3.894563E1,3.1674874E0,2.6685629E1,9.624057E1,1.7530502E2,1.1465763E1,3.1184962E0,8.839957E0,5.492245E0,5.9288945E0,3.3016735E1,2.2748941E1,7.349163E1,3.2465656E1,1.4283937E2,3.2039165E0,5.63604E0,2.976228E1,3.2544549E0,3.8421803E0,1.8906761E1,5.005284E0,6.848634E1,8.290464E0,2.4175192E1,7.143373E1,7.140565E1,3.104174E0,1.5802587E1,4.8555064E0,6.363084E1,3.6695335E0,4.6209307E0,2.0079517E1,4.095675E0,3.204817E1,3.938556E1,1.855366E1,5.2851986E1],"tree_param":{"num_deleted":"0","num_feature":"1995","num_nodes":"49","size_leaf_vector":"1"}},{"base_weights":[8.64846E-3,4.5652717E-1,-1.9328415E-1,-6.8302095E-1,6.4511293E-1,3.3701435E-1,-4.3222478E-1,3.1055778E-2,-1.0641509E0,8.4021336E-1,-6.924373E-1,6.269189E-1,-4.8061666E-1,-6.675882E-1,-1.01392396E-1,-1.1189999E-2,-6.254925E-2,-2.4301219E-1,1.0398225E0,2.6401028E-2,-5.9458446E-2,-4.3563086E-1,7.978447E-1,2.8992334E-2,-8.5596323E-1,-7.366756E-1,3.834295E-2,-6.521217E-1,3.0504236E-1,4.5507297E-2,-8.478346E-1,-8.275733E-3,1.1358231E0,1.5886975E-2,-5.1341582E-2,-1.0498058E-1,1.0443772E0,-6.0451597E-2,1.2984849E-2,4.084789E-1,-8.350384E-1,-1.1879073E0,-6.3557E-2,6.635383E-1,-6.087803E-1,2.1636407E-3,-6.10264E-2,1.2202524E0,-1.7402941E-2,-6.310425E-1,4.678673E-2,1.1588707E0,-7.989628E-3,5.3204495E-2,-1.8155446E-2,-9.3670976E-1,-8.28711E-2,-1.1883667E-2,-6.8314485E-2,-7.714553E-1,6.6226363E-1,1.0029582E0,-4.321674E-1,2.323634E-2,-5.165249E-2,6.4462386E-2,-1.4170156E-3,5.9799976E-3,-5.1362436E-2,6.327277E-2,6.1476356E-3,-5.278341E-2,-4.271176E-3,-4.807243E-2,4.955749E-2,-5.7461668E-2,1.1620956E-3,5.3204756E-2,-3.798882E-3,6.275337E-2,4.761906E-3,-4.6805978E-2,1.6931603E-2],"categories":[],"categories_nodes":[],"categories_segments":[],"categories_sizes":[],"default_left":[0,0,0,0,0,0,0,0,0,0,0,0,0,0,0,0,0,0,0,0,0,0,0,0,0,0,0,0,0,0,0,0,0,0,0,0,0,0,0,0,0,0,0,0,0,0,0,0,0,0,0,0,0,0,0,0,0,0,0,0,0,0,0,0,0,0,0,0,0,0,0,0,0,0,0,0,0,0,0,0,0,0,0],"id":16,"left_children":[1,3,5,7,9,11,13,-1,15,17,19,21,23,25,27,-1,-1,29,31,-1,-1,33,35,-1,37,39,-1,41,43,-1,45,-1,47,-1,-1,49,51,-1,-1,53,55,57,59,61,63,-1,-1,65,-1,67,-1,69,-1,-1,-1,71,73,-1,-1,75,77,79,81,-1,-1,-1,-1,-1,-1,-1,-1,-1,-1,-1,-1,-1,-1,-1,-1,-1,-1,-1,-1],"loss_changes":[3.3116024E1,2.5341621E1,3.224182E1,9.84603E0,2.6955135E1,1.9412836E1,1.3397503E1,0E0,1.4904432E0,1.9433693E1,9.569956E0,1.1537012E1,9.69664E0,1.1194973E1,1.7263107E1,0E0,0E0,1.2073722E1,9.043373E0,0E0,0E0,4.9356203E0,1.1895992E1,0E0,7.410103E0,1.1764954E1,0E0,1.0026164E1,1.539872E1,0E0,3.8772392E0,0E0,9.572769E0,0E0,0E0,8.208964E0,6.1432E0,0E0,0E0,5.4033947E0,6.7016335E0,2.0547428E0,1.0163191E1,1.3201452E1,7.16981E0,0E0,0E0,5.8615646E0,0E0,3.2576604E0,0E0,3.7338142E0,0E0,0E0,0E0,7.791733E0,1.4308256E1,0E0,0E0,3.1651368E0,3.1618614E0,5.5476475E0,4.242511E0,0E0,0E0,0E0,0E0,0E0,0E0,0E0,0E0,0E0,0E0,0E0,0E0,0E0,0E0,0E0,0E0,0E0,0E0,0E0,0E0],"parents":[2147483647,0,0,1,1,2,2,3,3,4,4,5,5,6,6,8,8,9,9,10,10,11,11,12,12,13,13,14,14,17,17,18,18,21,21,22,22,24,24,25,25,27,27,28,28,30,30,32,32,35,35,36,36,39,39,40,40,41,41,42,42,43,43,44,44,47,47,49,49,51,51,55,55,56,56,59,59,60,60,61,61,62,62],"right_children":[2,4,6,8,10,12,14,-1,16,18,20,22,24,26,28,-1,-1,30,32,-1,-1,34,36,-1,38,40,-1,42,44,-1,46,-1,48,-1,-1,50,52,-1,-1,54,56,58,60,62,64,-1,-1,66,-1,68,-1,70,-1,-1,-1,72,74,-1,-1,76,78,80,82,-1,-1,-1,-1,-1,-1,-1,-1,-1,-1,-1,-1,-1,-1,-1,-1,-1,-1,-1,-1],"split_conditions":[4.2014487E-2,5.9192076E-2,3.5837826E-1,4.5542017E-1,6.366789E-2,1.491242E-1,1.0187904E-1,3.1055778E-2,3.5341614E-1,9.9972445E-1,6.359886E-2,2.196489E-1,3.7710717E-1,8.7640254E-4,5.8478236E-2,-1.1189999E-2,-6.254925E-2,1.6118214E-5,1.989249E-1,2.6401028E-2,-5.9458446E-2,8.80492E-2,9.08798E-3,2.8992334E-2,7.186617E-3,3.4792589E-3,3.834295E-2,5.281024E-1,9.608596E-1,4.5507297E-2,9.1888255E-4,-8.275733E-3,5.7148825E-2,1.5886975E-2,-5.1341582E-2,7.109439E-2,6.767299E-2,-6.0451597E-2,1.2984849E-2,1.3899635E-1,1.0190887E-1,2.3465917E-2,1.2434511E-1,6.3818026E-1,4.094872E-1,2.1636407E-3,-6.10264E-2,3.747736E-1,-1.7402941E-2,1.7790154E-1,4.678673E-2,2.9679903E-1,-7.989628E-3,5.3204495E-2,-1.8155446E-2,2.2040882E0,1.0418851E-1,-1.1883667E-2,-6.8314485E-2,5.763501E-5,4.9230704E-1,1.5449941E-1,6.847096E-3,2.323634E-2,-5.165249E-2,6.4462386E-2,-1.4170156E-3,5.9799976E-3,-5.1362436E-2,6.327277E-2,6.1476356E-3,-5.278341E-2,-4.271176E-3,-4.807243E-2,4.955749E-2,-5.7461668E-2,1.1620956E-3,5.3204756E-2,-3.798882E-3,6.275337E-2,4.761906E-3,-4.6805978E-2,1.6931603E-2],"split_indices":[1645,343,1043,361,1883,1936,1892,0,13,535,1682,374,233,1371,1974,0,0,428,163,0,0,1847,1562,0,1102,1528,0,1061,897,0,1419,0,1766,0,0,1752,1987,0,0,1843,1722,1973,1557,33,1059,0,0,278,0,1952,0,1747,0,0,0,934,1873,0,0,1129,521,62,1385,0,0,0,0,0,0,0,0,0,0,0,0,0,0,0,0,0,0,0,0],"split_type":[0,0,0,0,0,0,0,0,0,0,0,0,0,0,0,0,0,0,0,0,0,0,0,0,0,0,0,0,0,0,0,0,0,0,0,0,0,0,0,0,0,0,0,0,0,0,0,0,0,0,0,0,0,0,0,0,0,0,0,0,0,0,0,0,0,0,0,0,0,0,0,0,0,0,0,0,0,0,0,0,0,0,0],"sum_hessian":[3.6191797E2,1.11838394E2,2.5007957E2,1.5060421E1,9.677797E1,7.7294586E1,1.7278499E2,3.0618343E0,1.1998587E1,8.5172745E1,1.1605224E1,5.7496914E1,1.9797674E1,9.95934E1,7.319159E1,3.0793006E0,8.919287E0,1.310726E1,7.206548E1,3.2623677E0,8.342856E0,7.457219E0,5.0039696E1,4.8209643E0,1.4976709E1,9.6011765E1,3.5816345E0,3.067001E1,4.252158E1,4.1052313E0,9.002028E0,5.132647E0,6.693284E1,3.61129E0,3.8459291E0,1.0892617E1,3.914708E1,1.1317389E1,3.6593213E0,7.015385E0,8.8996376E1,1.4899804E1,1.57702055E1,3.1012478E1,1.1509102E1,3.0968788E0,5.90515E0,6.3729504E1,3.2033353E0,7.8220806E0,3.0705361E0,3.5892654E1,3.2544236E0,3.4529047E0,3.5624804E0,7.784969E1,1.1146681E1,3.1808627E0,1.1718942E1,7.989761E0,7.7804446E0,2.3876686E1,7.135791E0,3.1393507E0,8.369751E0,6.04065E1,3.3230011E0,3.097505E0,4.7245755E0,3.205487E1,3.8377843E0,6.778043E1,1.0069261E1,6.297717E0,4.8489637E0,4.8959394E0,3.0938213E0,4.554216E0,3.2262287E0,1.800149E1,5.875198E0,4.1338434E0,3.0019474E0],"tree_param":{"num_deleted":"0","num_feature":"1995","num_nodes":"83","size_leaf_vector":"1"}},{"base_weights":[5.490609E-3,7.040773E-1,-1.0924637E-1,1.0427372E0,-6.251506E-1,4.3727008E-1,-2.396586E-1,-2.4769064E-2,1.1929934E0,-5.6210514E-2,2.1758271E-2,6.9948965E-1,-6.996439E-1,6.088267E-2,-5.3669024E-1,6.62364E-2,5.8948225E-3,8.7541735E-1,-3.0404383E-2,7.954115E-3,-5.336929E-2,-4.6067166E-1,4.4931936E-1,-7.928918E-1,-6.80486E-2,-2.5340213E-2,1.0111097E0,-1.0309465E0,6.82461E-2,7.475478E-1,-2.8910142E-1,-1.0697975E0,-1.7514725E-1,7.0945215E-1,-5.0873744E-1,1.1295071E0,-1.27571095E-2,-1.2009395E0,-2.109031E-4,8.0398965E-1,-3.936801E-1,-1.250997E-1,9.753306E-1,-1.0460366E0,4.2696404E-1,1.7603245E-2,-1.1840601E0,4.038004E-1,-9.190743E-1,1.1074433E0,-2.8800387E-2,7.432806E-1,-9.297194E-1,1.9425528E-4,6.197659E-2,-6.679081E-2,-1.1923618E-2,5.6693565E-2,-5.963975E-3,-4.3816116E-2,1.358261E-2,4.0161755E-2,-3.0152593E-2,-1.5996223E-2,5.6140937E-2,-6.1512966E-2,-1.6065065E-2,-2.85181E-2,5.358407E-2,-6.363314E-2,5.728946E-3,4.007642E-2,-4.051838E-2,-6.0138393E-2,-2.0037086E-3,1.337366E-2,6.661046E-2,5.2607756E-2,3.1100165E-3,-6.021411E-2,3.4047842E-3],"categories":[],"categories_nodes":[],"categories_segments":[],"categories_sizes":[],"default_left":[0,0,0,0,0,0,0,0,0,0,0,0,0,0,0,0,0,0,0,0,0,0,0,0,0,0,0,0,0,0,0,0,0,0,0,0,0,0,0,0,0,0,0,0,0,0,0,0,0,0,0,0,0,0,0,0,0,0,0,0,0,0,0,0,0,0,0,0,0,0,0,0,0,0,0,0,0,0,0,0,0],"id":17,"left_children":[1,3,5,7,9,11,13,-1,15,-1,-1,17,19,21,23,-1,-1,25,-1,-1,-1,27,29,31,33,-1,35,37,39,41,43,45,47,49,51,53,-1,55,-1,57,59,61,63,65,67,-1,69,71,73,75,-1,77,79,-1,-1,-1,-1,-1,-1,-1,-1,-1,-1,-1,-1,-1,-1,-1,-1,-1,-1,-1,-1,-1,-1,-1,-1,-1,-1,-1,-1],"loss_changes":[2.9161028E1,2.4456514E1,2.2413456E1,1.0894913E1,7.1934676E0,1.905442E1,2.2714428E1,0E0,5.0183907E0,0E0,0E0,1.2671585E1,4.312052E0,2.6238243E1,1.5139099E1,0E0,0E0,9.563656E0,0E0,0E0,0E0,1.6914509E1,1.6814753E1,1.356863E1,1.6964653E1,0E0,6.952301E0,4.550564E0,1.102985E1,1.0962795E1,1.3252071E1,1.0060974E1,1.2835102E1,1.0498676E1,1.8024954E1,4.6712036E0,0E0,2.1808472E0,0E0,4.176979E0,6.951767E0,6.6082706E0,8.963818E0,6.132479E-1,9.63851E0,0E0,6.462044E0,9.525125E0,3.0015535E0,1.8516941E0,0E0,1.6485238E0,7.0040073E0,0E0,0E0,0E0,0E0,0E0,0E0,0E0,0E0,0E0,0E0,0E0,0E0,0E0,0E0,0E0,0E0,0E0,0E0,0E0,0E0,0E0,0E0,0E0,0E0,0E0,0E0,0E0,0E0],"parents":[2147483647,0,0,1,1,2,2,3,3,4,4,5,5,6,6,8,8,11,11,12,12,13,13,14,14,17,17,21,21,22,22,23,23,24,24,26,26,27,27,28,28,29,29,30,30,31,31,32,32,33,33,34,34,35,35,37,37,39,39,40,40,41,41,42,42,43,43,44,44,46,46,47,47,48,48,49,49,51,51,52,52],"right_children":[2,4,6,8,10,12,14,-1,16,-1,-1,18,20,22,24,-1,-1,26,-1,-1,-1,28,30,32,34,-1,36,38,40,42,44,46,48,50,52,54,-1,56,-1,58,60,62,64,66,68,-1,70,72,74,76,-1,78,80,-1,-1,-1,-1,-1,-1,-1,-1,-1,-1,-1,-1,-1,-1,-1,-1,-1,-1,-1,-1,-1,-1,-1,-1,-1,-1,-1,-1],"split_conditions":[8.0957174E-2,2.582511E-2,8.2884365E-1,1.0469323E-1,3.0641708E-1,5.7335895E-1,1.0589047E-2,-2.4769064E-2,1.4573425E-1,-5.6210514E-2,2.1758271E-2,1.1171311E-1,5.5626565E-1,1.0548307E-1,1.2258498E-2,6.62364E-2,5.8948225E-3,5.721725E-2,-3.0404383E-2,7.954115E-3,-5.336929E-2,2.8532335E-1,4.1034648E-1,1.0026354E-1,8.200044E-2,-2.5340213E-2,9.615959E-2,9.703755E-1,4.0520826E-1,6.296524E-2,4.397118E-2,1.5635668E-1,2.8148636E-2,8.184984E-2,3.7787467E-1,4.1910663E-2,-1.27571095E-2,8.2625635E-2,-2.109031E-4,6.83766E-1,2.142552E0,6.1050795E-2,9.079593E-1,6.6952E-1,3.896627E-4,1.7603245E-2,7.173763E-1,2.4575586E0,4.687558E-1,7.3833334E-1,-2.8800387E-2,4.3622956E-2,3.2943872E-1,1.9425528E-4,6.197659E-2,-6.679081E-2,-1.1923618E-2,5.6693565E-2,-5.963975E-3,-4.3816116E-2,1.358261E-2,4.0161755E-2,-3.0152593E-2,-1.5996223E-2,5.6140937E-2,-6.1512966E-2,-1.6065065E-2,-2.85181E-2,5.358407E-2,-6.363314E-2,5.728946E-3,4.007642E-2,-4.051838E-2,-6.0138393E-2,-2.0037086E-3,1.337366E-2,6.661046E-2,5.2607756E-2,3.1100165E-3,-6.021411E-2,3.4047842E-3],"split_indices":[1627,1491,840,1593,227,831,1814,0,1621,0,0,1729,325,623,1834,0,0,1716,0,0,0,1669,339,1258,1725,0,1890,624,210,1964,1675,1952,1144,1674,1052,1673,0,1613,0,783,925,1003,762,20,1353,0,108,445,58,889,0,269,397,0,0,0,0,0,0,0,0,0,0,0,0,0,0,0,0,0,0,0,0,0,0,0,0,0,0,0,0],"split_type":[0,0,0,0,0,0,0,0,0,0,0,0,0,0,0,0,0,0,0,0,0,0,0,0,0,0,0,0,0,0,0,0,0,0,0,0,0,0,0,0,0,0,0,0,0,0,0,0,0,0,0,0,0,0,0,0,0,0,0,0,0,0,0,0,0,0,0,0,0,0,0,0,0,0,0,0,0,0,0,0,0],"sum_hessian":[3.591524E2,4.9339993E1,3.098124E2,3.9725136E1,9.614854E0,5.863189E1,2.5118053E2,3.0672688E0,3.6657867E1,6.519914E0,3.0949397E0,4.8340107E1,1.0291784E1,1.2547567E2,1.2570485E2,3.2159832E1,4.4980354E0,4.325752E1,5.0825872E0,3.3445954E0,6.947189E0,5.3291607E1,7.218407E1,8.024084E1,4.546401E1,3.3121045E0,3.9945415E1,2.4820782E1,2.8470825E1,5.1496647E1,2.0687418E1,5.4282925E1,2.5957918E1,1.5923593E1,2.9540415E1,3.6799534E1,3.1458824E0,2.0920307E1,3.9004748E0,1.049312E1,1.7977703E1,1.0755261E1,4.0741383E1,9.676577E0,1.1010842E1,3.6630492E0,5.0619873E1,1.5036231E1,1.0921686E1,1.2429927E1,3.493666E0,6.988275E0,2.2552141E1,3.5420132E0,3.325752E1,1.7577364E1,3.3429427E0,7.474575E0,3.0185454E0,1.0138872E1,7.8388314E0,3.1216493E0,7.633612E0,3.8565412E0,3.6884842E1,6.4930487E0,3.1835275E0,4.3528643E0,6.657978E0,4.7496334E1,3.1235397E0,1.1900142E1,3.13609E0,7.6138954E0,3.307791E0,3.6425016E0,8.787425E0,3.957177E0,3.031098E0,1.7439734E1,5.1124067E0],"tree_param":{"num_deleted":"0","num_feature":"1995","num_nodes":"81","size_leaf_vector":"1"}},{"base_weights":[8.486961E-3,-2.4167556E-1,3.414691E-1,-4.293842E-1,3.1972125E-1,1.0082835E0,1.525573E-1,-6.0773957E-1,1.0109224E-1,5.3068554E-1,-7.809691E-1,-9.741175E-3,1.1567426E0,5.1544976E-1,-2.2822115E-1,5.55667E-1,-7.079878E-1,-2.380598E-1,8.1185573E-1,-5.634925E-1,7.809351E-1,-7.6226676E-3,-5.1397134E-2,1.24298E0,1.2624382E-2,-8.847844E-1,7.79189E-1,3.2752973E-1,-6.5110993E-1,-1.2433525E-2,5.6515295E-2,-9.1112775E-1,-1.0070902E-1,5.381994E-1,-8.784938E-1,-7.4888617E-3,5.72579E-2,9.46438E-3,-4.9511563E-2,1.068394E0,1.6805627E-3,6.546306E-2,2.0559005E-2,-7.1382383E-3,-5.5644967E-2,-3.4477437E-1,9.370378E-1,-6.3553005E-1,7.1934104E-1,4.407284E-1,-1.0187196E0,9.906007E-3,-1.0215318E0,3.7466347E-1,-8.9752585E-1,8.7489676E-1,-1.450872E-2,-5.7582844E-2,-0E0,6.422518E-2,2.15607E-1,-4.1994832E-2,4.195957E-2,1.416023E-2,-4.3763485E-2,1.0836347E0,-1.6533123E-2,-5.253802E-2,7.288707E-4,-1.7999602E-2,1.0468102E0,5.072366E-2,-2.5955627E-2,-3.625681E-3,-1.2396095E0,5.1263876E-2,-3.5638724E-2,4.274876E-3,-5.4369092E-2,-4.202313E-2,4.7715705E-2,-5.94364E-2,-2.4988258E-3,7.8600515E-3,5.729517E-2,3.727066E-2,-1.915738E-2,-1.149935E-2,5.976435E-2,6.0860673E-3,6.37243E-2,-6.7665875E-2,-2.4230449E-2],"categories":[],"categories_nodes":[],"categories_segments":[],"categories_sizes":[],"default_left":[0,0,0,0,0,0,0,0,0,0,0,0,0,0,0,0,0,0,0,0,0,0,0,0,0,0,0,0,0,0,0,0,0,0,0,0,0,0,0,0,0,0,0,0,0,0,0,0,0,0,0,0,0,0,0,0,0,0,0,0,0,0,0,0,0,0,0,0,0,0,0,0,0,0,0,0,0,0,0,0,0,0,0,0,0,0,0,0,0,0,0,0,0],"id":18,"left_children":[1,3,5,7,9,11,13,15,17,19,21,-1,23,25,27,29,31,33,35,37,39,-1,-1,41,-1,43,45,47,49,-1,-1,51,53,55,57,-1,-1,-1,-1,59,61,-1,-1,-1,-1,63,65,67,69,71,73,75,77,79,81,83,-1,-1,-1,-1,85,-1,-1,-1,-1,87,-1,-1,-1,-1,89,-1,-1,-1,91,-1,-1,-1,-1,-1,-1,-1,-1,-1,-1,-1,-1,-1,-1,-1,-1,-1,-1],"loss_changes":[3.0348171E1,2.218684E1,1.9276636E1,1.5003464E1,1.3131994E1,6.628952E0,1.744533E1,1.4532753E1,1.0330392E1,1.3447948E1,1.0078049E0,0E0,1.6147232E0,2.5155725E1,1.5012753E1,5.4484963E0,1.3204788E1,1.5504132E1,4.8647366E0,3.544041E0,8.447041E0,0E0,0E0,2.6147842E-1,0E0,1.4331236E0,1.0521271E1,1.1483567E1,1.53802395E1,0E0,0E0,8.415619E0,1.2005503E1,4.576139E0,4.124214E0,0E0,0E0,0E0,0E0,4.4215755E0,1.0143786E1,0E0,0E0,0E0,0E0,3.2858095E0,9.922249E0,2.5858262E0,8.21158E0,6.8189244E0,5.448923E0,9.281781E0,5.6041946E0,1.5692216E1,2.6686144E0,1.6112118E0,0E0,0E0,0E0,0E0,3.1832442E0,0E0,0E0,0E0,0E0,7.1841774E0,0E0,0E0,0E0,0E0,3.0511513E0,0E0,0E0,0E0,4.0462112E-1,0E0,0E0,0E0,0E0,0E0,0E0,0E0,0E0,0E0,0E0,0E0,0E0,0E0,0E0,0E0,0E0,0E0,0E0],"parents":[2147483647,0,0,1,1,2,2,3,3,4,4,5,5,6,6,7,7,8,8,9,9,10,10,12,12,13,13,14,14,15,15,16,16,17,17,18,18,19,19,20,20,23,23,25,25,26,26,27,27,28,28,31,31,32,32,33,33,34,34,39,39,40,40,45,45,46,46,47,47,48,48,49,49,50,50,51,51,52,52,53,53,54,54,55,55,60,60,65,65,70,70,74,74],"right_children":[2,4,6,8,10,12,14,16,18,20,22,-1,24,26,28,30,32,34,36,38,40,-1,-1,42,-1,44,46,48,50,-1,-1,52,54,56,58,-1,-1,-1,-1,60,62,-1,-1,-1,-1,64,66,68,70,72,74,76,78,80,82,84,-1,-1,-1,-1,86,-1,-1,-1,-1,88,-1,-1,-1,-1,90,-1,-1,-1,92,-1,-1,-1,-1,-1,-1,-1,-1,-1,-1,-1,-1,-1,-1,-1,-1,-1,-1],"split_conditions":[7.003523E-3,2.5905472E-1,9.46201E-2,6.402224E-2,2.4703074E0,9.109659E-2,8.991894E-3,1.7522648E-1,1.4410119E-1,8.174373E-2,1.3274475E0,-9.741175E-3,1.8430278E0,1.1479634E-1,1.6729252E0,1.2051618E-1,4.8096515E-3,1.705518E0,1.099518E-1,9.8270565E-1,3.0032303E-2,-7.6226676E-3,-5.1397134E-2,3.9393234E-1,1.2624382E-2,1.7660055E-3,1.0445521E0,4.5517159E-1,1.0183617E-1,-1.2433525E-2,5.6515295E-2,8.313608E-1,4.303234E-2,2.9386628E-1,6.482743E-2,-7.4888617E-3,5.72579E-2,9.46438E-3,-4.9511563E-2,3.942801E0,6.198654E-2,6.546306E-2,2.0559005E-2,-7.1382383E-3,-5.5644967E-2,1.01658344E-1,4.6777463E-1,1.6408473E-2,8.505492E-1,1.6021806E-1,3.9668578E-1,3.375939E-1,2.5952563E-3,4.3093596E-2,4.3118816E-2,2.395739E-1,-1.450872E-2,-5.7582844E-2,-0E0,6.422518E-2,2.1031961E0,-4.1994832E-2,4.195957E-2,1.416023E-2,-4.3763485E-2,3.1853235E-1,-1.6533123E-2,-5.253802E-2,7.288707E-4,-1.7999602E-2,1.2144876E0,5.072366E-2,-2.5955627E-2,-3.625681E-3,6.726333E-1,5.1263876E-2,-3.5638724E-2,4.274876E-3,-5.4369092E-2,-4.202313E-2,4.7715705E-2,-5.94364E-2,-2.4988258E-3,7.8600515E-3,5.729517E-2,3.727066E-2,-1.915738E-2,-1.149935E-2,5.976435E-2,6.0860673E-3,6.37243E-2,-6.7665875E-2,-2.4230449E-2],"split_indices":[111,1925,1867,1944,445,225,1814,148,128,1836,558,0,687,23,582,1797,1180,582,52,829,1779,0,0,21,0,1255,579,878,1654,0,0,769,1583,915,412,0,0,0,0,933,1966,0,0,0,0,1628,592,48,841,1991,259,1048,1528,1968,1957,1738,0,0,0,0,650,0,0,0,0,1098,0,0,0,0,966,0,0,0,423,0,0,0,0,0,0,0,0,0,0,0,0,0,0,0,0,0,0],"split_type":[0,0,0,0,0,0,0,0,0,0,0,0,0,0,0,0,0,0,0,0,0,0,0,0,0,0,0,0,0,0,0,0,0,0,0,0,0,0,0,0,0,0,0,0,0,0,0,0,0,0,0,0,0,0,0,0,0,0,0,0,0,0,0,0,0,0,0,0,0,0,0,0,0,0,0,0,0,0,0,0,0,0,0,0,0,0,0,0,0,0,0,0,0],"sum_hessian":[3.602241E2,2.0583366E2,1.5439043E2,1.5474242E2,5.1091248E1,3.2051643E1,1.22338776E2,1.157294E2,3.9013016E1,4.38192E1,7.2720513E0,3.3780282E0,2.8673616E1,6.241286E1,5.992592E1,8.381109E0,1.073483E2,2.7215937E1,1.1797079E1,7.6160665E0,3.620313E1,3.0781164E0,4.1939344E0,2.539223E1,3.2813869E0,9.085861E0,5.3327E1,2.5987825E1,3.3938095E1,3.8927772E0,4.488332E0,7.956706E1,2.7781229E1,1.23770485E1,1.4838889E1,3.242666E0,8.554414E0,3.0732644E0,4.542802E0,2.5811222E1,1.0391908E1,2.2343563E1,3.0486665E0,3.004098E0,6.081763E0,6.1972823E0,4.712972E1,7.08177E0,1.8906055E1,8.379698E0,2.5558395E1,8.614696E0,7.095237E1,1.7985418E1,9.795811E0,8.806137E0,3.570911E0,1.0907694E1,3.9311955E0,1.9691372E1,6.11985E0,5.1209726E0,5.270935E0,3.1785004E0,3.018782E0,4.2575554E1,4.5541635E0,3.6632564E0,3.4185138E0,4.2835474E0,1.4622508E1,5.2386456E0,3.1410518E0,5.425775E0,2.013262E1,3.291316E0,5.3233795E0,3.8647797E0,6.708759E1,5.4623146E0,1.2523104E1,6.60379E0,3.1920207E0,3.3811357E0,5.4250016E0,3.075573E0,3.0442774E0,3.0990453E0,3.947651E1,3.580945E0,1.1041563E1,1.6004799E1,4.127821E0],"tree_param":{"num_deleted":"0","num_feature":"1995","num_nodes":"93","size_leaf_vector":"1"}},{"base_weights":[-4.7337567E-3,3.6310333E-1,-2.2026984E-1,-1.8027624E-1,6.3649905E-1,-2.92187E-1,5.3250927E-2,-7.6160496E-1,3.576832E-1,9.834278E-1,6.77093E-2,-3.90801E-1,7.605501E-1,-1.0434946E0,3.0902935E-2,-5.552234E-1,8.0619884E-1,-1.2381325E-2,1.0824707E0,3.671738E-1,-4.8226263E-2,-2.1046902E-1,-9.357722E-1,1.0729823E0,-1.5269737E-2,-6.2038034E-2,-1.5793614E-2,1.1466428E-2,-5.091398E-2,-1.6849143E-2,5.5841178E-2,1.1733146E0,7.830114E-3,8.160397E-1,-4.9394977E-1,7.8336394E-1,-3.311884E-1,-1.1241769E0,2.170848E-2,6.385242E-2,6.347142E-3,1.2549891E0,9.202695E-3,-1.0049206E-2,5.778977E-2,-4.8379954E-2,1.1591497E-2,5.550548E-2,-1.5028308E-2,2.7866825E-2,-6.7660236E-1,-2.3113126E-3,-1.2308172E0,2.1852655E-2,6.583392E-2,-1.0847586E-2,4.5181822E-2,-4.5409713E-2,-7.863299E-3,-6.516906E-2,-1.7411713E-2],"categories":[],"categories_nodes":[],"categories_segments":[],"categories_sizes":[],"default_left":[0,0,0,0,0,0,0,0,0,0,0,0,0,0,0,0,0,0,0,0,0,0,0,0,0,0,0,0,0,0,0,0,0,0,0,0,0,0,0,0,0,0,0,0,0,0,0,0,0,0,0,0,0,0,0,0,0,0,0,0,0],"id":19,"left_children":[1,3,5,7,9,11,-1,13,15,17,19,21,23,25,-1,27,29,-1,31,33,-1,35,37,39,-1,-1,-1,-1,-1,-1,-1,41,-1,43,45,47,49,51,-1,-1,-1,53,-1,-1,-1,-1,-1,-1,-1,55,57,-1,59,-1,-1,-1,-1,-1,-1,-1,-1],"loss_changes":[2.8305687E1,1.985695E1,2.137738E1,1.483243E1,1.7177166E1,2.2885395E1,0E0,1.0131402E1,1.1129153E1,7.2721786E0,1.1682081E1,1.8956125E1,7.0642347E0,1.8723927E0,0E0,3.933603E0,7.0832577E0,0E0,3.7846336E0,1.2121424E1,0E0,1.8654156E1,1.3569832E1,2.4735336E0,0E0,0E0,0E0,0E0,0E0,0E0,0E0,3.1098518E0,0E0,7.4774323E0,4.362648E0,6.740016E0,1.7046322E1,4.733715E0,0E0,0E0,0E0,7.9515076E-1,0E0,0E0,0E0,0E0,0E0,0E0,0E0,1.5204345E1,8.009281E0,0E0,1.4389763E0,0E0,0E0,0E0,0E0,0E0,0E0,0E0,0E0],"parents":[2147483647,0,0,1,1,2,2,3,3,4,4,5,5,7,7,8,8,9,9,10,10,11,11,12,12,13,13,15,15,16,16,18,18,19,19,21,21,22,22,23,23,31,31,33,33,34,34,35,35,36,36,37,37,41,41,49,49,50,50,52,52],"right_children":[2,4,6,8,10,12,-1,14,16,18,20,22,24,26,-1,28,30,-1,32,34,-1,36,38,40,-1,-1,-1,-1,-1,-1,-1,42,-1,44,46,48,50,52,-1,-1,-1,54,-1,-1,-1,-1,-1,-1,-1,56,58,-1,60,-1,-1,-1,-1,-1,-1,-1,-1],"split_conditions":[4.6886206E-2,1.3429849E-1,1.8273772E-1,1.5050054E0,1.5647265E-1,8.10354E-2,5.3250927E-2,2.106319E0,3.9242563E-1,4.1817352E-2,1.3807738E0,3.400466E-2,3.8300788E-1,3.6422753E-1,3.0902935E-2,9.891623E-1,2.2581264E-3,-1.2381325E-2,1.7881133E-2,5.2790076E-1,-4.8226263E-2,1.4329952E0,3.9096475E-1,8.6548185E-1,-1.5269737E-2,-6.2038034E-2,-1.5793614E-2,1.1466428E-2,-5.091398E-2,-1.6849143E-2,5.5841178E-2,9.178013E-2,7.830114E-3,1.1706836E0,5.846207E-3,1.3243746E0,1.0432327E-1,5.2182156E-1,2.170848E-2,6.385242E-2,6.347142E-3,2.0663876E-3,9.202695E-3,-1.0049206E-2,5.778977E-2,-4.8379954E-2,1.1591497E-2,5.550548E-2,-1.5028308E-2,7.509535E-1,5.6334056E-2,-2.3113126E-3,2.9091665E-1,2.1852655E-2,6.583392E-2,-1.0847586E-2,4.5181822E-2,-4.5409713E-2,-7.863299E-3,-6.516906E-2,-1.7411713E-2],"split_indices":[1645,1959,1619,997,136,1570,0,980,268,397,603,1172,94,489,0,798,1172,0,1629,8,0,928,374,1577,0,0,0,0,0,0,0,1506,0,761,1256,732,1753,367,0,0,0,1121,0,0,0,0,0,0,0,1015,1707,0,1003,0,0,0,0,0,0,0,0],"split_type":[0,0,0,0,0,0,0,0,0,0,0,0,0,0,0,0,0,0,0,0,0,0,0,0,0,0,0,0,0,0,0,0,0,0,0,0,0,0,0,0,0,0,0,0,0,0,0,0,0,0,0,0,0,0,0,0,0,0,0,0,0],"sum_hessian":[3.531872E2,1.2981305E2,2.2337415E2,4.355736E1,8.625569E1,2.1307487E2,1.0299272E1,2.062454E1,2.2932821E1,5.256209E1,3.36936E1,1.9606155E2,1.7013315E1,1.7590326E1,3.034213E0,7.324923E0,1.5607898E1,3.615324E0,4.894677E1,2.7190693E1,6.5029078E0,1.4953578E2,4.6525776E1,1.3219301E1,3.7940147E0,1.2620808E1,4.9695187E0,3.0132108E0,4.3117123E0,3.229785E0,1.2378114E1,4.3988228E1,4.958541E0,1.801901E1,9.171682E0,1.491772E1,1.3461806E2,4.128038E1,5.2453957E0,1.0211204E1,3.0080974E0,4.004385E1,3.9443793E0,4.643056E0,1.3375955E1,5.229974E0,