{"learner":{"attributes":{"best_iteration":"13","best_score":"0.6519575529503372","scikit_learn":"{\"_estimator_type\": \"classifier\"}"},"feature_names":[],"feature_types":[],"gradient_booster":{"model":{"cats":{"enc":[],"feature_segments":[],"sorted_idx":[]},"gbtree_model_param":{"num_parallel_tree":"1","num_trees":"14"},"iteration_indptr":[0,1,2,3,4,5,6,7,8,9,10,11,12,13,14],"tree_info":[0,0,0,0,0,0,0,0,0,0,0,0,0,0],"trees":[{"base_weights":[6.267551E-2,7.6189417E-1,-1.0166256E0,1.1816406E0,-2.1931748E-1,1.5876169E-3,-1.3984463E0,7.597481E-2,5.0206617E-3,-4.74433E-2,2.5857208E-2,-7.95059E-2,-2.3747778E-2],"categories":[],"categories_nodes":[],"categories_segments":[],"categories_sizes":[],"default_left":[0,0,0,0,0,0,0,0,0,0,0,0,0],"id":0,"left_children":[1,3,5,7,9,-1,11,-1,-1,-1,-1,-1,-1],"loss_changes":[3.4286438E1,1.19592705E1,7.378067E0,6.720728E0,6.326723E0,0E0,6.217098E-1,0E0,0E0,0E0,0E0,0E0,0E0],"parents":[2147483647,0,0,1,1,2,2,3,3,4,4,6,6],"right_children":[2,4,6,8,10,-1,12,-1,-1,-1,-1,-1,-1],"split_conditions":[8.083826E-1,1.7762569E-1,7.854228E-3,7.077871E-2,1.1468434E-1,1.5876169E-3,2.15666E-1,7.597481E-2,5.0206617E-3,-4.74433E-2,2.5857208E-2,-7.95059E-2,-2.3747778E-2],"split_indices":[744,1725,897,1781,1816,0,118,0,0,0,0,0,0],"split_type":[0,0,0,0,0,0,0,0,0,0,0,0,0],"sum_hessian":[4.1413536E1,2.5545113E1,1.5868422E1,1.7676693E1,7.868421E0,4.656015E0,1.1212406E1,1.2780075E1,4.8966165E0,3.731203E0,4.137218E0,8E0,3.2124062E0],"tree_param":{"num_deleted":"0","num_feature":"1965","num_nodes":"13","size_leaf_vector":"1"}},{"base_weights":[1.0844536E-1,9.029209E-1,-6.8782604E-1,1.4014074E0,-7.923984E-2,-1.2328886E0,1.4552483E-1,1.9685745E-2,8.01745E-2,3.6158912E-2,-4.4685066E-2,-7.813214E-2,-4.404524E-3,-3.3091936E-2,4.3613005E-2],"categories":[],"categories_nodes":[],"categories_segments":[],"categories_sizes":[],"default_left":[0,0,0,0,0,0,0,0,0,0,0,0,0,0,0],"id":1,"left_children":[1,3,5,7,9,11,13,-1,-1,-1,-1,-1,-1,-1,-1],"loss_changes":[2.745505E1,1.0954924E1,1.0346949E1,1.4979038E0,7.266609E0,4.6306133E0,7.2288938E0,0E0,0E0,0E0,0E0,0E0,0E0,0E0,0E0],"parents":[2147483647,0,0,1,1,2,2,3,3,4,4,5,5,6,6],"right_children":[2,4,6,8,10,12,14,-1,-1,-1,-1,-1,-1,-1,-1],"split_conditions":[3.1414185E0,8.5112005E-2,9.5801845E-2,1.043321E-4,5.1897317E-2,5.2447844E-4,4.2547093E-4,1.9685745E-2,8.01745E-2,3.6158912E-2,-4.4685066E-2,-7.813214E-2,-4.404524E-3,-3.3091936E-2,4.3613005E-2],"split_indices":[987,1746,1862,398,235,1256,3,0,0,0,0,0,0,0,0],"split_type":[0,0,0,0,0,0,0,0,0,0,0,0,0,0,0],"sum_hessian":[3.9401657E1,1.9651846E1,1.974981E1,1.2536935E1,7.114911E0,1.1433033E1,8.316777E0,3.1618197E0,9.375114E0,3.6350186E0,3.4798923E0,8.241706E0,3.1913276E0,3.959255E0,4.357522E0],"tree_param":{"num_deleted":"0","num_feature":"1965","num_nodes":"15","size_leaf_vector":"1"}},{"base_weights":[-8.637507E-2,-7.686336E-1,9.0410286E-1,4.9545985E-2,-1.1398951E0,1.3479588E0,-2.255733E-2,-5.693945E-3,-7.518668E-2,2.0057425E-2,7.7417396E-2],"categories":[],"categories_nodes":[],"categories_segments":[],"categories_sizes":[],"default_left":[0,0,0,0,0,0,0,0,0,0,0],"id":2,"left_children":[1,3,5,-1,7,9,-1,-1,-1,-1,-1],"loss_changes":[2.8532236E1,1.8563477E1,1.1682266E1,0E0,7.5472603E0,1.1338844E0,0E0,0E0,0E0,0E0,0E0],"parents":[2147483647,0,0,1,1,2,2,4,4,5,5],"right_children":[2,4,6,-1,8,10,-1,-1,-1,-1,-1],"split_conditions":[2.5852743E-1,1.0101997E-1,3.5044394E-2,4.9545985E-2,1.0181422E0,6.893963E-1,-2.255733E-2,-5.693945E-3,-7.518668E-2,2.0057425E-2,7.7417396E-2],"split_indices":[1918,238,1749,0,425,881,0,0,0,0,0],"split_type":[0,0,0,0,0,0,0,0,0,0,0],"sum_hessian":[3.818565E1,2.293591E1,1.5249741E1,3.3676796E0,1.956823E1,1.1551176E1,3.6985648E0,5.881989E0,1.368624E1,3.153596E0,8.39758E0],"tree_param":{"num_deleted":"0","num_feature":"1965","num_nodes":"11","size_leaf_vector":"1"}},{"base_weights":[-1.1041489E-1,-6.511215E-1,8.6402696E-1,3.9607465E-1,-1.0119351E0,6.769438E-2,-6.304612E-3,5.2203417E-2,-2.1785468E-2,-7.288779E-2,-3.4629352E-2,3.6509383E-2,-4.137701E-2],"categories":[],"categories_nodes":[],"categories_segments":[],"categories_sizes":[],"default_left":[0,0,0,0,0,0,0,0,0,0,0,0,0],"id":3,"left_children":[1,3,5,7,9,-1,-1,-1,-1,-1,11,-1,-1],"loss_changes":[2.3915213E1,1.1839764E1,8.342819E0,5.719615E0,9.439756E0,0E0,0E0,0E0,0E0,0E0,6.7282743E0,0E0,0E0],"parents":[2147483647,0,0,1,1,2,2,3,3,4,4,10,10],"right_children":[2,4,6,8,10,-1,-1,-1,-1,-1,12,-1,-1],"split_conditions":[2.7055883E-1,9.769335E-1,5.2387092E-2,1.0905135E-1,8.8803923E-1,6.769438E-2,-6.304612E-3,5.2203417E-2,-2.1785468E-2,-7.288779E-2,2.6594973E-1,3.6509383E-2,-4.137701E-2],"split_indices":[1918,517,1615,1691,761,0,0,0,0,0,245,0,0],"split_type":[0,0,0,0,0,0,0,0,0,0,0,0,0],"sum_hessian":[4.1294525E1,2.7050653E1,1.4243873E1,6.810834E0,2.0239819E1,9.105256E0,5.1386166E0,3.609038E0,3.201796E0,1.315385E1,7.0859694E0,3.6232185E0,3.462751E0],"tree_param":{"num_deleted":"0","num_feature":"1965","num_nodes":"13","size_leaf_vector":"1"}},{"base_weights":[1.3898468E-2,8.8285714E-1,-4.8697597E-1,-2.2068836E-2,1.2633182E0,2.937238E-2,-7.940726E-1,7.297709E-2,1.9839233E-2,-1.0544708E0,6.5396004E-3,-1.2930624E0,-0E0,-7.4991435E-2,-2.4140796E-2],"categories":[],"categories_nodes":[],"categories_segments":[],"categories_sizes":[],"default_left":[0,0,0,0,0,0,0,0,0,0,0,0,0,0,0],"id":4,"left_children":[1,3,5,-1,7,-1,9,-1,-1,11,-1,13,-1,-1,-1],"loss_changes":[2.0065826E1,9.704764E0,1.0571932E1,0E0,9.845047E-1,0E0,6.0503225E0,0E0,0E0,4.7824936E0,0E0,9.177265E-1,0E0,0E0,0E0],"parents":[2147483647,0,0,1,1,2,2,4,4,6,6,9,9,11,11],"right_children":[2,4,6,-1,8,-1,10,-1,-1,12,-1,14,-1,-1,-1],"split_conditions":[5.9516322E-2,2.6476154E-1,1.0183105E-1,-2.2068836E-2,5.3362228E-2,2.937238E-2,6.9413885E-2,7.297709E-2,1.9839233E-2,5.738597E-4,6.5396004E-3,3.8911835E-3,-0E0,-7.4991435E-2,-2.4140796E-2],"split_indices":[1664,1512,238,0,592,0,1879,0,0,1250,0,1465,0,0,0],"split_type":[0,0,0,0,0,0,0,0,0,0,0,0,0,0,0],"sum_hessian":[4.2036427E1,1.488576E1,2.7150667E1,3.1921377E0,1.1693623E1,5.55705E0,2.1593618E1,8.32448E0,3.3691418E0,1.6715248E1,4.8783693E0,1.3306207E1,3.4090416E0,9.146536E0,4.1596713E0],"tree_param":{"num_deleted":"0","num_feature":"1965","num_nodes":"15","size_leaf_vector":"1"}},{"base_weights":[-2.9746162E-2,6.4036585E-2,-4.353215E-1,-8.424891E-1,4.559203E-1,2.6998827E-2,-1.1289572E0,9.6145207E-1,-2.300941E-2,-1.3595043E0,2.5131844E-3,1.6471952E-2,5.8968674E-2,-1.859877E-2,-7.753837E-2],"categories":[],"categories_nodes":[],"categories_segments":[],"categories_sizes":[],"default_left":[0,0,0,0,0,0,0,0,0,0,0,0,0,0,0],"id":5,"left_children":[1,-1,3,5,7,-1,9,11,-1,13,-1,-1,-1,-1,-1],"loss_changes":[2.475211E1,0E0,1.37379875E1,1.1273575E1,6.6755238E0,0E0,6.1436443E0,2.7102375E-1,0E0,2.0956535E0,0E0,0E0,0E0,0E0,0E0],"parents":[2147483647,0,0,2,2,3,3,4,4,6,6,7,7,9,9],"right_children":[2,-1,4,6,8,-1,10,12,-1,14,-1,-1,-1,-1,-1],"split_conditions":[8.543611E-2,6.4036585E-2,2.7055883E-1,3.469275E-1,1.4804475E0,2.6998827E-2,7.290346E-1,6.648607E-1,-2.300941E-2,8.1483555E-1,2.5131844E-3,1.6471952E-2,5.8968674E-2,-1.859877E-2,-7.753837E-2],"split_indices":[1597,0,1918,58,580,0,1087,724,0,511,0,0,0,0,0],"split_type":[0,0,0,0,0,0,0,0,0,0,0,0,0,0,0],"sum_hessian":[4.2631615E1,8.997401E0,3.3634212E1,2.3238989E1,1.0395223E1,3.6251962E0,1.9613792E1,6.7052584E0,3.6899648E0,1.6221413E1,3.3923805E0,3.1248765E0,3.5803819E0,3.6724339E0,1.2548979E1],"tree_param":{"num_deleted":"0","num_feature":"1965","num_nodes":"15","size_leaf_vector":"1"}},{"base_weights":[-2.5173077E-2,5.5286205E-1,-7.2130203E-1,-2.9734036E-2,9.8633796E-1,-1.0023797E0,2.0589925E-2,1.3075756E0,-1.6314844E-2,-6.338986E-2,-2.9658866E-3,1.8493963E-2,7.404006E-2],"categories":[],"categories_nodes":[],"categories_segments":[],"categories_sizes":[],"default_left":[0,0,0,0,0,0,0,0,0,0,0,0,0],"id":6,"left_children":[1,3,5,-1,7,9,-1,11,-1,-1,-1,-1,-1],"loss_changes":[1.7917326E1,1.3287565E1,7.3271503E0,0E0,8.724926E0,3.937275E0,0E0,1.2000427E0,0E0,0E0,0E0,0E0,0E0],"parents":[2147483647,0,0,1,1,2,2,4,4,5,5,7,7],"right_children":[2,4,6,-1,8,10,-1,12,-1,-1,-1,-1,-1],"split_conditions":[1.4529761E0,4.4375323E-2,2.7055883E-1,-2.9734036E-2,2.4697274E-1,7.4502364E-2,2.0589925E-2,1.2294289E-1,-1.6314844E-2,-6.338986E-2,-2.9658866E-3,1.8493963E-2,7.404006E-2],"split_indices":[527,1743,1918,0,340,1715,0,1836,0,0,0,0,0],"split_type":[0,0,0,0,0,0,0,0,0,0,0,0,0],"sum_hessian":[4.0503666E1,2.2275238E1,1.8228426E1,5.84014E0,1.6435099E1,1.4860987E1,3.3674402E0,1.3271172E1,3.1639266E0,1.09769E1,3.8840864E0,3.1371408E0,1.013403E1],"tree_param":{"num_deleted":"0","num_feature":"1965","num_nodes":"13","size_leaf_vector":"1"}},{"base_weights":[-2.0878334E-2,6.924547E-1,-6.2873834E-1,-8.847725E-2,1.1549066E0,-1.1606952E0,5.4890085E-2,3.3292543E-2,-4.114415E-2,1.4623331E-2,6.7880794E-2,-1.045075E-2,-7.008409E-2,-3.3689443E-2,3.2743983E-2],"categories":[],"categories_nodes":[],"categories_segments":[],"categories_sizes":[],"default_left":[0,0,0,0,0,0,0,0,0,0,0,0,0,0,0],"id":7,"left_children":[1,3,5,7,9,11,13,-1,-1,-1,-1,-1,-1,-1,-1],"loss_changes":[1.8879805E1,7.5308466E0,8.804493E0,6.215237E0,1.2749329E0,2.3308258E0,6.186454E0,0E0,0E0,0E0,0E0,0E0,0E0,0E0,0E0],"parents":[2147483647,0,0,1,1,2,2,3,3,4,4,5,5,6,6],"right_children":[2,4,6,8,10,12,14,-1,-1,-1,-1,-1,-1,-1,-1],"split_conditions":[5.3723197E-2,2.4682312E-1,9.594864E-2,2.4881523E0,8.711177E-4,1.1720698E0,1.258061E-3,3.3292543E-2,-4.114415E-2,1.4623331E-2,6.7880794E-2,-1.045075E-2,-7.008409E-2,-3.3689443E-2,3.2743983E-2],"split_indices":[1615,1918,1862,952,1445,471,1249,0,0,0,0,0,0,0,0],"split_type":[0,0,0,0,0,0,0,0,0,0,0,0,0,0,0],"sum_hessian":[3.954787E1,1.7991602E1,2.1556269E1,7.212737E0,1.0778865E1,1.1420296E1,1.0135972E1,3.5830348E0,3.6297023E0,3.0749936E0,7.7038717E0,3.1460097E0,8.274286E0,4.3907704E0,5.745201E0],"tree_param":{"num_deleted":"0","num_feature":"1965","num_nodes":"15","size_leaf_vector":"1"}},{"base_weights":[-3.340071E-2,9.270565E-1,-4.4822994E-1,6.2311243E-2,-3.34032E-5,-8.9718837E-1,1.5599248E-1,1.5278536E-2,-1.2731403E0,4.6065684E-2,-6.071766E-1,-7.2385415E-2,-1.923959E-2,-5.3499337E-2,5.1140874E-3],"categories":[],"categories_nodes":[],"categories_segments":[],"categories_sizes":[],"default_left":[0,0,0,0,0,0,0,0,0,0,0,0,0,0,0],"id":8,"left_children":[1,3,5,-1,-1,7,9,-1,11,-1,13,-1,-1,-1,-1],"loss_changes":[1.7453522E1,4.034604E0,8.666033E0,0E0,0E0,9.00062E0,9.718925E0,0E0,8.956127E-1,0E0,3.1019094E0,0E0,0E0,0E0,0E0],"parents":[2147483647,0,0,1,1,2,2,5,5,6,6,8,8,10,10],"right_children":[2,4,6,-1,-1,8,10,-1,12,-1,14,-1,-1,-1,-1],"split_conditions":[4.2650945E-2,1.2147376E-1,1.7995753E-3,6.2311243E-2,-3.34032E-5,3.3233305E-3,7.793273E-1,1.5278536E-2,8.940099E-1,4.6065684E-2,1.6656253E0,-7.2385415E-2,-1.923959E-2,-5.3499337E-2,5.1140874E-3],"split_indices":[1615,1766,1465,0,0,1213,827,0,494,0,964,0,0,0,0],"split_type":[0,0,0,0,0,0,0,0,0,0,0,0,0,0,0],"sum_hessian":[3.984051E1,1.1199525E1,2.8640985E1,7.9021006E0,3.2974238E0,1.5970281E1,1.2670705E1,3.8289592E0,1.2141321E1,6.184927E0,6.4857774E0,9.000712E0,3.1406093E0,3.39541E0,3.0903673E0],"tree_param":{"num_deleted":"0","num_feature":"1965","num_nodes":"15","size_leaf_vector":"1"}},{"base_weights":[-2.1869414E-2,5.488014E-1,-6.64715E-1,6.2408388E-2,-1.13402985E-1,-1.1128081E0,1.6371636E-1,-7.322744E-1,3.1812713E-2,-1.3283496E-2,-6.824643E-2,3.8265623E-2,-2.682685E-2,9.129423E-4,-5.8159363E-2],"categories":[],"categories_nodes":[],"categories_segments":[],"categories_sizes":[],"default_left":[0,0,0,0,0,0,0,0,0,0,0,0,0,0,0],"id":9,"left_children":[1,3,5,-1,7,9,11,13,-1,-1,-1,-1,-1,-1,-1],"loss_changes":[1.6703802E1,1.1540806E1,8.42148E0,0E0,7.4922657E0,2.1562366E0,4.717409E0,2.9828339E0,0E0,0E0,0E0,0E0,0E0,0E0,0E0],"parents":[2147483647,0,0,1,1,2,2,4,4,5,5,6,6,7,7],"right_children":[2,4,6,-1,8,10,12,14,-1,-1,-1,-1,-1,-1,-1],"split_conditions":[5.5485334E-2,4.8600903E0,9.390351E-2,6.2408388E-2,1.4107332E0,1.1825063E-1,1.2783754E-1,1.0044031E-1,3.1812713E-2,-1.3283496E-2,-6.824643E-2,3.8265623E-2,-2.682685E-2,9.129423E-4,-5.8159363E-2],"split_indices":[1651,1007,1956,0,512,1949,1716,36,0,0,0,0,0,0,0],"split_type":[0,0,0,0,0,0,0,0,0,0,0,0,0,0,0],"sum_hessian":[4.1512276E1,2.2063213E1,1.9449064E1,9.943244E0,1.2119969E1,1.2254728E1,7.194335E0,6.7375927E0,5.382377E0,3.843726E0,8.411002E0,3.8466349E0,3.3477004E0,3.0713403E0,3.6662521E0],"tree_param":{"num_deleted":"0","num_feature":"1965","num_nodes":"15","size_leaf_vector":"1"}},{"base_weights":[-3.1152159E-2,9.0033495E-1,-4.0784293E-1,3.8460908E-3,5.8781113E-2,3.9055996E-2,-7.02249E-1,-1.057697E-1,-1.0668417E0,-6.2446713E-1,4.1348353E-2,-8.05214E-3,-6.4875685E-2,5.6425384E-3,-5.6345522E-2],"categories":[],"categories_nodes":[],"categories_segments":[],"categories_sizes":[],"default_left":[0,0,0,0,0,0,0,0,0,0,0,0,0,0,0],"id":10,"left_children":[1,3,5,-1,-1,-1,7,9,11,13,-1,-1,-1,-1,-1],"loss_changes":[1.6182346E1,2.7006893E0,1.2605976E1,0E0,0E0,0E0,5.6358213E0,7.1828613E0,2.9336243E0,3.8396578E0,0E0,0E0,0E0,0E0,0E0],"parents":[2147483647,0,0,1,1,2,2,6,6,7,7,8,8,9,9],"right_children":[2,4,6,-1,-1,-1,8,10,12,14,-1,-1,-1,-1,-1],"split_conditions":[7.6858394E-2,5.199328E-3,1.7779943E0,3.8460908E-3,5.8781113E-2,3.9055996E-2,8.965275E-1,6.1597514E-1,3.639868E-1,8.311862E-3,4.1348353E-2,-8.05214E-3,-6.4875685E-2,5.6425384E-3,-5.6345522E-2],"split_indices":[1633,1243,772,0,0,0,985,80,325,1134,0,0,0,0,0],"split_type":[0,0,0,0,0,0,0,0,0,0,0,0,0,0,0],"sum_hessian":[4.216635E1,1.1264819E1,3.0901533E1,3.5546353E0,7.7101836E0,5.4094243E0,2.5492107E1,1.0753575E1,1.4738533E1,7.4042587E0,3.3493168E0,3.7688563E0,1.0969676E1,3.5485911E0,3.8556676E0],"tree_param":{"num_deleted":"0","num_feature":"1965","num_nodes":"15","size_leaf_vector":"1"}},{"base_weights":[-7.739025E-3,5.8747786E-1,-6.688556E-1,1.0960844E0,-5.2137252E-2,6.53786E-3,-9.702699E-1,6.3608326E-2,1.7267171E-2,4.1029733E-2,-3.220645E-2,2.797982E-3,-6.449283E-2],"categories":[],"categories_nodes":[],"categories_segments":[],"categories_sizes":[],"default_left":[0,0,0,0,0,0,0,0,0,0,0,0,0],"id":11,"left_children":[1,3,5,7,9,-1,11,-1,-1,-1,-1,-1,-1],"loss_changes":[1.6197134E1,7.240017E0,5.0518847E0,5.724392E-1,6.920244E0,0E0,5.0342846E0,0E0,0E0,0E0,0E0,0E0,0E0],"parents":[2147483647,0,0,1,1,2,2,3,3,4,4,6,6],"right_children":[2,4,6,8,10,-1,12,-1,-1,-1,-1,-1,-1],"split_conditions":[5.5485334E-2,9.8773174E-2,1.2651073E0,3.631859E-1,7.427523E-1,6.53786E-3,1.8539107E-5,6.3608326E-2,1.7267171E-2,4.1029733E-2,-3.220645E-2,2.797982E-3,-6.449283E-2],"split_indices":[1651,222,580,1812,974,0,1146,0,0,0,0,0,0],"split_type":[0,0,0,0,0,0,0,0,0,0,0,0,0],"sum_hessian":[3.7143116E1,1.9583344E1,1.7559774E1,1.0200873E1,9.382469E0,5.02629E0,1.2533484E1,7.029779E0,3.1710942E0,3.41166E0,5.9708095E0,3.2937548E0,9.23973E0],"tree_param":{"num_deleted":"0","num_feature":"1965","num_nodes":"13","size_leaf_vector":"1"}},{"base_weights":[1.795185E-2,5.347997E-2,-2.9568964E-1,3.8314864E-1,-6.910726E-1,-2.6613463E-2,5.2270092E-2,1.55955E-2,-9.089529E-1,1.5645049E-3,-1.139148E0,-6.9663346E-2,-3.0729268E-3],"categories":[],"categories_nodes":[],"categories_segments":[],"categories_sizes":[],"default_left":[0,0,0,0,0,0,0,0,0,0,0,0,0],"id":12,"left_children":[1,-1,3,5,7,-1,-1,-1,9,-1,11,-1,-1],"loss_changes":[1.4293009E1,0E0,9.475061E0,9.298995E0,5.3897257E0,0E0,0E0,0E0,4.185931E0,0E0,3.7910366E0,0E0,0E0],"parents":[2147483647,0,0,2,2,3,3,4,4,8,8,10,10],"right_children":[2,-1,4,6,8,-1,-1,-1,10,-1,12,-1,-1],"split_conditions":[8.543611E-2,5.347997E-2,7.642048E-1,7.6617E-2,8.3785325E-2,-2.6613463E-2,5.2270092E-2,1.55955E-2,8.1637566E-4,1.5645049E-3,1.0220743E0,-6.9663346E-2,-3.0729268E-3],"split_indices":[1597,0,633,71,365,0,0,0,1269,0,761,0,0],"split_type":[0,0,0,0,0,0,0,0,0,0,0,0,0],"sum_hessian":[3.918078E1,7.9666667E0,3.1214111E1,1.14185E1,1.9795612E1,4.894497E0,6.5240035E0,3.2968605E0,1.649875E1,3.4993243E0,1.2999427E1,9.970045E0,3.0293813E0],"tree_param":{"num_deleted":"0","num_feature":"1965","num_nodes":"13","size_leaf_vector":"1"}},{"base_weights":[-1.13440536E-1,-6.708657E-1,5.904156E-1,3.254758E-2,-1.0045353E0,9.35768E-1,-1.687075E-2,3.9143157E-3,-1.2161548E0,6.1773162E-2,-4.6716374E-3,-6.858043E-2,-2.09532E-2],"categories":[],"categories_nodes":[],"categories_segments":[],"categories_sizes":[],"default_left":[0,0,0,0,0,0,0,0,0,0,0,0,0],"id":13,"left_children":[1,3,5,-1,7,9,-1,-1,11,-1,-1,-1,-1],"loss_changes":[1.6688292E1,1.1757963E1,6.7414255E0,0E0,4.8186207E0,4.7769203E0,0E0,0E0,7.3799133E-1,0E0,0E0,0E0,0E0],"parents":[2147483647,0,0,1,1,2,2,4,4,5,5,8,8],"right_children":[2,4,6,-1,8,10,-1,-1,12,-1,-1,-1,-1],"split_conditions":[2.5874314E-1,1.0183105E-1,7.2761595E-1,3.254758E-2,1.8401667E-1,3.8460642E-1,-1.687075E-2,3.9143157E-3,7.7581294E-2,6.1773162E-2,-4.6716374E-3,-6.858043E-2,-2.09532E-2],"split_indices":[1918,238,638,0,47,184,0,0,1861,0,0,0,0],"split_type":[0,0,0,0,0,0,0,0,0,0,0,0,0],"sum_hessian":[3.8494926E1,2.1613634E1,1.6881294E1,3.9125943E0,1.770104E1,1.2368298E1,4.512996E0,3.0225797E0,1.467846E1,9.343799E0,3.024499E0,1.0971697E1,3.706763E0],"tree_param":{"num_deleted":"0","num_feature":"1965","num_nodes":"13","size_leaf_vector":"1"}}]},"name":"gbtree"},"learner_model_param":{"base_score":"[5.0003684E-1]","boost_from_average":"1","num_class":"0","num_feature":"1965","num_target":"1"},"objective":{"name":"binary:logistic","reg_loss_param":{"scale_pos_weight":"0.962406039"}}},"version":[3,1,2]}