{"learner":{"attributes":{"best_iteration":"199","best_score":"0.16870469686774803","scikit_learn":"{\"_estimator_type\": \"classifier\"}"},"feature_names":[],"feature_types":[],"gradient_booster":{"model":{"cats":{"enc":[],"feature_segments":[],"sorted_idx":[]},"gbtree_model_param":{"num_parallel_tree":"1","num_trees":"200"},"iteration_indptr":[0,1,2,3,4,5,6,7,8,9,10,11,12,13,14,15,16,17,18,19,20,21,22,23,24,25,26,27,28,29,30,31,32,33,34,35,36,37,38,39,40,41,42,43,44,45,46,47,48,49,50,51,52,53,54,55,56,57,58,59,60,61,62,63,64,65,66,67,68,69,70,71,72,73,74,75,76,77,78,79,80,81,82,83,84,85,86,87,88,89,90,91,92,93,94,95,96,97,98,99,100,101,102,103,104,105,106,107,108,109,110,111,112,113,114,115,116,117,118,119,120,121,122,123,124,125,126,127,128,129,130,131,132,133,134,135,136,137,138,139,140,141,142,143,144,145,146,147,148,149,150,151,152,153,154,155,156,157,158,159,160,161,162,163,164,165,166,167,168,169,170,171,172,173,174,175,176,177,178,179,180,181,182,183,184,185,186,187,188,189,190,191,192,193,194,195,196,197,198,199,200],"tree_info":[0,0,0,0,0,0,0,0,0,0,0,0,0,0,0,0,0,0,0,0,0,0,0,0,0,0,0,0,0,0,0,0,0,0,0,0,0,0,0,0,0,0,0,0,0,0,0,0,0,0,0,0,0,0,0,0,0,0,0,0,0,0,0,0,0,0,0,0,0,0,0,0,0,0,0,0,0,0,0,0,0,0,0,0,0,0,0,0,0,0,0,0,0,0,0,0,0,0,0,0,0,0,0,0,0,0,0,0,0,0,0,0,0,0,0,0,0,0,0,0,0,0,0,0,0,0,0,0,0,0,0,0,0,0,0,0,0,0,0,0,0,0,0,0,0,0,0,0,0,0,0,0,0,0,0,0,0,0,0,0,0,0,0,0,0,0,0,0,0,0,0,0,0,0,0,0,0,0,0,0,0,0,0,0,0,0,0,0,0,0,0,0,0,0,0,0,0,0,0,0],"trees":[{"base_weights":[-1.2636773E-3,1.0458608E0,-2.643547E-1,6.954342E-2,1.6958175E0,-1.1817102E0,-6.8894416E-2,7.383349E-1,-1.1222203E0,-2.3803394E-2,9.3435794E-2,4.3810704E-1,-1.550506E0,9.166732E-1,-2.080559E-1,-3.8546406E-2,1.1700335E0,-8.774555E-3,-7.333493E-2,-3.143592E-2,7.08793E-2,1.4967335E-3,-1.7254275E0,-6.773318E-1,1.3195223E0,-3.0607508E-2,-1.1443936E0,1.4847332E0,-4.759301E-3,-9.241623E-2,-5.0150207E-3,2.503331E-3,-5.899463E-2,6.8973848E-3,1.6311913E0,4.773755E-1,-3.6309087E-1,-1.5854273E0,7.9634786E-2,8.368074E-2,2.150483E-2,8.8959046E-2,2.499318E-2,6.7810374E-1,-1.1055245E0,1.978605E-1,-9.448743E-1,-8.806285E-2,-5.0150207E-3,-4.2209446E-2,5.971206E-2,4.3510325E-2,-5.6209356E-2,-6.962333E-2,-1.4427437E-2,-4.9819052E-2,2.4745714E-2,-6.2000554E-2,2.4449615E-2],"categories":[],"categories_nodes":[],"categories_segments":[],"categories_sizes":[],"default_left":[0,0,0,0,0,0,0,0,0,0,0,0,0,0,0,0,0,0,0,0,0,0,0,0,0,0,0,0,0,0,0,0,0,0,0,0,0,0,0,0,0,0,0,0,0,0,0,0,0,0,0,0,0,0,0,0,0,0,0],"id":0,"left_children":[1,3,5,7,9,11,13,15,17,-1,-1,19,21,23,25,-1,27,-1,-1,-1,-1,-1,29,31,33,35,37,39,-1,-1,-1,-1,-1,-1,41,43,45,47,49,-1,-1,-1,-1,51,53,55,57,-1,-1,-1,-1,-1,-1,-1,-1,-1,-1,-1,-1],"loss_changes":[1.1374313E2,5.2184563E1,5.8931126E1,2.9733234E1,2.0549072E1,3.5996063E1,3.795509E1,1.7386095E1,3.6973972E0,0E0,0E0,1.46384115E1,1.3423279E1,2.3839384E1,4.0059322E1,0E0,8.143848E0,0E0,0E0,0E0,0E0,0E0,8.006348E0,3.2211957E0,9.707031E0,3.5091064E1,2.115839E1,1.4804993E0,0E0,0E0,0E0,0E0,0E0,0E0,1.6688652E0,2.7558746E1,4.1448616E1,6.8816605E0,1.4436593E1,0E0,0E0,0E0,0E0,2.7621674E1,1.3607302E0,2.4182032E1,2.7569508E1,0E0,0E0,0E0,0E0,0E0,0E0,0E0,0E0,0E0,0E0,0E0,0E0],"parents":[2147483647,0,0,1,1,2,2,3,3,4,4,5,5,6,6,7,7,8,8,11,11,12,12,13,13,14,14,16,16,22,22,23,23,24,24,25,25,26,26,27,27,34,34,35,35,36,36,37,37,38,38,43,43,44,44,45,45,46,46],"right_children":[2,4,6,8,10,12,14,16,18,-1,-1,20,22,24,26,-1,28,-1,-1,-1,-1,-1,30,32,34,36,38,40,-1,-1,-1,-1,-1,-1,42,44,46,48,50,-1,-1,-1,-1,52,54,56,58,-1,-1,-1,-1,-1,-1,-1,-1,-1,-1,-1,-1],"split_conditions":[9.600511E-3,2.704367E-2,9.6931025E-2,4.2464283E-1,3.5422444E-2,1.9688217E-1,8.321595E-2,4.3425536E-1,5.942036E-2,-2.3803394E-2,9.3435794E-2,4.9768534E-2,9.100837E-2,7.182164E-1,1.06762394E-1,-3.8546406E-2,7.274685E-4,-8.774555E-3,-7.333493E-2,-3.143592E-2,7.08793E-2,1.4967335E-3,1.3960887E-1,2.3606205E-1,5.7850473E-2,6.476136E-2,2.3090923E-2,7.1525806E-1,-4.759301E-3,-9.241623E-2,-5.0150207E-3,2.503331E-3,-5.899463E-2,6.8973848E-3,6.9735754E-1,8.0344796E-2,9.009755E-1,1.4212182E-2,1.3910815E0,8.368074E-2,2.150483E-2,8.8959046E-2,2.499318E-2,1.947218E-1,7.075055E-2,2.4788374E-2,6.9673324E-1,-8.806285E-2,-5.0150207E-3,-4.2209446E-2,5.971206E-2,4.3510325E-2,-5.6209356E-2,-6.962333E-2,-1.4427437E-2,-4.9819052E-2,2.4745714E-2,-6.2000554E-2,2.4449615E-2],"split_indices":[1624,933,250,1050,1665,1617,276,138,1459,0,0,1822,1892,784,1961,0,1110,0,0,0,0,0,1989,107,1740,1917,1574,418,0,0,0,0,0,0,679,1761,549,391,764,0,0,0,0,13,50,1814,341,0,0,0,0,0,0,0,0,0,0,0,0],"split_type":[0,0,0,0,0,0,0,0,0,0,0,0,0,0,0,0,0,0,0,0,0,0,0,0,0,0,0,0,0,0,0,0,0,0,0,0,0,0,0,0,0,0,0,0,0,0,0,0,0,0,0,0,0,0,0,0,0,0,0],"sum_hessian":[4.091536E2,8.088677E1,3.282668E2,3.3273544E1,4.7613228E1,5.5795963E1,2.7247086E2,2.185426E1,1.1419283E1,3.2096412E0,4.4403587E1,1.0227578E1,4.5568386E1,3.224103E1,2.4022983E2,4.4596415E0,1.7394619E1,3.9293723E0,7.48991E0,5.1894617E0,5.038117E0,4.649103E0,4.091928E1,6.1793723E0,2.6061659E1,2.0378252E2,3.644731E1,1.3715247E1,3.6793723E0,3.772982E1,3.189462E0,3.1793723E0,3E0,6.1087446E0,1.9952915E1,8.0151344E1,1.23631165E2,2.6419283E1,1.0028027E1,1.0556054E1,3.1591928E0,1.6553812E1,3.3991032E0,7.22018E1,7.9495516E0,6.3526905E1,6.010426E1,2.322982E1,3.189462E0,5.6995516E0,4.3284755E0,6.623206E1,5.969731E0,4.75E0,3.1995516E0,1.1649103E1,5.1877804E1,5.0126682E1,9.977578E0],"tree_param":{"num_deleted":"0","num_feature":"1990","num_nodes":"59","size_leaf_vector":"1"}},{"base_weights":[-1.4454111E-3,-3.8104475E-1,6.7831224E-1,7.110075E-1,-5.749788E-1,1.1299309E0,-1.5988694E-1,-7.7576506E-1,1.2594069E0,-1.143813E0,-2.4829285E-1,1.4052011E-1,1.4357364E0,8.9290667E-1,-5.4076505E-1,3.0332265E-2,-7.030632E-2,5.922842E-2,1.59777E0,-1.3400203E-1,-1.3606406E0,-6.3301486E-1,3.2434002E-1,1.1525661E0,-7.2982997E-1,-1.9136073E-1,1.6052821E0,-1.7942687E-2,6.719721E-2,-1.4375757E0,6.4914964E-2,-4.4815354E-2,5.1542725E-2,1.5735103E-2,8.889385E-2,-5.199032E-2,6.293743E-1,-1.5148122E0,2.8157512E-2,-8.697465E-1,6.431212E-2,6.939117E-1,-8.060491E-1,2.3604517E-3,7.567956E-2,3.961077E-2,-1.2938894E0,-5.97292E-2,4.202942E-2,1.6798136E0,6.343059E-3,-1.4277044E-2,-8.3249725E-2,-1.0210626E0,1.0272381E0,-2.2859368E-2,6.3403696E-2,-1.6414872E0,1.3680815E-3,5.4979175E-2,-1.000208E0,-1.8602812E-1,1.1621265E0,2.535612E-2,-6.8793006E-2,-7.4746646E-2,-2.2953292E-2,1.2033171E-2,1.7462957E0,1.1527397E-2,-7.370459E-2,7.405194E-2,-7.383628E-4,-2.862049E-4,-8.7912165E-2,-6.061433E-2,1.6043203E-2,3.7345942E-2,-6.0897518E-2,-2.009907E-2,7.226143E-2,9.022283E-2,2.0492738E-2],"categories":[],"categories_nodes":[],"categories_segments":[],"categories_sizes":[],"default_left":[0,0,0,0,0,0,0,0,0,0,0,0,0,0,0,0,0,0,0,0,0,0,0,0,0,0,0,0,0,0,0,0,0,0,0,0,0,0,0,0,0,0,0,0,0,0,0,0,0,0,0,0,0,0,0,0,0,0,0,0,0,0,0,0,0,0,0,0,0,0,0,0,0,0,0,0,0,0,0,0,0,0,0],"id":1,"left_children":[1,3,5,7,9,11,13,15,17,19,21,23,25,27,29,-1,-1,31,33,35,37,39,41,43,45,47,49,-1,-1,51,53,-1,-1,-1,-1,-1,55,57,-1,59,-1,61,63,-1,-1,-1,65,-1,-1,67,-1,-1,-1,69,71,-1,-1,73,-1,-1,75,77,79,-1,-1,-1,-1,-1,81,-1,-1,-1,-1,-1,-1,-1,-1,-1,-1,-1,-1,-1,-1],"loss_changes":[1.0603297E2,5.6681885E1,5.617836E1,3.510962E1,4.114839E1,2.8479652E1,2.226837E1,1.235631E1,1.2020874E1,1.733068E1,3.2547768E1,2.3706488E1,2.0901123E1,9.431244E0,2.226397E1,0E0,0E0,1.0072562E1,4.1326103E0,1.2901865E1,2.1611824E1,4.2156925E1,2.6082502E1,4.6362667E0,1.4624887E1,1.0970468E1,6.7099915E0,0E0,0E0,3.160141E0,2.9224228E1,0E0,0E0,0E0,0E0,0E0,8.355291E0,1.2446854E1,0E0,2.2623913E1,0E0,1.9562315E1,1.3146526E1,0E0,0E0,0E0,3.5401917E-1,0E0,0E0,4.98732E0,0E0,0E0,0E0,8.259652E0,7.192236E0,0E0,0E0,1.08390045E1,0E0,0E0,2.2072746E1,1.8900423E1,1.4772377E1,0E0,0E0,0E0,0E0,0E0,2.9492188E0,0E0,0E0,0E0,0E0,0E0,0E0,0E0,0E0,0E0,0E0,0E0,0E0,0E0,0E0],"parents":[2147483647,0,0,1,1,2,2,3,3,4,4,5,5,6,6,7,7,8,8,9,9,10,10,11,11,12,12,13,13,14,14,17,17,18,18,19,19,20,20,21,21,22,22,23,23,24,24,25,25,26,26,29,29,30,30,36,36,37,37,39,39,41,41,42,42,46,46,49,49,53,53,54,54,57,57,60,60,61,61,62,62,68,68],"right_children":[2,4,6,8,10,12,14,16,18,20,22,24,26,28,30,-1,-1,32,34,36,38,40,42,44,46,48,50,-1,-1,52,54,-1,-1,-1,-1,-1,56,58,-1,60,-1,62,64,-1,-1,-1,66,-1,-1,68,-1,-1,-1,70,72,-1,-1,74,-1,-1,76,78,80,-1,-1,-1,-1,-1,82,-1,-1,-1,-1,-1,-1,-1,-1,-1,-1,-1,-1,-1,-1],"split_conditions":[2.5639683E-1,8.197473E-2,1.7781597E-1,4.3273095E-2,1.4483196E-2,1.4008239E-2,2.1985928E-2,8.5101026E-1,9.032501E-1,3.7292268E-2,2.3234945E-2,1.5460525E0,1.1279973E0,2.152789E-2,6.060631E-2,3.0332265E-2,-7.030632E-2,7.76741E-1,9.543419E-2,1.6788088E-2,1.9843306E-1,1.3988853E-1,1.159784E-1,4.1994527E-2,1.0698164E0,6.520411E-2,6.964424E-4,-1.7942687E-2,6.719721E-2,4.2936277E-2,3.6104247E-2,-4.4815354E-2,5.1542725E-2,1.5735103E-2,8.889385E-2,-5.199032E-2,8.334342E-1,1.8736541E-1,2.8157512E-2,1.1312489E-1,6.431212E-2,8.7800305E-3,5.467555E-4,2.3604517E-3,7.567956E-2,3.961077E-2,1.0686276E0,-5.97292E-2,4.202942E-2,2.3801512E-1,6.343059E-3,-1.4277044E-2,-8.3249725E-2,2.0234556E0,2.6994786E-1,-2.2859368E-2,6.3403696E-2,1.758056E-2,1.3680815E-3,5.4979175E-2,2.1245359E-1,1.5524523E0,4.8373517E-2,2.535612E-2,-6.8793006E-2,-7.4746646E-2,-2.2953292E-2,1.2033171E-2,1.2960601E-1,1.1527397E-2,-7.370459E-2,7.405194E-2,-7.383628E-4,-2.862049E-4,-8.7912165E-2,-6.061433E-2,1.6043203E-2,3.7345942E-2,-6.0897518E-2,-2.009907E-2,7.226143E-2,9.022283E-2,2.0492738E-2],"split_indices":[1920,1652,1849,1784,1523,1377,1644,728,671,1644,1345,954,896,1876,1720,0,0,686,97,202,1889,1834,1906,287,833,1856,1326,0,0,158,1794,0,0,0,0,0,748,89,0,319,0,1099,1106,0,0,0,697,0,0,126,0,0,0,957,366,0,0,395,0,0,329,815,1667,0,0,0,0,0,1735,0,0,0,0,0,0,0,0,0,0,0,0,0,0],"split_type":[0,0,0,0,0,0,0,0,0,0,0,0,0,0,0,0,0,0,0,0,0,0,0,0,0,0,0,0,0,0,0,0,0,0,0,0,0,0,0,0,0,0,0,0,0,0,0,0,0,0,0,0,0,0,0,0,0,0,0,0,0,0,0,0,0,0,0,0,0,0,0,0,0,0,0,0,0,0,0,0,0,0,0],"sum_hessian":[4.0703574E2,2.61841E2,1.4519475E2,3.860519E1,2.2323581E2,9.3981224E1,5.1213524E1,1.013002E1,2.8475168E1,7.9499886E1,1.4373592E2,2.2955725E1,7.10255E1,1.2821661E1,3.839186E1,3.1464107E0,6.983609E0,6.8442264E0,2.1630943E1,1.4706399E1,6.479349E1,8.595261E1,5.778331E1,1.0367151E1,1.2588574E1,6.622595E0,6.44029E1,3.445751E0,9.37591E0,1.4435626E1,2.3956236E1,3.4769616E0,3.3672647E0,3.4073203E0,1.8223621E1,6.454458E0,8.251941E0,6.0427986E1,4.365505E0,7.7534805E1,8.417797E0,4.4194878E1,1.3588434E1,3.1773913E0,7.18976E0,3.1371353E0,9.451439E0,3.2473474E0,3.3752477E0,6.0988224E1,3.414679E0,3.1960866E0,1.1239539E1,1.1148832E1,1.2807404E1,3.207361E0,5.0445795E0,5.5782063E1,4.645922E0,3.8466039E0,7.36882E1,1.5693356E1,2.8501522E1,4.125485E0,9.46295E0,6.246039E0,3.2054E0,3.1673813E0,5.7820843E1,3.165308E0,7.983525E0,8.401703E0,4.4057007E0,3.9131386E0,5.1868923E1,6.3702152E1,9.986051E0,8.481139E0,7.2122164E0,4.1852746E0,2.4316246E1,5.466658E1,3.1542614E0],"tree_param":{"num_deleted":"0","num_feature":"1990","num_nodes":"83","size_leaf_vector":"1"}},{"base_weights":[1.3001367E-2,1.0364369E0,-2.591414E-1,2.307362E-1,1.5932896E0,-3.566798E-2,-9.52465E-1,1.1247108E0,-1.1463289E0,7.2542317E-3,1.7152077E0,-8.057351E-1,1.6262597E-1,-1.598807E-2,-1.2635868E0,-1.4625141E-2,7.6601624E-2,1.9787548E-3,-7.619529E-2,8.857209E-2,2.7938385E-2,-1.2059488E0,8.0957085E-1,6.825679E-1,-1.7103401E-1,7.078554E-2,-1.0187174E0,-1.4364748E0,3.805071E-2,-9.680512E-3,-1.4813143E0,7.114358E-2,-1.7103355E-2,-5.4975033E-2,8.7078065E-1,-6.1743736E-1,4.6141958E-1,-7.245505E-2,1.2479309E-2,-2.3260759E-1,-1.5977939E0,-4.9406305E-2,3.7774034E-2,-8.354301E-2,-9.989447E-3,1.0552154E0,-4.7527522E-1,-1.0681792E0,1.251721E-1,-4.6966964E-1,8.859828E-1,-5.1418353E-2,3.224881E-2,-8.6498015E-2,-2.4069179E-2,-3.599388E-2,6.0402848E-2,-6.608664E-2,4.007781E-2,-6.355514E-3,-6.99618E-2,2.8277839E-2,-5.5410214E-2,-5.712347E-2,3.7013125E-2,7.119998E-2,5.2982713E-3],"categories":[],"categories_nodes":[],"categories_segments":[],"categories_sizes":[],"default_left":[0,0,0,0,0,0,0,0,0,0,0,0,0,0,0,0,0,0,0,0,0,0,0,0,0,0,0,0,0,0,0,0,0,0,0,0,0,0,0,0,0,0,0,0,0,0,0,0,0,0,0,0,0,0,0,0,0,0,0,0,0,0,0,0,0,0,0],"id":2,"left_children":[1,3,5,7,9,11,13,15,17,-1,19,21,23,25,27,-1,-1,-1,-1,-1,-1,29,31,33,35,-1,37,39,-1,41,43,-1,-1,-1,45,47,49,-1,-1,51,53,-1,-1,-1,-1,55,57,59,61,63,65,-1,-1,-1,-1,-1,-1,-1,-1,-1,-1,-1,-1,-1,-1,-1,-1],"loss_changes":[1.1310025E2,3.7357964E1,4.949996E1,4.8467293E1,8.150398E0,3.7677586E1,2.2543022E1,1.4676542E1,7.263403E0,0E0,7.7230835E-1,3.465678E1,3.4301E1,3.3774403E1,2.2697487E1,0E0,0E0,0E0,0E0,0E0,0E0,1.344257E1,8.978049E0,2.7772652E1,3.47236E1,0E0,8.416892E0,9.66732E0,0E0,8.866625E0,7.2899246E0,0E0,0E0,0E0,1.8676937E1,2.4405787E1,2.1067675E1,0E0,0E0,7.552094E0,5.149849E0,0E0,0E0,0E0,0E0,1.8905815E1,1.2832267E1,1.3509407E1,1.6863026E1,1.5759087E1,1.4591011E1,0E0,0E0,0E0,0E0,0E0,0E0,0E0,0E0,0E0,0E0,0E0,0E0,0E0,0E0,0E0,0E0],"parents":[2147483647,0,0,1,1,2,2,3,3,4,4,5,5,6,6,7,7,8,8,10,10,11,11,12,12,13,13,14,14,21,21,22,22,23,23,24,24,26,26,27,27,29,29,30,30,34,34,35,35,36,36,39,39,40,40,45,45,46,46,47,47,48,48,49,49,50,50],"right_children":[2,4,6,8,10,12,14,16,18,-1,20,22,24,26,28,-1,-1,-1,-1,-1,-1,30,32,34,36,-1,38,40,-1,42,44,-1,-1,-1,46,48,50,-1,-1,52,54,-1,-1,-1,-1,56,58,60,62,64,66,-1,-1,-1,-1,-1,-1,-1,-1,-1,-1,-1,-1,-1,-1,-1,-1],"split_conditions":[9.600511E-3,6.823814E-2,2.0850928E0,5.0018454E-1,5.967235E-1,1.5903877E-1,1.926046E-1,4.1587386E-1,1.5166333E-1,7.2542317E-3,3.2539197E-4,8.896807E-2,7.9543985E-2,4.550174E-1,8.0052805E-1,-1.4625141E-2,7.6601624E-2,1.9787548E-3,-7.619529E-2,8.857209E-2,2.7938385E-2,8.479181E-2,5.6234683E-4,5.8687276E-1,2.4156967E-1,7.078554E-2,5.3135745E-2,5.504522E-2,3.805071E-2,3.4056336E-1,9.955401E-1,7.114358E-2,-1.7103355E-2,-5.4975033E-2,1.9453812E0,1.0150837E-3,4.662743E-2,-7.245505E-2,1.2479309E-2,1.1278159E-2,3.2108073E-4,-4.9406305E-2,3.7774034E-2,-8.354301E-2,-9.989447E-3,5.8897144E-1,4.4940735E-4,1.4098735E-1,7.994594E-2,1.727864E0,6.2053306E-3,-5.1418353E-2,3.224881E-2,-8.6498015E-2,-2.4069179E-2,-3.599388E-2,6.0402848E-2,-6.608664E-2,4.007781E-2,-6.355514E-3,-6.99618E-2,2.8277839E-2,-5.5410214E-2,-5.712347E-2,3.7013125E-2,7.119998E-2,5.2982713E-3],"split_indices":[1624,1720,968,1072,279,110,1617,1090,1923,0,1303,1927,1810,811,157,0,0,0,0,0,0,1898,1404,748,883,0,1666,1722,0,1028,819,0,0,0,1019,1458,1755,0,0,1835,1479,0,0,0,0,733,1421,1974,1640,836,1445,0,0,0,0,0,0,0,0,0,0,0,0,0,0,0,0],"split_type":[0,0,0,0,0,0,0,0,0,0,0,0,0,0,0,0,0,0,0,0,0,0,0,0,0,0,0,0,0,0,0,0,0,0,0,0,0,0,0,0,0,0,0,0,0,0,0,0,0,0,0,0,0,0,0,0,0,0,0,0,0,0,0,0,0,0,0],"sum_hessian":[4.0186734E2,8.33116E1,3.1855576E2,3.5277496E1,4.8034103E1,2.4260571E2,7.595002E1,2.1657093E1,1.3620404E1,4.1335816E0,4.3900524E1,4.852773E1,1.9407799E2,1.9544683E1,5.640534E1,4.9059296E0,1.6751163E1,3.6577072E0,9.962697E0,4.0768017E1,3.1325064E0,3.934759E1,9.180137E0,7.516178E1,1.1891621E2,7.670001E0,1.1874682E1,5.254841E1,3.8569276E0,7.8178825E0,3.1529707E1,5.7394214E0,3.4407156E0,6.204103E0,6.895768E1,6.983226E1,4.908395E1,8.712087E0,3.1625965E0,6.859811E0,4.56886E1,3.2323859E0,4.5854964E0,2.6869843E1,4.659866E0,6.1093204E1,7.8644767E0,4.2994003E1,2.6838251E1,1.52318E1,3.385215E1,3.477166E0,3.3826447E0,3.978941E1,5.89919E0,4.203207E0,5.6889996E1,4.7340746E0,3.1304023E0,1.198764E1,3.1006363E1,2.063455E1,6.2037024E0,9.91345E0,5.31835E0,1.8980768E1,1.4871384E1],"tree_param":{"num_deleted":"0","num_feature":"1990","num_nodes":"67","size_leaf_vector":"1"}},{"base_weights":[1.4279965E-2,-3.2672992E-1,7.1563643E-1,-9.98658E-2,-1.089634E0,-3.190167E-1,1.0375443E0,1.3652182E-1,-7.9996693E-1,4.8223887E-2,-1.2642429E0,8.9403003E-1,-9.154915E-1,1.2739471E0,-2.0138857E-1,-2.6308438E-1,5.3875875E-1,-1.0964816E0,5.555115E-1,2.96186E-2,-1.3902212E0,6.974449E-2,-1.0905313E-2,3.710039E-1,-7.411381E-2,-3.434547E-1,1.4313195E0,8.296338E-1,-5.7904672E-2,-4.8889837E-1,1.0810409E0,-4.1815573E-1,8.2673615E-1,6.8432367E-3,-1.2933308E0,-3.0311784E-2,5.921879E-2,-1.49795E0,1.2270674E-2,-2.5455529E-2,5.7403564E-2,3.7774287E-2,-5.7671368E-2,1.5391228E0,-1.0770009E-2,-1.4907254E-3,6.512025E-2,-8.280394E-1,6.3695204E-1,-4.688296E-3,7.537816E-2,6.171696E-1,-1.1563356E0,1.0017103E0,-5.216004E-1,8.974962E-3,-1.4531157E0,6.4440104E-3,-1.6159992E0,-3.791301E-3,1.6246194E0,1.645533E-2,-5.5921663E-2,5.6228247E-2,-4.3582153E-2,-2.2378257E-2,6.447492E-2,-8.140661E-3,-7.392984E-2,5.895849E-2,-1.3595866E-2,-6.0304552E-2,1.9643085E-2,-4.015395E-3,-7.8809254E-2,-8.454811E-2,-2.0973993E-2,1.2140085E-2,8.420085E-2],"categories":[],"categories_nodes":[],"categories_segments":[],"categories_sizes":[],"default_left":[0,0,0,0,0,0,0,0,0,0,0,0,0,0,0,0,0,0,0,0,0,0,0,0,0,0,0,0,0,0,0,0,0,0,0,0,0,0,0,0,0,0,0,0,0,0,0,0,0,0,0,0,0,0,0,0,0,0,0,0,0,0,0,0,0,0,0,0,0,0,0,0,0,0,0,0,0,0,0],"id":3,"left_children":[1,3,5,7,9,11,13,15,17,-1,19,21,23,25,27,29,31,33,35,-1,37,-1,-1,39,-1,41,43,45,-1,47,49,51,53,-1,55,-1,-1,57,-1,-1,-1,-1,-1,59,-1,-1,-1,61,63,-1,-1,65,67,69,71,-1,73,-1,75,-1,77,-1,-1,-1,-1,-1,-1,-1,-1,-1,-1,-1,-1,-1,-1,-1,-1,-1,-1],"loss_changes":[9.933127E1,4.8003174E1,4.599743E1,3.629382E1,2.5321075E1,2.6026308E1,3.1138107E1,2.671409E1,2.3506733E1,0E0,1.5674759E1,7.447632E0,1.844707E1,2.34505E1,2.005976E1,2.6378376E1,2.3506172E1,1.16678505E1,9.6736965E0,0E0,1.0814728E1,0E0,0E0,7.2340784E0,0E0,1.0101238E1,1.5085083E1,4.247595E0,0E0,2.8959698E1,6.731059E0,1.7045645E1,1.6257603E1,0E0,1.00711975E1,0E0,0E0,1.0809074E1,0E0,0E0,0E0,0E0,0E0,1.0874329E1,0E0,0E0,0E0,1.9990265E1,1.5204039E1,0E0,0E0,8.199593E0,3.401762E0,1.3760712E1,6.432552E0,0E0,5.7309647E0,0E0,2.84935E0,0E0,4.9143524E0,0E0,0E0,0E0,0E0,0E0,0E0,0E0,0E0,0E0,0E0,0E0,0E0,0E0,0E0,0E0,0E0,0E0,0E0],"parents":[2147483647,0,0,1,1,2,2,3,3,4,4,5,5,6,6,7,7,8,8,10,10,11,11,12,12,13,13,14,14,15,15,16,16,17,17,18,18,20,20,23,23,25,25,26,26,27,27,29,29,30,30,31,31,32,32,34,34,37,37,43,43,47,47,48,48,51,51,52,52,53,53,54,54,56,56,58,58,60,60],"right_children":[2,4,6,8,10,12,14,16,18,-1,20,22,24,26,28,30,32,34,36,-1,38,-1,-1,40,-1,42,44,46,-1,48,50,52,54,-1,56,-1,-1,58,-1,-1,-1,-1,-1,60,-1,-1,-1,62,64,-1,-1,66,68,70,72,-1,74,-1,76,-1,78,-1,-1,-1,-1,-1,-1,-1,-1,-1,-1,-1,-1,-1,-1,-1,-1,-1,-1],"split_conditions":[2.6275942E-1,1.2284149E-1,5.404746E-1,1.3058959E0,9.487501E-1,4.673229E-1,2.1196194E0,1.2703568E-1,6.804556E-2,4.8223887E-2,1.9585073E-2,6.1386846E-2,2.436364E-2,1.1168325E-1,5.953922E-1,1.3219641E-1,9.576267E-3,6.232193E-2,4.717452E-3,2.96186E-2,1.7737948E0,6.974449E-2,-1.0905313E-2,6.047504E-1,-7.411381E-2,1.13395266E-1,4.311592E-1,2.230384E-1,-5.7904672E-2,1.7356808E-1,8.89271E-3,6.05204E-2,6.942751E-2,6.8432367E-3,8.9537455E-3,-3.0311784E-2,5.921879E-2,1.306355E-1,1.2270674E-2,-2.5455529E-2,5.7403564E-2,3.7774287E-2,-5.7671368E-2,5.289579E-1,-1.0770009E-2,-1.4907254E-3,6.512025E-2,8.1646845E-2,6.0938452E-3,-4.688296E-3,7.537816E-2,2.05307E-1,9.883723E-2,1.355214E0,5.499098E-1,8.974962E-3,2.3814735E-1,6.4440104E-3,2.1247295E-1,-3.791301E-3,7.153499E-3,1.645533E-2,-5.5921663E-2,5.6228247E-2,-4.3582153E-2,-2.2378257E-2,6.447492E-2,-8.140661E-3,-7.392984E-2,5.895849E-2,-1.3595866E-2,-6.0304552E-2,1.9643085E-2,-4.015395E-3,-7.8809254E-2,-8.454811E-2,-2.0973993E-2,1.2140085E-2,8.420085E-2],"split_indices":[1920,1620,466,816,659,41,954,1561,1345,0,1876,505,370,447,863,1915,1835,1572,1829,0,745,0,0,418,0,1791,194,1650,0,1700,1879,1618,1183,0,455,0,0,21,0,0,0,0,0,279,0,0,0,1652,1485,0,0,399,489,625,775,0,1634,0,1972,0,1513,0,0,0,0,0,0,0,0,0,0,0,0,0,0,0,0,0,0],"split_type":[0,0,0,0,0,0,0,0,0,0,0,0,0,0,0,0,0,0,0,0,0,0,0,0,0,0,0,0,0,0,0,0,0,0,0,0,0,0,0,0,0,0,0,0,0,0,0,0,0,0,0,0,0,0,0,0,0,0,0,0,0,0,0,0,0,0,0,0,0,0,0,0,0,0,0,0,0,0,0],"sum_hessian":[4.1119965E2,2.7729865E2,1.33901E2,2.1558362E2,6.1715034E1,3.1704855E1,1.02196144E2,1.6226302E2,5.33206E1,4.0813813E0,5.763365E1,1.006677E1,2.1638084E1,8.584089E1,1.635525E1,8.162006E1,8.064296E1,4.412422E1,9.196374E0,3.1412425E0,5.449241E1,6.6522865E0,3.4144828E0,6.7748494E0,1.48632345E1,7.345622E0,7.849527E1,7.949425E0,8.405824E0,7.103335E1,1.0586713E1,1.8365442E1,6.2277515E1,6.08713E0,3.8037094E1,3.1992023E0,5.997172E0,5.134044E1,3.1519709E0,3.439833E0,3.3350167E0,3.1215289E0,4.2240934E0,7.385192E1,4.643348E0,3.4109795E0,4.538446E0,5.506418E1,1.5969173E1,3.1729782E0,7.4137354E0,7.7242627E0,1.0641181E1,5.5644787E1,6.632726E0,3.6373098E0,3.4399784E1,3.4036937E0,4.7936745E1,3.6657598E0,7.0186165E1,1.09239645E1,4.4140213E1,1.2503245E1,3.465928E0,3.1908853E0,4.533377E0,3.4195507E0,7.22163E0,4.903886E1,6.605928E0,3.4911096E0,3.1416166E0,3.1689215E0,3.1230862E1,4.425414E1,3.6826057E0,3.3813763E0,6.680479E1],"tree_param":{"num_deleted":"0","num_feature":"1990","num_nodes":"79","size_leaf_vector":"1"}},{"base_weights":[-1.4233407E-2,7.059291E-1,-3.3029747E-1,-1.5604089E-1,1.1798923E0,-1.0131659E-1,-1.0545741E0,6.056378E-1,-1.0173458E0,1.3163135E0,-3.2699533E-2,-2.6031014E-1,9.749828E-1,-1.2661238E0,6.0811186E-1,-8.149901E-1,1.193743E0,2.1986274E-2,-1.3266369E0,1.4186436E0,-3.0465534E-2,5.4332876E-1,-4.4485882E-1,-3.4924425E-2,1.283656E0,1.2743372E-2,-1.4078189E0,5.993236E-2,-1.362769E-2,-4.4426364E-3,-5.911283E-2,-1.1465227E-3,7.342805E-2,-7.7449374E-2,-5.5080354E-3,1.5152284E0,-8.900377E-3,9.863214E-1,-5.838186E-1,-5.7076323E-1,5.7661116E-1,1.5302336E0,-4.7008725E-4,-1.5780089E0,-2.6641586E-1,1.6047058E0,1.5485227E-2,1.2865894E0,-3.325758E-2,3.2085042E-2,-6.288084E-2,-7.231671E-1,5.1877207E-1,7.508128E-2,-5.508847E-1,1.868307E-2,8.4323935E-2,-2.8358966E-2,-8.194973E-2,4.7186494E-2,-5.6391068E-2,8.273054E-2,1.8478274E-2,1.2800022E-3,7.357559E-2,-3.8859677E-3,-4.884775E-2,-2.250479E-2,6.0699124E-2,-5.6769665E-2,1.546399E-2],"categories":[],"categories_nodes":[],"categories_segments":[],"categories_sizes":[],"default_left":[0,0,0,0,0,0,0,0,0,0,0,0,0,0,0,0,0,0,0,0,0,0,0,0,0,0,0,0,0,0,0,0,0,0,0,0,0,0,0,0,0,0,0,0,0,0,0,0,0,0,0,0,0,0,0,0,0,0,0,0,0,0,0,0,0,0,0,0,0,0,0],"id":4,"left_children":[1,3,5,7,9,11,13,15,17,19,-1,21,23,25,27,29,31,-1,33,35,-1,37,39,-1,41,-1,43,-1,-1,-1,-1,-1,-1,-1,-1,45,-1,47,49,51,53,55,-1,57,59,61,-1,63,-1,-1,-1,65,67,-1,69,-1,-1,-1,-1,-1,-1,-1,-1,-1,-1,-1,-1,-1,-1,-1,-1],"loss_changes":[9.312776E1,5.1440517E1,4.685331E1,3.1421108E1,2.2004112E1,3.782276E1,2.5531555E1,2.3354836E1,1.1338707E1,1.6770905E1,0E0,2.8951492E1,1.6553118E1,1.3989319E1,5.4138174E0,1.9637117E0,6.5486946E0,0E0,4.635063E0,1.1891342E1,0E0,1.9496403E1,2.0894894E1,0E0,8.0828285E0,0E0,9.893875E0,0E0,0E0,0E0,0E0,0E0,0E0,0E0,0E0,6.2428436E0,0E0,1.5223825E1,1.1201062E1,2.4213898E1,2.0705042E1,2.3089333E0,0E0,9.059448E-1,1.2338118E1,2.491867E0,0E0,5.297592E0,0E0,0E0,0E0,2.018129E1,1.3568964E1,0E0,5.6142917E0,0E0,0E0,0E0,0E0,0E0,0E0,0E0,0E0,0E0,0E0,0E0,0E0,0E0,0E0,0E0,0E0],"parents":[2147483647,0,0,1,1,2,2,3,3,4,4,5,5,6,6,7,7,8,8,9,9,11,11,12,12,13,13,14,14,15,15,16,16,18,18,19,19,21,21,22,22,24,24,26,26,35,35,37,37,38,38,39,39,40,40,41,41,43,43,44,44,45,45,47,47,51,51,52,52,54,54],"right_children":[2,4,6,8,10,12,14,16,18,20,-1,22,24,26,28,30,32,-1,34,36,-1,38,40,-1,42,-1,44,-1,-1,-1,-1,-1,-1,-1,-1,46,-1,48,50,52,54,56,-1,58,60,62,-1,64,-1,-1,-1,66,68,-1,70,-1,-1,-1,-1,-1,-1,-1,-1,-1,-1,-1,-1,-1,-1,-1,-1],"split_conditions":[4.1843943E-2,1.3802724E-1,9.640396E-2,2.6150453E-1,5.491785E-1,1.6025941E-1,1.2046386E-1,8.76615E-1,6.2982656E-2,5.4002438E-2,-3.2699533E-2,3.696233E-1,1.9612793E-2,1.2520553E-1,1.2163779E0,1.447467E-1,6.7890155E-1,2.1986274E-2,1.1312687E-1,1.8023617E0,-3.0465534E-2,7.93292E-3,2.185396E-1,-3.4924425E-2,4.7113854E-2,1.2743372E-2,1.4329552E-2,5.993236E-2,-1.362769E-2,-4.4426364E-3,-5.911283E-2,-1.1465227E-3,7.342805E-2,-7.7449374E-2,-5.5080354E-3,2.2674903E-1,-8.900377E-3,1.2041943E0,1.8260704E-1,2.630797E0,1.0793259E0,3.8069043E-2,-4.7008725E-4,2.7172435E-3,4.0814534E-2,1.4861548E-4,1.5485227E-2,3.2360262E-1,-3.325758E-2,3.2085042E-2,-6.288084E-2,8.673701E-3,1.9282953E-1,7.508128E-2,1.2426429E-1,1.868307E-2,8.4323935E-2,-2.8358966E-2,-8.194973E-2,4.7186494E-2,-5.6391068E-2,8.273054E-2,1.8478274E-2,1.2800022E-3,7.357559E-2,-3.8859677E-3,-4.884775E-2,-2.250479E-2,6.0699124E-2,-5.6769665E-2,1.546399E-2],"split_indices":[1640,1954,1867,400,372,1614,1792,695,1607,1633,0,1043,1781,1854,635,987,517,0,1607,629,0,390,329,0,1967,0,255,0,0,0,0,0,0,0,0,142,0,658,1986,982,869,505,0,171,1734,1428,0,476,0,0,0,1809,226,0,94,0,0,0,0,0,0,0,0,0,0,0,0,0,0,0,0],"split_type":[0,0,0,0,0,0,0,0,0,0,0,0,0,0,0,0,0,0,0,0,0,0,0,0,0,0,0,0,0,0,0,0,0,0,0,0,0,0,0,0,0,0,0,0,0,0,0,0,0,0,0,0,0,0,0,0,0,0,0,0,0,0,0,0,0,0,0,0,0,0,0],"sum_hessian":[4.0525778E2,1.227605E2,2.8249728E2,4.3954147E1,7.880635E1,2.16476E2,6.6021286E1,2.357957E1,2.0374575E1,7.392603E1,4.880321E0,1.9001562E2,2.6460371E1,5.9045826E1,6.9754624E0,6.627808E0,1.6951763E1,3.3632996E0,1.7011276E1,7.074504E1,3.1809888E0,3.4658978E1,1.5535664E2,3.6768138E0,2.2783558E1,4.835643E0,5.4210182E1,3.8112316E0,3.1642308E0,3.1520011E0,3.475807E0,3.394202E0,1.3557561E1,1.3850721E1,3.160554E0,6.686487E1,3.880175E0,2.5123508E1,9.535469E0,1.3918173E2,1.617491E1,1.8891552E1,3.892004E0,4.6433956E1,7.776224E0,6.155116E1,5.313708E0,2.1683493E1,3.4400148E0,3.3639321E0,6.1715364E0,1.22772644E2,1.6409092E1,8.56945E0,7.60546E0,3.1318347E0,1.5759718E1,3.9075196E0,4.252644E1,3.1058044E0,4.6704197E0,5.8430145E1,3.121015E0,3.1335316E0,1.8549961E1,3.5498177E1,8.727447E1,7.089812E0,9.319281E0,4.2165174E0,3.388943E0],"tree_param":{"num_deleted":"0","num_feature":"1990","num_nodes":"71","size_leaf_vector":"1"}},{"base_weights":[9.239477E-3,1.0426891E0,-1.6574103E-1,-2.0774017E-1,1.4107486E0,1.1135837E-1,-6.091307E-1,5.995587E-1,-5.6397256E-2,7.8335375E-2,-5.214728E-3,4.8936707E-1,-2.2173572E-1,4.4648314E-1,-7.6683885E-1,-1.5171041E-2,5.850307E-2,-6.4578116E-1,7.2032315E-1,-7.7486795E-1,8.691319E-2,-6.238871E-1,6.8038896E-2,-1.0285739E0,-2.5920013E-2,-1.1827497E0,2.8434324E-1,9.6644336E-1,-7.237078E-1,3.5500523E-1,-1.1195163E0,3.290307E-1,-1.2285912E0,2.0073753E-2,-6.10538E-2,-1.2107981E0,4.2180814E-2,-5.8566743E-1,8.154646E-1,-1.2743018E-2,-7.209725E-2,4.695004E-2,-2.2618482E-2,1.0915166E0,-2.8454158E-2,3.7092272E-2,-6.7380436E-2,6.0975194E-2,-3.048866E-2,-1.3252918E0,1.6895562E-2,7.360828E-1,-3.2854813E-1,-7.104E-2,-1.945285E-2,1.808077E-2,-1.3132572E0,-3.4295496E-2,7.024506E-1,3.4862887E-2,-1.0021245E0,-2.190893E-2,6.7703746E-2,5.9060145E-2,-2.3315366E-2,-8.702503E-4,-7.458737E-2,4.6165336E-2,-4.1595437E-2,-4.5779295E-2,3.829735E-2,1.2510165E-2,-6.9696456E-2,-2.9036293E-3,5.868872E-2,-6.902548E-2,1.5546053E-2],"categories":[],"categories_nodes":[],"categories_segments":[],"categories_sizes":[],"default_left":[0,0,0,0,0,0,0,0,0,0,0,0,0,0,0,0,0,0,0,0,0,0,0,0,0,0,0,0,0,0,0,0,0,0,0,0,0,0,0,0,0,0,0,0,0,0,0,0,0,0,0,0,0,0,0,0,0,0,0,0,0,0,0,0,0,0,0,0,0,0,0,0,0,0,0,0,0],"id":5,"left_children":[1,3,5,7,9,11,13,15,-1,-1,-1,17,19,21,23,-1,-1,25,27,29,31,33,-1,35,37,39,41,43,45,47,49,51,53,-1,-1,55,57,59,61,-1,-1,-1,-1,63,-1,-1,-1,-1,-1,65,-1,67,69,-1,-1,-1,71,-1,73,-1,75,-1,-1,-1,-1,-1,-1,-1,-1,-1,-1,-1,-1,-1,-1,-1,-1],"loss_changes":[7.444853E1,2.8147186E1,4.3393482E1,1.2727236E1,1.1432663E1,2.7689451E1,2.3308384E1,5.621758E0,0E0,0E0,0E0,2.7906511E1,2.0196365E1,2.0189793E1,2.289537E1,0E0,0E0,9.938473E0,3.2163956E1,1.7327648E1,2.5194778E1,7.1802754E0,0E0,1.7330307E1,1.656096E1,2.0063229E0,4.886135E0,1.5663094E1,1.4568366E1,1.099656E1,1.0870651E1,1.8336052E1,6.988163E-1,0E0,0E0,1.3142616E1,7.9873796E0,1.2734947E1,1.0746111E1,0E0,0E0,0E0,0E0,1.0942833E1,0E0,0E0,0E0,0E0,0E0,6.181053E0,0E0,1.3820011E1,1.8592594E1,0E0,0E0,0E0,9.765495E0,0E0,3.3737354E0,0E0,9.340139E0,0E0,0E0,0E0,0E0,0E0,0E0,0E0,0E0,0E0,0E0,0E0,0E0,0E0,0E0,0E0,0E0],"parents":[2147483647,0,0,1,1,2,2,3,3,4,4,5,5,6,6,7,7,11,11,12,12,13,13,14,14,17,17,18,18,19,19,20,20,21,21,23,23,24,24,25,25,26,26,27,27,28,28,29,29,30,30,31,31,32,32,35,35,36,36,37,37,38,38,43,43,49,49,51,51,52,52,56,56,58,58,60,60],"right_children":[2,4,6,8,10,12,14,16,-1,-1,-1,18,20,22,24,-1,-1,26,28,30,32,34,-1,36,38,40,42,44,46,48,50,52,54,-1,-1,56,58,60,62,-1,-1,-1,-1,64,-1,-1,-1,-1,-1,66,-1,68,70,-1,-1,-1,72,-1,74,-1,76,-1,-1,-1,-1,-1,-1,-1,-1,-1,-1,-1,-1,-1,-1,-1,-1],"split_conditions":[1.5369345E-2,3.251108E-1,7.4032736E-1,2.154653E-1,2.1311644E-2,3.7114123E-1,4.3071878E-1,1.8460035E-1,-5.6397256E-2,7.8335375E-2,-5.214728E-3,7.5093424E-1,4.1042995E-2,2.3698086E-1,1.339677E-2,-1.5171041E-2,5.850307E-2,1.1864052E0,6.7008436E-2,6.6575687E-3,1.9849029E-1,1.2605443E0,6.8038896E-2,1.7086658E0,1.2426543E-1,5.4868233E-1,4.1476336E-1,2.241155E-1,1.305638E0,3.5619867E-1,6.290918E-1,1.0088174E0,4.1055926E-3,2.0073753E-2,-6.10538E-2,3.5805202E-1,7.248733E-2,6.1519276E-2,5.236125E-1,-1.2743018E-2,-7.209725E-2,4.695004E-2,-2.2618482E-2,7.938563E-3,-2.8454158E-2,3.7092272E-2,-6.7380436E-2,6.0975194E-2,-3.048866E-2,1.4297152E-1,1.6895562E-2,1.669478E-1,7.0602023E-3,-7.104E-2,-1.945285E-2,1.808077E-2,2.050516E-1,-3.4295496E-2,2.551723E-3,3.4862887E-2,7.618693E-2,-2.190893E-2,6.7703746E-2,5.9060145E-2,-2.3315366E-2,-8.702503E-4,-7.458737E-2,4.6165336E-2,-4.1595437E-2,-4.5779295E-2,3.829735E-2,1.2510165E-2,-6.9696456E-2,-2.9036293E-3,5.868872E-2,-6.902548E-2,1.5546053E-2],"split_indices":[1666,332,843,237,2,426,1079,1561,0,0,0,909,1819,1742,1829,0,0,689,1633,1809,1713,562,0,1003,1764,41,1061,1754,703,372,157,735,1147,0,0,326,1857,1699,673,0,0,0,0,1323,0,0,0,0,0,1725,0,1931,1198,0,0,0,967,0,1211,0,1905,0,0,0,0,0,0,0,0,0,0,0,0,0,0,0,0],"split_type":[0,0,0,0,0,0,0,0,0,0,0,0,0,0,0,0,0,0,0,0,0,0,0,0,0,0,0,0,0,0,0,0,0,0,0,0,0,0,0,0,0,0,0,0,0,0,0,0,0,0,0,0,0,0,0,0,0,0,0,0,0,0,0,0,0,0,0,0,0,0,0,0,0,0,0,0,0],"sum_hessian":[4.0730026E2,5.762368E1,3.4967657E2,1.3240488E1,4.4383194E1,2.159742E2,1.337024E2,7.366267E0,5.874221E0,4.0238804E1,4.1443887E0,1.0086753E2,1.1510667E2,1.6820274E1,1.1688212E2,3.1467218E0,4.2195454E0,1.6372335E1,8.449519E1,4.025977E1,7.484689E1,7.991023E0,8.829251E0,8.5697426E1,3.1184692E1,1.0103694E1,6.2686415E0,7.281529E1,1.1679903E1,9.328279E0,3.0931492E1,6.45435E1,1.0303396E1,3.120751E0,4.870272E0,7.309048E1,1.2606949E1,1.91629E1,1.2021791E1,3.1564224E0,6.947272E0,3.1002622E0,3.1683793E0,6.792596E1,4.889331E0,3.3268085E0,8.353095E0,4.6959925E0,4.632286E0,2.732359E1,3.6079016E0,3.9812325E1,2.4731176E1,7.1602345E0,3.1431618E0,4.1020823E0,6.8988396E1,5.886589E0,6.7203603E0,4.3068147E0,1.4856086E1,3.6690817E0,8.35271E0,6.474614E1,3.179818E0,3.4021187E0,2.392147E1,3.635722E1,3.4551027E0,1.636957E1,8.361606E0,3.1179762E0,6.5870415E1,3.1610813E0,3.559279E0,1.1512025E1,3.3440614E0],"tree_param":{"num_deleted":"0","num_feature":"1990","num_nodes":"77","size_leaf_vector":"1"}},{"base_weights":[1.4046562E-2,-2.8180382E-1,5.7851714E-1,6.607182E-2,-7.58221E-1,7.771208E-1,-4.1647992E-1,-2.4395256E-1,6.7938167E-1,1.3079084E-1,-1.0572047E0,9.193542E-1,-4.78161E-1,-9.813919E-1,8.010028E-1,8.104851E-2,-9.751673E-1,9.641636E-1,-8.443884E-1,8.4160185E-1,-7.465974E-1,2.855295E-2,-1.1702597E0,1.152331E0,2.142666E-1,3.665006E-2,-5.935533E-2,1.1020965E-2,-6.767056E-2,6.6446303E-3,5.474923E-2,5.104183E-1,-8.3161956E-1,9.2532985E-2,-1.2759191E0,-3.057434E-2,1.1521158E0,-6.0163695E-2,-3.1489313E-3,-2.4674967E-2,1.2419049E0,-6.012994E-2,2.2608908E-2,-1.5339518E0,-4.8116556E-1,1.3538321E0,6.490935E-2,-8.152175E-1,9.9450153E-1,1.3141589E0,-0E0,-1.2285904E0,2.1385064E-2,-3.5722423E-2,4.0104534E-2,7.7105913E-4,-1.4633833E0,1.3697586E0,2.0636993E-2,1.1508527E-2,7.397715E-2,-1.6026696E0,-1.9870173E-2,3.4467053E-1,-1.141008E0,1.4681417E0,1.8013105E-1,-5.5556547E-2,6.405066E-1,1.8694578E-2,-6.6741474E-2,7.01681E-2,-1.3484399E-2,7.418989E-2,1.1081214E-2,2.621918E-2,-3.84528E-2,-7.220554E-2,-6.16285E-3,-7.9348825E-2,-2.351055E-2,7.608331E-2,-3.3288032E-3,-4.2546745E-2,4.6189863E-2,-8.266285E-2,-2.8663224E-2,6.525596E-2,-3.3295903E-2,-7.020628E-2,-3.5539994E-3,7.775545E-2,1.34323565E-2,-2.9452527E-2,4.5649007E-2,5.904917E-2,-1.3952183E-2],"categories":[],"categories_nodes":[],"categories_segments":[],"categories_sizes":[],"default_left":[0,0,0,0,0,0,0,0,0,0,0,0,0,0,0,0,0,0,0,0,0,0,0,0,0,0,0,0,0,0,0,0,0,0,0,0,0,0,0,0,0,0,0,0,0,0,0,0,0,0,0,0,0,0,0,0,0,0,0,0,0,0,0,0,0,0,0,0,0,0,0,0,0,0,0,0,0,0,0,0,0,0,0,0,0,0,0,0,0,0,0,0,0,0,0,0,0],"id":6,"left_children":[1,3,5,7,9,11,13,15,17,19,21,23,25,27,29,31,33,35,37,39,41,-1,43,45,47,-1,-1,-1,-1,-1,-1,49,51,53,55,-1,57,-1,-1,-1,59,-1,-1,61,63,65,67,69,71,73,75,77,-1,-1,-1,-1,79,81,83,-1,-1,85,-1,87,89,91,93,-1,95,-1,-1,-1,-1,-1,-1,-1,-1,-1,-1,-1,-1,-1,-1,-1,-1,-1,-1,-1,-1,-1,-1,-1,-1,-1,-1,-1,-1],"loss_changes":[6.749416E1,4.4090008E1,2.815567E1,2.9824911E1,3.0171272E1,2.1754341E1,1.833773E1,2.5020323E1,2.4483686E1,1.9921951E1,1.6897896E1,1.6708748E1,1.3049951E1,8.573338E0,1.3072867E0,2.9783545E1,1.07341175E1,1.4890842E1,2.329906E0,1.0668688E1,9.026018E0,0E0,1.823513E1,1.6943306E1,2.4755554E1,0E0,0E0,0E0,0E0,0E0,0E0,2.113516E1,1.329674E1,6.2485456E0,6.345619E0,0E0,9.9649315E0,0E0,0E0,0E0,2.540762E0,0E0,0E0,2.50914E0,1.7462994E1,8.198952E0,1.1187296E1,9.4054985E0,9.8264065E0,2.8821068E0,1.4337189E1,4.032507E0,0E0,0E0,0E0,0E0,1.0383377E0,7.875412E0,8.475687E0,0E0,0E0,3.4744263E-1,0E0,1.6357365E1,4.568548E0,5.245468E0,5.7526803E0,0E0,6.2443624E0,0E0,0E0,0E0,0E0,0E0,0E0,0E0,0E0,0E0,0E0,0E0,0E0,0E0,0E0,0E0,0E0,0E0,0E0,0E0,0E0,0E0,0E0,0E0,0E0,0E0,0E0,0E0,0E0],"parents":[2147483647,0,0,1,1,2,2,3,3,4,4,5,5,6,6,7,7,8,8,9,9,10,10,11,11,12,12,13,13,14,14,15,15,16,16,17,17,18,18,19,19,20,20,22,22,23,23,24,24,31,31,32,32,33,33,34,34,36,36,40,40,43,43,44,44,45,45,46,46,47,47,48,48,49,49,50,50,51,51,56,56,57,57,58,58,61,61,63,63,64,64,65,65,66,66,68,68],"right_children":[2,4,6,8,10,12,14,16,18,20,22,24,26,28,30,32,34,36,38,40,42,-1,44,46,48,-1,-1,-1,-1,-1,-1,50,52,54,56,-1,58,-1,-1,-1,60,-1,-1,62,64,66,68,70,72,74,76,78,-1,-1,-1,-1,80,82,84,-1,-1,86,-1,88,90,92,94,-1,96,-1,-1,-1,-1,-1,-1,-1,-1,-1,-1,-1,-1,-1,-1,-1,-1,-1,-1,-1,-1,-1,-1,-1,-1,-1,-1,-1,-1],"split_conditions":[3.7149236E-1,1.3228902E0,1.0804466E-1,3.3362582E-2,4.261074E-2,1.3455586E-1,3.660165E-1,1.7825735E-1,2.7083492E-1,1.10577635E-1,2.684182E-2,1.5619098E-1,9.799212E-1,2.1997842E-1,4.9915114E-1,1.05951294E-1,6.1657142E-2,3.4460413E-1,3.3356696E-1,7.529823E-2,2.5366676E-1,2.855295E-2,5.6212604E-2,3.7532556E-1,1.4357564E-1,3.665006E-2,-5.935533E-2,1.1020965E-2,-6.767056E-2,6.6446303E-3,5.474923E-2,6.290394E-2,2.0213906E-2,3.135566E-4,9.601271E-2,-3.057434E-2,1.7044953E-1,-6.0163695E-2,-3.1489313E-3,-2.4674967E-2,1.2619734E0,-6.012994E-2,2.2608908E-2,3.970748E-2,2.0357747E-1,3.291516E-1,1.3132215E-3,3.2867914E-1,5.4117244E-1,2.0215784E-1,6.5905076E-1,3.1372536E-2,2.1385064E-2,-3.5722423E-2,4.0104534E-2,7.7105913E-4,9.225385E-1,2.6909232E-1,2.2426693E-1,1.1508527E-2,7.397715E-2,1.2419481E-1,-1.9870173E-2,1.6088822E0,9.2292815E-2,6.1553486E-2,4.2120726E-3,-5.5556547E-2,7.044657E-2,1.8694578E-2,-6.6741474E-2,7.01681E-2,-1.3484399E-2,7.418989E-2,1.1081214E-2,2.621918E-2,-3.84528E-2,-7.220554E-2,-6.16285E-3,-7.9348825E-2,-2.351055E-2,7.608331E-2,-3.3288032E-3,-4.2546745E-2,4.6189863E-2,-8.266285E-2,-2.8663224E-2,6.525596E-2,-3.3295903E-2,-7.020628E-2,-3.5539994E-3,7.775545E-2,1.34323565E-2,-2.9452527E-2,4.5649007E-2,5.904917E-2,-1.3952183E-2],"split_indices":[491,774,1865,202,1883,1710,125,1923,1705,1622,1631,1931,801,155,311,1637,1684,141,1787,1614,1687,0,1939,1005,471,0,0,0,0,0,0,900,373,1271,1841,0,1789,0,0,0,554,0,0,1204,1701,115,1189,15,1069,1815,317,1543,0,0,0,0,536,270,1650,0,0,1959,0,688,430,1587,1213,0,1739,0,0,0,0,0,0,0,0,0,0,0,0,0,0,0,0,0,0,0,0,0,0,0,0,0,0,0,0],"split_type":[0,0,0,0,0,0,0,0,0,0,0,0,0,0,0,0,0,0,0,0,0,0,0,0,0,0,0,0,0,0,0,0,0,0,0,0,0,0,0,0,0,0,0,0,0,0,0,0,0,0,0,0,0,0,0,0,0,0,0,0,0,0,0,0,0,0,0,0,0,0,0,0,0,0,0,0,0,0,0,0,0,0,0,0,0,0,0,0,0,0,0,0,0,0,0,0,0],"sum_hessian":[4.000294E2,2.6300668E2,1.3702272E2,1.5288449E2,1.10122185E2,1.1467231E2,2.2350409E1,1.02242805E2,5.064169E1,2.7913507E1,8.220868E1,1.03553734E2,1.1118573E1,1.5587691E1,6.7627177E0,7.191881E1,3.0324E1,4.3341583E1,7.3001084E0,1.5528629E1,1.2384879E1,4.753922E0,7.745476E1,7.677508E1,2.677866E1,4.028082E0,7.0904913E0,3.8137033E0,1.1773988E1,3.0577798E0,3.704938E0,4.958317E1,2.2335632E1,6.8957E0,2.34283E1,4.0820284E0,3.9259552E1,4.174926E0,3.1251826E0,3.4169354E0,1.2111693E1,9.027829E0,3.3570492E0,4.8997505E1,2.8457249E1,6.428163E1,1.2493445E1,1.1451325E1,1.5327334E1,1.8019506E1,3.1563665E1,1.7079836E1,5.255797E0,3.1539674E0,3.7417324E0,3.135002E0,2.0293299E1,3.2498768E1,6.760784E0,3.1326263E0,8.979067E0,4.5347485E1,3.6500208E0,1.2995842E1,1.5461407E1,5.804187E1,6.2397614E0,3.4368556E0,9.056589E0,3.5943177E0,7.857008E0,1.1475039E1,3.8522964E0,1.4898436E1,3.1210713E0,1.9161121E1,1.2402544E1,1.3704284E1,3.3755515E0,1.6894445E1,3.3988526E0,2.934593E1,3.1528392E0,3.4430676E0,3.3177166E0,4.1975506E1,3.371981E0,6.415094E0,6.580748E0,1.1833202E1,3.6282048E0,5.348753E1,4.554339E0,3.1693096E0,3.0704517E0,5.4143677E0,3.642222E0],"tree_param":{"num_deleted":"0","num_feature":"1990","num_nodes":"97","size_leaf_vector":"1"}},{"base_weights":[-1.0895958E-2,9.783737E-1,-1.6817293E-1,-2.7722442E-1,1.3652506E0,-5.3465026E-3,-8.291321E-1,3.967179E-2,-9.4609356E-1,1.4705735E0,2.8272157E-3,-3.0774483E-1,4.4319415E-1,4.7771788E-1,-1.0820171E0,-6.3436836E-2,-5.718668E-3,2.2569684E-2,7.6374255E-2,-5.9398692E-2,-8.717537E-1,5.7862216E-1,-8.1503767E-1,6.021036E-2,-4.0789988E-2,3.7381813E-2,-1.2547145E0,-5.4360336E-1,2.761693E-1,-1.0411782E0,2.761713E-2,6.923382E-1,-8.5983634E-1,1.0675541E-2,-6.184889E-2,1.04765944E-1,-1.4599998E0,-9.4492626E-1,3.9910462E-1,-6.0255706E-1,6.61262E-1,2.0474121E-2,-1.2166318E0,8.5864025E-1,-3.5204455E-1,-1.2263383E-2,-5.489849E-2,-5.2882086E-2,5.652058E-2,-0E0,-7.882698E-2,-6.17582E-2,1.138603E-2,-2.7223459E-2,5.1562782E-2,-4.846343E-2,4.046115E-2,4.6153847E-2,-2.4829224E-2,-6.699474E-2,9.415868E-3,5.317315E-2,-6.33409E-3,-5.884936E-2,2.2574892E-2],"categories":[],"categories_nodes":[],"categories_segments":[],"categories_sizes":[],"default_left":[0,0,0,0,0,0,0,0,0,0,0,0,0,0,0,0,0,0,0,0,0,0,0,0,0,0,0,0,0,0,0,0,0,0,0,0,0,0,0,0,0,0,0,0,0,0,0,0,0,0,0,0,0,0,0,0,0,0,0,0,0,0,0,0,0],"id":7,"left_children":[1,3,5,7,9,11,13,-1,15,17,-1,19,21,23,25,-1,-1,-1,-1,27,29,31,33,-1,-1,-1,35,37,39,41,-1,43,45,-1,-1,47,49,51,53,55,57,-1,59,61,63,-1,-1,-1,-1,-1,-1,-1,-1,-1,-1,-1,-1,-1,-1,-1,-1,-1,-1,-1,-1],"loss_changes":[6.2986675E1,2.783493E1,3.7544353E1,1.2028581E1,5.5859756E0,3.8607372E1,2.389376E1,0E0,2.256137E0,7.1418E-1,0E0,2.3641256E1,2.0436766E1,1.3758356E1,2.040512E1,0E0,0E0,0E0,0E0,1.9894558E1,1.368721E1,1.829189E1,5.790108E0,0E0,0E0,0E0,1.5576828E1,1.9760174E1,2.5280579E1,1.3042652E1,0E0,1.7702976E1,5.7024765E-1,0E0,0E0,1.3029581E1,7.973213E0,1.2848722E1,1.0887743E1,1.3496565E1,1.6518885E1,0E0,7.980625E0,1.7585308E1,1.0958215E1,0E0,0E0,0E0,0E0,0E0,0E0,0E0,0E0,0E0,0E0,0E0,0E0,0E0,0E0,0E0,0E0,0E0,0E0,0E0,0E0],"parents":[2147483647,0,0,1,1,2,2,3,3,4,4,5,5,6,6,8,8,9,9,11,11,12,12,13,13,14,14,19,19,20,20,21,21,22,22,26,26,27,27,28,28,29,29,31,31,32,32,35,35,36,36,37,37,38,38,39,39,40,40,42,42,43,43,44,44],"right_children":[2,4,6,8,10,12,14,-1,16,18,-1,20,22,24,26,-1,-1,-1,-1,28,30,32,34,-1,-1,-1,36,38,40,42,-1,44,46,-1,-1,48,50,52,54,56,58,-1,60,62,64,-1,-1,-1,-1,-1,-1,-1,-1,-1,-1,-1,-1,-1,-1,-1,-1,-1,-1,-1,-1],"split_conditions":[1.5001387E-2,3.251108E-1,9.640396E-2,3.024825E-2,2.8117436E-1,1.12209916E-1,3.7675165E-2,3.967179E-2,1.7959929E-1,4.15672E-1,2.8272157E-3,4.3817917E-1,1.3835406E0,7.233273E-1,3.3130932E-1,-6.3436836E-2,-5.718668E-3,2.2569684E-2,7.6374255E-2,1.9723326E-1,1.2118044E0,1.6473558E-2,1.0043552E0,6.021036E-2,-4.0789988E-2,3.7381813E-2,1.8859829E-1,5.047333E-1,2.8585829E-2,3.230552E-2,2.761713E-2,8.349112E-1,5.6173086E-1,1.0675541E-2,-6.184889E-2,3.2694772E-2,1.6282424E-1,8.751858E-3,8.4000266E-1,8.825834E-1,9.522077E-1,2.0474121E-2,1.1963617E-2,3.571766E-2,1.8323421E-1,-1.2263383E-2,-5.489849E-2,-5.2882086E-2,5.652058E-2,-0E0,-7.882698E-2,-6.17582E-2,1.138603E-2,-2.7223459E-2,5.1562782E-2,-4.846343E-2,4.046115E-2,4.6153847E-2,-2.4829224E-2,-6.699474E-2,9.415868E-3,5.317315E-2,-6.33409E-3,-5.884936E-2,2.2574892E-2],"split_indices":[1666,332,1867,409,512,1987,1644,0,114,614,0,153,798,397,1088,0,0,0,0,110,519,1474,650,0,0,0,1617,421,1952,1953,0,527,210,0,0,1924,323,1136,536,108,697,0,1392,1869,447,0,0,0,0,0,0,0,0,0,0,0,0,0,0,0,0,0,0,0,0],"split_type":[0,0,0,0,0,0,0,0,0,0,0,0,0,0,0,0,0,0,0,0,0,0,0,0,0,0,0,0,0,0,0,0,0,0,0,0,0,0,0,0,0,0,0,0,0,0,0,0,0,0,0,0,0,0,0,0,0,0,0,0,0,0,0,0,0],"sum_hessian":[4.0123215E2,5.351931E1,3.4771283E2,1.2678848E1,4.084046E1,2.8072424E2,6.698858E1,4.674458E0,8.004391E0,3.749883E1,3.3416348E0,1.6818654E2,1.1253771E2,1.050867E1,5.647991E1,4.923389E0,3.0810013E0,3.020869E0,3.447796E1,1.1842792E2,4.975862E1,1.0264897E2,9.888741E0,6.86719E0,3.64148E0,4.2470374E0,5.2232876E1,4.8092052E1,7.033587E1,4.501159E1,4.7470345E0,9.615447E1,6.4945006E0,3.0950365E0,6.7937036E0,6.917127E0,4.5315746E1,3.3803036E1,1.4289016E1,2.1008467E1,4.93274E1,4.507301E0,4.0504288E1,8.3335945E1,1.2818529E1,3.064798E0,3.4297028E0,3.1674411E0,3.7496862E0,3.5287957E0,4.1786953E1,2.7079367E1,6.7236705E0,5.780311E0,8.508704E0,1.7230532E1,3.7779343E0,4.0631588E1,8.695814E0,3.7387856E1,3.1164312E0,6.8946625E1,1.43893175E1,5.9278054E0,6.890724E0],"tree_param":{"num_deleted":"0","num_feature":"1990","num_nodes":"65","size_leaf_vector":"1"}},{"base_weights":[6.394078E-3,5.9645194E-1,-2.7996182E-1,6.0081914E-2,1.1269846E0,7.45599E-1,-4.1686702E-1,-2.2718033E-1,1.0506189E0,-5.296714E-2,1.2820362E0,1.000177E0,-3.627106E-2,-6.903812E-1,2.2243528E-1,5.1760966E-1,-8.153973E-1,6.5107055E-2,1.4934793E-5,1.3708243E0,-1.174338E-2,-9.395222E-3,1.3044543E0,-2.1769866E-1,-9.4500494E-1,-2.456922E-1,7.8470767E-1,-4.9983707E-1,1.0624286E0,-1.0715683E0,4.4557426E-2,-4.433311E-3,1.4757012E0,7.308641E-2,7.627663E-3,-8.4244555E-1,3.1393117E-1,-1.8831263E-1,-1.1393675E0,-5.5100125E-1,5.3292222E-2,1.2879443E0,-1.5323615E-1,-5.159069E-2,1.9493094E-2,-7.768071E-3,6.843202E-2,5.2136327E-3,-1.3229653E0,2.310155E-2,7.590032E-2,-1.1800939E0,3.0276973E-2,7.1756023E-1,-7.667166E-1,4.9725142E-1,-8.314424E-1,-1.2102637E0,2.2948014E-2,2.7543856E-2,-8.082695E-1,1.3096089E-2,7.339721E-2,-7.333623E-1,4.646813E-2,-5.932192E-3,-7.63782E-2,-6.925072E-2,-4.861567E-3,-6.038218E-3,6.1168145E-2,4.4873143E-3,-5.8750223E-2,-3.3119746E-2,5.621123E-2,8.693183E-3,-6.040447E-2,-2.2599572E-2,-6.864222E-2,3.775593E-2,-5.3542715E-2,1.1391245E-2,-6.2155604E-2],"categories":[],"categories_nodes":[],"categories_segments":[],"categories_sizes":[],"default_left":[0,0,0,0,0,0,0,0,0,0,0,0,0,0,0,0,0,0,0,0,0,0,0,0,0,0,0,0,0,0,0,0,0,0,0,0,0,0,0,0,0,0,0,0,0,0,0,0,0,0,0,0,0,0,0,0,0,0,0,0,0,0,0,0,0,0,0,0,0,0,0,0,0,0,0,0,0,0,0,0,0,0,0],"id":8,"left_children":[1,3,5,7,9,11,13,15,17,-1,19,21,-1,23,25,27,29,-1,-1,31,-1,-1,33,35,37,39,41,43,45,47,-1,-1,49,-1,-1,51,53,55,57,59,-1,61,63,-1,-1,-1,-1,-1,65,-1,-1,67,-1,69,71,73,75,77,-1,-1,79,-1,-1,81,-1,-1,-1,-1,-1,-1,-1,-1,-1,-1,-1,-1,-1,-1,-1,-1,-1,-1,-1],"loss_changes":[6.753415E1,3.692071E1,3.8341686E1,1.9672066E1,2.4932564E1,1.3573959E1,4.207307E1,2.4371037E1,3.972725E0,0E0,9.11898E0,1.0880257E1,0E0,1.9655434E1,1.9626078E1,1.4874277E1,1.5400848E1,0E0,0E0,9.431999E0,0E0,0E0,3.5510063E0,2.09897E1,1.5358788E1,1.7621618E1,1.6410355E1,5.578162E0,6.8357487E0,8.602331E0,0E0,0E0,7.675476E-1,0E0,0E0,1.5605337E1,1.6172825E1,1.1717077E1,1.088887E1,1.0782045E1,0E0,3.1595688E0,9.810885E0,0E0,0E0,0E0,0E0,0E0,5.16053E0,0E0,0E0,4.9416885E0,0E0,1.1543806E1,3.9209962E0,1.1056444E1,5.64614E0,8.75943E0,0E0,0E0,1.3594664E1,0E0,0E0,5.5461516E0,0E0,0E0,0E0,0E0,0E0,0E0,0E0,0E0,0E0,0E0,0E0,0E0,0E0,0E0,0E0,0E0,0E0,0E0,0E0],"parents":[2147483647,0,0,1,1,2,2,3,3,4,4,5,5,6,6,7,7,8,8,10,10,11,11,13,13,14,14,15,15,16,16,19,19,22,22,23,23,24,24,25,25,26,26,27,27,28,28,29,29,32,32,35,35,36,36,37,37,38,38,39,39,41,41,42,42,48,48,51,51,53,53,54,54,55,55,56,56,57,57,60,60,63,63],"right_children":[2,4,6,8,10,12,14,16,18,-1,20,22,-1,24,26,28,30,-1,-1,32,-1,-1,34,36,38,40,42,44,46,48,-1,-1,50,-1,-1,52,54,56,58,60,-1,62,64,-1,-1,-1,-1,-1,66,-1,-1,68,-1,70,72,74,76,78,-1,-1,80,-1,-1,82,-1,-1,-1,-1,-1,-1,-1,-1,-1,-1,-1,-1,-1,-1,-1,-1,-1,-1,-1],"split_conditions":[4.3607846E-2,3.0504513E-1,7.28096E-1,2.479806E0,1.11667275E-1,3.0508175E0,1.339677E-2,1.1930197E-1,7.985364E-1,-5.296714E-2,2.042892E0,7.926783E-1,-3.627106E-2,1.6501841E-1,2.5092623E-1,6.290939E-3,1.623235E-2,6.5107055E-2,1.4934793E-5,1.1168325E-1,-1.174338E-2,-9.395222E-3,1.5420516E0,2.160963E-1,1.1708883E-3,1.12751864E-1,1.4696498E-1,5.88317E-2,4.4475295E-2,7.3170923E-3,4.4557426E-2,-4.433311E-3,5.216286E-4,7.308641E-2,7.627663E-3,1.350935E-1,1.1925194E0,5.1075336E-2,2.8399724E-1,8.261578E-2,5.3292222E-2,1.3870594E-1,1.3248711E0,-5.159069E-2,1.9493094E-2,-7.768071E-3,6.843202E-2,5.2136327E-3,6.806657E-2,2.310155E-2,7.590032E-2,7.6461606E-2,3.0276973E-2,5.965264E-1,6.1943576E-2,8.4035945E-1,1.3858992E-1,6.8584704E-3,2.2948014E-2,2.7543856E-2,5.3529334E-1,1.3096089E-2,7.339721E-2,1.8707141E-1,4.646813E-2,-5.932192E-3,-7.63782E-2,-6.925072E-2,-4.861567E-3,-6.038218E-3,6.1168145E-2,4.4873143E-3,-5.8750223E-2,-3.3119746E-2,5.621123E-2,8.693183E-3,-6.040447E-2,-2.2599572E-2,-6.864222E-2,3.775593E-2,-5.3542715E-2,1.1391245E-2,-6.2155604E-2],"split_indices":[1640,1634,864,979,1701,991,1829,1770,599,0,479,672,0,411,883,1574,1624,0,0,447,0,0,720,1650,1530,1828,1954,1297,73,1159,0,0,1344,0,0,1714,659,414,1297,1748,0,1946,785,0,0,0,0,0,102,0,0,1903,0,862,1964,832,362,1809,0,0,1070,0,0,53,0,0,0,0,0,0,0,0,0,0,0,0,0,0,0,0,0,0,0],"split_type":[0,0,0,0,0,0,0,0,0,0,0,0,0,0,0,0,0,0,0,0,0,0,0,0,0,0,0,0,0,0,0,0,0,0,0,0,0,0,0,0,0,0,0,0,0,0,0,0,0,0,0,0,0,0,0,0,0,0,0,0,0,0,0,0,0,0,0,0,0,0,0,0,0,0,0,0,0,0,0,0,0,0,0],"sum_hessian":[3.9552557E2,1.2863889E2,2.668867E2,6.516842E1,6.347047E1,3.0298336E1,2.3658835E2,5.1634434E1,1.3533982E1,3.3880084E0,6.0082462E1,2.6432081E1,3.8662558E0,1.656952E2,7.089315E1,2.2815683E1,2.8818748E1,1.045547E1,3.0785124E0,5.700438E1,3.0780847E0,5.4781923E0,2.0953888E1,5.944479E1,1.0625042E2,3.9202663E1,3.1690483E1,7.950236E0,1.4865448E1,2.5755358E1,3.0633912E0,3.7784374E0,5.322594E1,1.7886953E1,3.0669339E0,2.6877913E1,3.256688E1,2.2623775E1,8.362664E1,3.2802635E1,6.4000287E0,2.0208359E1,1.1482124E1,4.845752E0,3.104484E0,3.1192062E0,1.1746242E1,4.6727104E0,2.1082647E1,3.1822762E0,5.0043667E1,2.2151577E1,4.7263346E0,2.4267372E1,8.299505E0,1.1094941E1,1.1528834E1,8.059968E1,3.0269673E0,5.703475E0,2.7099161E1,3.8318882E0,1.637647E1,7.956221E0,3.5259037E0,3.5913796E0,1.7491268E1,1.8079763E1,4.0718145E0,9.630471E0,1.4636902E1,3.1039083E0,5.1955967E0,3.7978911E0,7.2970505E0,3.3632598E0,8.165574E0,1.5673616E1,6.4926056E1,3.3027666E0,2.3796394E1,3.0725532E0,4.883668E0],"tree_param":{"num_deleted":"0","num_feature":"1990","num_nodes":"83","size_leaf_vector":"1"}},{"base_weights":[1.0710611E-2,7.376126E-1,-1.944888E-1,3.2654002E-2,1.2395767E0,-5.5624205E-1,3.5892546E-2,8.7444186E-1,-4.7764453E-1,1.3852105E0,-1.0454106E-2,-2.3822074E-1,-1.1513902E0,1.4171968E-1,-6.458747E-2,-3.2848138E-3,6.3077204E-2,4.182959E-2,-9.9386555E-1,7.3308215E-2,6.1127986E-3,5.700384E-1,-5.8726937E-1,-1.3559885E0,1.0926256E-2,-3.5816662E-2,7.7573764E-1,3.3753638E-3,-6.601994E-2,9.8073876E-1,-4.4386026E-2,4.4306885E-2,-7.325526E-1,-9.564728E-3,-7.240673E-2,-5.582936E-1,2.9543582E-1,1.383849E0,-1.4487556E-1,1.3277085E0,-1.656212E-2,-9.410302E-1,4.6981916E-1,3.4275554E-2,-1.056823E0,-1.3127327E-1,8.67784E-1,7.510132E-2,1.960748E-2,-5.2174784E-2,5.150262E-1,7.44477E-2,1.7348161E-2,-0E0,-5.899725E-2,5.2690636E-2,-1.9031113E-2,3.866328E-2,-3.3588156E-2,-6.559242E-2,9.804995E-3,-1.9193204E-2,5.064863E-2,5.672439E-2,-1.9277494E-2,5.7928648E-2,-2.9726654E-2],"categories":[],"categories_nodes":[],"categories_segments":[],"categories_sizes":[],"default_left":[0,0,0,0,0,0,0,0,0,0,0,0,0,0,0,0,0,0,0,0,0,0,0,0,0,0,0,0,0,0,0,0,0,0,0,0,0,0,0,0,0,0,0,0,0,0,0,0,0,0,0,0,0,0,0,0,0,0,0,0,0,0,0,0,0,0,0],"id":9,"left_children":[1,3,5,7,9,11,13,15,17,19,-1,21,23,25,-1,-1,-1,-1,27,-1,-1,29,31,33,-1,35,37,-1,-1,39,-1,-1,41,-1,-1,43,45,47,49,51,-1,53,55,57,59,61,63,-1,-1,-1,65,-1,-1,-1,-1,-1,-1,-1,-1,-1,-1,-1,-1,-1,-1,-1,-1],"loss_changes":[5.8379696E1,3.028936E1,2.5504204E1,1.7190432E1,1.1288361E1,2.1821259E1,2.6664347E1,5.786232E0,1.8548735E1,4.179825E0,0E0,2.3280184E1,1.2137825E1,1.9938868E1,0E0,0E0,0E0,0E0,6.8268223E0,0E0,0E0,1.6777185E1,1.3493025E1,3.126999E0,0E0,2.4460978E1,2.2196411E1,0E0,0E0,1.0350151E1,0E0,0E0,1.42361145E1,0E0,0E0,1.6377926E1,2.140923E1,1.3944855E0,1.1293945E1,1.4304123E0,0E0,1.0434414E1,5.39215E0,1.5087682E1,1.0193634E1,1.5498496E1,1.3410196E1,0E0,0E0,0E0,9.402664E0,0E0,0E0,0E0,0E0,0E0,0E0,0E0,0E0,0E0,0E0,0E0,0E0,0E0,0E0,0E0,0E0],"parents":[2147483647,0,0,1,1,2,2,3,3,4,4,5,5,6,6,7,7,8,8,9,9,11,11,12,12,13,13,18,18,21,21,22,22,23,23,25,25,26,26,29,29,32,32,35,35,36,36,37,37,38,38,39,39,41,41,42,42,43,43,44,44,45,45,46,46,50,50],"right_children":[2,4,6,8,10,12,14,16,18,20,-1,22,24,26,-1,-1,-1,-1,28,-1,-1,30,32,34,-1,36,38,-1,-1,40,-1,-1,42,-1,-1,44,46,48,50,52,-1,54,56,58,60,62,64,-1,-1,-1,66,-1,-1,-1,-1,-1,-1,-1,-1,-1,-1,-1,-1,-1,-1,-1,-1],"split_conditions":[1.0020403E-2,2.978596E-1,9.2607236E-1,4.4815168E-1,6.145114E-2,7.742969E-1,1.3407175E-1,6.43761E-2,6.602399E-2,8.287651E-2,-1.0454106E-2,1.7267184E-1,1.8240232E-2,5.353272E-2,-6.458747E-2,-3.2848138E-3,6.3077204E-2,4.182959E-2,1.7588663E0,7.3308215E-2,6.1127986E-3,1.4283831E0,1.0653892E-1,5.747816E-2,1.0926256E-2,4.2529273E-1,1.8190108E-1,3.3753638E-3,-6.601994E-2,3.9685386E-1,-4.4386026E-2,4.4306885E-2,5.5063028E-2,-9.564728E-3,-7.240673E-2,5.3944007E-2,2.4129462E-1,3.9019436E-4,7.589743E-2,7.208746E-1,-1.656212E-2,2.855934E-1,5.753268E-1,6.8107605E-2,1.3740458E-1,1.4633161E-1,2.2397669E-1,7.510132E-2,1.960748E-2,-5.2174784E-2,3.4730826E-2,7.44477E-2,1.7348161E-2,-0E0,-5.899725E-2,5.2690636E-2,-1.9031113E-2,3.866328E-2,-3.3588156E-2,-6.559242E-2,9.804995E-3,-1.9193204E-2,5.064863E-2,5.672439E-2,-1.9277494E-2,5.7928648E-2,-2.9726654E-2],"split_indices":[1624,1634,760,220,1594,862,1961,73,353,1755,0,411,451,69,0,0,0,0,719,0,0,636,1789,1667,0,418,1843,0,0,1950,0,0,1768,0,0,1697,1920,1247,1669,677,0,1950,305,1523,367,1544,1660,0,0,0,1690,0,0,0,0,0,0,0,0,0,0,0,0,0,0,0,0],"split_type":[0,0,0,0,0,0,0,0,0,0,0,0,0,0,0,0,0,0,0,0,0,0,0,0,0,0,0,0,0,0,0,0,0,0,0,0,0,0,0,0,0,0,0,0,0,0,0,0,0,0,0,0,0,0,0,0,0,0,0,0,0,0,0,0,0,0,0],"sum_hessian":[3.8710245E2,8.4184364E1,3.029181E2,3.5981396E1,4.820297E1,1.16924355E2,1.8599373E2,1.3115262E1,2.2866135E1,4.3942093E1,4.2608757E0,7.81389E1,3.8785458E1,1.7398695E2,1.2006775E1,4.2341685E0,8.881094E0,6.0439744E0,1.682216E1,4.0918304E1,3.023789E0,2.3098694E1,5.5040207E1,3.382673E1,4.958728E0,1.372764E2,3.6710552E1,4.258966E0,1.2563194E1,1.8585564E1,4.513131E0,3.9628992E0,5.107731E1,3.010631E0,3.08161E1,5.2849377E1,8.4427025E1,2.156683E1,1.514372E1,1.4739708E1,3.8458545E0,4.3971096E1,7.106212E0,2.4906528E1,2.7942848E1,4.9150143E1,3.5276886E1,1.826073E1,3.3061006E0,5.98399E0,9.15973E0,1.16809025E1,3.0588057E0,9.237161E0,3.4733932E1,3.999257E0,3.106955E0,1.2145448E1,1.2761082E1,2.3205294E1,4.737555E0,4.1422604E1,7.7275386E0,2.9309412E1,5.967474E0,5.798415E0,3.3613148E0],"tree_param":{"num_deleted":"0","num_feature":"1990","num_nodes":"67","size_leaf_vector":"1"}},{"base_weights":[-2.4849478E-2,7.178231E-1,-2.0367461E-1,7.572628E-2,1.2772539E0,-5.702573E-1,7.225508E-2,9.0274745E-1,-5.4783183E-1,6.920868E-2,-3.079242E-4,-1.6664952E-1,-1.0327306E0,-1.1541687E0,2.130974E-1,-6.7257965E-3,6.5209754E-2,-1.1424229E0,7.1252173E-1,-4.2937386E-1,5.883267E-1,-1.3060167E-1,-1.1966983E0,-6.77723E-2,-5.273635E-3,3.130925E-1,-1.0083239E0,7.007852E-4,-7.133599E-2,4.164619E-3,5.064804E-2,6.502657E-1,-6.953988E-1,-8.8019155E-2,6.3950226E-2,-4.1651156E-2,4.0848434E-2,-0E0,-1.2806797E0,1.0051576E0,7.387117E-2,-4.455271E-4,-6.530787E-2,-1.9954575E-2,5.6860793E-2,2.3233807E-2,-8.7324625E-1,2.9431103E-2,-4.1651197E-2,-3.812093E-3,-1.3547709E0,-2.3700295E-2,1.2592325E0,2.0728593E-1,-9.4773227E-1,1.6116148E-2,-5.0206393E-2,-7.2850086E-2,-2.376364E-2,6.96874E-2,-2.6502272E-3,2.7909502E-2,-1.3881393E-2,7.97196E-3,-6.520579E-2],"categories":[],"categories_nodes":[],"categories_segments":[],"categories_sizes":[],"default_left":[0,0,0,0,0,0,0,0,0,0,0,0,0,0,0,0,0,0,0,0,0,0,0,0,0,0,0,0,0,0,0,0,0,0,0,0,0,0,0,0,0,0,0,0,0,0,0,0,0,0,0,0,0,0,0,0,0,0,0,0,0,0,0,0,0],"id":10,"left_children":[1,3,5,7,9,11,13,15,17,-1,-1,19,21,23,25,-1,-1,27,29,31,33,35,37,-1,-1,39,41,-1,-1,-1,-1,43,45,47,-1,-1,-1,-1,49,51,53,-1,-1,-1,-1,-1,55,-1,-1,-1,57,-1,59,61,63,-1,-1,-1,-1,-1,-1,-1,-1,-1,-1],"loss_changes":[5.1803707E1,2.6855003E1,3.1951477E1,2.0334488E1,5.675621E0,2.4823273E1,3.1679113E1,7.51361E0,1.855032E1,0E0,0E0,1.5334209E1,8.819382E0,3.555975E0,2.0617077E1,0E0,0E0,5.483099E0,1.309186E0,1.721541E1,9.717953E0,9.331141E0,5.368248E0,0E0,0E0,2.5136631E1,3.6623697E0,0E0,0E0,0E0,0E0,7.2069297E0,1.04651375E1,7.022262E0,0E0,0E0,0E0,0E0,4.045677E0,1.597916E1,1.6162943E1,0E0,0E0,0E0,0E0,0E0,7.1573963E0,0E0,0E0,0E0,2.5759583E0,0E0,6.2835655E0,1.8127512E1,5.9359894E0,0E0,0E0,0E0,0E0,0E0,0E0,0E0,0E0,0E0,0E0],"parents":[2147483647,0,0,1,1,2,2,3,3,4,4,5,5,6,6,7,7,8,8,11,11,12,12,13,13,14,14,17,17,18,18,19,19,20,20,21,21,22,22,25,25,26,26,31,31,32,32,33,33,38,38,39,39,40,40,46,46,50,50,52,52,53,53,54,54],"right_children":[2,4,6,8,10,12,14,16,18,-1,-1,20,22,24,26,-1,-1,28,30,32,34,36,38,-1,-1,40,42,-1,-1,-1,-1,44,46,48,-1,-1,-1,-1,50,52,54,-1,-1,-1,-1,-1,56,-1,-1,-1,58,-1,60,62,64,-1,-1,-1,-1,-1,-1,-1,-1,-1,-1],"split_conditions":[9.600511E-3,3.0408257E-1,1.7767677E-1,4.6700606E-1,5.666852E-2,1.4980681E0,1.2825853E-1,1.3262435E0,6.878208E-2,6.920868E-2,-3.079242E-4,1.6078606E0,1.32102E-1,4.9346787E-1,1.0119833E-1,-6.7257965E-3,6.5209754E-2,1.0959565E-1,9.49624E-2,8.214932E-3,2.5262845E-1,6.03487E-1,1.0102339E0,-6.77723E-2,-5.273635E-3,1.0290423E-1,2.8791642E-1,7.007852E-4,-7.133599E-2,4.164619E-3,5.064804E-2,4.6378803E-1,9.5220394E-2,6.765528E-1,6.3950226E-2,-4.1651156E-2,4.0848434E-2,-0E0,1.276512E-1,7.251065E-1,8.4911907E-1,-4.455271E-4,-6.530787E-2,-1.9954575E-2,5.6860793E-2,2.3233807E-2,3.6676472E-1,2.9431103E-2,-4.1651197E-2,-3.812093E-3,6.6252327E-1,-2.3700295E-2,1.8450913E-1,1.5208364E-1,5.6371998E-2,1.6116148E-2,-5.0206393E-2,-7.2850086E-2,-2.376364E-2,6.96874E-2,-2.6502272E-3,2.7909502E-2,-1.3881393E-2,7.97196E-3,-6.520579E-2],"split_indices":[1624,1634,1802,1072,1594,694,216,827,1720,0,0,498,974,967,1932,0,0,914,17,1496,241,863,856,0,0,25,383,0,0,0,0,579,1892,497,0,0,0,0,1854,433,215,0,0,0,0,0,302,0,0,0,386,0,13,102,1863,0,0,0,0,0,0,0,0,0,0],"split_type":[0,0,0,0,0,0,0,0,0,0,0,0,0,0,0,0,0,0,0,0,0,0,0,0,0,0,0,0,0,0,0,0,0,0,0,0,0,0,0,0,0,0,0,0,0,0,0,0,0,0,0,0,0,0,0,0,0,0,0,0,0,0,0,0,0],"sum_hessian":[3.8624854E2,7.367674E1,3.1257178E2,3.544434E1,3.8232403E1,1.3347475E2,1.7909703E2,1.49204035E1,2.0523937E1,3.5219223E1,3.01318E0,7.284161E1,6.0633133E1,1.6893408E1,1.6220363E2,4.464846E0,1.0455558E1,1.4126179E1,6.397759E0,5.477534E1,1.8066277E1,9.971911E0,5.066122E1,1.3602332E1,3.2910764E0,1.513797E2,1.0823926E1,3.0932746E0,1.1032904E1,3.0006394E0,3.3971198E0,1.01831665E1,4.459217E1,9.936399E0,8.129877E0,5.9262004E0,4.045711E0,3.407091E0,4.725413E1,3.713292E1,1.1424678E2,3.0350542E0,7.788872E0,3.2769563E0,6.9062104E0,5.424041E0,3.9168133E1,5.35677E0,4.5796294E0,3.051774E0,4.4202354E1,5.1318283E0,3.200109E1,1.025469E2,1.1699878E1,3.5006998E0,3.566743E1,3.832105E1,5.8813066E0,2.8982147E1,3.018944E0,5.9438606E1,4.3108295E1,3.0497882E0,8.650089E0],"tree_param":{"num_deleted":"0","num_feature":"1990","num_nodes":"65","size_leaf_vector":"1"}},{"base_weights":[1.7409645E-2,7.3742926E-1,-1.613356E-1,1.00503296E-1,1.2358764E0,-8.2553244E-1,3.430398E-3,6.224676E-1,-9.641646E-1,1.355047E0,-9.456401E-3,4.465449E-1,-1.1784133E0,3.227699E-1,-2.6019594E-1,-2.3725023E-2,9.0803796E-1,6.65448E-4,-6.455115E-2,1.8840862E-2,7.056848E-2,5.668453E-2,-3.0689743E-1,-1.2962991E-1,-6.9948174E-2,4.393154E-1,-5.2057244E-2,5.2944656E-2,-3.6349636E-1,1.2368779E0,-2.9120395E-2,1.813118E-2,-4.7224756E-2,-4.783721E-2,3.3511862E-2,-5.018341E-1,6.70153E-1,-5.5889803E-1,7.2380334E-1,1.6407462E-2,6.914231E-2,-9.1297555E-1,3.4539863E-2,8.917357E-1,-2.6964816E-1,4.8897922E-2,-6.6602504E-1,-3.5835173E-2,1.08779E0,9.685937E-3,-5.9205096E-2,5.2158356E-2,-6.8219565E-3,2.5075063E-2,-4.913914E-2,-5.316632E-2,-1.3298454E-2,6.9607705E-2,-9.281869E-3],"categories":[],"categories_nodes":[],"categories_segments":[],"categories_sizes":[],"default_left":[0,0,0,0,0,0,0,0,0,0,0,0,0,0,0,0,0,0,0,0,0,0,0,0,0,0,0,0,0,0,0,0,0,0,0,0,0,0,0,0,0,0,0,0,0,0,0,0,0,0,0,0,0,0,0,0,0,0,0],"id":11,"left_children":[1,3,5,7,9,11,13,15,17,19,-1,21,23,25,27,-1,29,-1,-1,-1,-1,-1,31,33,-1,35,-1,-1,37,39,-1,-1,-1,-1,-1,41,43,45,47,-1,-1,49,-1,51,53,-1,55,-1,57,-1,-1,-1,-1,-1,-1,-1,-1,-1,-1],"loss_changes":[4.9953125E1,2.4128685E1,3.4082733E1,2.1260717E1,7.9391556E0,2.8898998E1,2.1285025E1,8.906515E0,4.1932945E0,9.6323395E-1,0E0,8.453773E0,1.0829254E1,1.9049438E1,1.954533E1,0E0,1.181101E1,0E0,0E0,0E0,0E0,0E0,4.404086E0,8.459475E0,0E0,2.3919485E1,0E0,0E0,2.8373087E1,1.2983589E0,0E0,0E0,0E0,0E0,0E0,1.2129311E1,1.8620247E1,1.9586914E1,1.2381188E1,0E0,0E0,5.770419E0,0E0,1.1398094E1,1.0939108E1,0E0,1.602977E1,0E0,7.3310356E0,0E0,0E0,0E0,0E0,0E0,0E0,0E0,0E0,0E0,0E0],"parents":[2147483647,0,0,1,1,2,2,3,3,4,4,5,5,6,6,7,7,8,8,9,9,11,11,12,12,13,13,14,14,16,16,22,22,23,23,25,25,28,28,29,29,35,35,36,36,37,37,38,38,41,41,43,43,44,44,46,46,48,48],"right_children":[2,4,6,8,10,12,14,16,18,20,-1,22,24,26,28,-1,30,-1,-1,-1,-1,-1,32,34,-1,36,-1,-1,38,40,-1,-1,-1,-1,-1,42,44,46,48,-1,-1,50,-1,52,54,-1,56,-1,58,-1,-1,-1,-1,-1,-1,-1,-1,-1,-1],"split_conditions":[9.600511E-3,2.978596E-1,1.0911044E-1,1.4373562E0,1.1856809E-2,1.9539638E-1,1.1400705E-1,4.3979716E-2,7.326561E-5,9.771767E-2,-9.456401E-3,4.161204E-4,1.0543288E-1,1.9349316E-1,3.2036984E-1,-2.3725023E-2,2.0998134E-3,6.65448E-4,-6.455115E-2,1.8840862E-2,7.056848E-2,5.668453E-2,1.4396005E0,8.485662E-2,-6.9948174E-2,2.2357358E-2,-5.2057244E-2,5.2944656E-2,3.3463982E-1,9.4388574E-2,-2.9120395E-2,1.813118E-2,-4.7224756E-2,-4.783721E-2,3.3511862E-2,8.965642E-2,8.493803E-1,3.536571E-1,1.21144995E-1,1.6407462E-2,6.914231E-2,3.524692E-1,3.4539863E-2,8.905337E-1,8.76391E-2,4.8897922E-2,1.0160714E0,-3.5835173E-2,1.4315785E-1,9.685937E-3,-5.9205096E-2,5.2158356E-2,-6.8219565E-3,2.5075063E-2,-4.913914E-2,-5.316632E-2,-1.3298454E-2,6.9607705E-2,-9.281869E-3],"split_indices":[1624,1634,250,730,1379,1617,1795,339,1296,172,0,482,1951,1958,290,0,1179,0,0,0,0,0,1016,1759,0,1781,0,0,1783,105,0,0,0,0,0,1693,527,326,304,0,0,1040,0,51,1800,0,909,0,331,0,0,0,0,0,0,0,0,0,0],"split_type":[0,0,0,0,0,0,0,0,0,0,0,0,0,0,0,0,0,0,0,0,0,0,0,0,0,0,0,0,0,0,0,0,0,0,0,0,0,0,0,0,0,0,0,0,0,0,0,0,0,0,0,0,0,0,0,0,0,0,0],"sum_hessian":[3.8383942E2,7.520555E1,3.0863388E2,3.4159603E1,4.1045948E1,5.9871006E1,2.4876286E2,2.354234E1,1.0617263E1,3.8033627E1,3.0123231E0,1.2824947E1,4.704606E1,1.1246311E2,1.3629974E2,4.5171504E0,1.9025188E1,3.0647411E0,7.552522E0,3.0046148E0,3.502901E1,6.2490883E0,6.575859E0,8.804917E0,3.8241142E1,1.0492635E2,7.536757E0,8.484761E0,1.2781499E2,1.5920065E1,3.1051238E0,3.5518584E0,3.0240006E0,4.1973495E0,4.6075673E0,2.0118788E1,8.480757E1,1.0924601E2,1.8568981E1,3.1971836E0,1.2722881E1,1.5372257E1,4.74653E0,6.8795845E1,1.6011723E1,5.9985623E0,1.03247444E2,3.2992232E0,1.5269758E1,3.064724E0,1.2307533E1,6.0023567E1,8.77228E0,7.9107366E0,8.100986E0,5.0012978E1,5.3234467E1,1.2237024E1,3.0327332E0],"tree_param":{"num_deleted":"0","num_feature":"1990","num_nodes":"59","size_leaf_vector":"1"}},{"base_weights":[-4.1895695E-3,1.4146715E-1,-8.304784E-1,6.6805744E-1,-6.080942E-2,3.6237916E-1,-1.0754476E0,9.5839065E-1,-7.114192E-2,-3.2908687E-1,3.1491852E-1,-4.7648042E-2,5.4900307E-2,1.8114792E-2,-1.1972576E0,1.1107223E0,-2.6732061E-2,4.4480275E-2,-4.9067712E-1,1.0246588E0,-4.400042E-1,-1.664406E-1,6.3544166E-1,-1.2963846E0,-1.518965E-3,-6.458626E-3,1.222542E0,-8.676224E-1,2.7553827E-2,5.9673805E-2,1.7013721E-2,-9.2131656E-1,-1.3602094E-1,-5.93329E-1,7.399878E-1,-2.470556E-1,8.434448E-1,-1.3735222E0,-1.3118587E-2,1.3401661E0,4.6577514E-3,-1.1874561E0,1.26779E-2,-1.0773582E0,1.3084997E-2,9.17884E-1,-3.1658173E-1,6.5341465E-2,-1.1955323E0,5.4467913E-2,-7.050395E-3,-5.14626E-2,2.7950672E-2,-2.6714563E-2,9.822525E-1,-7.209646E-2,-1.716335E-2,7.607741E-3,7.043528E-2,-6.727549E-2,-1.966458E-2,-5.9563458E-2,8.5106995E-3,9.52476E-4,5.9457153E-2,1.946394E-2,-3.2662466E-2,4.2354956E-2,-4.9045753E-2,-6.8996005E-2,-1.3316869E-2,6.1067104E-2,-1.1684425E-2],"categories":[],"categories_nodes":[],"categories_segments":[],"categories_sizes":[],"default_left":[0,0,0,0,0,0,0,0,0,0,0,0,0,0,0,0,0,0,0,0,0,0,0,0,0,0,0,0,0,0,0,0,0,0,0,0,0,0,0,0,0,0,0,0,0,0,0,0,0,0,0,0,0,0,0,0,0,0,0,0,0,0,0,0,0,0,0,0,0,0,0,0,0],"id":12,"left_children":[1,3,5,7,9,11,13,15,17,19,21,-1,-1,-1,23,25,-1,-1,27,29,31,33,35,37,-1,-1,39,41,-1,-1,-1,43,45,47,49,51,53,55,-1,57,-1,59,-1,61,-1,63,65,67,69,-1,-1,-1,-1,-1,71,-1,-1,-1,-1,-1,-1,-1,-1,-1,-1,-1,-1,-1,-1,-1,-1,-1,-1],"loss_changes":[4.6261055E1,3.4890995E1,1.7687534E1,1.9720661E1,2.4137453E1,1.2985991E1,9.4230385E0,1.613282E1,1.1869926E1,2.1809566E1,1.5649739E1,0E0,0E0,0E0,5.0081787E0,8.758888E0,0E0,0E0,9.006816E0,3.1763554E-1,1.8740936E1,1.685766E1,1.1567797E1,2.4229813E0,0E0,0E0,6.9666443E0,6.376503E0,0E0,0E0,0E0,9.885033E0,1.6215267E1,1.1885482E1,4.7262945E0,9.381927E0,1.0549858E1,1.5113754E0,0E0,3.482109E0,0E0,3.67836E-1,0E0,6.8579025E0,0E0,2.880372E0,1.7640015E1,1.4574929E1,1.7528019E0,0E0,0E0,0E0,0E0,0E0,1.3951923E1,0E0,0E0,0E0,0E0,0E0,0E0,0E0,0E0,0E0,0E0,0E0,0E0,0E0,0E0,0E0,0E0,0E0,0E0],"parents":[2147483647,0,0,1,1,2,2,3,3,4,4,5,5,6,6,7,7,8,8,9,9,10,10,14,14,15,15,18,18,19,19,20,20,21,21,22,22,23,23,26,26,27,27,31,31,32,32,33,33,34,34,35,35,36,36,37,37,39,39,41,41,43,43,45,45,46,46,47,47,48,48,54,54],"right_children":[2,4,6,8,10,12,14,16,18,20,22,-1,-1,-1,24,26,-1,-1,28,30,32,34,36,38,-1,-1,40,42,-1,-1,-1,44,46,48,50,52,54,56,-1,58,-1,60,-1,62,-1,64,66,68,70,-1,-1,-1,-1,-1,72,-1,-1,-1,-1,-1,-1,-1,-1,-1,-1,-1,-1,-1,-1,-1,-1,-1,-1],"split_conditions":[1.0047134E-1,1.0108631E-1,9.12089E-1,2.6584923E-2,1.076733E-1,4.7908187E-1,3.0565493E-2,7.345513E-1,2.1985928E-2,3.128545E-2,9.574595E-3,-4.7648042E-2,5.4900307E-2,1.8114792E-2,6.2211417E-2,1.9038242E-1,-2.6732061E-2,4.4480275E-2,9.2278E-2,4.0991718E-1,6.30996E-2,1.3617216E-1,6.176005E-2,6.364273E-2,-1.518965E-3,-6.458626E-3,1.7058814E0,1.4614803E-3,2.7553827E-2,5.9673805E-2,1.7013721E-2,1.2953391E0,2.4943212E-1,7.206714E-2,4.316725E-4,1.3359047E0,1.7754826E-1,1.3293424E-1,-1.3118587E-2,1.4943346E0,4.6577514E-3,4.9131554E-2,1.26779E-2,1.2738595E0,1.3084997E-2,2.843851E0,8.7990224E-1,9.821036E-2,1.3510304E-2,5.4467913E-2,-7.050395E-3,-5.14626E-2,2.7950672E-2,-2.6714563E-2,1.0503846E-1,-7.209646E-2,-1.716335E-2,7.607741E-3,7.043528E-2,-6.727549E-2,-1.966458E-2,-5.9563458E-2,8.5106995E-3,9.52476E-4,5.9457153E-2,1.946394E-2,-3.2662466E-2,4.2354956E-2,-4.9045753E-2,-6.8996005E-2,-1.3316869E-2,6.1067104E-2,-1.1684425E-2],"split_indices":[1867,1793,678,1578,1987,746,963,592,1644,158,1333,0,0,0,1232,359,0,0,1797,1027,1899,1926,1714,1939,0,0,629,1584,0,0,0,692,426,367,1186,635,206,1989,0,670,0,462,0,776,0,1010,549,118,1099,0,0,0,0,0,1961,0,0,0,0,0,0,0,0,0,0,0,0,0,0,0,0,0,0],"split_type":[0,0,0,0,0,0,0,0,0,0,0,0,0,0,0,0,0,0,0,0,0,0,0,0,0,0,0,0,0,0,0,0,0,0,0,0,0,0,0,0,0,0,0,0,0,0,0,0,0,0,0,0,0,0,0,0,0,0,0,0,0,0,0,0,0,0,0,0,0,0,0,0,0],"sum_hessian":[3.798484E2,3.2423022E2,5.561816E1,8.884012E1,2.353901E2,9.2430525E0,4.6375107E1,6.345809E1,2.5382027E1,1.3763226E2,9.7757835E1,3.054545E0,6.188508E0,3.2496405E0,4.3125465E1,5.810848E1,5.3496127E0,6.9612646E0,1.8420761E1,9.1067505E0,1.2852551E2,3.933472E1,5.842312E1,3.9465206E1,3.6602592E0,4.707332E0,5.3401146E1,1.3842372E1,4.5783896E0,5.994285E0,3.112465E0,4.8051888E1,8.0473625E1,2.7285568E1,1.2049153E1,1.098036E1,4.7442757E1,3.6024387E1,3.440819E0,4.794585E1,5.4552946E0,1.0747462E1,3.0949097E0,4.2684845E1,5.367042E0,1.0495013E1,6.9978615E1,1.3804065E1,1.3481504E1,8.370295E0,3.6788583E0,5.354623E0,5.625737E0,3.7548873E0,4.368787E1,3.2940937E1,3.0834508E0,3.0460973E0,4.4899754E1,7.700506E0,3.046956E0,3.92697E1,3.4151452E0,3.0147026E0,7.4803104E0,2.2401613E1,4.7577003E1,8.173299E0,5.6307654E0,1.0349924E1,3.1315799E0,3.657041E1,7.1174574E0],"tree_param":{"num_deleted":"0","num_feature":"1990","num_nodes":"73","size_leaf_vector":"1"}},{"base_weights":[1.7740365E-2,-2.4087882E-1,5.079343E-1,-3.501224E-1,9.324971E-1,-1.5774979E-1,8.1202215E-1,-5.8646894E-1,1.8269984E-1,-1.2354804E-2,1.1891947E0,3.883464E-1,-8.94594E-1,1.1037105E0,1.2727614E-1,-5.154426E-3,-7.999279E-1,-1.3593292E-1,9.113612E-1,9.4547635E-3,6.772931E-2,-4.8988917E-1,1.019983E0,3.388528E-2,-6.4578414E-2,1.2064004E0,-3.1451994E-4,-5.3125304E-1,8.444729E-1,-7.362332E-1,7.8844285E-1,3.2734603E-1,-8.9467E-1,-6.414462E-1,3.6820897E-1,-1.7430946E-2,1.1528848E0,-5.4385003E-2,1.8013163E-2,6.679263E-2,-3.8430264E-4,1.290372E0,2.5059804E-3,-1.1052314E0,2.8497327E-2,6.0370315E-2,-2.834278E-3,2.1136597E-2,-1.1284125E0,1.2420877E0,-3.0143723E-1,4.9032655E-2,-3.7030082E-2,-9.644707E-1,3.818075E-2,-1.075887E0,4.746919E-2,-5.7843536E-1,7.9706824E-1,6.761774E-2,1.5044981E-3,1.9578552E-3,1.3689934E0,-6.417938E-2,-1.7113408E-2,-6.421963E-2,-1.24428645E-2,6.904458E-2,1.9450631E-2,-4.737279E-2,2.1099146E-2,-6.0921993E-2,-2.3349663E-2,9.135908E-3,-6.507569E-2,-5.514258E-2,9.207892E-3,5.761015E-2,-2.4836605E-2,7.0312984E-2,2.3390388E-2],"categories":[],"categories_nodes":[],"categories_segments":[],"categories_sizes":[],"default_left":[0,0,0,0,0,0,0,0,0,0,0,0,0,0,0,0,0,0,0,0,0,0,0,0,0,0,0,0,0,0,0,0,0,0,0,0,0,0,0,0,0,0,0,0,0,0,0,0,0,0,0,0,0,0,0,0,0,0,0,0,0,0,0,0,0,0,0,0,0,0,0,0,0,0,0,0,0,0,0,0,0],"id":13,"left_children":[1,3,5,7,9,11,13,15,17,-1,19,21,23,25,27,29,31,33,35,-1,-1,37,39,-1,-1,41,-1,43,45,47,49,51,53,55,57,-1,59,-1,-1,-1,-1,61,-1,63,-1,-1,-1,-1,65,67,69,-1,-1,71,-1,73,-1,75,77,-1,-1,-1,79,-1,-1,-1,-1,-1,-1,-1,-1,-1,-1,-1,-1,-1,-1,-1,-1,-1,-1],"loss_changes":[4.8633778E1,3.2763054E1,2.7149532E1,2.9358805E1,7.2957325E0,1.8100039E1,1.7852009E1,1.9852272E1,1.7137135E1,0E0,2.3689651E0,1.5523707E1,1.3697066E1,7.400078E0,1.49404545E1,2.7437952E1,1.3181061E1,1.3758199E1,7.6964645E0,0E0,0E0,7.055952E0,5.3111286E0,0E0,0E0,5.4099274E0,0E0,1.1819168E1,5.17299E0,1.2241546E1,1.2027325E1,8.791594E0,1.4100227E1,2.05813E1,1.1994356E1,0E0,4.106352E0,0E0,0E0,0E0,0E0,5.094887E0,0E0,5.463114E-1,0E0,0E0,0E0,0E0,1.8207436E0,6.939163E-1,4.6811533E0,0E0,0E0,1.2017685E1,0E0,6.846962E0,0E0,4.326366E0,1.0237256E1,0E0,0E0,0E0,2.0858002E-1,0E0,0E0,0E0,0E0,0E0,0E0,0E0,0E0,0E0,0E0,0E0,0E0,0E0,0E0,0E0,0E0,0E0,0E0],"parents":[2147483647,0,0,1,1,2,2,3,3,4,4,5,5,6,6,7,7,8,8,10,10,11,11,12,12,13,13,14,14,15,15,16,16,17,17,18,18,21,21,22,22,25,25,27,27,28,28,29,29,30,30,31,31,32,32,33,33,34,34,36,36,41,41,43,43,48,48,49,49,50,50,53,53,55,55,57,57,58,58,62,62],"right_children":[2,4,6,8,10,12,14,16,18,-1,20,22,24,26,28,30,32,34,36,-1,-1,38,40,-1,-1,42,-1,44,46,48,50,52,54,56,58,-1,60,-1,-1,-1,-1,62,-1,64,-1,-1,-1,-1,66,68,70,-1,-1,72,-1,74,-1,76,78,-1,-1,-1,80,-1,-1,-1,-1,-1,-1,-1,-1,-1,-1,-1,-1,-1,-1,-1,-1,-1,-1],"split_conditions":[2.5717708E-1,1.765793E-3,1.3802724E-1,1.331784E-2,5.450444E-2,3.0490434E-1,1.7618258E-1,1.2870986E0,2.1977222E-1,-1.2354804E-2,1.1522247E-1,9.219739E-1,2.1241104E-2,1.794664E-1,4.7187526E-2,1.6112827E-1,7.1212256E-1,9.878045E-2,2.5130117E-1,9.4547635E-3,6.772931E-2,5.7662964E-2,4.1787785E-1,3.388528E-2,-6.4578414E-2,4.6202275E-1,-3.1451994E-4,4.2877905E-3,9.4896984E-1,1.701462E-1,3.5017952E-2,9.444702E-2,5.7422295E-2,8.5234284E-2,7.821226E-2,-1.7430946E-2,1.1758214E-1,-5.4385003E-2,1.8013163E-2,6.679263E-2,-3.8430264E-4,3.2312658E-2,2.5059804E-3,2.0321004E0,2.8497327E-2,6.0370315E-2,-2.834278E-3,2.1136597E-2,6.047976E-1,2.119962E-1,8.341485E-1,4.9032655E-2,-3.7030082E-2,2.2311099E-1,3.818075E-2,9.007255E-1,4.746919E-2,4.437265E-3,4.265281E-2,6.761774E-2,1.5044981E-3,1.9578552E-3,4.907006E-1,-6.417938E-2,-1.7113408E-2,-6.421963E-2,-1.24428645E-2,6.904458E-2,1.9450631E-2,-4.737279E-2,2.1099146E-2,-6.0921993E-2,-2.3349663E-2,9.135908E-3,-6.507569E-2,-5.514258E-2,9.207892E-3,5.761015E-2,-2.4836605E-2,7.0312984E-2,2.3390388E-2],"split_indices":[1920,1230,1954,1829,1767,29,1849,629,399,0,213,692,1840,1892,1980,1929,736,449,919,0,0,1899,294,0,0,555,0,1386,741,1659,1478,1693,1296,1905,236,0,508,0,0,0,0,402,0,739,0,0,0,0,575,310,624,0,0,1920,0,650,0,1445,1325,0,0,0,273,0,0,0,0,0,0,0,0,0,0,0,0,0,0,0,0,0,0],"split_type":[0,0,0,0,0,0,0,0,0,0,0,0,0,0,0,0,0,0,0,0,0,0,0,0,0,0,0,0,0,0,0,0,0,0,0,0,0,0,0,0,0,0,0,0,0,0,0,0,0,0,0,0,0,0,0,0,0,0,0,0,0,0,0,0,0,0,0,0,0,0,0,0,0,0,0,0,0,0,0,0,0],"sum_hessian":[3.7948627E2,2.4895464E2,1.3053163E2,2.2911227E2,1.9842354E1,4.1129013E1,8.940262E1,1.5870226E2,7.041002E1,3.490022E0,1.6352333E1,2.408738E1,1.7041636E1,6.1734985E1,2.7667635E1,4.3299946E1,1.1540232E2,5.0024643E1,2.0385372E1,3.0146189E0,1.3337713E1,1.0198192E1,1.3889188E1,3.0994308E0,1.3942204E1,5.6430782E1,5.3042035E0,1.4621389E1,1.3046246E1,2.2678553E1,2.0621391E1,8.484543E0,1.0691778E2,2.4805408E1,2.5219233E1,3.0698283E0,1.7315544E1,5.7286825E0,4.4695086E0,1.023947E1,3.6497183E0,5.231326E1,4.1175213E0,9.666439E0,4.954951E0,8.895112E0,4.151134E0,5.630007E0,1.7048548E1,1.4428292E1,6.1930995E0,5.42374E0,3.0608034E0,1.03460014E2,3.4577618E0,2.0042295E1,4.7631145E0,7.572753E0,1.764648E1,1.4280563E1,3.0349813E0,3.345148E0,4.8968113E1,6.622501E0,3.0439377E0,1.3602108E1,3.4464393E0,1.1244099E1,3.1841934E0,3.017398E0,3.1757011E0,6.6441315E1,3.70187E1,3.03719E0,1.7005104E1,4.0360336E0,3.5367193E0,1.4078308E1,3.5681717E0,4.5840614E1,3.1274965E0],"tree_param":{"num_deleted":"0","num_feature":"1990","num_nodes":"81","size_leaf_vector":"1"}},{"base_weights":[-5.205859E-3,-1.7025669E-1,7.024623E-1,5.820467E-2,-5.4580176E-1,1.0832603E0,-3.325751E-1,-3.4717035E-2,6.0325235E-2,4.727298E-2,-6.422094E-1,1.2421379E0,-7.4487226E-3,-7.325218E-1,3.6017217E-2,9.9515516E-1,-1.2677382E-1,-7.453406E-1,6.093498E-1,6.7044385E-2,-3.8116553E-3,1.1404171E-2,-1.0454766E0,6.1796334E-2,1.8618709E-3,1.9734511E-1,-4.6498588E-1,3.991462E-1,-8.3102894E-1,5.3917605E-2,-8.686506E-3,-6.1639845E-2,-1.4570077E-2,-1.0793143E-1,9.369456E-1,-8.0842173E-1,1.3985421E-1,-1.4973943E-2,5.062882E-2,-9.526208E-1,-3.2359153E-2,1.699981E-2,-3.5202798E-2,6.060451E-2,-1.8047994E-2,-4.9489066E-2,1.4493749E-2,-4.0929135E-2,3.5877034E-2,-5.1589835E-2,1.4965962E-2,2.9597018E-2,-5.146547E-2],"categories":[],"categories_nodes":[],"categories_segments":[],"categories_sizes":[],"default_left":[0,0,0,0,0,0,0,0,0,0,0,0,0,0,0,0,0,0,0,0,0,0,0,0,0,0,0,0,0,0,0,0,0,0,0,0,0,0,0,0,0,0,0,0,0,0,0,0,0,0,0,0,0],"id":14,"left_children":[1,3,5,7,9,11,13,15,-1,-1,17,19,-1,21,-1,23,25,27,29,-1,-1,-1,31,-1,-1,33,35,37,39,-1,-1,-1,-1,41,43,45,47,-1,-1,49,51,-1,-1,-1,-1,-1,-1,-1,-1,-1,-1,-1,-1],"loss_changes":[4.3868183E1,2.6279045E1,2.8781555E1,2.0609484E1,1.7820385E1,1.0747429E1,9.71328E0,1.7117996E1,0E0,0E0,1.5112854E1,6.4164886E0,0E0,5.3561554E0,0E0,3.1961107E0,1.8407648E1,1.0763275E1,3.9161408E0,0E0,0E0,0E0,8.9104366E-1,0E0,0E0,1.9707092E1,1.7322609E1,4.2831373E0,9.175598E0,0E0,0E0,0E0,0E0,1.722692E1,1.0043097E1,1.1139187E1,1.8489662E1,0E0,0E0,8.94326E0,1.0524155E1,0E0,0E0,0E0,0E0,0E0,0E0,0E0,0E0,0E0,0E0,0E0,0E0],"parents":[2147483647,0,0,1,1,2,2,3,3,4,4,5,5,6,6,7,7,10,10,11,11,13,13,15,15,16,16,17,17,18,18,22,22,25,25,26,26,27,27,28,28,33,33,34,34,35,35,36,36,39,39,40,40],"right_children":[2,4,6,8,10,12,14,16,-1,-1,18,20,-1,22,-1,24,26,28,30,-1,-1,-1,32,-1,-1,34,36,38,40,-1,-1,-1,-1,42,44,46,48,-1,-1,50,52,-1,-1,-1,-1,-1,-1,-1,-1,-1,-1,-1,-1],"split_conditions":[2.9047653E-1,7.2987095E-2,1.8436576E-1,2.6017288E-2,3.618555E-1,2.2545832E-1,1.197094E-1,7.5792275E-2,6.0325235E-2,4.727298E-2,1.8584429E-1,9.8449445E-1,-7.4487226E-3,1.2740493E-1,3.6017217E-2,2.3030765E-1,1.7912807E-1,2.2566877E-1,1.2525094E0,6.7044385E-2,-3.8116553E-3,1.1404171E-2,5.479907E-2,6.1796334E-2,1.8618709E-3,4.0843055E-1,2.978596E-1,5.2792046E-5,1.7180057E-1,5.3917605E-2,-8.686506E-3,-6.1639845E-2,-1.4570077E-2,9.513337E-1,1.4432554E0,4.76409E-1,7.43659E-2,-1.4973943E-2,5.062882E-2,7.3835745E-2,5.943099E-1,1.699981E-2,-3.5202798E-2,6.060451E-2,-1.8047994E-2,-4.9489066E-2,1.4493749E-2,-4.0929135E-2,3.5877034E-2,-5.1589835E-2,1.4965962E-2,2.9597018E-2,-5.146547E-2],"split_indices":[1920,1611,1849,1829,646,1660,74,1622,0,0,1929,523,0,258,0,1647,1815,1634,479,0,0,0,1327,0,0,491,1634,1306,1756,0,0,0,0,549,425,44,1855,0,0,1755,421,0,0,0,0,0,0,0,0,0,0,0,0],"split_type":[0,0,0,0,0,0,0,0,0,0,0,0,0,0,0,0,0,0,0,0,0,0,0,0,0,0,0,0,0,0,0,0,0,0,0,0,0,0,0,0,0,0,0,0,0,0,0,0,0,0,0,0,0],"sum_hessian":[3.7198758E2,3.0298248E2,6.9005066E1,1.8926663E2,1.1371586E2,5.0448223E1,1.8556845E1,1.7681133E2,1.2455318E1,5.7725954E0,1.0794327E2,4.474423E1,5.7039943E0,1.3958381E1,4.5984645E0,1.2808728E1,1.640026E2,1.0054683E2,7.3964367E0,4.1665085E1,3.0791433E0,3.484787E0,1.0473594E1,9.688659E0,3.12007E0,8.402051E1,7.998208E1,6.4127235E0,9.41341E1,4.2341123E0,3.1623244E0,7.2662687E0,3.2073245E0,6.0586025E1,2.3434483E1,5.0691154E1,2.9290924E1,3.400513E0,3.0122108E0,8.125315E1,1.2880953E1,3.4987785E1,2.559824E1,1.95082E1,3.9262834E0,4.375469E1,6.936468E0,1.0636632E1,1.8654293E1,7.682604E1,4.4271135E0,8.358791E0,4.522161E0],"tree_param":{"num_deleted":"0","num_feature":"1990","num_nodes":"53","size_leaf_vector":"1"}},{"base_weights":[-2.0300165E-2,6.644541E-1,-1.8402891E-1,1.0986402E0,-2.9951254E-2,6.5912485E-2,-5.2609205E-1,1.2004559E0,-5.394094E-3,-7.948514E-1,6.964234E-1,-9.171644E-2,1.0117638E0,4.4403213E-1,-7.168226E-1,6.4096354E-2,1.7823603E-2,1.13315815E-2,-5.650117E-2,5.413279E-2,-1.7052896E-2,-7.652668E-1,9.942041E-2,1.2743613E0,-2.3941992E-2,7.5757736E-1,-4.173693E-2,3.3951777E-1,-8.426758E-1,5.62141E-1,-1.1232975E0,-7.314159E-1,3.0923095E-1,7.072752E-2,1.04537085E-2,1.1245364E0,-1.41433375E-2,8.1364614E-1,-3.1020973E-2,3.153554E-1,-9.5749897E-1,-2.9418457E-3,4.779983E-2,-1.2707992E0,-0E0,-9.9503237E-1,3.1223077E-2,7.59529E-1,-8.301056E-2,1.0357401E-2,6.659462E-2,5.6896478E-2,2.3925342E-3,-3.0692047E-2,5.160551E-2,-1.0734968E0,9.403496E-2,-6.903766E-2,-2.1693978E-2,-1.7538378E-3,-6.2048703E-2,-4.4517084E-3,5.077825E-2,-3.9715394E-2,1.34821385E-2,1.1886184E-2,-5.6938525E-2,4.4738244E-2,-4.7476556E-2],"categories":[],"categories_nodes":[],"categories_segments":[],"categories_sizes":[],"default_left":[0,0,0,0,0,0,0,0,0,0,0,0,0,0,0,0,0,0,0,0,0,0,0,0,0,0,0,0,0,0,0,0,0,0,0,0,0,0,0,0,0,0,0,0,0,0,0,0,0,0,0,0,0,0,0,0,0,0,0,0,0,0,0,0,0,0,0,0,0],"id":15,"left_children":[1,3,5,7,9,11,13,15,-1,17,19,21,23,25,27,-1,-1,-1,-1,-1,-1,29,31,33,-1,35,-1,37,39,41,43,45,47,-1,-1,49,-1,51,-1,53,55,-1,-1,57,-1,59,-1,61,63,-1,-1,-1,-1,-1,-1,65,67,-1,-1,-1,-1,-1,-1,-1,-1,-1,-1,-1,-1],"loss_changes":[4.2183292E1,2.2056248E1,2.6099136E1,5.87167E0,1.7663792E1,2.6699091E1,2.4478394E1,1.7795715E0,0E0,5.9117823E0,7.333989E0,1.9998777E1,1.1309359E1,1.0196382E1,1.5034874E1,0E0,0E0,0E0,0E0,0E0,0E0,1.762397E1,2.156102E1,2.5831108E0,0E0,7.980796E0,0E0,6.8919554E0,1.3636223E1,2.2961478E0,4.6581917E0,1.0201696E1,1.7569061E1,0E0,0E0,2.0584965E0,0E0,2.1460958E0,0E0,8.118038E0,1.1192703E1,0E0,0E0,8.807869E-1,0E0,4.915884E0,0E0,1.0292187E1,1.409158E1,0E0,0E0,0E0,0E0,0E0,0E0,7.5365906E0,1.0572853E1,0E0,0E0,0E0,0E0,0E0,0E0,0E0,0E0,0E0,0E0,0E0,0E0],"parents":[2147483647,0,0,1,1,2,2,3,3,4,4,5,5,6,6,7,7,9,9,10,10,11,11,12,12,13,13,14,14,21,21,22,22,23,23,25,25,27,27,28,28,29,29,30,30,31,31,32,32,35,35,37,37,39,39,40,40,43,43,45,45,47,47,48,48,55,55,56,56],"right_children":[2,4,6,8,10,12,14,16,-1,18,20,22,24,26,28,-1,-1,-1,-1,-1,-1,30,32,34,-1,36,-1,38,40,42,44,46,48,-1,-1,50,-1,52,-1,54,56,-1,-1,58,-1,60,-1,62,64,-1,-1,-1,-1,-1,-1,66,68,-1,-1,-1,-1,-1,-1,-1,-1,-1,-1,-1,-1],"split_conditions":[9.682953E-3,5.0891116E-3,1.331013E0,1.007806E-1,1.2982632E-1,5.717182E-1,5.8773912E-2,1.3948426E-1,-5.394094E-3,3.1529057E-1,8.535123E-1,2.8915977E-2,1.85537E-1,1.0516796E-1,2.6669154E-1,6.4096354E-2,1.7823603E-2,1.13315815E-2,-5.650117E-2,5.413279E-2,-1.7052896E-2,6.500937E-2,1.572018E-1,5.293383E-2,-2.3941992E-2,1.4757282E-1,-4.173693E-2,1.6658461E0,1.2564948E-1,1.1430807E0,1.4383025E-1,9.163618E-2,1.1367776E-1,7.072752E-2,1.04537085E-2,6.278365E-4,-1.41433375E-2,6.862474E-2,-3.1020973E-2,5.017106E-3,2.0739657E-1,-2.9418457E-3,4.779983E-2,2.2642625E-2,-0E0,3.1431243E-1,3.1223077E-2,4.219774E-2,4.7388706E-2,1.0357401E-2,6.659462E-2,5.6896478E-2,2.3925342E-3,-3.0692047E-2,5.160551E-2,3.3383974E-1,1.9408008E0,-6.903766E-2,-2.1693978E-2,-1.7538378E-3,-6.2048703E-2,-4.4517084E-3,5.077825E-2,-3.9715394E-2,1.34821385E-2,1.1886184E-2,-5.6938525E-2,4.4738244E-2,-4.7476556E-2],"split_indices":[1624,1540,774,1755,223,579,1682,1653,0,721,728,1814,276,301,504,0,0,0,0,0,0,1917,110,1702,0,1862,0,824,1854,829,1841,1850,1795,0,0,1550,0,1767,0,1229,436,0,0,10,0,763,0,73,163,0,0,0,0,0,0,1040,618,0,0,0,0,0,0,0,0,0,0,0,0],"split_type":[0,0,0,0,0,0,0,0,0,0,0,0,0,0,0,0,0,0,0,0,0,0,0,0,0,0,0,0,0,0,0,0,0,0,0,0,0,0,0,0,0,0,0,0,0,0,0,0,0,0,0,0,0,0,0,0,0,0,0,0,0,0,0,0,0,0,0,0,0],"sum_hessian":[3.7250092E2,7.058203E1,3.0191888E2,4.2800316E1,2.7781712E1,1.7521425E2,1.2670464E2,3.9555275E1,3.2450445E0,1.3507221E1,1.4274491E1,1.5164285E2,2.3571388E1,2.029526E1,1.06409386E2,3.501859E1,4.536685E0,3.423362E0,1.00838585E1,1.04088125E1,3.8656783E0,3.2307957E1,1.193349E2,2.0344547E1,3.2268405E0,1.7016327E1,3.2789311E0,1.0881998E1,9.552739E1,6.561509E0,2.5746449E1,2.2961208E1,9.637369E1,1.7316195E1,3.0283546E0,1.2531131E1,4.4851966E0,7.557965E0,3.3240333E0,8.223796E0,8.730359E1,3.1082182E0,3.4532907E0,2.2563646E1,3.1828027E0,1.9731026E1,3.2301826E0,4.4113285E1,5.2260403E1,3.1361914E0,9.394939E0,4.535073E0,3.0228918E0,3.6454747E0,4.5783215E0,7.867774E1,8.625851E0,1.8689178E1,3.8744683E0,4.573125E0,1.5157901E1,1.0436902E1,3.3676384E1,1.6585821E1,3.5674583E1,3.407699E0,7.527004E1,5.096388E0,3.5294623E0],"tree_param":{"num_deleted":"0","num_feature":"1990","num_nodes":"69","size_leaf_vector":"1"}},{"base_weights":[-6.8077156E-3,5.3728527E-1,-2.3409072E-1,7.465719E-2,1.0061526E0,4.0254384E-1,-4.126249E-1,7.633802E-1,-2.4704985E-1,-2.02202E-1,1.2260025E0,6.067678E-1,-7.22886E-1,9.023156E-1,-4.7891915E-1,5.5888772E-2,-1.5982043E-2,7.732331E-1,-6.3416266E-1,-4.795667E-2,3.9629813E-2,6.45343E-2,9.367683E-3,7.511202E-1,-4.0214743E-2,-5.291393E-2,-0E0,5.6938577E-2,8.981685E-3,-5.6461465E-1,3.4159023E-1,5.768134E-2,-5.6989463E-3,-8.785303E-1,3.1898893E-2,-3.4675136E-2,9.2856276E-1,2.895758E-1,-6.581223E-1,-6.940396E-1,1.0115832E0,1.578874E-2,-1.079214E0,-2.0724115E-1,1.1489953E0,8.6879414E-1,-4.9065445E-2,-7.3693E-1,4.9622345E-1,-3.6719867E-3,-4.9049858E-2,6.351801E-2,5.1983334E-3,-6.321298E-2,-1.4995453E-2,2.43887E-2,-4.405197E-2,6.3342474E-2,2.95982E-3,5.8714386E-2,-4.8991903E-3,-1.4399873E-2,-4.5814894E-2,5.773546E-2,-2.3316255E-2],"categories":[],"categories_nodes":[],"categories_segments":[],"categories_sizes":[],"default_left":[0,0,0,0,0,0,0,0,0,0,0,0,0,0,0,0,0,0,0,0,0,0,0,0,0,0,0,0,0,0,0,0,0,0,0,0,0,0,0,0,0,0,0,0,0,0,0,0,0,0,0,0,0,0,0,0,0,0,0,0,0,0,0,0,0],"id":16,"left_children":[1,3,5,7,9,11,13,15,17,19,21,23,25,27,29,-1,-1,31,33,-1,-1,-1,-1,35,-1,-1,-1,-1,-1,37,39,-1,-1,41,-1,-1,43,45,47,49,51,-1,53,55,57,59,-1,61,63,-1,-1,-1,-1,-1,-1,-1,-1,-1,-1,-1,-1,-1,-1,-1,-1],"loss_changes":[4.5002296E1,2.2989153E1,2.953801E1,1.2884012E1,1.4667599E1,1.4004386E1,1.841185E1,7.8895454E0,1.6658094E1,8.915908E0,2.4026718E0,1.1295235E1,2.2781796E0,1.2201262E0,1.4012093E1,0E0,0E0,4.335033E0,1.0462006E1,0E0,0E0,0E0,0E0,1.3115128E1,0E0,0E0,0E0,0E0,0E0,1.4479218E1,1.4918987E1,0E0,0E0,7.0011787E0,0E0,0E0,1.1067589E1,1.5424921E1,1.5255432E1,1.310616E0,2.5745068E0,0E0,2.376875E0,4.849002E0,4.275879E0,4.4514008E0,0E0,1.143766E1,8.308225E0,0E0,0E0,0E0,0E0,0E0,0E0,0E0,0E0,0E0,0E0,0E0,0E0,0E0,0E0,0E0,0E0],"parents":[2147483647,0,0,1,1,2,2,3,3,4,4,5,5,6,6,7,7,8,8,9,9,10,10,11,11,12,12,13,13,14,14,17,17,18,18,23,23,29,29,30,30,33,33,36,36,37,37,38,38,39,39,40,40,42,42,43,43,44,44,45,45,47,47,48,48],"right_children":[2,4,6,8,10,12,14,16,18,20,22,24,26,28,30,-1,-1,32,34,-1,-1,-1,-1,36,-1,-1,-1,-1,-1,38,40,-1,-1,42,-1,-1,44,46,48,50,52,-1,54,56,58,60,-1,62,64,-1,-1,-1,-1,-1,-1,-1,-1,-1,-1,-1,-1,-1,-1,-1,-1],"split_conditions":[4.217998E-2,1.2651901E0,3.493623E-1,6.2160004E-2,3.696264E-1,9.235003E-1,7.683033E-2,2.0895177E-3,5.364342E-1,1.1512831E0,2.6477313E-1,1.2383192E-1,3.9526425E-2,4.3428904E-1,1.611106E-1,5.5888772E-2,-1.5982043E-2,5.734677E-2,4.155052E-2,-4.795667E-2,3.9629813E-2,6.45343E-2,9.367683E-3,4.7100626E-2,-4.0214743E-2,-5.291393E-2,-0E0,5.6938577E-2,8.981685E-3,3.8043606E-1,2.3205727E-1,5.768134E-2,-5.6989463E-3,1.07335694E-1,3.1898893E-2,-3.4675136E-2,3.805626E-2,4.6398836E-6,2.2671008E0,8.107117E-1,1.492639E0,1.578874E-2,2.3391947E-1,7.7611506E-1,1.7731309E-1,1.1577346E0,-4.9065445E-2,1.9160716E-1,1.8518907E-1,-3.6719867E-3,-4.9049858E-2,6.351801E-2,5.1983334E-3,-6.321298E-2,-1.4995453E-2,2.43887E-2,-4.405197E-2,6.3342474E-2,2.95982E-3,5.8714386E-2,-4.8991903E-3,-1.4399873E-2,-4.5814894E-2,5.773546E-2,-2.3316255E-2],"split_indices":[1640,565,1040,1917,1606,51,1622,1205,612,620,1544,1830,1968,1055,1614,0,0,1214,1734,0,0,0,0,375,0,0,0,0,0,326,427,0,0,217,0,0,1681,1144,988,519,636,0,183,652,35,921,0,1617,1685,0,0,0,0,0,0,0,0,0,0,0,0,0,0,0,0],"split_type":[0,0,0,0,0,0,0,0,0,0,0,0,0,0,0,0,0,0,0,0,0,0,0,0,0,0,0,0,0,0,0,0,0,0,0,0,0,0,0,0,0,0,0,0,0,0,0,0,0,0,0,0,0,0,0,0,0,0,0,0,0,0,0,0,0],"sum_hessian":[3.6012155E2,1.0517504E2,2.549465E2,5.4214108E1,5.0960934E1,5.516483E1,1.9978168E2,1.6485765E1,3.772834E1,7.7993383E0,4.3161594E1,4.7547318E1,7.617513E0,8.305856E0,1.9147581E2,1.244241E1,4.0433555E0,9.757656E0,2.7970684E1,4.52701E0,3.2723281E0,4.008372E1,3.077873E0,4.404749E1,3.4998286E0,4.5216513E0,3.0958617E0,5.2863235E0,3.0195322E0,1.7404396E2,1.7431852E1,6.488043E0,3.269613E0,2.4048576E1,3.922108E0,4.1205354E0,3.9926952E1,1.66533E1,1.5739067E2,6.7606535E0,1.0671199E1,3.2229462E0,2.082563E1,6.435147E0,3.3491806E1,1.192831E1,4.7249885E0,1.480903E2,9.30036E0,3.0420282E0,3.7186255E0,7.5959506E0,3.0752482E0,1.5720015E1,5.1056156E0,3.366448E0,3.0686986E0,2.9847343E1,3.6444638E0,8.816521E0,3.1117897E0,4.3923836E1,1.04166466E2,5.3470345E0,3.9533255E0],"tree_param":{"num_deleted":"0","num_feature":"1990","num_nodes":"65","size_leaf_vector":"1"}},{"base_weights":[-3.909524E-3,7.6779026E-1,-1.2847216E-1,1.0189928E0,-6.204877E-1,7.2396755E-2,-4.5366186E-1,1.1658956E0,-2.579607E-2,2.557024E-3,-5.0232895E-2,4.213238E-1,-2.2993982E-1,-8.135872E-1,6.0303446E-2,1.2831255E0,4.860718E-3,6.350371E-1,-5.851186E-1,1.6775973E-1,-6.136733E-1,-9.6265966E-1,1.9717087E-1,9.9523246E-1,-2.6008683E-1,6.6803366E-2,2.0318288E-2,-3.4252286E-2,7.565397E-1,-1.0205442E0,2.1155894E-2,4.7492215E-1,-8.9950323E-1,-8.392629E-1,3.3596915E-1,2.4496583E-2,-1.0842597E0,-3.1949367E-2,4.0713258E-2,-1.6638173E-3,6.542162E-2,-8.242861E-1,2.6175353E-1,-3.2211285E-2,8.500925E-1,-6.1486304E-2,-1.269039E-2,-3.1216598E-1,9.126865E-1,-5.0844937E-3,-5.804795E-2,-1.0764537E0,1.1512302E-1,4.751893E-2,-2.060656E-2,-4.268935E-1,-1.2916071E0,-5.898685E-2,1.7885193E-2,-6.1989355E-1,7.8516686E-1,4.7902584E-2,-1.4016992E-2,4.181997E-2,-4.3037854E-2,6.387784E-2,2.6267797E-3,-6.317276E-2,6.9869347E-3,-3.4725677E-2,4.872845E-2,2.2221956E-2,-4.8730362E-2,-6.823336E-2,-2.2007605E-2,-5.2495133E-2,5.7732156E-3,-1.1525255E-2,5.6217905E-2],"categories":[],"categories_nodes":[],"categories_segments":[],"categories_sizes":[],"default_left":[0,0,0,0,0,0,0,0,0,0,0,0,0,0,0,0,0,0,0,0,0,0,0,0,0,0,0,0,0,0,0,0,0,0,0,0,0,0,0,0,0,0,0,0,0,0,0,0,0,0,0,0,0,0,0,0,0,0,0,0,0,0,0,0,0,0,0,0,0,0,0,0,0,0,0,0,0,0,0],"id":17,"left_children":[1,3,5,7,9,11,13,15,-1,-1,-1,17,19,21,23,25,-1,27,29,31,33,35,37,39,41,-1,-1,-1,43,45,-1,47,49,51,53,-1,55,-1,-1,-1,-1,57,59,-1,61,-1,-1,63,65,-1,-1,67,69,-1,-1,71,73,-1,-1,75,77,-1,-1,-1,-1,-1,-1,-1,-1,-1,-1,-1,-1,-1,-1,-1,-1,-1,-1],"loss_changes":[3.463539E1,1.8761951E1,2.0409994E1,1.1010452E1,2.4821408E0,2.0647264E1,2.2218079E1,4.6370163E0,0E0,0E0,0E0,2.027455E1,1.626245E1,1.1054543E1,1.5816456E1,4.0595245E-1,0E0,1.3221184E1,8.324987E0,1.817516E1,1.2173029E1,1.2024563E1,6.5350404E0,4.5526266E0,1.2076697E1,0E0,0E0,0E0,1.0360291E1,1.2210455E0,0E0,1.5277085E1,2.23569E0,1.0362066E1,6.214979E0,0E0,6.5822296E0,0E0,0E0,0E0,0E0,9.113581E0,1.1084214E1,0E0,8.788506E0,0E0,0E0,1.1902976E1,8.491571E0,0E0,0E0,8.589954E0,8.710352E0,0E0,0E0,8.996589E0,1.2755356E0,0E0,0E0,3.2434776E0,5.6648226E0,0E0,0E0,0E0,0E0,0E0,0E0,0E0,0E0,0E0,0E0,0E0,0E0,0E0,0E0,0E0,0E0,0E0,0E0],"parents":[2147483647,0,0,1,1,2,2,3,3,4,4,5,5,6,6,7,7,11,11,12,12,13,13,14,14,15,15,17,17,18,18,19,19,20,20,21,21,22,22,23,23,24,24,28,28,29,29,31,31,32,32,33,33,34,34,36,36,41,41,42,42,44,44,47,47,48,48,51,51,52,52,55,55,56,56,59,59,60,60],"right_children":[2,4,6,8,10,12,14,16,-1,-1,-1,18,20,22,24,26,-1,28,30,32,34,36,38,40,42,-1,-1,-1,44,46,-1,48,50,52,54,-1,56,-1,-1,-1,-1,58,60,-1,62,-1,-1,64,66,-1,-1,68,70,-1,-1,72,74,-1,-1,76,78,-1,-1,-1,-1,-1,-1,-1,-1,-1,-1,-1,-1,-1,-1,-1,-1,-1,-1],"split_conditions":[8.0600165E-2,1.3438082E-5,1.3435863E0,1.808065E-1,6.519151E-2,8.676256E-2,1.8383354E-1,9.101404E-2,-2.579607E-2,2.557024E-3,-5.0232895E-2,1.0746801E0,8.7446705E-2,3.8169587E-1,9.322754E-1,1.1943419E-1,4.860718E-3,1.9337147E0,2.7339432E0,6.590635E-1,1.17784955E-1,8.845947E-2,4.980685E-1,3.8869125E-1,1.3981727E-1,6.6803366E-2,2.0318288E-2,-3.4252286E-2,4.605581E-1,1.7351182E0,2.1155894E-2,5.6458138E-2,1.2841903E0,4.5579E-1,1.1956055E0,2.4496583E-2,1.7518538E-1,-3.1949367E-2,4.0713258E-2,-1.6638173E-3,6.542162E-2,1.3426852E0,2.5771096E-2,-3.2211285E-2,1.1973405E-1,-6.1486304E-2,-1.269039E-2,5.1703647E-2,1.1322193E-2,-5.0844937E-3,-5.804795E-2,8.303543E-3,1.4526838E-1,4.751893E-2,-2.060656E-2,1.1847162E-1,2.4869409E0,-5.898685E-2,1.7885193E-2,4.4545718E-2,1.334071E-1,4.7902584E-2,-1.4016992E-2,4.181997E-2,-4.3037854E-2,6.387784E-2,2.6267797E-3,-6.317276E-2,6.9869347E-3,-3.4725677E-2,4.872845E-2,2.2221956E-2,-4.8730362E-2,-6.823336E-2,-2.2007605E-2,-5.2495133E-2,5.7732156E-3,-1.1525255E-2,5.6217905E-2],"split_indices":[1622,1535,774,1898,420,1865,1802,1918,0,0,0,524,118,75,574,1720,0,991,918,452,1718,1652,473,198,97,0,0,0,866,827,0,1899,623,1043,625,0,366,0,0,0,0,704,211,0,475,0,0,922,1809,0,0,1129,1907,0,0,1867,970,0,0,1297,1700,0,0,0,0,0,0,0,0,0,0,0,0,0,0,0,0,0,0],"split_type":[0,0,0,0,0,0,0,0,0,0,0,0,0,0,0,0,0,0,0,0,0,0,0,0,0,0,0,0,0,0,0,0,0,0,0,0,0,0,0,0,0,0,0,0,0,0,0,0,0,0,0,0,0,0,0,0,0,0,0,0,0,0,0,0,0,0,0,0,0,0,0,0,0,0,0,0,0,0,0],"sum_hessian":[3.5692905E2,4.8059105E1,3.0886993E2,4.1206936E1,6.8521676E0,1.9170279E2,1.1716715E2,3.81059E1,3.1010373E0,3.029421E0,3.8227465E0,8.878246E1,1.0292033E2,6.833876E1,4.882839E1,3.389307E1,4.212829E0,7.392274E1,1.4859731E1,5.096524E1,5.1955086E1,5.9724373E1,8.614388E0,1.1466768E1,3.7361618E1,3.0867393E1,3.0256767E0,5.379295E0,6.854344E1,1.0430078E1,4.429653E0,4.0510017E1,1.0455224E1,4.2255074E1,9.700013E0,4.0819855E0,5.5642387E1,3.558985E0,5.0554037E0,3.0194607E0,8.447308E0,1.7487309E1,1.987431E1,3.4872656E0,6.5056175E1,7.14316E0,3.286918E0,1.460179E1,2.5908228E1,3.3606844E0,7.094539E0,3.3722977E1,8.532097E0,5.1023684E0,4.597645E0,1.4924925E1,4.0717464E1,1.3512279E1,3.97503E0,7.1950774E0,1.2679233E1,5.974392E1,5.3122535E0,4.3218145E0,1.0279976E1,1.7428413E1,8.479815E0,2.9232666E1,4.490309E0,4.531077E0,4.0010204E0,5.835705E0,9.08922E0,3.628136E1,4.4361024E0,4.086152E0,3.108925E0,3.260887E0,9.418345E0],"tree_param":{"num_deleted":"0","num_feature":"1990","num_nodes":"79","size_leaf_vector":"1"}},{"base_weights":[1.9623248E-2,4.627751E-1,-1.8829936E-1,1.7651116E-3,8.3375007E-1,-1.9569758E-2,-7.2636926E-1,6.00313E-1,-4.2095345E-1,1.095771E0,-1.2207874E-1,-6.3279516E-1,1.8156734E-1,-9.187325E-1,6.3423365E-1,8.9110404E-1,-2.3939455E-2,4.2089158E-1,-7.3396474E-1,1.2128729E0,-1.9704279E-2,-7.333242E-1,4.1091107E-2,2.3679076E-1,-1.1383528E0,-5.9707546E-1,3.2435647E-1,2.3110056E-1,-1.1110797E0,5.1742025E-2,-1.4355123E-3,1.132773E0,-9.436647E-3,5.1252007E-2,-2.5861254E-2,-1.0467253E0,1.4188004E-2,8.470222E-3,6.393158E-2,-5.5720072E-2,3.057228E-3,-4.5602793E-1,5.1922183E-2,-1.3387442E0,1.02039715E-2,2.3172293E-2,-8.7678254E-1,5.2025944E-1,-5.275382E-1,4.8632562E-2,-3.528897E-2,-1.2560992E0,3.4440614E-3,1.7211314E-2,6.3228354E-2,7.623401E-4,-6.250836E-2,-8.3315545E-1,1.677972E-2,-7.185562E-2,-1.8121347E-2,-1.086587E0,4.802854E-3,7.7293265E-1,-2.3616364E-2,4.0604893E-2,-8.1791776E-1,-1.32194115E-2,-6.618482E-2,-1.3956862E-2,-5.1823903E-2,-6.291961E-2,-1.6195506E-2,5.318683E-2,3.2288244E-3,3.375896E-2,-3.728358E-2,-5.3659778E-2,1.4194923E-2],"categories":[],"categories_nodes":[],"categories_segments":[],"categories_sizes":[],"default_left":[0,0,0,0,0,0,0,0,0,0,0,0,0,0,0,0,0,0,0,0,0,0,0,0,0,0,0,0,0,0,0,0,0,0,0,0,0,0,0,0,0,0,0,0,0,0,0,0,0,0,0,0,0,0,0,0,0,0,0,0,0,0,0,0,0,0,0,0,0,0,0,0,0,0,0,0,0,0,0],"id":18,"left_children":[1,3,5,7,9,11,13,15,17,19,21,23,25,27,29,31,-1,33,35,37,-1,39,-1,41,43,45,47,49,51,-1,-1,53,-1,-1,-1,55,-1,-1,-1,-1,-1,57,-1,59,-1,-1,61,63,65,-1,-1,67,-1,-1,-1,-1,-1,69,-1,-1,-1,71,-1,73,75,-1,77,-1,-1,-1,-1,-1,-1,-1,-1,-1,-1,-1,-1],"loss_changes":[3.3499973E1,1.9776236E1,2.2343647E1,1.4163642E1,1.6451149E1,2.3761309E1,1.6590244E1,8.186061E0,9.258924E0,9.882084E0,1.0160355E1,2.155505E1,1.646108E1,1.2195156E1,2.3923452E0,5.5001764E0,0E0,6.8016415E0,8.511251E0,2.6848602E0,0E0,3.4360075E0,0E0,1.1603627E1,8.869286E0,7.687606E0,2.12057E1,7.7172494E0,8.047951E0,0E0,0E0,6.260338E-1,0E0,0E0,0E0,4.3409863E0,0E0,0E0,0E0,0E0,0E0,4.059736E0,0E0,1.3601074E0,0E0,0E0,4.184869E0,1.4092817E1,1.0680809E1,0E0,0E0,1.8592567E0,0E0,0E0,0E0,0E0,0E0,2.460208E-1,0E0,0E0,0E0,1.1063652E0,0E0,1.4097546E1,1.8213741E1,0E0,6.5430365E0,0E0,0E0,0E0,0E0,0E0,0E0,0E0,0E0,0E0,0E0,0E0,0E0],"parents":[2147483647,0,0,1,1,2,2,3,3,4,4,5,5,6,6,7,7,8,8,9,9,10,10,11,11,12,12,13,13,14,14,15,15,17,17,18,18,19,19,21,21,23,23,24,24,25,25,26,26,27,27,28,28,31,31,35,35,41,41,43,43,46,46,47,47,48,48,51,51,57,57,61,61,63,63,64,64,66,66],"right_children":[2,4,6,8,10,12,14,16,18,20,22,24,26,28,30,32,-1,34,36,38,-1,40,-1,42,44,46,48,50,52,-1,-1,54,-1,-1,-1,56,-1,-1,-1,-1,-1,58,-1,60,-1,-1,62,64,66,-1,-1,68,-1,-1,-1,-1,-1,70,-1,-1,-1,72,-1,74,76,-1,78,-1,-1,-1,-1,-1,-1,-1,-1,-1,-1,-1,-1],"split_conditions":[4.3607846E-2,1.1585059E0,9.640396E-2,1.7014523E-1,2.8610605E-1,1.0034435E-1,1.2046386E-1,1.5032831E0,7.928337E-3,1.2019606E0,1.6811557E0,1.3433553E-1,2.621512E-1,1.9050772E-1,4.4401005E-2,2.319941E-4,-2.3939455E-2,5.8286816E-1,5.7285678E-2,1.1279973E0,-1.9704279E-2,5.922202E-2,4.1091107E-2,1.7237917E-1,1.1766038E-2,1.3097084E-1,1.04190804E-1,9.078258E-2,1.2717272E0,5.1742025E-2,-1.4355123E-3,1.3930027E0,-9.436647E-3,5.1252007E-2,-2.5861254E-2,5.2735317E-1,1.4188004E-2,8.470222E-3,6.393158E-2,-5.5720072E-2,3.057228E-3,1.1016165E-1,5.1922183E-2,5.302031E-1,1.02039715E-2,2.3172293E-2,1.050138E0,7.6027703E-1,8.321595E-2,4.8632562E-2,-3.528897E-2,7.260368E-1,3.4440614E-3,1.7211314E-2,6.3228354E-2,7.623401E-4,-6.250836E-2,1.9013112E0,1.677972E-2,-7.185562E-2,-1.8121347E-2,4.1442788E-1,4.802854E-3,1.9608575E0,6.1394088E-2,4.0604893E-2,2.1919478E-1,-1.32194115E-2,-6.618482E-2,-1.3956862E-2,-5.1823903E-2,-6.291961E-2,-1.6195506E-2,5.318683E-2,3.2288244E-3,3.375896E-2,-3.728358E-2,-5.3659778E-2,1.4194923E-2],"split_indices":[1640,620,1867,1923,25,1726,1792,730,1624,377,929,1931,878,1617,1883,1273,0,42,1698,896,0,1637,0,217,1208,847,1961,1853,661,0,0,867,0,0,0,191,0,0,0,0,0,321,0,314,0,0,758,527,276,0,0,864,0,0,0,0,0,796,0,0,0,752,0,561,394,0,1920,0,0,0,0,0,0,0,0,0,0,0,0],"split_type":[0,0,0,0,0,0,0,0,0,0,0,0,0,0,0,0,0,0,0,0,0,0,0,0,0,0,0,0,0,0,0,0,0,0,0,0,0,0,0,0,0,0,0,0,0,0,0,0,0,0,0,0,0,0,0,0,0,0,0,0,0,0,0,0,0,0,0,0,0,0,0,0,0,0,0,0,0,0,0],"sum_hessian":[3.5938245E2,1.14140594E2,2.4524184E2,5.1910534E1,6.223006E1,1.8841628E2,5.682556E1,2.1236727E1,3.0673805E1,4.869353E1,1.353653E1,4.559909E1,1.4281718E2,5.0420135E1,6.405424E0,1.7076218E1,4.16051E0,8.040383E0,2.2633423E1,4.5552105E1,3.1414258E0,8.551153E0,4.985376E0,1.7082218E1,2.8516872E1,2.1037004E1,1.2178018E2,7.093433E0,4.3326702E1,3.387374E0,3.0180502E0,1.3948978E1,3.127239E0,4.842857E0,3.197526E0,1.7344496E1,5.288928E0,3.2146413E0,4.2337467E1,5.319876E0,3.2312775E0,9.558737E0,7.5234823E0,2.4882523E1,3.6343493E0,4.0416417E0,1.6995363E1,9.973983E1,2.2040356E1,3.9764242E0,3.1170087E0,3.8545128E1,4.781575E0,3.1406095E0,1.0808369E1,3.0069108E0,1.43375845E1,6.4888506E0,3.069886E0,2.165438E1,3.2281423E0,1.3872533E1,3.1228304E0,6.765179E1,3.208804E1,3.2248971E0,1.8815458E1,3.18086E0,3.536427E1,3.1481853E0,3.340665E0,1.0154105E1,3.7184277E0,4.7150406E1,2.0501385E1,1.6302267E1,1.5785771E1,1.5392019E1,3.4234393E0],"tree_param":{"num_deleted":"0","num_feature":"1990","num_nodes":"79","size_leaf_vector":"1"}},{"base_weights":[-1.1836895E-2,4.799559E-1,-1.8324205E-1,-4.9489204E-2,9.7989756E-1,4.293788E-2,-5.2390355E-1,-9.925873E-1,2.588732E-1,-1.8067207E-2,1.1288308E0,-1.17294475E-1,7.136907E-1,-7.998793E-1,6.432619E-2,-5.9054386E-2,-1.2351106E-2,-5.9201795E-1,7.128324E-1,1.2097847E0,1.4063646E-3,6.7761195E-1,-2.6570857E-1,-2.1986552E-1,1.1749474E0,3.518897E-2,-8.8850784E-1,5.3535122E-2,-2.6465964E-1,2.0438965E-2,-5.000372E-2,1.0967208E0,-1.3697894E-1,1.39061725E-2,6.3366905E-2,-1.9397907E-2,9.548765E-1,-4.4970256E-1,5.670485E-1,3.853962E-2,-7.433278E-1,7.0909793E-3,6.628806E-2,-1.0489862E0,1.7591171E-1,-7.971445E-1,3.4374514E-1,9.033161E-3,6.380672E-2,-3.790691E-2,2.727434E-2,6.348052E-2,-0E0,-6.09136E-1,4.2966604E-1,5.8128994E-2,-2.1535682E-2,-5.375969E-2,-1.833712E-3,-1.1154186E0,4.2450842E-3,-2.7474303E-2,4.0294643E-2,1.3002542E-2,-5.508207E-2,-2.9380446E-2,9.228093E-1,-4.315712E-2,-2.124774E-3,4.6138015E-2,-3.203577E-2,2.1539416E-2,-4.0146984E-2,-5.942891E-2,-1.116537E-2,9.859903E-3,5.8547813E-2],"categories":[],"categories_nodes":[],"categories_segments":[],"categories_sizes":[],"default_left":[0,0,0,0,0,0,0,0,0,0,0,0,0,0,0,0,0,0,0,0,0,0,0,0,0,0,0,0,0,0,0,0,0,0,0,0,0,0,0,0,0,0,0,0,0,0,0,0,0,0,0,0,0,0,0,0,0,0,0,0,0,0,0,0,0,0,0,0,0,0,0,0,0,0,0,0,0],"id":19,"left_children":[1,3,5,7,9,11,13,15,17,-1,19,21,23,25,27,-1,-1,29,31,33,-1,35,37,39,41,-1,43,-1,45,-1,-1,47,49,-1,-1,-1,51,53,55,-1,57,-1,-1,59,61,63,65,-1,-1,-1,-1,-1,-1,67,69,-1,71,-1,-1,73,-1,-1,-1,-1,-1,-1,75,-1,-1,-1,-1,-1,-1,-1,-1,-1,-1],"loss_changes":[3.0009432E1,2.4531853E1,2.0457909E1,1.41015835E1,1.0379459E1,1.747851E1,1.7350084E1,9.522791E-1,1.4965108E1,0E0,3.666294E0,1.5792623E1,1.4113176E1,1.0900513E1,1.2406907E1,0E0,0E0,6.4811754E0,8.48791E0,1.2960091E0,0E0,7.0294256E0,1.7669529E1,7.3563743E0,2.8071575E0,0E0,1.2276096E1,0E0,9.760532E0,0E0,0E0,2.2510052E0,4.8394647E0,0E0,0E0,0E0,5.202283E0,1.3580252E1,7.548341E0,0E0,1.9026055E0,0E0,0E0,4.8496475E0,5.799545E0,5.736929E0,8.94702E0,0E0,0E0,0E0,0E0,0E0,0E0,1.1300289E1,9.312463E0,0E0,5.1379576E0,0E0,0E0,3.0726624E0,0E0,0E0,0E0,0E0,0E0,0E0,1.1651249E0,0E0,0E0,0E0,0E0,0E0,0E0,0E0,0E0,0E0,0E0],"parents":[2147483647,0,0,1,1,2,2,3,3,4,4,5,5,6,6,7,7,8,8,10,10,11,11,12,12,13,13,14,14,17,17,18,18,19,19,21,21,22,22,23,23,24,24,26,26,28,28,31,31,32,32,36,36,37,37,38,38,40,40,43,43,44,44,45,45,46,46,53,53,54,54,56,56,59,59,66,66],"right_children":[2,4,6,8,10,12,14,16,18,-1,20,22,24,26,28,-1,-1,30,32,34,-1,36,38,40,42,-1,44,-1,46,-1,-1,48,50,-1,-1,-1,52,54,56,-1,58,-1,-1,60,62,64,66,-1,-1,-1,-1,-1,-1,68,70,-1,72,-1,-1,74,-1,-1,-1,-1,-1,-1,76,-1,-1,-1,-1,-1,-1,-1,-1,-1,-1],"split_conditions":[3.9089687E-2,3.0363688E-1,1.3458627E0,2.4664564E0,6.141597E-2,9.4973706E-2,1.1799729E-2,4.6183506E-1,3.1755972E-1,-1.8067207E-2,2.0987878E0,1.1226354E0,4.189717E-2,1.0275565E-2,4.988596E-2,-5.9054386E-2,-1.2351106E-2,1.0535691E0,3.9194166E-3,2.444687E-1,1.4063646E-3,4.7908187E-1,1.0563216E0,4.032212E-1,1.5040258E-2,3.518897E-2,3.791958E-1,5.3535122E-2,1.1569593E0,2.0438965E-2,-5.000372E-2,7.1007456E-4,4.5369625E-1,1.39061725E-2,6.3366905E-2,-1.9397907E-2,9.27908E-1,5.3873032E-2,3.1527117E-2,3.853962E-2,2.0298246E-1,7.0909793E-3,6.628806E-2,3.9584904E0,1.6946386E0,2.6977956E-1,1.678494E-2,9.033161E-3,6.380672E-2,-3.790691E-2,2.727434E-2,6.348052E-2,-0E0,1.2685375E0,1.0503846E-1,5.8128994E-2,7.163518E-1,-5.375969E-2,-1.833712E-3,7.4442714E-2,4.2450842E-3,-2.7474303E-2,4.0294643E-2,1.3002542E-2,-5.508207E-2,-2.9380446E-2,2.5960627E-1,-4.315712E-2,-2.124774E-3,4.6138015E-2,-3.203577E-2,2.1539416E-2,-4.0146984E-2,-5.942891E-2,-1.116537E-2,9.859903E-3,5.8547813E-2],"split_indices":[1640,1634,774,975,321,1927,1829,811,405,0,906,510,1803,455,72,0,0,655,406,314,0,746,961,1026,82,0,152,0,751,0,0,1306,673,0,0,0,612,1794,1258,0,382,0,0,975,985,426,1327,0,0,0,0,0,0,767,1961,0,523,0,0,994,0,0,0,0,0,0,1007,0,0,0,0,0,0,0,0,0,0],"split_type":[0,0,0,0,0,0,0,0,0,0,0,0,0,0,0,0,0,0,0,0,0,0,0,0,0,0,0,0,0,0,0,0,0,0,0,0,0,0,0,0,0,0,0,0,0,0,0,0,0,0,0,0,0,0,0,0,0,0,0,0,0,0,0,0,0,0,0,0,0,0,0,0,0,0,0,0,0],"sum_hessian":[3.5226678E2,8.9962944E1,2.6230383E2,4.4470287E1,4.5492653E1,1.5851395E2,1.03789894E2,9.943994E0,3.4526295E1,4.194504E0,4.129815E1,1.2916066E2,2.9353285E1,7.027149E1,3.3518406E1,6.8976426E0,3.046351E0,1.1723499E1,2.2802795E1,3.8199608E1,3.098541E0,1.9093048E1,1.10067604E2,9.981397E0,1.937189E1,3.0759275E0,6.7195564E1,7.221747E0,2.6296658E1,3.3235557E0,8.399943E0,1.5388068E1,7.414727E0,3.002248E0,3.519736E1,3.7029417E0,1.5390107E1,9.100132E1,1.906629E1,3.0580297E0,6.923367E0,3.0464478E0,1.6325441E1,5.8498867E1,8.696695E0,1.3780066E1,1.2516593E1,3.268897E0,1.2119171E1,3.8423264E0,3.572401E0,1.1064247E1,4.3258605E0,7.7651146E1,1.3350174E1,8.592174E0,1.0474116E1,3.9049258E0,3.018441E0,5.5375298E1,3.1235676E0,4.0872293E0,4.6094656E0,3.0732934E0,1.0706772E1,4.7210903E0,7.7955027E0,5.2772125E1,2.4879019E1,9.392549E0,3.9576259E0,7.1213007E0,3.352816E0,5.0460438E1,4.914861E0,3.0039492E0,4.7915535E0],"tree_param":{"num_deleted":"0","num_feature":"1990","num_nodes":"77","size_leaf_vector":"1"}},{"base_weights":[-7.1873595E-3,-1.2973553E-1,6.8751216E-1,1.0059464E0,-1.9059287E-1,-4.1706252E-1,9.371742E-1,5.430713E-3,6.1592508E-2,1.17055345E-2,-5.079501E-1,-4.996451E-2,3.259426E-2,-1.5179554E-2,1.0570188E0,-3.2219207E-1,2.8170192E-1,-6.114655E-1,7.209646E-1,1.1782755E0,-9.890742E-3,4.658346E-1,-5.7598466E-1,6.38839E-1,-1.2293651E-1,-9.9909514E-1,-2.5789925E-1,-0E0,5.2316945E-2,1.0717239E-2,6.2378157E-2,9.718617E-1,-4.792761E-1,2.8016904E-1,-7.9591393E-1,1.0117426E0,-1.2782319E-1,-8.8848954E-1,4.9476933E-1,6.8552564E-3,-1.14099E0,5.324646E-1,-5.622059E-1,5.9219707E-2,4.5484426E-3,4.3238956E-3,-4.208348E-2,4.8696127E-2,-2.107544E-2,-4.9217477E-2,1.3606856E-2,5.926887E-2,-1.4622818E-2,4.1803602E-2,-3.117372E-2,-5.42355E-2,4.175114E-3,-3.8992207E-2,3.589624E-2,-4.452463E-3,-6.156646E-2,5.358512E-2,-1.685265E-2,9.17052E-3,-4.8577935E-2],"categories":[],"categories_nodes":[],"categories_segments":[],"categories_sizes":[],"default_left":[0,0,0,0,0,0,0,0,0,0,0,0,0,0,0,0,0,0,0,0,0,0,0,0,0,0,0,0,0,0,0,0,0,0,0,0,0,0,0,0,0,0,0,0,0,0,0,0,0,0,0,0,0,0,0,0,0,0,0,0,0,0,0,0,0],"id":20,"left_children":[1,3,5,7,9,11,13,-1,-1,15,17,-1,-1,-1,19,21,23,25,27,29,-1,31,33,35,37,39,41,-1,-1,-1,-1,43,45,47,49,51,53,55,57,-1,59,61,63,-1,-1,-1,-1,-1,-1,-1,-1,-1,-1,-1,-1,-1,-1,-1,-1,-1,-1,-1,-1,-1,-1],"loss_changes":[3.042455E1,2.1337889E1,1.5606169E1,2.7840176E0,1.8721397E1,8.299299E0,7.3167152E0,0E0,0E0,1.6338285E1,1.52946205E1,0E0,0E0,0E0,6.8015213E0,1.6730206E1,1.4710209E1,1.3850021E1,2.2591615E0,1.8396263E0,0E0,1.0890683E1,1.2208212E1,1.5715719E1,2.3896921E1,8.410835E0,1.4582011E1,0E0,0E0,0E0,0E0,2.3201256E0,1.9630215E0,7.7388015E0,1.0689291E1,9.043255E0,1.023194E1,4.5700417E0,9.107649E0,0E0,3.8672752E0,8.811135E0,1.3569615E1,0E0,0E0,0E0,0E0,0E0,0E0,0E0,0E0,0E0,0E0,0E0,0E0,0E0,0E0,0E0,0E0,0E0,0E0,0E0,0E0,0E0,0E0],"parents":[2147483647,0,0,1,1,2,2,3,3,4,4,5,5,6,6,9,9,10,10,14,14,15,15,16,16,17,17,18,18,19,19,21,21,22,22,23,23,24,24,25,25,26,26,31,31,32,32,33,33,34,34,35,35,36,36,37,37,38,38,40,40,41,41,42,42],"right_children":[2,4,6,8,10,12,14,-1,-1,16,18,-1,-1,-1,20,22,24,26,28,30,-1,32,34,36,38,40,42,-1,-1,-1,-1,44,46,48,50,52,54,56,58,-1,60,62,64,-1,-1,-1,-1,-1,-1,-1,-1,-1,-1,-1,-1,-1,-1,-1,-1,-1,-1,-1,-1,-1,-1],"split_conditions":[2.9539952E-1,7.287264E-2,4.9720293E-1,4.861006E-2,2.7462202E-1,2.1689634E-4,9.383154E-2,5.430713E-3,6.1592508E-2,4.175112E-2,2.3232317E-2,-4.996451E-2,3.259426E-2,-1.5179554E-2,2.1184278E0,1.9487491E-1,1.1635879E0,8.866664E-2,5.3913012E-2,3.5523158E-2,-9.890742E-3,1.0099639E-1,1.5107842E-2,9.673991E-1,3.8941318E-1,8.056953E-1,3.7192714E-1,-0E0,5.2316945E-2,1.0717239E-2,6.2378157E-2,1.0685993E-1,2.7692346E-2,5.8334205E-2,9.731561E-1,1.5824208E-1,7.345367E-5,2.9921812E-1,1.332441E-1,6.8552564E-3,9.9640465E-1,1.0912514E-1,1.5306346E-1,5.9219707E-2,4.5484426E-3,4.3238956E-3,-4.208348E-2,4.8696127E-2,-2.107544E-2,-4.9217477E-2,1.3606856E-2,5.926887E-2,-1.4622818E-2,4.1803602E-2,-3.117372E-2,-5.42355E-2,4.175114E-3,