{"learner":{"attributes":{"best_iteration":"54","best_score":"0.5791400139624218","scikit_learn":"{\"_estimator_type\": \"classifier\"}"},"feature_names":[],"feature_types":[],"gradient_booster":{"model":{"cats":{"enc":[],"feature_segments":[],"sorted_idx":[]},"gbtree_model_param":{"num_parallel_tree":"1","num_trees":"55"},"iteration_indptr":[0,1,2,3,4,5,6,7,8,9,10,11,12,13,14,15,16,17,18,19,20,21,22,23,24,25,26,27,28,29,30,31,32,33,34,35,36,37,38,39,40,41,42,43,44,45,46,47,48,49,50,51,52,53,54,55],"tree_info":[0,0,0,0,0,0,0,0,0,0,0,0,0,0,0,0,0,0,0,0,0,0,0,0,0,0,0,0,0,0,0,0,0,0,0,0,0,0,0,0,0,0,0,0,0,0,0,0,0,0,0,0,0,0,0],"trees":[{"base_weights":[6.267551E-2,-6.0953116E-1,1.0624963E0,-1.1678767E0,3.425303E-1,-8.696681E-3,1.4337671E0,-7.7355984E-3,-7.634461E-2,6.261259E-2,-3.3527326E-2,8.1596516E-2,2.1589372E-2],"categories":[],"categories_nodes":[],"categories_segments":[],"categories_sizes":[],"default_left":[0,0,0,0,0,0,0,0,0,0,0,0,0],"id":0,"left_children":[1,3,5,7,9,-1,11,-1,-1,-1,-1,-1,-1],"loss_changes":[3.0518183E1,1.5326169E1,8.9989605E0,5.7781963E0,1.2358681E1,0E0,1.2253189E0,0E0,0E0,0E0,0E0,0E0,0E0],"parents":[2147483647,0,0,1,1,2,2,3,3,4,4,6,6],"right_children":[2,4,6,8,10,-1,12,-1,-1,-1,-1,-1,-1],"split_conditions":[2.1065116E-1,1.0487383E-1,2.8045611E-2,5.5754267E-2,3.7305965E0,-8.696681E-3,1.4160512E-1,-7.7355984E-3,-7.634461E-2,6.261259E-2,-3.3527326E-2,8.1596516E-2,2.1589372E-2],"split_indices":[1800,1885,1951,1549,903,0,294,0,0,0,0,0,0],"split_type":[0,0,0,0,0,0,0,0,0,0,0,0,0],"sum_hessian":[4.1413536E1,2.5171053E1,1.6242481E1,1.5646617E1,9.524436E0,3.9342105E0,1.2308271E1,4.9154134E0,1.0731203E1,4.821429E0,4.7030077E0,9.142858E0,3.1654136E0],"tree_param":{"num_deleted":"0","num_feature":"1989","num_nodes":"13","size_leaf_vector":"1"}},{"base_weights":[1.11632265E-1,8.964104E-1,-6.5805364E-1,1.3229556E0,-2.8027331E-2,2.0712577E-2,-1.0813832E0,1.1293147E-2,7.658308E-2,2.580032E-3,-7.1233526E-2],"categories":[],"categories_nodes":[],"categories_segments":[],"categories_sizes":[],"default_left":[0,0,0,0,0,0,0,0,0,0,0],"id":1,"left_children":[1,3,5,7,-1,-1,9,-1,-1,-1,-1],"loss_changes":[2.6208885E1,1.486397E1,1.0944105E1,3.0726166E0,0E0,0E0,6.6573563E0,0E0,0E0,0E0,0E0],"parents":[2147483647,0,0,1,1,2,2,3,3,6,6],"right_children":[2,4,6,8,-1,-1,10,-1,-1,-1,-1],"split_conditions":[1.4900516E-1,7.792411E-1,1.316161E-1,4.7644252E-1,-2.8027331E-2,2.0712577E-2,6.8461895E-2,1.1293147E-2,7.658308E-2,2.580032E-3,-7.1233526E-2],"split_indices":[1605,814,479,456,0,0,1728,0,0,0,0],"split_type":[0,0,0,0,0,0,0,0,0,0,0],"sum_hessian":[3.9397224E1,1.9408644E1,1.9988579E1,1.520867E1,4.1999736E0,5.602914E0,1.4385666E1,3.1729832E0,1.20356865E1,3.6726236E0,1.0713042E1],"tree_param":{"num_deleted":"0","num_feature":"1989","num_nodes":"11","size_leaf_vector":"1"}},{"base_weights":[-8.7683745E-2,9.168231E-1,-6.154993E-1,6.965852E-2,-1.8729154E-2,4.0220904E-1,-1.0429294E0,-3.2612395E-2,5.797279E-2,-1.3580103E0,-3.917361E-3,-7.932647E-2,-1.7968392E-2],"categories":[],"categories_nodes":[],"categories_segments":[],"categories_sizes":[],"default_left":[0,0,0,0,0,0,0,0,0,0,0,0,0],"id":2,"left_children":[1,3,5,-1,-1,7,9,-1,-1,11,-1,-1,-1],"loss_changes":[2.2409052E1,1.0116464E1,1.2913714E1,0E0,0E0,9.181283E0,5.743328E0,0E0,0E0,2.0717888E0,0E0,0E0,0E0],"parents":[2147483647,0,0,1,1,2,2,5,5,6,6,9,9],"right_children":[2,4,6,-1,-1,8,10,-1,-1,12,-1,-1,-1],"split_conditions":[1.1478021E-2,2.9468354E-2,1.5137835E0,6.965852E-2,-1.8729154E-2,3.2380372E-1,6.0565066E-1,-3.2612395E-2,5.797279E-2,1.6122108E-3,-3.917361E-3,-7.932647E-2,-1.7968392E-2],"split_indices":[1622,1664,841,0,0,618,581,0,0,1585,0,0,0],"split_type":[0,0,0,0,0,0,0,0,0,0,0,0,0],"sum_hessian":[3.8193897E1,1.2583069E1,2.561083E1,9.13381E0,3.4492588E0,7.5406494E0,1.807018E1,3.212518E0,4.3281317E0,1.2927871E1,5.142309E0,9.480859E0,3.4470117E0],"tree_param":{"num_deleted":"0","num_feature":"1989","num_nodes":"13","size_leaf_vector":"1"}},{"base_weights":[-1.1700131E-1,1.0367686E0,-5.6833297E-1,7.273962E-2,-6.145709E-3,7.658669E-1,-1.0167209E0,6.32897E-2,-4.831883E-3,2.0919602E-2,-1.2643065E0,-1.0452871E-2,-1.4810369E0,-2.2290785E-2,-8.194994E-2],"categories":[],"categories_nodes":[],"categories_segments":[],"categories_sizes":[],"default_left":[0,0,0,0,0,0,0,0,0,0,0,0,0,0,0],"id":3,"left_children":[1,3,5,-1,-1,7,9,-1,-1,-1,11,-1,13,-1,-1],"loss_changes":[2.3672829E1,6.704509E0,2.1007137E1,0E0,0E0,4.3509297E0,1.0102764E1,0E0,0E0,0E0,4.2579E0,0E0,1.2567978E0,0E0,0E0],"parents":[2147483647,0,0,1,1,2,2,5,5,6,6,10,10,12,12],"right_children":[2,4,6,-1,-1,8,10,-1,-1,-1,12,-1,14,-1,-1],"split_conditions":[7.917214E-2,5.126581E-1,5.343603E-1,7.273962E-2,-6.145709E-3,8.398699E-3,1.526391E-1,6.32897E-2,-4.831883E-3,2.0919602E-2,4.3441317E-4,-1.0452871E-2,3.0140847E-2,-2.2290785E-2,-8.194994E-2],"split_indices":[1656,594,289,0,0,1144,256,0,0,0,1416,0,1531,0,0],"split_type":[0,0,0,0,0,0,0,0,0,0,0,0,0,0,0],"sum_hessian":[4.1287483E1,1.0817679E1,3.0469803E1,7.6407466E0,3.1769328E0,7.2520046E0,2.3217798E1,4.0723567E0,3.179648E0,3.153732E0,2.0064066E1,4.1667876E0,1.5897278E1,3.2004454E0,1.2696833E1],"tree_param":{"num_deleted":"0","num_feature":"1989","num_nodes":"15","size_leaf_vector":"1"}},{"base_weights":[1.2952586E-2,6.0702544E-2,-3.7463632E-1,1.6583124E-1,-1.1535063E0,-3.824416E-1,9.948068E-1,-3.6666659E-3,-7.465531E-2,-9.3723994E-1,2.5772428E-2,6.495317E-2,1.0837081E-2,-6.490077E-2,-4.316606E-3],"categories":[],"categories_nodes":[],"categories_segments":[],"categories_sizes":[],"default_left":[0,0,0,0,0,0,0,0,0,0,0,0,0,0,0],"id":4,"left_children":[1,-1,3,5,7,9,11,-1,-1,13,-1,-1,-1,-1,-1],"loss_changes":[2.1512741E1,0E0,1.5125843E1,1.0916875E1,4.9721317E0,8.351381E0,1.527092E0,0E0,0E0,2.6733856E0,0E0,0E0,0E0,0E0,0E0],"parents":[2147483647,0,0,2,2,3,3,4,4,5,5,6,6,9,9],"right_children":[2,-1,4,6,8,10,12,-1,-1,14,-1,-1,-1,-1,-1],"split_conditions":[7.6858394E-2,6.0702544E-2,2.1945687E-1,3.9953077E-1,1.426099E-1,1.267305E-1,3.3444712E-1,-3.6666659E-3,-7.465531E-2,2.4941482E-1,2.5772428E-2,6.495317E-2,1.0837081E-2,-6.490077E-2,-4.316606E-3],"split_indices":[1656,0,146,932,297,1932,398,0,0,1681,0,0,0,0,0],"split_type":[0,0,0,0,0,0,0,0,0,0,0,0,0,0,0],"sum_hessian":[4.207673E1,9.287889E0,3.278884E1,2.0210386E1,1.2578454E1,1.2740609E1,7.469776E0,3.660802E0,8.917652E0,7.889488E0,4.8511214E0,4.3147764E0,3.1549997E0,4.71989E0,3.169598E0],"tree_param":{"num_deleted":"0","num_feature":"1989","num_nodes":"15","size_leaf_vector":"1"}},{"base_weights":[-3.7173014E-2,7.0894295E-1,-5.8652276E-1,1.1642215E0,-1.451323E-1,2.952373E-1,-1.1015998E0,1.6733026E-2,7.107713E-2,-3.8610917E-2,2.4760054E-2,5.0506037E-2,-4.1874226E-2,-0E0,-6.8266995E-2],"categories":[],"categories_nodes":[],"categories_segments":[],"categories_sizes":[],"default_left":[0,0,0,0,0,0,0,0,0,0,0,0,0,0,0],"id":5,"left_children":[1,3,5,7,9,11,13,-1,-1,-1,-1,-1,-1,-1,-1],"loss_changes":[1.9122242E1,8.1250105E0,1.2943898E1,1.6885014E0,4.2354326E0,1.0957729E1,4.9982376E0,0E0,0E0,0E0,0E0,0E0,0E0,0E0,0E0],"parents":[2147483647,0,0,1,1,2,2,3,3,4,4,5,5,6,6],"right_children":[2,4,6,8,10,12,14,-1,-1,-1,-1,-1,-1,-1,-1],"split_conditions":[5.7746917E-1,9.3090974E-2,1.8866889E-1,4.8787285E-2,1.13993645E-1,8.804344E-1,5.990716E-1,1.6733026E-2,7.107713E-2,-3.8610917E-2,2.4760054E-2,5.0506037E-2,-4.1874226E-2,-0E0,-6.8266995E-2],"split_indices":[985,1769,1615,1737,1733,649,182,0,0,0,0,0,0,0,0],"split_type":[0,0,0,0,0,0,0,0,0,0,0,0,0,0,0],"sum_hessian":[4.2654346E1,1.7764242E1,2.4890102E1,1.1190029E1,6.574213E0,9.421284E0,1.5468819E1,3.8305843E0,7.359445E0,3.1922493E0,3.381964E0,5.9627976E0,3.458486E0,3.4157684E0,1.205305E1],"tree_param":{"num_deleted":"0","num_feature":"1989","num_nodes":"15","size_leaf_vector":"1"}},{"base_weights":[-2.5812173E-2,-5.088052E-1,8.668342E-1,-8.2227737E-1,4.0403217E-2,1.2141583E0,-1.1228753E-2,-0E0,-1.1398158E0,1.6958386E-2,7.138471E-2,-4.5369398E-2,4.2580497E-2,-6.9398835E-2,-1.253024E-2],"categories":[],"categories_nodes":[],"categories_segments":[],"categories_sizes":[],"default_left":[0,0,0,0,0,0,0,0,0,0,0,0,0,0,0],"id":6,"left_children":[1,3,5,7,-1,9,-1,11,13,-1,-1,-1,-1,-1,-1],"loss_changes":[1.9190948E1,1.3277971E1,6.560175E0,6.4282875E0,0E0,1.1381378E0,0E0,8.318468E0,3.038002E0,0E0,0E0,0E0,0E0,0E0,0E0],"parents":[2147483647,0,0,1,1,2,2,3,3,5,5,7,7,8,8],"right_children":[2,4,6,8,-1,10,-1,12,14,-1,-1,-1,-1,-1,-1],"split_conditions":[2.5866592E-1,1.0325685E-1,9.177263E-2,1.1492176E0,4.0403217E-2,5.247454E-2,-1.1228753E-2,3.5066903E-1,6.7604125E-1,1.6958386E-2,7.138471E-2,-4.5369398E-2,4.2580497E-2,-6.9398835E-2,-1.253024E-2],"split_indices":[1942,1963,1765,777,0,293,0,618,521,0,0,0,0,0,0],"split_type":[0,0,0,0,0,0,0,0,0,0,0,0,0,0,0],"sum_hessian":[4.054898E1,2.6942802E1,1.3606176E1,2.2430477E1,4.5123262E0,1.0220385E1,3.3857913E0,6.7680182E0,1.5662458E1,3.112305E0,7.10808E0,3.188654E0,3.5793645E0,1.1280127E1,4.382332E0],"tree_param":{"num_deleted":"0","num_feature":"1989","num_nodes":"15","size_leaf_vector":"1"}},{"base_weights":[-2.6340736E-2,-4.259866E-1,5.829099E-2,7.189815E-1,-7.7637565E-1,5.5723526E-2,-0E0,-1.1339389E0,1.4027785E-2,-6.798892E-3,-6.683954E-2,4.924934E-2,-3.7756365E-2],"categories":[],"categories_nodes":[],"categories_segments":[],"categories_sizes":[],"default_left":[0,0,0,0,0,0,0,0,0,0,0,0,0],"id":7,"left_children":[1,3,-1,5,7,-1,-1,9,11,-1,-1,-1,-1],"loss_changes":[2.075343E1,1.4243115E1,0E0,2.4061213E0,7.511853E0,0E0,0E0,3.1455727E0,8.985314E0,0E0,0E0,0E0,0E0],"parents":[2147483647,0,0,1,1,3,3,4,4,7,7,8,8],"right_children":[2,4,-1,6,8,-1,-1,10,12,-1,-1,-1,-1],"split_conditions":[2.9220614E-1,1.1548958E0,5.829099E-2,2.860288E-4,6.51444E-1,5.5723526E-2,-0E0,7.764621E-2,5.6319726E-1,-6.798892E-3,-6.683954E-2,4.924934E-2,-3.7756365E-2],"split_indices":[1942,529,0,1241,581,0,0,11,334,0,0,0,0],"split_type":[0,0,0,0,0,0,0,0,0,0,0,0,0],"sum_hessian":[3.9629757E1,3.0705606E1,8.924151E0,6.6350193E0,2.4070587E1,3.53109E0,3.103929E0,1.6061794E1,8.008794E0,3.3609104E0,1.2700884E1,3.3494017E0,4.6593924E0],"tree_param":{"num_deleted":"0","num_feature":"1989","num_nodes":"13","size_leaf_vector":"1"}},{"base_weights":[-3.9523803E-2,-4.7206882E-1,8.558437E-1,4.021E-2,-8.0992585E-1,5.785489E-2,-5.634667E-3,-1.1378841E0,8.57766E-3,-2.5219582E-3,-6.923377E-2],"categories":[],"categories_nodes":[],"categories_segments":[],"categories_sizes":[],"default_left":[0,0,0,0,0,0,0,0,0,0,0],"id":8,"left_children":[1,3,5,-1,7,-1,-1,9,-1,-1,-1],"loss_changes":[1.6977537E1,1.4059022E1,4.528163E0,0E0,8.356705E0,0E0,0E0,4.72563E0,0E0,0E0,0E0],"parents":[2147483647,0,0,1,1,2,2,4,4,7,7],"right_children":[2,4,6,-1,8,-1,-1,10,-1,-1,-1],"split_conditions":[1.5929207E-1,9.488744E-2,1.4368494E0,4.021E-2,1.4587092E0,5.785489E-2,-5.634667E-3,1.566797E0,8.57766E-3,-2.5219582E-3,-6.923377E-2],"split_indices":[1773,1625,401,0,602,0,0,670,0,0,0],"split_type":[0,0,0,0,0,0,0,0,0,0,0],"sum_hessian":[3.984981E1,2.7582256E1,1.2267554E1,5.133537E0,2.244872E1,9.138872E0,3.1286821E0,1.6663752E1,5.784969E0,3.6027558E0,1.3060996E1],"tree_param":{"num_deleted":"0","num_feature":"1989","num_nodes":"11","size_leaf_vector":"1"}},{"base_weights":[-1.4230707E-2,9.185089E-1,-4.333374E-1,6.144007E-2,-0E0,4.7236875E-1,-8.446217E-1,5.0392892E-2,-2.5694817E-2,1.4275404E-3,-1.1200802E0,-6.4672E-2,-9.323334E-3],"categories":[],"categories_nodes":[],"categories_segments":[],"categories_sizes":[],"default_left":[0,0,0,0,0,0,0,0,0,0,0,0,0],"id":9,"left_children":[1,3,5,-1,-1,7,9,-1,-1,-1,11,-1,-1],"loss_changes":[1.7750717E1,3.9526558E0,1.2548045E1,0E0,0E0,6.908641E0,5.56501E0,0E0,0E0,0E0,2.1499424E0,0E0,0E0],"parents":[2147483647,0,0,1,1,2,2,5,5,6,6,10,10],"right_children":[2,4,6,-1,-1,8,10,-1,-1,-1,12,-1,-1],"split_conditions":[7.917214E-2,5.1895016E-1,7.7957296E-1,6.144007E-2,-0E0,7.2622225E-2,3.117699E-1,5.0392892E-2,-2.5694817E-2,1.4275404E-3,1.5133661E0,-6.4672E-2,-9.323334E-3],"split_indices":[1656,594,188,0,0,1674,1597,0,0,0,602,0,0],"split_type":[0,0,0,0,0,0,0,0,0,0,0,0,0],"sum_hessian":[4.1495598E1,1.2051872E1,2.9443727E1,8.468961E0,3.582911E0,9.026318E0,2.041741E1,5.8873878E0,3.1389303E0,5.239249E0,1.517816E1,1.206071E1,3.1174502E0],"tree_param":{"num_deleted":"0","num_feature":"1989","num_nodes":"13","size_leaf_vector":"1"}},{"base_weights":[-1.5371426E-2,-3.4318313E-1,5.451104E-2,7.1529794E-1,-8.064759E-1,6.061501E-2,-1.960875E-2,-1.0564924E0,1.7261919E-2,-8.6475833E-4,-1.2197357E0,-6.790372E-2,-1.4767023E-2],"categories":[],"categories_nodes":[],"categories_segments":[],"categories_sizes":[],"default_left":[0,0,0,0,0,0,0,0,0,0,0,0,0],"id":10,"left_children":[1,3,-1,5,7,-1,-1,9,-1,-1,11,-1,-1],"loss_changes":[1.6688541E1,1.8656675E1,0E0,7.5579257E0,8.235065E0,0E0,0E0,3.5285015E0,0E0,0E0,1.4249897E0,0E0,0E0],"parents":[2147483647,0,0,1,1,3,3,4,4,7,7,10,10],"right_children":[2,4,-1,6,8,-1,-1,10,-1,-1,12,-1,-1],"split_conditions":[3.009482E-1,1.5137835E0,5.451104E-2,1.7186819E-1,1.0213261E0,6.061501E-2,-1.960875E-2,1.824277E-1,1.7261919E-2,-8.6475833E-4,1.2594584E-1,-6.790372E-2,-1.4767023E-2],"split_indices":[1942,841,0,344,551,0,0,804,0,0,1958,0,0],"split_type":[0,0,0,0,0,0,0,0,0,0,0,0,0],"sum_hessian":[4.218819E1,3.367352E1,8.514672E0,9.854741E0,2.3818779E1,6.7337937E0,3.1209474E0,1.97776E1,4.0411806E0,3.0684564E0,1.6709143E1,1.3623817E1,3.0853243E0],"tree_param":{"num_deleted":"0","num_feature":"1989","num_nodes":"13","size_leaf_vector":"1"}},{"base_weights":[1.5600429E-2,7.597923E-1,-4.9260822E-1,-1.499446E-2,1.0743138E0,2.8683728E-2,-8.771103E-1,6.0226936E-3,6.605012E-2,5.600493E-3,-1.1315873E0,-1.8271148E-2,-6.657847E-2],"categories":[],"categories_nodes":[],"categories_segments":[],"categories_sizes":[],"default_left":[0,0,0,0,0,0,0,0,0,0,0,0,0],"id":11,"left_children":[1,3,5,-1,7,-1,9,-1,-1,-1,11,-1,-1],"loss_changes":[1.558321E1,6.305909E0,1.1039913E1,0E0,2.6975307E0,0E0,5.085598E0,0E0,0E0,0E0,1.1871758E0,0E0,0E0],"parents":[2147483647,0,0,1,1,2,2,4,4,6,6,10,10],"right_children":[2,4,6,-1,8,-1,10,-1,-1,-1,12,-1,-1],"split_conditions":[1.37811685E-2,1.6133307E-2,3.870269E-1,-1.499446E-2,6.851083E-1,2.8683728E-2,6.4225756E-2,6.0226936E-3,6.605012E-2,5.600493E-3,7.897567E-4,-1.8271148E-2,-6.657847E-2],"split_indices":[1622,132,1056,0,323,0,1242,0,0,0,1230,0,0],"split_type":[0,0,0,0,0,0,0,0,0,0,0,0,0],"sum_hessian":[3.715321E1,1.4754397E1,2.2398811E1,3.3254466E0,1.142895E1,5.6066513E0,1.679216E1,3.043339E0,8.385612E0,3.5848851E0,1.3207275E1,4.0077043E0,9.199571E0],"tree_param":{"num_deleted":"0","num_feature":"1989","num_nodes":"13","size_leaf_vector":"1"}},{"base_weights":[2.8748332E-2,6.4896107E-1,-5.1915765E-1,1.020417E0,-3.7610624E-2,-7.912891E-1,3.327787E-2,6.4850815E-2,-2.6835704E-3,7.2716284E-3,-1.1558106E0,-6.551894E-2,-1.6904708E-2],"categories":[],"categories_nodes":[],"categories_segments":[],"categories_sizes":[],"default_left":[0,0,0,0,0,0,0,0,0,0,0,0,0],"id":12,"left_children":[1,3,5,7,-1,9,-1,-1,-1,-1,11,-1,-1],"loss_changes":[1.4677467E1,1.2120169E1,8.444039E0,5.2962875E0,0E0,7.1272707E0,0E0,0E0,0E0,0E0,7.697201E-1,0E0,0E0],"parents":[2147483647,0,0,1,1,2,2,3,3,5,5,10,10],"right_children":[2,4,6,8,-1,10,-1,-1,-1,-1,12,-1,-1],"split_conditions":[1.4445353E-1,8.447504E-1,1.538301E0,4.0357918E-2,-3.7610624E-2,3.5316175E-1,3.327787E-2,6.4850815E-2,-2.6835704E-3,7.2716284E-3,2.2290516E-1,-6.551894E-2,-1.6904708E-2],"split_indices":[1605,814,678,1631,0,421,0,0,0,0,116,0,0],"split_type":[0,0,0,0,0,0,0,0,0,0,0,0,0],"sum_hessian":[3.917101E1,1.8285744E1,2.0885265E1,1.49399605E1,3.3457842E0,1.7592752E1,3.2925131E0,1.1624436E1,3.3155243E0,5.1882033E0,1.2404549E1,9.316284E0,3.0882652E0],"tree_param":{"num_deleted":"0","num_feature":"1989","num_nodes":"13","size_leaf_vector":"1"}},{"base_weights":[-7.979849E-2,7.1855813E-1,-5.8469355E-1,-1.2209698E-2,1.0245832E0,3.499786E-1,-1.0216769E0,6.375151E-2,6.5284753E-3,4.4733934E-2,-2.3904245E-2,-7.460222E-4,-6.0885306E-2],"categories":[],"categories_nodes":[],"categories_segments":[],"categories_sizes":[],"default_left":[0,0,0,0,0,0,0,0,0,0,0,0,0],"id":13,"left_children":[1,3,5,-1,7,9,11,-1,-1,-1,-1,-1,-1],"loss_changes":[1.713715E1,5.438757E0,1.1388114E1,0E0,2.433055E0,5.267468E0,3.4475346E0,0E0,0E0,0E0,0E0,0E0,0E0],"parents":[2147483647,0,0,1,1,2,2,4,4,5,5,6,6],"right_children":[2,4,6,-1,8,10,12,-1,-1,-1,-1,-1,-1],"split_conditions":[1.3458403E-2,3.8903856E-1,2.3901294E-1,-1.2209698E-2,7.921654E-2,5.1573396E-1,1.5182686E0,6.375151E-2,6.5284753E-3,4.4733934E-2,-2.3904245E-2,-7.460222E-4,-6.0885306E-2],"split_indices":[1622,377,347,0,1765,1066,841,0,0,0,0,0,0],"split_type":[0,0,0,0,0,0,0,0,0,0,0,0,0],"sum_hessian":[3.846345E1,1.4496572E1,2.3966879E1,3.515178E0,1.0981393E1,7.6893477E0,1.627753E1,7.825069E0,3.1563241E0,4.614078E0,3.07527E0,3.086809E0,1.3190722E1],"tree_param":{"num_deleted":"0","num_feature":"1989","num_nodes":"13","size_leaf_vector":"1"}},{"base_weights":[-0E0,-3.6190143E-1,5.328713E-2,-8.0477756E-1,3.2603174E-1,-1.1501224E0,1.1627483E-2,8.6387336E-1,-3.2381173E-2,-6.455887E-2,-1.8624252E-2,6.1005767E-2,2.221877E-3],"categories":[],"categories_nodes":[],"categories_segments":[],"categories_sizes":[],"default_left":[0,0,0,0,0,0,0,0,0,0,0,0,0],"id":14,"left_children":[1,3,-1,5,7,9,-1,11,-1,-1,-1,-1,-1],"loss_changes":[1.5634394E1,9.827525E0,0E0,7.48508E0,8.069722E0,4.9207115E-1,0E0,2.5227394E0,0E0,0E0,0E0,0E0,0E0],"parents":[2147483647,0,0,1,1,3,3,4,4,5,5,7,7],"right_children":[2,4,-1,6,8,10,-1,12,-1,-1,-1,-1,-1],"split_conditions":[3.009482E-1,5.956013E-1,5.328713E-2,4.6609823E-2,1.269953E0,1.7721331E-1,1.1627483E-2,6.127126E-4,-3.2381173E-2,-6.455887E-2,-1.8624252E-2,6.1005767E-2,2.221877E-3],"split_indices":[1942,581,0,39,619,1604,0,1426,0,0,0,0,0],"split_type":[0,0,0,0,0,0,0,0,0,0,0,0,0],"sum_hessian":[3.663901E1,2.837683E1,8.262181E0,1.7144953E1,1.1231876E1,1.2771891E1,4.3730626E0,7.446617E0,3.785259E0,9.584078E0,3.1878128E0,4.423547E0,3.0230699E0],"tree_param":{"num_deleted":"0","num_feature":"1989","num_nodes":"13","size_leaf_vector":"1"}},{"base_weights":[9.341042E-3,5.8021075E-1,-5.147185E-1,5.730011E-2,-1.5233307E-1,2.3977634E-2,-8.8078773E-1,3.470373E-2,-4.219928E-2,4.620818E-3,-5.7701882E-2],"categories":[],"categories_nodes":[],"categories_segments":[],"categories_sizes":[],"default_left":[0,0,0,0,0,0,0,0,0,0,0],"id":15,"left_children":[1,3,5,-1,7,-1,9,-1,-1,-1,-1],"loss_changes":[1.2409229E1,8.703981E0,8.725666E0,0E0,7.2564073E0,0E0,4.7135954E0,0E0,0E0,0E0,0E0],"parents":[2147483647,0,0,1,1,2,2,4,4,6,6],"right_children":[2,4,6,-1,8,-1,10,-1,-1,-1,-1],"split_conditions":[9.756951E-3,3.0865524E-2,1.0012243E0,5.730011E-2,1.9096467E-1,2.3977634E-2,6.640856E-1,3.470373E-2,-4.219928E-2,4.620818E-3,-5.7701882E-2],"split_indices":[1935,1664,853,0,1911,0,487,0,0,0,0],"split_type":[0,0,0,0,0,0,0,0,0,0,0],"sum_hessian":[3.7460514E1,1.791827E1,1.9542244E1,9.549922E0,8.368347E0,5.018485E0,1.4523759E1,3.6950078E0,4.67334E0,3.393854E0,1.1129906E1],"tree_param":{"num_deleted":"0","num_feature":"1989","num_nodes":"11","size_leaf_vector":"1"}},{"base_weights":[-4.4779386E-2,8.4867465E-1,-3.9724222E-1,5.8535244E-2,5.794889E-4,4.0358506E-2,-6.3732004E-1,-8.825828E-1,6.505797E-3,-0E0,-6.094557E-2],"categories":[],"categories_nodes":[],"categories_segments":[],"categories_sizes":[],"default_left":[0,0,0,0,0,0,0,0,0,0,0],"id":16,"left_children":[1,3,5,-1,-1,-1,7,9,-1,-1,-1],"loss_changes":[1.2239098E1,2.816381E0,9.073624E0,0E0,0E0,0E0,4.903902E0,5.7073507E0,0E0,0E0,0E0],"parents":[2147483647,0,0,1,1,2,2,6,6,7,7],"right_children":[2,4,6,-1,-1,-1,8,10,-1,-1,-1],"split_conditions":[6.4906436E-3,1.6306724E-2,1.3813924E0,5.8535244E-2,5.794889E-4,4.0358506E-2,3.2480538E-1,2.2820085E-1,6.505797E-3,-0E0,-6.094557E-2],"split_indices":[1807,1565,611,0,0,0,221,1652,0,0,0],"split_type":[0,0,0,0,0,0,0,0,0,0,0],"sum_hessian":[3.4867695E1,8.98707E0,2.5880625E1,5.828326E0,3.158744E0,3.4470153E0,2.2433609E1,1.6871815E1,5.561794E0,5.136216E0,1.17355995E1],"tree_param":{"num_deleted":"0","num_feature":"1989","num_nodes":"11","size_leaf_vector":"1"}},{"base_weights":[1.5261671E-1,6.9123054E-1,-3.3565122E-1,1.0343646E0,-2.6511434E-2,-6.985841E-1,3.1723637E-2,6.1589368E-2,7.3923E-3,-5.4421425E-2,9.439499E-4],"categories":[],"categories_nodes":[],"categories_segments":[],"categories_sizes":[],"default_left":[0,0,0,0,0,0,0,0,0,0,0],"id":17,"left_children":[1,3,5,7,-1,9,-1,-1,-1,-1,-1],"loss_changes":[1.0386196E1,8.954031E0,8.275202E0,2.1726208E0,0E0,4.70313E0,0E0,0E0,0E0,0E0,0E0],"parents":[2147483647,0,0,1,1,2,2,3,3,5,5],"right_children":[2,4,6,8,-1,10,-1,-1,-1,-1,-1],"split_conditions":[1.3481278E0,9.775943E-2,3.009482E-1,2.9394302E-1,-2.6511434E-2,6.2001044E-1,3.1723637E-2,6.1589368E-2,7.3923E-3,-5.4421425E-2,9.439499E-4],"split_indices":[953,1865,1942,116,0,581,0,0,0,0,0],"split_type":[0,0,0,0,0,0,0,0,0,0,0],"sum_hessian":[3.5593422E1,1.6626257E1,1.8967163E1,1.3282994E1,3.3432631E0,1.4285646E1,4.681516E0,1.0134391E1,3.1486034E0,8.676445E0,5.609201E0],"tree_param":{"num_deleted":"0","num_feature":"1989","num_nodes":"11","size_leaf_vector":"1"}},{"base_weights":[7.5087145E-2,3.7433034E-1,-4.963028E-2,5.52389E-2,3.9028507E-2,-5.986965E-1,5.592999E-1,-4.593015E-2,7.490774E-3,9.103875E-1,-1.9984085E-2,6.123838E-2,2.8927582E-3],"categories":[],"categories_nodes":[],"categories_segments":[],"categories_sizes":[],"default_left":[0,0,0,0,0,0,0,0,0,0,0,0,0],"id":18,"left_children":[1,3,-1,-1,5,7,9,-1,-1,11,-1,-1,-1],"loss_changes":[1.3207976E1,7.673471E0,0E0,0E0,8.6957035E0,3.1664653E0,5.6434817E0,0E0,0E0,2.7487373E0,0E0,0E0,0E0],"parents":[2147483647,0,0,1,1,4,4,5,5,6,6,9,9],"right_children":[2,4,-1,-1,6,8,10,-1,-1,12,-1,-1,-1],"split_conditions":[1.0327707E-1,1.7841513E0,-4.963028E-2,5.52389E-2,1.417753E0,1.3148439E-1,1.044002E0,-4.593015E-2,7.490774E-3,1.3581522E0,-1.9984085E-2,6.123838E-2,2.8927582E-3],"split_indices":[1865,874,0,0,883,1836,672,0,0,669,0,0,0],"split_type":[0,0,0,0,0,0,0,0,0,0,0,0,0],"sum_hessian":[3.7207157E1,3.0149574E1,7.0575833E0,7.9476986E0,2.2201876E1,9.753182E0,1.2448692E1,6.6080766E0,3.1451058E0,9.263063E0,3.1856287E0,6.043805E0,3.2192588E0],"tree_param":{"num_deleted":"0","num_feature":"1989","num_nodes":"13","size_leaf_vector":"1"}},{"base_weights":[7.6491706E-2,3.3320042E-1,-4.5720845E-2,9.301253E-1,-1.13392636E-1,5.5690702E-2,7.966872E-3,3.8394347E-2,-5.2369326E-1,-8.728876E-1,2.3480942E-2,-4.6051988E-5,-5.9720546E-2],"categories":[],"categories_nodes":[],"categories_segments":[],"categories_sizes":[],"default_left":[0,0,0,0,0,0,0,0,0,0,0,0,0],"id":19,"left_children":[1,3,-1,5,7,-1,-1,-1,9,11,-1,-1,-1],"loss_changes":[1.0209567E1,8.743923E0,0E0,1.4830542E0,7.947145E0,0E0,0E0,0E0,5.9906745E0,3.1635246E0,0E0,0E0,0E0],"parents":[2147483647,0,0,1,1,3,3,4,4,8,8,9,9],"right_children":[2,4,-1,6,8,-1,-1,-1,10,12,-1,-1,-1],"split_conditions":[1.0327707E-1,1.7509495E-1,-4.5720845E-2,1.269953E0,1.5057443E0,5.5690702E-2,7.966872E-3,3.8394347E-2,1.7777544E-1,9.974252E-1,2.3480942E-2,-4.6051988E-5,-5.9720546E-2],"split_indices":[1865,297,0,619,841,0,0,0,1558,924,0,0,0],"split_type":[0,0,0,0,0,0,0,0,0,0,0,0,0],"sum_hessian":[3.596884E1,2.970242E1,6.2664237E0,1.1880801E1,1.7821617E1,8.770802E0,3.1099997E0,5.0303097E0,1.2791308E1,9.718099E0,3.0732093E0,3.2421594E0,6.4759393E0],"tree_param":{"num_deleted":"0","num_feature":"1989","num_nodes":"13","size_leaf_vector":"1"}},{"base_weights":[4.9681276E-2,2.978822E-1,-4.1917134E-2,7.1544725E-1,-3.3999044E-1,5.576053E-2,8.754071E-3,2.1607725E-2,-8.308087E-1,-3.049006E-2,3.6960345E-2,-5.4525085E-2,-8.609965E-3],"categories":[],"categories_nodes":[],"categories_segments":[],"categories_sizes":[],"default_left":[0,0,0,0,0,0,0,0,0,0,0,0,0],"id":20,"left_children":[1,3,-1,5,7,-1,9,-1,11,-1,-1,-1,-1],"loss_changes":[8.911461E0,8.9365E0,0E0,5.4694834E0,5.971446E0,0E0,5.1028137E0,0E0,1.0672431E0,0E0,0E0,0E0,0E0],"parents":[2147483647,0,0,1,1,3,3,4,4,6,6,8,8],"right_children":[2,4,-1,6,8,-1,10,-1,12,-1,-1,-1,-1],"split_conditions":[1.0327707E-1,9.5593697E-1,-4.1917134E-2,1.2147637E-1,1.9718537E-1,5.576053E-2,9.546298E-2,2.1607725E-2,7.113917E-2,-3.049006E-2,3.6960345E-2,-5.4525085E-2,-8.609965E-3],"split_indices":[1865,803,0,121,256,0,1885,0,1776,0,0,0,0],"split_type":[0,0,0,0,0,0,0,0,0,0,0,0,0],"sum_hessian":[3.641076E1,2.9583853E1,6.826906E0,1.7827278E1,1.1756575E1,1.055747E1,7.269808E0,4.582611E0,7.1739635E0,4.041158E0,3.2286499E0,4.0956607E0,3.0783026E0],"tree_param":{"num_deleted":"0","num_feature":"1989","num_nodes":"13","size_leaf_vector":"1"}},{"base_weights":[-6.693872E-2,4.7608694E-1,-4.7460464E-1,8.0884093E-1,-2.6776938E-2,1.5372102E-2,-8.1164926E-1,5.54426E-2,-4.7349497E-3,-5.9723325E-2,-3.5099846E-3],"categories":[],"categories_nodes":[],"categories_segments":[],"categories_sizes":[],"default_left":[0,0,0,0,0,0,0,0,0,0,0],"id":21,"left_children":[1,3,5,7,-1,-1,9,-1,-1,-1,-1],"loss_changes":[8.425674E0,6.39377E0,6.2643137E0,3.8803701E0,0E0,0E0,4.18769E0,0E0,0E0,0E0,0E0],"parents":[2147483647,0,0,1,1,2,2,3,3,6,6],"right_children":[2,4,6,8,-1,-1,10,-1,-1,-1,-1],"split_conditions":[1.4455277E-1,1.4750424E-1,7.7957296E-1,8.2271725E-2,-2.6776938E-2,1.5372102E-2,1.6708155E0,5.54426E-2,-4.7349497E-3,-5.9723325E-2,-3.5099846E-3],"split_indices":[1605,308,188,411,0,0,788,0,0,0,0],"split_type":[0,0,0,0,0,0,0,0,0,0,0],"sum_hessian":[3.402027E1,1.4339101E1,1.968117E1,1.1166021E1,3.1730793E0,5.891063E0,1.3790107E1,8.124559E0,3.041462E0,8.199686E0,5.5904207E0],"tree_param":{"num_deleted":"0","num_feature":"1989","num_nodes":"11","size_leaf_vector":"1"}},{"base_weights":[1.3118487E-2,2.543228E-1,-4.4279862E-2,6.72662E-1,-4.235603E-1,8.869656E-1,-7.894582E-3,1.3254034E-2,-4.5717005E-2,-2.406094E-3,5.718416E-2],"categories":[],"categories_nodes":[],"categories_segments":[],"categories_sizes":[],"default_left":[0,0,0,0,0,0,0,0,0,0,0],"id":22,"left_children":[1,3,-1,5,7,9,-1,-1,-1,-1,-1],"loss_changes":[8.708709E0,9.642856E0,0E0,4.0185633E0,5.048752E0,4.2448864E0,0E0,0E0,0E0,0E0,0E0],"parents":[2147483647,0,0,1,1,3,3,4,4,5,5],"right_children":[2,4,-1,6,8,10,-1,-1,-1,-1,-1],"split_conditions":[1.0314712E-1,9.586123E-1,-4.4279862E-2,1.5944592E0,8.2955405E-2,2.3940742E-1,-7.894582E-3,1.3254034E-2,-4.5717005E-2,-2.406094E-3,5.718416E-2],"split_indices":[1865,803,0,486,1769,1740,0,0,0,0,0],"split_type":[0,0,0,0,0,0,0,0,0,0,0],"sum_hessian":[3.6387344E1,2.9906189E1,6.4811544E0,1.8594168E1,1.1312021E1,1.4768171E1,3.8259957E0,5.005092E0,6.3069296E0,3.447243E0,1.1320929E1],"tree_param":{"num_deleted":"0","num_feature":"1989","num_nodes":"11","size_leaf_vector":"1"}},{"base_weights":[-0E0,-3.620761E-1,5.9942347E-1,-7.0089823E-1,3.4939533E-1,4.813418E-2,-1.4560337E-2,1.2274029E-2,-9.6110374E-1,4.0845837E-2,-1.6585346E-2,-5.9300065E-2,-6.00295E-3],"categories":[],"categories_nodes":[],"categories_segments":[],"categories_sizes":[],"default_left":[0,0,0,0,0,0,0,0,0,0,0,0,0],"id":23,"left_children":[1,3,5,7,9,-1,-1,-1,11,-1,-1,-1,-1],"loss_changes":[8.433742E0,6.389143E0,5.3501577E0,4.788678E0,3.4840918E0,0E0,0E0,0E0,2.2348585E0,0E0,0E0,0E0,0E0],"parents":[2147483647,0,0,1,1,2,2,3,3,4,4,8,8],"right_children":[2,4,6,8,10,-1,-1,-1,12,-1,-1,-1,-1],"split_conditions":[2.5773838E-1,4.2583525E-1,1.755568E0,5.307865E-1,1.4399358E0,4.813418E-2,-1.4560337E-2,1.2274029E-2,9.8966695E-2,4.0845837E-2,-1.6585346E-2,-5.9300065E-2,-6.00295E-3],"split_indices":[1942,91,916,289,455,0,0,0,1828,0,0,0,0],"split_type":[0,0,0,0,0,0,0,0,0,0,0,0,0],"sum_hessian":[3.492278E1,2.2326536E1,1.2596243E1,1.5239396E1,7.087141E0,8.911854E0,3.684389E0,3.2279751E0,1.201142E1,4.0530586E0,3.0340827E0,8.736147E0,3.2752736E0],"tree_param":{"num_deleted":"0","num_feature":"1989","num_nodes":"13","size_leaf_vector":"1"}},{"base_weights":[-6.2062547E-2,5.394655E-1,-4.4393864E-1,4.8989955E-2,-7.871294E-2,3.6001053E-1,-7.7682745E-1,2.8526137E-2,-3.552851E-2,-1.4122704E-2,4.2521533E-2,-1.0207268E0,-0E0,-1.5380966E-2,-5.8303494E-2],"categories":[],"categories_nodes":[],"categories_segments":[],"categories_sizes":[],"default_left":[0,0,0,0,0,0,0,0,0,0,0,0,0,0,0],"id":24,"left_children":[1,3,5,-1,7,9,11,-1,-1,-1,-1,13,-1,-1,-1],"loss_changes":[9.0272665E0,4.4004025E0,7.020553E0,0E0,4.150989E0,3.1531615E0,3.3314638E0,0E0,0E0,0E0,0E0,5.282545E-1,0E0,0E0,0E0],"parents":[2147483647,0,0,1,1,2,2,4,4,5,5,6,6,11,11],"right_children":[2,4,6,-1,8,10,12,-1,-1,-1,-1,14,-1,-1,-1],"split_conditions":[1.37811685E-2,1.3108677E-1,1.5137835E0,4.8989955E-2,1.2990774E-1,1.2048916E0,1.5001747E-1,2.8526137E-2,-3.552851E-2,-1.4122704E-2,4.2521533E-2,2.1180217E0,-0E0,-1.5380966E-2,-5.8303494E-2],"split_indices":[1622,1920,841,0,98,685,319,0,0,0,0,454,0,0,0],"split_type":[0,0,0,0,0,0,0,0,0,0,0,0,0,0,0],"sum_hessian":[3.5255108E1,1.32681E1,2.1987007E1,7.1598725E0,6.1082273E0,6.3025556E0,1.5684451E1,3.0303788E0,3.0778484E0,3.0072181E0,3.2953372E0,1.144041E1,4.2440414E0,3.1087499E0,8.331659E0],"tree_param":{"num_deleted":"0","num_feature":"1989","num_nodes":"15","size_leaf_vector":"1"}},{"base_weights":[-3.0493328E-2,-2.800913E-1,4.270954E-2,4.2253345E-1,-5.859993E-1,4.4736855E-2,-1.5280335E-2,-8.108199E-1,1.53644355E-2,-5.527707E-2,-1.8487921E-1,-3.525564E-2,1.8741079E-2],"categories":[],"categories_nodes":[],"categories_segments":[],"categories_sizes":[],"default_left":[0,0,0,0,0,0,0,0,0,0,0,0,0],"id":25,"left_children":[1,3,-1,5,7,-1,-1,9,-1,-1,11,-1,-1],"loss_changes":[8.380356E0,6.8968472E0,0E0,4.069471E0,4.893354E0,0E0,0E0,2.7685518E0,0E0,0E0,2.963134E0,0E0,0E0],"parents":[2147483647,0,0,1,1,3,3,4,4,7,7,10,10],"right_children":[2,4,-1,6,8,-1,-1,10,-1,-1,12,-1,-1],"split_conditions":[3.009482E-1,1.5137835E0,4.270954E-2,1.1582985E-1,1.0337812E0,4.4736855E-2,-1.5280335E-2,2.137398E-2,1.53644355E-2,-5.527707E-2,4.602342E-3,-3.525564E-2,1.8741079E-2],"split_indices":[1942,841,0,1727,551,0,0,474,0,0,1013,0,0],"split_type":[0,0,0,0,0,0,0,0,0,0,0,0,0],"sum_hessian":[3.4044876E1,2.7707523E1,6.3373528E0,8.073812E0,1.9633713E1,4.7033796E0,3.370432E0,1.5922868E1,3.710844E0,9.675179E0,6.2476897E0,3.0613089E0,3.1863806E0],"tree_param":{"num_deleted":"0","num_feature":"1989","num_nodes":"13","size_leaf_vector":"1"}},{"base_weights":[-2.1406485E-2,6.361541E-1,-3.0975527E-1,4.8671957E-2,-4.359541E-3,3.6174783E-1,-7.452528E-1,-1.4486164E-2,4.835534E-2,2.136076E-3,-9.799828E-1,-1.4724731E-2,-5.6656E-2],"categories":[],"categories_nodes":[],"categories_segments":[],"categories_sizes":[],"default_left":[0,0,0,0,0,0,0,0,0,0,0,0,0],"id":26,"left_children":[1,3,5,-1,-1,7,9,-1,-1,-1,11,-1,-1],"loss_changes":[6.9012127E0,2.9575515E0,8.013563E0,0E0,0E0,5.0685534E0,3.1679592E0,0E0,0E0,0E0,5.165701E-1,0E0,0E0],"parents":[2147483647,0,0,1,1,2,2,5,5,6,6,10,10],"right_children":[2,4,6,-1,-1,8,10,-1,-1,-1,12,-1,-1],"split_conditions":[1.5089016E0,1.3092456E0,1.37811685E-2,4.8671957E-2,-4.359541E-3,2.0072377E0,4.6679097E-1,-1.4486164E-2,4.835534E-2,2.136076E-3,2.892692E-4,-1.4724731E-2,-5.6656E-2],"split_indices":[841,443,1622,0,0,761,128,0,0,0,1514,0,0],"split_type":[0,0,0,0,0,0,0,0,0,0,0,0,0],"sum_hessian":[3.2491108E1,9.063407E0,2.3427702E1,5.803891E0,3.2595155E0,9.259439E0,1.4168262E1,4.8825665E0,4.376873E0,3.5295959E0,1.0638666E1,3.1294532E0,7.509213E0],"tree_param":{"num_deleted":"0","num_feature":"1989","num_nodes":"13","size_leaf_vector":"1"}},{"base_weights":[-4.679707E-2,2.842377E-1,-6.258691E-1,8.239454E-1,-1.5278909E-1,-5.1268198E-2,6.1489134E-3,5.3600105E-3,5.2965123E-2,-7.1533746E-1,4.4172058E-1,-7.5569223E-3,-4.796954E-2,4.787326E-2,-1.1027979E-2],"categories":[],"categories_nodes":[],"categories_segments":[],"categories_sizes":[],"default_left":[0,0,0,0,0,0,0,0,0,0,0,0,0,0,0],"id":27,"left_children":[1,3,5,7,9,-1,-1,-1,-1,11,13,-1,-1,-1,-1],"loss_changes":[7.281127E0,6.012414E0,4.473932E0,1.5482364E0,5.6501513E0,0E0,0E0,0E0,0E0,7.717619E-1,3.3670592E0,0E0,0E0,0E0,0E0],"parents":[2147483647,0,0,1,1,2,2,3,3,4,4,9,9,10,10],"right_children":[2,4,6,8,10,-1,-1,-1,-1,12,14,-1,-1,-1,-1],"split_conditions":[1.2750934E0,3.035892E-2,8.577032E-2,3.9314884E-1,7.813947E-2,-5.1268198E-2,6.1489134E-3,5.3600105E-3,5.2965123E-2,1.0787763E-3,1.2245204E-5,-7.5569223E-3,-4.796954E-2,4.787326E-2,-1.1027979E-2],"split_indices":[535,1664,1783,541,310,0,0,0,0,1538,1281,0,0,0,0],"split_type":[0,0,0,0,0,0,0,0,0,0,0,0,0,0,0],"sum_hessian":[3.394901E1,2.213871E1,1.18103E1,9.215782E0,1.2922928E1,7.3071246E0,4.5031753E0,3.1027281E0,6.1130543E0,6.5175214E0,6.405407E0,3.069594E0,3.4479275E0,3.184826E0,3.2205808E0],"tree_param":{"num_deleted":"0","num_feature":"1989","num_nodes":"15","size_leaf_vector":"1"}},{"base_weights":[5.8409903E-2,4.4642922E-1,-4.8051596E-1,8.106861E-1,-1.9449551E-1,1.9001583E-2,-7.8856677E-1,5.096966E-2,1.8619512E-4,1.4827679E-2,-3.4448564E-2,-5.4619145E-2,-3.130447E-4],"categories":[],"categories_nodes":[],"categories_segments":[],"categories_sizes":[],"default_left":[0,0,0,0,0,0,0,0,0,0,0,0,0],"id":28,"left_children":[1,3,5,7,9,-1,11,-1,-1,-1,-1,-1,-1],"loss_changes":[7.834349E0,5.453159E0,4.7984543E0,2.3069677E0,2.72856E0,0E0,2.7968063E0,0E0,0E0,0E0,0E0,0E0,0E0],"parents":[2147483647,0,0,1,1,2,2,3,3,4,4,6,6],"right_children":[2,4,6,8,10,-1,12,-1,-1,-1,-1,-1,-1],"split_conditions":[1.8639501E-2,8.636388E-1,1.4588596E-2,3.2082695E-1,2.0107162E-1,1.9001583E-2,4.3975827E-1,5.096966E-2,1.8619512E-4,1.4827679E-2,-3.4448564E-2,-5.4619145E-2,-3.130447E-4],"split_indices":[1622,649,438,275,297,0,618,0,0,0,0,0,0],"split_type":[0,0,0,0,0,0,0,0,0,0,0,0,0],"sum_hessian":[3.3429184E1,1.974318E1,1.3686005E1,1.2350374E1,7.3928046E0,3.398963E0,1.0287042E1,9.295765E0,3.0546093E0,4.0094447E0,3.38336E0,6.746442E0,3.5405996E0],"tree_param":{"num_deleted":"0","num_feature":"1989","num_nodes":"13","size_leaf_vector":"1"}},{"base_weights":[2.5648389E-2,7.2770643E-1,-2.7136636E-1,4.8962504E-2,2.3682052E-3,-6.005811E-1,2.515165E-1,-4.994745E-2,1.1487462E-2,7.131145E-1,-2.7301883E-2,4.7716487E-2,8.623411E-3],"categories":[],"categories_nodes":[],"categories_segments":[],"categories_sizes":[],"default_left":[0,0,0,0,0,0,0,0,0,0,0,0,0],"id":29,"left_children":[1,3,5,-1,-1,7,9,-1,-1,11,-1,-1,-1],"loss_changes":[7.996963E0,1.7583475E0,4.954069E0,0E0,0E0,6.2141914E0,5.0862446E0,0E0,0E0,6.443448E-1,0E0,0E0,0E0],"parents":[2147483647,0,0,1,1,2,2,5,5,6,6,9,9],"right_children":[2,4,6,-1,-1,8,10,-1,-1,12,-1,-1,-1],"split_conditions":[5.0063515E-1,2.5028384E-1,6.260978E-1,4.8962504E-2,2.3682052E-3,2.5621912E-1,1.0279169E0,-4.994745E-2,1.1487462E-2,2.7720106E-4,-2.7301883E-2,4.7716487E-2,8.623411E-3],"split_indices":[716,230,581,0,0,1942,672,0,0,1438,0,0,0],"split_type":[0,0,0,0,0,0,0,0,0,0,0,0,0],"sum_hessian":[3.423787E1,9.416499E0,2.4821371E1,6.125887E0,3.2906125E0,1.5166423E1,9.654948E0,1.0056093E1,5.11033E0,6.3290386E0,3.3259091E0,3.1903408E0,3.138698E0],"tree_param":{"num_deleted":"0","num_feature":"1989","num_nodes":"13","size_leaf_vector":"1"}},{"base_weights":[6.1485298E-2,-2.6724583E-1,5.4274744E-1,-5.116725E-1,3.522341E-2,-1.2940696E-2,8.1753E-1,-8.7226504E-1,9.582444E-2,1.0484054E-2,5.2264284E-2,-5.4502107E-2,-6.488742E-3,3.035903E-2,-2.2338882E-2],"categories":[],"categories_nodes":[],"categories_segments":[],"categories_sizes":[],"default_left":[0,0,0,0,0,0,0,0,0,0,0,0,0,0,0],"id":30,"left_children":[1,3,5,7,-1,-1,9,11,13,-1,-1,-1,-1,-1,-1],"loss_changes":[5.6876607E0,5.7806644E0,3.6857405E0,4.259519E0,0E0,0E0,1.0165939E0,1.5034332E0,2.9240103E0,0E0,0E0,0E0,0E0,0E0,0E0],"parents":[2147483647,0,0,1,1,2,2,3,3,6,6,7,7,8,8],"right_children":[2,4,6,8,-1,-1,10,12,14,-1,-1,-1,-1,-1,-1],"split_conditions":[1.0310468E-1,7.065623E-3,5.636408E-3,1.3312887E0,3.522341E-2,-1.2940696E-2,7.159105E-2,5.978658E-1,1.6728032E0,1.0484054E-2,5.2264284E-2,-5.4502107E-2,-6.488742E-3,3.035903E-2,-2.2338882E-2],"split_indices":[1885,1356,1353,556,0,0,1778,523,858,0,0,0,0,0,0],"split_type":[0,0,0,0,0,0,0,0,0,0,0,0,0,0,0],"sum_hessian":[3.1943226E1,1.9384232E1,1.2558993E1,1.6327068E1,3.0571632E0,3.1429818E0,9.416012E0,9.801892E0,6.5251765E0,3.7331338E0,5.6828775E0,6.750938E0,3.0509548E0,3.3316474E0,3.1935291E0],"tree_param":{"num_deleted":"0","num_feature":"1989","num_nodes":"15","size_leaf_vector":"1"}},{"base_weights":[-1.082286E-1,-4.951234E-1,4.8424402E-1,2.5978085E-1,-8.6679554E-1,4.5771644E-2,-5.7043497E-2,-1.6491499E-2,3.7923776E-2,-3.545522E-3,-5.3000133E-2,-2.6231552E-2,2.2046674E-2],"categories":[],"categories_nodes":[],"categories_segments":[],"categories_sizes":[],"default_left":[0,0,0,0,0,0,0,0,0,0,0,0,0],"id":31,"left_children":[1,3,5,7,9,-1,11,-1,-1,-1,-1,-1,-1],"loss_changes":[8.518663E0,6.7691836E0,3.6356354E0,3.1332421E0,2.1193943E0,0E0,2.4095106E0,0E0,0E0,0E0,0E0,0E0,0E0],"parents":[2147483647,0,0,1,1,2,2,3,3,4,4,6,6],"right_children":[2,4,6,8,10,-1,12,-1,-1,-1,-1,-1,-1],"split_conditions":[1.0450724E-1,1.4869621E-1,1.3701102E0,1.7381297E0,2.1992068E0,4.5771644E-2,6.2169135E-1,-1.6491499E-2,3.7923776E-2,-3.545522E-3,-5.3000133E-2,-2.6231552E-2,2.2046674E-2],"split_indices":[1885,141,953,428,982,0,169,0,0,0,0,0,0],"split_type":[0,0,0,0,0,0,0,0,0,0,0,0,0],"sum_hessian":[3.3066288E1,2.0304502E1,1.2761784E1,6.8085938E0,1.3495909E1,6.436664E0,6.32512E0,3.3383448E0,3.4702492E0,3.271425E0,1.0224484E1,3.310453E0,3.0146668E0],"tree_param":{"num_deleted":"0","num_feature":"1989","num_nodes":"13","size_leaf_vector":"1"}},{"base_weights":[6.97031E-2,2.7539688E-1,-3.690165E-2,7.040495E-1,-1.8543983E-1,-9.254332E-3,4.9856644E-2,-6.178702E-1,2.3325117E-2,2.4517844E-4,-4.6202593E-2],"categories":[],"categories_nodes":[],"categories_segments":[],"categories_sizes":[],"default_left":[0,0,0,0,0,0,0,0,0,0,0],"id":32,"left_children":[1,3,-1,5,7,-1,-1,9,-1,-1,-1],"loss_changes":[5.9219584E0,5.890626E0,0E0,4.400368E0,4.8422956E0,0E0,0E0,2.0111423E0,0E0,0E0,0E0],"parents":[2147483647,0,0,1,1,3,3,4,4,7,7],"right_children":[2,4,-1,6,8,-1,-1,10,-1,-1,-1],"split_conditions":[1.0327707E-1,1.20575026E-1,-3.690165E-2,1.602611E-1,7.499587E-2,-9.254332E-3,4.9856644E-2,7.4126136E-1,2.3325117E-2,2.4517844E-4,-4.6202593E-2],"split_indices":[1865,121,0,1945,1983,0,0,520,0,0,0],"split_type":[0,0,0,0,0,0,0,0,0,0,0],"sum_hessian":[3.1474829E1,2.6235693E1,5.239137E0,1.3158049E1,1.3077643E1,3.3601193E0,9.79793E0,8.01755E0,5.0600934E0,3.1835575E0,4.833993E0],"tree_param":{"num_deleted":"0","num_feature":"1989","num_nodes":"11","size_leaf_vector":"1"}},{"base_weights":[1.0873128E-1,5.8406526E-1,-2.0721678E-1,4.604856E-2,-1.1758917E-2,3.2660976E-1,-6.4279014E-1,-1.9329749E-2,3.879948E-2,4.8545883E-3,-4.66506E-2],"categories":[],"categories_nodes":[],"categories_segments":[],"categories_sizes":[],"default_left":[0,0,0,0,0,0,0,0,0,0,0],"id":33,"left_children":[1,3,5,-1,-1,7,9,-1,-1,-1,-1],"loss_changes":[5.3297067E0,4.386985E0,5.462183E0,0E0,0E0,4.134183E0,2.979762E0,0E0,0E0,0E0,0E0],"parents":[2147483647,0,0,1,1,2,2,5,5,6,6],"right_children":[2,4,6,-1,-1,8,10,-1,-1,-1,-1],"split_conditions":[1.4064506E-1,7.97933E-2,8.539488E-3,4.604856E-2,-1.1758917E-2,2.5773838E-1,1.0779935E0,-1.9329749E-2,3.879948E-2,4.8545883E-3,-4.66506E-2],"split_indices":[117,1804,1935,0,0,1942,725,0,0,0,0],"split_type":[0,0,0,0,0,0,0,0,0,0,0],"sum_hessian":[3.1625893E1,1.2076484E1,1.9549408E1,8.467874E0,3.6086104E0,8.9056425E0,1.0643766E1,3.4643376E0,5.441304E0,3.2766736E0,7.3670926E0],"tree_param":{"num_deleted":"0","num_feature":"1989","num_nodes":"11","size_leaf_vector":"1"}},{"base_weights":[-5.0335508E-2,-2.7982697E-1,3.510056E-2,3.049866E-1,-6.229492E-1,3.6626425E-2,-2.5484804E-2,-0E0,-8.886717E-1,-5.2265644E-2,-1.5312637E-2],"categories":[],"categories_nodes":[],"categories_segments":[],"categories_sizes":[],"default_left":[0,0,0,0,0,0,0,0,0,0,0],"id":34,"left_children":[1,3,-1,5,7,-1,-1,-1,9,-1,-1],"loss_changes":[6.2097135E0,5.9369564E0,0E0,4.7454634E0,2.9202976E0,0E0,0E0,0E0,3.741722E-1,0E0,0E0],"parents":[2147483647,0,0,1,1,3,3,4,4,8,8],"right_children":[2,4,-1,6,8,-1,-1,-1,10,-1,-1],"split_conditions":[3.009482E-1,1.5566477E0,3.510056E-2,2.029013E-1,3.061337E-1,3.6626425E-2,-2.5484804E-2,-0E0,2.0198366E-1,-5.2265644E-2,-1.5312637E-2],"split_indices":[1942,841,0,344,223,0,0,0,250,0,0],"split_type":[0,0,0,0,0,0,0,0,0,0,0],"sum_hessian":[3.193459E1,2.553468E1,6.3999104E0,9.41637E0,1.6118309E1,6.388267E0,3.0281034E0,5.517422E0,1.0600887E1,6.966104E0,3.6347833E0],"tree_param":{"num_deleted":"0","num_feature":"1989","num_nodes":"11","size_leaf_vector":"1"}},{"base_weights":[2.9606808E-2,3.5629627E-1,-5.1723033E-1,-2.8831062E-1,6.713541E-1,-4.96291E-2,8.253384E-3,1.6270397E-2,-3.9310984E-2,-9.512521E-3,4.7241963E-2],"categories":[],"categories_nodes":[],"categories_segments":[],"categories_sizes":[],"default_left":[0,0,0,0,0,0,0,0,0,0,0],"id":35,"left_children":[1,3,5,7,9,-1,-1,-1,-1,-1,-1],"loss_changes":[6.1270614E0,4.798726E0,4.558694E0,3.1137707E0,4.0094385E0,0E0,0E0,0E0,0E0,0E0,0E0],"parents":[2147483647,0,0,1,1,2,2,3,3,4,4],"right_children":[2,4,6,8,10,-1,-1,-1,-1,-1,-1],"split_conditions":[2.1821924E-2,1.20925635E-1,1.160439E0,5.7333416E-1,1.0046829E-1,-4.96291E-2,8.253384E-3,1.6270397E-2,-3.9310984E-2,-9.512521E-3,4.7241963E-2],"split_indices":[1622,1859,566,985,1925,0,0,0,0,0,0],"split_type":[0,0,0,0,0,0,0,0,0,0,0],"sum_hessian":[3.0324165E1,1.953399E1,1.0790174E1,6.3645473E0,1.3169444E1,5.9098587E0,4.880315E0,3.0711436E0,3.2934039E0,3.2315655E0,9.937879E0],"tree_param":{"num_deleted":"0","num_feature":"1989","num_nodes":"11","size_leaf_vector":"1"}},{"base_weights":[-3.811109E-2,-6.625574E-1,2.3598772E-1,4.702024E-4,-4.8414204E-2,-4.3905157E-1,5.3347814E-1,7.757028E-3,-4.3094266E-2,8.10653E-1,-8.773679E-3,4.9518812E-3,4.9975093E-2],"categories":[],"categories_nodes":[],"categories_segments":[],"categories_sizes":[],"default_left":[0,0,0,0,0,0,0,0,0,0,0,0,0],"id":36,"left_children":[1,3,5,-1,-1,7,9,-1,-1,11,-1,-1,-1],"loss_changes":[5.901941E0,2.2756734E0,5.274208E0,0E0,0E0,2.423482E0,3.8032775E0,0E0,0E0,1.4524717E0,0E0,0E0,0E0],"parents":[2147483647,0,0,1,1,2,2,5,5,6,6,9,9],"right_children":[2,4,6,-1,-1,8,10,-1,-1,12,-1,-1,-1],"split_conditions":[1.1982867E-3,1.6645719E0,1.1438938E-1,4.702024E-4,-4.8414204E-2,1.1025999E0,5.369663E-3,7.757028E-3,-4.3094266E-2,5.7085454E-1,-8.773679E-3,4.9518812E-3,4.9975093E-2],"split_indices":[1269,714,1774,0,0,1014,1194,0,0,55,0,0,0],"split_type":[0,0,0,0,0,0,0,0,0,0,0,0,0],"sum_hessian":[3.0405783E1,8.521855E0,2.1883926E1,3.1687033E0,5.353152E0,6.300205E0,1.5583722E1,3.0474405E0,3.252765E0,1.10986805E1,4.4850407E0,3.07813E0,8.020551E0],"tree_param":{"num_deleted":"0","num_feature":"1989","num_nodes":"13","size_leaf_vector":"1"}},{"base_weights":[1.1197691E-2,-1.9441763E-1,3.657072E-2,9.475429E-2,-7.5454307E-1,3.8923092E-2,-3.0545926E-1,-1.20185595E-2,-4.580724E-2,2.2095716E-2,-6.832623E-1,-4.559284E-2,-4.926446E-3],"categories":[],"categories_nodes":[],"categories_segments":[],"categories_sizes":[],"default_left":[0,0,0,0,0,0,0,0,0,0,0,0,0],"id":37,"left_children":[1,3,-1,5,7,-1,9,-1,-1,-1,11,-1,-1],"loss_changes":[5.0349674E0,4.4437337E0,0E0,5.695048E0,2.1191263E-1,0E0,4.374111E0,0E0,0E0,0E0,1.0140676E0,0E0,0E0],"parents":[2147483647,0,0,1,1,3,3,4,4,6,6,10,10],"right_children":[2,4,-1,6,8,-1,10,-1,-1,-1,12,-1,-1],"split_conditions":[3.009482E-1,2.0314816E-1,3.657072E-2,9.3653664E-2,9.287582E-1,3.8923092E-2,1.0704825E0,-1.20185595E-2,-4.580724E-2,2.2095716E-2,5.495053E-2,-4.559284E-2,-4.926446E-3],"split_indices":[1942,135,0,1242,757,0,777,0,0,0,1979,0,0],"split_type":[0,0,0,0,0,0,0,0,0,0,0,0,0],"sum_hessian":[2.9716825E1,2.4144934E1,5.5718923E0,1.690213E1,7.242804E0,5.6350646E0,1.1267065E1,3.0696592E0,4.1731443E0,3.580335E0,7.6867304E0,4.5989337E0,3.0877967E0],"tree_param":{"num_deleted":"0","num_feature":"1989","num_nodes":"13","size_leaf_vector":"1"}},{"base_weights":[8.558981E-3,-3.839866E-1,4.1501322E-1,-7.8654975E-1,2.3697841E-1,-2.114076E-2,6.6836405E-1,-1.0069534E-2,-4.9913663E-2,3.6812562E-2,-1.6716471E-2,4.634938E-2,-2.4929333E-3],"categories":[],"categories_nodes":[],"categories_segments":[],"categories_sizes":[],"default_left":[0,0,0,0,0,0,0,0,0,0,0,0,0],"id":38,"left_children":[1,3,5,7,9,-1,11,-1,-1,-1,-1,-1,-1],"loss_changes":[5.5158563E0,4.79585E0,4.2152076E0,8.60836E-1,2.9033701E0,0E0,2.7770958E0,0E0,0E0,0E0,0E0,0E0,0E0],"parents":[2147483647,0,0,1,1,2,2,3,3,4,4,6,6],"right_children":[2,4,6,8,10,-1,12,-1,-1,-1,-1,-1,-1],"split_conditions":[5.975745E-1,9.831655E-2,7.2461264E-3,9.865799E-1,6.229314E-1,-2.114076E-2,7.954004E-1,-1.0069534E-2,-4.9913663E-2,3.6812562E-2,-1.6716471E-2,4.634938E-2,-2.4929333E-3],"split_indices":[126,1802,990,604,888,0,1076,0,0,0,0,0,0],"split_type":[0,0,0,0,0,0,0,0,0,0,0,0,0],"sum_hessian":[3.0553904E1,1.547397E1,1.5079934E1,9.162058E0,6.311912E0,3.0990188E0,1.1980915E1,3.5965793E0,5.565479E0,3.1535764E0,3.1583357E0,8.483869E0,3.4970462E0],"tree_param":{"num_deleted":"0","num_feature":"1989","num_nodes":"13","size_leaf_vector":"1"}},{"base_weights":[2.4776762E-2,4.7354633E-1,-4.9007156E-1,-5.965804E-3,4.0361013E-2,-4.4136014E-2,5.8287997E-3],"categories":[],"categories_nodes":[],"categories_segments":[],"categories_sizes":[],"default_left":[0,0,0,0,0,0,0],"id":39,"left_children":[1,3,5,-1,-1,-1,-1],"loss_changes":[7.08601E0,3.5131223E0,3.6719506E0,0E0,0E0,0E0,0E0],"parents":[2147483647,0,0,1,1,2,2],"right_children":[2,4,6,-1,-1,-1,-1],"split_conditions":[1.8639501E-2,2.4216276E-2,5.51486E-1,-5.965804E-3,4.0361013E-2,-4.4136014E-2,5.8287997E-3],"split_indices":[1622,132,581,0,0,0,0],"split_type":[0,0,0,0,0,0,0],"sum_hessian":[2.6667255E1,1.4437461E1,1.22297945E1,5.5541472E0,8.883313E0,6.9719357E0,5.2578588E0],"tree_param":{"num_deleted":"0","num_feature":"1989","num_nodes":"7","size_leaf_vector":"1"}},{"base_weights":[5.246428E-2,5.110095E-1,-3.2571173E-1,8.1499934E-1,-4.0255E-3,1.7721333E-1,-7.2240824E-1,1.0872678E-2,4.9586423E-2,3.577043E-2,-1.9123677E-2,-4.686285E-2,-4.6312283E-3],"categories":[],"categories_nodes":[],"categories_segments":[],"categories_sizes":[],"default_left":[0,0,0,0,0,0,0,0,0,0,0,0,0],"id":40,"left_children":[1,3,5,7,-1,9,11,-1,-1,-1,-1,-1,-1],"loss_changes":[5.7368073E0,2.890127E0,3.9259124E0,5.203099E-1,0E0,3.437809E0,1.1624789E0,0E0,0E0,0E0,0E0,0E0,0E0],"parents":[2147483647,0,0,1,1,2,2,3,3,5,5,6,6],"right_children":[2,4,6,8,-1,10,12,-1,-1,-1,-1,-1,-1],"split_conditions":[1.7201686E-1,9.792505E-2,2.0659134E-1,3.8779563E-1,-4.0255E-3,7.995427E-1,1.0985132E-1,1.0872678E-2,4.9586423E-2,3.577043E-2,-1.9123677E-2,-4.686285E-2,-4.6312283E-3],"split_indices":[98,1502,1615,588,0,131,1913,0,0,0,0,0,0],"split_type":[0,0,0,0,0,0,0,0,0,0,0,0,0],"sum_hessian":[2.9055702E1,1.2934419E1,1.6121283E1,8.156253E0,4.7781653E0,7.4856176E0,8.635665E0,3.0090253E0,5.147228E0,3.623484E0,3.862134E0,5.5925555E0,3.0431097E0],"tree_param":{"num_deleted":"0","num_feature":"1989","num_nodes":"13","size_leaf_vector":"1"}},{"base_weights":[1.6144438E-2,3.0580273E-1,-5.533524E-1,6.417929E-1,-2.1309449E-1,-4.147345E-2,2.116881E-3,-3.278643E-3,4.452024E-2,2.0546943E-2,-3.8441096E-2],"categories":[],"categories_nodes":[],"categories_segments":[],"categories_sizes":[],"default_left":[0,0,0,0,0,0,0,0,0,0,0],"id":41,"left_children":[1,3,5,7,9,-1,-1,-1,-1,-1,-1],"loss_changes":[5.469731E0,4.1734314E0,1.9801655E0,2.6689782E0,4.163115E0,0E0,0E0,0E0,0E0,0E0,0E0],"parents":[2147483647,0,0,1,1,2,2,3,3,4,4],"right_children":[2,4,6,8,10,-1,-1,-1,-1,-1,-1],"split_conditions":[9.737784E-1,8.636388E-1,1.9690098E-1,2.3294438E-2,2.0107162E-1,-4.147345E-2,2.116881E-3,-3.278643E-3,4.452024E-2,2.0546943E-2,-3.8441096E-2],"split_indices":[652,649,1971,196,297,0,0,0,0,0,0],"split_type":[0,0,0,0,0,0,0,0,0,0,0],"sum_hessian":[2.9256475E1,2.0123093E1,9.133383E0,1.2043722E1,8.0793705E0,5.819074E0,3.3143084E0,3.4104257E0,8.633296E0,3.9664862E0,4.1128845E0],"tree_param":{"num_deleted":"0","num_feature":"1989","num_nodes":"11","size_leaf_vector":"1"}},{"base_weights":[-1.1091238E-1,5.828293E-1,-3.5730812E-1,4.071122E-2,4.962726E-3,2.4542284E-1,-6.6820484E-1,-1.5237704E-2,4.0395018E-2,1.6017997E-3,-9.118151E-1,-5.2039362E-2,-1.4086938E-2],"categories":[],"categories_nodes":[],"categories_segments":[],"categories_sizes":[],"default_left":[0,0,0,0,0,0,0,0,0,0,0,0,0],"id":42,"left_children":[1,3,5,-1,-1,7,9,-1,-1,-1,11,-1,-1],"loss_changes":[5.7381954E0,7.3706007E-1,4.945698E0,0E0,0E0,3.5327976E0,3.004548E0,0E0,0E0,0E0,3.0553818E-1,0E0,0E0],"parents":[2147483647,0,0,1,1,2,2,5,5,6,6,10,10],"right_children":[2,4,6,-1,-1,8,10,-1,-1,-1,12,-1,-1],"split_conditions":[6.2177335E-3,2.0326208E-6,1.5137835E0,4.071122E-2,4.962726E-3,1.0710752E-1,6.0234744E-2,-1.5237704E-2,4.0395018E-2,1.6017997E-3,1.9833219E0,-5.2039362E-2,-1.4086938E-2],"split_indices":[1807,1383,841,0,0,1824,1616,0,0,0,927,0,0],"split_type":[0,0,0,0,0,0,0,0,0,0,0,0,0],"sum_hessian":[2.92648E1,6.84778E0,2.2417019E1,3.5667439E0,3.2810361E0,7.662121E0,1.4754897E1,4.246797E0,3.4153237E0,4.1506467E0,1.060425E1,7.588535E0,3.0157156E0],"tree_param":{"num_deleted":"0","num_feature":"1989","num_nodes":"13","size_leaf_vector":"1"}},{"base_weights":[-4.2704985E-2,5.102264E-1,-3.7482566E-1,4.1492887E-2,-9.797134E-3,2.3748262E-2,-6.445E-1,-4.8656803E-2,-1.498761E-3],"categories":[],"categories_nodes":[],"categories_segments":[],"categories_sizes":[],"default_left":[0,0,0,0,0,0,0,0,0],"id":43,"left_children":[1,3,5,-1,-1,-1,7,-1,-1],"loss_changes":[5.6169434E0,2.9748135E0,5.0107794E0,0E0,0E0,0E0,2.9619002E0,0E0,0E0],"parents":[2147483647,0,0,1,1,2,2,6,6],"right_children":[2,4,6,-1,-1,-1,8,-1,-1],"split_conditions":[1.8866889E-1,9.680211E-2,8.52143E-1,4.1492887E-2,-9.797134E-3,2.3748262E-2,5.0546568E-2,-4.8656803E-2,-1.498761E-3],"split_indices":[1615,1960,812,0,0,0,367,0,0],"split_type":[0,0,0,0,0,0,0,0,0],"sum_hessian":[2.6577614E1,9.457933E0,1.711968E1,6.3672457E0,3.090688E0,3.6679626E0,1.3451718E1,7.8981137E0,5.553604E0],"tree_param":{"num_deleted":"0","num_feature":"1989","num_nodes":"9","size_leaf_vector":"1"}},{"base_weights":[-7.4809697E-3,4.6725395E-1,-3.153813E-1,4.262775E-2,-1.8790802E-2,2.6804117E-2,-5.648827E-1,7.35886E-3,-7.7421725E-1,-5.0795246E-2,-0E0],"categories":[],"categories_nodes":[],"categories_segments":[],"categories_sizes":[],"default_left":[0,0,0,0,0,0,0,0,0,0,0],"id":44,"left_children":[1,3,5,-1,-1,-1,7,-1,9,-1,-1],"loss_changes":[4.4769363E0,4.5785003E0,4.5897465E0,0E0,0E0,0E0,2.609661E0,0E0,2.2770352E0,0E0,0E0],"parents":[2147483647,0,0,1,1,2,2,6,6,8,8],"right_children":[2,4,6,-1,-1,-1,8,-1,10,-1,-1],"split_conditions":[8.4447575E-1,3.0545019E-2,1.5049195E-1,4.262775E-2,-1.8790802E-2,2.6804117E-2,1.1990953E-3,7.35886E-3,3.2344025E-1,-5.0795246E-2,-0E0],"split_indices":[803,1981,256,0,0,0,1555,0,403,0,0],"split_type":[0,0,0,0,0,0,0,0,0,0,0],"sum_hessian":[2.6715658E1,9.97534E0,1.6740318E1,6.9123573E0,3.0629823E0,3.1822731E0,1.3558045E1,3.1066842E0,1.0451361E1,7.4379287E0,3.0134323E0],"tree_param":{"num_deleted":"0","num_feature":"1989","num_nodes":"11","size_leaf_vector":"1"}},{"base_weights":[1.6002182E-2,4.8756453E-1,-2.6946318E-1,4.4653602E-2,-1.0721569E-2,2.4567962E-2,-5.5234724E-1,-8.0105394E-1,6.6111134E-3,-6.778659E-3,-4.996432E-2],"categories":[],"categories_nodes":[],"categories_segments":[],"categories_sizes":[],"default_left":[0,0,0,0,0,0,0,0,0,0,0],"id":45,"left_children":[1,3,5,-1,-1,-1,7,9,-1,-1,-1],"loss_changes":[4.104952E0,3.7375407E0,4.6025143E0,0E0,0E0,0E0,2.7928858E0,1.0959935E0,0E0,0E0,0E0],"parents":[2147483647,0,0,1,1,2,2,6,6,7,7],"right_children":[2,4,6,-1,-1,-1,8,10,-1,-1,-1],"split_conditions":[1.37811685E-2,8.7553024E-1,7.6769066E-1,4.4653602E-2,-1.0721569E-2,2.4567962E-2,1.2181399E-1,8.7912905E-1,6.6111134E-3,-6.778659E-3,-4.996432E-2],"split_indices":[1622,22,188,0,0,0,1650,803,0,0,0],"split_type":[0,0,0,0,0,0,0,0,0,0,0],"sum_hessian":[2.6380112E1,9.545767E0,1.6834347E1,5.795862E0,3.7499046E0,4.067445E0,1.2766901E1,9.222203E0,3.5446978E0,3.0053396E0,6.2168636E0],"tree_param":{"num_deleted":"0","num_feature":"1989","num_nodes":"11","size_leaf_vector":"1"}},{"base_weights":[-4.268685E-2,2.8773832E-1,-4.1850138E-1,-3.9040327E-2,4.390393E-2,-6.62792E-1,1.2088934E-2,2.1935334E-2,-2.8457636E-2,-0E0,-4.617424E-2],"categories":[],"categories_nodes":[],"categories_segments":[],"categories_sizes":[],"default_left":[0,0,0,0,0,0,0,0,0,0,0],"id":46,"left_children":[1,3,5,7,-1,9,-1,-1,-1,-1,-1],"loss_changes":[3.9684665E0,3.4244776E0,2.774311E0,3.7348108E0,0E0,2.0305996E0,0E0,0E0,0E0,0E0,0E0],"parents":[2147483647,0,0,1,1,2,2,3,3,5,5],"right_children":[2,4,6,8,-1,10,-1,-1,-1,-1,-1],"split_conditions":[6.0525215E-1,2.966946E-4,1.2622987E-1,1.286851E0,4.390393E-2,1.8610702E-1,1.2088934E-2,2.1935334E-2,-2.8457636E-2,-0E0,-4.617424E-2],"split_indices":[218,1135,1650,443,0,362,0,0,0,0,0],"split_type":[0,0,0,0,0,0,0,0,0,0,0],"sum_hessian":[2.7912987E1,1.4961292E1,1.2951695E1,1.07236395E1,4.2376523E0,9.558924E0,3.392772E0,5.72257E0,5.0010695E0,3.2238445E0,6.335079E0],"tree_param":{"num_deleted":"0","num_feature":"1989","num_nodes":"11","size_leaf_vector":"1"}},{"base_weights":[1.1267983E-1,-4.837372E-1,3.5806483E-1,-3.9521787E-2,2.7248198E-3,-1.3206007E-2,6.163053E-1,8.54596E-1,-1.3290723E-3,5.052911E-2,1.2025631E-2],"categories":[],"categories_nodes":[],"categories_segments":[],"categories_sizes":[],"default_left":[0,0,0,0,0,0,0,0,0,0,0],"id":47,"left_children":[1,3,5,-1,-1,-1,7,9,-1,-1,-1],"loss_changes":[4.5755644E0,1.6752131E0,3.8638632E0,0E0,0E0,0E0,2.5978937E0,5.320511E-1,0E0,0E0,0E0],"parents":[2147483647,0,0,1,1,2,2,6,6,7,7],"right_children":[2,4,6,-1,-1,-1,8,10,-1,-1,-1],"split_conditions":[9.5038454E-4,3.8359764E-1,1.1438938E-1,-3.9521787E-2,2.7248198E-3,-1.3206007E-2,1.9928217E-1,1.7753301E-2,-1.3290723E-3,5.052911E-2,1.2025631E-2],"split_indices":[1269,1598,1774,0,0,0,135,1196,0,0,0],"split_type":[0,0,0,0,0,0,0,0,0,0,0],"sum_hessian":[2.6982994E1,7.1804504E0,1.9802544E1,4.0954237E0,3.0850267E0,5.6814103E0,1.4121133E1,9.935422E0,4.1857104E0,6.7632594E0,3.1721625E0],"tree_param":{"num_deleted":"0","num_feature":"1989","num_nodes":"11","size_leaf_vector":"1"}},{"base_weights":[2.0228995E-2,-3.0694997E-1,4.6610633E-1,1.0018011E-1,-7.5038815E-1,4.1593727E-2,-8.727301E-4,-3.0991256E-2,3.455014E-2,-4.6134736E-2,-1.1583216E-2],"categories":[],"categories_nodes":[],"categories_segments":[],"categories_sizes":[],"default_left":[0,0,0,0,0,0,0,0,0,0,0],"id":48,"left_children":[1,3,5,7,9,-1,-1,-1,-1,-1,-1],"loss_changes":[4.480516E0,3.3922575E0,2.4179258E0,5.4668765E0,2.4144793E-1,0E0,0E0,0E0,0E0,0E0,0E0],"parents":[2147483647,0,0,1,1,2,2,3,3,4,4],"right_children":[2,4,6,8,10,-1,-1,-1,-1,-1,-1],"split_conditions":[1.0316275E-1,6.3524294E-1,9.610337E-1,1.2812598E-1,3.9805123E-1,4.1593727E-2,-8.727301E-4,-3.0991256E-2,3.455014E-2,-4.6134736E-2,-1.1583216E-2],"split_indices":[1885,182,803,84,5,0,0,0,0,0,0],"split_type":[0,0,0,0,0,0,0,0,0,0,0],"sum_hessian":[2.6642786E1,1.5596884E1,1.1045903E1,8.82089E0,6.7759933E0,5.586457E0,5.4594464E0,3.855256E0,4.965634E0,3.7725213E0,3.003472E0],"tree_param":{"num_deleted":"0","num_feature":"1989","num_nodes":"11","size_leaf_vector":"1"}},{"base_weights":[2.197203E-3,-1.7086117E-1,3.7984602E-2,1.5152079E-1,-6.158572E-1,-2.789631E-2,5.0166184E-1,-4.5836043E-2,-1.3350438E-3,-3.0632643E-3,4.2577825E-2],"categories":[],"categories_nodes":[],"categories_segments":[],"categories_sizes":[],"default_left":[0,0,0,0,0,0,0,0,0,0,0],"id":49,"left_children":[1,3,-1,5,7,-1,9,-1,-1,-1,-1],"loss_changes":[4.144178E0,3.8599093E0,0E0,4.562264E0,1.832427E0,0E0,2.5372734E0,0E0,0E0,0E0,0E0],"parents":[2147483647,0,0,1,1,3,3,4,4,6,6],"right_children":[2,4,-1,6,8,-1,10,-1,-1,-1,-1],"split_conditions":[1.7779465E-1,1.2147637E-1,3.7984602E-2,1.0873642E-3,1.150213E0,-2.789631E-2,1.578998E-1,-4.5836043E-2,-1.3350438E-3,-3.0632643E-3,4.2577825E-2],"split_indices":[1773,121,0,1269,507,0,983,0,0,0,0],"split_type":[0,0,0,0,0,0,0,0,0,0,0],"sum_hessian":[2.7183516E1,2.3281464E1,3.9020529E0,1.4135288E1,9.146174E0,4.1844325E0,9.950856E0,5.2059474E0,3.940227E0,4.337112E0,5.6137443E0],"tree_param":{"num_deleted":"0","num_feature":"1989","num_nodes":"11","size_leaf_vector":"1"}},{"base_weights":[-1.46596255E-2,-4.1927177E-1,3.2601053E-1,1.4259407E-2,-6.792445E-1,6.347502E-1,-1.812703E-2,-4.7570903E-2,-0E0,4.6526477E-2,-5.1968037E-3],"categories":[],"categories_nodes":[],"categories_segments":[],"categories_sizes":[],"default_left":[0,0,0,0,0,0,0,0,0,0,0],"id":50,"left_children":[1,3,5,-1,7,9,-1,-1,-1,-1,-1],"loss_changes":[4.1669145E0,2.970625E0,3.950325E0,0E0,1.9710312E0,2.9140954E0,0E0,0E0,0E0,0E0,0E0],"parents":[2147483647,0,0,1,1,2,2,4,4,5,5],"right_children":[2,4,6,-1,8,10,-1,-1,-1,-1,-1],"split_conditions":[9.81601E-2,1.4363483E-1,1.9163033E-1,1.4259407E-2,1.5530956E-1,1.8523192E0,-1.812703E-2,-4.7570903E-2,-0E0,4.6526477E-2,-5.1968037E-3],"split_indices":[1829,1813,117,0,34,646,0,0,0,0,0],"split_type":[0,0,0,0,0,0,0,0,0,0,0],"sum_hessian":[2.61793E1,1.1889861E1,1.428944E1,3.049056E0,8.840805E0,1.0073904E1,4.2155356E0,5.7029567E0,3.1378486E0,6.91929E0,3.1546137E0],"tree_param":{"num_deleted":"0","num_feature":"1989","num_nodes":"11","size_leaf_vector":"1"}},{"base_weights":[2.437431E-2,4.0242785E-1,-2.8841203E-1,3.60271E-2,-6.178948E-3,2.0449484E-2,-5.122237E-1,-7.431439E-1,6.6468767E-3,-1.198088E-2,-4.607468E-2],"categories":[],"categories_nodes":[],"categories_segments":[],"categories_sizes":[],"default_left":[0,0,0,0,0,0,0,0,0,0,0],"id":51,"left_children":[1,3,5,-1,-1,-1,7,9,-1,-1,-1],"loss_changes":[3.6481636E0,2.5830114E0,3.0478616E0,0E0,0E0,0E0,2.2991784E0,3.8559818E-1,0E0,0E0,0E0],"parents":[2147483647,0,0,1,1,2,2,6,6,7,7],"right_children":[2,4,6,-1,-1,-1,8,10,-1,-1,-1],"split_conditions":[5.963448E-2,1.5442148E0,5.1127444E-3,3.60271E-2,-6.178948E-3,2.0449484E-2,6.791627E-4,8.998539E-1,6.6468767E-3,-1.198088E-2,-4.607468E-2],"split_indices":[1861,869,1807,0,0,0,1276,585,0,0,0],"split_type":[0,0,0,0,0,0,0,0,0,0,0],"sum_hessian":[2.679182E1,1.2015567E1,1.4776254E1,7.1449475E0,4.8706193E0,3.0793548E0,1.1696899E1,8.504256E0,3.192643E0,3.5969388E0,4.9073176E0],"tree_param":{"num_deleted":"0","num_feature":"1989","num_nodes":"11","size_leaf_vector":"1"}},{"base_weights":[-7.776155E-3,-3.009769E-1,4.1072652E-1,-5.218036E-1,2.1812184E-2,3.988865E-2,-4.3591717E-3,-4.1119352E-2,-1.699081E-3],"categories":[],"categories_nodes":[],"categories_segments":[],"categories_sizes":[],"default_left":[0,0,0,0,0,0,0,0,0],"id":52,"left_children":[1,3,5,7,-1,-1,-1,-1,-1],"loss_changes":[3.636823E0,3.327588E0,2.5463068E0,1.9921508E0,0E0,0E0,0E0,0E0,0E0],"parents":[2147483647,0,0,1,1,2,2,3,3],"right_children":[2,4,6,8,-1,-1,-1,-1,-1],"split_conditions":[1.0316275E-1,3.2766885E-1,1.3701102E0,4.7017373E-2,2.1812184E-2,3.988865E-2,-4.3591717E-3,-4.1119352E-2,-1.699081E-3],"split_indices":[1885,1632,953,1943,0,0,0,0,0],"split_type":[0,0,0,0,0,0,0,0,0],"sum_hessian":[2.5713224E1,1.5590912E1,1.01223135E1,1.2551337E1,3.0395744E0,5.1305065E0,4.991807E0,6.790527E0,5.7608104E0],"tree_param":{"num_deleted":"0","num_feature":"1989","num_nodes":"9","size_leaf_vector":"1"}},{"base_weights":[-4.30015E-2,-2.4409519E-1,3.2667052E-2,-5.616148E-1,2.3895913E-1,-8.7970686E-1,1.3836639E-2,3.953079E-2,-1.4355945E-2,-5.1489294E-2,-1.36176115E-2],"categories":[],"categories_nodes":[],"categories_segments":[],"categories_sizes":[],"default_left":[0,0,0,0,0,0,0,0,0,0,0],"id":53,"left_children":[1,3,-1,5,7,9,-1,-1,-1,-1,-1],"loss_changes":[4.0392404E0,3.737713E0,0E0,4.345391E0,3.4546072E0,3.0152798E-1,0E0,0E0,0E0,0E0,0E0],"parents":[2147483647,0,0,1,1,3,3,4,4,5,5],"right_children":[2,4,-1,6,8,10,-1,-1,-1,-1,-1],"split_conditions":[3.2775182E-1,1.0316275E-1,3.2667052E-2,6.684331E-1,3.7660928E0,2.525568E-1,1.3836639E-2,3.953079E-2,-1.4355945E-2,-5.1489294E-2,-1.36176115E-2],"split_indices":[1632,1885,0,1079,962,221,0,0,0,0,0],"split_type":[0,0,0,0,0,0,0,0,0,0,0],"sum_hessian":[2.4860016E1,2.0408783E1,4.451233E0,1.2243004E1,8.165779E0,8.890368E0,3.3526359E0,3.58786E0,4.5779185E0,5.8813653E0,3.009003E0],"tree_param":{"num_deleted":"0","num_feature":"1989","num_nodes":"11","size_leaf_vector":"1"}},{"base_weights":[-5.468892E-2,3.531064E-1,-2.9423645E-1,3.7331197E-2,-4.216404E-3,9.252527E-2,-3.827684E-2,-2.7487317E-2,5.1312554E-1,4.3605756E-2,-0E0],"categories":[],"categories_nodes":[],"categories_segments":[],"categories_sizes":[],"default_left":[0,0,0,0,0,0,0,0,0,0,0],"id":54,"left_children":[1,3,5,-1,-1,7,-1,-1,9,-1,-1],"loss_changes":[2.931927E0,2.1022346E0,3.6450639E0,0E0,0E0,3.8080502E0,0E0,0E0,1.6196721E0,0E0,0E0],"parents":[2147483647,0,0,1,1,2,2,5,5,8,8],"right_children":[2,4,6,-1,-1,8,-1,-1,10,-1,-1],"split_conditions":[6.165324E-2,7.887719E-1,3.0166546E-3,3.7331197E-2,-4.216404E-3,2.7799755E-1,-3.827684E-2,-2.7487317E-2,2.4496155E0,4.3605756E-2,-0E0],"split_indices":[1687,649,1285,0,0,150,0,0,957,0,0],"split_type":[0,0,0,0,0,0,0,0,0,0,0],"sum_hessian":[2.594679E1,9.096218E0,1.6850573E1,4.164646E0,4.9315724E0,1.0021688E1,6.8288846E0,3.62869E0,6.392998E0,3.0349817E0,3.3580165E0],"tree_param":{"num_deleted":"0","num_feature":"1989","num_nodes":"11","size_leaf_vector":"1"}}]},"name":"gbtree"},"learner_model_param":{"base_score":"[5.0003684E-1]","boost_from_average":"1","num_class":"0","num_feature":"1989","num_target":"1"},"objective":{"name":"binary:logistic","reg_loss_param":{"scale_pos_weight":"0.962406039"}}},"version":[3,1,2]}