{"learner":{"attributes":{"best_iteration":"72","best_score":"0.5861835936611554","scikit_learn":"{\"_estimator_type\": \"classifier\"}"},"feature_names":[],"feature_types":[],"gradient_booster":{"model":{"cats":{"enc":[],"feature_segments":[],"sorted_idx":[]},"gbtree_model_param":{"num_parallel_tree":"1","num_trees":"73"},"iteration_indptr":[0,1,2,3,4,5,6,7,8,9,10,11,12,13,14,15,16,17,18,19,20,21,22,23,24,25,26,27,28,29,30,31,32,33,34,35,36,37,38,39,40,41,42,43,44,45,46,47,48,49,50,51,52,53,54,55,56,57,58,59,60,61,62,63,64,65,66,67,68,69,70,71,72,73],"tree_info":[0,0,0,0,0,0,0,0,0,0,0,0,0,0,0,0,0,0,0,0,0,0,0,0,0,0,0,0,0,0,0,0,0,0,0,0,0,0,0,0,0,0,0,0,0,0,0,0,0,0,0,0,0,0,0,0,0,0,0,0,0,0,0,0,0,0,0,0,0,0,0,0,0],"trees":[{"base_weights":[-0E0,1.3130141E0,-5.4174894E-1,7.965985E-2,1.1766694E-2,1.2900008E-1,-1.3434029E0,-4.8676293E-2,7.416604E-1,-1.3565998E-2,-8.186199E-2,1.2014408E0,-1.854316E-2,7.07035E-2,2.1285256E-2],"categories":[],"categories_nodes":[],"categories_segments":[],"categories_sizes":[],"default_left":[0,0,0,0,0,0,0,0,0,0,0,0,0,0,0],"id":0,"left_children":[1,3,5,-1,-1,7,9,-1,11,-1,-1,13,-1,-1,-1],"loss_changes":[3.2358532E1,3.077097E0,1.7807117E1,0E0,0E0,1.4466572E1,3.6248112E0,0E0,7.935017E0,0E0,0E0,2.8858662E-1,0E0,0E0,0E0],"parents":[2147483647,0,0,1,1,2,2,5,5,6,6,8,8,11,11],"right_children":[2,4,6,-1,-1,8,10,-1,12,-1,-1,14,-1,-1,-1],"split_conditions":[2.99682E0,7.982056E-1,3.7480125E0,7.965985E-2,1.1766694E-2,8.1818366E-1,1.1947318E-1,-4.8676293E-2,2.3985658E0,-1.3565998E-2,-8.186199E-2,1.47807E0,-1.854316E-2,7.07035E-2,2.1285256E-2],"split_indices":[569,69,943,0,0,120,1788,0,697,0,0,36,0,0,0],"split_type":[0,0,0,0,0,0,0,0,0,0,0,0,0,0,0],"sum_hessian":[4.1526073E1,1.1279839E1,3.0246237E1,8.119394E0,3.1604443E0,1.7313414E1,1.2932822E1,5.705218E0,1.1608196E1,3.6828318E0,9.24999E0,8.16417E0,3.4440262E0,5.0149198E0,3.1492503E0],"tree_param":{"num_deleted":"0","num_feature":"1926","num_nodes":"15","size_leaf_vector":"1"}},{"base_weights":[1.4072903E-1,8.464547E-1,-6.613084E-1,1.3126264E0,-1.583656E-2,-1.159538E0,1.8980434E-2,7.9589985E-2,2.2755156E-3,-4.912574E-3,-7.169539E-2],"categories":[],"categories_nodes":[],"categories_segments":[],"categories_sizes":[],"default_left":[0,0,0,0,0,0,0,0,0,0,0],"id":1,"left_children":[1,3,5,7,-1,9,-1,-1,-1,-1,-1],"loss_changes":[2.460999E1,1.3403919E1,1.1572469E1,5.6595097E0,0E0,3.7579288E0,0E0,0E0,0E0,0E0,0E0],"parents":[2147483647,0,0,1,1,2,2,3,3,5,5],"right_children":[2,4,6,8,-1,10,-1,-1,-1,-1,-1],"split_conditions":[3.5366218E0,1.4667857E-1,4.930992E0,6.9601846E-1,-1.583656E-2,5.021982E-1,1.8980434E-2,7.9589985E-2,2.2755156E-3,-4.912574E-3,-7.169539E-2],"split_indices":[700,1663,760,141,0,34,0,0,0,0,0],"split_type":[0,0,0,0,0,0,0,0,0,0,0],"sum_hessian":[3.946851E1,2.1002232E1,1.846628E1,1.4871272E1,6.13096E0,1.2399484E1,6.0667963E0,1.170173E1,3.1695426E0,3.1799235E0,9.21956E0],"tree_param":{"num_deleted":"0","num_feature":"1926","num_nodes":"11","size_leaf_vector":"1"}},{"base_weights":[-1.2705179E-1,6.8309866E-2,-5.3445494E-1,4.0924346E-1,-9.923052E-1,5.1326204E-2,-3.5346147E-2,-1.2536932E0,1.5324853E-2,-7.741042E-2,-4.4929325E-3],"categories":[],"categories_nodes":[],"categories_segments":[],"categories_sizes":[],"default_left":[0,0,0,0,0,0,0,0,0,0,0],"id":2,"left_children":[1,-1,3,5,7,-1,-1,9,-1,-1,-1],"loss_changes":[2.5899124E1,0E0,1.5197491E1,9.872966E0,8.665407E0,0E0,0E0,6.2723007E0,0E0,0E0,0E0],"parents":[2147483647,0,0,2,2,3,3,4,4,7,7],"right_children":[2,-1,4,6,8,-1,-1,10,-1,-1,-1],"split_conditions":[2.3216057E0,6.8309866E-2,6.1286535E-2,7.772305E-1,5.2590656E0,5.1326204E-2,-3.5346147E-2,3.4250493E0,1.5324853E-2,-7.741042E-2,-4.4929325E-3],"split_indices":[709,0,1826,509,771,0,0,677,0,0,0],"split_type":[0,0,0,0,0,0,0,0,0,0,0],"sum_hessian":[3.8308674E1,7.149907E0,3.1158768E1,1.0176789E1,2.098198E1,6.713949E0,3.46284E0,1.7588663E1,3.3933158E0,1.3440908E1,4.1477547E0],"tree_param":{"num_deleted":"0","num_feature":"1926","num_nodes":"11","size_leaf_vector":"1"}},{"base_weights":[-3.5262898E-2,-1.0708834E0,4.5502228E-1,-6.9496827E-3,-7.170301E-2,6.5646306E-2,1.506423E-2,7.365612E-1,-8.775242E-1,1.1885319E0,-2.1548098E-2,-6.847032E-2,2.2390026E-3,7.026299E-2,2.0012293E-2],"categories":[],"categories_nodes":[],"categories_segments":[],"categories_sizes":[],"default_left":[0,0,0,0,0,0,0,0,0,0,0,0,0,0,0],"id":3,"left_children":[1,3,5,-1,-1,-1,7,9,11,13,-1,-1,-1,-1,-1],"loss_changes":[2.3045841E1,4.3818398E0,1.1436894E1,0E0,0E0,0E0,1.5724507E1,8.252394E0,5.1899014E0,4.6538353E-1,0E0,0E0,0E0,0E0,0E0],"parents":[2147483647,0,0,1,1,2,2,6,6,7,7,8,8,9,9],"right_children":[2,4,6,-1,-1,-1,8,10,12,14,-1,-1,-1,-1,-1],"split_conditions":[2.7158575E-2,4.0530854E-1,2.6985164E0,-6.9496827E-3,-7.170301E-2,6.5646306E-2,7.278703E-1,5.614673E-1,5.574862E-1,3.4075947E0,-2.1548098E-2,-6.847032E-2,2.2390026E-3,7.026299E-2,2.0012293E-2],"split_indices":[1895,499,607,0,0,0,168,158,433,876,0,0,0,0,0],"split_type":[0,0,0,0,0,0,0,0,0,0,0,0,0,0,0],"sum_hessian":[4.134757E1,1.2589837E1,2.8757732E1,4.3833094E0,8.206528E0,8.326202E0,2.043153E1,1.1553913E1,8.877618E0,8.365233E0,3.1886802E0,5.228208E0,3.6494098E0,5.234007E0,3.1312263E0],"tree_param":{"num_deleted":"0","num_feature":"1926","num_nodes":"15","size_leaf_vector":"1"}},{"base_weights":[4.892794E-2,6.342464E-2,-3.7709045E-1,-8.791825E-1,5.080845E-1,1.1393215E-2,-1.252973E0,1.1234093E0,-3.6021225E-2,-1.9728076E-2,-7.3831454E-2,6.684493E-2,1.9211615E-2],"categories":[],"categories_nodes":[],"categories_segments":[],"categories_sizes":[],"default_left":[0,0,0,0,0,0,0,0,0,0,0,0,0],"id":4,"left_children":[1,-1,3,5,7,-1,9,11,-1,-1,-1,-1,-1],"loss_changes":[2.3981726E1,0E0,1.6129221E1,1.0035837E1,1.1918836E1,0E0,1.9669971E0,3.5945797E-1,0E0,0E0,0E0,0E0,0E0],"parents":[2147483647,0,0,2,2,3,3,4,4,6,6,7,7],"right_children":[2,-1,4,6,8,-1,10,12,-1,-1,-1,-1,-1],"split_conditions":[2.99682E0,6.342464E-2,1.6767338E-1,2.2765625E-1,1.0645363E-1,1.1393215E-2,4.8787066E-1,3.5116549E0,-3.6021225E-2,-1.9728076E-2,-7.3831454E-2,6.684493E-2,1.9211615E-2],"split_indices":[569,0,1763,1575,1584,0,72,546,0,0,0,0,0],"split_type":[0,0,0,0,0,0,0,0,0,0,0,0,0],"sum_hessian":[4.2145123E1,9.947627E0,3.2197495E1,2.0625013E1,1.1572482E1,5.3356876E0,1.5289327E1,7.8787456E0,3.6937363E0,4.3952765E0,1.089405E1,4.753337E0,3.1254091E0],"tree_param":{"num_deleted":"0","num_feature":"1926","num_nodes":"13","size_leaf_vector":"1"}},{"base_weights":[8.526475E-3,1.0121449E0,-4.4256556E-1,-9.700509E-3,6.938622E-2,1.3765103E-1,-1.1340833E0,-4.966147E-2,6.1983144E-1,-7.339118E-2,-0E0,5.9050232E-2,-1.2537437E-2],"categories":[],"categories_nodes":[],"categories_segments":[],"categories_sizes":[],"default_left":[0,0,0,0,0,0,0,0,0,0,0,0,0],"id":5,"left_children":[1,3,5,-1,-1,7,9,-1,11,-1,-1,-1,-1],"loss_changes":[2.1197334E1,7.2461634E0,1.3320837E1,0E0,0E0,1.16632185E1,5.701935E0,0E0,7.893232E0,0E0,0E0,0E0,0E0],"parents":[2147483647,0,0,1,1,2,2,5,5,6,6,8,8],"right_children":[2,4,6,-1,-1,8,10,-1,12,-1,-1,-1,-1],"split_conditions":[3.0753858E0,5.0372636E-1,3.8101258E0,-9.700509E-3,6.938622E-2,8.922431E-1,2.8804768E-4,-4.966147E-2,2.4562603E-1,-7.339118E-2,-0E0,5.9050232E-2,-1.2537437E-2],"split_indices":[569,402,943,0,0,424,1403,0,414,0,0,0,0],"split_type":[0,0,0,0,0,0,0,0,0,0,0,0,0],"sum_hessian":[4.2717052E1,1.2543538E1,3.0173513E1,3.1447973E0,9.398741E0,1.7199545E1,1.2973968E1,4.4457006E0,1.2753844E1,9.585313E0,3.388655E0,7.3912134E0,5.3626313E0],"tree_param":{"num_deleted":"0","num_feature":"1926","num_nodes":"13","size_leaf_vector":"1"}},{"base_weights":[-3.495261E-2,-8.0315053E-1,4.7437894E-1,2.5062144E-2,-1.1505886E0,1.1978006E0,-2.4309307E-1,-7.08241E-2,-4.182735E-3,7.1922354E-2,1.0290512E-2,3.6437195E-2,-6.2386084E-1,-5.48121E-2,2.1006553E-2],"categories":[],"categories_nodes":[],"categories_segments":[],"categories_sizes":[],"default_left":[0,0,0,0,0,0,0,0,0,0,0,0,0,0,0],"id":6,"left_children":[1,3,5,-1,7,9,11,-1,-1,-1,-1,-1,13,-1,-1],"loss_changes":[1.7469257E1,9.29044E0,1.459051E1,0E0,3.7924633E0,2.5268078E0,6.4683084E0,0E0,0E0,0E0,0E0,0E0,6.889671E0,0E0,0E0],"parents":[2147483647,0,0,1,1,2,2,4,4,5,5,6,6,12,12],"right_children":[2,4,6,-1,8,10,12,-1,-1,-1,-1,-1,14,-1,-1],"split_conditions":[3.1169996E0,2.4197555E0,3.0799444E0,2.5062144E-2,3.2657833E0,3.6367335E0,2.7001023E-1,-7.08241E-2,-4.182735E-3,7.1922354E-2,1.0290512E-2,3.6437195E-2,4.055313E0,-5.48121E-2,2.1006553E-2],"split_indices":[618,980,900,0,605,850,43,0,0,0,0,0,624,0,0],"split_type":[0,0,0,0,0,0,0,0,0,0,0,0,0,0,0],"sum_hessian":[4.061633E1,1.5811409E1,2.4804922E1,3.0789318E0,1.2732477E1,1.1753942E1,1.3050981E1,9.592853E0,3.1396239E0,8.653711E0,3.1002307E0,3.0854843E0,9.965496E0,6.858073E0,3.107423E0],"tree_param":{"num_deleted":"0","num_feature":"1926","num_nodes":"15","size_leaf_vector":"1"}},{"base_weights":[2.1965638E-2,-4.0285698E-1,8.4600556E-1,4.892096E-1,-7.7803344E-1,6.54425E-2,-1.1726683E-2,-2.3691408E-2,5.5912822E-2,1.7580003E-2,-1.0915473E0,-1.0158907E-2,-6.47613E-2],"categories":[],"categories_nodes":[],"categories_segments":[],"categories_sizes":[],"default_left":[0,0,0,0,0,0,0,0,0,0,0,0,0],"id":7,"left_children":[1,3,5,7,9,-1,-1,-1,-1,-1,11,-1,-1],"loss_changes":[1.53149605E1,1.0419912E1,8.173947E0,6.9806566E0,8.316198E0,0E0,0E0,0E0,0E0,0E0,2.413784E0,0E0,0E0],"parents":[2147483647,0,0,1,1,2,2,3,3,4,4,10,10],"right_children":[2,4,6,8,10,-1,-1,-1,-1,-1,12,-1,-1],"split_conditions":[2.2174919E-3,2.2765625E-1,5.7071436E-2,3.3332205E0,2.135273E0,6.54425E-2,-1.1726683E-2,-2.3691408E-2,5.5912822E-2,1.7580003E-2,1.9085902E0,-1.0158907E-2,-6.47613E-2],"split_indices":[1267,1575,1708,730,653,0,0,0,0,0,514,0,0],"split_type":[0,0,0,0,0,0,0,0,0,0,0,0,0],"sum_hessian":[3.9674446E1,2.6772915E1,1.2901528E1,7.667433E0,1.9105482E1,8.801431E0,4.1000977E0,3.1616483E0,4.5057845E0,4.02846E0,1.5077023E1,3.6487253E0,1.1428298E1],"tree_param":{"num_deleted":"0","num_feature":"1926","num_nodes":"13","size_leaf_vector":"1"}},{"base_weights":[-1.5804721E-2,-8.789345E-1,4.0786448E-1,-5.8311995E-2,4.5525036E-3,7.53836E-1,-5.3060335E-1,-6.9198616E-2,6.4759366E-2,-5.672082E-2,1.4380432E-2,3.5604563E-2,-5.5536784E-2],"categories":[],"categories_nodes":[],"categories_segments":[],"categories_sizes":[],"default_left":[0,0,0,0,0,0,0,0,0,0,0,0,0],"id":8,"left_children":[1,3,5,-1,-1,7,9,11,-1,-1,-1,-1,-1],"loss_changes":[1.6083866E1,4.362132E0,1.0364391E1,0E0,0E0,1.0271898E1,5.189583E0,1.0331907E1,0E0,0E0,0E0,0E0,0E0],"parents":[2147483647,0,0,1,1,2,2,5,5,6,6,7,7],"right_children":[2,4,6,-1,-1,8,10,12,-1,-1,-1,-1,-1],"split_conditions":[2.7158575E-2,3.9296303E0,7.1620095E-1,-5.8311995E-2,4.5525036E-3,3.2289739E0,5.159745E-1,3.0961857E0,6.4759366E-2,-5.672082E-2,1.4380432E-2,3.5604563E-2,-5.5536784E-2],"split_indices":[1895,849,141,0,0,884,174,512,0,0,0,0,0],"split_type":[0,0,0,0,0,0,0,0,0,0,0,0,0],"sum_hessian":[3.98938E1,1.2504862E1,2.7388939E1,9.414704E0,3.0901575E0,2.0376907E1,7.012031E0,8.703821E0,1.1673086E1,3.6602163E0,3.3518147E0,5.2798448E0,3.4239762E0],"tree_param":{"num_deleted":"0","num_feature":"1926","num_nodes":"13","size_leaf_vector":"1"}},{"base_weights":[-0E0,7.496107E-1,-5.4238594E-1,1.0844325E0,-1.2950176E-2,-8.914675E-1,2.6226623E-2,4.5508565E-3,6.568421E-2,4.4836756E-3,-1.1287346E0,-6.691718E-3,-6.630918E-2],"categories":[],"categories_nodes":[],"categories_segments":[],"categories_sizes":[],"default_left":[0,0,0,0,0,0,0,0,0,0,0,0,0],"id":9,"left_children":[1,3,5,7,-1,9,-1,-1,-1,-1,11,-1,-1],"loss_changes":[1.852321E1,7.106223E0,1.0810228E1,2.996872E0,0E0,5.1286526E0,0E0,0E0,0E0,0E0,2.8209286E0,0E0,0E0],"parents":[2147483647,0,0,1,1,2,2,3,3,5,5,10,10],"right_children":[2,4,6,8,-1,10,-1,-1,-1,-1,12,-1,-1],"split_conditions":[6.4238064E-2,7.7794546E-1,1.16616935E-1,2.1278796E0,-1.2950176E-2,5.028764E-1,2.6226623E-2,4.5508565E-3,6.568421E-2,4.4836756E-3,2.9293466E-1,-6.691718E-3,-6.630918E-2],"split_indices":[1784,141,1737,955,0,57,0,0,0,0,498,0,0],"split_type":[0,0,0,0,0,0,0,0,0,0,0,0,0],"sum_hessian":[4.1550564E1,1.7134798E1,2.4415764E1,1.28258915E1,4.308907E0,1.8715063E1,5.7007008E0,3.0105443E0,9.815348E0,3.8046818E0,1.4910382E1,3.1086588E0,1.18017235E1],"tree_param":{"num_deleted":"0","num_feature":"1926","num_nodes":"13","size_leaf_vector":"1"}},{"base_weights":[-2.9948834E-2,-4.895078E-1,5.801812E-1,-9.4263875E-1,2.0726311E-1,6.1099824E-2,-2.4546555E-1,-1.1838392E0,2.4299638E-3,-3.0184424E-2,3.971308E-2,3.7432376E-2,-4.8914995E-2,-1.7049626E-2,-6.784084E-2],"categories":[],"categories_nodes":[],"categories_segments":[],"categories_sizes":[],"default_left":[0,0,0,0,0,0,0,0,0,0,0,0,0,0,0],"id":10,"left_children":[1,3,5,7,9,-1,11,13,-1,-1,-1,-1,-1,-1,-1],"loss_changes":[1.2986675E1,8.818207E0,1.1223611E1,4.1687756E0,6.680397E0,0E0,8.980595E0,8.6068153E-1,0E0,0E0,0E0,0E0,0E0,0E0,0E0],"parents":[2147483647,0,0,1,1,2,2,3,3,4,4,6,6,7,7],"right_children":[2,4,6,8,10,-1,12,14,-1,-1,-1,-1,-1,-1,-1],"split_conditions":[1.4726199E0,3.1091056E0,8.182874E-2,6.123912E0,5.5113816E-1,6.1099824E-2,5.760199E-1,3.8480347E-1,2.4299638E-3,-3.0184424E-2,3.971308E-2,3.7432376E-2,-4.8914995E-2,-1.7049626E-2,-6.784084E-2],"split_indices":[248,677,1668,645,240,0,95,415,0,0,0,0,0,0,0],"split_type":[0,0,0,0,0,0,0,0,0,0,0,0,0,0,0],"sum_hessian":[4.232292E1,2.4459194E1,1.786373E1,1.4480122E1,9.979072E0,9.578735E0,8.284994E0,1.1414804E1,3.0653172E0,4.094796E0,5.884276E0,3.439538E0,4.8454556E0,3.054116E0,8.360689E0],"tree_param":{"num_deleted":"0","num_feature":"1926","num_nodes":"15","size_leaf_vector":"1"}},{"base_weights":[-6.794676E-2,8.51373E-1,-4.1167822E-1,-1.683842E-3,6.004369E-2,-9.480437E-1,4.005794E-1,-1.1710825E0,1.8142852E-3,9.7159946E-1,-3.8735818E-2,-6.52604E-2,-1.7750321E-2,6.149577E-2,1.0525891E-2],"categories":[],"categories_nodes":[],"categories_segments":[],"categories_sizes":[],"default_left":[0,0,0,0,0,0,0,0,0,0,0,0,0,0,0],"id":11,"left_children":[1,3,5,-1,-1,7,9,11,-1,13,-1,-1,-1,-1,-1],"loss_changes":[1.3087476E1,3.686183E0,1.39099865E1,0E0,0E0,4.319813E0,1.0442021E1,5.980854E-1,0E0,1.281827E0,0E0,0E0,0E0,0E0,0E0],"parents":[2147483647,0,0,1,1,2,2,5,5,6,6,7,7,9,9],"right_children":[2,4,6,-1,-1,8,10,12,-1,14,-1,-1,-1,-1,-1],"split_conditions":[2.99682E0,1.457806E-1,9.3559396E-1,-1.683842E-3,6.004369E-2,3.826529E0,1.101296E0,1.6097777E-1,1.8142852E-3,3.4532003E0,-3.8735818E-2,-6.52604E-2,-1.7750321E-2,6.149577E-2,1.0525891E-2],"split_indices":[569,1880,372,0,0,815,197,1763,0,1016,0,0,0,0,0],"split_type":[0,0,0,0,0,0,0,0,0,0,0,0,0,0,0],"sum_hessian":[3.7337006E1,9.278025E0,2.8058983E1,3.0572453E0,6.22078E0,1.677233E1,1.12866535E1,1.3447422E1,3.3249066E0,7.8866315E0,3.4000223E0,1.0414482E1,3.0329397E0,4.8702316E0,3.0163999E0],"tree_param":{"num_deleted":"0","num_feature":"1926","num_nodes":"15","size_leaf_vector":"1"}},{"base_weights":[-1.8733256E-2,-8.484897E-1,3.7144142E-1,-5.7587363E-2,3.43084E-3,9.1947097E-1,-1.5796065E-1,3.282178E-3,5.9902485E-2,4.6795923E-1,-5.525292E-2,4.5931153E-2,-2.1029435E-2],"categories":[],"categories_nodes":[],"categories_segments":[],"categories_sizes":[],"default_left":[0,0,0,0,0,0,0,0,0,0,0,0,0],"id":12,"left_children":[1,3,5,-1,-1,7,9,-1,-1,11,-1,-1,-1],"loss_changes":[1.4050692E1,4.1327333E0,8.897469E0,0E0,0E0,3.2446594E0,1.0920771E1,0E0,0E0,5.3546963E0,0E0,0E0,0E0],"parents":[2147483647,0,0,1,1,2,2,5,5,6,6,9,9],"right_children":[2,4,6,-1,-1,8,10,-1,-1,12,-1,-1,-1],"split_conditions":[2.7158575E-2,3.871084E0,7.7372825E-1,-5.7587363E-2,3.43084E-3,3.4527487E-1,3.2794921E0,3.282178E-3,5.9902485E-2,3.9873643E0,-5.525292E-2,4.5931153E-2,-2.1029435E-2],"split_indices":[1895,889,95,0,0,1627,680,0,0,927,0,0,0],"split_type":[0,0,0,0,0,0,0,0,0,0,0,0,0],"sum_hessian":[3.930551E1,1.1901808E1,2.7403704E1,8.641638E0,3.2601695E0,1.2833705E1,1.4569999E1,3.8534245E0,8.980281E0,9.318071E0,5.251928E0,6.212164E0,3.1059074E0],"tree_param":{"num_deleted":"0","num_feature":"1926","num_nodes":"13","size_leaf_vector":"1"}},{"base_weights":[-4.1499473E-3,9.940862E-1,-3.588076E-1,1.1555453E-2,6.081167E-2,4.48216E-1,-7.077911E-1,5.241206E-2,-2.7327491E-2,-1.0719365E0,1.07981965E-1,-0E0,-6.851476E-2,3.8234696E-2,-2.8952727E-2],"categories":[],"categories_nodes":[],"categories_segments":[],"categories_sizes":[],"default_left":[0,0,0,0,0,0,0,0,0,0,0,0,0,0,0],"id":13,"left_children":[1,3,5,-1,-1,7,9,-1,-1,11,13,-1,-1,-1,-1],"loss_changes":[1.4995195E1,1.1708679E0,9.515484E0,0E0,0E0,7.5407243E0,7.104272E0,0E0,0E0,5.1527634E0,4.8620825E0,0E0,0E0,0E0,0E0],"parents":[2147483647,0,0,1,1,2,2,5,5,6,6,9,9,10,10],"right_children":[2,4,6,-1,-1,8,10,-1,-1,12,14,-1,-1,-1,-1],"split_conditions":[2.4868626E-2,2.970714E-1,3.8293353E-1,1.1555453E-2,6.081167E-2,3.4391484E0,8.156467E-2,5.241206E-2,-2.7327491E-2,4.62987E-4,7.456049E-1,-0E0,-6.851476E-2,3.8234696E-2,-2.8952727E-2],"split_indices":[1732,1821,439,0,0,700,1769,0,0,1294,97,0,0,0,0],"split_type":[0,0,0,0,0,0,0,0,0,0,0,0,0,0,0],"sum_hessian":[3.8519924E1,9.078709E0,2.9441216E1,3.0689754E0,6.009733E0,8.629734E0,2.0811481E1,5.3785195E0,3.2512152E0,1.40392065E1,6.772275E0,3.479976E0,1.0559231E1,3.4213886E0,3.3508866E0],"tree_param":{"num_deleted":"0","num_feature":"1926","num_nodes":"15","size_leaf_vector":"1"}},{"base_weights":[-4.628271E-2,-3.7202442E-1,8.886189E-1,-9.4693613E-1,3.0236223E-1,7.919227E-3,5.6913186E-2,-1.1445503E0,-1.7884225E-4,-4.1618404E-1,5.2969094E-2,-1.8767219E-2,-6.450728E-2,-4.898968E-2,1.8897733E-2],"categories":[],"categories_nodes":[],"categories_segments":[],"categories_sizes":[],"default_left":[0,0,0,0,0,0,0,0,0,0,0,0,0,0,0],"id":14,"left_children":[1,3,5,7,9,-1,-1,11,-1,13,-1,-1,-1,-1,-1],"loss_changes":[1.2427554E1,1.2372532E1,1.4308853E0,3.02814E0,9.303986E0,0E0,0E0,4.196167E-1,0E0,4.9414024E0,0E0,0E0,0E0,0E0,0E0],"parents":[2147483647,0,0,1,1,2,2,3,3,4,4,7,7,9,9],"right_children":[2,4,6,8,10,-1,-1,12,-1,14,-1,-1,-1,-1,-1],"split_conditions":[4.307907E-1,8.321018E-1,3.869714E-4,7.696203E-1,6.5328526E-1,7.919227E-3,5.6913186E-2,2.924881E0,-1.7884225E-4,3.207231E0,5.2969094E-2,-1.8767219E-2,-6.450728E-2,-4.898968E-2,1.8897733E-2],"split_indices":[1829,372,1329,425,1634,0,0,927,0,683,0,0,0,0,0],"split_type":[0,0,0,0,0,0,0,0,0,0,0,0,0,0,0],"sum_hessian":[3.6806644E1,2.8268381E1,8.538263E0,1.4903341E1,1.336504E1,3.1101704E0,5.428093E0,1.1881805E1,3.0215364E0,7.2509594E0,6.114081E0,3.1392772E0,8.742528E0,4.0412188E0,3.2097409E0],"tree_param":{"num_deleted":"0","num_feature":"1926","num_nodes":"15","size_leaf_vector":"1"}},{"base_weights":[5.7757672E-2,7.438591E-1,-3.296263E-1,5.423242E-2,-1.16154775E-2,-8.738187E-1,2.7533454E-1,3.135141E-3,-5.694139E-2,7.7779067E-1,-2.5491083E-2,5.031661E-3,5.6725323E-2],"categories":[],"categories_nodes":[],"categories_segments":[],"categories_sizes":[],"default_left":[0,0,0,0,0,0,0,0,0,0,0,0,0],"id":15,"left_children":[1,3,5,-1,-1,7,9,-1,-1,11,-1,-1,-1],"loss_changes":[1.1056389E1,5.5781612E0,9.298563E0,0E0,0E0,3.8665562E0,6.35521E0,0E0,0E0,1.9248705E0,0E0,0E0,0E0],"parents":[2147483647,0,0,1,1,2,2,5,5,6,6,9,9],"right_children":[2,4,6,-1,-1,8,10,-1,-1,12,-1,-1,-1],"split_conditions":[6.79587E-2,1.1863964E0,1.1147077E0,5.423242E-2,-1.16154775E-2,2.8560214E0,8.570539E-1,3.135141E-3,-5.694139E-2,2.9343543E0,-2.5491083E-2,5.031661E-3,5.6725323E-2],"split_indices":[1826,300,259,0,0,942,374,0,0,796,0,0,0],"split_type":[0,0,0,0,0,0,0,0,0,0,0,0,0],"sum_hessian":[3.759812E1,1.2996878E1,2.4601244E1,9.544865E0,3.452013E0,1.25701885E1,1.20310545E1,3.0259967E0,9.544191E0,7.425362E0,4.6056924E0,3.543415E0,3.881947E0],"tree_param":{"num_deleted":"0","num_feature":"1926","num_nodes":"13","size_leaf_vector":"1"}},{"base_weights":[2.8158093E-2,6.041487E-1,-4.4848636E-1,9.244026E-1,-1.9050157E-2,3.3779007E-1,-8.958208E-1,6.050219E-2,-0E0,4.8641857E-2,-2.5744144E-2,-6.0210925E-2,-0E0],"categories":[],"categories_nodes":[],"categories_segments":[],"categories_sizes":[],"default_left":[0,0,0,0,0,0,0,0,0,0,0,0,0],"id":16,"left_children":[1,3,5,7,-1,9,11,-1,-1,-1,-1,-1,-1],"loss_changes":[1.0760048E1,6.3665743E0,8.183619E0,3.6046076E0,0E0,5.9896884E0,3.9446335E0,0E0,0E0,0E0,0E0,0E0,0E0],"parents":[2147483647,0,0,1,1,2,2,3,3,5,5,6,6],"right_children":[2,4,6,8,-1,10,12,-1,-1,-1,-1,-1,-1],"split_conditions":[5.637107E-1,3.288776E-1,9.429014E-2,2.5186844E0,-1.9050157E-2,3.557962E0,8.4056005E-2,6.050219E-2,-0E0,4.8641857E-2,-2.5744144E-2,-6.0210925E-2,-0E0],"split_indices":[1629,1716,1710,555,0,700,1717,0,0,0,0,0,0],"split_type":[0,0,0,0,0,0,0,0,0,0,0,0,0],"sum_hessian":[3.5162075E1,1.57745075E1,1.9387568E1,1.2074241E1,3.7002661E0,7.126895E0,1.2260673E1,8.675635E0,3.398606E0,3.9903893E0,3.1365054E0,8.61189E0,3.6487825E0],"tree_param":{"num_deleted":"0","num_feature":"1926","num_nodes":"13","size_leaf_vector":"1"}},{"base_weights":[5.570362E-2,7.058976E-1,-4.8161724E-1,9.558517E-1,-1.498203E-2,-8.672551E-1,1.9871322E-2,2.0346867E-3,5.8551967E-2,-1.188401E-3,-5.510052E-2],"categories":[],"categories_nodes":[],"categories_segments":[],"categories_sizes":[],"default_left":[0,0,0,0,0,0,0,0,0,0,0],"id":17,"left_children":[1,3,5,7,-1,9,-1,-1,-1,-1,-1],"loss_changes":[1.3861803E1,5.147128E0,8.102037E0,2.7225666E0,0E0,2.9656725E0,0E0,0E0,0E0,0E0,0E0],"parents":[2147483647,0,0,1,1,2,2,3,3,5,5],"right_children":[2,4,6,8,-1,10,-1,-1,-1,-1,-1],"split_conditions":[1.5696587E-1,1.205575E0,4.0117044E0,9.1640687E-1,-1.498203E-2,5.1611906E-1,1.9871322E-2,2.0346867E-3,5.8551967E-2,-1.188401E-3,-5.510052E-2],"split_indices":[1725,194,897,466,0,67,0,0,0,0,0],"split_type":[0,0,0,0,0,0,0,0,0,0,0],"sum_hessian":[3.5666946E1,1.5938698E1,1.9728249E1,1.2924288E1,3.0144105E0,1.3810251E1,5.9179974E0,3.0016568E0,9.922631E0,3.579044E0,1.0231208E1],"tree_param":{"num_deleted":"0","num_feature":"1926","num_nodes":"11","size_leaf_vector":"1"}},{"base_weights":[8.319938E-2,-7.2667503E-1,4.5603597E-1,-5.4517586E-2,5.7089566E-3,-3.1288454E-1,7.975362E-1,-4.984015E-2,3.1811316E-2,-6.1545405E-3,1.0324243E0,6.2308725E-2,2.624552E-3],"categories":[],"categories_nodes":[],"categories_segments":[],"categories_sizes":[],"default_left":[0,0,0,0,0,0,0,0,0,0,0,0,0],"id":18,"left_children":[1,3,5,-1,-1,7,9,-1,-1,-1,11,-1,-1],"loss_changes":[1.2475385E1,4.336467E0,7.942832E0,0E0,0E0,7.8006277E0,4.7036095E0,0E0,0E0,0E0,3.1656628E0,0E0,0E0],"parents":[2147483647,0,0,1,1,2,2,5,5,6,6,10,10],"right_children":[2,4,6,-1,-1,8,10,-1,-1,-1,12,-1,-1],"split_conditions":[2.755295E-2,3.1106257E0,2.0859946E-1,-5.4517586E-2,5.7089566E-3,2.035672E-3,4.91581E-1,-4.984015E-2,3.1811316E-2,-6.1545405E-3,6.8763655E-1,6.2308725E-2,2.624552E-3],"split_indices":[1895,677,1694,0,0,1510,28,0,0,0,19,0,0],"split_type":[0,0,0,0,0,0,0,0,0,0,0,0,0],"sum_hessian":[3.7210587E1,1.1047323E1,2.6163261E1,7.3806276E0,3.6666958E0,8.007768E0,1.8155495E1,4.656913E0,3.3508546E0,3.7975314E0,1.4357963E1,1.1257058E1,3.1009045E0],"tree_param":{"num_deleted":"0","num_feature":"1926","num_nodes":"13","size_leaf_vector":"1"}},{"base_weights":[-5.8974368E-3,-4.7425485E-1,6.024764E-1,-8.7514913E-1,3.2824016E-1,9.232732E-1,-1.6049322E-2,-3.2303554E-3,-5.621013E-2,4.6187263E-2,-2.1951506E-2,-0E0,5.96877E-2],"categories":[],"categories_nodes":[],"categories_segments":[],"categories_sizes":[],"default_left":[0,0,0,0,0,0,0,0,0,0,0,0,0],"id":19,"left_children":[1,3,5,7,9,11,-1,-1,-1,-1,-1,-1,-1],"loss_changes":[1.14194565E1,7.9477906E0,5.7981257E0,2.9251375E0,4.9488554E0,3.2890368E0,0E0,0E0,0E0,0E0,0E0,0E0,0E0],"parents":[2147483647,0,0,1,1,2,2,3,3,4,4,5,5],"right_children":[2,4,6,8,10,12,-1,-1,-1,-1,-1,-1,-1],"split_conditions":[3.394956E-1,1.2252428E-1,4.807194E0,3.0063758E0,6.729165E-1,6.5283406E-1,-1.6049322E-2,-3.2303554E-3,-5.621013E-2,4.6187263E-2,-2.1951506E-2,-0E0,5.96877E-2],"split_indices":[1671,1719,987,671,403,364,0,0,0,0,0,0,0],"split_type":[0,0,0,0,0,0,0,0,0,0,0,0,0],"sum_hessian":[3.611666E1,2.0748604E1,1.5368057E1,1.3798812E1,6.949792E0,1.1486517E1,3.88154E0,3.9297671E0,9.869044E0,3.756612E0,3.1931796E0,3.1111553E0,8.375361E0],"tree_param":{"num_deleted":"0","num_feature":"1926","num_nodes":"13","size_leaf_vector":"1"}},{"base_weights":[-0E0,-2.9691133E-1,4.8014354E-2,-9.380115E-1,5.9593976E-2,-9.11381E-3,-5.8083177E-2,-3.9264835E-2,3.3764207E-1,7.132993E-1,-1.887073E-2,5.102873E-2,-5.057096E-3],"categories":[],"categories_nodes":[],"categories_segments":[],"categories_sizes":[],"default_left":[0,0,0,0,0,0,0,0,0,0,0,0,0],"id":20,"left_children":[1,3,-1,5,7,-1,-1,-1,9,11,-1,-1,-1],"loss_changes":[1.1580233E1,7.2504544E0,0E0,1.342617E0,5.561065E0,0E0,0E0,0E0,5.33817E0,3.4056025E0,0E0,0E0,0E0],"parents":[2147483647,0,0,1,1,3,3,4,4,8,8,9,9],"right_children":[2,4,-1,6,8,-1,-1,-1,10,12,-1,-1,-1],"split_conditions":[2.9297033E-1,6.571136E-1,4.8014354E-2,4.2808323E0,3.2427777E-2,-9.11381E-3,-5.8083177E-2,-3.9264835E-2,6.7545876E-2,4.9777964E-1,-1.887073E-2,5.102873E-2,-5.057096E-3],"split_indices":[1782,299,0,694,1911,0,0,0,1867,1557,0,0,0],"split_type":[0,0,0,0,0,0,0,0,0,0,0,0,0],"sum_hessian":[3.6458126E1,2.8849442E1,7.6086845E0,9.244101E0,1.9605341E1,3.0420215E0,6.2020793E0,3.8619475E0,1.5743394E1,1.0416053E1,5.327341E0,7.284368E0,3.1316848E0],"tree_param":{"num_deleted":"0","num_feature":"1926","num_nodes":"13","size_leaf_vector":"1"}},{"base_weights":[-4.2217165E-2,-3.523021E-1,7.34955E-1,3.4919298E-1,-7.6554835E-1,5.0053176E-2,4.3025287E-4,-2.3347287E-2,4.5422275E-2,4.134815E-3,-1.0389175E0,-1.3592671E-2,-5.981439E-2],"categories":[],"categories_nodes":[],"categories_segments":[],"categories_sizes":[],"default_left":[0,0,0,0,0,0,0,0,0,0,0,0,0],"id":21,"left_children":[1,3,5,7,9,-1,-1,-1,-1,-1,11,-1,-1],"loss_changes":[9.122747E0,8.426646E0,1.9663835E0,6.0605793E0,4.385169E0,0E0,0E0,0E0,0E0,0E0,8.5244846E-1,0E0,0E0],"parents":[2147483647,0,0,1,1,2,2,3,3,4,4,10,10],"right_children":[2,4,6,8,10,-1,-1,-1,-1,-1,12,-1,-1],"split_conditions":[1.2123506E0,6.9122866E-2,7.2722733E-1,1.880089E0,2.5078282E0,5.0053176E-2,4.3025287E-4,-2.3347287E-2,4.5422275E-2,4.134815E-3,6.116776E-1,-1.3592671E-2,-5.981439E-2],"split_indices":[298,1826,509,754,756,0,0,0,0,0,340,0,0],"split_type":[0,0,0,0,0,0,0,0,0,0,0,0,0],"sum_hessian":[3.386531E1,2.508047E1,8.7848425E0,9.322804E0,1.5757664E1,5.774996E0,3.0098472E0,3.852297E0,5.4705076E0,4.0914316E0,1.1666232E1,3.0227826E0,8.64345E0],"tree_param":{"num_deleted":"0","num_feature":"1926","num_nodes":"13","size_leaf_vector":"1"}},{"base_weights":[2.7756838E-2,-7.019099E-1,3.2478476E-1,-5.3711344E-2,1.5543E-3,6.096682E-1,-2.791763E-2,-1.526823E-1,9.314198E-1,2.5387472E-2,-3.87322E-2,-0E0,5.738256E-2],"categories":[],"categories_nodes":[],"categories_segments":[],"categories_sizes":[],"default_left":[0,0,0,0,0,0,0,0,0,0,0,0,0],"id":22,"left_children":[1,3,5,-1,-1,7,-1,9,11,-1,-1,-1,-1],"loss_changes":[8.786628E0,3.3657165E0,7.958441E0,0E0,0E0,5.9787436E0,0E0,4.272715E0,3.3114014E0,0E0,0E0,0E0,0E0],"parents":[2147483647,0,0,1,1,2,2,5,5,7,7,8,8],"right_children":[2,4,6,-1,-1,8,-1,10,12,-1,-1,-1,-1],"split_conditions":[2.5402347E-2,3.3711424E0,3.5125751E0,-5.3711344E-2,1.5543E-3,8.78919E-1,-2.791763E-2,3.0729144E0,1.9995751E0,2.5387472E-2,-3.87322E-2,-0E0,5.738256E-2],"split_indices":[1895,588,653,0,0,189,0,898,561,0,0,0,0],"split_type":[0,0,0,0,0,0,0,0,0,0,0,0,0],"sum_hessian":[3.661186E1,9.705885E0,2.6905973E1,5.909559E0,3.7963257E0,2.0897408E1,6.0085645E0,6.4218235E0,1.4475585E1,3.2147331E0,3.2070904E0,3.1093767E0,1.1366208E1],"tree_param":{"num_deleted":"0","num_feature":"1926","num_nodes":"13","size_leaf_vector":"1"}},{"base_weights":[4.737028E-3,-7.2548467E-1,3.4478298E-1,-4.837248E-2,-3.23506E-3,7.726388E-1,-1.9213523E-1,5.493067E-2,8.0216816E-4,-8.390308E-1,3.940072E-2,-5.319577E-2,-1.0676038E-2],"categories":[],"categories_nodes":[],"categories_segments":[],"categories_sizes":[],"default_left":[0,0,0,0,0,0,0,0,0,0,0,0,0],"id":23,"left_children":[1,3,5,-1,-1,7,9,-1,-1,11,-1,-1,-1],"loss_changes":[9.742902E0,1.7583208E0,6.545949E0,0E0,0E0,3.6760845E0,9.85526E0,0E0,0E0,7.0254326E-1,0E0,0E0,0E0],"parents":[2147483647,0,0,1,1,2,2,5,5,6,6,9,9],"right_children":[2,4,6,-1,-1,8,10,-1,-1,12,-1,-1,-1],"split_conditions":[2.6640743E-2,1.2175905E-1,3.4160457E0,-4.837248E-2,-3.23506E-3,3.2146525E0,3.4882028E0,5.493067E-2,8.0216816E-4,5.8324397E-1,3.940072E-2,-5.319577E-2,-1.0676038E-2],"split_indices":[1895,1683,680,0,0,708,735,0,0,364,0,0,0],"split_type":[0,0,0,0,0,0,0,0,0,0,0,0,0],"sum_hessian":[3.5375626E1,1.042586E1,2.4949764E1,6.8412237E0,3.5846364E0,1.3500096E1,1.1449669E1,8.710823E0,4.7892733E0,7.132332E0,4.3173375E0,4.09755E0,3.0347817E0],"tree_param":{"num_deleted":"0","num_feature":"1926","num_nodes":"13","size_leaf_vector":"1"}},{"base_weights":[-3.2357685E-2,-3.4569573E-1,7.4178904E-1,3.5703924E-2,-5.7799494E-1,5.2109927E-2,-1.7129062E-3,-8.358835E-1,2.9468754E-2,-1.1167816E0,-0E0,-1.811067E-2,-6.1941713E-2],"categories":[],"categories_nodes":[],"categories_segments":[],"categories_sizes":[],"default_left":[0,0,0,0,0,0,0,0,0,0,0,0,0],"id":24,"left_children":[1,3,5,-1,7,-1,-1,9,-1,11,-1,-1,-1],"loss_changes":[9.573561E0,7.745121E0,2.8190446E0,0E0,8.320145E0,0E0,0E0,4.894499E0,0E0,3.763008E-1,0E0,0E0,0E0],"parents":[2147483647,0,0,1,1,2,2,4,4,7,7,9,9],"right_children":[2,4,6,-1,8,-1,-1,10,-1,12,-1,-1,-1],"split_conditions":[4.2849556E-1,3.25185E0,8.580448E-2,3.5703924E-2,5.1473684E0,5.2109927E-2,-1.7129062E-3,1.0102304E0,2.9468754E-2,2.2133605E-1,-0E0,-1.811067E-2,-6.1941713E-2],"split_indices":[1829,965,1897,0,771,0,0,507,0,1809,0,0,0],"split_type":[0,0,0,0,0,0,0,0,0,0,0,0,0],"sum_hessian":[3.5516254E1,2.6162846E1,9.353412E0,3.8806226E0,2.2282223E1,6.3415327E0,3.011879E0,1.8785763E1,3.4964583E0,1.35688925E1,5.2168713E0,3.1081297E0,1.0460763E1],"tree_param":{"num_deleted":"0","num_feature":"1926","num_nodes":"13","size_leaf_vector":"1"}},{"base_weights":[-8.414072E-2,-4.1193825E-1,5.9136367E-1,-7.464965E-1,2.894812E-1,-5.9935106E-3,4.8448555E-2,2.4212291E-3,-9.3550605E-1,4.5834225E-2,-2.3198903E-2,-5.4921485E-2,-8.3473E-3],"categories":[],"categories_nodes":[],"categories_segments":[],"categories_sizes":[],"default_left":[0,0,0,0,0,0,0,0,0,0,0,0,0],"id":25,"left_children":[1,3,5,7,9,-1,-1,-1,11,-1,-1,-1,-1],"loss_changes":[8.54021E0,6.5367737E0,3.7092676E0,2.9042835E0,5.471669E0,0E0,0E0,0E0,1.3665037E0,0E0,0E0,0E0,0E0],"parents":[2147483647,0,0,1,1,2,2,3,3,4,4,8,8],"right_children":[2,4,6,8,10,-1,-1,-1,12,-1,-1,-1,-1],"split_conditions":[1.62697E0,4.2847246E-1,5.105138E0,2.0944204E0,4.4752483E0,-5.9935106E-3,4.8448555E-2,2.4212291E-3,3.3025684E0,4.5834225E-2,-2.3198903E-2,-5.4921485E-2,-8.3473E-3],"split_indices":[248,224,966,758,929,0,0,0,996,0,0,0,0],"split_type":[0,0,0,0,0,0,0,0,0,0,0,0,0],"sum_hessian":[3.4449394E1,2.38192E1,1.0630195E1,1.6136541E1,7.68266E0,4.0680995E0,6.562095E0,3.2839E0,1.2852641E1,4.0285883E0,3.6540718E0,9.788993E0,3.063648E0],"tree_param":{"num_deleted":"0","num_feature":"1926","num_nodes":"13","size_leaf_vector":"1"}},{"base_weights":[-5.1712915E-2,6.3866174E-1,-3.8660315E-1,-1.3131406E-3,4.694677E-2,9.615603E-3,-8.538594E-1,-5.222507E-1,3.359553E-2,-5.2436598E-2,-8.544049E-3,7.4511557E-3,-4.4632502E-2],"categories":[],"categories_nodes":[],"categories_segments":[],"categories_sizes":[],"default_left":[0,0,0,0,0,0,0,0,0,0,0,0,0],"id":26,"left_children":[1,3,5,-1,-1,7,9,11,-1,-1,-1,-1,-1],"loss_changes":[8.521314E0,2.5431728E0,4.6915865E0,0E0,0E0,6.099276E0,1.0523834E0,2.706508E0,0E0,0E0,0E0,0E0,0E0],"parents":[2147483647,0,0,1,1,2,2,5,5,6,6,7,7],"right_children":[2,4,6,-1,-1,8,10,12,-1,-1,-1,-1,-1],"split_conditions":[6.1818846E-2,7.1150255E-1,5.924435E-1,-1.3131406E-3,4.694677E-2,9.229234E-1,3.1519845E0,4.804278E-1,3.359553E-2,-5.2436598E-2,-8.544049E-3,7.4511557E-3,-4.4632502E-2],"split_indices":[1917,143,439,0,0,452,660,57,0,0,0,0,0],"split_type":[0,0,0,0,0,0,0,0,0,0,0,0,0],"sum_hessian":[3.2830067E1,1.0033432E1,2.2796635E1,3.5855818E0,6.44785E0,1.3280235E1,9.516398E0,7.516172E0,5.764064E0,6.4566636E0,3.0597348E0,3.0016491E0,4.5145226E0],"tree_param":{"num_deleted":"0","num_feature":"1926","num_nodes":"13","size_leaf_vector":"1"}},{"base_weights":[3.533157E-2,-2.5366992E-1,6.5754735E-1,-6.566747E-1,2.5107297E-1,-6.5323957E-3,5.0590623E-2,-4.8266128E-2,8.408727E-3,7.7426326E-1,-2.4974791E-2,4.903619E-2,1.1327247E-2],"categories":[],"categories_nodes":[],"categories_segments":[],"categories_sizes":[],"default_left":[0,0,0,0,0,0,0,0,0,0,0,0,0],"id":27,"left_children":[1,3,5,7,9,-1,-1,-1,-1,11,-1,-1,-1],"loss_changes":[6.934301E0,5.7089305E0,3.7695127E0,4.288561E0,5.9014115E0,0E0,0E0,0E0,0E0,3.9796114E-1,0E0,0E0,0E0],"parents":[2147483647,0,0,1,1,2,2,3,3,4,4,9,9],"right_children":[2,4,6,8,10,-1,-1,-1,-1,12,-1,-1,-1],"split_conditions":[1.8236369E-1,8.321018E-1,1.5696979E-1,3.8041058E0,3.688978E0,-6.5323957E-3,5.0590623E-2,-4.8266128E-2,8.408727E-3,7.06685E-1,-2.4974791E-2,4.903619E-2,1.1327247E-2],"split_indices":[1431,372,1880,815,570,0,0,0,0,330,0,0,0],"split_type":[0,0,0,0,0,0,0,0,0,0,0,0,0],"sum_hessian":[3.4482407E1,2.424514E1,1.02372675E1,1.3256656E1,1.0988484E1,3.478406E0,6.7588615E0,9.487272E0,3.769383E0,6.5163226E0,4.4721622E0,3.4515662E0,3.0647562E0],"tree_param":{"num_deleted":"0","num_feature":"1926","num_nodes":"13","size_leaf_vector":"1"}},{"base_weights":[3.6858343E-2,-5.9385884E-1,3.355945E-1,9.418089E-5,-4.7456358E-2,-3.9975086E-1,7.063713E-1,7.92618E-3,-4.5376282E-2,9.736941E-1,9.272789E-4,5.8657117E-2,1.0374218E-2],"categories":[],"categories_nodes":[],"categories_segments":[],"categories_sizes":[],"default_left":[0,0,0,0,0,0,0,0,0,0,0,0,0],"id":28,"left_children":[1,3,5,-1,-1,7,9,-1,-1,11,-1,-1,-1],"loss_changes":[7.1701374E0,2.682476E0,7.647818E0,0E0,0E0,3.1569467E0,3.1759977E0,0E0,0E0,1.3350544E0,0E0,0E0,0E0],"parents":[2147483647,0,0,1,1,2,2,5,5,6,6,9,9],"right_children":[2,4,6,-1,-1,8,10,-1,-1,12,-1,-1,-1],"split_conditions":[2.6640743E-2,5.23642E-1,2.113974E-1,9.418089E-5,-4.7456358E-2,4.1749125E0,3.4755654E0,7.92618E-3,-4.5376282E-2,5.5844216E-3,9.272789E-4,5.8657117E-2,1.0374218E-2],"split_indices":[1895,260,1694,0,0,658,536,0,0,1193,0,0,0],"split_type":[0,0,0,0,0,0,0,0,0,0,0,0,0],"sum_hessian":[3.407602E1,1.0209758E1,2.386626E1,4.4520764E0,5.7576814E0,7.8572764E0,1.6008984E1,4.303956E0,3.5533202E0,1.082518E1,5.183804E0,7.6429677E0,3.1822126E0],"tree_param":{"num_deleted":"0","num_feature":"1926","num_nodes":"13","size_leaf_vector":"1"}},{"base_weights":[7.407868E-2,4.4264016E-1,-4.6871626E-1,5.3370755E-2,-9.388627E-2,-8.05497E-1,1.2336974E-2,4.9980944E-1,-3.8610257E-2,-5.2224517E-2,-4.3900283E-3,4.6586186E-2,-6.188043E-3],"categories":[],"categories_nodes":[],"categories_segments":[],"categories_sizes":[],"default_left":[0,0,0,0,0,0,0,0,0,0,0,0,0],"id":29,"left_children":[1,3,5,-1,7,9,-1,11,-1,-1,-1,-1,-1],"loss_changes":[7.724832E0,7.9769993E0,4.2228065E0,0E0,6.4681787E0,1.6245933E0,0E0,2.6390371E0,0E0,0E0,0E0,0E0,0E0],"parents":[2147483647,0,0,1,1,2,2,4,4,5,5,7,7],"right_children":[2,4,6,-1,8,10,-1,12,-1,-1,-1,-1,-1],"split_conditions":[3.288776E-1,6.8339646E-1,4.0138757E-1,5.3370755E-2,7.278703E-1,3.3626685E-1,1.2336974E-2,3.3113115E0,-3.8610257E-2,-5.2224517E-2,-4.3900283E-3,4.6586186E-2,-6.188043E-3],"split_indices":[1716,95,224,0,168,1671,0,627,0,0,0,0,0],"split_type":[0,0,0,0,0,0,0,0,0,0,0,0,0],"sum_hessian":[3.455273E1,2.0908787E1,1.3643943E1,8.831763E0,1.20770235E1,9.200931E0,4.443012E0,6.642291E0,5.434732E0,6.1147175E0,3.0862138E0,3.4350371E0,3.2072542E0],"tree_param":{"num_deleted":"0","num_feature":"1926","num_nodes":"13","size_leaf_vector":"1"}},{"base_weights":[7.3065296E-2,-6.19137E-1,4.34906E-1,-4.515152E-2,7.2765597E-3,6.746572E-1,-1.1996843E-2,-1.0593395E-2,8.981001E-1,3.9679217E-3,5.54025E-2],"categories":[],"categories_nodes":[],"categories_segments":[],"categories_sizes":[],"default_left":[0,0,0,0,0,0,0,0,0,0,0],"id":30,"left_children":[1,3,5,-1,-1,7,-1,-1,9,-1,-1],"loss_changes":[9.11629E0,3.0547924E0,4.21929E0,0E0,0E0,4.054635E0,0E0,0E0,2.2853823E0,0E0,0E0],"parents":[2147483647,0,0,1,1,2,2,5,5,8,8],"right_children":[2,4,6,-1,-1,8,-1,-1,10,-1,-1],"split_conditions":[2.755295E-2,4.0117044E0,4.0297894E0,-4.515152E-2,7.2765597E-3,8.7806255E-2,-1.1996843E-2,-1.0593395E-2,2.2795858E-4,3.9679217E-3,5.54025E-2],"split_indices":[1895,897,709,0,0,1759,0,0,1494,0,0],"split_type":[0,0,0,0,0,0,0,0,0,0,0],"sum_hessian":[3.2320614E1,1.0512211E1,2.1808405E1,7.497536E0,3.0146747E0,1.6201305E1,5.6070995E0,3.1921782E0,1.3009127E1,3.314776E0,9.694351E0],"tree_param":{"num_deleted":"0","num_feature":"1926","num_nodes":"11","size_leaf_vector":"1"}},{"base_weights":[-3.4969278E-2,-3.532925E-1,5.504711E-1,-5.338234E-1,2.4082692E-2,4.802613E-2,-1.0493137E-2,1.5201638E-2,-7.591928E-1,-0E0,-9.227771E-1,-5.5162143E-2,-1.3409466E-2],"categories":[],"categories_nodes":[],"categories_segments":[],"categories_sizes":[],"default_left":[0,0,0,0,0,0,0,0,0,0,0,0,0],"id":31,"left_children":[1,3,5,7,-1,-1,-1,-1,9,-1,11,-1,-1],"loss_changes":[7.0449066E0,4.2174444E0,4.621167E0,4.513856E0,0E0,0E0,0E0,0E0,2.2049294E0,0E0,9.672642E-1,0E0,0E0],"parents":[2147483647,0,0,1,1,2,2,3,3,8,8,10,10],"right_children":[2,4,6,8,-1,-1,-1,-1,10,-1,12,-1,-1],"split_conditions":[9.0339665E-5,1.1140614E0,1.4545865E0,2.819661E-1,2.4082692E-2,4.802613E-2,-1.0493137E-2,1.5201638E-2,1.6651288E-1,-0E0,3.934674E-3,-5.5162143E-2,-1.3409466E-2],"split_indices":[1055,123,417,1636,0,0,0,0,247,0,1290,0,0],"split_type":[0,0,0,0,0,0,0,0,0,0,0,0,0],"sum_hessian":[3.38215E1,2.253329E1,1.1288209E1,1.921888E1,3.3144107E0,7.0766697E0,4.2115397E0,3.8317573E0,1.5387123E1,3.0287464E0,1.23583765E1,8.493267E0,3.86511E0],"tree_param":{"num_deleted":"0","num_feature":"1926","num_nodes":"13","size_leaf_vector":"1"}},{"base_weights":[4.7998887E-2,5.9799796E-1,-3.520536E-1,8.648711E-1,-1.17747625E-2,-7.236926E-1,1.4995557E-1,5.1295787E-2,1.0773658E-2,-9.7192527E-4,-4.76046E-2,3.719786E-2,-1.9346444E-2],"categories":[],"categories_nodes":[],"categories_segments":[],"categories_sizes":[],"default_left":[0,0,0,0,0,0,0,0,0,0,0,0,0],"id":32,"left_children":[1,3,5,7,-1,9,11,-1,-1,-1,-1,-1,-1],"loss_changes":[7.8714027E0,3.8196516E0,4.1347413E0,6.808424E-1,0E0,1.851912E0,3.91027E0,0E0,0E0,0E0,0E0,0E0,0E0],"parents":[2147483647,0,0,1,1,2,2,3,3,5,5,6,6],"right_children":[2,4,6,8,-1,10,12,-1,-1,-1,-1,-1,-1],"split_conditions":[1.8874302E0,8.681442E-2,7.8897357E-1,1.1121703E-1,-1.17747625E-2,3.9478368E-1,4.458361E-1,5.1295787E-2,1.0773658E-2,-9.7192527E-4,-4.76046E-2,3.719786E-2,-1.9346444E-2],"split_indices":[759,1917,143,1751,0,306,93,0,0,0,0,0,0],"split_type":[0,0,0,0,0,0,0,0,0,0,0,0,0],"sum_hessian":[3.174905E1,1.3057603E1,1.8691448E1,9.924574E0,3.1330285E0,1.0347314E1,8.344133E0,6.8998866E0,3.0246875E0,3.172664E0,7.17465E0,3.6835628E0,4.6605706E0],"tree_param":{"num_deleted":"0","num_feature":"1926","num_nodes":"13","size_leaf_vector":"1"}},{"base_weights":[9.483139E-2,-2.341954E-1,7.0026207E-1,-4.608382E-2,1.0764769E-1,4.6048343E-2,-0E0,-3.0229762E-2,4.7540054E-1,4.3425117E-2,-1.1941301E-2],"categories":[],"categories_nodes":[],"categories_segments":[],"categories_sizes":[],"default_left":[0,0,0,0,0,0,0,0,0,0,0],"id":33,"left_children":[1,3,5,-1,7,-1,-1,-1,9,-1,-1],"loss_changes":[7.135147E0,5.7743845E0,1.8868728E0,0E0,5.0956883E0,0E0,0E0,0E0,4.0231066E0,0E0,0E0],"parents":[2147483647,0,0,1,1,2,2,4,4,8,8],"right_children":[2,4,6,-1,8,-1,-1,-1,10,-1,-1],"split_conditions":[1.62697E0,3.841923E-2,2.7621394E-1,-4.608382E-2,6.171067E-2,4.6048343E-2,-0E0,-3.0229762E-2,2.8597784E0,4.3425117E-2,-1.1941301E-2],"split_indices":[248,1761,1544,0,1908,0,0,0,519,0,0],"split_type":[0,0,0,0,0,0,0,0,0,0,0],"sum_hessian":[3.193798E1,2.1380003E1,1.0557978E1,6.070916E0,1.5309088E1,7.4848857E0,3.073092E0,4.681755E0,1.0627333E1,6.66629E0,3.9610426E0],"tree_param":{"num_deleted":"0","num_feature":"1926","num_nodes":"11","size_leaf_vector":"1"}},{"base_weights":[-4.2409774E-2,-5.527912E-1,2.5263506E-1,-4.3951802E-2,1.3395858E-2,-2.508974E-2,4.9724331E-1,7.503612E-1,-1.5516596E-2,4.910679E-2,-1.1113732E-3],"categories":[],"categories_nodes":[],"categories_segments":[],"categories_sizes":[],"default_left":[0,0,0,0,0,0,0,0,0,0,0],"id":34,"left_children":[1,3,5,-1,-1,-1,7,9,-1,-1,-1],"loss_changes":[5.534746E0,4.136901E0,4.7868376E0,0E0,0E0,0E0,4.3225527E0,2.804328E0,0E0,0E0,0E0],"parents":[2147483647,0,0,1,1,2,2,6,6,7,7],"right_children":[2,4,6,-1,-1,-1,8,10,-1,-1,-1],"split_conditions":[4.0287602E-1,1.08440645E-1,8.740803E-1,-4.3951802E-2,1.3395858E-2,-2.508974E-2,3.0571322E0,8.495971E-1,-1.5516596E-2,4.910679E-2,-1.1113732E-3],"split_indices":[103,1896,465,0,0,0,791,344,0,0,0],"split_type":[0,0,0,0,0,0,0,0,0,0,0],"sum_hessian":[3.2700718E1,1.1463104E1,2.1237614E1,8.1879635E0,3.2751415E0,4.5849323E0,1.6652681E1,1.2880937E1,3.7717452E0,9.590724E0,3.2902124E0],"tree_param":{"num_deleted":"0","num_feature":"1926","num_nodes":"11","size_leaf_vector":"1"}},{"base_weights":[2.814158E-3,2.8859684E-1,-5.6417984E-1,-3.167853E-1,6.161717E-1,-4.5217853E-2,5.7070414E-3,1.4311875E-2,-3.5339333E-2,8.6884785E-1,-5.355202E-3,5.2508898E-2,9.586907E-3],"categories":[],"categories_nodes":[],"categories_segments":[],"categories_sizes":[],"default_left":[0,0,0,0,0,0,0,0,0,0,0,0,0],"id":35,"left_children":[1,3,5,7,9,-1,-1,-1,-1,11,-1,-1,-1],"loss_changes":[5.6592913E0,5.0684376E0,2.9731145E0,2.6675773E0,3.1855216E0,0E0,0E0,0E0,0E0,9.6807766E-1,0E0,0E0,0E0],"parents":[2147483647,0,0,1,1,2,2,3,3,4,4,9,9],"right_children":[2,4,6,8,10,-1,-1,-1,-1,12,-1,-1,-1],"split_conditions":[4.0948944E0,1.0984035E0,1.0773646E-1,9.3811E-2,1.0328076E0,-4.5217853E-2,5.7070414E-3,1.4311875E-2,-3.5339333E-2,2.4079475E0,-5.355202E-3,5.2508898E-2,9.586907E-3],"split_indices":[607,466,1556,1903,504,0,0,0,0,864,0,0,0],"split_type":[0,0,0,0,0,0,0,0,0,0,0,0,0],"sum_hessian":[3.1086315E1,2.1438847E1,9.647469E0,7.443437E0,1.399541E1,6.079546E0,3.5679224E0,3.0316262E0,4.411811E0,1.0176113E1,3.819297E0,7.0409226E0,3.13519E0],"tree_param":{"num_deleted":"0","num_feature":"1926","num_nodes":"13","size_leaf_vector":"1"}},{"base_weights":[-0E0,3.2943714E-1,-5.388079E-1,-3.6604232E-1,6.91955E-1,1.6717616E-3,-4.78081E-2,-4.258368E-2,1.4721966E-2,9.8720145E-1,-5.558768E-3,1.6586863E-2,5.684749E-2],"categories":[],"categories_nodes":[],"categories_segments":[],"categories_sizes":[],"default_left":[0,0,0,0,0,0,0,0,0,0,0,0,0],"id":36,"left_children":[1,3,5,7,9,-1,-1,-1,-1,11,-1,-1,-1],"loss_changes":[6.260084E0,6.0113E0,3.3683102E0,3.3318658E0,3.8766885E0,0E0,0E0,0E0,0E0,2.0801926E-1,0E0,0E0,0E0],"parents":[2147483647,0,0,1,1,2,2,3,3,4,4,9,9],"right_children":[2,4,6,8,10,-1,-1,-1,-1,12,-1,-1,-1],"split_conditions":[3.942205E0,2.4274297E-1,3.1343913E0,3.667474E0,1.8801719E-3,1.6717616E-3,-4.78081E-2,-4.258368E-2,1.4721966E-2,4.2878348E-1,-5.558768E-3,1.6586863E-2,5.684749E-2],"split_indices":[607,296,1000,810,1441,0,0,0,0,121,0,0,0],"split_type":[0,0,0,0,0,0,0,0,0,0,0,0,0],"sum_hessian":[3.1153603E1,1.9704182E1,1.1449421E1,6.650366E0,1.3053816E1,5.5035524E0,5.9458685E0,3.5860865E0,3.064279E0,9.300792E0,3.7530243E0,3.0498145E0,6.250977E0],"tree_param":{"num_deleted":"0","num_feature":"1926","num_nodes":"13","size_leaf_vector":"1"}},{"base_weights":[-2.8174879E-2,-3.2557222E-1,5.628832E-1,-8.377131E-1,9.92717E-2,-5.150263E-3,4.349814E-2,-5.1445354E-2,-9.958753E-3,-3.3855948E-1,3.2487914E-2,7.959978E-3,-3.9282765E-2],"categories":[],"categories_nodes":[],"categories_segments":[],"categories_sizes":[],"default_left":[0,0,0,0,0,0,0,0,0,0,0,0,0],"id":37,"left_children":[1,3,5,7,9,-1,-1,-1,-1,11,-1,-1,-1],"loss_changes":[6.0036693E0,5.2019014E0,2.5870647E0,7.6855373E-1,3.8805032E0,0E0,0E0,0E0,0E0,2.3363647E0,0E0,0E0,0E0],"parents":[2147483647,0,0,1,1,2,2,3,3,4,4,9,9],"right_children":[2,4,6,8,10,-1,-1,-1,-1,12,-1,-1,-1],"split_conditions":[5.019043E0,8.464676E-1,2.4670489E-1,2.3843652E-1,6.455115E-2,-5.150263E-3,4.349814E-2,-5.1445354E-2,-9.958753E-3,3.765902E0,3.2487914E-2,7.959978E-3,-3.9282765E-2],"split_indices":[760,308,1782,501,1909,0,0,0,0,974,0,0,0],"split_type":[0,0,0,0,0,0,0,0,0,0,0,0,0],"sum_hessian":[3.0204521E1,2.0804192E1,9.400329E0,8.658407E0,1.2145784E1,3.2835586E0,6.11677E0,5.6017904E0,3.056617E0,7.0928054E0,5.052979E0,3.859806E0,3.2329996E0],"tree_param":{"num_deleted":"0","num_feature":"1926","num_nodes":"13","size_leaf_vector":"1"}},{"base_weights":[-2.3697248E-2,-2.8310952E-1,5.380366E-1,-0E0,-4.4549197E-2,4.273326E-2,-2.1243615E-4,-3.2243367E-2,3.5374916E-1,-1.4577001E-2,3.7796903E-2],"categories":[],"categories_nodes":[],"categories_segments":[],"categories_sizes":[],"default_left":[0,0,0,0,0,0,0,0,0,0,0],"id":38,"left_children":[1,3,5,7,-1,-1,-1,-1,9,-1,-1],"loss_changes":[5.1111364E0,4.098057E0,1.9884648E0,4.697838E0,0E0,0E0,0E0,0E0,3.910812E0,0E0,0E0],"parents":[2147483647,0,0,1,1,2,2,3,3,8,8],"right_children":[2,4,6,8,-1,-1,-1,-1,10,-1,-1],"split_conditions":[3.4979696E0,3.688978E0,3.127449E-1,2.6944548E-2,-4.4549197E-2,4.273326E-2,-2.1243615E-4,-3.2243367E-2,7.308122E-2,-1.4577001E-2,3.7796903E-2],"split_indices":[839,570,177,1895,0,0,0,0,1543,0,0],"split_type":[0,0,0,0,0,0,0,0,0,0,0],"sum_hessian":[3.1159218E1,2.2115961E1,9.043257E0,1.6518862E1,5.5970993E0,5.098608E0,3.9446485E0,5.3272324E0,1.1191629E1,4.41293E0,6.7787E0],"tree_param":{"num_deleted":"0","num_feature":"1926","num_nodes":"11","size_leaf_vector":"1"}},{"base_weights":[-1.1674495E-1,5.930004E-1,-3.587587E-1,6.1624646E-3,4.017734E-2,-8.540677E-1,1.2323132E-1,-1.0118565E-2,-5.154447E-2,4.7954884E-1,-3.0989453E-2,3.6821462E-2,-2.8633084E-3],"categories":[],"categories_nodes":[],"categories_segments":[],"categories_sizes":[],"default_left":[0,0,0,0,0,0,0,0,0,0,0,0,0],"id":39,"left_children":[1,3,5,-1,-1,7,9,-1,-1,11,-1,-1,-1],"loss_changes":[5.4879484E0,5.180683E-1,5.8774023E0,0E0,0E0,8.319187E-1,4.1600494E0,0E0,0E0,1.5804543E0,0E0,0E0,0E0],"parents":[2147483647,0,0,1,1,2,2,5,5,6,6,9,9],"right_children":[2,4,6,-1,-1,8,10,-1,-1,12,-1,-1,-1],"split_conditions":[2.4868626E-2,3.8502514E-2,8.237599E-1,6.1624646E-3,4.017734E-2,2.272477E0,9.4279873E-1,-1.0118565E-2,-5.154447E-2,6.8022245E-1,-3.0989453E-2,3.6821462E-2,-2.8633084E-3],"split_indices":[1732,1776,372,0,0,898,48,0,0,333,0,0,0],"split_type":[0,0,0,0,0,0,0,0,0,0,0,0,0],"sum_hessian":[2.7609007E1,6.1778092E0,2.1431198E1,3.0402975E0,3.1375115E0,9.910446E0,1.1520753E1,3.1511302E0,6.7593155E0,8.356936E0,3.1638165E0,5.2751985E0,3.081738E0],"tree_param":{"num_deleted":"0","num_feature":"1926","num_nodes":"13","size_leaf_vector":"1"}},{"base_weights":[-1.4785792E-2,-2.9566866E-1,6.8660724E-1,1.07371815E-1,-7.0071435E-1,5.1551084E-3,4.563791E-2,4.984204E-1,-2.0335658E-2,-4.9373835E-2,3.7800993E-3,-4.710138E-3,4.4227622E-2],"categories":[],"categories_nodes":[],"categories_segments":[],"categories_sizes":[],"default_left":[0,0,0,0,0,0,0,0,0,0,0,0,0],"id":40,"left_children":[1,3,5,7,9,-1,-1,11,-1,-1,-1,-1,-1],"loss_changes":[6.629897E0,4.1603866E0,9.757848E-1,3.1768465E0,3.0141578E0,0E0,0E0,2.2624204E0,0E0,0E0,0E0,0E0,0E0],"parents":[2147483647,0,0,1,1,2,2,3,3,4,4,7,7],"right_children":[2,4,6,8,10,-1,-1,12,-1,-1,-1,-1,-1],"split_conditions":[5.019043E0,6.5890145E-1,4.3547077E0,3.5116549E0,1.1914995E0,5.1551084E-3,4.563791E-2,8.223429E-1,-2.0335658E-2,-4.9373835E-2,3.7800993E-3,-4.710138E-3,4.4227622E-2],"split_indices":[760,168,595,546,502,0,0,308,0,0,0,0,0],"split_type":[0,0,0,0,0,0,0,0,0,0,0,0,0],"sum_hessian":[2.979025E1,2.219959E1,7.5906606E0,1.1740327E1,1.0459263E1,3.0570283E0,4.5336323E0,6.8131986E0,4.9271283E0,7.334712E0,3.1245508E0,3.1822593E0,3.6309392E0],"tree_param":{"num_deleted":"0","num_feature":"1926","num_nodes":"13","size_leaf_vector":"1"}},{"base_weights":[6.546941E-2,4.752442E-1,-4.1554838E-1,-7.050199E-2,8.09633E-1,-7.3319376E-1,1.199242E-2,2.7219594E-2,-3.2926474E-2,7.2497725E-3,5.0988104E-2,-4.6456367E-2,-6.0731997E-3],"categories":[],"categories_nodes":[],"categories_segments":[],"categories_sizes":[],"default_left":[0,0,0,0,0,0,0,0,0,0,0,0,0],"id":41,"left_children":[1,3,5,7,9,11,-1,-1,-1,-1,-1,-1,-1],"loss_changes":[6.693224E0,3.5246058E0,3.6569629E0,3.8641644E0,1.209352E0,1.0032415E0,0E0,0E0,0E0,0E0,0E0,0E0,0E0],"parents":[2147483647,0,0,1,1,2,2,3,3,4,4,5,5],"right_children":[2,4,6,8,10,12,-1,-1,-1,-1,-1,-1,-1],"split_conditions":[3.557962E0,6.135802E-1,4.317367E0,5.4066753E-1,2.523084E0,3.3427896E0,1.199242E-2,2.7219594E-2,-3.2926474E-2,7.2497725E-3,5.0988104E-2,-4.6456367E-2,-6.0731997E-3],"split_indices":[700,402,916,439,575,612,0,0,0,0,0,0,0],"split_type":[0,0,0,0,0,0,0,0,0,0,0,0,0],"sum_hessian":[2.9922852E1,1.628322E1,1.3639633E1,6.672499E0,9.610721E0,9.1299E0,4.5097327E0,3.2511554E0,3.421344E0,3.234852E0,6.3758683E0,6.0052695E0,3.1246302E0],"tree_param":{"num_deleted":"0","num_feature":"1926","num_nodes":"13","size_leaf_vector":"1"}},{"base_weights":[-2.1604326E-2,6.3915247E-1,-2.4827501E-1,7.6999217E-3,4.173912E-2,1.8687697E-2,-4.8448157E-1,1.1456645E-2,-7.576977E-1,-4.551802E-2,-4.7653075E-3],"categories":[],"categories_nodes":[],"categories_segments":[],"categories_sizes":[],"default_left":[0,0,0,0,0,0,0,0,0,0,0],"id":42,"left_children":[1,3,5,-1,-1,-1,7,-1,9,-1,-1],"loss_changes":[5.017976E0,4.5359063E-1,4.063406E0,0E0,0E0,0E0,4.141723E0,0E0,1.1864462E0,0E0,0E0],"parents":[2147483647,0,0,1,1,2,2,6,6,8,8],"right_children":[2,4,6,-1,-1,-1,8,-1,10,-1,-1],"split_conditions":[2.99682E0,3.002045E0,2.8856773E0,7.6999217E-3,4.173912E-2,1.8687697E-2,9.233989E-2,1.1456645E-2,1.1139562E0,-4.551802E-2,-4.7653075E-3],"split_indices":[569,731,1000,0,0,0,1777,0,507,0,0],"split_type":[0,0,0,0,0,0,0,0,0,0,0],"sum_hessian":[2.9645586E1,6.5299106E0,2.3115677E1,3.0504575E0,3.479453E0,5.9249234E0,1.7190752E1,4.747479E0,1.24432745E1,9.38144E0,3.061834E0],"tree_param":{"num_deleted":"0","num_feature":"1926","num_nodes":"11","size_leaf_vector":"1"}},{"base_weights":[-9.982868E-2,5.5011845E-1,-3.6049256E-1,1.565677E-4,4.0563423E-2,1.747536E-2,-5.854118E-1,7.6934784E-3,-8.096013E-1,-3.457694E-3,-4.9926613E-2],"categories":[],"categories_nodes":[],"categories_segments":[],"categories_sizes":[],"default_left":[0,0,0,0,0,0,0,0,0,0,0],"id":43,"left_children":[1,3,5,-1,-1,-1,7,-1,9,-1,-1],"loss_changes":[5.3835926E0,1.2190971E0,4.011158E0,0E0,0E0,0E0,3.2767487E0,0E0,1.7327013E0,0E0,0E0],"parents":[2147483647,0,0,1,1,2,2,6,6,8,8],"right_children":[2,4,6,-1,-1,-1,8,-1,10,-1,-1],"split_conditions":[5.567665E-2,2.3765697E0,5.353893E-1,1.565677E-4,4.0563423E-2,1.747536E-2,3.0753858E0,7.6934784E-3,3.0163257E0,-3.457694E-3,-4.9926613E-2],"split_indices":[1917,845,488,0,0,0,569,0,546,0,0],"split_type":[0,0,0,0,0,0,0,0,0,0,0],"sum_hessian":[2.7547838E1,7.1400604E0,2.0407778E1,3.0851073E0,4.0549536E0,4.536143E0,1.5871635E1,3.7353432E0,1.2136292E1,3.1301465E0,9.0061455E0],"tree_param":{"num_deleted":"0","num_feature":"1926","num_nodes":"11","size_leaf_vector":"1"}},{"base_weights":[7.571789E-3,-4.1035208E-1,4.1218573E-1,1.4673059E-2,-6.515927E-1,7.397542E-1,-1.4705144E-2,2.38464E-3,-4.5568552E-2,4.7852483E-2,5.750313E-3],"categories":[],"categories_nodes":[],"categories_segments":[],"categories_sizes":[],"default_left":[0,0,0,0,0,0,0,0,0,0,0],"id":44,"left_children":[1,3,5,-1,7,9,-1,-1,-1,-1,-1],"loss_changes":[5.1682673E0,2.9532976E0,4.096169E0,0E0,2.325273E0,1.212729E0,0E0,0E0,0E0,0E0,0E0],"parents":[2147483647,0,0,1,1,2,2,4,4,5,5],"right_children":[2,4,6,-1,8,10,-1,-1,-1,-1,-1],"split_conditions":[5.867909E-1,3.1273181E0,8.133436E-2,1.4673059E-2,5.212119E-1,6.7457855E-1,-1.4705144E-2,2.38464E-3,-4.5568552E-2,4.7852483E-2,5.750313E-3],"split_indices":[364,865,1681,0,68,141,0,0,0,0,0],"split_type":[0,0,0,0,0,0,0,0,0,0,0],"sum_hessian":[2.6562172E1,1.2930651E1,1.3631522E1,3.0844345E0,9.846216E0,9.3444805E0,4.2870417E0,3.0050185E0,6.841198E0,6.025037E0,3.3194442E0],"tree_param":{"num_deleted":"0","num_feature":"1926","num_nodes":"11","size_leaf_vector":"1"}},{"base_weights":[-7.155513E-3,-4.1882125E-1,3.7898254E-1,9.8417085E-3,-7.523796E-1,6.733478E-1,-1.8407244E-2,-4.81002E-2,-7.00744E-3,4.5765266E-2,1.0670647E-3],"categories":[],"categories_nodes":[],"categories_segments":[],"categories_sizes":[],"default_left":[0,0,0,0,0,0,0,0,0,0,0],"id":45,"left_children":[1,3,5,-1,7,9,-1,-1,-1,-1,-1],"loss_changes":[4.9104548E0,3.4419687E0,4.005783E0,0E0,9.394808E-1,1.7843971E0,0E0,0E0,0E0,0E0,0E0],"parents":[2147483647,0,0,1,1,2,2,4,4,5,5],"right_children":[2,4,6,-1,8,10,-1,-1,-1,-1,-1],"split_conditions":[5.9848535E-1,2.7200677E0,1.2020748E-1,9.8417085E-3,4.106766E0,7.470147E-2,-1.8407244E-2,-4.81002E-2,-7.00744E-3,4.5765266E-2,1.0670647E-3],"split_indices":[364,680,1866,0,762,1687,0,0,0,0,0],"split_type":[0,0,0,0,0,0,0,0,0,0,0],"sum_hessian":[2.6869055E1,1.3048068E1,1.3820987E1,4.7678833E0,8.280185E0,1.0152349E1,3.6686373E0,5.1953645E0,3.0848198E0,6.703625E0,3.4487243E0],"tree_param":{"num_deleted":"0","num_feature":"1926","num_nodes":"11","size_leaf_vector":"1"}},{"base_weights":[-2.32471E-2,-2.8440082E-1,6.065449E-1,9.4414406E-2,-7.049819E-1,4.3393873E-2,9.970206E-4,-2.6232501E-2,3.8661733E-1,-9.3082926E-4,-5.0527163E-2,3.5375785E-2,-8.582175E-3],"categories":[],"categories_nodes":[],"categories_segments":[],"categories_sizes":[],"default_left":[0,0,0,0,0,0,0,0,0,0,0,0,0],"id":46,"left_children":[1,3,5,7,9,-1,-1,-1,11,-1,-1,-1,-1],"loss_changes":[5.2988105E0,3.8431492E0,1.3194814E0,2.8680246E0,2.2114434E0,0E0,0E0,0E0,2.1883168E0,0E0,0E0,0E0,0E0],"parents":[2147483647,0,0,1,1,2,2,3,3,4,4,8,8],"right_children":[2,4,6,8,10,-1,-1,-1,12,-1,-1,-1,-1],"split_conditions":[5.019043E0,4.242177E0,5.1939044E-2,5.979261E-1,4.2677593E-1,4.3393873E-2,9.970206E-4,-2.6232501E-2,2.9549787E0,-9.3082926E-4,-5.0527163E-2,3.5375785E-2,-8.582175E-3],"split_indices":[760,617,1708,131,151,0,0,0,693,0,0,0,0],"split_type":[0,0,0,0,0,0,0,0,0,0,0,0,0],"sum_hessian":[2.831522E1,2.0903048E1,7.4121723E0,1.168852E1,9.214528E0,4.346393E0,3.065779E0,3.128089E0,8.5604315E0,3.592966E0,5.621562E0,5.210027E0,3.3504038E0],"tree_param":{"num_deleted":"0","num_feature":"1926","num_nodes":"13","size_leaf_vector":"1"}},{"base_weights":[4.312376E-2,-2.5200295E-1,5.497749E-1,-5.776833E-1,3.2661206E-1,4.055378E-2,-4.3416405E-3,-4.2202517E-2,9.4726095E-3,3.4033008E-2,-7.963164E-3],"categories":[],"categories_nodes":[],"categories_segments":[],"categories_sizes":[],"default_left":[0,0,0,0,0,0,0,0,0,0,0],"id":47,"left_children":[1,3,5,7,9,-1,-1,-1,-1,-1,-1],"loss_changes":[4.7186804E0,4.150857E0,2.1452127E0,3.15621E0,1.7020545E0,0E0,0E0,0E0,0E0,0E0,0E0],"parents":[2147483647,0,0,1,1,2,2,3,3,4,4],"right_children":[2,4,6,8,10,-1,-1,-1,-1,-1,-1],"split_conditions":[9.0339665E-5,1.542666E-1,4.812239E0,4.4811063E-2,6.7515683E-1,4.055378E-2,-4.3416405E-3,-4.2202517E-2,9.4726095E-3,3.4033008E-2,-7.963164E-3],"split_indices":[1055,1871,929,1658,439,0,0,0,0,0,0],"split_type":[0,0,0,0,0,0,0,0,0,0,0],"sum_hessian":[2.750527E1,1.789133E1,9.613939E0,1.1560444E1,6.3308873E0,6.5389433E0,3.0749965E0,8.528858E0,3.0315855E0,3.3175075E0,3.0133796E0],"tree_param":{"num_deleted":"0","num_feature":"1926","num_nodes":"11","size_leaf_vector":"1"}},{"base_weights":[-2.5525609E-2,5.674982E-1,-3.5048136E-1,4.18157E-2,5.387858E-4,1.6829064E-2,-5.773429E-1,-4.4012412E-2,4.1196533E-3],"categories":[],"categories_nodes":[],"categories_segments":[],"categories_sizes":[],"default_left":[0,0,0,0,0,0,0,0,0],"id":48,"left_children":[1,3,5,-1,-1,-1,7,-1,-1],"loss_changes":[5.9136853E0,1.5175717E0,3.5159016E0,0E0,0E0,0E0,3.3848715E0,0E0,0E0],"parents":[2147483647,0,0,1,1,2,2,6,6],"right_children":[2,4,6,-1,-1,-1,8,-1,-1],"split_conditions":[6.5777875E-2,7.736627E-1,2.4072347E0,4.18157E-2,5.387858E-4,1.6829064E-2,3.6814313E0,-4.4012412E-2,4.1196533E-3],"split_indices":[1826,504,714,0,0,0,815,0,0],"split_type":[0,0,0,0,0,0,0,0,0],"sum_hessian":[2.6735888E1,8.8268795E0,1.7909008E1,5.15414E0,3.67274E0,4.095992E0,1.3813015E1,9.112345E0,4.7006707E0],"tree_param":{"num_deleted":"0","num_feature":"1926","num_nodes":"9","size_leaf_vector":"1"}},{"base_weights":[4.006549E-2,-5.0285125E-1,2.7133164E-1,1.5897453E-3,-3.874962E-2,5.047416E-1,-1.8234095E-2,7.610981E-1,-4.7740503E-3,4.7706816E-2,4.403962E-3],"categories":[],"categories_nodes":[],"categories_segments":[],"categories_sizes":[],"default_left":[0,0,0,0,0,0,0,0,0,0,0],"id":49,"left_children":[1,3,5,-1,-1,7,-1,9,-1,-1,-1],"loss_changes":[4.011604E0,1.5090277E0,3.7133079E0,0E0,0E0,2.8844981E0,0E0,1.3530488E0,0E0,0E0,0E0],"parents":[2147483647,0,0,1,1,2,2,5,5,7,7],"right_children":[2,4,6,-1,-1,8,-1,10,-1,-1,-1],"split_conditions":[2.6640743E-2,5.622718E-1,1.1766858E0,1.5897453E-3,-3.874962E-2,3.1747594E0,-1.8234095E-2,3.5104675E0,-4.7740503E-3,4.7706816E-2,4.403962E-3],"split_indices":[1895,194,56,0,0,637,0,822,0,0,0],"split_type":[0,0,0,0,0,0,0,0,0,0,0],"sum_hessian":[2.7961208E1,7.52188E0,2.043933E1,3.0091028E0,4.5127773E0,1.5369073E1,5.070256E0,1.0510547E1,4.8585258E0,7.4031625E0,3.1073844E0],"tree_param":{"num_deleted":"0","num_feature":"1926","num_nodes":"11","size_leaf_vector":"1"}},{"base_weights":[-2.1167712E-2,-3.7004387E-1,3.4621406E-1,-6.880281E-1,9.779643E-2,6.341959E-1,-1.2359968E-2,-1.07398145E-2,-4.3444708E-2,2.5739847E-2,-1.6732475E-2,4.484883E-2,-0E0],"categories":[],"categories_nodes":[],"categories_segments":[],"categories_sizes":[],"default_left":[0,0,0,0,0,0,0,0,0,0,0,0,0],"id":50,"left_children":[1,3,5,7,9,11,-1,-1,-1,-1,-1,-1,-1],"loss_changes":[3.9661162E0,2.5653958E0,2.9127464E0,3.6297083E-1,1.8187795E0,1.7529674E0,0E0,0E0,0E0,0E0,0E0,0E0,0E0],"parents":[2147483647,0,0,1,1,2,2,3,3,4,4,5,5],"right_children":[2,4,6,8,10,12,-1,-1,-1,-1,-1,-1,-1],"split_conditions":[7.8897357E-1,1.2995993E-1,9.149972E-1,4.296951E-1,2.3621657E0,3.4363827E-1,-1.2359968E-2,-1.07398145E-2,-4.3444708E-2,2.5739847E-2,-1.6732475E-2,4.484883E-2,-0E0],"split_indices":[143,1884,374,244,972,177,0,0,0,0,0,0,0],"split_type":[0,0,0,0,0,0,0,0,0,0,0,0,0],"sum_hessian":[2.6926294E1,1.3943169E1,1.2983126E1,7.8679156E0,6.0752535E0,8.762012E0,4.2211137E0,3.5382528E0,4.3296623E0,3.0166905E0,3.058563E0,5.55872E0,3.2032914E0],"tree_param":{"num_deleted":"0","num_feature":"1926","num_nodes":"13","size_leaf_vector":"1"}},{"base_weights":[4.7420587E-2,2.6498234E-1,-4.3873474E-1,5.234334E-1,-2.4235109E-2,9.1734035E-3,-3.989551E-2,7.5158405E-1,-1.3846509E-2,4.674514E-2,3.1786603E-3],"categories":[],"categories_nodes":[],"categories_segments":[],"categories_sizes":[],"default_left":[0,0,0,0,0,0,0,0,0,0,0],"id":51,"left_children":[1,3,5,7,-1,-1,-1,9,-1,-1,-1],"loss_changes":[3.3520732E0,4.7503405E0,2.5399065E0,3.6282864E0,0E0,0E0,0E0,1.562376E0,0E0,0E0,0E0],"parents":[2147483647,0,0,1,1,2,2,3,3,7,7],"right_children":[2,4,6,8,-1,-1,-1,10,-1,-1,-1],"split_conditions":[2.9136431E0,7.451656E-1,5.601298E-1,2.5283453E-1,-2.4235109E-2,9.1734035E-3,-3.989551E-2,2.3245847E-1,-1.3846509E-2,4.674514E-2,3.1786603E-3],"split_indices":[531,439,1629,1863,0,0,0,1642,0,0,0],"split_type":[0,0,0,0,0,0,0,0,0,0,0],"sum_hessian":[2.7658411E1,1.98782E1,7.7802095E0,1.5330162E1,4.548039E0,3.1036708E0,4.676539E0,1.2121623E1,3.2085385E0,8.889891E0,3.2317324E0],"tree_param":{"num_deleted":"0","num_feature":"1926","num_nodes":"11","size_leaf_vector":"1"}},{"base_weights":[-4.239841E-2,-3.5344514E-1,3.973747E-1,-6.742878E-1,1.2509226E-2,-7.5941905E-3,4.0671155E-2,-4.5757607E-2,-1.0139682E-2],"categories":[],"categories_nodes":[],"categories_segments":[],"categories_sizes":[],"default_left":[0,0,0,0,0,0,0,0,0],"id":52,"left_children":[1,3,5,7,-1,-1,-1,-1,-1],"loss_changes":[4.086756E0,3.7703624E0,3.1349547E0,8.889613E-1,0E0,0E0,0E0,0E0,0E0],"parents":[2147483647,0,0,1,1,2,2,3,3],"right_children":[2,4,6,8,-1,-1,-1,-1,-1],"split_conditions":[3.394956E-1,1.7347026E-1,5.833477E0,2.721492E-1,1.2509226E-2,-7.5941905E-3,4.0671155E-2,-4.5757607E-2,-1.0139682E-2],"split_indices":[1671,1763,645,501,0,0,0,0,0],"split_type":[0,0,0,0,0,0,0,0,0],"sum_hessian":[2.5854736E1,1.550688E1,1.0347856E1,1.008045E1,5.4264307E0,4.9036613E0,5.4441943E0,5.286042E0,4.7944074E0],"tree_param":{"num_deleted":"0","num_feature":"1926","num_nodes":"9","size_leaf_vector":"1"}},{"base_weights":[-3.6294155E-2,5.583928E-1,-2.6729697E-1,3.8112562E-2,5.143577E-3,-6.631239E-1,1.790233E-1,-4.3875314E-2,-1.23737E-3,3.1737477E-2,-1.990203E-2],"categories":[],"categories_nodes":[],"categories_segments":[],"categories_sizes":[],"default_left":[0,0,0,0,0,0,0,0,0,0,0],"id":53,"left_children":[1,3,5,-1,-1,7,9,-1,-1,-1,-1],"loss_changes":[4.0472565E0,5.19995E-1,4.0453362E0,0E0,0E0,1.4842644E0,3.5423198E0,0E0,0E0,0E0,0E0],"parents":[2147483647,0,0,1,1,2,2,5,5,6,6],"right_children":[2,4,6,-1,-1,8,10,-1,-1,-1,-1],"split_conditions":[2.99682E0,2.0611527E0,3.6908567E-2,3.8112562E-2,5.143577E-3,2.5978813E0,5.618334E-2,-4.3875314E-2,-1.23737E-3,3.1737477E-2,-1.990203E-2],"split_indices":[569,326,1839,0,0,161,1776,0,0,0,0],"split_type":[0,0,0,0,0,0,0,0,0,0,0],"sum_hessian":[2.550042E1,6.2201185E0,1.9280302E1,3.2150474E0,3.0050712E0,9.822014E0,9.458287E0,6.6746697E0,3.1473444E0,5.269865E0,4.188422E0],"tree_param":{"num_deleted":"0","num_feature":"1926","num_nodes":"11","size_leaf_vector":"1"}},{"base_weights":[-1.00446045E-1,4.315774E-1,-3.6035833E-1,-8.797864E-3,3.878548E-2,1.5586227E-1,-6.6934997E-1,3.3459E-2,-2.1318993E-2,-4.4081017E-2,-0E0],"categories":[],"categories_nodes":[],"categories_segments":[],"categories_sizes":[],"default_left":[0,0,0,0,0,0,0,0,0,0,0],"id":54,"left_children":[1,3,5,-1,-1,7,9,-1,-1,-1,-1],"loss_changes":[4.190345E0,2.4253545E0,3.4657195E0,0E0,0E0,3.2926898E0,1.880372E0,0E0,0E0,0E0,0E0],"parents":[2147483647,0,0,1,1,2,2,5,5,6,6],"right_children":[2,4,6,-1,-1,8,10,-1,-1,-1,-1],"split_conditions":[2.7000728E0,2.9661424E0,3.9729232E-1,-8.797864E-3,3.878548E-2,1.1931051E-1,1.6224255E-1,3.3459E-2,-2.1318993E-2,-4.4081017E-2,-0E0],"split_indices":[900,618,460,0,0,1768,1685,0,0,0,0],"split_type":[0,0,0,0,0,0,0,0,0,0,0],"sum_hessian":[2.6105564E1,8.008006E0,1.8097557E1,3.1441276E0,4.8638783E0,7.026378E0,1.107118E1,3.6667805E0,3.3595974E0,7.9538126E0,3.1173675E0],"tree_param":{"num_deleted":"0","num_feature":"1926","num_nodes":"11","size_leaf_vector":"1"}},{"base_weights":[-3.1947696E-3,-4.0478945E-1,2.9945388E-1,-6.90341E-1,1.417313E-2,-1.2579267E-2,6.3117355E-1,-8.057418E-3,-4.4082638E-2,4.211024E-2,4.6921996E-3],"categories":[],"categories_nodes":[],"categories_segments":[],"categories_sizes":[],"default_left":[0,0,0,0,0,0,0,0,0,0,0],"id":55,"left_children":[1,3,5,7,-1,-1,9,-1,-1,-1,-1],"loss_changes":[3.5604E0,2.9254336E0,3.376228E0,5.886955E-1,0E0,0E0,9.955139E-1,0E0,0E0,0E0,0E0],"parents":[2147483647,0,0,1,1,2,2,3,3,6,6],"right_children":[2,4,6,8,-1,-1,10,-1,-1,-1,-1],"split_conditions":[3.1169996E0,1.4162396E-1,4.9672022E-1,3.9242506E0,1.417313E-2,-1.2579267E-2,4.6929747E-1,-8.057418E-3,-4.4082638E-2,4.211024E-2,4.6921996E-3],"split_indices":[618,1847,134,582,0,0,190,0,0,0,0],"split_type":[0,0,0,0,0,0,0,0,0,0,0],"sum_hessian":[2.5212261E1,1.0686896E1,1.4525366E1,7.651543E0,3.0353532E0,5.5265584E0,8.998807E0,3.148836E0,4.5027075E0,5.512816E0,3.4859912E0],"tree_param":{"num_deleted":"0","num_feature":"1926","num_nodes":"11","size_leaf_vector":"1"}},{"base_weights":[5.0391745E-2,-3.0814108E-1,4.108218E-1,1.5130694E-2,-6.652873E-1,-4.447331E-3,4.2838827E-2,-4.1106198E-2,-9.726539E-3],"categories":[],"categories_nodes":[],"categories_segments":[],"categories_sizes":[],"default_left":[0,0,0,0,0,0,0,0,0],"id":56,"left_children":[1,3,5,-1,7,-1,-1,-1,-1],"loss_changes":[3.3816378E0,3.2964988E0,3.1330903E0,0E0,2.4260378E-1,0E0,0E0,0E0,0E0],"parents":[2147483647,0,0,1,1,2,2,4,4],"right_children":[2,4,6,-1,8,-1,-1,-1,-1],"split_conditions":[6.719182E-1,7.7325034E-1,1.4453325E-1,1.5130694E-2,4.291026E-1,-4.447331E-3,4.2838827E-2,-4.1106198E-2,-9.726539E-3],"split_indices":[106,382,1763,0,158,0,0,0,0],"split_type":[0,0,0,0,0,0,0,0,0],"sum_hessian":[2.212972E1,1.1100427E1,1.1029295E1,4.1053157E0,6.9951105E0,5.8501077E0,5.179187E0,3.9679513E0,3.0271595E0],"tree_param":{"num_deleted":"0","num_feature":"1926","num_nodes":"9","size_leaf_vector":"1"}},{"base_weights":[-1.0726149E-2,2.4138173E-1,-5.377096E-1,-1.52190495E-2,4.6427533E-1,-4.2525876E-2,3.593573E-3,4.586445E-2,-1.08481124E-1,-2.6641468E-2,1.5256721E-2],"categories":[],"categories_nodes":[],"categories_segments":[],"categories_sizes":[],"default_left":[0,0,0,0,0,0,0,0,0,0,0],"id":57,"left_children":[1,3,5,-1,7,-1,-1,-1,9,-1,-1],"loss_changes":[4.0553174E0,2.7834063E0,2.091855E0,0E0,4.282198E0,0E0,0E0,0E0,1.8404012E0,0E0,0E0],"parents":[2147483647,0,0,1,1,2,2,4,4,8,8],"right_children":[2,4,6,-1,8,-1,-1,-1,10,-1,-1],"split_conditions":[2.902906E0,1.0532202E0,4.2430468E0,-1.52190495E-2,9.275934E-1,-4.2525876E-2,3.593573E-3,4.586445E-2,2.871368E0,-2.6641468E-2,1.5256721E-2],"split_indices":[531,466,794,0,197,0,0,0,905,0,0],"split_type":[0,0,0,0,0,0,0,0,0,0,0],"sum_hessian":[2.6347076E1,1.842618E1,7.920897E0,5.001068E0,1.3425112E1,4.820695E0,3.1002016E0,6.9218764E0,6.5032353E0,3.0447757E0,3.4584596E0],"tree_param":{"num_deleted":"0","num_feature":"1926","num_nodes":"11","size_leaf_vector":"1"}},{"base_weights":[-6.710528E-2,2.3533976E-1,-4.9437082E-1,-1.9257938E-2,4.438489E-1,-3.548318E-2,1.5237356E-3,3.826391E-2,5.368343E-4],"categories":[],"categories_nodes":[],"categories_segments":[],"categories_sizes":[],"default_left":[0,0,0,0,0,0,0,0,0],"id":58,"left_children":[1,3,5,-1,7,-1,-1,-1,-1],"loss_changes":[3.5593038E0,2.4403286E0,1.3957868E0,0E0,1.7374244E0,0E0,0E0,0E0,0E0],"parents":[2147483647,0,0,1,1,2,2,4,4],"right_children":[2,4,6,-1,8,-1,-1,-1,-1],"split_conditions":[3.611045E0,3.8610023E-1,2.599935E0,-1.9257938E-2,3.2586697E-1,-3.548318E-2,1.5237356E-3,3.826391E-2,5.368343E-4],"split_indices":[700,333,736,0,177,0,0,0,0],"split_type":[0,0,0,0,0,0,0,0,0],"sum_hessian":[2.354248E1,1.4173759E1,9.368721E0,3.0181375E0,1.1155622E1,6.279225E0,3.0894964E0,5.390432E0,5.7651896E0],"tree_param":{"num_deleted":"0","num_feature":"1926","num_nodes":"9","size_leaf_vector":"1"}},{"base_weights":[-5.286151E-2,-4.5734E-1,3.0877432E-1,-6.563103E-1,6.6976473E-3,5.819657E-1,-1.6108207E-2,-4.583636E-3,-4.2309154E-2,4.1267976E-2,-2.162454E-3],"categories":[],"categories_nodes":[],"categories_segments":[],"categories_sizes":[],"default_left":[0,0,0,0,0,0,0,0,0,0,0],"id":59,"left_children":[1,3,5,7,-1,9,-1,-1,-1,-1,-1],"loss_changes":[4.310164E0,1.8618112E0,3.080827E0,9.149089E-1,0E0,1.9259095E0,0E0,0E0,0E0,0E0,0E0],"parents":[2147483647,0,0,1,1,2,2,3,3,5,5],"right_children":[2,4,6,8,-1,10,-1,-1,-1,-1,-1],"split_conditions":[5.9848535E-1,1.5383019E-2,7.4311525E-2,3.6563045E-1,6.6976473E-3,4.589548E0,-1.6108207E-2,-4.583636E-3,-4.2309154E-2,4.1267976E-2,-2.162454E-3],"split_indices":[364,1141,1853,136,0,785,0,0,0,0,0],"split_type":[0,0,0,0,0,0,0,0,0,0,0],"sum_hessian":[2.5433992E1,1.1886522E1,1.354747E1,8.855761E0,3.0307622E0,9.67291E0,3.874561E0,3.1073906E0,5.7483697E0,6.6167393E0,3.0561705E0],"tree_param":{"num_deleted":"0","num_feature":"1926","num_nodes":"11","size_leaf_vector":"1"}},{"base_weights":[8.685056E-3,-1.975115E-1,5.082395E-1,1.0039133E-1,-5.90868E-1,3.5243496E-2,3.8812396E-3,-2.5260275E-2,4.1151756E-1,-4.2302687E-2,-1.1058736E-3,3.5396E-2,-6.615624E-3],"categories":[],"categories_nodes":[],"categories_segments":[],"categories_sizes":[],"default_left":[0,0,0,0,0,0,0,0,0,0,0,0,0],"id":60,"left_children":[1,3,5,7,9,-1,-1,-1,11,-1,-1,-1,-1],"loss_changes":[3.0197878E0,2.5648365E0,5.412705E-1,2.8945942E0,1.2184286E0,0E0,0E0,0E0,1.8463484E0,0E0,0E0,0E0,0E0],"parents":[2147483647,0,0,1,1,2,2,3,3,4,4,8,8],"right_children":[2,4,6,8,10,-1,-1,-1,12,-1,-1,-1,-1],"split_conditions":[3.480136E0,4.97379E-1,3.3488803E0,4.0637577E-1,6.7565846E-1,3.5243496E-2,3.8812396E-3,-2.5260275E-2,6.76467E-1,-4.2302687E-2,-1.1058736E-3,3.5396E-2,-6.615624E-3],"split_indices":[839,447,609,333,422,0,0,0,168,0,0,0,0],"split_type":[0,0,0,0,0,0,0,0,0,0,0,0,0],"sum_hessian":[2.5065777E1,1.8456661E1,6.609117E0,1.1205604E1,7.251057E0,3.5033717E0,3.1057453E0,3.270561E0,7.9350424E0,4.210807E0,3.0402505E0,4.8642907E0,3.0707517E0],"tree_param":{"num_deleted":"0","num_feature":"1926","num_nodes":"13","size_leaf_vector":"1"}},{"base_weights":[1.720319E-2,-4.701968E-1,2.670786E-1,-0E0,-4.1133314E-2,5.30591E-1,-1.8722598E-2,4.23495E-2,6.891057E-2,-1.3794451E-2,1.9685864E-2],"categories":[],"categories_nodes":[],"categories_segments":[],"categories_sizes":[],"default_left":[0,0,0,0,0,0,0,0,0,0,0],"id":61,"left_children":[1,3,5,-1,-1,7,-1,-1,9,-1,-1],"loss_changes":[3.5153313E0,1.5511129E0,3.665453E0,0E0,0E0,1.9208345E0,0E0,0E0,1.15104E0,0E0,0E0],"parents":[2147483647,0,0,1,1,2,2,5,5,8,8],"right_children":[2,4,6,-1,-1,8,-1,-1,10,-1,-1],"split_conditions":[2.8735433E0,2.4769201E0,3.9047487E0,-0E0,-4.1133314E-2,5.0091153E-1,-1.8722598E-2,4.23495E-2,3.4540076E0,-1.3794451E-2,1.9685864E-2],"split_indices":[618,520,609,0,0,19,0,0,727,0,0],"split_type":[0,0,0,0,0,0,0,0,0,0,0],"sum_hessian":[2.4968578E1,7.7289863E0,1.7239594E1,4.2588964E0,3.4700897E0,1.2575762E1,4.6638308E0,6.3430085E0,6.2327538E0,3.0200965E0,3.212657E0],"tree_param":{"num_deleted":"0","num_feature":"1926","num_nodes":"11","size_leaf_vector":"1"}},{"base_weights":[-4.5522317E-2,2.5790554E-1,-4.918232E-1,6.455194E-1,-2.4837148E-1,-3.6516562E-2,-0E0,4.772657E-3,4.3457698E-2,1.3145924E-2,-3.377418E-2],"categories":[],"categories_nodes":[],"categories_segments":[],"categories_sizes":[],"default_left":[0,0,0,0,0,0,0,0,0,0,0],"id":62,"left_children":[1,3,5,7,9,-1,-1,-1,-1,-1,-1],"loss_changes":[3.6238432E0,3.4787054E0,1.2913294E0,9.268489E-1,2.1921537E0,0E0,0E0,0E0,0E0,0E0,0E0],"parents":[2147483647,0,0,1,1,2,2,3,3,4,4],"right_children":[2,4,6,8,10,-1,-1,-1,-1,-1,-1],"split_conditions":[3.283639E-1,7.754643E-1,1.4141926E-1,3.5163183E0,3.2351437E0,-3.6516562E-2,-0E0,4.772657E-3,4.3457698E-2,1.3145924E-2,-3.377418E-2],"split_indices":[1716,95,1832,897,680,0,0,0,0,0,0],"split_type":[0,0,0,0,0,0,0,0,0,0,0],"sum_hessian":[2.271393E1,1.3890408E1,8.823523E0,7.6675014E0,6.222906E0,5.329492E0,3.494031E0,3.1703384E0,4.497163E0,3.0757241E0,3.1471822E0],"tree_param":{"num_deleted":"0","num_feature":"1926","num_nodes":"11","size_leaf_vector":"1"}},{"base_weights":[4.9274743E-2,5.0516623E-1,-2.1685892E-1,4.115312E-2,-5.4577976E-3,-4.9816975E-1,1.45095335E-2,1.9398209E-3,-3.885295E-2],"categories":[],"categories_nodes":[],"categories_segments":[],"categories_sizes":[],"default_left":[0,0,0,0,0,0,0,0,0],"id":63,"left_children":[1,3,5,-1,-1,7,-1,-1,-1],"loss_changes":[3.3146374E0,2.2148824E0,2.76621E0,0E0,0E0,1.9219794E0,0E0,0E0,0E0],"parents":[2147483647,0,0,1,1,2,2,5,5],"right_children":[2,4,6,-1,-1,8,-1,-1,-1],"split_conditions":[6.1818846E-2,3.680074E-1,2.8756685E0,4.115312E-2,-5.4577976E-3,8.0619276E-1,1.45095335E-2,1.9398209E-3,-3.885295E-2],"split_indices":[1917,1795,615,0,0,70,0,0,0],"split_type":[0,0,0,0,0,0,0,0,0],"sum_hessian":[2.3276154E1,8.055818E0,1.5220337E1,4.9681354E0,3.0876822E0,9.938633E0,5.2817035E0,3.8633845E0,6.0752487E0],"tree_param":{"num_deleted":"0","num_feature":"1926","num_nodes":"9","size_leaf_vector":"1"}},{"base_weights":[1.6961174E-2,5.4816157E-1,-2.1793915E-1,3.9270464E-3,3.7952494E-2,-5.536776E-1,2.6362932E-1,-0E0,-3.7112683E-2,-7.0651816E-3,2.8905971E-2],"categories":[],"categories_nodes":[],"categories_segments":[],"categories_sizes":[],"default_left":[0,0,0,0,0,0,0,0,0,0,0],"id":64,"left_children":[1,3,5,-1,-1,7,9,-1,-1,-1,-1],"loss_changes":[3.4311604E0,6.3511944E-1,3.369566E0,0E0,0E0,1.200125E0,1.3504182E0,0E0,0E0,0E0,0E0],"parents":[2147483647,0,0,1,1,2,2,5,5,6,6],"right_children":[2,4,6,-1,-1,8,10,-1,-1,-1,-1],"split_conditions":[8.113798E-2,8.8995355E-1,3.2279224E0,3.9270464E-3,3.7952494E-2,4.0275306E-1,7.647183E-1,-0E0,-3.7112683E-2,-7.0651816E-3,2.8905971E-2],"split_indices":[1668,350,660,0,0,125,143,0,0,0,0],"split_type":[0,0,0,0,0,0,0,0,0,0,0],"sum_hessian":[2.3318386E1,6.4625635E0,1.6855824E1,3.0003097E0,3.4622536E0,9.87758E0,6.9782434E0,3.0902367E0,6.7873435E0,3.392943E0,3.5853007E0],"tree_param":{"num_deleted":"0","num_feature":"1926","num_nodes":"11","size_leaf_vector":"1"}},{"base_weights":[-3.0100795E-2,-2.2297518E-1,2.8127868E-2,-5.860035E-1,1.5292639E-1,-1.0732749E-3,-4.2186327E-2,-2.283848E-2,5.107179E-1,1.8777077E-3,3.8455483E-2],"categories":[],"categories_nodes":[],"categories_segments":[],"categories_sizes":[],"default_left":[0,0,0,0,0,0,0,0,0,0,0],"id":65,"left_children":[1,3,-1,5,7,-1,-1,-1,9,-1,-1],"loss_changes":[3.0326724E0,2.9714942E0,0E0,1.4481461E0,2.947336E0,0E0,0E0,0E0,8.6394024E-1,0E0,0E0],"parents":[2147483647,0,0,1,1,3,3,4,4,8,8],"right_children":[2,4,-1,6,8,-1,-1,-1,10,-1,-1],"split_conditions":[4.2832497E-1,8.321018E-1,2.8127868E-2,4.088937E-1,2.285115E0,-1.0732749E-3,-4.2186327E-2,-2.283848E-2,3.0623908E0,1.8777077E-3,3.8455483E-2],"split_indices":[1829,372,0,180,994,0,0,0,991,0,0],"split_type":[0,0,0,0,0,0,0,0,0,0,0],"sum_hessian":[2.2632956E1,1.8144342E1,4.4886136E0,8.796887E0,9.347455E0,3.557918E0,5.2389693E0,3.1488616E0,6.1985936E0,3.1351786E0,3.063415E0],"tree_param":{"num_deleted":"0","num_feature":"1926","num_nodes":"11","size_leaf_vector":"1"}},{"base_weights":[5.566497E-2,-3.6352867E-1,3.2111984E-1,1.1715489E-2,-3.5351858E-2,-1.2544937E-2,5.437409E-1,-0E0,3.563892E-2],"categories":[],"categories_nodes":[],"categories_segments":[],"categories_sizes":[],"default_left":[0,0,0,0,0,0,0,0,0],"id":66,"left_children":[1,3,5,-1,-1,-1,7,-1,-1],"loss_changes":[3.0069392E0,2.5288348E0,2.4022398E0,0E0,0E0,0E0,1.1342809E0,0E0,0E0],"parents":[2147483647,0,0,1,1,2,2,6,6],"right_children":[2,4,6,-1,-1,-1,8,-1,-1],"split_conditions":[4.0287602E-1,5.235401E-2,1.2710243E-1,1.1715489E-2,-3.5351858E-2,-1.2544937E-2,8.9193225E-2,-0E0,3.563892E-2],"split_indices":[103,1853,1676,0,0,0,1856,0,0],"split_type":[0,0,0,0,0,0,0,0,0],"sum_hessian":[2.2962101E1,8.470411E0,1.4491691E1,3.2167265E0,5.2536845E0,3.8628838E0,1.0628807E1,3.04705E0,7.581757E0],"tree_param":{"num_deleted":"0","num_feature":"1926","num_nodes":"9","size_leaf_vector":"1"}},{"base_weights":[2.3414088E-2,-2.8344893E-1,3.257716E-1,-3.0556792E-2,4.763071E-3,6.0396403E-1,-1.3161458E-2,4.4020075E-2,-0E0],"categories":[],"categories_nodes":[],"categories_segments":[],"categories_sizes":[],"default_left":[0,0,0,0,0,0,0,0,0],"id":67,"left_children":[1,3,5,-1,-1,7,-1,-1,-1],"loss_changes":[2.5699406E0,1.8609354E0,2.649427E0,0E0,0E0,1.7824137E0,0E0,0E0,0E0],"parents":[2147483647,0,0,1,1,2,2,5,5],"right_children":[2,4,6,-1,-1,8,-1,-1,-1],"split_conditions":[5.9848535E-1,3.6027951E0,1.0974235E-1,-3.0556792E-2,4.763071E-3,1.0202874E0,-1.3161458E-2,4.4020075E-2,-0E0],"split_indices":[364,1019,1866,0,0,494,0,0,0],"split_type":[0,0,0,0,0,0,0,0,0],"sum_hessian":[2.3662527E1,1.1641695E1,1.2020831E1,5.724795E0,5.9169E0,8.245397E0,3.7754343E0,5.121152E0,3.1242447E0],"tree_param":{"num_deleted":"0","num_feature":"1926","num_nodes":"9","size_leaf_vector":"1"}},{"base_weights":[-2.501191E-2,-3.8462588E-1,3.1204468E-1,2.0264387E-3,-3.5092726E-2,6.1597997E-1,-1.8464018E-2,2.926359E-3,4.088444E-2],"categories":[],"categories_nodes":[],"categories_segments":[],"categories_sizes":[],"default_left":[0,0,0,0,0,0,0,0,0],"id":68,"left_children":[1,3,5,-1,-1,7,-1,-1,-1],"loss_changes":[3.262318E0,1.8863028E0,3.3373957E0,0E0,0E0,9.854417E-1,0E0,0E0,0E0],"parents":[2147483647,0,0,1,1,2,2,5,5],"right_children":[2,4,6,-1,-1,8,-1,-1,-1],"split_conditions":[5.9848535E-1,6.76467E-1,1.13027304E-1,2.0264387E-3,-3.5092726E-2,9.079756E-2,-1.8464018E-2,2.926359E-3,4.088444E-2],"split_indices":[364,168,1584,0,0,1856,0,0,0],"split_type":[0,0,0,0,0,0,0,0,0],"sum_hessian":[2.2874289E1,1.1073801E1,1.18004875E1,5.342694E0,5.731107E0,8.394388E0,3.4060993E0,3.0476964E0,5.346692E0],"tree_param":{"num_deleted":"0","num_feature":"1926","num_nodes":"9","size_leaf_vector":"1"}},{"base_weights":[2.8955506E-2,2.7566765E-2,-1.9471005E-1,1.4374948E-1,-3.5255842E-2,3.2438125E-2,-1.4890551E-2],"categories":[],"categories_nodes":[],"categories_segments":[],"categories_sizes":[],"default_left":[0,0,0,0,0,0,0],"id":69,"left_children":[1,-1,3,5,-1,-1,-1],"loss_changes":[2.9861064E0,0E0,3.3232985E0,3.1441777E0,0E0,0E0,0E0],"parents":[2147483647,0,0,2,2,3,3],"right_children":[2,-1,4,6,-1,-1,-1],"split_conditions":[3.0753858E0,2.7566765E-2,3.8605275E0,1.7251859E-3,-3.5255842E-2,3.2438125E-2,-1.4890551E-2],"split_indices":[569,0,943,1486,0,0,0],"split_type":[0,0,0,0,0,0,0],"sum_hessian":[2.1414762E1,5.6758018E0,1.5738961E1,1.0209602E1,5.5293593E0,4.4304566E0,5.7791452E0],"tree_param":{"num_deleted":"0","num_feature":"1926","num_nodes":"7","size_leaf_vector":"1"}},{"base_weights":[4.4609055E-2,2.7730224E-1,-4.1440436E-1,-1.6717622E-1,5.704916E-1,5.650151E-3,-3.802381E-2,-2.7135206E-2,1.2350878E-2,3.8849212E-2,1.6411444E-3],"categories":[],"categories_nodes":[],"categories_segments":[],"categories_sizes":[],"default_left":[0,0,0,0,0,0,0,0,0,0,0],"id":70,"left_children":[1,3,5,7,9,-1,-1,-1,-1,-1,-1],"loss_changes":[2.7710502E0,2.4746432E0,1.8253134E0,1.5815028E0,1.0851121E0,0E0,0E0,0E0,0E0,0E0,0E0],"parents":[2147483647,0,0,1,1,2,2,3,3,4,4],"right_children":[2,4,6,8,10,-1,-1,-1,-1,-1,-1],"split_conditions":[2.902906E0,2.8527765E0,1.3058907E-1,2.1197762E-2,6.2968576E-1,5.650151E-3,-3.802381E-2,-2.7135206E-2,1.2350878E-2,3.8849212E-2,1.6411444E-3],"split_indices":[531,844,1820,1508,151,0,0,0,0,0,0],"split_type":[0,0,0,0,0,0,0,0,0,0,0],"sum_hessian":[2.1920485E1,1.5216306E1,6.704179E0,6.2538795E0,8.962426E0,3.0753622E0,3.6288164E0,3.0812087E0,3.172671E0,5.6979384E0,3.2644875E0],"tree_param":{"num_deleted":"0","num_feature":"1926","num_nodes":"11","size_leaf_vector":"1"}},{"base_weights":[4.0393423E-2,2.843145E-1,-3.886838E-1,-1.3106248E-2,6.245276E-1,3.4247953E-3,-3.8078435E-2,3.5104938E-3,4.0673077E-2],"categories":[],"categories_nodes":[],"categories_segments":[],"categories_sizes":[],"default_left":[0,0,0,0,0,0,0,0,0],"id":71,"left_children":[1,3,5,-1,7,-1,-1,-1,-1],"loss_changes":[2.687045E0,3.41055E0,1.7543329E0,0E0,9.2898893E-1,0E0,0E0,0E0,0E0],"parents":[2147483647,0,0,1,1,2,2,4,4],"right_children":[2,4,6,-1,8,-1,-1,-1,-1],"split_conditions":[4.0948944E0,4.2679107E-1,3.1794271E0,-1.3106248E-2,9.194063E-2,3.4247953E-3,-3.8078435E-2,3.5104938E-3,4.0673077E-2],"split_indices":[607,346,1000,0,1724,0,0,0,0],"split_type":[0,0,0,0,0,0,0,0,0],"sum_hessian":[2.166178E1,1.4389489E1,7.27229E0,5.584677E0,8.8048115E0,3.8798244E0,3.392466E0,3.0700448E0,5.734767E0],"tree_param":{"num_deleted":"0","num_feature":"1926","num_nodes":"9","size_leaf_vector":"1"}},{"base_weights":[-4.166233E-2,-5.45912E-1,2.0701204E-1,-3.834665E-2,-4.0395814E-3,-1.591796E-2,4.739845E-1,1.2378882E-3,3.7799157E-2],"categories":[],"categories_nodes":[],"categories_segments":[],"categories_sizes":[],"default_left":[0,0,0,0,0,0,0,0,0],"id":72,"left_children":[1,3,5,-1,-1,-1,7,-1,-1],"loss_changes":[3.370857E0,7.038405E-1,2.8325882E0,0E0,0E0,0E0,1.5085769E0,0E0,0E0],"parents":[2147483647,0,0,1,1,2,2,6,6],"right_children":[2,4,6,-1,-1,-1,8,-1,-1],"split_conditions":[2.7158575E-2,3.3711424E0,2.113974E-1,-3.834665E-2,-4.0395814E-3,-1.591796E-2,5.395287E-2,1.2378882E-3,3.7799157E-2],"split_indices":[1895,588,1694,0,0,0,1825,0,0],"split_type":[0,0,0,0,0,0,0,0,0],"sum_hessian":[2.2809376E1,6.8766985E0,1.5932676E1,3.6360838E0,3.2406147E0,5.1124434E0,1.0820233E1,5.148623E0,5.6716104E0],"tree_param":{"num_deleted":"0","num_feature":"1926","num_nodes":"9","size_leaf_vector":"1"}}]},"name":"gbtree"},"learner_model_param":{"base_score":"[5.0051165E-1]","boost_from_average":"1","num_class":"0","num_feature":"1926","num_target":"1"},"objective":{"name":"binary:logistic","reg_loss_param":{"scale_pos_weight":"0.955223858"}}},"version":[3,1,2]}